// Auto-generated by ai_arena/scripts/export_weights.py +
// build wrapper. Do NOT edit by hand; re-run the export script.
export default JSON.parse(`{"topology":"mlp_tanh_3layer","input_dim":65,"output_dim":18,"source":"model_elite.onnx","layers":[{"w":[[-0.4094179570674896,-0.10466543585062027,1.528741478919983,-1.5972973108291626,0.1629716008901596,-0.5399395823478699,1.1825761795043945,-0.1847805231809616,0.6904076337814331,0.32276156544685364,0.13429228961467743,0.10683818906545639,0.28861624002456665,-0.07115662097930908,-0.1237557902932167,0.5071850419044495,-0.11859840154647827,-0.709754228591919,-0.5157666206359863,0.06057826429605484,-0.1922129988670349,-0.5775939226150513,-0.6318078637123108,-0.41439053416252136,0.1936924010515213,-0.10729598999023438,-0.22295553982257843,-0.6800874471664429,0.32444286346435547,0.17491653561592102,0.17688851058483124,0.24113158881664276,0.16143199801445007,0.6638091802597046,-0.12234420329332352,-1.1951584815979004,-0.10539385676383972,0.9126431941986084,0.8852713704109192,1.1399335861206055,-0.4950096905231476,-0.12327857315540314,0.5182579159736633,-0.1770714521408081,-0.15029864013195038,0.7088211178779602,-0.4322654902935028,-0.6987648010253906,0.725774884223938,-0.34819984436035156,-0.18063849210739136,0.0625389814376831,-0.17710909247398376,0.16322244703769684,0.6127220392227173,-0.8560596108436584,-0.03655688092112541,0.13607805967330933,-0.2202325016260147,0.8990956544876099,0.06882959604263306,-0.3798335790634155,0.296921968460083,0.07998653501272202,-0.03663812205195427],[-0.36639338731765747,0.432923823595047,-0.23720259964466095,0.27364274859428406,0.05849451944231987,-0.9444887638092041,-1.1468350887298584,0.05621296912431717,0.5163150429725647,-0.7853226661682129,0.21617692708969116,-0.05342568829655647,-0.18218207359313965,-0.06026111915707588,-0.277853786945343,-0.7997803688049316,0.08500611037015915,0.1285136342048645,0.39713189005851746,0.11363023519515991,0.282956600189209,-0.38897645473480225,0.23639491200447083,0.4159499704837799,0.5189208984375,-0.041011326014995575,-0.9112368226051331,-2.4247026443481445,-0.1276758760213852,0.07999645918607712,-0.1608169823884964,-1.6372884511947632,0.09718385338783264,-0.3630630373954773,0.22044570744037628,0.15616576373577118,0.09448577463626862,-1.3705068826675415,-0.08233428746461868,0.08978968113660812,0.2193746119737625,0.7217906713485718,-0.39852434396743774,0.1058230921626091,-0.47454002499580383,-0.5572773814201355,-0.011860758997499943,0.5734100937843323,-0.41225630044937134,0.1491023600101471,-0.5346232056617737,0.6832938194274902,-0.15993261337280273,0.1762666553258896,-0.49197348952293396,-0.379803329706192,-0.1368262767791748,-0.697124183177948,-1.22379732131958,0.5214352011680603,0.026701156049966812,-0.15882547199726105,-0.1631808578968048,0.08532153815031052,-0.1026889830827713],[-0.45235475897789,-0.4021539092063904,-0.01697585918009281,-0.82184898853302,0.43329960107803345,-0.8433036208152771,-0.745559573173523,0.041392143815755844,0.9730455279350281,0.7717787623405457,0.41189053654670715,0.522849440574646,0.783367395401001,-0.11284957081079483,-0.24726052582263947,0.5357545614242554,0.13875316083431244,0.46024632453918457,0.685542643070221,-0.06142290681600571,0.40505748987197876,-0.2138347625732422,0.6964498162269592,0.13450774550437927,1.104016661643982,-0.042086511850357056,0.9272576570510864,0.9757853746414185,0.6087092757225037,0.3609704077243805,0.16874395310878754,-0.22927410900592804,-0.7232327461242676,0.03352773189544678,0.23981530964374542,0.8533902168273926,0.07943658530712128,-0.429165780544281,0.12920598685741425,0.31912437081336975,-0.25187137722969055,0.3873863220214844,-0.2148287445306778,-0.22205723822116852,0.24448174238204956,0.2899743616580963,-0.3538813591003418,0.31232041120529175,-0.03577553108334541,-0.3013318181037903,1.1683300733566284,0.3486456274986267,-0.2155659943819046,0.856735348701477,0.6705445647239685,0.013758913613855839,0.1726108193397522,-1.0516940355300903,0.02323024906218052,-0.09718015789985657,-0.34386616945266724,-0.13147500157356262,0.2613418698310852,0.07062674313783646,0.034634802490472794],[-0.3460675776004791,-0.8199108242988586,-0.4246698319911957,-0.2672218680381775,0.45056527853012085,-0.16360187530517578,0.06780547648668289,0.2130495309829712,1.3453911542892456,1.3771907091140747,0.6514551639556885,0.9901437163352966,0.6894619464874268,-0.05840720981359482,0.7829306721687317,0.6137008666992188,0.5456106662750244,0.5120116472244263,0.3353446125984192,-0.09236596524715424,1.0456414222717285,-0.21846508979797363,0.27739059925079346,0.571973443031311,0.5134926438331604,-0.10650242120027542,1.629315972328186,-0.024636277928948402,1.1652648448944092,0.6965698003768921,-0.15566430985927582,-0.26839640736579895,-0.3601287603378296,0.164438858628273,0.7794049978256226,0.4188537895679474,-0.28604844212532043,-0.22701206803321838,0.40360134840011597,0.7823169827461243,0.0005936804809607565,0.36761224269866943,0.36032533645629883,-0.054956723004579544,0.4121970236301422,0.6280704736709595,-0.05115523934364319,0.5426585674285889,-0.040496308356523514,0.13093402981758118,1.0436471700668335,0.34931278228759766,-0.11540759354829788,0.9455369114875793,0.6126850247383118,0.4344210922718048,0.1846739947795868,-0.5072882175445557,0.6340727806091309,-0.01492527686059475,-0.027537019923329353,0.1160467192530632,-0.3035241961479187,0.7569348812103271,-0.07531016319990158],[0.1517074853181839,0.26248741149902344,2.107731580734253,0.5414681434631348,0.6524379849433899,0.5180551409721375,0.1561974585056305,0.4373158812522888,0.3427552580833435,0.06482605636119843,-0.24353033304214478,0.30930569767951965,-1.1019203662872314,0.023521892726421356,0.2128276228904724,-0.6257687211036682,-0.005038225091993809,0.12346691638231277,-0.562450647354126,-0.1044379398226738,0.3246786892414093,-0.10555974394083023,0.4305534362792969,0.7594984173774719,-0.4680623412132263,-0.05244198068976402,-0.3665904104709625,-2.041868209838867,-0.2815784215927124,0.456222802400589,0.1156134307384491,-0.6584612727165222,1.045364260673523,-0.30125829577445984,-0.2525220811367035,-0.5745425224304199,-0.45616453886032104,-0.5339754819869995,0.3944190740585327,0.898719310760498,-0.10169091075658798,0.4294991195201874,0.1390165239572525,-0.09302324056625366,0.2364281862974167,0.5136756300926208,-0.09087413549423218,0.6183770298957825,-0.15638306736946106,-0.058946676552295685,-0.7233197689056396,0.6242497563362122,-0.1162080317735672,-0.3218918442726135,0.020929481834173203,-0.09376924484968185,-0.004285354632884264,-0.6011475324630737,0.08520633727312088,0.8891063928604126,0.18515914678573608,0.30604714155197144,-0.608108401298523,0.32169032096862793,0.10264972597360611],[-0.6178550124168396,-0.19884441792964935,1.355970859527588,0.7703127264976501,-0.854875385761261,0.19138918817043304,0.32771793007850647,-0.46147283911705017,0.7682976722717285,-0.7627430558204651,0.495764821767807,1.103318214416504,0.7374762296676636,0.09389461576938629,1.2634310722351074,0.4996373951435089,-0.3593514561653137,0.5101037621498108,0.5069102644920349,-0.05710870772600174,-0.14211291074752808,0.8736920356750488,-0.3582325875759125,0.08685260266065598,0.09258487075567245,0.07067500799894333,0.2698059380054474,0.009274773299694061,0.2589550316333771,0.785160481929779,0.30510812997817993,-0.49332156777381897,-0.6915181875228882,0.8382934927940369,0.619523823261261,0.3089737892150879,0.22071652114391327,-0.3456440567970276,-0.4894784688949585,-0.4580767750740051,0.7226289510726929,-0.06354191899299622,-0.33809369802474976,0.8025473952293396,-0.47262051701545715,-0.5313324928283691,0.7757063508033752,0.04166300594806671,-0.8795016407966614,0.8817346692085266,-0.2778700590133667,0.08821594715118408,0.48740723729133606,0.5671080946922302,0.3815979063510895,0.12316155433654785,-0.13500608503818512,-0.012143773958086967,-0.15608811378479004,-0.17795127630233765,-0.7044020295143127,0.23739011585712433,-0.5268386602401733,-0.16663840413093567,-0.049675025045871735],[0.4752298593521118,0.8655259013175964,1.3748703002929688,0.45669981837272644,-0.15582424402236938,1.1244959831237793,-1.2992119789123535,0.3381807208061218,0.2843646705150604,-0.5979357957839966,0.5624759197235107,-0.11660692095756531,0.42421773076057434,0.04337656870484352,0.579982578754425,-0.21970374882221222,0.35892143845558167,0.2570054531097412,0.16871687769889832,0.003510913345962763,-0.02130204252898693,0.7280870676040649,0.857271671295166,0.9876313805580139,0.33928292989730835,0.12092620879411697,-0.7654080986976624,-1.0307592153549194,-0.20831501483917236,0.18781134486198425,-0.15679313242435455,-0.23593223094940186,0.18745584785938263,-0.4737316370010376,0.47203150391578674,0.1395460069179535,0.013752806931734085,-0.19325855374336243,0.2274278998374939,-0.8348290920257568,0.1898244470357895,0.7344231009483337,-0.7309925556182861,0.0071094343438744545,0.42353951930999756,-0.5668302774429321,0.1872638612985611,0.4252512753009796,-0.6354175806045532,0.22679561376571655,0.334158331155777,-0.12798407673835754,0.00029474703478626907,-0.023395264521241188,-0.5093022584915161,0.12944531440734863,0.4173634648323059,0.4562430679798126,-0.8967444896697998,0.5889483690261841,-0.7995825409889221,0.5293939709663391,-0.007911523804068565,0.9666603803634644,-0.0982808768749237],[-0.19766899943351746,0.19234704971313477,0.6684454679489136,0.9280951023101807,-0.7768402695655823,0.3052656054496765,-0.08104284852743149,0.1179230809211731,-0.2759004831314087,-0.49022674560546875,-0.23709475994110107,-0.09947724640369415,0.038846202194690704,-0.018059806898236275,0.29694414138793945,-0.3671514093875885,0.18487893044948578,0.9269863963127136,0.0831349566578865,-0.12198379635810852,0.003366230521351099,0.21141143143177032,0.42728346586227417,0.7354191541671753,0.5652080178260803,0.0965832993388176,-2.0294036865234375,-1.1930266618728638,0.42653557658195496,0.3913363218307495,0.3274654448032379,0.2719215750694275,0.3250812292098999,-0.0042806509882211685,0.24320551753044128,-0.3295590281486511,0.10185673087835312,-0.06200804188847542,0.38589850068092346,1.5661877393722534,-0.9066147804260254,1.9405452013015747,0.3504461646080017,-0.7383362054824829,-0.7161455154418945,0.6284423470497131,-0.7956804037094116,0.5847697854042053,0.012917609885334969,-0.6378717422485352,0.003695579245686531,0.9797021150588989,-0.6952676177024841,0.00677726324647665,-0.3892035484313965,-0.5974289774894714,-0.08853070437908173,0.13221533596515656,-0.27239182591438293,0.4935249388217926,-0.919406533241272,0.1273714154958725,-0.2063569277524948,0.010120175778865814,0.23510153591632843],[0.3288387060165405,-0.03244994953274727,-0.6448423266410828,0.9321420788764954,0.52550208568573,-0.07047642022371292,1.1416783332824707,0.4038536548614502,-0.4501432478427887,0.1496795415878296,-0.14117448031902313,-1.348099946975708,-0.5888530015945435,-0.04307679459452629,-0.8390814661979675,1.310705542564392,-0.36706942319869995,0.0355788916349411,-0.9170317053794861,0.12389850616455078,-0.5171574354171753,-0.08987198770046234,-0.05894981324672699,-0.011063816025853157,-0.017102502286434174,0.09684183448553085,-1.3512440919876099,-0.2970315217971802,0.30486351251602173,-0.19223007559776306,0.024679817259311676,-0.7469688057899475,0.8129233121871948,0.48517629504203796,-0.16288308799266815,0.30497685074806213,0.3235529661178589,0.5707268714904785,-0.17331549525260925,0.6568722724914551,0.07792117446660995,-0.08040221780538559,0.15309813618659973,-0.23979029059410095,-0.46965664625167847,0.23201698064804077,-0.18228831887245178,0.8237821459770203,0.3990711569786072,-0.06748104840517044,-0.7011059522628784,0.16296394169330597,-0.08138605207204819,-0.3296859562397003,0.6242956519126892,-0.4419397711753845,0.2348223775625229,0.36736878752708435,0.6948608756065369,0.3728720545768738,-0.10207770019769669,0.03298024833202362,0.4223195016384125,0.27809232473373413,0.27699872851371765],[-0.9297940135002136,-0.48867833614349365,-0.5228844285011292,-0.25191009044647217,0.16807131469249725,-0.9374392628669739,0.05986824259161949,-0.15696090459823608,0.2702680826187134,-0.7325522303581238,-0.007492511998862028,-0.5084781050682068,-0.1123577356338501,-0.0051454417407512665,0.23934534192085266,-0.5317307710647583,-0.8082680106163025,-0.37213951349258423,-0.10703884065151215,0.03430355712771416,0.5783786177635193,-0.22814060747623444,0.31706488132476807,0.08336939662694931,1.606755018234253,0.04725703224539757,-1.1080366373062134,-0.3231191039085388,-0.2576639950275421,0.09828274697065353,0.00881518516689539,-0.31402522325515747,-1.3792601823806763,0.04727628454566002,-0.42464372515678406,-0.37631693482398987,-0.144188791513443,0.4743928015232086,0.2848860025405884,-0.46801653504371643,-0.40017247200012207,-0.008277376182377338,0.5687115788459778,-0.25743407011032104,-0.35239166021347046,0.19923116266727448,-0.4403301179409027,0.5333080291748047,0.5120168328285217,-0.613853931427002,0.4459705054759979,0.16255727410316467,-0.6260939836502075,0.22173118591308594,-0.03377890959382057,-1.1914281845092773,-0.8419860005378723,-0.16948872804641724,0.17728391289710999,-0.34767946600914,0.02502812072634697,-0.31948813796043396,-0.43344002962112427,-0.9469205737113953,-0.08739156275987625],[-0.021051345393061638,0.6119177341461182,0.3329119086265564,0.5337596535682678,0.16579703986644745,-0.15615177154541016,2.3039498329162598,-0.49394819140434265,0.74003666639328,0.2260308414697647,-0.29052019119262695,-0.9924482703208923,1.5507937669754028,0.0029728917870670557,-0.027204057201743126,-0.041257210075855255,-0.3186946213245392,-0.05965479835867882,0.41776251792907715,0.030714187771081924,-0.002252004574984312,-0.4185097813606262,-0.4338796138763428,-0.15231356024742126,0.5397558212280273,-0.09120141714811325,0.2032143771648407,0.3703531324863434,0.4479885399341583,0.17056496441364288,-0.14826060831546783,1.7900893688201904,-0.3887285590171814,-1.0490493774414062,0.15810978412628174,0.13987188041210175,0.39953795075416565,0.9040295481681824,0.2058420032262802,-0.5784458518028259,-0.09701696783304214,-0.20994721353054047,-0.04388139396905899,0.05562223866581917,-0.24959634244441986,0.04389920085668564,0.03508982062339783,-0.07239728420972824,-0.2917085587978363,-0.2019333690404892,0.7034873366355896,-0.5500761270523071,-0.17026767134666443,1.01741361618042,-0.33294686675071716,0.23935505747795105,0.2143988013267517,0.6524798274040222,0.1340044140815735,-0.12350577861070633,0.46358489990234375,-0.28638461232185364,0.650693416595459,-0.2283097207546234,-0.10928744077682495],[0.00047079584328457713,0.032575905323028564,0.07822469621896744,-0.5729495882987976,-0.6047543287277222,0.3497389853000641,2.2180418968200684,-0.7821308970451355,0.49687930941581726,0.025685565546154976,0.2908407747745514,1.4101585149765015,0.49316900968551636,-0.04794727638363838,0.003379087895154953,-0.22740361094474792,0.5461230874061584,0.8164088129997253,-0.1775307059288025,0.12243005633354187,0.49334585666656494,-0.5021447539329529,0.253910094499588,1.225614309310913,0.37852323055267334,0.07171488553285599,0.23836258053779602,-0.07105717062950134,-0.0764806792140007,-0.6264150738716125,-0.5219652056694031,-1.0662453174591064,0.8643733859062195,-0.0328122153878212,-0.09929117560386658,0.21310558915138245,-0.583741307258606,-0.5732870101928711,0.002054583979770541,-0.046635523438453674,0.30002909898757935,-0.7312106490135193,-0.14291299879550934,0.19221992790699005,0.3242456614971161,-0.40553680062294006,0.2679468095302582,0.12050405144691467,0.06980016082525253,0.16876016557216644,-0.030224233865737915,-0.5250552296638489,0.37547245621681213,-0.06832677870988846,0.02004118077456951,0.4638287127017975,0.4740646183490753,-0.846184253692627,0.28339773416519165,0.34275153279304504,0.11283447593450546,0.020540868863463402,-0.49917468428611755,1.0888386964797974,-0.5308142900466919],[-0.5059088468551636,-0.5799450874328613,-0.3382743299007416,-0.3724191188812256,-0.12648704648017883,-0.608047604560852,0.5773153901100159,-0.6552634239196777,0.865268886089325,-0.5110673904418945,-0.37765446305274963,0.19434407353401184,0.07005736976861954,0.0604495070874691,-0.009533513337373734,-0.1096026748418808,-0.979545533657074,-0.8517917990684509,-0.3114440441131592,-0.10766644030809402,0.01564284972846508,-0.6240994334220886,-0.7177859544754028,-0.8337898850440979,0.29040399193763733,0.09473136067390442,0.2820441424846649,0.624701201915741,-0.34872353076934814,-0.12528443336486816,0.07312863320112228,0.43518537282943726,-0.8226830363273621,-0.0359162874519825,-0.9541268348693848,0.22147764265537262,0.012860399670898914,0.17541176080703735,0.4624401032924652,-0.02572794258594513,-0.5185059905052185,0.1173040121793747,0.0985679104924202,-0.31378698348999023,-0.276256799697876,0.6530500650405884,-0.6022999286651611,0.08939358592033386,-0.13648249208927155,-0.631632387638092,0.3217270076274872,0.28583982586860657,-0.9105188250541687,-0.027251573279500008,-0.033140793442726135,-0.9422957301139832,-0.8058973550796509,-0.18720784783363342,0.9793418049812317,-0.11193856596946716,0.12396208196878433,-0.4950772523880005,-0.478986531496048,-1.1951019763946533,-0.27908632159233093],[0.24541805684566498,-0.2102746218442917,-0.7733995318412781,-0.5210655927658081,-0.7072136998176575,1.1187596321105957,-1.0000683069229126,-0.04609203338623047,-1.258163571357727,-0.1873454600572586,0.07160056382417679,0.06013183668255806,-0.5013495683670044,0.09228489547967911,-0.6053121089935303,-0.2040582150220871,0.44055378437042236,0.101120725274086,-0.8327773809432983,0.03812798112630844,-0.32632526755332947,-0.31731536984443665,0.08537717908620834,-0.05720100551843643,-0.3605349659919739,-0.024240201339125633,0.17094586789608002,-0.14121852815151215,0.03631880506873131,-0.2707580327987671,-0.5426244735717773,-0.43227702379226685,0.43932241201400757,-0.4944353401660919,0.2859598994255066,-0.16431300342082977,-0.10532446950674057,0.09738803654909134,-0.5584509968757629,0.13667505979537964,-0.011416911147534847,-0.3439420163631439,0.10438085347414017,-0.1457069218158722,-0.17200201749801636,0.2377370148897171,0.11171353608369827,0.009806063026189804,-0.3981412947177887,-0.07558256387710571,0.2700851857662201,-0.37578698992729187,0.19040809571743011,-0.091136135160923,0.24828842282295227,1.0435644388198853,-0.1149362251162529,0.2850426435470581,0.4525454640388489,-1.5463085174560547,0.16405245661735535,-0.11236279457807541,-0.84865802526474,-0.09563818573951721,-0.28226980566978455],[-0.14742250740528107,-0.06853242963552475,-1.3082865476608276,-0.05953601375222206,0.46640485525131226,-1.1564491987228394,1.0399391651153564,-0.36152225732803345,0.6746463179588318,0.2706294059753418,0.5310390591621399,1.2867324352264404,1.0047694444656372,-0.005694109480828047,0.21399526298046112,1.2230257987976074,0.2896246314048767,0.6930282115936279,-0.19595690071582794,-0.08251947909593582,0.2979010045528412,-0.6120791435241699,0.7244278192520142,0.9653202891349792,0.20704670250415802,-0.04617823660373688,1.1732739210128784,1.110616683959961,0.02562391385436058,-0.20103704929351807,-0.04220658540725708,0.6104126572608948,-0.6038200855255127,0.12036382406949997,0.14370672404766083,0.043656136840581894,-0.055143482983112335,-0.7373631000518799,0.16973990201950073,-0.03985047712922096,-0.17387345433235168,0.03586183115839958,0.6557183265686035,-0.24717365205287933,0.5546949505805969,0.39330384135246277,-0.288585364818573,-0.17480891942977905,0.4080567955970764,-0.2732642889022827,-0.3661920726299286,0.7909577488899231,-0.21573735773563385,0.4932180643081665,0.06974010914564133,-0.07692091166973114,0.3250415623188019,0.08727966248989105,-0.15995514392852783,0.09260381758213043,-0.42086127400398254,-0.027620522305369377,0.35812562704086304,0.6688157320022583,-0.184272900223732],[-0.34216347336769104,0.11047104001045227,0.04083070531487465,0.7457186579704285,-0.3882252871990204,-0.11946157366037369,-0.9538832902908325,0.1233469545841217,0.5115920901298523,-0.2363448143005371,0.14552415907382965,0.5397431254386902,-0.5223588347434998,-0.026444438844919205,0.23449134826660156,-0.31761717796325684,-0.33780908584594727,-0.4710496664047241,-1.5104475021362305,-0.022778404876589775,0.4220708906650543,-0.42707282304763794,-0.3807264268398285,0.07889807224273682,-0.8314067125320435,-0.052024126052856445,2.078618288040161,-0.4381508529186249,-0.20729617774486542,-0.04081607982516289,-0.1401207000017166,1.2860870361328125,-1.5190327167510986,-0.831555187702179,0.5913175940513611,0.42399120330810547,0.11142006516456604,0.2690543830394745,-0.441133588552475,0.18907614052295685,-0.018167084082961082,-0.01619649864733219,-0.2881293296813965,0.025955796241760254,0.7485340237617493,-0.05431610718369484,-0.08747135102748871,-0.3871787488460541,-0.2523346543312073,0.03155586123466492,0.6169229745864868,-0.07772975414991379,-0.09711860865354538,0.35385265946388245,-0.45023322105407715,0.41198307275772095,-0.036022648215293884,-0.10387712717056274,-0.8389477729797363,-0.6680854558944702,0.04490446299314499,-0.06584542989730835,0.12415162473917007,-0.5584695935249329,0.223698690533638],[-0.3100091516971588,0.9160731434822083,0.7173338532447815,-1.4893873929977417,-0.4059770703315735,-0.7470127940177917,0.7728461027145386,-0.27609097957611084,0.2723521590232849,-1.0978171825408936,0.9539594650268555,0.4196738004684448,0.7674605250358582,-0.06426510214805603,0.13109518587589264,-0.6307562589645386,-0.04386891424655914,0.13498391211032867,0.3711234927177429,-0.07308933883905411,-1.043639063835144,0.10214057564735413,0.314441442489624,0.6824890375137329,0.6476348042488098,-0.04737026244401932,0.2602123022079468,-1.4983446598052979,0.07681413739919662,-0.14014756679534912,0.2750166654586792,-0.5098317265510559,0.924868643283844,-0.6565927863121033,-0.043194785714149475,-0.7004414796829224,-0.3111206591129303,-0.18658237159252167,0.23707722127437592,0.04227456450462341,-0.047067172825336456,0.7092533111572266,-0.468893438577652,-0.2417040914297104,-0.1991702765226364,-0.7872785925865173,-0.35521355271339417,0.48736611008644104,-0.7216355800628662,-0.3347092866897583,-0.3307078182697296,-0.10990604013204575,-0.37342900037765503,-0.2802881896495819,-0.39889657497406006,-0.9249526262283325,0.03994397073984146,0.41431084275245667,-0.8879908323287964,0.8546198010444641,0.30484527349472046,-0.030183447524905205,-0.03132779896259308,-0.013487087562680244,-0.09623022377490997],[0.4267997443675995,-0.19718220829963684,-0.7939368486404419,-0.19670775532722473,0.708529531955719,0.4060385525226593,-0.14205819368362427,0.3864724040031433,-0.18103834986686707,0.6850054264068604,-0.045336879789829254,-1.2977474927902222,0.4907732307910919,-0.06422574073076248,-0.568566083908081,0.46033814549446106,0.32049086689949036,0.6319643259048462,-0.31044769287109375,0.05636981874704361,0.2981688678264618,0.11698011308908463,0.5239127278327942,0.1693195402622223,0.49229517579078674,-0.035386815667152405,0.16545282304286957,0.32512831687927246,-0.004672383889555931,0.6410588622093201,0.015814123675227165,0.82439124584198,-0.8193729519844055,0.6169661283493042,-0.3814440071582794,-0.05542606860399246,0.5896649956703186,1.245252013206482,-0.9293259382247925,-0.27621009945869446,0.3743324875831604,0.004005950875580311,0.2215178906917572,0.3549637198448181,-1.4830421209335327,-0.2830738425254822,0.4129219055175781,-0.9938181042671204,0.458377867937088,0.5308105945587158,-0.14211405813694,-0.2536637783050537,0.31038516759872437,0.059149131178855896,0.8186792135238647,0.40909692645072937,0.3446270227432251,0.4815780818462372,1.1695151329040527,0.3309438228607178,-0.7052732110023499,0.3870347738265991,-0.182308167219162,0.07941808551549911,0.2964573800563812],[-0.39977750182151794,-0.24189434945583344,-0.935125470161438,-0.606521725654602,0.27902495861053467,-1.3171894550323486,1.5213862657546997,-0.22521303594112396,0.6773360371589661,-0.39933523535728455,-0.25821563601493835,-0.5272432565689087,0.4161606729030609,0.044421058148145676,-0.11235958337783813,-1.1131139993667603,-0.38591769337654114,-0.4229605495929718,0.11257845163345337,-0.05713183432817459,-0.6633350849151611,-0.6740357279777527,-0.40597692131996155,-0.857660174369812,0.18487535417079926,-0.11695476621389389,-0.17869187891483307,1.1360985040664673,-0.19211749732494354,0.04313107579946518,0.3220246434211731,-0.3704022169113159,-1.0268261432647705,-0.27528470754623413,-0.42116299271583557,0.2917121350765228,0.39615368843078613,0.1324668526649475,-0.6485092639923096,-0.422762393951416,0.3599964678287506,-1.2717781066894531,-0.06531443446874619,0.3823394179344177,-1.1131538152694702,-0.269851416349411,0.24748657643795013,-0.31786686182022095,-0.13085034489631653,0.12865781784057617,-0.6970930695533752,-0.06579295545816422,0.1811978965997696,0.20578128099441528,-0.8220059275627136,-0.7076658606529236,-0.10928524285554886,-0.6620919704437256,-0.043980877846479416,0.4629616439342499,0.7139923572540283,-0.16068892180919647,0.21672992408275604,-1.629598617553711,0.14336001873016357],[-0.24134467542171478,-0.2991819381713867,-1.3973618745803833,0.5115838646888733,1.145731806755066,-0.028371699154376984,0.2650536298751831,0.4831579625606537,-1.7503224611282349,0.3066136837005615,-0.10633751004934311,-0.45789799094200134,-0.35085487365722656,-0.11068428307771683,0.17186225950717926,0.15135064721107483,0.13928908109664917,-0.26108047366142273,0.3571847081184387,0.05172738432884216,0.5119292140007019,1.0539114475250244,-0.4289471507072449,-0.033169638365507126,0.6142435073852539,-0.06885380297899246,0.30789533257484436,-0.4731103181838989,0.5819706320762634,0.26741111278533936,0.06705807894468307,-1.4567539691925049,-0.2597568929195404,0.08113954216241837,0.4809636175632477,-0.12284116446971893,0.44423314929008484,-0.06419011950492859,0.26448196172714233,0.11715094745159149,-0.1197827011346817,-0.14245255291461945,0.7445868849754333,-0.24560807645320892,0.22784441709518433,-1.2973058223724365,-0.03750531002879143,-0.19622962176799774,0.47077545523643494,-0.076634980738163,-0.1937793493270874,0.8775763511657715,-0.022369757294654846,0.04291907325387001,0.6046658158302307,-0.7952244877815247,-0.2420034408569336,0.8979307413101196,0.19310304522514343,0.8444914817810059,-0.15945057570934296,-0.27351632714271545,0.28045663237571716,0.2547804117202759,0.43838173151016235],[0.880589485168457,0.5914387702941895,0.5161380171775818,0.5234566926956177,-0.6549318432807922,0.721964955329895,-1.188433289527893,-0.2105143517255783,-0.5747920274734497,-0.732999324798584,-0.29852133989334106,0.671991229057312,-0.22724872827529907,-0.045945726335048676,0.02116219513118267,0.5355230569839478,-0.1813056468963623,-0.751122236251831,-0.12505042552947998,0.035801298916339874,-0.43594619631767273,0.7159695029258728,-0.20101213455200195,-0.8140164613723755,-0.03635808452963829,-0.03681670501828194,-0.6034415364265442,-0.22788241505622864,-0.17174553871154785,-0.5964390635490417,0.07791920751333237,0.22096480429172516,1.1066080331802368,-0.6496255397796631,0.15627500414848328,-0.5448006987571716,-0.8106645941734314,-0.12218501418828964,-0.2966194748878479,-0.7334097623825073,-0.3080274164676666,-0.23638151586055756,-1.2633482217788696,-0.24976059794425964,0.5959948301315308,0.2086750864982605,-0.2015470713376999,0.17056505382061005,-1.0891224145889282,-0.2243228256702423,-0.5171176195144653,-0.16425906121730804,-0.15314391255378723,-0.28059205412864685,-0.5376824736595154,1.308086633682251,0.243322491645813,0.6500608921051025,-0.10517629981040955,-0.26491454243659973,-0.7155423164367676,-0.44478288292884827,0.23367474973201752,1.240036964416504,-0.20341002941131592],[-0.023068347945809364,0.32862740755081177,-1.032155156135559,0.6004303097724915,1.225937843322754,-0.2771396040916443,-1.111401915550232,1.007642149925232,-1.041566014289856,-0.8226735591888428,0.16456246376037598,0.2154470533132553,-0.8748179078102112,-0.06282179057598114,-0.4226982593536377,-0.056216802448034286,-0.5082029104232788,-0.6276134252548218,-0.9998252391815186,-0.08390474319458008,-0.17713582515716553,-0.4141286313533783,-0.7831553816795349,-0.5038213133811951,-0.5298712849617004,-0.040475212037563324,2.925044536590576,0.5923008322715759,-0.09857413917779922,0.7862258553504944,0.41786739230155945,0.3382791578769684,1.1782668828964233,-0.4092257022857666,-0.08168638497591019,0.49037110805511475,0.13170935213565826,-0.4986817240715027,0.10272957384586334,-0.35574498772621155,-0.14934882521629333,-0.35627076029777527,0.3968985676765442,-0.30843469500541687,1.0061010122299194,0.08766297250986099,-0.21474693715572357,0.21534869074821472,0.8941243886947632,-0.2786395251750946,0.35626021027565,0.14584088325500488,-0.2020891159772873,-0.5047497153282166,-0.5953571796417236,-0.7118479609489441,-0.10872576385736465,-0.2744145393371582,-0.6494222283363342,-0.47730645537376404,0.27171269059181213,0.23606891930103302,0.29024651646614075,-0.7724310755729675,0.5662658214569092],[0.016865896061062813,0.17437942326068878,-0.633714497089386,0.5875182747840881,-0.27040696144104004,0.48965805768966675,1.0604534149169922,-0.03971955180168152,-1.0022454261779785,-1.0148552656173706,-0.5594006776809692,-1.2642560005187988,0.2724139094352722,-0.10348187386989594,0.15726248919963837,-0.5155687928199768,-0.5859538912773132,-0.23673683404922485,1.0166295766830444,0.12382293492555618,-0.352085679769516,-1.1726713180541992,0.24256955087184906,-0.02674446627497673,0.7299349308013916,-0.05518290773034096,-1.0413213968276978,-0.46750327944755554,0.12836842238903046,0.14637427031993866,0.301816463470459,-0.2647210955619812,0.8824705481529236,-0.3084612786769867,-0.5778390169143677,-0.10026460886001587,0.36489200592041016,0.8649987578392029,-0.5075422525405884,0.7298246026039124,-0.46153849363327026,-0.04326341301202774,0.3741718530654907,-0.3769218921661377,-0.7649883031845093,0.9743713140487671,-0.255573570728302,0.11285711079835892,0.3516403138637543,-0.27866247296333313,-0.7544028162956238,0.43662139773368835,-0.2371383160352707,-0.36586660146713257,-0.9752066135406494,-0.5657819509506226,-0.19040143489837646,0.9541261196136475,0.5157425999641418,0.44134989380836487,0.04375370219349861,0.22590892016887665,0.27375316619873047,-0.31195202469825745,0.2423490285873413],[-0.3043072819709778,-0.12608417868614197,-0.9434370994567871,-0.697281539440155,0.4793227016925812,0.8145045638084412,1.2574504613876343,0.5811787247657776,-0.3754515051841736,0.8055994510650635,-0.15931439399719238,-0.9549571871757507,0.049186039716005325,-0.04602116718888283,0.32666921615600586,0.03722967952489853,-0.08350788801908493,-0.09224863350391388,1.0078974962234497,-0.028256429359316826,0.5553786158561707,0.358107328414917,0.34388139843940735,0.4201193153858185,0.9050613045692444,0.06288714706897736,-0.4368364214897156,-0.3386804461479187,0.32375815510749817,-0.4879075288772583,-0.1375323086977005,0.5043770670890808,0.6724961400032043,-0.10817379504442215,-0.06924749910831451,-0.14328357577323914,0.25726935267448425,-0.2394719272851944,-0.08635570108890533,0.7629545331001282,-0.07796076685190201,0.9433997273445129,0.688597559928894,-0.11746912449598312,-0.39259272813796997,-0.07800795882940292,-0.24933156371116638,0.1425660252571106,0.3182520568370819,-0.2687418460845947,-0.008958758786320686,0.6380408406257629,-0.28921768069267273,0.14454008638858795,0.487515389919281,-0.9512004852294922,0.05128702148795128,1.3033690452575684,0.2571641504764557,1.1805565357208252,1.1364151239395142,0.07030895352363586,0.358727365732193,0.2389582097530365,0.33941081166267395],[-0.35785722732543945,-0.35460448265075684,0.1414625644683838,0.7025675177574158,0.24031426012516022,-0.5984565019607544,-0.5941912531852722,0.589699923992157,0.9955035448074341,0.2797517776489258,0.8170002102851868,1.3690705299377441,-0.03574416786432266,0.11190256476402283,0.6332198977470398,0.05655190721154213,0.34445610642433167,0.11733460426330566,-0.2130546122789383,0.08541285246610641,0.4404509365558624,-0.41554754972457886,0.4023319482803345,0.4814740717411041,-0.0761089026927948,0.004354814533144236,0.3555377423763275,0.5188013315200806,0.5195845365524292,0.7754645943641663,0.45452454686164856,-0.2595705986022949,-1.5548211336135864,0.4190639853477478,1.1706297397613525,0.6308732628822327,-0.34859952330589294,-0.5559455156326294,0.2251296192407608,-0.1841808557510376,0.2962337136268616,0.026273319497704506,-0.20725013315677643,0.17824800312519073,0.6026411056518555,0.006872507743537426,0.13613958656787872,-0.16041068732738495,0.5334293246269226,0.13940882682800293,0.35169270634651184,-0.0948522537946701,-0.045317936688661575,0.5123299956321716,0.8286281824111938,0.08903489261865616,-0.06380579620599747,-0.28742632269859314,0.09474760293960571,-0.9358729124069214,-0.3589869439601898,-0.054103635251522064,-0.6044674515724182,-0.5942308306694031,0.27134519815444946],[0.7935391068458557,-0.2122727334499359,0.6733027696609497,0.4801684319972992,0.022396540269255638,0.6078213453292847,-1.0229296684265137,0.23446907103061676,-0.9069969654083252,0.026865312829613686,-0.054466042667627335,-1.022884488105774,-0.718570351600647,-0.07233031094074249,-0.6974808573722839,-0.7392656803131104,0.4761355221271515,0.33289605379104614,-0.41134214401245117,0.07762998342514038,-0.3881904184818268,-0.199989914894104,0.5670074820518494,0.4304579794406891,-1.0844879150390625,0.1078873723745346,-1.637787103652954,-1.031498670578003,-0.15914958715438843,0.12260888516902924,-0.3272295892238617,-0.1043456494808197,-0.23807750642299652,-0.7654613256454468,0.4897838830947876,-0.011570409871637821,0.027114074677228928,0.20226046442985535,-0.4492288827896118,0.07124973088502884,-0.4150490462779999,0.5762746334075928,0.11906754970550537,-0.09978491067886353,-0.5256947875022888,0.42165112495422363,-0.04513232409954071,-0.5070936679840088,0.502727210521698,-0.01667645573616028,0.032576147466897964,0.07471739500761032,-0.07545389235019684,-0.66338711977005,-0.13035999238491058,1.263317584991455,0.09168758243322372,-0.3615815341472626,-0.35404881834983826,-0.33407777547836304,-0.5715476274490356,0.11888521909713745,-0.525129497051239,0.898339033126831,-0.026830017566680908],[0.1991845816373825,0.25974026322364807,0.7988337874412537,0.31447359919548035,-0.33617162704467773,0.937300443649292,0.18546922504901886,-0.2648944854736328,-0.2208525836467743,0.5962018966674805,-0.3803677558898926,-1.5086733102798462,-0.6019757986068726,0.12132590264081955,-0.38205641508102417,-0.31746748089790344,0.3981224000453949,0.0563666932284832,0.3884236812591553,0.020619191229343414,-0.7820724844932556,-0.3487590551376343,-0.0139902513474226,-0.5325272083282471,-0.5008634924888611,0.10850585997104645,-0.7782455086708069,-0.9222443699836731,0.2714064419269562,-0.12553389370441437,0.4233802258968353,-0.27221378684043884,0.5791868567466736,-0.15514175593852997,-0.4684188663959503,0.3166152536869049,0.4446449875831604,-0.4018131494522095,0.08414220809936523,-0.018543124198913574,-0.36936450004577637,0.20858339965343475,-0.6770256757736206,-0.24093231558799744,0.002265015384182334,0.3246683180332184,-0.20612606406211853,0.2182570844888687,0.13448083400726318,-0.3761143386363983,-0.5635751485824585,0.044218819588422775,0.21856725215911865,0.26641225814819336,0.3345581591129303,0.44624418020248413,0.32723402976989746,0.9990118741989136,0.6946902871131897,0.47024884819984436,0.8994322419166565,0.15702982246875763,0.13149644434452057,0.5063515305519104,0.26290756464004517],[0.14606671035289764,-0.9791557192802429,0.18384668231010437,-0.598955512046814,-0.638852059841156,0.6494890451431274,1.1189242601394653,-0.257834255695343,-0.6321262121200562,0.32086917757987976,0.07512607425451279,1.395119547843933,0.7816048860549927,-0.09350311011075974,0.1560722142457962,1.1552382707595825,-0.08980755507946014,-0.23021410405635834,0.9323245882987976,0.07354746013879776,0.2510838508605957,0.32963430881500244,-0.44583308696746826,-0.38082069158554077,-0.2499925047159195,-0.07216856628656387,-0.4198523163795471,0.5322292447090149,0.9470267295837402,-0.43767157196998596,-0.2984023988246918,-0.7110294699668884,0.5984894037246704,0.5516193509101868,0.2889035642147064,0.6319558620452881,0.06049016863107681,0.5046373009681702,0.18298497796058655,1.128082275390625,-0.5978454947471619,0.2063618004322052,0.7072046995162964,-0.2637729346752167,0.4550178647041321,0.1483755260705948,-0.24602463841438293,-0.4056013226509094,-0.37956997752189636,-0.295658677816391,0.3601950407028198,0.5478609204292297,-0.3949088454246521,-0.44525572657585144,1.0811234712600708,-0.22390028834342957,-0.23375266790390015,-0.5117723345756531,-0.1039944440126419,0.16488134860992432,0.5190223455429077,0.3548089265823364,-0.20674961805343628,0.17920362949371338,-0.29446813464164734],[-0.027710536494851112,-0.6467382311820984,1.1766347885131836,-1.4604005813598633,-0.24672411382198334,0.20076462626457214,1.4016112089157104,-0.4318368434906006,0.9265363216400146,1.3763089179992676,-0.18347233533859253,-0.21691623330116272,0.9556974172592163,-0.037224963307380676,0.19076667726039886,0.9154286980628967,-0.7878886461257935,-0.3670893907546997,0.7298581600189209,0.030223408713936806,0.6253727078437805,0.8873653411865234,0.27389463782310486,0.31712692975997925,1.3715696334838867,0.10556624084711075,-0.23153841495513916,0.5740641355514526,0.19653719663619995,-0.03464365378022194,0.06889426708221436,-0.22071029245853424,0.24430935084819794,0.716162383556366,-0.423656702041626,-1.0634444952011108,-0.5032792687416077,0.606770396232605,0.5439342856407166,1.2562533617019653,-0.2933698296546936,0.5956022143363953,0.6753579378128052,-0.015092282555997372,0.14914214611053467,-0.02615765668451786,-0.13281212747097015,0.22406108677387238,-0.5676904320716858,-0.08051054179668427,0.44439584016799927,-0.4031290113925934,0.11019532382488251,0.09345123916864395,1.2538156509399414,-0.5795155167579651,0.024009911343455315,-0.42228245735168457,0.16810433566570282,0.4097684919834137,0.18627329170703888,-0.07780613750219345,0.11679563671350479,-0.15162393450737,-0.4592741131782532],[-0.4756990969181061,-0.2498483806848526,-0.41585442423820496,0.5870571136474609,0.22085081040859222,-1.3551087379455566,-1.1064255237579346,-0.1841028332710266,0.7167162895202637,0.2869255840778351,0.0914393961429596,-0.15440987050533295,-0.5361157655715942,-0.10737708956003189,0.16662470996379852,0.419319748878479,-0.4447809159755707,0.14722324907779694,0.09858652204275131,-0.019096771255135536,0.5160841941833496,-0.05463281646370888,-0.11405542492866516,0.11901316046714783,-0.30025148391723633,-0.1234087198972702,1.8440171480178833,0.18147151172161102,0.4289920926094055,0.16362221539020538,-0.3902772068977356,0.1699029505252838,-1.1528446674346924,0.40941867232322693,0.6986193060874939,0.9823606014251709,0.37775421142578125,1.1246687173843384,-0.4232984781265259,-0.5286023020744324,-0.028792578727006912,-0.392735093832016,-0.26037636399269104,0.06302611529827118,0.08474962413311005,0.17753800749778748,0.11337241530418396,-0.40290188789367676,-0.1423131227493286,-0.0035076974891126156,0.6808865666389465,0.055751003324985504,0.026414230465888977,0.24758313596248627,-0.20222853124141693,1.232568621635437,-0.11875181645154953,0.0594109408557415,0.10190553963184357,-0.8863281607627869,-0.881687581539154,0.20017454028129578,-0.177367702126503,-0.358987033367157,-0.12772057950496674],[0.4007876515388489,0.04670080170035362,-0.49533239006996155,0.437905877828598,0.08425140380859375,0.3397503197193146,-0.6459609270095825,0.11010107398033142,-0.8982772827148438,0.8469281792640686,-0.8400861620903015,-1.331483244895935,0.21310345828533173,0.06222391501069069,-0.5138800740242004,-0.36890077590942383,-0.0825493335723877,-0.8194652795791626,-0.01937028579413891,0.011542407795786858,-0.27087998390197754,0.9034523367881775,-0.7621257305145264,-0.7348469495773315,-0.8511173725128174,0.036595046520233154,-0.9533953070640564,0.2499057948589325,-0.32119446992874146,0.28861087560653687,0.23484155535697937,0.1936320960521698,-0.09105540812015533,0.1697482466697693,-0.5116418600082397,0.036871470510959625,0.06392616033554077,1.6191097497940063,-0.11404977738857269,-0.7537122964859009,0.10439028590917587,0.6940377354621887,-0.2591371536254883,-0.09330376982688904,-0.6956210136413574,0.0490473136305809,0.06321161240339279,0.23167091608047485,-0.5223819017410278,-0.16386473178863525,-0.04393327608704567,0.09253203123807907,0.010767519474029541,0.14646251499652863,0.8380432724952698,-0.17206138372421265,0.022797532379627228,0.38315388560295105,0.13333263993263245,-0.4324423670768738,0.2523649036884308,0.027962546795606613,-0.1818428933620453,-0.5101451873779297,0.2619836628437042],[-0.10616803914308548,-0.40471532940864563,-0.8281874060630798,0.035976260900497437,0.37905651330947876,0.5180217623710632,-0.5239929556846619,0.01654023304581642,-1.1284334659576416,0.7481505274772644,-1.0001846551895142,-2.1527347564697266,-0.6036722660064697,0.06365516036748886,0.0008528691832907498,0.027889128774404526,0.06450643390417099,-0.18576379120349884,0.7562276721000671,-0.0026368186809122562,-0.32387083768844604,0.4290190041065216,-1.047067642211914,-0.9554054737091064,-0.916815996170044,-0.07525534182786942,0.4439176917076111,-0.10183099657297134,-0.1481768935918808,0.1246812492609024,0.6654403209686279,0.5564226508140564,-0.1038997620344162,-0.07897938787937164,0.18898437917232513,-0.28357750177383423,0.6602297425270081,0.013679677620530128,-0.24675293266773224,-0.043738510459661484,-0.023417767137289047,0.4222835898399353,0.17153003811836243,0.039331965148448944,-0.42933475971221924,0.5850639343261719,-0.06698340177536011,-0.16352547705173492,0.4200390875339508,-0.06652314960956573,-0.5995576977729797,0.4715956747531891,0.14578014612197876,-0.2816610336303711,0.2797769606113434,0.1298397183418274,-0.3689786195755005,1.0159412622451782,-0.22332696616649628,0.1264248490333557,-0.4043067991733551,0.2891768217086792,0.4967013895511627,-1.1347075700759888,0.4250769317150116],[-0.3914668560028076,-0.11628732830286026,0.09686791896820068,-0.827511191368103,0.5070738196372986,-1.4033293724060059,-0.8029406070709229,0.11142662167549133,1.2748887538909912,-0.7912780046463013,0.5677706599235535,1.7280333042144775,0.5028280019760132,0.08590608835220337,0.30749863386154175,-0.23729056119918823,-0.343901664018631,-0.041414931416511536,-0.2582016587257385,-0.0479436069726944,-0.27245262265205383,-0.16066798567771912,0.2317006140947342,-0.0031338054686784744,-0.5202066898345947,0.07255495339632034,-0.2054210603237152,0.963884711265564,-0.3512229025363922,0.5490002632141113,0.31839579343795776,-0.20355771481990814,0.4997493028640747,0.09379644691944122,-0.1920856535434723,0.1529165506362915,-0.16535982489585876,0.1660153865814209,0.13890440762043,-0.23079322278499603,-0.0950993150472641,0.05409608781337738,0.32666444778442383,-0.177177295088768,0.12480997294187546,0.3701813519001007,0.031006688252091408,0.4116545021533966,0.31018632650375366,0.0774703249335289,0.6706522107124329,-0.4469086825847626,-0.1266656219959259,0.07451603561639786,-0.28933683037757874,0.4048767685890198,-0.1810794323682785,0.8358051776885986,0.6430204510688782,-0.9941442608833313,-0.7491004467010498,-0.27020302414894104,-0.37657520174980164,-0.7421773672103882,0.13309906423091888],[-0.02675522118806839,0.689549446105957,1.052446722984314,0.8369340896606445,-0.1255536526441574,0.3485663831233978,1.146906852722168,0.037441302090883255,-0.5874099135398865,-0.9023140668869019,-0.18941693007946014,-1.0054439306259155,0.08974725008010864,0.09636955708265305,-0.21853521466255188,0.2712458372116089,-0.4993753135204315,-0.4171651601791382,-0.28599345684051514,0.057321421802043915,-0.5335925221443176,1.3053598403930664,-0.645980179309845,-0.9556375741958618,-0.06132771819829941,-0.0749431774020195,-2.091188907623291,-0.6935277581214905,-0.08282060921192169,-0.26346448063850403,0.4143250584602356,0.6741421818733215,0.6310255527496338,-0.3016100823879242,-0.20055870711803436,-0.11320710927248001,0.2746818959712982,-0.21540293097496033,-0.00805491954088211,-0.09579942375421524,-0.2967449128627777,0.913860023021698,-0.6373417377471924,-0.16488775610923767,-0.1448296159505844,-0.07388445734977722,-0.13622350990772247,0.12507596611976624,-0.16799522936344147,0.09383034706115723,-0.4506995975971222,0.1762012094259262,-0.2323537915945053,-0.3820241093635559,-0.4410553574562073,-1.1855683326721191,-0.17925171554088593,0.40910375118255615,-0.18315322697162628,0.7430591583251953,-0.46262848377227783,0.014078392647206783,0.42030033469200134,-0.47845250368118286,0.34370657801628113],[0.10012120008468628,-0.198516845703125,-0.840497612953186,0.6162943840026855,0.1933613419532776,0.7515596151351929,-0.6678112745285034,0.17586661875247955,-0.9574505686759949,0.7562836408615112,-0.2684992849826813,-0.9281260371208191,-1.0996551513671875,-0.050181999802589417,-0.26438093185424805,0.6068116426467896,-0.0660940483212471,-1.1969395875930786,-0.1127166748046875,-0.07666010409593582,0.3550550639629364,1.397555947303772,-0.6197267770767212,-1.2123923301696777,-0.2873372435569763,0.11991828680038452,0.216020867228508,0.6854372620582581,0.174681156873703,0.3994389772415161,0.5034050941467285,-0.4448017179965973,0.27069252729415894,0.5471343398094177,0.3330322802066803,0.39766180515289307,0.6399776935577393,0.5216903686523438,-0.15044309198856354,-0.48347458243370056,0.232222780585289,0.33058395981788635,-0.5098792314529419,0.23207269608974457,-0.11154172569513321,-0.2571745812892914,0.2664717733860016,-0.20994938910007477,0.005590916611254215,0.31340089440345764,0.11485236138105392,0.1963999718427658,0.10946733504533768,-0.4166567921638489,0.45482704043388367,-0.12194549292325974,0.11258834600448608,-0.3172655701637268,-0.3388606607913971,-0.1173243597149849,-1.0859193801879883,0.3052966594696045,0.1944025456905365,-0.1958940625190735,0.42661312222480774],[0.11217533051967621,0.7489328980445862,-1.1280910968780518,-0.36646920442581177,-0.225734144449234,-0.024763742461800575,0.6577699780464172,0.5657660961151123,-0.725688099861145,-0.2539198100566864,-0.11458183079957962,0.07219413667917252,0.4756636321544647,-0.024005116894841194,0.35642918944358826,0.045859768986701965,-0.6651458144187927,-0.3870377242565155,0.1210811659693718,0.03542960807681084,-0.33867400884628296,0.2553166449069977,-0.5018934011459351,-0.40708690881729126,-0.013569123111665249,-0.08453967422246933,0.31054604053497314,-1.3325884342193604,0.8007937073707581,0.022055283188819885,-0.18505273759365082,0.9294707775115967,0.7790204882621765,0.0072832596488296986,0.5129180550575256,0.2631336748600006,0.28661444783210754,1.0910563468933105,-0.09575371444225311,-0.36562588810920715,-0.20197899639606476,0.23358286917209625,0.4792167842388153,-0.3811784088611603,0.16993597149848938,0.18064682185649872,-0.25675296783447266,0.5403968095779419,0.11482391506433487,-0.36385414004325867,0.10584328323602676,-0.5844190120697021,-0.07595385611057281,-0.38727566599845886,-0.5638267993927002,0.3422165811061859,0.1401316523551941,0.28827229142189026,-1.59390389919281,-0.2812710106372833,-1.429366111755371,0.3547407388687134,0.5571087002754211,-0.26443421840667725,0.19321252405643463],[-0.1736028492450714,0.004592854995280504,-0.07978802174329758,0.14353728294372559,-0.07464607059955597,-0.26636871695518494,2.5374093055725098,0.07564845681190491,0.5884039402008057,-0.6159390807151794,-0.45259207487106323,-0.6269771456718445,-0.07447163760662079,0.041207730770111084,-0.18605823814868927,-0.26729586720466614,-0.22881679236888885,-0.3798305094242096,-0.7005901336669922,-0.11954957991838455,-0.5224155187606812,0.1426367312669754,-1.3470290899276733,-0.6036911010742188,0.2161739021539688,0.02744816243648529,-0.027028048411011696,0.9886856079101562,-0.5807368159294128,0.4836690127849579,0.6527284979820251,-0.0829014778137207,-0.2691807150840759,0.3175995945930481,-0.2943378686904907,0.03297554701566696,0.0009454159298911691,0.02463211491703987,0.47977250814437866,-0.6465606689453125,0.1039615273475647,0.2982485890388489,-0.5979568958282471,-0.07138083875179291,0.07007014006376266,0.09115555882453918,-0.019475359469652176,-0.4244906008243561,0.23373275995254517,-0.08527873456478119,-0.10931243747472763,-0.20726503431797028,-0.009075040929019451,-0.12549814581871033,-0.5679868459701538,-0.40077370405197144,-0.3347945213317871,-0.16510984301567078,-0.857688307762146,-0.302766352891922,-0.8628005981445312,-0.18034151196479797,0.5402934551239014,-0.6629819273948669,0.2880696952342987],[0.4319502115249634,-0.4462679922580719,0.12078075110912323,0.39056864380836487,0.49738600850105286,0.5932430028915405,-0.7816734910011292,0.09545867890119553,-0.1520288586616516,0.5587961673736572,-0.10378198325634003,-0.2922460436820984,-0.5233023762702942,0.07328227162361145,0.12429629266262054,-0.1080939993262291,1.1933730840682983,1.4833828210830688,-0.06695353239774704,0.030887600034475327,0.02640133909881115,0.0005702489870600402,1.377066731452942,1.5681519508361816,0.14112773537635803,0.008102704770863056,0.11235592514276505,-0.3619362413883209,0.09557049721479416,-0.22233298420906067,-0.2835750877857208,0.32363101840019226,0.03730952367186546,0.13198482990264893,0.6365340948104858,-0.5445887446403503,-0.5843382477760315,-0.06670162826776505,0.04717600718140602,0.5124279260635376,-0.38392719626426697,0.1914289891719818,0.25135767459869385,-0.3058399260044098,0.6309823393821716,-0.06188036501407623,-0.12918433547019958,0.04970962926745415,0.2925989031791687,-0.08170010149478912,0.19159121811389923,0.44615438580513,-0.22769364714622498,-0.4050164818763733,0.5168218016624451,1.161781907081604,0.3304664194583893,-0.289394736289978,-0.039244700223207474,-0.5147373676300049,-0.18238379061222076,-0.12451239675283432,-0.9456770420074463,1.5120928287506104,-0.3668593764305115],[0.09125668555498123,-0.35572952032089233,1.0605403184890747,-0.31281062960624695,0.558700680732727,-0.7323406338691711,0.9010311365127563,-0.3959980607032776,-0.7891222834587097,0.22564740478992462,0.10966496914625168,-0.9090926647186279,0.2534637153148651,-0.11977579444646835,-0.04118530452251434,0.2869061827659607,0.5024517178535461,0.43959158658981323,0.4588395655155182,0.02351556532084942,-0.559194028377533,1.0871046781539917,0.7250157594680786,0.9518564343452454,-0.13811840116977692,0.09249238669872284,-1.609001636505127,0.5538108348846436,0.4968465566635132,0.3140513002872467,0.15407532453536987,-0.6898114681243896,-0.7824499011039734,0.9397385120391846,0.3364844024181366,0.008185532875359058,0.28909337520599365,-0.8282982110977173,-0.8126692175865173,-0.4493371844291687,0.6214317679405212,-0.8589984178543091,0.4773654043674469,0.685396671295166,-0.52667635679245,-0.7948430776596069,0.6305145621299744,-0.8104203343391418,0.1118674948811531,0.47829535603523254,-0.35175517201423645,-0.00036284539964981377,0.3539693355560303,-0.45903655886650085,-0.036239661276340485,0.7424563765525818,0.49240636825561523,-0.9461014866828918,0.7281424403190613,-0.4298858642578125,1.0386277437210083,0.38278886675834656,0.008640454150736332,0.19774241745471954,0.10352052003145218],[-1.040855050086975,-0.11598992347717285,-0.3983445167541504,0.19304059445858002,0.9747825860977173,-1.2584019899368286,-1.8475061655044556,0.33557626605033875,0.13036984205245972,0.4919648766517639,-0.06271347403526306,-1.92035973072052,-0.9069479703903198,0.07758133858442307,1.0157839059829712,-0.46122634410858154,-0.45836764574050903,-0.3129415214061737,0.25979214906692505,0.10768094658851624,0.2774715721607208,-0.26977986097335815,0.4366648197174072,0.2782198190689087,1.0281661748886108,-0.059654269367456436,1.4042713642120361,0.5686375498771667,0.6588249206542969,0.13532313704490662,-0.1966380774974823,0.295489102602005,-1.2405781745910645,-0.03752594441175461,0.5513182282447815,-0.07844594866037369,0.3193250596523285,-0.05385835841298103,-0.10831218212842941,-0.1864887773990631,-0.0175733994692564,-0.743615448474884,0.6260700225830078,-0.13789664208889008,-0.21027180552482605,0.03747565671801567,-0.22290140390396118,-0.06837645918130875,0.6742833852767944,-0.16758373379707336,0.7763681411743164,0.2939504384994507,-0.0008871700265444815,0.7439233660697937,-0.13410532474517822,-0.4843701720237732,-0.2950778007507324,1.0755956172943115,0.8316015005111694,-0.1291387677192688,-0.1460411101579666,0.11652486771345139,-0.07925230264663696,-0.7973775267601013,0.29509615898132324],[-0.060628022998571396,-0.049337320029735565,-1.2479493618011475,-0.27899637818336487,0.7049937844276428,-1.310492992401123,-0.46784380078315735,0.41078510880470276,0.15055665373802185,-0.13083143532276154,0.015926111489534378,0.5854995250701904,0.6157517433166504,0.06506194174289703,-0.2122589647769928,0.10065902769565582,-0.32754239439964294,-0.5499424934387207,0.14627547562122345,-0.014862418174743652,0.3684544861316681,0.46838128566741943,-0.5981505513191223,-0.6602464318275452,-0.1495526134967804,-0.0903158038854599,0.198721781373024,1.4487309455871582,-0.9540748000144958,-0.08583373576402664,-0.11687696725130081,0.8168110847473145,-0.6954784393310547,0.8372379541397095,-0.07269782572984695,0.27704378962516785,0.325896292924881,0.675323486328125,-0.2269040048122406,-0.8913288116455078,0.2249346673488617,-0.33837321400642395,-0.08885311335325241,0.17214979231357574,-0.22765658795833588,0.429775595664978,0.2031678408384323,0.10401245206594467,-0.45147737860679626,0.1825041025876999,0.8088660836219788,-0.7131242156028748,0.29745638370513916,0.2758973240852356,-0.3298318386077881,0.8269572854042053,-0.08654461801052094,-0.024141326546669006,0.5001755356788635,-1.4470758438110352,-1.2120108604431152,-0.3134717643260956,0.5234630703926086,-0.3968553841114044,0.12475855648517609],[-0.0007633190834894776,0.4135012924671173,-0.5931318402290344,1.175392746925354,0.26178255677223206,0.2633340060710907,-0.4413130283355713,0.37531372904777527,-0.10142949223518372,0.12039463967084885,-0.10649016499519348,-0.46109265089035034,0.6752801537513733,-0.11719371378421783,0.5831153988838196,-0.5681810975074768,-0.18098634481430054,0.7813462615013123,0.6968302130699158,-0.04988599941134453,-0.4035443365573883,-0.887169361114502,-0.0019779508002102375,0.1901780068874359,0.11020459979772568,-0.12323866784572601,0.1727191060781479,-0.15074999630451202,-0.2614090144634247,-0.2631490230560303,-0.3742559254169464,-0.1075662150979042,0.20474210381507874,-0.9628073573112488,0.10368046909570694,-0.18109197914600372,-0.2677833139896393,-0.7018855214118958,-0.40138915181159973,-0.9277006983757019,0.22960413992404938,-0.1959908902645111,0.29304423928260803,-0.042160384356975555,0.28864604234695435,0.36353936791419983,0.12103740870952606,0.1636277586221695,0.283720463514328,0.199254110455513,0.2099727839231491,-0.9777532815933228,0.19846133887767792,0.30177727341651917,-0.7776942253112793,0.5094080567359924,0.2639410197734833,0.1038900837302208,-0.7959369421005249,-0.648685872554779,-0.8805958032608032,0.31523600220680237,0.04902730509638786,0.45362773537635803,-0.09427949041128159],[0.3501697778701782,0.11007225513458252,0.8272074460983276,-0.5796092748641968,0.2459835261106491,0.018623368814587593,1.0137463808059692,0.04544336721301079,-1.513575792312622,-0.13899223506450653,-0.26062458753585815,-0.6713168025016785,-0.20639599859714508,-0.05889880284667015,-0.18059425055980682,-0.665921151638031,-0.22750405967235565,-0.280499666929245,-0.11478331685066223,-0.12156764417886734,0.5301783084869385,-0.1364278942346573,-0.5177128911018372,-0.3763714134693146,0.31747663021087646,0.07081081718206406,-1.5128318071365356,-0.31464123725891113,-0.43019527196884155,0.24410469830036163,0.037354886531829834,-1.152034878730774,1.439084529876709,-0.22926798462867737,-0.547637403011322,-0.39063945412635803,-0.4821164906024933,0.2579275369644165,0.10937543958425522,0.3362073004245758,-0.3094712197780609,0.17118027806282043,0.16145890951156616,-0.369032621383667,-0.14720599353313446,0.10614436864852905,-0.26224207878112793,0.3558818995952606,-0.2049235999584198,-0.3971500098705292,-0.299053430557251,-0.10918661952018738,-0.22633245587348938,-0.8647950291633606,0.4267081618309021,-0.20641188323497772,-0.23463615775108337,0.6062041521072388,0.6844424605369568,-0.2398427128791809,1.2773652076721191,-0.4448213279247284,-0.32082056999206543,0.06370989978313446,-0.20309172570705414],[-0.07228322327136993,0.1486193984746933,0.18821263313293457,1.3341948986053467,0.33807289600372314,0.6333889365196228,-1.3727543354034424,0.828311562538147,-0.8338298797607422,-0.6992088556289673,-0.300234854221344,-0.9140343070030212,-1.6523569822311401,0.05721599608659744,-0.31626445055007935,-0.3662402629852295,-0.22245164215564728,-0.28783199191093445,-1.055321455001831,0.07777529209852219,0.2524767518043518,0.0725657269358635,-0.22769826650619507,-0.4373103082180023,-0.29116132855415344,-0.03898521885275841,0.0704914927482605,-0.5563799738883972,-0.282314270734787,-0.007260439917445183,0.15896329283714294,0.21358010172843933,0.4826154112815857,0.5587654709815979,-0.10246578603982925,-0.21560637652873993,0.0763336569070816,-1.7119133472442627,0.3305584490299225,-0.13226749002933502,-0.022874819114804268,0.6388126015663147,-0.0862550139427185,-0.12918798625469208,-0.06629884243011475,-0.09007849544286728,-0.24350053071975708,0.2382984161376953,0.29325610399246216,0.030233560130000114,-0.4405877888202667,0.7380951046943665,-0.29132139682769775,-0.2085433453321457,-0.3724075257778168,-0.7318542003631592,-0.34249165654182434,0.22089169919490814,-0.07396804541349411,-0.051256339997053146,0.20165768265724182,0.3615245819091797,-0.0974913015961647,-0.477976530790329,0.3530816435813904],[0.03854379430413246,-0.6485556960105896,-1.4156451225280762,0.3281998932361603,0.138972669839859,-0.7436627149581909,-0.4814644753932953,0.06074065342545509,0.5327458381652832,0.8404992818832397,0.45105722546577454,1.042166829109192,0.3401009738445282,-0.038345497101545334,0.720603346824646,-0.06743093580007553,0.5993432998657227,0.6401340365409851,-0.220992773771286,0.032090168446302414,1.1368463039398193,-1.0606005191802979,0.3125387132167816,0.6922801733016968,-0.04996945336461067,0.1055213212966919,1.8928687572479248,0.4778670370578766,0.3266742527484894,0.49142560362815857,-0.006767270155251026,-0.01596209965646267,-0.2463708519935608,0.8123845458030701,0.7623353004455566,0.1829620897769928,-0.25037384033203125,-0.456026166677475,0.1552446335554123,-0.49194884300231934,-0.10920998454093933,0.21539120376110077,0.306072473526001,0.009474625810980797,0.5374577045440674,0.2119893580675125,-0.10312612354755402,0.3848521411418915,0.06177772954106331,-0.08987072110176086,0.23358510434627533,-0.4188377261161804,-0.0013642945559695363,0.444534569978714,0.047050584107637405,1.1073105335235596,0.32128018140792847,-0.6234045028686523,-0.11846374720335007,-0.4097761809825897,-0.3942955732345581,0.07387252897024155,0.13076595962047577,0.8230025768280029,0.03839519992470741],[0.2919527292251587,0.20656007528305054,1.020828366279602,0.8954864144325256,-0.16440610587596893,0.3320803642272949,-0.4860401749610901,0.22758230566978455,0.11799146234989166,-0.37655824422836304,-0.09346573799848557,-0.1593949943780899,-0.19838789105415344,0.04137982428073883,0.7896795272827148,0.23201580345630646,0.41531115770339966,0.21369314193725586,0.2322339415550232,-0.03302325680851936,-0.19491000473499298,0.4147289991378784,0.77558833360672,0.3479795753955841,0.10534284263849258,-0.03913791477680206,-1.4824634790420532,-0.8431833982467651,-0.44766783714294434,0.2802397906780243,0.4382579028606415,0.025376809760928154,0.7266439199447632,0.6644772291183472,0.10825135558843613,-0.4936560094356537,-0.07420918345451355,0.3102112412452698,0.23239563405513763,0.3420717716217041,-0.6693182587623596,0.4465685486793518,0.3497989773750305,-0.4713321328163147,-0.3359158933162689,1.3574817180633545,-0.44073277711868286,0.22144964337348938,1.2388051748275757,-0.30537059903144836,0.5277947187423706,0.45281505584716797,-0.49312669038772583,-0.0747794359922409,-0.702940821647644,0.614525556564331,0.4608486294746399,0.7614059448242188,-0.43953803181648254,0.3335401117801666,-0.7958225607872009,0.39142337441444397,0.24237236380577087,0.509608268737793,0.07242564857006073],[0.05667898803949356,-0.15924011170864105,-0.7953163981437683,0.18109488487243652,-0.2829836905002594,1.2702323198318481,-1.6448729038238525,-0.010647333227097988,-0.6567032933235168,0.19695226848125458,-0.4408107399940491,-0.8263034820556641,-0.0056034415028989315,0.11803728342056274,0.6236538887023926,-0.7033734917640686,0.5897060632705688,0.3436526656150818,0.9437844157218933,0.017215773463249207,-0.5596003532409668,-0.37468788027763367,0.8553209900856018,1.0613774061203003,0.5399046540260315,-0.1203751340508461,0.5386981964111328,-0.4473966658115387,0.2628544270992279,-0.21870869398117065,-0.18671001493930817,0.4745025336742401,0.3969102203845978,0.20336654782295227,0.4352765679359436,-0.3272501230239868,-0.03753189742565155,0.46816301345825195,-0.9280309677124023,-0.4172537624835968,-0.18957339227199554,-0.7308892607688904,-0.05535074323415756,0.021040981635451317,-0.3258061707019806,0.6737821698188782,0.20919229090213776,-0.2885729968547821,0.20260488986968994,0.10306348651647568,-0.3860556185245514,-0.36753883957862854,0.33182796835899353,0.012282255105674267,0.07054366916418076,1.2018152475357056,0.08215737342834473,0.3350541889667511,-0.36234238743782043,-0.491019070148468,-0.5335478782653809,0.15367425978183746,-0.5437241196632385,0.8267916440963745,0.0018914529355242848],[-0.06073032319545746,-0.22896765172481537,-0.16185234487056732,0.2173369824886322,-0.06288366764783859,0.4889514446258545,-1.9216722249984741,-0.19613933563232422,-0.6260771155357361,0.6698079705238342,-0.37066158652305603,0.5160306096076965,0.5621368288993835,-0.08464358001947403,0.9020997881889343,0.014941882342100143,0.3266408443450928,0.3267601728439331,0.4165433347225189,0.08061717450618744,-0.41804254055023193,0.5550056099891663,0.8139501810073853,1.6896464824676514,-0.2156243920326233,-0.10872654616832733,0.5097976922988892,-0.4245705306529999,0.2828616797924042,0.02804562635719776,-0.19804543256759644,0.03290479630231857,0.9043369293212891,-0.029644498601555824,0.4789670407772064,0.10723277181386948,-0.5223010778427124,0.5266083478927612,0.5293041467666626,-1.1255590915679932,0.36732691526412964,0.0233874823898077,-0.727484405040741,0.37158897519111633,0.3576977849006653,-0.4911472201347351,0.4785045385360718,0.4586280286312103,-0.9310095310211182,0.3198091685771942,-0.07816354185342789,-0.8627422451972961,0.4594379663467407,-0.22945979237556458,0.33662813901901245,1.4264435768127441,0.06072452664375305,0.17451365292072296,0.251345694065094,-1.1746505498886108,-0.5532671213150024,-0.3568699359893799,-0.5759060382843018,0.6957464218139648,-0.3160921633243561],[-0.16705770790576935,-0.04335058480501175,-0.6639950275421143,0.1369144320487976,-0.15102753043174744,-0.24879321455955505,0.16530360281467438,-0.2831835150718689,-0.3855619430541992,0.08573959767818451,-1.0503119230270386,-2.068742513656616,-0.5575199723243713,0.11454102396965027,0.11796755343675613,-0.5717670917510986,-0.14294114708900452,-0.5971844792366028,0.47367751598358154,0.05972921848297119,-0.42470383644104004,0.033304259181022644,-0.4144895672798157,-0.5278197526931763,-0.31195926666259766,0.060577332973480225,0.2215668112039566,0.40935206413269043,-0.0032733294647186995,-0.3721860349178314,0.5799963474273682,1.0265253782272339,0.3120180666446686,-0.21698126196861267,-0.18387719988822937,0.3328436315059662,0.3301994800567627,-0.20526258647441864,-0.4192230701446533,-0.44041845202445984,-0.16313284635543823,-0.25438061356544495,-0.45510146021842957,-0.036862172186374664,-0.10065118223428726,-0.14238466322422028,-0.22405941784381866,0.2776170074939728,-0.6715133786201477,-0.2176171988248825,-0.6063543558120728,0.10803335160017014,-0.06584324687719345,0.2846398949623108,-0.0706886276602745,0.030151084065437317,0.004037289880216122,0.22154662013053894,0.6984584331512451,-0.23426680266857147,0.481873095035553,0.08748780190944672,0.19619059562683105,-0.5953378677368164,0.10430899262428284],[-0.19094203412532806,-0.1754593402147293,0.7782756090164185,-0.533596396446228,-0.29926756024360657,0.3600822389125824,0.018287446349859238,-0.12877801060676575,1.1103746891021729,-0.1213209256529808,0.6061123609542847,1.8661562204360962,0.8955370783805847,0.0633067712187767,-0.018568899482488632,0.6334869265556335,-0.08207050710916519,0.6980226039886475,0.17161865532398224,-0.05333247408270836,0.33078569173812866,0.22508925199508667,0.16251465678215027,0.7172994613647461,0.8022226095199585,-0.021516233682632446,0.7477145791053772,0.03365790471434593,0.41612911224365234,0.14158093929290771,-0.27654480934143066,-0.5860177874565125,0.12011267989873886,0.8209055066108704,0.5385648012161255,0.07332652807235718,-0.16890692710876465,-0.4547565281391144,0.5440382957458496,-0.17170296609401703,-0.19288358092308044,0.5411533117294312,-0.22607073187828064,-0.229897141456604,0.314660906791687,-0.6439749598503113,-0.3206349313259125,0.3464489281177521,-0.42443111538887024,-0.09267396479845047,0.5783129930496216,0.5497762560844421,-0.09651824831962585,0.2539016008377075,0.2829480767250061,-0.20182426273822784,-0.1367304027080536,-0.3099338114261627,-0.4313413202762604,-0.21959227323532104,-1.0241203308105469,0.018400127068161964,-0.3083384931087494,0.19803547859191895,-0.3790723979473114],[0.24155493080615997,0.12153229862451553,0.36039474606513977,0.9527783393859863,-0.11815857887268066,0.5544967651367188,0.5410545468330383,-0.059485141187906265,0.11870913952589035,0.4658295214176178,0.35591620206832886,1.3432520627975464,-0.29072296619415283,0.0927124097943306,0.6029451489448547,-0.4540448486804962,0.03787511959671974,0.6080461740493774,-0.6626043319702148,0.05860590562224388,-0.020402206107974052,-0.005557558499276638,0.6471362113952637,1.2509703636169434,-0.32551056146621704,0.03907810524106026,0.2748180627822876,0.570212721824646,-0.1849234700202942,0.106102354824543,-0.6970544457435608,-0.38239529728889465,0.5381291508674622,0.9130033850669861,-0.34017807245254517,-0.4141489565372467,-0.8468277454376221,0.05099937319755554,0.11336521059274673,-0.6500653624534607,0.790592610836029,0.33449262380599976,-0.9865090250968933,0.7563227415084839,0.5204774737358093,-1.0250226259231567,0.9036297798156738,-1.0857470035552979,0.3690015375614166,0.9332295060157776,-0.7576798796653748,-0.24194857478141785,0.5102862119674683,-0.38371849060058594,0.5338652729988098,0.603285014629364,0.14997266232967377,1.0387808084487915,0.18768945336341858,0.15923535823822021,-0.6327900290489197,-0.20595583319664001,-0.4801066517829895,1.0083425045013428,-0.46014460921287537],[0.4413025677204132,0.0371762216091156,0.13350249826908112,0.9996506571769714,-0.9927750825881958,0.35590386390686035,-1.3039357662200928,-0.5233944654464722,-1.296335220336914,-0.7117006778717041,0.0994374006986618,0.12414325773715973,0.254265159368515,0.08337080478668213,0.43031659722328186,-0.33624523878097534,-0.060609180480241776,0.28088507056236267,0.01339427474886179,-0.023645829409360886,-0.35677653551101685,-0.10876017063856125,0.38347432017326355,0.8078516125679016,0.31116577982902527,-0.029924433678388596,-1.2532671689987183,-1.1800343990325928,0.036012765020132065,-0.43272051215171814,-0.28364497423171997,-0.05610964447259903,-0.9335700869560242,-0.477731853723526,-0.009232088923454285,-0.09284819662570953,0.07327977567911148,-0.2394542396068573,-0.04964951425790787,-0.09466874599456787,-0.620356023311615,0.25930190086364746,0.2607310116291046,-0.6243573427200317,-0.08892039954662323,-0.016203908249735832,-0.6548728942871094,-0.13907009363174438,0.734670102596283,-0.6594536304473877,0.49655765295028687,0.06629306823015213,-0.21219618618488312,-1.0948024988174438,-0.5508390069007874,1.053776502609253,-0.08707574009895325,-0.19007231295108795,0.16511790454387665,-0.3372202217578888,-1.1124979257583618,0.2722967565059662,-0.21207796037197113,0.5724029541015625,-0.23369020223617554],[0.37197867035865784,0.5881364345550537,1.1201059818267822,0.3337973952293396,-0.2206726372241974,-0.06626094877719879,-1.9096465110778809,0.023312555626034737,-1.2049826383590698,-0.49011045694351196,-0.2831738293170929,-0.5152173042297363,-0.7649590373039246,-0.07592179626226425,0.15271899104118347,-0.7562025189399719,0.21870876848697662,0.26853296160697937,-0.7256161570549011,0.07622082531452179,-0.20046958327293396,-0.3591608703136444,0.07807253301143646,0.4217531085014343,-1.2277635335922241,-0.10167866200208664,-0.32728755474090576,-0.8915987014770508,-0.22595615684986115,-0.24122841656208038,-0.5400533676147461,-0.17660224437713623,-0.23165662586688995,0.20764845609664917,0.24441753327846527,0.11442534625530243,0.21009597182273865,-1.1847606897354126,-0.15462566912174225,-0.7975289225578308,-0.12441150099039078,-0.17517901957035065,0.40166744589805603,-0.3477252125740051,0.1649366170167923,-0.30312269926071167,-0.13839083909988403,0.3260926306247711,0.3043496608734131,-0.21231180429458618,-0.16678200662136078,0.014103187248110771,-0.03008461557328701,-0.3839949369430542,-0.46361470222473145,0.532120406627655,-0.011333642527461052,0.7532879710197449,-0.609809160232544,-0.7950803637504578,-0.8898793458938599,-0.3581472337245941,-0.1577087640762329,0.11226911842823029,-0.0013978035422042012],[-0.21455924212932587,-0.2752518951892853,0.03906304016709328,0.06619083881378174,0.48150208592414856,-0.28452354669570923,0.6712208390235901,0.33971983194351196,-0.11080175638198853,0.20621928572654724,-0.4386208653450012,-1.6953985691070557,-0.3293716311454773,-0.08585862070322037,0.01740950345993042,0.745445966720581,-0.6136249303817749,-0.5229520201683044,0.6794633269309998,-0.015547812916338444,-0.08720634132623672,0.7133021950721741,0.024945512413978577,-0.17275869846343994,0.8198174834251404,-0.06957603245973587,-0.16058234870433807,-0.07775416970252991,0.14550329744815826,0.16905780136585236,0.695586085319519,0.16406992077827454,-0.3728027045726776,0.21330703794956207,-0.07894908636808395,-0.017842669039964676,0.7482020258903503,-0.241365447640419,0.1444202959537506,0.22357653081417084,-0.19646015763282776,0.5439847707748413,0.42402392625808716,-0.5509846806526184,-0.4172877073287964,0.23446816205978394,-0.4338926672935486,0.21584244072437286,0.4744536876678467,-0.551205039024353,0.06912872940301895,0.16014829277992249,-0.39751309156417847,0.0550413616001606,0.5189265608787537,-1.185609221458435,-0.1389269232749939,1.1123566627502441,0.1536010205745697,1.064113974571228,-0.34122002124786377,0.9319159984588623,0.7510290741920471,-0.8054317235946655,0.6655890941619873],[-0.39360660314559937,-0.11317606270313263,0.794087827205658,-0.7299318909645081,-0.11514520645141602,-1.126146912574768,-0.20204292237758636,0.3577101230621338,1.0426814556121826,0.607865571975708,0.03072376735508442,0.4371938705444336,-0.057429902255535126,0.11186675727367401,0.9329050779342651,0.3650836944580078,-0.735493540763855,-0.7004197835922241,-0.7656302452087402,0.07944852858781815,1.4436074495315552,0.10157003998756409,-0.8528439402580261,-0.4227820634841919,-0.2589285969734192,-0.06069942191243172,1.9359294176101685,0.380612850189209,0.15799689292907715,0.3408052325248718,0.5166958570480347,0.06285947561264038,0.12682723999023438,0.2605372369289398,0.33024704456329346,-0.04774930700659752,-0.2995065450668335,-0.35781750082969666,-0.20523113012313843,0.11320735514163971,0.5362396836280823,-0.44052350521087646,-0.6416621804237366,0.3701104521751404,0.1801677942276001,0.8656261563301086,0.2841484546661377,0.13873396813869476,0.19249534606933594,0.28898200392723083,0.5794016718864441,0.1781446784734726,0.11891379952430725,0.4996926486492157,0.22546689212322235,0.25766730308532715,-0.24732083082199097,1.111061930656433,-0.7258407473564148,-1.099389910697937,0.30186787247657776,-0.0012243549572303891,0.15709468722343445,-0.8708458542823792,0.338004469871521],[-0.20517006516456604,-0.2481185495853424,-0.09005315601825714,-1.3427802324295044,-0.31408435106277466,-0.20592579245567322,1.2010749578475952,-0.7303016185760498,0.26736098527908325,-0.2015109807252884,0.30815547704696655,0.3814038634300232,0.23983915150165558,-0.04250515252351761,-0.31074851751327515,0.2477414458990097,-0.43011361360549927,-0.3480808436870575,0.4952259361743927,-0.04311077296733856,0.03464164957404137,-0.1152682974934578,-1.176536202430725,-0.9224927425384521,0.4515615403652191,0.017017386853694916,-0.720112144947052,1.5607028007507324,0.019866960123181343,0.4675658047199249,0.5956785082817078,-0.143881157040596,-0.865957498550415,0.1608124077320099,-0.3314848840236664,-0.27816975116729736,0.25838837027549744,1.0272310972213745,0.03451656177639961,-0.31413084268569946,0.500694215297699,-0.5871508121490479,-0.294805645942688,0.43289268016815186,-0.6931633949279785,-0.5919618606567383,0.32054057717323303,-0.10103537887334824,-0.9686973690986633,0.16188021004199982,0.043190330266952515,0.346672922372818,-0.03373248502612114,0.26263532042503357,0.02891201339662075,-0.04042362794280052,-0.09884761273860931,-0.1678159534931183,2.2058234214782715,-0.08209815621376038,0.22192753851413727,-0.3140088617801666,0.45372718572616577,-0.42786434292793274,0.08219602704048157],[0.23728102445602417,-0.16178016364574432,0.3346819579601288,0.7056264877319336,-0.028609689325094223,0.0013638966483995318,-2.092111110687256,-0.04874502122402191,-0.06233414635062218,0.12577073276042938,-0.09949440509080887,0.08004505187273026,-0.4223009943962097,-0.08039765059947968,-0.24630026519298553,-0.3641822040081024,0.8329347968101501,0.8717597723007202,-0.46601876616477966,-0.015297351405024529,0.07901912927627563,0.40561240911483765,0.9470549821853638,1.2079589366912842,-0.8695759177207947,0.05256140977144241,0.5481616854667664,-0.06415964663028717,-0.26094773411750793,-0.17709697782993317,-0.5517874360084534,0.9958440065383911,-0.7562937140464783,-0.843147337436676,-0.11471614241600037,-0.7203474640846252,-0.6458284258842468,-0.4764988124370575,-1.1352225542068481,0.1688438504934311,-0.026396822184324265,0.4523092806339264,-0.03663436695933342,-0.22576697170734406,-1.1125839948654175,0.5361846685409546,-0.07137253135442734,0.1085558533668518,0.3013812005519867,-0.10490044951438904,-0.11304518580436707,-0.4301358759403229,0.222837895154953,0.08000949025154114,-0.16736643016338348,1.202462911605835,0.14012432098388672,-0.1638328582048416,-0.6105783581733704,-0.7162944078445435,-0.46040108799934387,0.21427921950817108,-1.0014921426773071,0.20216727256774902,-0.4835846722126007],[-0.693291962146759,0.062157727777957916,-0.20344392955303192,-0.9309158325195312,-0.5014289617538452,0.41667822003364563,1.5981241464614868,-0.6763117909431458,0.4260978400707245,-0.2696821987628937,0.26013392210006714,0.6431796550750732,0.18844328820705414,-0.04154226556420326,0.05086382478475571,0.5991568565368652,-0.33400970697402954,0.0360131561756134,0.28716447949409485,-0.09301113337278366,-0.046780191361904144,0.43828296661376953,-0.5424626469612122,-0.5296088457107544,1.15093994140625,0.09743984788656235,-0.08978103846311569,1.0857642889022827,0.22437667846679688,0.15815062820911407,0.17342060804367065,-0.3934555947780609,-0.12619715929031372,0.45384547114372253,-0.052462320774793625,0.0017245832132175565,0.49620336294174194,0.9817007780075073,0.22543412446975708,-0.40248116850852966,0.3773055672645569,0.32441383600234985,-0.5339646935462952,0.17584501206874847,0.00036458560498431325,-0.9202908873558044,0.2575365900993347,-0.16155754029750824,-0.5119763016700745,0.133233904838562,-0.09791804850101471,0.10417481511831284,0.010646408423781395,0.2429845780134201,0.6053692698478699,-0.8215778470039368,0.06736081093549728,-0.6814526915550232,-0.6668453216552734,0.7240703701972961,0.10896962136030197,0.11981303244829178,0.577228844165802,-0.4957406520843506,-0.05155404284596443],[-0.48878875374794006,-0.2563641369342804,-1.5756947994232178,-0.5720265507698059,0.38376709818840027,-0.8012527823448181,-0.7237714529037476,0.11776327341794968,0.17773623764514923,-0.29306498169898987,0.35394182801246643,1.033073902130127,0.18692176043987274,0.09413743019104004,0.08855276554822922,-0.1548914909362793,-0.5112416744232178,-0.4764053523540497,-0.3305237293243408,0.013873908668756485,0.3310582637786865,-1.277883529663086,0.34078657627105713,0.1363113671541214,-0.20825549960136414,-0.10117516666650772,0.816626787185669,0.7415722012519836,-0.0032884750980883837,0.7706846594810486,0.09366758912801743,0.4764743447303772,-0.9062464833259583,-0.08385912328958511,-0.17431263625621796,0.5293594002723694,0.6449764966964722,0.6674838662147522,-0.5289968848228455,0.16036896407604218,0.47420209646224976,-0.3079611659049988,-0.29697510600090027,0.32038724422454834,-0.394745796918869,-0.2987397313117981,0.22989630699157715,-0.8495044708251953,0.6475951075553894,0.2979135513305664,0.13175931572914124,-0.6644112467765808,0.0931973084807396,0.4112448990345001,-0.3675152659416199,-0.6813958883285522,-0.2653873562812805,-0.06498127430677414,0.16758005321025848,-0.5323281288146973,-0.34979677200317383,-0.1646219789981842,-0.3042200803756714,-0.9758840203285217,0.20562896132469177],[0.48285484313964844,0.13582590222358704,-0.6177911758422852,0.26298436522483826,-0.02904646284878254,0.5186096429824829,-0.04993024840950966,0.32473933696746826,-0.7159193754196167,-0.23603059351444244,0.09542464464902878,0.8927828073501587,0.017874116078019142,0.039691489189863205,-0.0943743884563446,0.1248190626502037,0.5814999341964722,-0.378688246011734,0.6319707632064819,0.11136185377836227,0.5046992301940918,0.1207067146897316,0.29746440052986145,0.44570502638816833,0.06904992461204529,-0.005414001643657684,-0.8725934624671936,0.026606107130646706,0.08934753388166428,0.2864099144935608,0.5124930739402771,0.39330118894577026,0.5111319422721863,-0.17429789900779724,-0.15022985637187958,1.3816241025924683,0.6803480386734009,0.6964980363845825,0.04498882219195366,0.08356685936450958,0.2029019296169281,-0.989008903503418,-0.6241961121559143,0.4118380844593048,0.5484272241592407,-0.324400395154953,0.32911720871925354,-0.9922603964805603,-1.5050221681594849,0.23688215017318726,0.18333256244659424,0.5713666677474976,0.49663662910461426,-0.41593608260154724,0.24137547612190247,0.805718183517456,0.37484312057495117,0.6637846231460571,1.0434560775756836,-0.29810670018196106,-0.9258655905723572,0.03968482092022896,0.41733795404434204,0.5921849608421326,0.6527497172355652],[0.5142498016357422,-0.07195939123630524,-0.15592527389526367,-0.018722081556916237,-0.46590667963027954,0.7042226195335388,-0.4118991196155548,-0.3926190435886383,-1.0157699584960938,-0.10818888992071152,-0.40294572710990906,-0.6481881141662598,0.527633786201477,-0.05708818510174751,0.01812922954559326,0.3808120787143707,0.031389497220516205,-0.05361717939376831,0.5271741151809692,0.11864029616117477,-0.27915599942207336,0.05283455178141594,0.387161523103714,-0.26456090807914734,0.47653552889823914,-0.009434384293854237,-0.749830424785614,1.0581767559051514,-0.17256379127502441,-0.10035959631204605,-0.20557500422000885,-0.5006268620491028,1.285041332244873,0.3580271303653717,-0.6434912085533142,-0.8876407742500305,0.11761695146560669,0.38311219215393066,-0.29115310311317444,0.02185048721730709,0.0446409210562706,-0.47054263949394226,-0.6344439387321472,0.008664495311677456,-1.171863317489624,0.08567575365304947,-0.0352727472782135,-0.17432910203933716,0.06695515662431717,-0.2124825268983841,-0.11679583042860031,-0.3222114145755768,-0.05075155571103096,0.04031006619334221,-0.1579769253730774,0.031013166531920433,0.12718252837657928,1.3600504398345947,1.854018211364746,-0.09957867115736008,0.9506993293762207,-0.365253210067749,-0.33386796712875366,0.24374385178089142,-0.06601406633853912],[-0.23652487993240356,-0.5230592489242554,-0.7197556495666504,0.28759583830833435,-0.009030438028275967,-0.19281668961048126,-1.4005085229873657,0.17005877196788788,0.5196065902709961,0.5763511657714844,-0.20271147787570953,-0.15099716186523438,0.44012919068336487,0.09589377045631409,0.39122501015663147,-0.22348007559776306,-0.3065376579761505,-0.7175103425979614,-0.2606954276561737,0.05450638756155968,0.6578242182731628,0.015690933912992477,-0.7871550917625427,-0.4120148718357086,-0.8601357936859131,0.07060021907091141,3.10063099861145,0.9499334096908569,-0.3112518787384033,-0.3408098518848419,0.007059553638100624,1.544851541519165,-0.3787362575531006,-0.2935091555118561,0.1139262318611145,-0.021556120365858078,-0.1570740044116974,0.599855363368988,-0.15799488127231598,-0.22378067672252655,0.38297373056411743,0.3378237783908844,-0.5909178853034973,0.35634416341781616,0.3819012939929962,0.5637274980545044,0.21908292174339294,-0.21771034598350525,1.290386438369751,0.2927657663822174,0.3996874690055847,-0.6069799661636353,0.11414706707000732,0.24109810590744019,0.2178477942943573,0.6834747791290283,0.039046961814165115,0.8175622820854187,-0.14541395008563995,-0.7954087257385254,-0.5104068517684937,-0.021751364693045616,0.23556587100028992,-0.21680307388305664,0.060294926166534424],[0.28026720881462097,0.3344888985157013,1.2646100521087646,0.737669050693512,0.12286847084760666,0.66899573802948,-0.8080322742462158,-0.20041970908641815,-0.11896909028291702,1.0439622402191162,0.08781760931015015,0.2701360583305359,-0.7170313000679016,-0.03331376239657402,-0.20338597893714905,0.05657365545630455,0.4759395122528076,0.2373095601797104,-0.05495971068739891,-0.06679314374923706,0.5641021132469177,0.5144193172454834,0.048274170607328415,0.044414229691028595,-0.22176168859004974,0.05196822062134743,-2.2202680110931396,-1.336713194847107,-0.2902418076992035,-0.2754352390766144,-0.27253398299217224,-0.830608606338501,1.3031224012374878,-0.6017829179763794,-0.30893653631210327,-0.5559266209602356,0.027286209166049957,0.5761883854866028,0.2703911066055298,0.5566925406455994,-0.2990236282348633,0.34878212213516235,0.470307320356369,-0.37820565700531006,0.5461214780807495,0.220083087682724,-0.20453934371471405,1.0385547876358032,0.10914760828018188,-0.16891087591648102,-0.15858756005764008,0.27028658986091614,-0.12866322696208954,0.10217417776584625,0.2777113914489746,0.6805378198623657,0.1758870929479599,0.21828213334083557,-0.3997853398323059,0.1485312134027481,0.551802396774292,0.29310479760169983,-0.43896403908729553,0.3121883273124695,0.0581652857363224],[-0.3559407591819763,-0.04740248620510101,-0.5318472981452942,-0.8156648874282837,-0.07950109243392944,-1.4431474208831787,-0.3393469452857971,0.13432617485523224,0.9491392970085144,-0.016952088102698326,-0.17528840899467468,-0.009163891896605492,0.24149741232395172,-0.0757603868842125,-0.6776231527328491,-0.185402050614357,-0.3101862370967865,0.5425189733505249,-0.08242958784103394,0.11458250135183334,-0.37681615352630615,0.49018383026123047,0.032198574393987656,-0.5500397682189941,0.3420625925064087,-0.06370629370212555,1.066945195198059,0.6272095441818237,0.16623613238334656,0.1537284404039383,0.13572806119918823,1.1438137292861938,-1.0961637496948242,-0.4587201774120331,0.4173046946525574,-0.1476198434829712,-0.32745465636253357,-0.5198844075202942,-0.5244587659835815,0.323945552110672,0.14494359493255615,0.07155071943998337,0.9564494490623474,0.1842121183872223,-0.12780921161174774,0.029101943597197533,0.1334608644247055,0.13394427299499512,-0.365447074174881,0.10183298587799072,-0.22231954336166382,0.692703127861023,-0.08839619904756546,0.6692129373550415,-0.3488754332065582,0.05855225771665573,0.03440706804394722,-0.5863385200500488,-0.913878858089447,-0.6190958619117737,-1.192664384841919,-0.06655561923980713,0.24240604043006897,-0.3744834065437317,0.18433956801891327],[-0.1725529134273529,0.4371163845062256,0.8988090753555298,-0.06364421546459198,0.35609671473503113,-0.7591584920883179,-0.10609622299671173,-0.05350026860833168,1.542635440826416,0.014964987523853779,-0.12258922308683395,-0.4033154249191284,0.7143527269363403,-0.031967636197805405,1.0861722230911255,0.3159971535205841,-1.086310863494873,-0.1079941838979721,0.3344421684741974,-0.0811130553483963,1.205508828163147,0.3656880557537079,-0.8751521706581116,-0.47348272800445557,0.7400557994842529,0.004151106812059879,0.5341136455535889,0.03790813311934471,-0.36425480246543884,0.31222638487815857,0.13244643807411194,0.21952226758003235,-1.3004848957061768,-0.1174611896276474,-0.2605069875717163,0.6506814956665039,0.4293273687362671,0.2685409188270569,-0.06010005250573158,-0.8537253141403198,0.6066619157791138,-0.06822454929351807,-0.48052331805229187,0.6183099746704102,-0.3303103744983673,-1.0410171747207642,0.6154702305793762,-0.225058451294899,-0.8480163812637329,0.3303888440132141,-0.3068646192550659,0.07967542856931686,0.3965851068496704,0.5677605271339417,-0.21551838517189026,-0.25353965163230896,-0.24840828776359558,-0.1658080667257309,-0.401681512594223,-0.4621269106864929,0.3450767993927002,0.03170044720172882,0.5011205673217773,-0.8928784132003784,0.20094144344329834],[0.40723690390586853,0.1438656896352768,-0.10156747698783875,0.1559269279241562,-0.1970757097005844,0.4953583776950836,-0.14888222515583038,0.3263266682624817,-0.26827532052993774,-0.4894656538963318,0.21703004837036133,0.5825563669204712,0.42178353667259216,-0.05141307786107063,0.3396926522254944,-0.15277142822742462,0.449004590511322,0.2336672991514206,0.493507981300354,0.12134844064712524,0.4400158226490021,-0.10008209943771362,0.4692286550998688,0.46086403727531433,0.1873846799135208,-0.05214245989918709,0.3639082610607147,-0.4959106743335724,0.321694940328598,0.140022411942482,0.5363842248916626,0.0834527462720871,1.0920417308807373,-0.06374886631965637,0.6481214165687561,0.43594449758529663,0.12658585608005524,-0.34089556336402893,-0.14789965748786926,-0.24178867042064667,0.4985818564891815,0.11415209621191025,-0.14458860456943512,0.4962581992149353,0.18846900761127472,-0.5092741250991821,0.5798677206039429,-0.08035819977521896,-0.12755638360977173,0.49913880228996277,0.08738899230957031,-0.24090783298015594,0.4995032548904419,-0.2824206054210663,-0.23299969732761383,0.72087562084198,0.4506446123123169,-0.05311378836631775,-0.6901367902755737,0.550564706325531,0.3778451979160309,0.5262674689292908,0.5109882950782776,0.39671963453292847,0.2549683451652527],[0.3847256004810333,-0.2066671997308731,0.4549431800842285,-0.01915717124938965,-0.26154017448425293,-0.11463704705238342,-0.7193052172660828,0.040406130254268646,1.0303044319152832,0.5062697529792786,-0.3145100474357605,-0.02516588196158409,-0.07164885848760605,0.010669806972146034,-0.7871291637420654,0.8345625400543213,0.14051349461078644,0.26186704635620117,-1.3571628332138062,0.09992516785860062,0.28177139163017273,-0.22703182697296143,-0.5134003758430481,-0.4372454881668091,-0.4474797546863556,0.10346440970897675,2.9044790267944336,0.8303450345993042,0.5306670665740967,0.3195236027240753,-0.1828058660030365,-1.147139072418213,0.38993334770202637,0.4805047810077667,0.578531801700592,-0.5746913552284241,-0.6507347822189331,-1.0740985870361328,0.2940123379230499,-0.5628887414932251,0.21994607150554657,-0.39014044404029846,-0.26421043276786804,0.366850882768631,-0.24051307141780853,0.4991508722305298,0.36169785261154175,-0.14304685592651367,-0.29703205823898315,0.37895309925079346,0.326363205909729,-0.1343458890914917,0.34077516198158264,0.42819634079933167,0.06431691348552704,1.5818177461624146,0.4033076763153076,-0.20444613695144653,0.7093523740768433,-0.49051791429519653,0.637042760848999,0.0423407219350338,0.6703901290893555,0.7000466585159302,-0.20965786278247833],[-0.09623245894908905,0.1407758891582489,0.395023912191391,-0.7032611966133118,0.2363622784614563,0.015667760744690895,2.09468412399292,0.09312274307012558,0.5977869033813477,0.1722554862499237,-0.22867432236671448,-0.29003438353538513,0.058429114520549774,-0.027854928746819496,-0.5934935808181763,0.6555986404418945,-0.24864643812179565,-0.2796579599380493,-0.6514739394187927,-0.1179351881146431,-0.8481913805007935,0.7062196731567383,-0.7141845226287842,-0.4912368357181549,-0.6243336200714111,0.07851605862379074,-1.3151437044143677,0.47990870475769043,0.012969755567610264,0.5614761710166931,0.5777590274810791,-0.8384624719619751,-0.5853880047798157,-0.7640479207038879,-0.35612621903419495,0.003189949318766594,0.32676243782043457,-0.7011284232139587,0.6519657969474792,1.1203172206878662,-0.494846373796463,0.6662958860397339,0.6592390537261963,-0.3282421827316284,0.23889438807964325,0.484972208738327,-0.5005924701690674,1.02177095413208,0.06951264292001724,-0.3634415864944458,-0.6666135787963867,0.5012950301170349,-0.29980143904685974,0.02280944585800171,-0.17304758727550507,-1.2833436727523804,-0.08189475536346436,-0.35102781653404236,0.1722240447998047,0.7078205347061157,0.11717571318149567,0.019001556560397148,0.6068100929260254,-0.15711556375026703,0.29915210604667664],[-0.003125014016404748,0.4720059335231781,0.9574043154716492,-0.10716041177511215,0.2194979041814804,-0.3859134018421173,-0.8103569149971008,0.12327489256858826,-0.32683658599853516,-0.7085439562797546,0.6149832010269165,0.7683037519454956,-0.058345019817352295,0.035326164215803146,-1.0486927032470703,-0.3147708475589752,-0.08391851931810379,0.23702175915241241,-0.42925891280174255,-0.06210960075259209,-0.09220106899738312,-0.6208795309066772,-0.36664018034935,-0.6692778468132019,0.46972373127937317,0.06257355958223343,1.250132441520691,0.14935624599456787,0.019677480682730675,-0.048313163220882416,0.07230676710605621,1.342708706855774,0.2753433287143707,-0.37840908765792847,0.555935800075531,-0.06637822091579437,-0.39590293169021606,1.0279778242111206,-0.1583932489156723,-0.13875004649162292,0.44582754373550415,-0.41068994998931885,0.21984729170799255,0.2948184013366699,0.2447267770767212,-0.3171393871307373,0.22285687923431396,0.09544411301612854,-0.7711799144744873,0.275642991065979,-0.067308209836483,-0.20537616312503815,0.04493569955229759,-0.43534043431282043,-0.24555009603500366,0.15524479746818542,0.15743400156497955,-0.36459803581237793,-0.8223599195480347,-0.18493163585662842,0.5672505497932434,0.20214714109897614,-0.013416716828942299,0.07434989511966705,-0.25469979643821716],[0.30968642234802246,-0.24629008769989014,0.7766662240028381,-0.6658849716186523,0.5608910322189331,-0.6668662428855896,2.2672297954559326,0.5450431704521179,0.305247962474823,0.603285014629364,0.37571007013320923,1.0210707187652588,0.19707928597927094,-0.07472070306539536,0.4901762306690216,0.8686589598655701,-0.08899624645709991,0.37883737683296204,0.06891800463199615,-0.03236088529229164,0.2327442169189453,-0.9394773244857788,0.7798423767089844,0.45059314370155334,-0.2925098240375519,-0.09453621506690979,0.12495357543230057,-0.20172156393527985,0.4338061809539795,1.012076735496521,0.7474902868270874,0.01102262269705534,0.420404314994812,0.32316267490386963,0.44884824752807617,0.21044276654720306,-0.2281249612569809,0.2412138134241104,-0.6448327898979187,-0.09692107141017914,0.23740226030349731,-0.40942442417144775,-0.3135393261909485,0.5451532602310181,-0.3229992389678955,-0.43642374873161316,0.43274977803230286,-0.5038286447525024,-0.33800724148750305,0.5012931227684021,-0.029922079294919968,-0.5545132160186768,0.6786317825317383,-0.18372277915477753,0.5780029892921448,-4.222348070470616e-05,0.2135220468044281,0.016940878704190254,0.026408201083540916,0.2390831559896469,-0.6653854250907898,0.10055147111415863,0.2985585331916809,0.5342040061950684,0.41741934418678284],[-0.26705777645111084,-0.4524114429950714,0.5965873003005981,-0.8504910469055176,0.2355448305606842,0.20830653607845306,0.28062114119529724,0.3240337073802948,0.16251018643379211,1.291841983795166,0.253804475069046,-0.8599371314048767,0.43497925996780396,-0.10330110043287277,0.1313828080892563,-0.5755350589752197,0.6229581832885742,0.14396978914737701,0.47427892684936523,0.10821781307458878,0.9093062281608582,1.6120967864990234,0.17445683479309082,0.33520686626434326,-0.5112661123275757,-0.028343357145786285,-0.4748232662677765,-0.021650196984410286,0.2156444638967514,0.6974188089370728,0.1183902844786644,0.038845181465148926,-1.2032982110977173,-0.40392085909843445,0.13379108905792236,0.6514353156089783,0.5231251120567322,0.9469125270843506,-0.14286430180072784,-0.5550899505615234,0.32096752524375916,0.580386757850647,-0.5599279999732971,0.48033544421195984,-0.6730754375457764,-0.9773974418640137,0.47770899534225464,-0.6350229382514954,0.2415587306022644,0.3632371723651886,-0.5122389197349548,-0.7516316175460815,0.5188435316085815,0.2488926202058792,1.039707899093628,0.01954660378396511,0.046024080365896225,0.565407395362854,1.3215917348861694,-0.053881824016571045,0.5421633720397949,0.3220093548297882,-0.35668736696243286,0.09051060676574707,0.221582293510437],[0.05740451067686081,0.12948398292064667,0.1390291005373001,-0.38547492027282715,-0.9101064801216125,0.9554060101509094,0.288824200630188,-0.6106504201889038,-1.5013196468353271,-1.0602240562438965,0.22920916974544525,-0.24937036633491516,-0.33154115080833435,-0.03351418673992157,-0.3518211543560028,-0.4392252564430237,0.271740198135376,-0.45469069480895996,0.19308170676231384,-0.08087264746427536,-0.9810128808021545,-0.42448779940605164,0.2967262268066406,-0.4437967836856842,0.9851407408714294,-0.025023391470313072,-1.917801022529602,-0.771415650844574,-0.2634414732456207,-0.7252838015556335,-0.15124237537384033,-0.3348539173603058,-0.2583205997943878,-0.4693104326725006,-0.4496460556983948,0.26211610436439514,0.150177001953125,0.604002058506012,0.2591349184513092,-0.04677563160657883,-0.21426105499267578,0.2132064700126648,-0.17495697736740112,-0.24986925721168518,-0.03895559534430504,-0.4961906373500824,-0.17746877670288086,0.0016760599100962281,-0.4261291027069092,-0.11727891862392426,0.1939341276884079,0.007738328073173761,-0.11183182150125504,-0.6845839619636536,-0.3892861008644104,-0.39175114035606384,-0.32992222905158997,-0.7168405652046204,-0.12582996487617493,0.7628111839294434,-0.7459908127784729,0.06175374239683151,-0.2731112837791443,-0.11890275031328201,-0.22127771377563477],[-0.025981806218624115,-0.10825973749160767,0.766845703125,-0.17769429087638855,0.0023318412713706493,0.04369673877954483,1.4492087364196777,-0.5304477214813232,1.089052677154541,-0.0693155825138092,0.18138933181762695,0.184773787856102,0.3023880422115326,0.0861930251121521,-0.3146684467792511,-0.2292681783437729,0.6628443002700806,0.4771142601966858,-0.41366103291511536,-0.03363095223903656,-0.8525705337524414,-0.532131016254425,0.10420738905668259,0.3909347951412201,-0.18430760502815247,0.09447001665830612,-0.38708582520484924,-0.05304248258471489,0.06604456156492233,-0.48218679428100586,-0.34734317660331726,-1.3701709508895874,0.8307738304138184,0.45645126700401306,-0.6702042818069458,-0.8428977131843567,-0.3018835484981537,-0.2855432629585266,0.461434930562973,0.8047486543655396,-0.24813847243785858,0.1868252158164978,-0.16700266301631927,-0.181732177734375,0.7355847954750061,-0.6499307155609131,-0.15919947624206543,-0.18394431471824646,-0.048539403825998306,-0.05138139799237251,-0.3561101257801056,0.5176975727081299,0.11961948871612549,-0.07942639291286469,-0.3601125478744507,-0.7004781365394592,0.20027217268943787,-0.025200417265295982,0.4012318551540375,0.8403785228729248,1.0756851434707642,-0.02955852448940277,-0.27483123540878296,0.4718347191810608,-0.5606980323791504],[-0.2146950662136078,0.09237749874591827,-1.1420447826385498,-0.1638985127210617,0.04352160915732384,-0.2845919728279114,0.6371720433235168,-0.2940133512020111,0.22955510020256042,-0.5280295014381409,0.08914262801408768,-0.2771351635456085,-0.5230173468589783,-0.0025240746326744556,-0.5544286370277405,0.23942220211029053,-0.9700988531112671,-0.7285986542701721,-0.6363955140113831,-0.06821396946907043,0.116917684674263,0.7226316928863525,-0.9170406460762024,-1.2545944452285767,0.20325952768325806,-0.040509264916181564,0.5496571660041809,0.18745185434818268,-0.5421698689460754,0.286967933177948,0.9037920236587524,1.189201831817627,-0.687589704990387,-0.052078891545534134,-0.8174570798873901,0.7045854330062866,0.30433329939842224,-0.41440650820732117,0.6409667134284973,-0.24933163821697235,0.20429816842079163,-0.2115604728460312,-0.2985039949417114,0.3386707007884979,0.5362774729728699,-0.4739547073841095,-0.15724654495716095,0.13983649015426636,-0.9577879905700684,0.03878961130976677,-0.12885770201683044,0.07425116002559662,-0.3779085576534271,0.21189574897289276,-0.18370597064495087,-1.0690829753875732,-0.18864580988883972,-0.4956284761428833,0.026951732113957405,0.4106218218803406,0.979211688041687,-0.39535513520240784,0.8258885741233826,-0.852754533290863,0.4009808599948883],[0.08204090595245361,-0.6257688403129578,-0.8207216858863831,-0.07791032642126083,-0.09213291108608246,0.9594506621360779,0.8844744563102722,0.09413927048444748,-0.5920160412788391,0.43351447582244873,-0.376369446516037,0.15233048796653748,-0.44858911633491516,0.10826214402914047,-0.07817646861076355,0.4840945601463318,0.18366630375385284,0.2565526068210602,-0.6271325349807739,0.00019604880071710795,0.029060373082756996,0.5734028220176697,-0.005704214330762625,-0.48325204849243164,-1.0533950328826904,-0.024287886917591095,0.09089308232069016,-0.3390515148639679,-0.10652755200862885,-0.17041140794754028,-0.13497334718704224,-1.383567452430725,2.130610942840576,0.2941097319126129,0.1807413250207901,-0.08639460057020187,-0.4544192850589752,-0.8024386167526245,0.37722209095954895,1.3370603322982788,-0.3449040353298187,0.15061713755130768,0.5223305225372314,-0.40214991569519043,1.0602844953536987,0.26304343342781067,-0.345813512802124,-0.4758608341217041,0.3248501121997833,-0.35708755254745483,0.8021300435066223,0.4912131726741791,-0.3660670518875122,-0.48926952481269836,0.9539965987205505,-0.5686033368110657,-0.22903591394424438,0.46974658966064453,-0.29995065927505493,0.31199780106544495,-0.11293872445821762,0.047558367252349854,-0.4412578344345093,0.3330755829811096,-0.2825719118118286],[-0.03927464410662651,-0.02614070475101471,1.0036665201187134,-0.8967491388320923,-0.1240508109331131,-0.4481631815433502,2.3150429725646973,0.11950638890266418,0.6011306643486023,-0.33269667625427246,0.17341956496238708,-0.020957637578248978,-0.3470100462436676,0.07609482109546661,-0.3732464909553528,0.21637970209121704,-0.3509954512119293,-0.150288388133049,-1.486452341079712,0.09259998798370361,0.3352228105068207,-0.6447266936302185,0.029666252434253693,-0.06159624084830284,-0.6419779062271118,-0.07105720043182373,0.1265738606452942,0.1571384072303772,-0.06184026598930359,-0.6624141931533813,-0.5670552849769592,-0.7640858888626099,0.7847715020179749,-0.22277283668518066,0.1547476351261139,0.041188061237335205,0.06357832252979279,-0.7652661204338074,0.6801974773406982,0.5755814909934998,-0.48434239625930786,0.08679120242595673,-0.018984055146574974,-0.5223849415779114,0.4058116674423218,1.5680309534072876,-0.3696795701980591,0.5529683232307434,0.09725873917341232,-0.41071629524230957,0.024107281118631363,0.1732071191072464,-0.4763323962688446,0.3990980088710785,0.027027152478694916,-0.08368822932243347,0.2311631739139557,-0.0266827754676342,-0.9045730829238892,0.5343294143676758,0.54799485206604,-0.15589934587478638,0.5757404565811157,0.4404103457927704,-0.026421623304486275],[0.5084136724472046,-0.49009981751441956,0.61290442943573,-0.05666789785027504,-0.3712121546268463,0.12011628597974777,-0.23398305475711823,0.5918119549751282,-0.13154831528663635,1.2057174444198608,-0.148286372423172,0.30908453464508057,-0.9246935248374939,0.0756610557436943,0.6255162954330444,1.0340344905853271,-0.2806146740913391,-0.9647971391677856,-0.3929292857646942,-0.036495108157396317,0.154244527220726,-0.34845080971717834,0.08404107391834259,-0.1603626310825348,-0.12685519456863403,0.11317279189825058,2.9287474155426025,0.15413039922714233,0.5696008205413818,0.2570268213748932,-0.09626508504152298,0.2703390121459961,0.4762011766433716,-0.40494367480278015,0.9179442524909973,0.8816916942596436,0.4451863169670105,-0.3699375092983246,-0.04524179920554161,-0.4161199629306793,0.4857134222984314,-0.7281346321105957,-0.19591444730758667,0.6025522947311401,0.23968304693698883,-0.38204461336135864,0.6005574464797974,-0.7308318018913269,0.00334018818102777,0.630232036113739,0.17097939550876617,-0.21955366432666779,0.49132102727890015,0.21340523660182953,