{"topology":"mlp_tanh_3layer","input_dim":65,"output_dim":18,"source":"model_medium.onnx","layers":[{"w":[[0.07181598991155624,-0.1586894989013672,0.7340484261512756,-0.4871927797794342,-0.01583731733262539,-0.28624239563941956,0.9264165163040161,-0.3113507032394409,0.5012282729148865,0.3732283115386963,0.1334250271320343,0.49411678314208984,0.3902747333049774,-0.07115662097930908,-0.19290825724601746,0.08805937319993973,-0.03726879134774208,-0.2989823520183563,-0.11394888162612915,0.06057826429605484,-0.06766357272863388,-0.18307101726531982,0.014484294690191746,-0.19983966648578644,0.706360936164856,-0.10729598999023438,-0.42247533798217773,0.02945072390139103,0.10565783083438873,-0.11498706042766571,-0.1526801735162735,0.028638603165745735,-0.4658539593219757,0.47255977988243103,-0.07422344386577606,-0.34186893701553345,0.053580883890390396,0.2502480149269104,0.002602806081995368,0.2033511996269226,-0.0030814851634204388,-0.24145352840423584,0.011338098905980587,0.20391438901424408,-0.31191501021385193,0.024013156071305275,0.03860826417803764,-0.6322041749954224,0.16419032216072083,0.09832603484392166,-0.236690491437912,0.01933361031115055,0.08268340677022934,-0.18075411021709442,0.4984305202960968,-0.2684701979160309,0.056673821061849594,-0.12935493886470795,0.25705164670944214,0.7139906287193298,0.284307599067688,-0.24892102181911469,0.26712745428085327,0.31705790758132935,-0.13130904734134674],[-0.19043318927288055,0.277010977268219,0.4547719657421112,0.18581123650074005,-0.038726456463336945,-0.31807535886764526,-1.6746059656143188,0.14506416022777557,-0.04071851074695587,0.035466983914375305,0.24032460153102875,0.06375088542699814,-0.3418002128601074,-0.06026111915707588,0.1525748372077942,0.11882699280977249,0.05228899419307709,0.09314009547233582,0.5992775559425354,0.11363023519515991,0.33635085821151733,-0.06310611963272095,0.21287901699543,0.12404649704694748,0.629755973815918,-0.041011326014995575,-0.43873751163482666,-0.8846853375434875,-0.15655800700187683,0.035208024084568024,0.18757528066635132,-0.40703821182250977,0.39929088950157166,0.677642822265625,0.12521125376224518,-0.050906065851449966,-0.036696549504995346,-0.5493042469024658,0.09044959396123886,0.025538869202136993,-0.021527286618947983,0.4929063022136688,-0.09916584193706512,-0.05232137814164162,-0.28820037841796875,-0.10932829231023788,-0.09737909585237503,0.546583354473114,0.14426621794700623,0.03388470038771629,-0.10162952542304993,0.07601531594991684,-0.12305939942598343,0.10677038133144379,0.2262514978647232,-0.23456653952598572,0.055740732699632645,-0.3589699864387512,-0.13782085478305817,0.5407474637031555,0.02852269634604454,-0.004363852087408304,-0.152408167719841,0.14337387681007385,0.008752371184527874],[-0.23942191898822784,-0.2728203535079956,-0.15833260118961334,-0.2299572378396988,0.043792519718408585,-0.3624626398086548,0.01917429082095623,-0.08824964612722397,0.902677595615387,0.3435385823249817,0.42657068371772766,0.35872742533683777,0.30088528990745544,-0.11284957081079483,0.35233011841773987,0.2994448244571686,-0.011788803152740002,0.11746533215045929,0.2157115340232849,-0.06142290681600571,0.5730317234992981,-0.03263932093977928,0.006102065090090036,-0.12862592935562134,0.592707633972168,-0.042086511850357056,0.7063858509063721,0.5241511464118958,0.24955163896083832,-0.03294919431209564,-0.05174967274069786,0.001345719094388187,-0.8616234660148621,0.16660568118095398,-0.13960424065589905,0.39897778630256653,-0.05180569365620613,0.057157810777425766,0.1308775246143341,-0.34361398220062256,0.15542791783809662,0.4393410086631775,-0.20522673428058624,0.08916155993938446,0.027611050754785538,-0.37342071533203125,-0.025920702144503593,-0.05499444529414177,-0.4556482434272766,0.07579222321510315,0.46278515458106995,0.204624742269516,0.15597756206989288,0.6120049357414246,0.41345974802970886,0.06196772679686546,0.10687140375375748,-0.2583346962928772,0.49273061752319336,-0.15680278837680817,-0.13276159763336182,-0.3119440972805023,0.10521303117275238,0.26805049180984497,-0.14672181010246277],[-0.3001902401447296,-0.48808470368385315,-0.7454971075057983,-0.16840697824954987,-0.094608835875988,-0.21353474259376526,-0.04117219150066376,-0.13179828226566315,1.0420054197311401,0.3618340790271759,0.6363745331764221,0.571097195148468,0.238870769739151,-0.05840720981359482,0.3634435534477234,0.4628743827342987,-0.008284988813102245,-0.0981566533446312,0.15301866829395294,-0.09236596524715424,0.5573875308036804,-0.5433157682418823,-0.006503301672637463,0.46079760789871216,0.047897402197122574,-0.10650242120027542,1.7443450689315796,0.19400139153003693,0.04655090719461441,0.20023807883262634,-0.10485710203647614,-0.32869458198547363,-0.4131193459033966,0.18199773132801056,0.02616894617676735,0.22812432050704956,-0.13591869175434113,-0.10276515781879425,0.4946257472038269,-0.06880268454551697,0.1171562522649765,0.1923390030860901,0.29015788435935974,-0.05148429423570633,0.17135465145111084,0.25955072045326233,-0.05659135803580284,0.2737067937850952,0.24087190628051758,0.05297885835170746,0.31336507201194763,0.0971299260854721,-0.07979872822761536,0.5937657952308655,-0.03543929010629654,0.42811816930770874,-0.008233453147113323,-0.1650182157754898,0.1263704001903534,-0.1950257122516632,0.03902331739664078,-0.0354548878967762,-0.2550562918186188,0.25068140029907227,-0.13198328018188477],[-0.08907747268676758,-0.05574001744389534,1.2900893688201904,0.39577239751815796,-0.02611265517771244,0.20885072648525238,-0.29294416308403015,0.16148437559604645,0.1553177684545517,-0.05933541804552078,0.11789429932832718,-0.02662701904773712,-0.6084727644920349,0.023521892726421356,0.38242849707603455,-0.16154970228672028,0.24089007079601288,-0.013387189246714115,0.04831366613507271,-0.1044379398226738,0.10460910201072693,0.32728952169418335,0.1633465439081192,0.1744774430990219,0.25291872024536133,-0.05244198068976402,0.36083081364631653,-1.0082616806030273,0.1464865356683731,-0.09198789298534393,0.013565354980528355,-0.651644766330719,0.723760724067688,0.11675134301185608,0.08948598802089691,-0.22973497211933136,0.009557169862091541,-0.3327891230583191,-0.10637526214122772,0.359205037355423,0.06040932238101959,-0.09841816872358322,-0.055215366184711456,0.009708300232887268,-0.1340944916009903,-0.011470315977931023,0.017965059727430344,0.17500039935112,-0.1739589273929596,0.05320427194237709,-0.26422378420829773,-0.14906390011310577,0.03065497800707817,0.030201055109500885,0.4328128695487976,-0.0399385541677475,-0.10187958180904388,-0.13176363706588745,-0.10160902887582779,0.759731113910675,0.3386930227279663,0.33077168464660645,-0.28412485122680664,0.040811412036418915,0.16270709037780762],[-0.2995506227016449,0.07397222518920898,1.2618417739868164,0.03401856869459152,-0.11275117844343185,-0.17743252217769623,0.18325023353099823,-0.08204102516174316,0.4837110638618469,-0.4973689317703247,0.6026930809020996,0.12793149054050446,0.3567220866680145,0.09389461576938629,0.5504189133644104,0.333412766456604,-0.16480766236782074,-0.029732899740338326,0.04471775144338608,-0.05710870772600174,-0.4348384737968445,-0.19391079246997833,0.0295269675552845,0.4036143124103546,0.09509775787591934,0.07067500799894333,0.5756464600563049,-0.09840235114097595,0.1712975949048996,0.29839977622032166,0.1644364297389984,0.4479459524154663,-0.9382606744766235,0.2323441505432129,0.3574174642562866,0.011803239583969116,0.09416639059782028,0.4390561878681183,0.15578272938728333,-0.011866952292621136,-0.10144976526498795,0.3624851107597351,0.13278773427009583,-0.020933017134666443,-0.021909350529313087,0.03980911895632744,0.029270177707076073,0.29318463802337646,-0.06934478133916855,0.1286889910697937,0.06580217182636261,0.2048504501581192,0.03638588264584541,0.569118857383728,0.1137787401676178,-0.0424337312579155,0.06403347104787827,-0.10000936686992645,-0.47816452383995056,0.14830826222896576,-0.7525110840797424,0.17856118083000183,-0.13944090902805328,0.03141937032341957,-0.009844424203038216],[0.14134249091148376,0.2987241744995117,0.8381055593490601,0.22644901275634766,-0.09089267998933792,0.2139563411474228,-0.8481785655021667,0.16857466101646423,-0.4314141571521759,-0.40944793820381165,0.15429674088954926,-0.3353331387042999,0.04745498299598694,0.04337656870484352,0.1382201611995697,-0.36676016449928284,0.34644338488578796,0.05612025037407875,0.2652839124202728,0.003510913345962763,-0.30103376507759094,0.23807212710380554,0.23416487872600555,0.18416909873485565,-0.0163455568253994,0.12092620879411697,-0.7536211013793945,-1.030669927597046,-0.21440981328487396,0.15309777855873108,0.05745193734765053,-0.060858454555273056,-0.1949121654033661,-0.18076075613498688,0.15319161117076874,-0.09053319692611694,0.034201741218566895,-0.21199719607830048,0.052213337272405624,-0.13335706293582916,0.08724541962146759,0.19185607135295868,-0.08660143613815308,-0.05820278450846672,0.19353508949279785,-0.1509430855512619,0.11304209381341934,0.13937696814537048,0.21607288718223572,0.09514182806015015,-0.09594932943582535,-0.16537341475486755,-0.054463084787130356,-0.12665463984012604,-0.2320391833782196,0.12733949720859528,0.17617441713809967,0.20267042517662048,-0.8039885759353638,0.22319543361663818,-0.2746805250644684,0.11066468805074692,0.03202025219798088,0.3674456775188446,-0.07295532524585724],[0.16673250496387482,0.26323649287223816,0.5678094029426575,0.29525142908096313,0.00019556291226763278,0.206992506980896,-0.13441693782806396,0.13504481315612793,-0.7970286011695862,-0.3597986102104187,-0.26617705821990967,-0.03960468992590904,-0.10148873925209045,-0.018059806898236275,-0.012586831115186214,-0.5100304484367371,0.4313792884349823,0.45055514574050903,0.6520483493804932,-0.12198379635810852,-0.23701561987400055,0.3558574318885803,0.29058602452278137,-0.019650137051939964,0.4528536796569824,0.0965832993388176,-1.6946781873703003,-0.7226924896240234,0.3069278299808502,-0.234693706035614,-0.10186183452606201,0.1261921226978302,0.2781018316745758,0.2251673936843872,0.12743820250034332,-0.4041762351989746,0.01321437954902649,-0.19245398044586182,0.13734236359596252,0.5703311562538147,-0.3329794704914093,0.5399472117424011,0.3174709379673004,-0.2159610092639923,-0.5037758350372314,0.28837209939956665,-0.3247281610965729,0.06642138957977295,0.22258782386779785,-0.19607116281986237,-0.09244603663682938,0.05135662481188774,-0.24533158540725708,-0.28862082958221436,0.26328539848327637,-0.399423748254776,0.0020878640934824944,-0.056948497891426086,-0.04706639051437378,0.3554121255874634,-0.2736223042011261,0.24042654037475586,-0.18600113689899445,0.04754962399601936,0.04888621345162392],[0.15947385132312775,-0.23341931402683258,-0.15432992577552795,0.4756685197353363,0.16343213617801666,0.16938893496990204,0.4250645339488983,0.16416838765144348,-0.5493719577789307,0.19723063707351685,-0.4153856337070465,-0.4738595485687256,-0.15575487911701202,-0.04307679459452629,0.04518389329314232,0.5417550206184387,-0.1455838531255722,0.0732138454914093,0.3709889352321625,0.12389850616455078,-0.3872341811656952,-0.4242001473903656,0.32789716124534607,0.3309246599674225,0.3218056857585907,0.09684183448553085,-1.0654207468032837,0.2858448326587677,0.37141215801239014,-0.10501281172037125,0.17291885614395142,-0.45527926087379456,0.6062854528427124,0.4148351550102234,-0.016753200441598892,-0.11942268162965775,0.07630806416273117,-0.12695495784282684,-0.12794934213161469,0.211355060338974,0.0298011377453804,0.12236224859952927,0.14659373462200165,-0.09472749382257462,0.35052090883255005,-0.035100243985652924,-0.06609281152486801,0.5061513185501099,0.4093637764453888,0.08718777447938919,0.23728588223457336,0.12083528935909271,-0.03530607745051384,-0.11168406903743744,0.35065585374832153,0.10666217654943466,0.237389475107193,0.23872040212154388,0.3235474228858948,-0.010730025358498096,-0.22356896102428436,0.18835356831550598,0.08397160470485687,0.09403536468744278,0.16046953201293945],[0.12078961730003357,-0.12879525125026703,-0.054959360510110855,-0.09520523995161057,0.37827062606811523,-0.5243310332298279,-0.0038982373662292957,0.03531540185213089,0.30771583318710327,-0.05585712939500809,0.2201690524816513,-0.09708960354328156,0.2671186625957489,-0.0051454417407512665,0.08649582415819168,0.09374342113733292,-0.23071850836277008,0.044298652559518814,-0.12232472747564316,0.03430355712771416,0.2579996883869171,0.310024231672287,0.09798410534858704,0.034172601997852325,0.7549624443054199,0.04725703224539757,-1.2092044353485107,-0.07483313232660294,0.16865214705467224,-0.08707215636968613,-0.015113629400730133,-0.10380492359399796,-1.6207870244979858,0.09245330840349197,0.04133397713303566,-0.2554261088371277,0.12618084251880646,0.24768459796905518,-0.1485627442598343,-0.2720315754413605,-0.021836763247847557,0.008381705731153488,-0.07807587832212448,0.15197117626667023,-0.4463670253753662,-0.14105209708213806,0.05323552340269089,0.07679806649684906,-0.19124576449394226,-0.10291500389575958,-0.1327747404575348,0.22598670423030853,-0.03396070748567581,0.016379352658987045,0.4213619530200958,-0.32497766613960266,-0.17179176211357117,-0.09950669854879379,0.5981694459915161,0.03041243925690651,-0.26261740922927856,0.10072239488363266,-0.3135451674461365,-0.09665753692388535,0.07374566048383713],[-0.09144221991300583,0.06276469677686691,-0.26310473680496216,-0.13668537139892578,0.13170850276947021,-0.39341387152671814,1.605266809463501,-0.25165417790412903,0.6414264440536499,0.06878459453582764,-0.23050011694431305,-0.20118433237075806,0.812835156917572,0.0029728917870670557,-0.3061392605304718,-0.02584637887775898,-0.2512001693248749,-0.19598011672496796,-0.3797428607940674,0.030714187771081924,-0.06221965700387955,-0.15559108555316925,-0.12082336843013763,-0.0640883669257164,-0.06734153628349304,-0.09120141714811325,0.44675907492637634,0.662276566028595,0.2234184890985489,0.21347244083881378,-0.11126285791397095,0.5183516144752502,-0.42506834864616394,-0.41381126642227173,-0.028788423165678978,0.11290671676397324,0.10793526470661163,0.31591853499412537,-0.02210492454469204,-0.07297399640083313,-0.005051203537732363,-0.1145598366856575,0.007132792845368385,0.13670073449611664,0.2257671058177948,0.1138748973608017,0.07456230372190475,-0.07049380242824554,-0.21481561660766602,-0.07080893963575363,0.3475085198879242,-0.20052523910999298,-0.15132732689380646,0.24953922629356384,-0.3648155927658081,0.2616859972476959,0.03906906396150589,0.2768184244632721,0.33710017800331116,-0.48653778433799744,-0.11590340733528137,-0.21016788482666016,0.23614011704921722,-0.07058297842741013,-0.10470747947692871],[-0.08397147804498672,-0.0499148890376091,0.4748096466064453,-0.22746355831623077,-0.6449018716812134,0.24848833680152893,0.9884775876998901,-0.36344844102859497,0.5791532397270203,-0.00568261556327343,0.2073899805545807,0.8482088446617126,0.6123786568641663,-0.04794727638363838,0.060160063207149506,-0.7339757084846497,0.4859248101711273,0.2706852853298187,-0.11829401552677155,0.12243005633354187,0.34526315331459045,-0.4578753411769867,0.40441402792930603,0.5528640747070312,-0.4280715882778168,0.07171488553285599,0.31286007165908813,0.18403710424900055,0.10737916082143784,-0.1381264626979828,-0.3109195828437805,-0.28325581550598145,0.8509393930435181,-0.07365468144416809,-0.11894307285547256,0.706135630607605,-0.1297680288553238,-0.31859031319618225,0.08096742630004883,0.04908495768904686,0.15633894503116608,-0.18854252994060516,0.06745277345180511,-0.04188074916601181,0.18999476730823517,0.001340100192464888,-0.03894638642668724,-0.1368575245141983,-0.1355360597372055,-0.06297777593135834,0.0007011423585936427,-0.06496056169271469,0.04452868923544884,0.00015237752813845873,0.26604995131492615,0.02435951493680477,0.20647482573986053,0.02149190753698349,0.08753613382577896,0.3131549656391144,-0.12606239318847656,-0.11173027008771896,-0.07936602085828781,0.42724180221557617,-0.1583295464515686],[-0.03599804267287254,-0.11697793751955032,-0.16385123133659363,-0.11740195006132126,0.18349796533584595,-0.324585884809494,0.47949981689453125,-0.16940541565418243,1.1173524856567383,-0.2311718910932541,0.1663772165775299,0.10412242263555527,0.18831691145896912,0.0604495070874691,0.023278875276446342,0.27757155895233154,-0.5135960578918457,-0.27959227561950684,-0.206618532538414,-0.10766644030809402,0.4478669762611389,0.09446677565574646,-0.3561813235282898,-0.3327792286872864,0.44655025005340576,0.09473136067390442,-0.0381799153983593,0.5135219097137451,-0.22676976025104523,-0.16462256014347076,0.06678882986307144,0.2445680797100067,-0.527080774307251,0.2325081080198288,-0.37975838780403137,0.09854089468717575,-0.09514211118221283,0.16773170232772827,0.06828076392412186,0.08534641563892365,-0.3765124976634979,-0.017896302044391632,0.09557405114173889,-0.08358817547559738,-0.027387531474232674,0.27652642130851746,-0.28367072343826294,-0.26238346099853516,-0.10708307474851608,-0.3238140940666199,-0.12589432299137115,0.410631388425827,-0.4329342842102051,0.19472190737724304,0.2075192928314209,-0.6061823964118958,-0.2134622037410736,-0.19959548115730286,0.9851409792900085,0.2601209282875061,0.5061174631118774,-0.12169457972049713,-0.22005508840084076,-0.45709145069122314,-0.13915695250034332],[0.30645811557769775,0.3600444495677948,-0.7510185241699219,-0.03574138134717941,-0.17664869129657745,0.26335108280181885,-0.17899370193481445,0.06348124146461487,-0.5416032075881958,-0.3780142366886139,-0.11381740868091583,0.07128492742776871,0.12873755395412445,0.09228489547967911,-0.29710572957992554,-0.4489234983921051,0.3421807587146759,0.17477086186408997,0.02668970823287964,0.03812798112630844,-0.251140296459198,-0.44658395648002625,0.08734313398599625,0.29117873311042786,-0.11184128373861313,-0.024240201339125633,-0.11792927235364914,-0.24826446175575256,-0.04098387435078621,0.047395236790180206,0.01718844845890999,-0.0642908364534378,0.5986772179603577,-0.419705867767334,0.16407668590545654,0.11831251531839371,0.16130664944648743,0.2876031994819641,-0.31943097710609436,-0.36219072341918945,0.09245806187391281,0.11680146306753159,-0.29633015394210815,0.0675954520702362,0.07992930710315704,-0.242373526096344,0.22511032223701477,-0.05632206052541733,-0.05677231773734093,0.09249359369277954,0.13898418843746185,-0.21087758243083954,0.18446475267410278,0.15663979947566986,-0.4524083435535431,0.7205864787101746,0.28145551681518555,0.4663196802139282,0.08453962206840515,-0.6801793575286865,-0.4554157555103302,0.0754597932100296,0.09293651580810547,0.18286319077014923,0.037658289074897766],[-0.1572868674993515,-0.05648653581738472,-0.6852895617485046,0.08750443160533905,0.06368158012628555,-0.2805163562297821,0.3712581396102905,-0.11320722848176956,0.6814254522323608,-0.05046264827251434,0.32781973481178284,0.36257225275039673,0.4157544672489166,-0.005694109480828047,0.09154550731182098,0.8821809887886047,-0.18163596093654633,-0.1645568460226059,0.05160287767648697,-0.08251947909593582,0.1993720382452011,-0.5550058484077454,0.04771488532423973,0.22248555719852448,0.33327561616897583,-0.04617823660373688,1.2555148601531982,0.6688333749771118,0.2122156172990799,0.10774825513362885,-0.031588345766067505,0.3684466779232025,-0.6095703840255737,-0.1843549758195877,0.10517983883619308,0.11994998157024384,-0.23114833235740662,-0.534821629524231,-0.23829488456249237,-0.20249177515506744,0.2485891729593277,-0.06880005449056625,-0.00729071069508791,0.125493124127388,0.05661806836724281,0.03596426546573639,0.10435409843921661,-0.4186750054359436,-0.13453325629234314,0.10363879054784775,-0.2022332400083542,0.24146802723407745,0.029731396585702896,0.36020222306251526,-0.2709287405014038,-0.11644954979419708,0.07029107958078384,-0.13567109405994415,-0.15213872492313385,-0.16551123559474945,0.022086381912231445,-0.15389208495616913,0.2730305790901184,0.15107722580432892,-0.16435523331165314],[-0.2728486955165863,0.05543103814125061,-0.15116144716739655,-0.3509024977684021,-0.21796034276485443,0.10900646448135376,-0.4453651010990143,-0.11383805423974991,0.2559177875518799,-0.3050423264503479,0.5361436009407043,0.418839693069458,0.035223908722400665,-0.026444438844919205,0.10581167787313461,-0.03308165445923805,-0.2141341120004654,-0.38331714272499084,-0.3078773021697998,-0.022778404876589775,0.2850804626941681,0.31380513310432434,-0.4171167016029358,-0.16744081676006317,0.08416492491960526,-0.052024126052856445,1.5746192932128906,-0.4005909264087677,-0.11731482297182083,0.12942981719970703,-0.18838325142860413,0.5626246929168701,-1.381276249885559,-0.8036367893218994,0.39497503638267517,0.3233327269554138,0.006404433865100145,0.13568079471588135,-0.12700743973255157,-0.04401509091258049,0.030555084347724915,0.12574216723442078,0.01738697476685047,-0.009042889811098576,0.23983882367610931,-0.0010202489793300629,-0.041724156588315964,-0.007559533696621656,-0.2163384109735489,-0.009047193452715874,0.20698286592960358,-0.009450533427298069,-0.04765141382813454,0.29349711537361145,-0.5770902633666992,0.14129638671875,0.046607669442892075,0.12891660630702972,-0.4324185252189636,-0.2965327501296997,0.188198059797287,-0.05301583185791969,-0.05311254784464836,-0.2995162010192871,0.08138104528188705],[-0.22184360027313232,0.5237594842910767,1.0436939001083374,-0.09319237619638443,-0.28635215759277344,-0.19709494709968567,0.13478456437587738,-0.06389179825782776,0.4156065583229065,-0.41939717531204224,0.38669300079345703,0.090436652302742,0.5463781952857971,-0.06426510214805603,0.39005574584007263,-0.4856817126274109,0.018269741907715797,0.4012754261493683,0.963733434677124,-0.07308933883905411,-0.5252667665481567,-0.05806475132703781,0.7318344712257385,0.6095235347747803,0.6952003240585327,-0.04737026244401932,0.2804816961288452,-0.5336100459098816,0.3040013313293457,-0.27641794085502625,0.04020233079791069,-0.21838875114917755,0.4884135127067566,-0.2783676087856293,0.16565127670764923,-0.4133865237236023,-0.11145208030939102,-0.07921125739812851,0.1129007488489151,0.19617298245429993,-0.003971827682107687,0.479887992143631,-0.10885394364595413,-0.057100046426057816,-0.035788800567388535,-0.25144675374031067,-0.14745907485485077,0.18914413452148438,-0.1185283288359642,-0.11988850682973862,0.08202904462814331,-0.07808525860309601,-0.2238723188638687,-0.15593938529491425,0.2028249353170395,-0.7869168519973755,-0.00023107674496714026,-0.009463470429182053,-0.4961369037628174,0.49046263098716736,-0.3017328977584839,0.17461639642715454,-0.22792717814445496,-0.0480964221060276,-0.030925840139389038],[0.5569821000099182,-0.005134092178195715,-0.5926056504249573,-0.018464481458067894,0.5446548461914062,0.15459534525871277,-0.3606797754764557,0.3478155732154846,-0.6195114850997925,-0.10855399072170258,-0.12927350401878357,-0.8466393947601318,0.07369381934404373,-0.06422574073076248,-0.6043524146080017,0.15927858650684357,0.031151706352829933,0.10939619690179825,-0.27936649322509766,0.05636981874704361,-0.010799179784953594,-0.20589888095855713,0.5558074116706848,0.26173582673072815,0.39807572960853577,-0.035386815667152405,-0.20685997605323792,0.08931779116392136,0.12106785178184509,0.01171102374792099,0.031385138630867004,0.5468103885650635,-1.0977206230163574,0.3141944408416748,-0.06137927994132042,-0.19807729125022888,0.19567060470581055,0.7163640856742859,0.11658108979463577,-0.2981511056423187,0.0724167749285698,-0.06124892830848694,-0.05760475620627403,0.12074302136898041,-0.7263609766960144,0.37189725041389465,0.13926316797733307,0.03318806365132332,0.11023423075675964,0.19111524522304535,-0.419151246547699,-0.3991988003253937,-0.0061843423172831535,-0.022146102041006088,-0.12366658449172974,0.2993272542953491,0.31550443172454834,-0.1880294233560562,0.38404175639152527,0.18903887271881104,-0.2552463412284851,-0.03546302765607834,0.08118954300880432,0.08256687223911285,0.10200230032205582],[0.08310791850090027,-0.08837061375379562,-0.19631807506084442,-0.533862829208374,0.3733360469341278,-0.9658595323562622,0.6916443109512329,-0.0005520085687749088,0.7280941009521484,0.4103677272796631,-0.09005352854728699,-0.2650098502635956,0.5078812837600708,0.044421058148145676,0.1234981045126915,-0.19067414104938507,-0.36760765314102173,-0.09521868079900742,0.05439852923154831,-0.05713183432817459,-0.4483495056629181,-0.08602801710367203,0.1336362063884735,-0.288817822933197,0.3721923232078552,-0.11695476621389389,-0.5191646218299866,0.4779255986213684,-0.02418232522904873,0.11828180402517319,0.04135223478078842,0.05832505226135254,-0.8651528358459473,0.268363356590271,-0.08316749334335327,-0.2305118292570114,0.10935156047344208,0.09325946122407913,0.0409267358481884,-0.0413823127746582,-0.02865608222782612,-0.34177538752555847,0.30881381034851074,0.09641013294458389,-0.30497226119041443,0.17001408338546753,0.054181504994630814,-0.43107420206069946,0.37352538108825684,-0.03181986138224602,-0.08208934962749481,-0.027367789298295975,-0.0777512863278389,0.026428304612636566,0.06898263841867447,-0.40227174758911133,0.14202657341957092,-0.7117467522621155,0.23549474775791168,0.3805360198020935,0.26021432876586914,-0.004129165317863226,0.03820072114467621,-0.2328978180885315,0.02868645079433918],[0.03498412296175957,-0.37611743807792664,-0.42736315727233887,0.33472734689712524,0.2983483374118805,0.512683093547821,0.3777001202106476,0.001016748952679336,-1.5086174011230469,0.4169105589389801,-0.21043124794960022,-0.09035953134298325,-0.36216315627098083,-0.11068428307771683,0.09911873191595078,0.32717233896255493,0.017080046236515045,0.02748756669461727,0.4856877326965332,0.05172738432884216,0.14253151416778564,1.0401527881622314,0.23932607471942902,0.001908786129206419,0.5819244384765625,-0.06885380297899246,-0.28551092743873596,0.059123553335666656,-0.11830193549394608,0.08039368689060211,0.05059557035565376,-0.917698860168457,-0.19311349093914032,0.265097975730896,0.27008187770843506,-0.3039840757846832,0.09946109354496002,-0.43680840730667114,0.037344884127378464,-0.0033943045418709517,0.029738573357462883,0.18336620926856995,0.23050673305988312,-0.12292331457138062,-0.055895425379276276,-0.3512279689311981,-0.005036735907196999,-0.08281857520341873,0.4006243050098419,-0.031585417687892914,-0.06303233653306961,0.18563996255397797,0.11146575212478638,-0.4490566551685333,0.28053075075149536,-0.28566116094589233,-0.17425459623336792,0.24651117622852325,0.2975933253765106,0.43659645318984985,-0.006233626045286655,-0.02163124643266201,-0.03510250151157379,0.20856210589408875,0.13478469848632812],[0.6022736430168152,0.4006766378879547,0.07354907691478729,0.05092557519674301,-0.18056735396385193,0.3785370886325836,-0.025870343670248985,0.2041536271572113,-0.6546807289123535,-0.40598171949386597,-0.25196272134780884,0.36023423075675964,-0.06528926640748978,-0.045945726335048676,-0.12182150781154633,0.3732910454273224,0.3183833658695221,-0.11499049514532089,0.07511299103498459,0.035801298916339874,-0.4371834397315979,0.20030738413333893,0.06434274464845657,-0.16195441782474518,-0.20727664232254028,-0.03681670501828194,-0.560206413269043,-0.2603949308395386,-0.009543304331600666,0.21591532230377197,0.40560182929039,-0.15115180611610413,0.9177205562591553,-0.4030350148677826,0.1411338746547699,0.12414436787366867,0.15465818345546722,0.23753324151039124,-0.237660750746727,0.06260059028863907,0.11941302567720413,-0.10031758248806,0.15709811449050903,0.21529603004455566,-0.02037092298269272,0.08902771025896072,0.20189638435840607,0.04486318305134773,-0.09663611650466919,0.11371558159589767,-0.24896448850631714,-0.3770042955875397,0.18887196481227875,-0.3569921851158142,-0.322099506855011,0.546949028968811,0.35194796323776245,0.3059859275817871,-0.3870701789855957,0.015711508691310883,-0.43434739112854004,-0.06286658346652985,0.20352354645729065,0.5671774744987488,0.3932187557220459],[-0.04761524125933647,0.28379133343696594,-1.1744414567947388,0.3629624843597412,0.5422277450561523,-0.10124219954013824,-1.0669084787368774,0.46213623881340027,-0.025029337033629417,-0.1731364130973816,0.021238401532173157,0.08101823925971985,-0.44388869404792786,-0.06282179057598114,0.16309186816215515,0.5377587080001831,-0.24421818554401398,-0.3420426547527313,-0.34171026945114136,-0.08390474319458008,0.22610023617744446,0.19205157458782196,-0.689325749874115,-0.4136393368244171,-0.5845116376876831,-0.040475212037563324,2.5004079341888428,0.0691375732421875,-0.08564336597919464,0.4453045725822449,0.2449769377708435,0.03138149529695511,1.0969253778457642,-0.3255578279495239,0.10822416841983795,0.3013140857219696,0.1355585902929306,-0.5840150713920593,0.21163161098957062,-0.110824815928936,-0.03276366740465164,0.055553507059812546,0.06069222837686539,-0.1130409836769104,0.23883876204490662,0.015211034566164017,0.04424673318862915,0.07331522554159164,0.28157898783683777,0.03518793359398842,0.05891081690788269,-0.15108805894851685,0.025470836088061333,0.19434186816215515,-0.48264080286026,-0.11743253469467163,0.03965074196457863,-0.03328783065080643,-0.20446863770484924,-0.3268827795982361,0.2705157399177551,0.16382403671741486,0.27165451645851135,-0.24956060945987701,0.3285024166107178],[-0.009410432539880276,-0.09129142016172409,0.08228639513254166,0.2534174919128418,0.17088682949543,0.21634869277477264,0.6526275873184204,0.18952623009681702,-0.7271085381507874,0.025896327570080757,-0.5211805701255798,-0.938844621181488,0.028294773772358894,-0.10348187386989594,0.13205626606941223,0.015003646723926067,-0.2830296456813812,0.0797971859574318,0.2821952998638153,0.12382293492555618,-0.30537474155426025,-0.11222541332244873,0.40875133872032166,0.21135765314102173,0.4979925751686096,-0.05518290773034096,-1.2993896007537842,-0.1469208151102066,0.05206001549959183,0.012390595860779285,0.12817370891571045,-0.09334675967693329,0.5306692719459534,0.3882145583629608,-0.20977838337421417,-0.3083175718784332,0.08644816279411316,0.2845063805580139,-0.13514119386672974,0.35534125566482544,-0.23881468176841736,0.09824071079492569,0.014469102025032043,-0.09572447091341019,-0.015245821326971054,0.2997252643108368,-0.05899914726614952,0.09789986908435822,0.5522853136062622,-0.045602958649396896,-0.15296752750873566,-0.01755703054368496,-0.14490999281406403,-0.2824971377849579,0.06042662635445595,-0.05233033373951912,-0.08789803087711334,0.04316088184714317,0.036649033427238464,0.12140601873397827,-0.1077437624335289,0.3175230026245117,0.16346418857574463,0.116000697016716,0.15027517080307007],[-0.0642724558711052,0.08629322052001953,-0.3372343182563782,0.44405364990234375,0.09537044167518616,0.5153270363807678,0.1600528061389923,0.06744592636823654,-0.6857110857963562,0.6152904033660889,-0.2803724706172943,-0.46691086888313293,-0.48194754123687744,-0.04602116718888283,0.36368849873542786,-0.04153962805867195,-0.09468498826026917,0.15091858804225922,0.48538482189178467,-0.028256429359316826,0.3486382067203522,0.24620762467384338,-0.18012972176074982,-0.2288300096988678,0.6978623867034912,0.06288714706897736,-0.2849694490432739,0.02608746662735939,0.08403356373310089,-0.5088335871696472,0.02793949656188488,0.37272849678993225,0.22154361009597778,0.23566444218158722,-0.05918075516819954,-0.3269985020160675,-0.16794399917125702,-0.086497001349926,0.2135811299085617,0.38964879512786865,-0.16676534712314606,0.39917126297950745,0.11037401109933853,-0.15288075804710388,-0.016253028064966202,-0.06307989358901978,-0.2934163212776184,0.4040534496307373,0.2128031849861145,-0.27353450655937195,0.1493275910615921,0.4752770662307739,-0.19271303713321686,0.005975131876766682,0.37014326453208923,-0.4888209402561188,-0.011366800405085087,0.3098904490470886,-0.2982889413833618,0.6082082390785217,0.6577669978141785,0.18527822196483612,0.31085413694381714,0.21352818608283997,0.08030190318822861],[-0.06912913918495178,-0.034927479922771454,0.6117207407951355,0.060073260217905045,-0.08875986933708191,-0.604641854763031,-0.25911006331443787,0.07223854213953018,0.4998585283756256,0.09497340768575668,0.5920472145080566,0.3806766867637634,-0.22803427278995514,0.11190256476402283,0.04053429141640663,-0.02620602399110794,-0.16372480988502502,0.011487697251141071,-0.35680586099624634,0.08541285246610641,0.224943146109581,-0.0024606583174318075,-0.1378365308046341,0.33663225173950195,-0.3322848379611969,0.004354814533144236,1.1768711805343628,0.07761947065591812,0.16236476600170135,0.3829743564128876,0.20329277217388153,-0.13189715147018433,-0.6539801955223083,-0.12544317543506622,0.5590763092041016,0.2784014940261841,-0.13672885298728943,-0.3536422848701477,0.20635463297367096,-0.3188323676586151,0.2659984827041626,-0.07913725823163986,0.21624410152435303,0.045960672199726105,-0.15386928617954254,-0.05599198490381241,0.0771021917462349,-0.09843800216913223,-0.11263814568519592,0.015114317648112774,0.03786776587367058,-0.17914310097694397,0.14420783519744873,0.06100204959511757,0.05045343562960625,-0.16772747039794922,-0.01138585526496172,-0.3505667448043823,-0.216960147023201,-0.4328977167606354,-0.5021049380302429,-0.19165769219398499,-0.1440618932247162,-0.32990050315856934,0.06920958310365677],[0.3048110604286194,-0.20646315813064575,-0.20810885727405548,0.1068689376115799,0.2677939832210541,0.37736615538597107,-0.7004210948944092,0.18116891384124756,-0.7529112696647644,0.1482219099998474,-0.12232118844985962,-0.5523406863212585,-0.17774911224842072,-0.07233031094074249,-0.16980253159999847,-0.29933956265449524,0.3207816183567047,0.252223402261734,0.19810663163661957,0.07762998342514038,-0.16358953714370728,0.09422525763511658,0.4271474778652191,0.6134622097015381,-0.07303179055452347,0.1078873723745346,-1.1324416399002075,-0.3470601737499237,0.0015269613359123468,0.24583470821380615,0.18930885195732117,-0.016177641227841377,0.22014544904232025,0.09422631561756134,0.08120492100715637,-0.1517580896615982,0.21034292876720428,0.38991066813468933,0.25640740990638733,-0.1368308663368225,-0.25543013215065,0.18944376707077026,0.19485439360141754,0.001341980998404324,-0.029170427471399307,0.3365143835544586,-0.04507382586598396,0.12019720673561096,0.3391789197921753,-0.029626790434122086,-0.004902420099824667,0.07121136039495468,-0.10743696242570877,-0.14678332209587097,0.27881762385368347,0.6829872131347656,0.08051759004592896,-0.11001278460025787,0.132720947265625,-0.28196293115615845,-0.21092046797275543,0.2792064845561981,-0.2014533132314682,0.3277239501476288,0.19049160182476044],[0.23401671648025513,0.04208989068865776,0.19322511553764343,-0.07621487975120544,-0.15276068449020386,0.49722975492477417,0.6487911343574524,-0.17619365453720093,-0.8533497452735901,0.34742483496665955,-0.45930561423301697,-0.6090513467788696,-0.22576779127120972,0.12132590264081955,0.01687968708574772,-0.00011513051140354946,-0.15472450852394104,-0.10998695343732834,0.30757924914360046,0.020619191229343414,-0.5420835614204407,-0.24443089962005615,0.2821718752384186,-0.20746909081935883,0.27070552110671997,0.10850585997104645,-1.169305443763733,-0.21745768189430237,-0.09453672170639038,-0.27066490054130554,0.10236033797264099,-0.5363324284553528,0.3194599747657776,0.18849819898605347,-0.09430722892284393,-0.22514234483242035,0.1461985558271408,-0.046315714716911316,0.057583268731832504,0.036707885563373566,-0.005201159510761499,0.21539254486560822,0.07129313051700592,-0.04481024295091629,0.02120293490588665,-0.017485149204730988,-0.034112703055143356,0.1547032743692398,-0.00029972410993650556,-0.2238798439502716,-0.025038622319698334,-0.030364010483026505,0.11469782888889313,-0.18538083136081696,0.24368713796138763,0.2595042288303375,0.1471462994813919,0.005224630702286959,0.043571118265390396,0.3599354028701782,0.2102336883544922,0.020763933658599854,0.2807396948337555,0.46765753626823425,0.053800880908966064],[0.1638154834508896,-0.30394336581230164,-0.02212727628648281,-0.23264385759830475,-0.5641670227050781,0.20919649302959442,0.8382003903388977,-0.010560053400695324,-0.6324891448020935,0.1383143663406372,-0.010596461594104767,0.8515881896018982,0.16675174236297607,-0.09350311011075974,-0.2040695995092392,0.22722356021404266,-0.05192973092198372,-0.22340978682041168,-0.2977930009365082,0.07354746013879776,-0.1756419539451599,-0.0708344429731369,-0.09044640511274338,-0.43399834632873535,-0.599800705909729,-0.07216856628656387,-0.07003143429756165,0.2798426151275635,-0.07085533440113068,-0.18440045416355133,0.03032451868057251,-0.14544682204723358,0.9299548864364624,-0.070929616689682,-0.15257945656776428,0.3947652280330658,0.0789499580860138,0.3388012647628784,-0.10037510097026825,0.526788592338562,-0.17381690442562103,0.13883544504642487,0.12692390382289886,-0.048373159021139145,-0.026599636301398277,-0.07530611753463745,-0.08002609014511108,-0.25208330154418945,-0.2407432198524475,-0.19213396310806274,-0.07884658873081207,0.18979410827159882,-0.16097064316272736,-0.6861038208007812,0.3851688802242279,-0.32861819863319397,-0.3033047318458557,0.07834586501121521,-0.4285467267036438,0.2149551808834076,-0.34710901975631714,-0.12462868541479111,0.18599236011505127,0.2764066755771637,-0.0661274790763855],[0.11878545582294464,-0.37757501006126404,0.9949988722801208,-0.5510835647583008,0.08269088715314865,-0.2359454184770584,1.1532968282699585,-0.2768155634403229,0.6138075590133667,0.7563298344612122,0.006181694567203522,-0.04651196300983429,0.45475685596466064,-0.037224963307380676,0.31727954745292664,0.03979075327515602,-0.3348599672317505,-0.13952752947807312,0.19672603905200958,0.030223408713936806,0.09314241260290146,0.4290274381637573,0.02679748833179474,-0.2008092701435089,0.3162700831890106,0.10556624084711075,-0.8567975759506226,0.5134533047676086,-0.08820571005344391,-0.1226176768541336,0.14266222715377808,-0.16005998849868774,-0.19951173663139343,0.715567409992218,-0.3844819962978363,-0.3712550699710846,0.16130661964416504,0.3283332586288452,-0.015088226646184921,0.3580934405326843,-0.0558435432612896,-0.06997834891080856,0.34944668412208557,0.13401326537132263,-0.0003419097629375756,-0.2823731303215027,-0.033170346170663834,-0.17013008892536163,-0.22158068418502808,0.00031968922121450305,0.010059049353003502,-0.07078174501657486,0.10273877531290054,0.03101063147187233,0.8325250744819641,-0.14919398725032806,0.040302667766809464,-0.29275286197662354,0.46502652764320374,0.48690101504325867,0.1880873292684555,-0.14209559559822083,0.3136826157569885,0.029549119994044304,-0.13840660452842712],[-0.11857329308986664,0.17723940312862396,-0.27244263887405396,0.23186233639717102,0.1883428394794464,-0.24078397452831268,-0.1295100897550583,0.038503073155879974,0.5072845816612244,-0.14874592423439026,0.5467102527618408,-0.02894168719649315,-0.22135137021541595,-0.10737708956003189,0.12037678062915802,0.09081962704658508,-0.14091603457927704,0.11009444296360016,0.11415494978427887,-0.019096771255135536,0.28430408239364624,-0.28953760862350464,0.2871512472629547,0.5618871450424194,0.22035671770572662,-0.1234087198972702,1.5877954959869385,-0.33008554577827454,0.359622061252594,0.6541882753372192,0.1804664582014084,0.3551972508430481,-1.3144190311431885,-0.22020529210567474,0.7776262164115906,0.4118189513683319,0.09751488268375397,0.3188817799091339,-0.06613391637802124,-0.3099372684955597,0.17675518989562988,-0.36146262288093567,-0.01637326553463936,0.2879416346549988,-0.1245180070400238,0.3385486602783203,0.24013976752758026,-0.056792888790369034,0.13166752457618713,0.13918399810791016,0.09827577322721481,0.09033054858446121,0.14614927768707275,0.5474056601524353,-0.4548094570636749,0.6593990325927734,0.16854384541511536,0.18289470672607422,0.11987824738025665,-0.23968711495399475,0.0319645032286644,0.18251143395900726,0.044575996696949005,-0.07895687967538834,0.0977354496717453],[0.15015646815299988,0.0008467505103908479,-0.34507986903190613,0.07392696291208267,0.40478187799453735,-0.13896997272968292,-0.29380619525909424,-0.04296017438173294,-0.4187591075897217,0.0841575637459755,-0.6761767268180847,-0.39451566338539124,-0.334358274936676,0.06222391501069069,0.20409424602985382,-0.06852193921804428,-0.19408202171325684,-0.5342652797698975,0.0924413874745369,0.011542407795786858,-0.23843176662921906,0.4771448075771332,-0.42983701825141907,-0.19690492749214172,-0.299984335899353,0.036595046520233154,-0.7618471384048462,0.041791271418333054,-0.1138337031006813,0.2239879071712494,0.014672155492007732,0.059319984167814255,-0.14375345408916473,0.11521199345588684,-0.2226562350988388,-0.11072442680597305,-0.18572717905044556,0.538792073726654,0.008555974811315536,-0.4371943175792694,0.26282867789268494,0.20097218453884125,-0.16234926879405975,0.09724154323339462,-0.12814711034297943,0.10280414670705795,0.22672544419765472,0.23089303076267242,-0.5865904688835144,0.0267698522657156,-0.13526208698749542,0.05889097601175308,0.05198652297258377,0.13055066764354706,0.014328140765428543,0.4391322433948517,0.033745553344488144,0.2696111500263214,0.261516273021698,-0.4859146475791931,-0.074513740837574,-0.014041103422641754,-0.07182003557682037,-0.11673660576343536,0.03196125105023384],[0.06389552354812622,-0.296147882938385,-0.4994102120399475,0.12890678644180298,0.3402772843837738,0.24474361538887024,0.35968658328056335,-0.03650413081049919,-1.2764958143234253,0.5312561392784119,-0.7132134437561035,-0.893373429775238,-0.7394264936447144,0.06365516036748886,-0.10097920894622803,0.18242214620113373,-0.11921830475330353,0.1986808329820633,0.18117232620716095,-0.0026368186809122562,-0.3580579161643982,0.819570004940033,-0.22203150391578674,-0.15038545429706573,-0.04131030663847923,-0.07525534182786942,-0.3536374866962433,0.13346394896507263,-0.09464079141616821,-0.02180253528058529,0.2853354513645172,0.18019096553325653,-0.5831061601638794,0.32185590267181396,0.12041442841291428,-0.519047737121582,0.24410590529441833,-0.04875507205724716,0.3103354275226593,0.12369748950004578,-0.08048410713672638,0.23721818625926971,0.17440971732139587,-0.10377295315265656,0.05951981619000435,0.16345366835594177,-0.11279695481061935,0.03299431502819061,0.5643293261528015,-0.12467271089553833,-0.018633529543876648,0.09874530881643295,0.09047192335128784,-0.22024142742156982,0.021316690370440483,0.2394668608903885,-0.19570788741111755,0.4030629098415375,0.12524303793907166,0.021875396370887756,0.3165331184864044,0.20184443891048431,0.21637341380119324,-0.14201699197292328,0.12063722312450409],[-0.059845440089702606,0.14042413234710693,-0.29617583751678467,-0.48670822381973267,0.32240089774131775,-0.8514109253883362,-0.6162492036819458,0.03060353361070156,1.0713294744491577,-0.22971738874912262,0.3572162687778473,0.49757495522499084,0.2489960640668869,0.08590608835220337,-0.24658577144145966,-0.10679557174444199,-0.061491142958402634,0.1202518492937088,-0.4739037752151489,-0.0479436069726944,-0.033959634602069855,-0.17248523235321045,-0.10061689466238022,-0.16805323958396912,-0.2815234363079071,0.07255495339632034,0.3567565381526947,0.599398136138916,-0.05389845743775368,0.546580970287323,-0.05500847473740578,0.48507821559906006,0.19799567759037018,-0.031503550708293915,-0.1011420488357544,0.23857980966567993,-0.021635493263602257,0.2883700430393219,-0.19704043865203857,-0.2249455451965332,0.08274411410093307,-0.31865090131759644,-0.11121142655611038,-0.08857901394367218,-0.18159960210323334,0.35268735885620117,0.12065672129392624,-0.14245255291461945,0.19614185392856598,0.08707050234079361,0.06778671592473984,-0.19092248380184174,-0.034662388265132904,0.1442939043045044,-0.28343984484672546,0.1006869375705719,0.010475965216755867,0.004799825605005026,0.46538788080215454,-0.5109665989875793,-0.3651716709136963,-0.1334342509508133,-0.2411775290966034,-0.38222697377204895,0.04148098826408386],[0.23478810489177704,0.7526959776878357,0.6193307042121887,0.18810446560382843,-0.04660367593169212,0.3412497341632843,0.19699528813362122,0.03250666707754135,-0.6708073616027832,-0.3698836863040924,-0.29777997732162476,-0.22845450043678284,0.3009316325187683,0.09636955708265305,-0.38711830973625183,-0.24343888461589813,0.010913306847214699,0.20445449650287628,-0.12142718583345413,0.057321421802043915,-0.7700452208518982,0.4068279564380646,-0.017971096560359,-0.3895992040634155,0.029539015144109726,-0.0749431774020195,-1.8502888679504395,-0.3513631224632263,-0.11792170256376266,-0.4428161680698395,-0.09748877584934235,0.27787476778030396,0.6408284902572632,-0.26376569271087646,-0.021648291498422623,-0.41743791103363037,-0.007904020138084888,-0.22367621958255768,-0.44644978642463684,0.046116821467876434,-0.24733597040176392,0.137754887342453,0.07495200634002686,-0.26412099599838257,-0.19344134628772736,-0.09274222701787949,-0.22931024432182312,-0.08421015739440918,0.07768435031175613,-0.02014235407114029,0.018234042450785637,-0.14660882949829102,-0.12542295455932617,-0.4667614698410034,0.10207311064004898,-0.6976067423820496,-0.06529313325881958,-0.11763917654752731,-0.2310786098241806,0.4616164267063141,-0.2998776137828827,0.21797294914722443,0.1073455885052681,-0.0036611808463931084,0.04308857396245003],[0.13223882019519806,-0.15435531735420227,-0.6343305110931396,0.061090137809515,0.3629481792449951,0.15728846192359924,-0.35224658250808716,-0.17698460817337036,-0.6267414689064026,0.35636773705482483,-0.3187684416770935,-0.3873557150363922,-0.8468223810195923,-0.050181999802589417,-0.04282616078853607,0.28946858644485474,-0.20225417613983154,-0.3096771240234375,-0.11626787483692169,-0.07666010409593582,0.06997034698724747,0.6870956420898438,-0.562693178653717,-0.35348570346832275,-0.3095276653766632,0.11991828680038452,-0.3641158938407898,0.23653285205364227,-0.09580859541893005,0.20106852054595947,0.17021536827087402,-0.31594112515449524,-0.3881189525127411,0.06261428445577621,0.10376332700252533,0.1197318360209465,0.030337873846292496,0.1316480040550232,-0.07929667085409164,-0.23208442330360413,0.15452878177165985,0.023489387705922127,-0.040800925344228745,0.10724435746669769,-0.18723878264427185,-0.05429632216691971,0.24234575033187866,-0.07127579301595688,-0.1039348915219307,0.22634369134902954,-0.019390320405364037,-0.076117143034935,0.22006629407405853,-0.14956481754779816,-0.1524743288755417,0.31361210346221924,0.11021698266267776,0.1140400767326355,0.34585484862327576,-0.4794193506240845,0.17277994751930237,0.11504894495010376,0.1128215417265892,0.01774441823363304,-0.03657792508602142],[0.05627328157424927,0.19321824610233307,-0.3366127610206604,-0.32981353998184204,-0.09834568202495575,-0.3297347128391266,0.5977749824523926,0.22278258204460144,-0.3579954504966736,-0.028399497270584106,0.04916654899716377,-0.13105711340904236,0.3193257749080658,-0.024005116894841194,0.11204913258552551,0.34441548585891724,-0.4592617452144623,-0.30710500478744507,-0.1728612631559372,0.03542960807681084,-0.7301971316337585,0.38297152519226074,-0.3520253002643585,-0.17122052609920502,-0.3550977110862732,-0.08453967422246933,0.8538070917129517,-0.3645491898059845,0.34198299050331116,-0.002098929602652788,-0.1659754514694214,0.25807541608810425,0.7895194292068481,-0.04402067884802818,0.3600552976131439,0.09041184186935425,0.06384609639644623,-0.20239800214767456,-0.14929912984371185,0.14908303320407867,-0.026010433211922646,-0.24853427708148956,0.37410998344421387,-0.12545950710773468,-0.1136053204536438,0.11363449692726135,-0.027512412518262863,-0.265274316072464,0.551029622554779,-0.13810516893863678,0.34371355175971985,-0.36307796835899353,0.024552401155233383,-0.057011350989341736,-0.13581235706806183,-0.0011007215362042189,0.010640973225235939,0.38157549500465393,-0.9160268306732178,-0.15182030200958252,-0.5721825361251831,0.06788084656000137,0.3255975842475891,0.06219705566763878,0.004558128770440817],[-0.15981779992580414,0.18709509074687958,0.20981605350971222,-0.21991007030010223,0.03368820250034332,-0.17803795635700226,1.6336110830307007,-0.07653294503688812,0.6671220660209656,-0.14855147898197174,-0.17772500216960907,-0.11684650927782059,0.07323625683784485,0.041207730770111084,0.08023208379745483,0.00035743453190661967,-0.12112026661634445,-0.2581867277622223,-0.7983920574188232,-0.11954957991838455,-0.5364603400230408,0.29753363132476807,-0.5140916109085083,-0.013986705802381039,-0.20693881809711456,0.02744816243648529,0.10231104493141174,0.36809685826301575,0.04322684183716774,0.321847528219223,-0.11327818781137466,0.19820532202720642,-0.36707979440689087,-0.3274296820163727,0.01982712373137474,-0.044019173830747604,-0.10399320721626282,-0.22991739213466644,0.03838443383574486,0.09492684155702591,0.05386008322238922,-0.009039817377924919,-0.19369612634181976,-0.07831984013319016,-0.04922401160001755,-0.06134273111820221,0.0620775930583477,-0.31702831387519836,-0.13646270334720612,-0.014625133946537971,-0.10380981117486954,-0.0848417654633522,0.17068567872047424,-0.09234976768493652,-0.5963602662086487,-0.13609115779399872,-0.2016306072473526,0.464216947555542,-0.3745805025100708,-0.267360657453537,-0.20141816139221191,-0.09681268781423569,0.2582971155643463,0.17865794897079468,-0.07829658687114716],[0.26291224360466003,-0.49713465571403503,-0.33577316999435425,0.3970843553543091,0.23965805768966675,0.555878221988678,-0.6117450594902039,-0.14139027893543243,-0.6673709154129028,0.19942504167556763,-0.15163439512252808,-0.2447350174188614,-0.21493226289749146,0.07328227162361145,0.04739847779273987,0.0668315440416336,0.47701019048690796,0.8184191584587097,0.3909269869327545,0.030887600034475327,0.00678322883322835,-0.11657839268445969,0.40095698833465576,0.5519145131111145,0.20036596059799194,0.008102704770863056,-0.36883479356765747,-0.4780753552913666,-0.11477333307266235,-0.07492484897375107,0.13530366122722626,-0.2671990692615509,-0.2297416776418686,0.03143881633877754,0.14575934410095215,-0.20369112491607666,-0.21050405502319336,-0.20571976900100708,0.18441160023212433,0.19902187585830688,-0.03653552383184433,0.11562529951334,0.03814566135406494,0.010453730821609497,0.25755575299263,-0.03234802559018135,0.08622360229492188,0.1840495765209198,0.19666843116283417,0.1411474049091339,-0.29220253229141235,0.18508772552013397,0.005669393111020327,-0.3249206840991974,0.369669109582901,0.6167118549346924,0.23578175902366638,-0.0686163529753685,-0.36214062571525574,-0.4214990735054016,-0.24378997087478638,0.14063820242881775,-0.3176923394203186,0.3560824692249298,-0.1694575995206833],[0.1067996472120285,-0.06541487574577332,0.12356091290712357,-0.3069666922092438,0.35535764694213867,0.14578686654567719,0.6673194169998169,-0.22852303087711334,-0.2550200819969177,0.374411016702652,-0.26788198947906494,-0.5208480954170227,-0.00453241216018796,-0.11977579444646835,-0.10998734086751938,0.09762143343687057,-0.17015212774276733,-0.04459338262677193,-0.36434462666511536,0.02351556532084942,-0.5010681748390198,0.07705770432949066,0.45134827494621277,0.573931872844696,-0.29197365045547485,0.09249238669872284,-0.7708292007446289,0.06025019660592079,0.5619461536407471,0.17127211391925812,-0.09377089887857437,-0.7137155532836914,-0.7673160433769226,0.2605901062488556,0.25775057077407837,-0.13198725879192352,0.14995132386684418,-1.1707322597503662,0.03986496850848198,-0.4300331771373749,0.15680153667926788,0.15917816758155823,0.060495227575302124,0.2658730447292328,-0.10866686701774597,-0.06597573310136795,0.12172333896160126,-0.21787437796592712,-0.08021949976682663,0.05901490896940231,-0.07111556828022003,-0.0877513661980629,0.041841987520456314,-0.16508719325065613,-0.22133715450763702,0.3665584921836853,0.28325363993644714,-0.003190794261172414,0.47765272855758667,-0.3698396682739258,-0.5360680222511292,0.09275773912668228,-0.12834332883358002,-0.004981029313057661,0.015657350420951843],[-0.001773835509084165,-0.3227204978466034,-0.11088269203901291,0.16386622190475464,0.7338468432426453,-0.670120120048523,-0.6564910411834717,0.04451490566134453,-0.3235948383808136,0.4526246190071106,0.08666640520095825,-0.7043660879135132,-0.5684378743171692,0.07758133858442307,0.1460626721382141,0.2618774473667145,-0.42660439014434814,-0.02747896872460842,0.3094540238380432,0.10768094658851624,-0.034839268773794174,0.11609271168708801,0.12110485136508942,0.3113231062889099,0.9526654481887817,-0.059654269367456436,0.3638779819011688,0.13185247778892517,0.13674718141555786,0.189219132065773,0.11745405197143555,-0.2564913034439087,-1.8401267528533936,0.7592324018478394,0.546438992023468,-0.35667189955711365,-0.0004058147023897618,-0.325045645236969,0.4043702185153961,-0.2877090871334076,0.0022545994725078344,-0.1759375035762787,0.39128315448760986,-0.16787739098072052,-0.0867064818739891,-0.15339921414852142,-0.1908544898033142,0.18156293034553528,0.35620829463005066,-0.15154758095741272,-0.002192496322095394,0.4675212800502777,0.059918079525232315,0.19181041419506073,0.19061654806137085,0.07863476127386093,0.010262459516525269,0.05733850970864296,1.0762377977371216,-0.11433348059654236,0.41780075430870056,0.13667669892311096,-0.028464095667004585,-0.13915356993675232,0.20116563141345978],[-0.1914072036743164,0.00873587280511856,-0.857119619846344,-0.18788516521453857,0.3328515589237213,-0.924608588218689,-0.16206571459770203,-0.006263643503189087,0.43292760848999023,0.2512243986129761,0.0010975401382893324,0.08794435858726501,0.20688192546367645,0.06506194174289703,0.22552044689655304,0.23991936445236206,-0.2425021082162857,-0.1718139946460724,-0.004153625573962927,-0.014862418174743652,0.2831299304962158,-0.4783603549003601,-0.21728385984897614,0.20346839725971222,-0.6183581352233887,-0.0903158038854599,0.14512832462787628,0.623034656047821,-0.20580849051475525,0.11226117610931396,-0.11359947174787521,0.6631941199302673,-0.7697519659996033,0.10094907134771347,-0.0587189681828022,0.312440425157547,0.200487419962883,0.5599255561828613,0.25317105650901794,-0.34782445430755615,0.0465318001806736,-0.040277350693941116,-0.1975342482328415,0.09653922915458679,0.20799881219863892,0.14711447060108185,0.11937987804412842,0.31570926308631897,-0.17998990416526794,0.11447316408157349,0.29659613966941833,-0.24229545891284943,0.17846305668354034,0.5769980549812317,-0.1938316524028778,0.7871587872505188,-0.04564540460705757,-0.07570298761129379,0.6675985455513,-0.9249792098999023,-0.275590717792511,-0.12467915564775467,0.1253223568201065,0.04437367990612984,-0.06818892806768417],[0.25862082839012146,0.25609397888183594,-0.373837411403656,0.18516500294208527,-0.004838138353079557,0.2773247957229614,-0.1036239042878151,0.3695746958255768,-0.6321446299552917,-0.02448778785765171,0.23706203699111938,-0.2146260291337967,0.2790413796901703,-0.11719371378421783,0.012626771815121174,-0.28973159193992615,0.1795092076063156,0.44545039534568787,0.08551806956529617,-0.04988599941134453,-0.30203336477279663,-0.3264783024787903,0.10328573733568192,0.21133969724178314,-0.014174995012581348,-0.12323866784572601,0.21811707317829132,-0.24045032262802124,0.10015907883644104,0.33858442306518555,0.1452169120311737,0.02717459388077259,0.42216089367866516,-0.22142411768436432,0.46628499031066895,0.1862642765045166,0.36722907423973083,-0.012742381542921066,-0.17824013531208038,-0.2280152142047882,0.3512556552886963,-0.06740628927946091,0.02765563502907753,0.2122044414281845,0.2559022605419159,0.16530020534992218,0.290859580039978,0.012893394567072392,0.026487106457352638,0.42986366152763367,-0.20038723945617676,-0.2910230755805969,0.24363961815834045,0.16119226813316345,-0.25347793102264404,0.5059136748313904,0.44891634583473206,0.23560114204883575,-0.7791917324066162,-0.4039258658885956,-0.33377861976623535,0.4007808268070221,0.21112500131130219,0.2268255054950714,0.3175744414329529],[0.22643591463565826,0.09544678777456284,0.6009695529937744,0.2704679071903229,-0.0422825925052166,0.28978559374809265,0.333896279335022,0.0504496730864048,-0.8859413862228394,0.12952502071857452,-0.4386852979660034,-0.34934064745903015,0.05200314521789551,-0.05889880284667015,-0.162664994597435,-0.672305703163147,0.11290770024061203,0.07782451063394547,-0.040334995836019516,-0.12156764417886734,-0.11519312858581543,-0.08818899095058441,0.2473752796649933,0.04213307797908783,0.236963152885437,0.07081081718206406,-1.1510249376296997,-0.1377989500761032,-0.24568520486354828,0.2220912128686905,0.14282074570655823,-0.5631105899810791,1.4273529052734375,0.09229125082492828,-0.11997869610786438,-0.20808051526546478,0.019763782620429993,0.3530620038509369,0.03997989743947983,0.063227079808712,-0.049501825124025345,0.055986784398555756,-0.016262054443359375,-0.04381449893116951,0.053985949605703354,-0.2259211242198944,-0.010101399384438992,0.037856921553611755,-0.12204652279615402,-0.09866899996995926,-0.28579482436180115,-0.34323519468307495,0.04355693235993385,-0.3761517107486725,0.35633549094200134,0.15185490250587463,0.0206999983638525,-0.07592739909887314,0.30672046542167664,0.1178693026304245,-0.029853031039237976,-0.2676474153995514,-0.038780905306339264,0.35686275362968445,0.025678198784589767],[0.18157102167606354,0.015191159211099148,-0.2832748591899872,0.5006130337715149,-0.03311318904161453,0.5929719805717468,-1.1233829259872437,0.38918790221214294,-0.7821027040481567,-0.32178276777267456,-0.07131871581077576,-0.39254575967788696,-0.5744359493255615,0.05721599608659744,-0.11160188168287277,0.23742835223674774,0.07441940903663635,0.07457302510738373,-0.19473645091056824,0.07777529209852219,0.006342608481645584,-0.16580139100551605,0.034548573195934296,-0.14228151738643646,0.002178479451686144,-0.03898521885275841,-0.07431137561798096,-0.6171203255653381,-0.07709114998579025,0.10887438803911209,0.2576110363006592,-0.04274832829833031,0.30963629484176636,0.1971314549446106,0.1440003663301468,-0.40220144391059875,0.0028217860963195562,-0.650848925113678,0.00813082605600357,-0.05196879059076309,-0.0802103579044342,0.08912946283817291,0.16450679302215576,-0.2027953863143921,-0.35408830642700195,0.07034100592136383,-0.19222794473171234,0.3625018894672394,0.3742268979549408,-0.01883731223642826,-0.06332983821630478,0.021792473271489143,-0.15200549364089966,-0.06414737552404404,-0.2341228872537613,-0.21425676345825195,-0.01798509806394577,-0.14354455471038818,-0.1096188873052597,0.1921338140964508,0.13592827320098877,0.22053052484989166,0.06217457726597786,-0.053171493113040924,0.23140205442905426],[-0.14223064482212067,-0.7478435635566711,-0.9591938257217407,0.07585848122835159,-0.21525788307189941,-0.38779690861701965,-0.28445011377334595,-0.1433185189962387,0.4685772955417633,0.351704478263855,0.18678057193756104,0.29336273670196533,-0.09464100003242493,-0.038345497101545334,0.47163379192352295,0.49232247471809387,-0.04439602047204971,-0.053968120366334915,-0.11540985852479935,0.032090168446302414,0.5817099809646606,-0.6632079482078552,-0.3081567585468292,0.21016260981559753,-0.34344562888145447,0.1055213212966919,1.759360671043396,0.3592492640018463,-0.047355569899082184,0.2827224135398865,0.0003301168617326766,-0.07977928221225739,-0.6105060577392578,0.31751957535743713,0.18631237745285034,0.2657928764820099,-0.29707393050193787,-0.4140833616256714,0.5008224248886108,-0.07979366928339005,0.002443453995510936,0.16652509570121765,0.10411045700311661,0.10643912106752396,0.06827865540981293,0.36643967032432556,0.047960177063941956,0.019743258133530617,0.09700233489274979,0.0399838350713253,0.08414019644260406,-0.04783931002020836,0.03350086882710457,0.3344695568084717,-0.18858136236667633,0.5628731846809387,-0.07105544209480286,0.05402611568570137,-0.11305888742208481,-0.4594346880912781,0.09333241730928421,-0.18263600766658783,-0.209106907248497,0.1382642686367035,-0.05185072124004364],[0.315672367811203,0.3227457106113434,0.5797985792160034,0.01022922620177269,-0.13683168590068817,-0.018258655443787575,-0.031655341386795044,0.04488580301403999,-0.8021353483200073,-0.5391473174095154,-0.11064573377370834,-0.5325256586074829,-0.12404390424489975,0.04137982428073883,-0.3100737929344177,-0.3553989827632904,0.10544324666261673,-0.021641341969370842,-0.020630957558751106,-0.03302325680851936,-0.6493379473686218,0.25111857056617737,0.16302527487277985,-0.10086920857429504,0.15113890171051025,-0.03913791477680206,-1.1413055658340454,-0.32160764932632446,0.10851036757230759,0.10720088332891464,0.1451737880706787,0.2951486110687256,0.05566355958580971,-0.011235496029257774,0.10893294215202332,-0.25351765751838684,0.17884282767772675,0.3658129870891571,-0.06707672774791718,0.4166575074195862,-0.19331832230091095,-0.2837628722190857,0.18203815817832947,-0.14032302796840668,-0.1177247166633606,0.45398467779159546,-0.20291689038276672,0.013502084650099277,0.3864833116531372,-0.042532604187726974,-0.042564913630485535,0.060136470943689346,-0.21369166672229767,-0.3811245262622833,-0.2787250876426697,0.23355300724506378,0.15319350361824036,0.1574416607618332,-0.8080129027366638,0.1395440548658371,-0.29909640550613403,0.21823027729988098,0.16440434753894806,-0.18480901420116425,-0.01472610142081976],[-0.10723159462213516,0.0608711764216423,-0.4759407639503479,0.4362334907054901,0.2168940305709839,0.35444363951683044,-0.6031935214996338,0.05473603308200836,-0.703106701374054,0.03137882798910141,-0.2812631130218506,-0.5808464288711548,-0.33127543330192566,0.11803728342056274,0.15442079305648804,-0.4518768787384033,0.21606889367103577,0.3244536817073822,0.6242061853408813,0.017215773463249207,-0.38321176171302795,0.13639003038406372,0.2611459493637085,0.37847140431404114,0.4586924612522125,-0.1203751340508461,-0.023444917052984238,-0.5068835616111755,-0.004047789145261049,0.05606400966644287,0.19690659642219543,0.18619659543037415,0.16330738365650177,0.14611798524856567,0.26842638850212097,-0.11954182386398315,-0.024209797382354736,0.1161402091383934,0.020136874169111252,-0.10483912378549576,-0.192634716629982,0.028859984129667282,0.00501380767673254,-0.01961243525147438,0.031743790954351425,0.3119570016860962,0.030123485252261162,0.2649144232273102,0.325011670589447,-0.06450223922729492,0.06869766116142273,-0.23638467490673065,-0.02760886959731579,0.08592109382152557,0.1972953826189041,0.6799251437187195,-0.016756273806095123,0.2769538462162018,-0.4142645597457886,-0.5049458146095276,0.18191228806972504,0.041357386857271194,-0.05478573590517044,0.23747149109840393,0.16798135638237],[-0.3397672474384308,0.012441737577319145,0.17326806485652924,0.11531715840101242,0.0006774967769160867,0.00220074993558228,-0.5461846590042114,-0.10873891413211823,-0.48515209555625916,0.049228545278310776,-0.17976975440979004,0.3221800923347473,0.34696853160858154,-0.08464358001947403,0.5432919859886169,-0.29915809631347656,0.3445108234882355,-0.08844728767871857,0.6107495427131653,0.08061717450618744,-0.1602022796869278,0.311363160610199,-0.12572656571865082,0.2552875876426697,-0.3873080313205719,-0.10872654616832733,0.31237590312957764,-0.32769662141799927,0.012425647117197514,0.04023111239075661,0.0886128693819046,0.02582624927163124,0.9256218671798706,0.04783309996128082,0.30398765206336975,0.40160220861434937,-0.09824533015489578,0.38593047857284546,0.13608525693416595,-0.601690948009491,0.4133145213127136,0.1601664423942566,-0.2693706452846527,0.35052135586738586,-0.0347449965775013,-0.23392197489738464,0.39073657989501953,0.03728397190570831,-0.3559052348136902,0.17597900331020355,-0.1491391956806183,-0.5146618485450745,0.30238428711891174,0.11533749103546143,0.026671819388866425,0.645555853843689,0.049157705157995224,0.481709361076355,0.17726626992225647,-0.771806001663208,-0.7749640941619873,-0.4280928075313568,0.1456514149904251,0.4367118775844574,-0.030352771282196045],[-0.4046524167060852,-0.27180027961730957,-0.6432538032531738,0.09659764915704727,-0.3955738842487335,0.4193088710308075,-0.024474386125802994,-0.3384559452533722,-0.15602819621562958,0.2308569997549057,-0.7546585202217102,-0.5344384908676147,-0.32973411679267883,0.11454102396965027,0.21293769776821136,0.22577449679374695,-0.13977861404418945,-0.17149938642978668,0.27285242080688477,0.05972921848297119,0.04067245498299599,0.6429510712623596,-0.03881141543388367,0.17620442807674408,0.016889195889234543,0.060577332973480225,-0.4572296440601349,0.23734615743160248,-0.2596305310726166,-0.1323147565126419,-0.04008632153272629,-0.023361917585134506,-0.09660082310438156,0.30772385001182556,-0.1680654138326645,0.09931989014148712,0.1851966679096222,-0.010274533182382584,0.11199192702770233,-0.14066864550113678,-0.0984279066324234,0.37879863381385803,-0.21522389352321625,0.054762519896030426,0.3427189290523529,-0.19773244857788086,-0.13700667023658752,0.2927531898021698,-0.11416187137365341,-0.10226135700941086,0.26368090510368347,0.1447187066078186,-0.12558630108833313,0.3113574981689453,0.3201780617237091,0.22222287952899933,0.03332243487238884,0.38342398405075073,0.5915027856826782,-0.27725061774253845,-0.10099982470273972,0.21418194472789764,-0.11969821900129318,-0.025406567379832268,-0.1885652393102646],[-0.2298894226551056,-0.06138153746724129,0.1002478301525116,-0.16818547248840332,-0.07230403274297714,-0.22567017376422882,-0.29410043358802795,0.0787743479013443,0.6370450854301453,-0.04913635924458504,0.7396302223205566,0.9711125493049622,0.38944658637046814,0.0633067712187767,-0.008441262878477573,0.08994478732347488,0.02301793172955513,0.27554458379745483,-0.11277300864458084,-0.05333247408270836,0.004094493109732866,-0.0004951540031470358,0.03724353760480881,0.34974387288093567,-0.14261411130428314,-0.021516233682632446,1.1822471618652344,-0.025953669100999832,0.12641479074954987,0.2552388310432434,0.1877843290567398,-0.3014094829559326,0.19601307809352875,0.13465255498886108,0.13842347264289856,0.30208635330200195,0.0556139312684536,-0.3850506842136383,-0.18061000108718872,-0.12513624131679535,0.287000447511673,-0.07526013255119324,-0.3216474950313568,0.2405693680047989,-0.10440172255039215,-0.31792137026786804,0.11481671035289764,-0.15222729742527008,-0.11232992261648178,0.29462018609046936,-0.011868933215737343,-0.042103756219148636,0.30529728531837463,0.04999382421374321,0.014308680780231953,-0.44489786028862,-0.21307849884033203,0.1590266078710556,-0.3388405740261078,-0.11105537414550781,-0.505027174949646,-0.002179114380851388,-0.25703659653663635,-0.2931699752807617,-0.0639336034655571],[-0.29228371381759644,0.17517489194869995,0.5025514364242554,0.5795376896858215,-0.27827608585357666,-0.00670282356441021,-0.22481995820999146,-0.09269136190414429,0.23646429181098938,-0.034096572548151016,0.3230481445789337,0.4228352904319763,-0.0015144007047638297,0.0927124097943306,0.1963415890932083,-0.8287891149520874,-0.01025870256125927,-0.18449708819389343,-0.5693817138671875,0.05860590562224388,0.16432170569896698,-0.4164413809776306,0.2142900675535202,0.17709888517856598,0.028956234455108643,0.03907810524106026,0.28507888317108154,0.36192387342453003,0.37291139364242554,0.1885233372449875,-0.2983516752719879,-0.30059945583343506,0.09166102856397629,0.028958458453416824,0.0033517281990498304,0.3902743458747864,-0.22430843114852905,-0.07168251276016235,-0.2682405710220337,-0.4788934886455536,0.5293799638748169,-0.3145861029624939,-0.4428118169307709,0.4031123220920563,0.17280849814414978,-0.3268340229988098,0.4194072186946869,-0.3219585716724396,-0.09949880838394165,0.38465583324432373,-0.5849729180335999,-0.4217415153980255,0.21302980184555054,-0.012281037867069244,-0.02988257259130478,-0.02985743246972561,-0.17158624529838562,0.5663538575172424,0.29338470101356506,0.3330867886543274,-0.4269030690193176,-0.4606020450592041,-0.17406481504440308,0.02712809294462204,-0.11210592836141586],[0.17871710658073425,0.23647937178611755,0.4564787745475769,-0.008034933358430862,-0.1208389550447464,-0.12149312347173691,-0.5937429666519165,-0.029857898131012917,-1.353613018989563,-0.5556482672691345,0.07433436065912247,-0.3838287591934204,-0.21210342645645142,0.08337080478668213,-0.17955122888088226,-0.40116196870803833,0.1777506023645401,0.10074804723262787,-0.22258354723453522,-0.023645829409360886,-0.3876558542251587,0.12193746864795685,0.37255096435546875,0.48921552300453186,0.15546409785747528,-0.029924433678388596,-1.612418532371521,-1.3054407835006714,0.06228859722614288,0.004238396417349577,-0.12054406106472015,-0.2630695700645447,-0.39673903584480286,0.04703553766012192,-0.09624558687210083,-0.28653737902641296,-0.03542320430278778,-0.03252033889293671,0.10950440168380737,-0.2006954699754715,-0.0986267626285553,-0.013557321391999722,-0.2547893226146698,0.006588485557585955,-0.15197226405143738,-0.2907885015010834,-0.14444345235824585,-0.09321848303079605,-0.08246410638093948,-0.1466105729341507,0.09528309106826782,-0.1080838218331337,0.06753312796354294,-0.6542910933494568,-0.09784785658121109,0.2348930835723877,-0.15104110538959503,-0.3759247064590454,0.2762514054775238,-0.1445826143026352,-0.32257118821144104,0.18020303547382355,-0.30274197459220886,-0.020106250420212746,-0.04859980195760727],[0.18551690876483917,0.40121933817863464,0.2644045650959015,0.2064407616853714,0.12961027026176453,0.021311094984412193,-0.6225636601448059,0.059880368411540985,-0.884293794631958,-0.4899778366088867,0.11661776155233383,-0.3545314073562622,0.06363100558519363,-0.07592179626226425,-0.27131062746047974,-0.3691394031047821,0.436460942029953,0.30644991993904114,0.2035161703824997,0.07622082531452179,-0.3505222797393799,-0.4482741355895996,0.13734403252601624,0.458393931388855,-0.28828784823417664,-0.10167866200208664,-0.19971148669719696,-0.9378949999809265,0.003954093437641859,0.02995903603732586,0.073927141726017,0.06020918861031532,-0.04149484261870384,0.021259767934679985,0.37585675716400146,0.019395483657717705,0.04165923595428467,-0.3561178147792816,-0.26063409447669983,-0.1848479062318802,0.05894042178988457,-0.11714794486761093,0.4480648338794708,5.898874587728642e-05,0.19053372740745544,0.004888433963060379,0.15168462693691254,0.30222323536872864,0.2204390913248062,0.19321265816688538,-0.3110710084438324,-0.27633729577064514,0.22644376754760742,-0.034715961664915085,-0.14546142518520355,0.38310620188713074,0.2011738121509552,0.4063442349433899,-0.8475760817527771,-0.30007636547088623,-0.46834275126457214,0.04007378965616226,-0.06003941595554352,0.142023503780365,0.1515040248632431],[0.07643868029117584,-0.21391017735004425,0.17059190571308136,-0.13287168741226196,0.18611149489879608,-0.052696168422698975,-0.07149903476238251,0.11076384037733078,-0.24971714615821838,0.3863080143928528,-0.257429838180542,-0.9467795491218567,-0.47914984822273254,-0.08585862070322037,0.03447756543755531,0.45642486214637756,-0.3909432888031006,-0.1512550413608551,0.42543211579322815,-0.015547812916338444,-0.3053741455078125,0.38621169328689575,0.07031316310167313,0.08092759549617767,0.49788981676101685,-0.06957603245973587,-0.6729029417037964,-0.34643489122390747,0.15478192269802094,0.07507091760635376,0.4672543704509735,-0.17068429291248322,-0.533147931098938,0.6401622891426086,-0.04703652858734131,-0.3992158770561218,0.171696275472641,-0.38371968269348145,0.05228875204920769,0.2510625422000885,0.016846247017383575,0.11396805942058563,0.16004544496536255,-0.12834833562374115,-0.36742809414863586,0.05523121356964111,0.0270539540797472,-0.15034013986587524,0.1752462238073349,-0.11788968741893768,-0.02589523047208786,0.15129438042640686,0.04297775402665138,-0.11718908697366714,0.3850885033607483,-0.4563709497451782,0.009496287442743778,-0.00774032948538661,-0.22688449919223785,0.6271265149116516,0.33602556586265564,0.5040842294692993,0.27241894602775574,-0.058185379952192307,0.28575295209884644],[-0.1133202463388443,0.012447367422282696,0.2537640929222107,-0.25294873118400574,0.005425561219453812,-0.5205731391906738,0.19786909222602844,0.12889134883880615,0.6689473390579224,0.2545269727706909,0.21614277362823486,0.6973859071731567,0.01822100207209587,0.11186675727367401,0.384958416223526,0.32628265023231506,-0.20458166301250458,-0.19273851811885834,-0.13479290902614594,0.07944852858781815,0.2830960750579834,0.2647803723812103,-0.5427022576332092,0.03372514247894287,-0.3829558789730072,-0.06069942191243172,1.938942313194275,0.1305004060268402,0.13651713728904724,0.4240897297859192,0.16162343323230743,-0.058533839881420135,-0.11423438042402267,0.006443019490689039,0.5186143517494202,0.27853208780288696,-0.005130414385348558,-0.5072333812713623,0.10381124913692474,0.23817017674446106,0.15250509977340698,0.006057123653590679,0.10171384364366531,0.0363580696284771,0.1612434685230255,0.1518918126821518,0.016897941008210182,-0.07599980384111404,0.17344556748867035,0.12153714895248413,0.16946330666542053,0.20561844110488892,0.05564785748720169,0.09341384470462799,-0.10993092507123947,0.2238399088382721,0.04312007501721382,0.3578868508338928,-0.36288541555404663,-0.2639531195163727,0.011084245517849922,0.07307014614343643,0.2935046851634979,-0.1301029622554779,0.2508321702480316],[-0.33670711517333984,-0.12511417269706726,-0.2114485800266266,-0.32689934968948364,-0.053636014461517334,-0.32708778977394104,0.7389102578163147,-0.42686349153518677,0.9570093154907227,0.003264188300818205,0.03664398193359375,0.18279781937599182,0.2900071442127228,-0.04250515252351761,0.0025692598428577185,-0.28279346227645874,-0.24123071134090424,-0.23112742602825165,-0.03018292225897312,-0.04311077296733856,0.48519405722618103,-0.2920116186141968,-0.03318563103675842,-0.11817505955696106,0.1331505924463272,0.017017386853694916,-0.7012476325035095,0.566853940486908,-0.12859797477722168,-0.017474645748734474,-0.1984371393918991,-0.4527936279773712,-0.502821147441864,-0.23194395005702972,-0.41266122460365295,-0.35249632596969604,-0.05019158869981766,0.08842543512582779,0.005134216975420713,-0.17478150129318237,0.08655073493719101,-0.13004352152347565,-0.4249078929424286,0.11489129066467285,-0.2102777063846588,-0.2199764996767044,-0.03068520314991474,-0.11697380989789963,-0.46639284491539,-0.0820242315530777,0.08789704740047455,0.09968101978302002,-0.15354813635349274,0.13414470851421356,-0.0417674221098423,-0.40456318855285645,-0.15296690165996552,-0.03321025148034096,0.9454739689826965,-0.11997450888156891,0.020507145673036575,-0.13954289257526398,-0.129020094871521,-0.3450089395046234,-0.2027229219675064],[0.2181875854730606,0.07861847430467606,-0.22204363346099854,0.5170860886573792,0.357428640127182,-0.05433640256524086,-1.288112998008728,0.05508773401379585,-0.21875424683094025,-0.09089351445436478,-0.0012552853440865874,0.08384387940168381,-0.09606850147247314,-0.08039765059947968,0.005152249243110418,-0.1320178210735321,0.6006829142570496,0.4672723114490509,0.11403369158506393,-0.015297351405024529,0.2334483563899994,0.003278179792687297,0.13957880437374115,0.275888592004776,0.14951659739017487,0.05256140977144241,0.030037246644496918,-0.2964799702167511,0.0020258352160453796,0.17683160305023193,-0.013053744100034237,0.5866315960884094,-0.76431804895401,-0.2697642147541046,0.21858642995357513,-0.3645445704460144,-0.15250980854034424,0.14527717232704163,-0.2700864374637604,-0.11110048741102219,0.0553661473095417,0.08197787404060364,-0.20047394931316376,-0.048512496054172516,-0.35023877024650574,0.029888084158301353,-0.06081318482756615,0.025113554671406746,0.14891237020492554,-0.10223762691020966,-0.12692619860172272,-0.12615080177783966,0.12364151328802109,0.3025435507297516,-0.1598079949617386,0.7592502236366272,0.20389752089977264,-0.22244592010974884,-0.30235564708709717,-0.3849223256111145,-0.3260340094566345,0.15875624120235443,-0.23764361441135406,0.04443947598338127,-0.09309142827987671],[-0.44834572076797485,-0.030741743743419647,0.007141829933971167,-0.34438589215278625,-0.08482237160205841,-0.168337881565094,1.0783430337905884,-0.20814158022403717,0.5961927771568298,0.18207015097141266,0.06299715489149094,0.5727188587188721,0.14812134206295013,-0.04154226556420326,0.325056791305542,0.1758214831352234,-0.16888053715229034,0.10227207839488983,0.07519450038671494,-0.09301113337278366,0.1483609825372696,0.5415014624595642,-0.5597417950630188,-0.5078068971633911,-0.17184476554393768,0.09743984788656235,-0.09287957102060318,0.6736413240432739,0.14694714546203613,-0.23697957396507263,-0.18441231548786163,-0.2765016555786133,-0.29992637038230896,-0.23203863203525543,-0.07491820305585861,0.08762060105800629,0.03985898569226265,0.14092111587524414,0.010412867181003094,0.028454171493649483,0.21483144164085388,0.11086144298315048,-0.16428139805793762,0.06247797608375549,-0.20126989483833313,-0.2128353863954544,0.13348720967769623,-0.328550785779953,0.0030031241476535797,0.07031676918268204,0.14191880822181702,0.022116096690297127,0.05962061136960983,-0.05425712838768959,0.09199029952287674,-0.5852952003479004,0.008785892277956009,0.15174104273319244,-0.06506070494651794,0.29423969984054565,0.023250950500369072,0.004591053817421198,0.27926087379455566,-0.0802791491150856,-0.17953619360923767],[-0.1938776820898056,-0.23217855393886566,-1.1365529298782349,-0.20765362679958344,0.29689833521842957,-0.5362716317176819,-0.4974806308746338,-0.05616931617259979,0.4890066981315613,-0.1424737274646759,0.4337983727455139,0.6982604265213013,-0.0662306398153305,0.09413743019104004,0.0065492489375174046,0.08916395157575607,-0.20215271413326263,-0.18045468628406525,-0.00794261321425438,0.013873908668756485,0.4512929320335388,-0.5073479413986206,0.09940669685602188,0.15386006236076355,-0.03205101191997528,-0.10117516666650772,0.473302960395813,0.6299906373023987,0.08032665401697159,0.2687055170536041,-0.07859262824058533,0.4290161430835724,-0.9692797064781189,-0.10647401213645935,0.07727430760860443,0.20711909234523773,-0.034716036170721054,-0.03322288766503334,-0.039615221321582794,-0.08624599874019623,0.15803204476833344,-0.187748521566391,-0.24474120140075684,0.0646514892578125,-0.06364800035953522,-0.10440009832382202,-0.030268434435129166,-0.15539197623729706,0.10789214819669724,-0.011742898263037205,0.031065979972481728,0.1410800665616989,-0.13356928527355194,0.14605900645256042,-0.6299700140953064,0.030874134972691536,-0.07832782715559006,0.016316166147589684,0.4636431336402893,-0.4489637017250061,-0.015094679780304432,0.10559672117233276,-0.3147219121456146,-0.44986072182655334,-0.15010564029216766],[0.45259132981300354,-0.1471274048089981,-0.23431526124477386,0.033144738525152206,-0.3789527714252472,0.2167457640171051,0.5904045104980469,-0.06691467761993408,-0.8994107246398926,-0.17019206285476685,-0.2743559181690216,0.24138173460960388,0.02883569337427616,0.039691489189863205,-0.65418541431427,-0.05423356965184212,0.21646471321582794,-0.028048507869243622,-0.2732298970222473,0.11136185377836227,-0.05313853919506073,0.10103169083595276,0.033495184034109116,-0.3386037051677704,-0.3123292922973633,-0.005414001643657684,-0.5310530066490173,0.1354084014892578,0.08375692367553711,-0.10194721072912216,-0.07751627266407013,0.026102174073457718,0.8016860485076904,-0.006158023606985807,-0.15413041412830353,0.911471962928772,0.2611064910888672,0.2872426509857178,-0.06597129255533218,-0.08238407969474792,0.012300829403102398,-0.1592526137828827,-0.04505668953061104,0.09525498747825623,-0.1407155990600586,-0.25553587079048157,0.11434575170278549,-0.553486704826355,-0.1947229653596878,0.10366178303956985,-0.337117075920105,-0.32720908522605896,0.27244997024536133,-0.7391719818115234,0.4156726598739624,0.2498718500137329,-0.04659692943096161,0.31942272186279297,0.5279490351676941,-0.17898103594779968,-0.3967079818248749,-0.2901185154914856,0.2725971043109894,0.3953688144683838,0.14538805186748505],[0.29834461212158203,0.15736748278141022,0.02340017445385456,0.27221137285232544,-0.0024527274072170258,0.4913019835948944,-0.05863211303949356,0.11148258298635483,-0.8127808570861816,-0.1381043642759323,-0.6473532915115356,-0.5549976229667664,0.4314280152320862,-0.05708818510174751,-0.23442000150680542,-0.033917445689439774,0.06120535358786583,-0.08593348413705826,0.33580219745635986,0.11864029616117477,-0.46708184480667114,-0.2201208472251892,0.2687760591506958,0.041280824691057205,0.44515806436538696,-0.009434384293854237,-0.9686554670333862,0.22205685079097748,-0.17118415236473083,-0.22606892883777618,-0.0072134146466851234,0.04820869863033295,0.6287195086479187,0.22927744686603546,-0.3454710841178894,-0.06955888867378235,0.061584435403347015,0.3865549564361572,-0.28531697392463684,-0.3047097623348236,0.3050253093242645,-0.3918880224227905,-0.33614054322242737,0.24862967431545258,-0.40754055976867676,-0.2587082087993622,0.14411437511444092,-0.12269274145364761,-0.013999824412167072,0.0211686659604311,-0.42651695013046265,-0.4941936135292053,0.1313076913356781,0.11810746788978577,-0.2709895074367523,0.206838458776474,0.20163725316524506,0.20181480050086975,0.21594397723674774,-0.11873788386583328,0.2940100431442261,-0.03874802216887474,0.10637650638818741,0.09785565733909607,0.16226017475128174],[-0.16344130039215088,-0.206739604473114,-0.35724860429763794,0.13451123237609863,0.06351537257432938,-0.371468186378479,-0.3153011202812195,0.08846281468868256,0.5255270600318909,0.17689713835716248,0.23596639931201935,-0.0078081474639475346,0.05141338333487511,0.09589377045631409,0.40308257937431335,-0.3345086872577667,-0.11755482107400894,-0.10295220464468002,0.01235453225672245,0.05450638756155968,0.28169047832489014,0.12198755145072937,-0.28501462936401367,0.0902215912938118,-0.60088050365448,0.07060021907091141,2.1779465675354004,0.45396554470062256,0.028028827160596848,0.03449447080492973,0.19659043848514557,1.0759252309799194,-0.5079531669616699,-0.09133289009332657,0.3647954761981964,0.5318453311920166,-0.012125879526138306,0.5788772106170654,0.2492394596338272,0.062156159430742264,0.06842462718486786,0.11027929931879044,-0.16902223229408264,0.02329440228641033,0.47550028562545776,0.010157962329685688,-0.04788697510957718,0.027556708082556725,0.07567994296550751,0.055529188364744186,-0.004448513500392437,0.164419025182724,-0.013980595394968987,0.37296396493911743,-0.15350989997386932,0.6972540616989136,0.09631837904453278,0.27874162793159485,-0.05469169840216637,-0.36672595143318176,0.2506008744239807,0.04932762682437897,0.18769510090351105,-0.09092886745929718,0.15645158290863037],[0.2380884885787964,0.21688291430473328,0.5467713475227356,0.09950210154056549,0.3340224027633667,0.4111933410167694,-0.3738584518432617,0.013893738389015198,-0.6630150675773621,0.34257352352142334,-0.3019615411758423,0.04590722545981407,-0.34277889132499695,-0.03331376239657402,-0.3914623558521271,-0.5506454706192017,0.39427006244659424,0.21492235362529755,-0.006346061825752258,-0.06679314374923706,-0.05551975965499878,0.10226131975650787,0.04690073803067207,-0.2289426624774933,-0.47752687335014343,0.05196822062134743,-1.5923259258270264,-0.4503604769706726,-0.10258287936449051,-0.19025485217571259,-0.1149384006857872,-0.42979806661605835,1.1657050848007202,0.17465098202228546,-0.07769607752561569,-0.5131298303604126,-0.027457337826490402,0.555557131767273,0.018702339380979538,0.4140750467777252,-0.14477093517780304,-0.07750343531370163,0.2795765697956085,-0.23178622126579285,0.17128343880176544,-0.05405859649181366,-0.13325901329517365,0.39244645833969116,0.06945043057203293,-0.08582394570112228,-0.11615616828203201,-0.20806173980236053,-0.02394460327923298,-0.1361536830663681,0.032243963330984116,0.29107680916786194,0.07289872318506241,-0.1600686013698578,-0.45848408341407776,0.18065372109413147,0.2981330156326294,0.08883797377347946,0.16643010079860687,-0.00477218022570014,0.13526077568531036],[-0.31295475363731384,0.14008550345897675,-0.2541622519493103,-0.4737241864204407,0.11123603582382202,-0.36700958013534546,-0.34123411774635315,-0.01950758509337902,0.8166864514350891,-0.1370781809091568,0.327523797750473,-0.03493528813123703,0.12970246374607086,-0.0757603868842125,0.09611700475215912,0.2925734221935272,-0.056869473308324814,0.22829873859882355,-0.18012140691280365,0.11458250135183334,0.23340339958667755,0.17175862193107605,-0.03991374373435974,0.14850516617298126,0.08386790007352829,-0.06370629370212555,0.5589008331298828,0.00975072756409645,0.17833000421524048,0.27179327607154846,-0.0565766803920269,0.7246811389923096,-1.2580759525299072,-0.4162861406803131,0.361877977848053,0.08615681529045105,-0.17139029502868652,0.14252275228500366,-0.21532852947711945,0.10969668626785278,0.015456545166671276,-0.09700576961040497,0.14693324267864227,0.1024177223443985,0.06616643071174622,0.08296451717615128,0.14917078614234924,-0.13271558284759521,-0.15231607854366302,0.09859705716371536,0.13012813031673431,0.39975506067276,-0.04290828853845596,0.6927970051765442,-0.378633052110672,0.1165756955742836,0.14419162273406982,0.17088942229747772,-0.09781865775585175,-0.2539171874523163,0.045701753348112106,0.2777949869632721,-0.16616776585578918,-0.19819249212741852,0.10275531560182571],[-0.190565824508667,-0.01933181844651699,0.11674517393112183,0.25438275933265686,0.17654377222061157,-0.5123444199562073,-0.05043854936957359,0.09498657286167145,1.1047799587249756,0.31533563137054443,0.18323959410190582,-0.11916863173246384,0.09003997594118118,-0.031967636197805405,0.6216632723808289,0.22900445759296417,-0.4915679693222046,-0.10821382701396942,0.11598171293735504,-0.0811130553483963,1.0558135509490967,0.2047964632511139,-0.3853534460067749,0.1051960438489914,0.33630824089050293,0.004151106812059879,0.9200690984725952,0.09048932790756226,-0.22076316177845,0.05038296431303024,0.1627679318189621,0.24925413727760315,-0.7756158113479614,0.16024500131607056,-0.12632499635219574,0.4581974446773529,0.24872082471847534,0.05730785056948662,0.18280355632305145,-0.16214022040367126,0.1214078813791275,0.15002550184726715,-0.17371132969856262,0.14854389429092407,-0.08504822105169296,-0.4310919940471649,0.26521754264831543,-0.17129866778850555,-0.20459003746509552,0.02195676788687706,-0.019552264362573624,-0.02430371567606926,0.2079772800207138,0.4392426609992981,0.045325055718421936,-0.2539808452129364,-0.18043889105319977,-0.08215401321649551,-0.030757486820220947,-0.08047457039356232,0.2296392321586609,-0.04899204522371292,0.09453776478767395,-0.33901461958885193,0.22635102272033691],[0.4380270540714264,0.11620945483446121,0.276524156332016,0.38820117712020874,-0.13225895166397095,0.33521562814712524,-0.2246847152709961,0.4699629843235016,-0.488068550825119,-0.3537192642688751,0.15448379516601562,0.47890952229499817,0.31734248995780945,-0.05141307786107063,0.13099683821201324,-0.18752697110176086,0.3373467028141022,0.1009606420993805,0.24425382912158966,0.12134844064712524,-0.04690317437052727,-0.022364983335137367,0.40528059005737305,0.4542038142681122,0.16121752560138702,-0.05214245989918709,0.3478241264820099,-0.49095022678375244,0.2978765666484833,0.12025357782840729,0.47378164529800415,-0.05845855921506882,0.9734125733375549,0.06019623950123787,0.6101080179214478,0.432810515165329,0.17728875577449799,0.047217756509780884,-0.2276962697505951,-0.03180830925703049,0.3339165449142456,0.01784985512495041,-0.07966681569814682,0.28272563219070435,-0.08005253225564957,-0.14101384580135345,0.3199048340320587,-0.1387794315814972,0.15985767543315887,0.22999612987041473,0.2083274871110916,-0.3004658818244934,0.18738679587841034,-0.3742728531360626,-0.0744396522641182,0.3834506869316101,0.3008006811141968,-0.19930292665958405,-0.656836211681366,0.5644580721855164,0.3682023584842682,0.16606071591377258,0.5539016127586365,0.4934564530849457,0.3102659583091736],[-0.08007068932056427,-0.14989115297794342,0.09078594297170639,-0.16224096715450287,-0.276073157787323,-0.17004500329494476,0.10322128236293793,0.0019687095191329718,0.971893846988678,-0.12067077308893204,0.08037390559911728,-0.11740020662546158,-0.17549550533294678,0.010669806972146034,-0.25217506289482117,0.3785742223262787,-0.14528115093708038,-0.2892128825187683,-1.2752617597579956,0.09992516785860062,0.23495641350746155,-0.4242323338985443,-0.1877477616071701,0.03368917480111122,-0.48712190985679626,0.10346440970897675,2.2786197662353516,-0.03935208171606064,0.18368063867092133,0.3491100072860718,-0.11216074973344803,-0.08621044456958771,0.02886616624891758,-0.3888603746891022,0.3255302608013153,0.08555040508508682,-0.3767591416835785,0.021865418180823326,0.1531364619731903,-0.0015842195134609938,0.08415699005126953,0.035537514835596085,-0.3007776141166687,0.17456263303756714,0.10276276618242264,0.0074962954968214035,0.12282537668943405,-0.009239526465535164,-0.18677352368831635,0.11352226883172989,0.06830090284347534,0.11812892556190491,-0.006531280931085348,0.42274558544158936,-0.25651752948760986,0.45990288257598877,0.010683152824640274,0.3666902184486389,0.526085376739502,-0.23709413409233093,0.37874752283096313,0.08825244009494781,0.014635319821536541,-0.0860205739736557,-0.08395469933748245],[0.018405376002192497,-0.3181275427341461,0.10679363459348679,-0.4655935764312744,0.004135134629905224,-0.11325427144765854,1.434319257736206,-0.13027916848659515,0.39729517698287964,0.4359118640422821,-0.13897262513637543,0.05286772549152374,0.3373000919818878,-0.027854928746819496,-0.29512619972229004,0.0976661741733551,-0.12565267086029053,-0.053924113512039185,-0.2742989957332611,-0.1179351881146431,-0.5557923316955566,0.024302607402205467,-0.1175525113940239,-0.062225207686424255,-0.22357691824436188,0.07851605862379074,-1.1636055707931519,0.2858549952507019,-0.07241133600473404,-0.1542993038892746,-0.20843185484409332,-0.6358761191368103,-0.4402182698249817,-0.17505322396755219,-0.15855202078819275,-0.4303254783153534,0.09497590363025665,-0.03805791214108467,-0.12306535989046097,0.3462662994861603,-0.14075176417827606,0.04676279053092003,0.08416879922151566,-0.026438718661665916,-0.025765404105186462,0.16276627779006958,-0.13925565779209137,-0.2009762078523636,0.2781534492969513,0.024851450696587563,-0.06802231818437576,-0.09918052703142166,-0.0001765359629644081,-0.13619834184646606,0.30394724011421204,-0.6783841848373413,-0.1960635930299759,-0.055607207119464874,0.14021150767803192,0.37463727593421936,0.07256916910409927,-0.00442897155880928,-0.005440905690193176,-0.0005099864210933447,-0.14439700543880463],[0.08459407091140747,0.1474343091249466,0.40399497747421265,0.15170428156852722,0.24209052324295044,-0.13235914707183838,-0.16245906054973602,0.5443803668022156,0.05616330727934837,-0.19221021234989166,0.5480539202690125,0.40894079208374023,-0.05311881750822067,0.035326164215803146,-0.37164515256881714,0.07687056809663773,0.2996804714202881,0.6846517324447632,-0.01840060204267502,-0.06210960075259209,0.01165989600121975,-0.3479061722755432,0.18778030574321747,0.07315176725387573,0.2907707989215851,0.06257355958223343,0.7503684163093567,-0.06355680525302887,0.34052127599716187,0.14529040455818176,0.2837904989719391,0.8089872002601624,0.06148623302578926,-0.15346263349056244,0.6143038868904114,0.47551262378692627,0.2345251888036728,0.9725693464279175,-0.23923452198505402,-0.11459212750196457,0.24838823080062866,-0.2806991636753082,-0.09270314872264862,0.2121390849351883,-0.10168635100126266,-0.05183573067188263,0.1759791523218155,-0.05796526372432709,-0.029797235503792763,0.17280982434749603,-0.13250112533569336,-0.20935551822185516,0.10080313682556152,-0.10830941051244736,-0.09366084635257721,0.04881447181105614,0.2600995600223541,-0.28450533747673035,-0.4033272862434387,0.4794488251209259,0.22811318933963776,0.0741947740316391,0.20238454639911652,0.30463093519210815,0.2617931663990021],[0.11037470400333405,-0.33088019490242004,0.4264528155326843,-0.32395365834236145,-0.06841244548559189,0.043032821267843246,1.028990626335144,-0.008542683906853199,0.5540516376495361,0.7260119915008545,0.1884986311197281,0.6298056840896606,0.28923550248146057,-0.07472070306539536,0.4149797856807709,0.6768866777420044,-0.14888611435890198,0.04741023853421211,-0.4050227403640747,-0.03236088529229164,0.002111043781042099,-0.2653316259384155,0.33579397201538086,0.28762173652648926,-0.7002468109130859,-0.09453621506690979,0.5126785635948181,0.3072008490562439,0.057797156274318695,0.24526368081569672,0.057933732867240906,-0.23326511681079865,0.6427660584449768,0.24231106042861938,0.04157223924994469,0.15987657010555267,-0.06224152073264122,-0.05886189639568329,0.1533011645078659,-0.19480347633361816,-0.04202808812260628,0.023660730570554733,-0.09636890888214111,0.13536414504051208,0.26669320464134216,-0.3085528612136841,0.044461626559495926,-0.10446419566869736,-0.05793445184826851,0.08548833429813385,0.2490992397069931,-0.17608244717121124,0.20032289624214172,-0.30931979417800903,0.5280463099479675,-0.1429300755262375,-0.16237246990203857,0.1204628050327301,-0.04821835458278656,0.25466591119766235,-0.43868833780288696,-0.297048419713974,0.052126333117485046,0.30062732100486755,0.04112507775425911],[0.10232578217983246,-0.6085591316223145,0.22852173447608948,-0.2786049246788025,0.3122539818286896,-0.18854370713233948,0.11232666671276093,0.046813104301691055,-0.054663464426994324,0.5799506902694702,-0.0526433140039444,-0.4016169011592865,-0.15925906598567963,-0.10330110043287277,0.05465098097920418,0.06055421009659767,-0.013552629388868809,0.1299211084842682,-0.10876428335905075,0.10821781307458878,0.22222274541854858,0.5805158019065857,0.4791216552257538,0.4610900282859802,0.16574719548225403,-0.028343357145786285,-0.7883182168006897,0.11077720671892166,0.07161934673786163,0.16158412396907806,0.16422487795352936,-0.37603244185447693,-1.2811360359191895,0.38639432191848755,-0.04711141809821129,0.14219491183757782,0.19703039526939392,0.2293095886707306,0.03401315584778786,-0.14958089590072632,0.09165734797716141,0.44808465242385864,-0.017600560560822487,0.09712374955415726,-0.38140588998794556,-0.519285261631012,0.13201172649860382,-0.22945965826511383,0.015941008925437927,0.044612206518650055,-0.2668823003768921,-0.2963731288909912,0.17246101796627045,-0.26282772421836853,0.2572482228279114,0.11845353245735168,-0.22049106657505035,-0.004713419359177351,1.0314710140228271,-0.06952603906393051,-0.3760044276714325,-0.0797281488776207,-0.3000291883945465,0.09109038859605789,-0.000874748220667243],[0.0073365941643714905,-0.059068117290735245,0.0007809479138813913,-0.2160268872976303,-0.1705821305513382,0.4479132294654846,0.3995734453201294,-0.37095049023628235,-0.5703569054603577,-0.0360843725502491,-0.3639110028743744,-0.16818585991859436,0.0011879804078489542,-0.03351418673992157,-0.1931626796722412,-0.0346684493124485,0.07391314208507538,-0.11114675551652908,0.2033233493566513,-0.08087264746427536,-0.16418784856796265,0.3030267655849457,0.006706598214805126,-0.741749107837677,-0.03689488023519516,-0.025023391470313072,-1.7118394374847412,-0.3961701989173889,0.037421178072690964,-0.2709498405456543,-0.16220061480998993,-0.24632048606872559,0.10818725824356079,0.2245636284351349,-0.16594338417053223,0.06987547874450684,0.2193143218755722,0.13010148704051971,0.09113860875368118,-0.10870186984539032,-0.05759964510798454,0.27499625086784363,-0.06692540645599365,-0.043755676597356796,-0.025186089798808098,-0.19870240986347198,-0.0012671073200181127,0.09904586523771286,-0.2739030718803406,0.06887555122375488,-0.054330747574567795,-0.17732113599777222,0.06293178349733353,-0.10407000035047531,0.18813931941986084,-0.046224743127822876,-0.136336550116539,-0.18248410522937775,0.22210805118083954,0.3201383054256439,-0.3912379741668701,-0.028698811307549477,0.11346980929374695,0.15744049847126007,-0.1268308311700821],[0.1311829835176468,-0.23536844551563263,0.3013145327568054,-0.03811520338058472,-0.10680285841226578,0.3196677267551422,0.7769134044647217,-0.16119052469730377,0.4894283711910248,0.204822838306427,-0.05504949018359184,0.2115456610918045,0.3694266080856323,0.0861930251121521,-0.32043322920799255,0.16063688695430756,0.14583668112754822,-0.09120079129934311,-0.2500043511390686,-0.03363095223903656,-0.5130263566970825,0.04104365408420563,0.15958935022354126,-0.07818219065666199,-0.11535672098398209,0.09447001665830612,-0.8174006342887878,0.404052197933197,-0.03680587187409401,-0.3367067277431488,-0.1516806185245514,-1.0467108488082886,0.2525383532047272,0.18532349169254303,-0.2946320176124573,-0.26530012488365173,0.09001036733388901,-0.29783982038497925,0.11743820458650589,0.3936738073825836,-0.10459108650684357,0.19992157816886902,0.02576945349574089,-0.06415393948554993,0.14727945625782013,-0.2657509446144104,-0.08361432701349258,-0.07841295003890991,0.11988531798124313,0.006480032112449408,0.09671790897846222,-0.03125225380063057,0.0265483558177948,-0.38127008080482483,0.24166980385780334,-0.5657073259353638,0.03594280779361725,-0.38501158356666565,-0.03614319488406181,0.4002353250980377,0.2216467559337616,-0.08803611993789673,0.007938106544315815,0.30632543563842773,-0.21212585270404816],[-0.2702609896659851,0.034360673278570175,-0.6711550354957581,0.1302039474248886,0.14861340820789337,-0.3117954134941101,0.27135252952575684,-0.16086286306381226,0.8832292556762695,-0.0331396609544754,0.27366480231285095,0.1744566410779953,0.225941464304924,-0.0025240746326744556,-0.03800167888402939,0.25019028782844543,-0.24710893630981445,-0.22932206094264984,0.0008447380387224257,-0.06821396946907043,0.43358325958251953,0.2863188087940216,-0.3549862802028656,-0.4646316170692444,-0.11970493942499161,-0.040509264916181564,0.304901123046875,0.2799726128578186,-0.2593846917152405,-0.13384343683719635,0.19369740784168243,0.46542593836784363,-0.8084105253219604,0.13068807125091553,-0.34366491436958313,0.12154985964298248,-0.11517512053251266,0.06426268070936203,0.23872585594654083,0.2117753028869629,0.03293061628937721,-0.06864038854837418,-0.18262600898742676,0.19197291135787964,0.2728852331638336,-0.11887577176094055,-0.036088913679122925,0.06942718476057053,-0.5727345943450928,0.12733180820941925,0.26242324709892273,0.3745867609977722,-0.16225871443748474,0.5908889770507812,-0.24303768575191498,-0.4720000922679901,0.09635521471500397,-0.2622303068637848,0.2943280339241028,0.3534208834171295,0.47254231572151184,-0.24113230407238007,0.1458691507577896,-0.0947902724146843,0.04886052384972572],[0.4147551953792572,-0.16778098046779633,0.19302783906459808,0.1271314173936844,-0.31281453371047974,0.8084997534751892,0.059573832899332047,0.11985702812671661,-0.8714713454246521,0.28192806243896484,-0.19391591846942902,0.4116296172142029,-0.0822376161813736,0.10826214402914047,-0.3166227340698242,0.11351865530014038,0.10939905047416687,-0.08542629331350327,-0.24216637015342712,0.00019604880071710795,-0.2508486807346344,0.19856123626232147,0.3091525733470917,-0.11959090828895569,-0.270530104637146,-0.024287886917591095,0.22427162528038025,-0.05900845676660538,-0.02849191054701805,0.0965045690536499,0.14195601642131805,-0.6582154035568237,1.452528715133667,-0.02387315221130848,0.1368597447872162,0.4463929533958435,0.0492069236934185,-0.23798805475234985,0.008107483386993408,0.1924416869878769,0.11845516413450241,0.18334101140499115,-0.06680791079998016,0.08995991945266724,-0.18069162964820862,-0.37863993644714355,0.18623587489128113,-0.18066495656967163,-0.09016405791044235,0.0986797958612442,-0.037221334874629974,-0.08929042518138885,0.1697743684053421,-0.4189341068267822,0.3583512306213379,0.021653123199939728,0.02193457819521427,0.2941809594631195,-0.3482424318790436,0.38355109095573425,-0.11581509560346603,0.0964050441980362,0.12324253469705582,0.19399459660053253,0.006039322353899479],[-0.10959914326667786,-0.06204216182231903,0.6270884275436401,-0.15874075889587402,-0.4468788206577301,-0.14217695593833923,1.2582945823669434,0.005568481516093016,0.6321814656257629,-0.0746183842420578,0.04561135172843933,0.2131934016942978,0.1352301388978958,0.07609482109546661,-0.32150667905807495,-0.01133236289024353,-0.10303015261888504,-0.0509144626557827,-0.41951289772987366,0.09259998798370361,-0.27429625391960144,-0.3076557517051697,0.015458239242434502,-0.23440605401992798,-0.26002195477485657,-0.07105720043182373,0.24872615933418274,0.26204386353492737,0.09186792373657227,-0.34808939695358276,-0.435414582490921,-0.27109184861183167,1.028977632522583,-0.2380598485469818,-0.024057574570178986,-0.15987643599510193,-0.05934830754995346,-0.13456805050373077,-0.027953969314694405,0.329352468252182,-0.12943990528583527,-0.11081384122371674,0.32895800471305847,-0.2046968638896942,0.05092975124716759,0.4895610213279724,-0.03952960669994354,-0.2637154161930084,-0.022830836474895477,-0.050751231610774994,0.15558451414108276,-0.026135673746466637,-0.12107354402542114,0.007563336752355099,-0.05202462524175644,-0.2567620873451233,0.061788853257894516,0.18175646662712097,-0.8283988237380981,