{"topology":"mlp_tanh_3layer","input_dim":65,"output_dim":18,"source":"model_easy.onnx","layers":[{"w":[[0.15862782299518585,-0.022139932960271835,0.6621270179748535,-0.37803593277931213,0.02283615805208683,-0.22474877536296844,0.7474614977836609,-0.20501352846622467,0.44577574729919434,0.22351820766925812,0.11429139971733093,0.3698314130306244,0.3229185938835144,-0.07115662097930908,-0.2445726841688156,0.24929691851139069,-0.08743303269147873,-0.28805166482925415,-0.19829870760440826,0.06057826429605484,0.08853311091661453,-0.29674628376960754,-0.06553126871585846,-0.25348690152168274,0.5828201770782471,-0.10729598999023438,-0.40457475185394287,-0.053499359637498856,-0.01321918610483408,-0.20228122174739838,-0.13608327507972717,0.08855270594358444,-0.6662094593048096,0.49510952830314636,-0.09340164810419083,-0.29137852787971497,-0.0032515088096261024,0.1443697065114975,-0.13187168538570404,0.1345386505126953,0.05022721737623215,-0.05335156247019768,-0.21551083028316498,0.21063807606697083,-0.27932479977607727,-0.07595931738615036,0.05474065616726875,-0.4441853165626526,0.029127441346645355,0.12433076649904251,-0.1725648045539856,-0.20255640149116516,0.09844975173473358,-0.19794970750808716,0.3228244483470917,-0.2638412117958069,0.05319884419441223,-0.198401540517807,0.16719861328601837,0.6203752160072327,0.20243722200393677,-0.25033068656921387,0.28245222568511963,0.22909824550151825,-0.10735849291086197],[-0.09155495464801788,0.24939166009426117,0.3930855393409729,0.3277018666267395,-0.011810343712568283,-0.3073331117630005,-1.5909048318862915,0.06287281960248947,-0.1134338229894638,0.02370304800570011,0.10694417357444763,0.21838034689426422,-0.35901132225990295,-0.06026111915707588,0.39141255617141724,0.15428279340267181,0.1893821358680725,0.34367892146110535,0.4600484371185303,0.11363023519515991,0.1501888483762741,-0.2538679838180542,0.4322592616081238,0.18858297169208527,0.722510039806366,-0.041011326014995575,-0.32202768325805664,-0.6624334454536438,-0.19562742114067078,-0.13930201530456543,0.0741562470793724,-0.2623927891254425,0.32237663865089417,0.4765753448009491,0.11374066770076752,-0.04846491664648056,0.024313287809491158,-0.4145941138267517,0.036206360906362534,0.0019318301929160953,-0.07134188711643219,0.25068023800849915,-0.0879097506403923,-0.040977638214826584,0.1104598268866539,-0.11484787613153458,-0.11015785485506058,0.5221794843673706,0.2070096880197525,-0.01052466407418251,0.0336761437356472,-0.06250029802322388,-0.1780833601951599,0.08272816240787506,0.21105636656284332,-0.20958006381988525,0.04288971424102783,-0.37965309619903564,-0.14768292009830475,0.5342466235160828,-0.04624832794070244,-0.021924912929534912,-0.11744760721921921,0.1750340759754181,-0.039269447326660156],[-0.19046428799629211,-0.4457446038722992,-0.04322688281536102,-0.20687733590602875,0.011615888215601444,-0.16711165010929108,0.013039911165833473,-0.11726827174425125,0.9938468337059021,0.4860306680202484,0.29719337821006775,0.29269757866859436,0.27879980206489563,-0.11284957081079483,0.3716946542263031,0.2118295133113861,0.03127181902527809,0.057536620646715164,0.22117306292057037,-0.06142290681600571,0.45552992820739746,-0.11034193634986877,0.012118135578930378,-0.19486992061138153,0.49157747626304626,-0.042086511850357056,0.6335312128067017,0.5985687375068665,0.09643986076116562,0.01725747063755989,-0.031074857339262962,0.018755868077278137,-0.8047820329666138,0.2653060257434845,-0.09968472272157669,0.2739498019218445,-0.15771357715129852,0.04523232951760292,-0.022701121866703033,-0.19979949295520782,0.20408815145492554,0.21523821353912354,-0.1169285997748375,0.0985962375998497,-0.054094601422548294,-0.10873869061470032,-0.011556883342564106,-0.08078692853450775,-0.2073511928319931,0.10805603861808777,0.21252651512622833,0.28314200043678284,0.13899865746498108,0.4141466021537781,0.34555336833000183,0.08738504350185394,0.03894593194127083,-0.1631247103214264,0.4866461157798767,-0.15202239155769348,-0.1919344812631607,-0.3000151813030243,0.1531638503074646,0.24660912156105042,-0.18549874424934387],[-0.22186130285263062,-0.43286705017089844,-0.6309230923652649,-0.2676762342453003,-0.03810345008969307,-0.10411062836647034,0.017944255843758583,-0.137911856174469,0.9224661588668823,0.24945710599422455,0.5434427857398987,0.5248551964759827,0.13925790786743164,-0.05840720981359482,0.3051411807537079,0.3720426559448242,-0.020318062976002693,-0.014192217029631138,0.014604729600250721,-0.09236596524715424,0.7250837087631226,-0.5768852233886719,-0.06968864053487778,0.28299593925476074,-0.11083539575338364,-0.10650242120027542,1.5851061344146729,0.09647808969020844,0.0009355851216241717,0.20822416245937347,-0.11691080033779144,-0.27851054072380066,-0.628574013710022,0.11336452513933182,0.15603239834308624,0.3300580680370331,-0.12397658824920654,-0.13686789572238922,0.24701641499996185,-0.21929290890693665,0.2362568974494934,-0.03297907114028931,0.16486941277980804,0.07362756133079529,0.03836391121149063,0.15799246728420258,0.0584624744951725,0.1627049595117569,0.195556640625,0.17992743849754333,-0.029979543760418892,0.06326217204332352,0.005442580673843622,0.3698878288269043,-0.08537838608026505,0.3673824071884155,-0.0953720211982727,0.00446836743503809,-0.05515434592962265,-0.18321442604064941,-0.0759163349866867,-0.08369465917348862,-0.19412806630134583,0.1130136102437973,-0.13259731233119965],[-0.0773649737238884,0.12008366733789444,1.5045535564422607,0.24416577816009521,-0.09041739255189896,-0.03517261520028114,-0.3948444426059723,0.06896796077489853,-0.04487647861242294,-0.08378017693758011,-0.06002483889460564,0.08569715172052383,-0.43892133235931396,0.023521892726421356,0.2504962086677551,-0.13100025057792664,0.17789550125598907,0.04946350306272507,0.04257017374038696,-0.1044379398226738,0.1208462193608284,0.19619114696979523,0.1500057578086853,0.10612322390079498,0.4435829222202301,-0.05244198068976402,0.4366002380847931,-0.9228365421295166,-0.024986784905195236,-0.10784226655960083,0.061695296317338943,-0.3641316294670105,0.4082912504673004,0.05347391590476036,0.041130345314741135,-0.02129649557173252,0.1369234174489975,-0.22243419289588928,0.076321080327034,0.11435364931821823,-0.0924801453948021,0.03935498371720314,-0.0016644244315102696,-0.05701836571097374,-0.04624762013554573,0.0012098730076104403,-0.07658135145902634,0.18737487494945526,-0.12040930241346359,-0.010844472795724869,-0.11541237682104111,-0.18405936658382416,-0.04690035432577133,0.05716206505894661,0.22372397780418396,0.028507821261882782,-0.08949016034603119,-0.28816038370132446,-0.21653345227241516,0.6698257327079773,0.17763054370880127,0.12902827560901642,-0.03244704008102417,0.13054169714450836,0.19337335228919983],[-0.09393704682588577,0.1357867419719696,1.1682918071746826,-0.03917403891682625,-0.06148894503712654,-0.051519736647605896,0.2757052183151245,-0.0035852789878845215,0.36320048570632935,-0.4981098771095276,0.6113836169242859,0.09858208894729614,0.24145075678825378,0.09389461576938629,0.3390390872955322,0.2947748005390167,-0.09001043438911438,-0.14608192443847656,-0.008398348465561867,-0.05710870772600174,-0.20779499411582947,-0.259310781955719,0.08863256871700287,0.17765583097934723,0.2596306800842285,0.07067500799894333,0.8432706594467163,-0.30235010385513306,0.17322394251823425,0.17276251316070557,0.10581696778535843,0.31444787979125977,-1.0931744575500488,0.030453188344836235,0.486646443605423,0.05758631229400635,0.1561623066663742,0.36535221338272095,0.025786755606532097,-0.09112563729286194,-0.1063447892665863,0.21002697944641113,0.09365587681531906,0.021049031987786293,-0.10917709022760391,0.054698314517736435,0.03819001466035843,0.1492876410484314,0.09050402045249939,0.13811179995536804,0.058324165642261505,0.1309647560119629,0.08756325393915176,0.29493600130081177,0.0966319590806961,-0.028853146359324455,0.11654409021139145,-0.033431246876716614,-0.572647750377655,0.26528507471084595,-0.41684994101524353,0.17596891522407532,-0.01354281883686781,-0.028114184737205505,0.0164084043353796],[0.01526180561631918,0.2568274438381195,0.6432216763496399,0.2722446024417877,-0.00714678131043911,0.2471933364868164,-0.652224063873291,0.29176613688468933,-0.4003496468067169,-0.48222315311431885,0.19683712720870972,-0.10386497527360916,-0.07176588475704193,0.04337656870484352,0.20862793922424316,-0.07887252420186996,0.21008791029453278,0.08975505083799362,0.17129696905612946,0.003510913345962763,-0.042336925864219666,0.26569849252700806,0.26834923028945923,0.2583938241004944,0.10179199278354645,0.12092620879411697,-0.7132717967033386,-0.7747278809547424,0.023628920316696167,0.3071429133415222,0.18803997337818146,-0.13652729988098145,-0.20947448909282684,0.029999490827322006,0.27087071537971497,0.02587856724858284,0.17370863258838654,-0.24058175086975098,-0.0028510752599686384,-0.1592116355895996,0.19655799865722656,0.017124097794294357,-0.19361428916454315,0.13740219175815582,0.13776734471321106,-0.22144392132759094,0.29457592964172363,0.014202346093952656,0.013320506550371647,0.26658982038497925,-0.07454179227352142,-0.0586014948785305,0.0760352611541748,0.05558883398771286,-0.03995487466454506,0.023235943168401718,0.19764827191829681,0.16065789759159088,-0.5238190293312073,0.2566748857498169,-0.20400570333003998,0.32350531220436096,0.0678604394197464,0.240506112575531,0.0627330020070076],[0.21931542456150055,0.35004881024360657,0.5042486786842346,0.21486593782901764,0.10746956616640091,0.03219514712691307,-0.2168489396572113,0.2757754623889923,-0.7076100707054138,-0.23889823257923126,-0.3325728476047516,-0.17211414873600006,-0.0956849455833435,-0.018059806898236275,0.01792941614985466,-0.35202905535697937,0.3168380558490753,0.3655961751937866,0.5977275371551514,-0.12198379635810852,-0.2263387143611908,0.385373592376709,0.21914491057395935,-0.0029103453271090984,0.48240989446640015,0.0965832993388176,-1.802115559577942,-0.5665162801742554,0.0984954908490181,-0.15348780155181885,-0.01761392317712307,0.0889696553349495,0.028928669169545174,-0.012586599215865135,0.040220387279987335,-0.3066329061985016,0.08642473816871643,-0.23178642988204956,0.021454934030771255,0.3356589376926422,-0.22465179860591888,0.1284056156873703,0.28577688336372375,-0.10552969574928284,-0.48141610622406006,0.19672462344169617,-0.20971594750881195,0.08133590221405029,0.06408784538507462,-0.1310238242149353,-0.08538118749856949,0.052035678178071976,-0.1679321676492691,-0.13210031390190125,0.14689628779888153,-0.48927316069602966,0.08086011558771133,-0.2244955450296402,-0.11606955528259277,0.3821665048599243,-0.14922335743904114,0.30343061685562134,-0.10083483904600143,-0.11803708225488663,0.15174177289009094],[0.09448478370904922,-0.11823463439941406,-0.27587783336639404,0.29328417778015137,0.12984448671340942,0.11490529030561447,0.2648620307445526,0.07437223941087723,-0.49014925956726074,0.1840134561061859,-0.3966748118400574,-0.3979775905609131,-0.03373807668685913,-0.04307679459452629,-0.15202322602272034,0.22912420332431793,0.05774091184139252,0.05563855543732643,0.39059433341026306,0.12389850616455078,-0.16773155331611633,-0.20395918190479279,0.24477384984493256,0.287060022354126,0.20084652304649353,0.09684183448553085,-1.1005982160568237,0.06421675533056259,0.3069571554660797,-0.31532955169677734,0.11607160419225693,-0.3301217257976532,0.6014876961708069,0.15358150005340576,-0.12425755709409714,-0.14155717194080353,0.0035530971363186836,0.0619267113506794,-0.11131814867258072,0.11982626467943192,-0.0484895259141922,0.1850426197052002,0.03918754309415817,-0.17042472958564758,0.2701375186443329,0.1643068492412567,-0.1256105750799179,0.3847300112247467,0.33685070276260376,-0.01863355003297329,0.18056856095790863,-0.009057526476681232,-0.10791396349668503,-0.006784506607800722,0.12974245846271515,0.174539253115654,0.2803729474544525,0.2875772714614868,0.24342851340770721,-0.00357148889452219,-0.13433122634887695,0.08562801778316498,0.14605014026165009,0.2510055899620056,0.07968597859144211],[0.11795861274003983,-0.25172504782676697,-0.04565693438053131,-0.3038264214992523,0.27097782492637634,-0.33272790908813477,-0.2534926235675812,-0.006775709800422192,0.4408148527145386,0.16341929137706757,0.08971536159515381,-0.09618934988975525,0.1866310089826584,-0.0051454417407512665,0.15629997849464417,0.09628083556890488,-0.20089319348335266,-0.059337545186281204,-0.059990495443344116,0.03430355712771416,0.29456767439842224,0.5295099020004272,-0.04901265352964401,-0.001347111421637237,0.6852948665618896,0.04725703224539757,-0.9388031959533691,0.025061579421162605,0.093752421438694,-0.17009608447551727,-0.039468664675951004,0.03777037560939789,-1.4655760526657104,0.06507831811904907,0.022602563723921776,-0.44563743472099304,-0.08258056640625,0.06114869937300682,-0.1041470468044281,-0.0265171118080616,-0.05543894320726395,-0.03723600134253502,-0.2887657880783081,0.10853134840726852,-0.2511018216609955,0.05082644894719124,0.025671379640698433,0.17325477302074432,-0.14156986773014069,-0.13834893703460693,-0.10014807432889938,0.25294312834739685,-0.04003695026040077,0.0427066832780838,0.4073391258716583,-0.12635156512260437,-0.10489926487207413,0.19350574910640717,0.7246182560920715,-0.057927217334508896,-0.2573133409023285,0.12734314799308777,-0.23599983751773834,-0.06196692958474159,-0.0266867708414793],[0.09452228993177414,-0.014030666090548038,-0.35697951912879944,-0.07304158806800842,0.13128893077373505,-0.11385403573513031,1.2711976766586304,-0.02211311087012291,0.6673027276992798,0.04179077595472336,-0.04155399650335312,-0.2187993824481964,0.7504461407661438,0.0029728917870670557,-0.31387826800346375,-0.0354609377682209,-0.25197896361351013,-0.37571460008621216,-0.2666737735271454,0.030714187771081924,-0.14202678203582764,0.007433523423969746,-0.2743290662765503,-0.12734103202819824,-0.32755517959594727,-0.09120141714811325,0.2790622413158417,0.48618701100349426,0.2171335518360138,0.2842305302619934,-0.04640493169426918,0.24342137575149536,-0.48814576864242554,-0.23415572941303253,-0.04461749270558357,0.07039996981620789,0.042895056307315826,0.3741438686847687,-0.267692893743515,-0.06381396949291229,0.0691240057349205,-0.07982382923364639,-0.05262837931513786,0.1505952924489975,-0.11274869740009308,0.06454965472221375,0.13193489611148834,-0.2250068336725235,-0.20343449711799622,0.00574489776045084,0.031217370182275772,-0.028698008507490158,-0.06964411586523056,0.12897932529449463,-0.35840675234794617,0.13843849301338196,0.11706516146659851,0.15620434284210205,0.4323115050792694,-0.3670988976955414,-0.1278306394815445,-0.05958915874361992,0.17064745724201202,-0.08507819473743439,-0.025280162692070007],[-0.05403776094317436,0.04924749583005905,0.33992862701416016,-0.14258424937725067,-0.5772550702095032,0.08315528184175491,1.0734370946884155,-0.2422569841146469,0.5732455849647522,-0.14175963401794434,0.17998281121253967,0.6258925199508667,0.42761990427970886,-0.04794727638363838,0.09420119971036911,-0.8114913702011108,0.22729507088661194,0.033177413046360016,-0.11532839387655258,0.12243005633354187,-0.006717056501656771,-0.49672389030456543,0.18108898401260376,0.393561452627182,-0.24499313533306122,0.07171488553285599,0.3143031895160675,-0.1675027459859848,0.08153409510850906,-0.026965828612446785,-0.2501422166824341,-0.4407820403575897,0.9035061597824097,-0.09698369354009628,-0.14404720067977905,0.674829363822937,-0.1574030965566635,-0.3321734070777893,-0.040654268115758896,0.0020651351660490036,0.21686755120754242,-0.1386958360671997,-0.11915072798728943,-0.005845502018928528,0.17879392206668854,-0.19218313694000244,0.0260763019323349,-0.17231249809265137,-0.23651380836963654,0.027592312544584274,-0.08563826233148575,-0.08365198224782944,0.11148364841938019,-0.11701986193656921,0.15033221244812012,-0.0940963551402092,0.07398364692926407,-0.13720326125621796,-0.18704243004322052,0.30299174785614014,-0.3679761588573456,-0.09899097681045532,0.005724972579628229,0.31319573521614075,-0.10226788371801376],[-0.0038410741835832596,-0.1817794144153595,-0.015300909988582134,-0.039837796241045,0.08171248435974121,-0.17323336005210876,0.33997076749801636,-0.30832162499427795,1.1362494230270386,-0.0544387586414814,0.16203053295612335,0.05196458473801613,0.22467657923698425,0.0604495070874691,-0.07942099124193192,0.20609556138515472,-0.46315136551856995,-0.19066815078258514,-0.18542326986789703,-0.10766644030809402,0.3339816927909851,0.027416877448558807,-0.3102266192436218,-0.3455696105957031,0.3993096649646759,0.09473136067390442,-0.08891019225120544,0.37824079394340515,-0.2976051867008209,-0.2469485104084015,-0.007303320802748203,0.13199999928474426,-0.43798360228538513,0.11399044841527939,-0.3576061427593231,-0.002485250122845173,-0.24648025631904602,0.08625325560569763,0.02088702842593193,0.03828021138906479,-0.33106377720832825,0.07636454701423645,0.2320171296596527,-0.09036896377801895,0.01650066487491131,0.26578712463378906,-0.2614813446998596,-0.1474258452653885,-0.1284441351890564,-0.27891844511032104,0.04574160277843475,0.19132982194423676,-0.3749116361141205,0.10664145648479462,0.20738406479358673,-0.4042711853981018,-0.19282445311546326,-0.10635387897491455,0.7742459774017334,0.21910710632801056,0.3903988003730774,-0.21589098870754242,-0.2586454451084137,-0.31872934103012085,-0.26633521914482117],[0.12405653297901154,0.20754386484622955,-0.6985445022583008,-0.004635615739971399,-0.17906764149665833,0.22811126708984375,-0.1802261471748352,0.09403456002473831,-0.567101001739502,-0.37004944682121277,-0.1587221324443817,-0.005893835332244635,0.04917000234127045,0.09228489547967911,-0.19670970737934113,-0.3122918903827667,0.172371506690979,-0.12508268654346466,-0.012598681263625622,0.03812798112630844,-0.2756703495979309,-0.21461531519889832,-0.0009794748621061444,0.36655688285827637,-0.31605997681617737,-0.024240201339125633,-0.1320713758468628,-0.25222936272621155,0.07814694941043854,-0.005818432196974754,-0.12049750983715057,0.03660240396857262,0.5194276571273804,-0.4178180992603302,0.09628628939390182,0.12710297107696533,0.1355985850095749,0.3162212371826172,-0.10616660118103027,-0.21290338039398193,0.10250436514616013,-0.28235143423080444,0.00015564425848424435,0.07264858484268188,0.086969293653965,-0.13589076697826385,0.20487114787101746,-0.05521494895219803,-0.14538438618183136,0.07000703364610672,0.03222700580954552,0.041250307112932205,0.18335428833961487,0.09548773616552353,-0.2400231808423996,0.506872832775116,0.2202223688364029,0.3304978609085083,0.010833094827830791,-0.655694842338562,-0.3594067096710205,0.15019963681697845,-0.03338480368256569,0.13609224557876587,-0.011909092776477337],[-0.1755126416683197,-0.18957139551639557,-0.6161742210388184,-0.2719852924346924,0.12322872132062912,-0.08485830575227737,0.2931283712387085,-0.20099544525146484,0.684978723526001,-0.06606055796146393,0.478344202041626,0.1849789023399353,0.23960421979427338,-0.005694109480828047,0.0824473649263382,0.6612687110900879,-0.15187130868434906,-0.06675928086042404,-0.1877698004245758,-0.08251947909593582,0.2620793581008911,-0.4041139483451843,0.0963580384850502,0.22223058342933655,0.16377931833267212,-0.04617823660373688,1.1751604080200195,0.6649644374847412,0.10223395377397537,0.20914027094841003,-0.026314713060855865,0.2308744341135025,-0.4705473482608795,-0.2997073531150818,0.033102456480264664,0.03434956073760986,-0.3042396306991577,-0.2068384438753128,0.0447487011551857,0.005014915484935045,0.04513358697295189,0.004117251373827457,0.11684112995862961,-0.013562599197030067,0.16217194497585297,0.005846952088177204,-0.014001555740833282,-0.25232163071632385,0.06697423756122589,-0.034166496247053146,-0.05900680646300316,0.16799849271774292,-0.07988955080509186,0.25010251998901367,-0.33257097005844116,-0.019885694608092308,-0.017226029187440872,0.130016028881073,0.09304229170084,-0.13330161571502686,0.1790582239627838,-0.16735626757144928,0.025236384943127632,-0.11728129535913467,-0.21895292401313782],[-0.2992047965526581,-0.0711265355348587,0.05101258307695389,-0.2812109589576721,-0.13391254842281342,-0.11002016812562943,-0.28557848930358887,-0.040612246841192245,0.40586984157562256,-0.16805848479270935,0.4888301193714142,0.2936118245124817,0.008514038287103176,-0.026444438844919205,0.36257582902908325,0.0009557862649671733,-0.20119406282901764,-0.17538107931613922,-0.26440346240997314,-0.022778404876589775,0.3910597860813141,-0.014741207472980022,-0.14753271639347076,-0.026191947981715202,0.039014820009469986,-0.052024126052856445,1.5413768291473389,-0.1250407099723816,-0.08750373870134354,0.36718636751174927,-0.1256747841835022,0.3965352475643158,-1.2483625411987305,-0.41749799251556396,0.2849813401699066,0.2391192466020584,-0.06563283503055573,0.06325380504131317,0.06642282009124756,0.049665018916130066,-0.016449252143502235,0.15526817739009857,0.09186559170484543,-0.04125070571899414,0.26807329058647156,-0.02642625756561756,-0.062207698822021484,-0.019709918648004532,0.060128822922706604,-0.005743095651268959,0.10347314178943634,0.03656642511487007,-0.07037851214408875,0.25377586483955383,-0.3760260045528412,0.133977010846138,-0.024741778150200844,0.222234845161438,-0.1941211074590683,-0.31694427132606506,0.2850741446018219,-0.0024870599154382944,-0.14129556715488434,-0.30211642384529114,0.10350468754768372],[-0.11917097121477127,0.38685688376426697,0.7934010624885559,-0.07624980807304382,-0.2016945779323578,-0.06557796150445938,0.08716993033885956,-0.02704516611993313,0.32701897621154785,-0.4390670657157898,0.4340590536594391,0.16676980257034302,0.47838011384010315,-0.06426510214805603,0.2047419399023056,-0.2554677724838257,0.1070159450173378,0.24266596138477325,0.9682012796401978,-0.07308933883905411,-0.5336973667144775,0.01715696230530739,0.6438143849372864,0.5966641902923584,0.6397367119789124,-0.04737026244401932,0.1809065192937851,-0.528144121170044,0.2481972873210907,-0.18046517670154572,0.06356427073478699,-0.2214227020740509,0.37535360455513,-0.3559321165084839,0.3920080363750458,-0.4287358820438385,0.0026725446805357933,-0.01197904348373413,-0.09755343198776245,-0.021612152457237244,0.08972321450710297,0.13551197946071625,-0.02257288247346878,0.06928374618291855,-0.2248406708240509,-0.1456112414598465,-0.011325029656291008,0.03815336897969246,-0.06859823316335678,-0.011279076337814331,0.03745293989777565,-0.22136789560317993,-0.10504802316427231,-0.15228262543678284,0.04216960445046425,-0.7531111836433411,0.06293604522943497,-0.12970618903636932,-0.40862202644348145,0.6905027627944946,-0.24033373594284058,0.19973552227020264,-0.08576949685811996,0.07722529768943787,0.02928834781050682],[0.3533206582069397,0.015275150537490845,-0.46111467480659485,0.1126149445772171,0.495880663394928,0.07491089403629303,-0.5496184825897217,0.2360219806432724,-0.4656274616718292,0.07231713831424713,-0.23645898699760437,-0.7877960205078125,-0.03433635085821152,-0.06422574073076248,-0.558655858039856,0.2832227945327759,0.012133789248764515,0.15736252069473267,-0.21323023736476898,0.05636981874704361,-0.07026540488004684,-0.1162843406200409,0.4676235318183899,0.19999372959136963,0.27531081438064575,-0.035386815667152405,-0.5073137879371643,0.22752059996128082,-0.020910417661070824,-0.0076178512535989285,-0.03108307532966137,0.5169821381568909,-1.302058219909668,0.0990743562579155,-0.11223412305116653,-0.3169695734977722,0.05312388762831688,0.3431224524974823,0.005427645985037088,-0.1110345870256424,0.09978026151657104,-0.2591257393360138,-0.03893822804093361,0.07247525453567505,-0.5975563526153564,0.16209256649017334,0.09478303045034409,-0.09231916069984436,-0.19357120990753174,0.12950551509857178,-0.4443456530570984,-0.2284982055425644,-0.024149874225258827,0.10854394733905792,0.03155955672264099,0.2437143325805664,0.24404582381248474,-0.029529215767979622,0.6123298406600952,0.030908342450857162,-0.15282157063484192,0.06730181723833084,-0.1404893398284912,-0.06891552358865738,-0.013277673162519932],[0.14551317691802979,-0.19012218713760376,-0.16830162703990936,-0.4242340326309204,0.2508809268474579,-0.7107080221176147,0.6620051264762878,-0.12354452162981033,0.702023983001709,0.16111630201339722,0.11749762296676636,-0.24356909096240997,0.36348140239715576,0.044421058148145676,0.028678862378001213,-0.020787544548511505,-0.30964699387550354,-0.23876017332077026,-0.07083062082529068,-0.05713183432817459,-0.23845377564430237,0.18215179443359375,0.09058048576116562,-0.24648301303386688,0.3605809807777405,-0.11695476621389389,-0.6113654375076294,0.3690175414085388,-0.1959274858236313,0.030754512175917625,-0.04520370811223984,-0.21633115410804749,-0.8429135680198669,0.26873183250427246,-0.11662521958351135,-0.47637832164764404,-0.17359969019889832,0.15626156330108643,-0.08499228954315186,-0.07371190190315247,-0.06247386708855629,-0.07255543023347855,0.09728289395570755,0.019161831587553024,-0.21207326650619507,0.11053993552923203,-0.01372112613171339,-0.19978292286396027,0.13473358750343323,-0.11493146419525146,0.10686838626861572,0.06945738941431046,-0.1314341425895691,0.08882086724042892,-0.014474925585091114,-0.17509789764881134,0.12042319029569626,-0.5314133167266846,0.34825918078422546,0.3327578902244568,0.17413002252578735,-0.11973824352025986,-0.05888179689645767,-0.17149443924427032,-0.14508238434791565],[0.04197411239147186,-0.17854100465774536,-0.4498484134674072,0.02488318644464016,0.38615503907203674,0.09235163033008575,0.12697374820709229,-0.04209817200899124,-1.5519832372665405,0.23880599439144135,-0.2983633577823639,-0.04851763695478439,-0.3043842017650604,-0.11068428307771683,-0.12442785501480103,0.11305249482393265,0.09906896203756332,0.15110360085964203,0.46398091316223145,0.05172738432884216,0.22667032480239868,1.0097371339797974,0.1780146211385727,0.031729742884635925,0.39612412452697754,-0.06885380297899246,-0.4949062466621399,0.13741891086101532,-0.20435065031051636,-0.00821702927350998,0.01885366626083851,-0.7913069128990173,-0.09453743696212769,0.3502279222011566,0.1699708253145218,-0.39333629608154297,0.16767601668834686,-0.33218032121658325,0.08623413741588593,-0.006990775000303984,0.006231512874364853,0.09397795796394348,0.05065712705254555,-0.051079295575618744,0.026293572038412094,-0.3760446608066559,0.02923748455941677,0.044909726828336716,0.22441153228282928,0.0026231773663312197,-0.05220372974872589,0.09268137812614441,0.1289367377758026,-0.41344544291496277,0.06462650746107101,-0.16281399130821228,-0.12584899365901947,0.17310719192028046,0.31875351071357727,0.3638407588005066,0.06174597516655922,-0.014317925088107586,-0.03437497094273567,0.18816369771957397,0.13454803824424744],[0.24784575402736664,0.28914675116539,0.039998915046453476,0.013955796137452126,-0.20739637315273285,0.19198521971702576,-0.006242637522518635,0.17896319925785065,-0.6190848350524902,-0.18886946141719818,-0.3365364670753479,0.24695271253585815,-0.15206268429756165,-0.045945726335048676,-0.034168925136327744,0.31673601269721985,0.1646023988723755,-0.28699734807014465,0.07130555063486099,0.035801298916339874,-0.4374273419380188,0.28914594650268555,-0.03411043435335159,-0.07646147906780243,-0.25944754481315613,-0.03681670501828194,-0.3477461040019989,-0.37696391344070435,0.038198795169591904,0.0779775083065033,0.29092809557914734,-0.16914863884449005,1.0780690908432007,-0.25694674253463745,0.10076867789030075,0.033945705741643906,0.12964081764221191,0.4217779040336609,0.0036372083704918623,0.2608315944671631,-0.03672400489449501,0.00041544385021552444,0.12158019840717316,0.0551532581448555,0.1489303559064865,0.1219530925154686,0.03138081356883049,-0.04161598160862923,-0.02667139656841755,-0.05230402201414108,0.09206386655569077,-0.08417902141809464,-0.00893021747469902,-0.24650351703166962,-0.07791224867105484,0.420579195022583,0.2112058699131012,0.18990011513233185,-0.43659448623657227,-0.08588019013404846,-0.3317956030368805,-0.10092011094093323,0.23617269098758698,0.5729231238365173,0.335556298494339],[-0.14453209936618805,0.043251603841781616,-1.0058315992355347,0.18720315396785736,0.37203249335289,-0.061716143041849136,-0.9949184060096741,0.20012857019901276,-0.14102935791015625,-0.10249841213226318,0.0156436525285244,0.11559705436229706,-0.4049839973449707,-0.06282179057598114,0.005194646306335926,0.5753772258758545,-0.292448490858078,-0.1692696064710617,-0.41184598207473755,-0.08390474319458008,0.10711564123630524,0.10900058597326279,-0.5061997771263123,-0.29199162125587463,-0.6576821804046631,-0.040475212037563324,2.3402061462402344,0.08119416981935501,0.011198097839951515,0.4320324957370758,0.16223129630088806,-0.030026016756892204,1.2218784093856812,-0.19965218007564545,0.05620498210191727,0.32488390803337097,0.13973945379257202,-0.3828049302101135,0.28732070326805115,0.11915609240531921,-0.1459941267967224,0.09992294758558273,0.20201048254966736,-0.17649826407432556,0.3589613139629364,-0.07239041477441788,-0.03111855871975422,0.1358991414308548,0.447784423828125,-0.04564923048019409,0.10866913199424744,-0.018535474315285683,-0.019641296938061714,0.18182715773582458,-0.44131091237068176,-0.02374471351504326,-0.01755042001605034,0.04708680137991905,-0.20316386222839355,-0.37210461497306824,0.22863467037677765,0.03262076899409294,0.11851164698600769,-0.24685226380825043,0.206078439950943],[0.08294989913702011,0.011114958673715591,0.04563508182764053,0.2500561773777008,0.1806125044822693,0.050925105810165405,0.3784823715686798,0.17850065231323242,-0.8575831651687622,-0.04215323179960251,-0.4199882447719574,-0.6623340845108032,0.057178597897291183,-0.10348187386989594,-0.2052108347415924,-0.03968028351664543,-0.1597186177968979,0.03850856423377991,0.28049787878990173,0.12382293492555618,-0.35302916169166565,-0.025584746152162552,0.18813803791999817,0.09545554965734482,0.2190549373626709,-0.05518290773034096,-1.2619024515151978,-0.034690916538238525,0.06960934400558472,-0.09199503809213638,0.17262893915176392,-0.05130258947610855,0.3781130611896515,0.2622194290161133,-0.21244794130325317,-0.20913121104240417,0.16363054513931274,0.24108168482780457,-0.16979365050792694,0.24055473506450653,-0.1852443814277649,0.09506341814994812,-0.11919558793306351,-0.03071453422307968,-0.103135846555233,0.11582595854997635,0.007046752143651247,0.12315003573894501,0.2832995057106018,-0.0018156004371121526,-0.09386752545833588,-0.004633273929357529,-0.0933932363986969,-0.2927283048629761,0.054398007690906525,0.06302059441804886,0.05250169336795807,-0.0479072667658329,-0.05156958848237991,0.1408197283744812,-0.0854315310716629,0.28533610701560974,0.22468295693397522,0.20640228688716888,0.18740878999233246],[-0.07632407546043396,-0.08076124638319016,-0.35509470105171204,0.19880017638206482,0.05600550398230553,0.5010842084884644,0.10870133340358734,-0.0508805476129055,-0.7017609477043152,0.5386479496955872,-0.2209686040878296,-0.4160771071910858,-0.41470152139663696,-0.04602116718888283,0.24593095481395721,0.04036693274974823,0.04765065014362335,0.18868355453014374,0.3350977897644043,-0.028256429359316826,0.4876892566680908,0.3097929358482361,-0.1987307071685791,-0.23744715750217438,0.3882252871990204,0.06288714706897736,-0.44181138277053833,0.3603127598762512,0.04721612110733986,-0.52469402551651,-0.03597375378012657,0.34098711609840393,0.13489191234111786,0.2995956838130951,-0.01105231698602438,-0.3208974599838257,-0.10895492881536484,0.046880219131708145,0.09797518700361252,0.5113884210586548,-0.2011493742465973,0.25508856773376465,0.17247602343559265,-0.10959678888320923,0.08092943578958511,0.027705462649464607,-0.21487358212471008,0.33933454751968384,0.22146040201187134,-0.21779394149780273,0.20088841021060944,0.3165663480758667,-0.18049979209899902,-0.15934313833713531,0.25004512071609497,-0.3236103057861328,0.027198215946555138,0.17097051441669464,-0.23868364095687866,0.5549755692481995,0.4350540339946747,0.10532866418361664,0.16832247376441956,0.19575074315071106,0.038266826421022415],[-0.044538553804159164,-0.1367771476507187,0.467602401971817,0.08256737887859344,-0.20139825344085693,-0.3908133804798126,-0.2045356184244156,0.005493804346770048,0.44543805718421936,0.06585821509361267,0.6162917613983154,0.31530532240867615,-0.11874468624591827,0.11190256476402283,0.09058680385351181,0.03751042112708092,-0.20572660863399506,-0.034187354147434235,-0.14725928008556366,0.08541285246610641,0.17792831361293793,-0.13551253080368042,0.12125767767429352,0.37457630038261414,-0.1140652745962143,0.004354814533144236,1.2239552736282349,-0.01598198339343071,0.13083498179912567,0.3111840486526489,0.17235200107097626,-0.0839267373085022,-0.636357307434082,0.008822840638458729,0.6304576992988586,0.312460720539093,-0.021731698885560036,-0.18452304601669312,0.07743208855390549,-0.2749415338039398,0.19374236464500427,-0.16024746000766754,0.21711961925029755,0.015030822716653347,-0.04213275387883186,0.14590249955654144,0.029127197340130806,-0.08849718421697617,0.06280671805143356,-0.03428158164024353,0.097657211124897,-0.032299432903528214,0.08349357545375824,0.12289688736200333,0.1296137571334839,-0.12413197755813599,0.038900066167116165,-0.10315200686454773,-0.08447607606649399,-0.2725200653076172,-0.3332759141921997,-0.1346299946308136,0.02338186651468277,-0.3113082945346832,0.07525733858346939],[0.11213236302137375,-0.07588598132133484,-0.22780810296535492,0.2634696066379547,0.16225296258926392,0.1581246703863144,-0.6733476519584656,0.11502014845609665,-0.7142364978790283,0.1521417796611786,-0.20329627394676208,-0.4751601219177246,-0.2738558351993561,-0.07233031094074249,-0.06570959091186523,-0.18198354542255402,0.2878624200820923,0.2243315726518631,0.1977262943983078,0.07762998342514038,-0.10037991404533386,0.16095007956027985,0.2862022817134857,0.3228994905948639,-0.08315452933311462,0.1078873723745346,-0.9624942541122437,-0.18844351172447205,0.05950750783085823,0.017860274761915207,0.09813305735588074,0.10323965549468994,0.2585890591144562,0.021561793982982635,-0.001343672163784504,-0.20595240592956543,0.23785537481307983,0.30351823568344116,0.35657185316085815,0.040316641330718994,-0.24114446341991425,0.1659775823354721,0.17417959868907928,-0.013202142901718616,0.09739904850721359,0.33123064041137695,-0.10817147046327591,0.0471898652613163,0.2691240608692169,-0.11358363181352615,0.15326514840126038,0.11032702773809433,-0.15113285183906555,-0.06698064506053925,0.30118462443351746,0.5465373396873474,0.024226704612374306,0.12084461003541946,0.2332889288663864,-0.29970014095306396,-0.22848384082317352,0.1535903960466385,-0.1453275978565216,0.2560598850250244,0.14640401303768158],[0.16987618803977966,-0.039549704641103745,-0.004039688967168331,-0.11288047581911087,-0.14758963882923126,0.315735399723053,0.4992885887622833,-0.23766794800758362,-0.916406512260437,0.3572158217430115,-0.49708205461502075,-0.5924837589263916,-0.15059404075145721,0.12132590264081955,-0.10138379037380219,-0.08217034488916397,-0.010931413620710373,-0.12061214447021484,0.31782209873199463,0.020619191229343414,-0.35592013597488403,0.10594719648361206,0.06532929092645645,-0.40226322412490845,0.33382731676101685,0.10850585997104645,-1.0883289575576782,-0.1001175045967102,-0.04229686036705971,-0.37241557240486145,0.08114311099052429,-0.4768577814102173,0.3598483204841614,0.1553506702184677,-0.09681488573551178,-0.2869902551174164,0.07459370791912079,0.02618786133825779,0.06461319327354431,0.14559876918792725,-0.06879925727844238,0.17473359405994415,0.09676747024059296,-0.11288698017597198,0.008409542962908745,0.033465705811977386,-0.07857783138751984,0.25657373666763306,0.04117407649755478,-0.27682632207870483,0.07192306965589523,-0.022603336721658707,0.011608882807195187,-0.2831811010837555,0.2156309336423874,0.1678551286458969,0.09482606500387192,0.0025105325039476156,0.12568119168281555,0.2516542375087738,0.14793971180915833,0.025496363639831543,0.1394510567188263,0.4205125868320465,0.0024257206823676825],[0.0516071543097496,-0.12128058820962906,0.0021077280398458242,-0.17324692010879517,-0.4653145968914032,0.30420005321502686,0.8902390003204346,0.08994148671627045,-0.5224241614341736,0.23527677357196808,-0.17085517942905426,0.7311851978302002,0.12755097448825836,-0.09350311011075974,-0.1181667372584343,-0.012892987579107285,0.0705588310956955,-0.18954254686832428,-0.22407709062099457,0.07354746013879776,-0.10645920038223267,0.005946009419858456,-0.20956562459468842,-0.2238677740097046,-0.5398976802825928,-0.07216856628656387,-0.027038902044296265,0.08183358609676361,-0.004154655151069164,-0.01912715472280979,0.16157199442386627,-0.02461196668446064,1.1107903718948364,0.0015943775651976466,0.004874188452959061,0.4043317437171936,0.1252278834581375,0.40239885449409485,-0.22155331075191498,0.2823708951473236,0.002038551028817892,0.22300130128860474,0.05658848211169243,0.14498604834079742,0.046453144401311874,-0.2600858807563782,0.0937119722366333,-0.25336721539497375,-0.2382310926914215,-0.016254276037216187,-0.03146026283502579,0.08007543534040451,-0.01515326276421547,-0.4201772212982178,0.14485648274421692,-0.2450406551361084,-0.22690528631210327,-0.026744242757558823,-0.34926342964172363,0.22328564524650574,-0.21912623941898346,-0.18788424134254456,0.34749194979667664,0.453797310590744,0.03244565427303314],[0.19031305611133575,-0.42446383833885193,1.1347182989120483,-0.3442859351634979,0.12234460562467575,-0.2720949649810791,1.008039951324463,-0.20434358716011047,0.5547621250152588,0.5739129781723022,0.09665510058403015,0.1011384129524231,0.32036715745925903,-0.037224963307380676,0.3049396872520447,0.08767450600862503,-0.04981400445103645,-0.057910267263650894,0.21795611083507538,0.030223408713936806,0.17453120648860931,0.3491646647453308,0.025867734104394913,-0.09512978047132492,0.34196412563323975,0.10556624084711075,-0.7846588492393494,0.6065754294395447,-0.07708539813756943,-0.1982232630252838,0.15458881855010986,-0.12213615328073502,-0.23959118127822876,0.7908836007118225,-0.15150953829288483,-0.348793625831604,0.12281966209411621,0.23990166187286377,-0.18157292902469635,0.35719040036201477,-0.07164499163627625,0.16251038014888763,0.10392145067453384,0.12850046157836914,-0.13708335161209106,-0.09627266973257065,-0.025731246918439865,-0.08011451363563538,-0.054952315986156464,0.013462796807289124,-0.002691535046324134,0.12092225253582001,0.08592204004526138,-0.15528176724910736,0.5841349363327026,-0.14744991064071655,-0.04413292557001114,-0.16923435032367706,0.44209644198417664,0.3358629643917084,0.17334404587745667,-0.17821666598320007,0.36723411083221436,0.07140903174877167,-0.12092822790145874],[-0.1839114874601364,0.055840857326984406,-0.2733047902584076,-0.024751756340265274,-0.019157784059643745,-0.23129534721374512,-0.09380655735731125,-0.1521219164133072,0.2224002629518509,-0.08649332076311111,0.40383800864219666,-0.09390914440155029,-0.38193371891975403,-0.10737708956003189,0.07202382385730743,-0.018986405804753304,-0.26836085319519043,0.011287955567240715,-0.011913972906768322,-0.019096771255135536,0.21416060626506805,-0.32382434606552124,0.2475956231355667,0.5507584810256958,0.09628596901893616,-0.1234087198972702,1.8125885725021362,-0.31487008929252625,0.20190848410129547,0.4779505133628845,-0.045111171901226044,0.21311235427856445,-1.279545545578003,-0.0989500880241394,0.5754633545875549,0.298947274684906,-0.06085621565580368,0.12649725377559662,0.11995311826467514,-0.13974885642528534,0.019978666678071022,-0.2630484402179718,-0.020205987617373466,0.11695624142885208,0.062186677008867264,0.21765199303627014,0.10181780904531479,0.06794077157974243,0.13983562588691711,0.008632510900497437,0.07628516107797623,0.18338298797607422,-0.00043215329060330987,0.44999879598617554,-0.21693886816501617,0.44449254870414734,-0.03294441103935242,0.14841684699058533,0.013650823384523392,-0.3894868791103363,-0.08754799515008926,0.04744365066289902,-0.15745435655117035,-0.1971188187599182,-0.1089128851890564],[0.09418671578168869,-0.11331135034561157,-0.21489672362804413,0.1260993778705597,0.35973241925239563,0.017137199640274048,-0.45389416813850403,-0.08783133327960968,-0.24868112802505493,0.24923555552959442,-0.7501208782196045,-0.3892805576324463,-0.200699582695961,0.06222391501069069,0.1491386890411377,-0.18017956614494324,-0.03558043763041496,-0.23487308621406555,0.19099974632263184,0.011542407795786858,-0.11511386930942535,0.3792012929916382,-0.3198733925819397,-0.09759385138750076,-0.332536518573761,0.036595046520233154,-0.5322909951210022,0.18726272881031036,0.04147554188966751,0.11562696099281311,0.050469305366277695,-0.001770861679688096,0.01956564374268055,0.15760232508182526,-0.14767621457576752,0.0037355597596615553,-0.16286566853523254,0.242484912276268,0.13283883035182953,-0.10273745656013489,0.05893934518098831,0.31941235065460205,-0.2006825953722,-0.11916835606098175,-0.06305360049009323,0.3089999854564667,0.05645114928483963,0.2737472355365753,-0.2889237701892853,-0.1225905567407608,-0.09623623639345169,0.1381496787071228,-0.04607813060283661,0.07788959890604019,0.049843646585941315,0.47762441635131836,0.051896557211875916,0.3477895259857178,0.11550796777009964,-0.5713093876838684,-0.20717144012451172,0.028379568830132484,-0.03775838762521744,-0.03337548300623894,0.03863862529397011],[0.023981375619769096,-0.2193889617919922,-0.5830174684524536,0.10447832196950912,0.4231344163417816,0.08258268982172012,0.3818379044532776,-0.023517508059740067,-1.267590045928955,0.40175044536590576,-0.48711907863616943,-0.5958052277565002,-0.34198227524757385,0.06365516036748886,0.04519264027476311,0.14582055807113647,0.11966605484485626,0.42756950855255127,0.5008006691932678,-0.0026368186809122562,0.09270443767309189,0.7686882615089417,0.025000063702464104,0.07776437699794769,0.04072650894522667,-0.07525534182786942,-0.5707291960716248,0.23594185709953308,-0.11262384802103043,-0.03612334281206131,0.25109899044036865,0.1787082999944687,-0.5340837836265564,0.3299788236618042,0.11266560852527618,-0.48349830508232117,0.2543279528617859,0.17736312747001648,0.18055924773216248,0.04531966894865036,0.03583921492099762,0.0747685357928276,0.02587132342159748,0.060609880834817886,0.07481639832258224,-0.08074821531772614,0.0032185260206460953,0.038343582302331924,0.3826099634170532,-0.04139189049601555,-0.05862436443567276,0.008632246404886246,0.1492166519165039,-0.11741606891155243,0.06513232737779617,0.1768428236246109,-0.060872882604599,0.28846293687820435,0.16203370690345764,0.11868218332529068,0.17985038459300995,0.11174409836530685,0.09345290064811707,0.02687719278037548,0.11751209944486618],[0.00012183719809399918,0.17558111250400543,-0.3075988292694092,-0.26841622591018677,0.1843833327293396,-0.6693354249000549,-0.46542057394981384,0.009892306290566921,1.2197208404541016,-0.12928499281406403,0.4009326994419098,0.49763837456703186,0.19037188589572906,0.08590608835220337,-0.2466471791267395,-0.09775975346565247,-0.04392058029770851,0.01849815994501114,-0.4986347556114197,-0.0479436069726944,-0.2079954743385315,-0.32908952236175537,-0.04293779656291008,-0.07216888666152954,-0.38286399841308594,0.07255495339632034,0.3198113441467285,0.22495071589946747,-0.02510005235671997,0.5459045171737671,-0.009461876004934311,0.2228837013244629,0.1669154316186905,-0.1754002571105957,-0.14705224335193634,0.12135455757379532,-0.137853741645813,0.22383278608322144,-0.1683875173330307,-0.2989390194416046,0.11491278558969498,-0.16720320284366608,-0.1733511984348297,-0.06221894919872284,-0.12293039262294769,0.23373886942863464,0.1262957602739334,-0.20199625194072723,0.1494501233100891,0.09068186581134796,0.08754462003707886,-0.07094601541757584,0.026978228241205215,0.26583749055862427,-0.20985695719718933,0.08087296038866043,0.008757013827562332,0.022590450942516327,0.4653909206390381,-0.4285683333873749,-0.1691679209470749,-0.16317346692085266,-0.21197301149368286,-0.3768889307975769,0.00414433516561985],[0.229391947388649,0.7018632888793945,0.6076604127883911,0.14457939565181732,0.02757841721177101,0.26207268238067627,0.06813691556453705,0.11733463406562805,-0.3988769054412842,-0.29922589659690857,-0.2731720507144928,-0.3032662868499756,0.3369803726673126,0.09636955708265305,-0.28663015365600586,-0.17606967687606812,0.005626835394650698,0.11951709538698196,-0.0269109308719635,0.057321421802043915,-0.7912687063217163,0.3585445284843445,0.0698247030377388,-0.10872645676136017,0.08985260874032974,-0.0749431774020195,-1.9471704959869385,-0.3839089274406433,-0.07201346009969711,-0.2567179799079895,0.00034608226269483566,0.13213755190372467,0.738287627696991,-0.4356079697608948,-0.02729559876024723,-0.43564966320991516,0.007666695397347212,-0.10560944676399231,-0.3403259813785553,0.05827542766928673,-0.25242048501968384,0.09324107319116592,0.12451473623514175,-0.23027744889259338,-0.19553260505199432,-0.044082075357437134,-0.18225091695785522,-0.029488295316696167,-0.021516498178243637,-0.021417466923594475,0.11163083463907242,-0.05638531595468521,-0.08894577622413635,-0.26838964223861694,0.12985870242118835,-0.6776359677314758,-0.004154167603701353,-0.06267894804477692,-0.035118911415338516,0.46034249663352966,-0.1589316725730896,0.31062838435173035,0.039701197296381,-0.01357310265302658,0.11213107407093048],[0.0730491504073143,-0.11782731860876083,-0.5745735764503479,0.16185015439987183,0.3030814230442047,0.08662617951631546,-0.4042254388332367,-0.2041488140821457,-0.6209918260574341,0.30733469128608704,-0.3434298634529114,-0.3182578980922699,-0.6446077227592468,-0.050181999802589417,0.031546443700790405,0.03937622532248497,-0.09488105773925781,-0.07478046417236328,0.0460815392434597,-0.07666010409593582,0.22203242778778076,0.44786614179611206,-0.36617210507392883,-0.13775132596492767,-0.33647751808166504,0.11991828680038452,-0.26871806383132935,0.2756156921386719,-0.09006886929273605,0.1601281464099884,0.1304389238357544,-0.4200504422187805,-0.26607075333595276,0.10444969683885574,-0.013380696065723896,0.11952263116836548,-0.04260751232504845,-0.10057467222213745,0.09133893996477127,0.0008252582629211247,0.0435328409075737,0.16489139199256897,-0.1142771765589714,-0.01974570006132126,0.020237311720848083,0.046172186732292175,0.13346855342388153,0.056008752435445786,-0.07365944981575012,0.1422496736049652,-0.03687261417508125,-0.005176217760890722,0.15369415283203125,-0.12653030455112457,-0.04297046735882759,0.3486213982105255,0.1294434517621994,0.05161995440721512,0.1888197660446167,-0.6074168086051941,0.013313590548932552,0.08736269921064377,-0.00954329501837492,0.09797187894582748,-0.0859098881483078],[0.07584057003259659,0.054664354771375656,-0.31306520104408264,-0.32802706956863403,-0.17957395315170288,-0.11241420358419418,0.7329040765762329,0.19243685901165009,-0.38762614130973816,-0.039033204317092896,0.13536645472049713,-0.08864039182662964,0.2462209165096283,-0.024005116894841194,0.09091563522815704,0.09228334575891495,-0.1929178684949875,-0.3406440317630768,-0.065875343978405,0.03542960807681084,-0.5114123225212097,0.09928162395954132,-0.10690341144800186,0.2157885730266571,-0.3535045385360718,-0.08453967422246933,0.8208185434341431,-0.33817118406295776,0.23992279171943665,0.1842772662639618,-0.028901873156428337,0.127670556306839,0.6524219512939453,0.05913242697715759,0.38194769620895386,0.2203686237335205,0.06487277895212173,0.2088261991739273,-0.1967480629682541,-0.015976520255208015,0.024393096566200256,-0.1513298600912094,0.24476207792758942,-0.04280291497707367,-0.09539976716041565,0.021604806184768677,0.030073076486587524,-0.20734789967536926,0.4227276146411896,-0.11532134562730789,0.19831912219524384,-0.14867429435253143,0.06648025661706924,0.03273489698767662,-0.023199962452054024,-0.09638837724924088,0.0718592032790184,0.11560643464326859,-0.6824663877487183,-0.04738481715321541,-0.35024410486221313,0.015713799744844437,0.19630730152130127,0.05348692089319229,0.04066205769777298],[-0.12742319703102112,0.06820528209209442,0.02961004339158535,-0.4049344062805176,-0.014294944703578949,-0.12751354277133942,1.6321724653244019,-0.09886050224304199,0.5412549376487732,-0.19822657108306885,-0.09111901372671127,-0.22904016077518463,0.09376513212919235,0.041207730770111084,-0.013668795116245747,-0.15460892021656036,-0.13784076273441315,-0.4160490930080414,-0.6597902774810791,-0.11954957991838455,-0.24218662083148956,0.06155586987733841,-0.25300535559654236,0.2281610518693924,-0.3681497573852539,0.02744816243648529,0.15094302594661713,0.07644910365343094,-0.010631968267261982,0.278388112783432,-0.16149789094924927,0.08825912326574326,-0.4746580123901367,-0.3982307016849518,0.048564471304416656,0.05206647515296936,-0.11161161959171295,-0.009549237787723541,0.0978999063372612,-0.04486316815018654,0.01779467798769474,-0.03938354551792145,-0.1239955723285675,-0.11806092411279678,-0.06040681526064873,-0.09540712088346481,0.004459361080080271,-0.21513116359710693,-0.048632875084877014,-0.05480487272143364,0.05149669572710991,-0.11315561830997467,0.07793612033128738,-0.04880232363939285,-0.36721059679985046,-0.26675689220428467,-0.2590465247631073,0.15549196302890778,-0.25524410605430603,-0.17184028029441833,-0.016433101147413254,-0.1386605203151703,0.08755473792552948,0.06016721576452255,-0.10506072640419006],[0.057605087757110596,-0.3066815733909607,-0.37048739194869995,0.23521476984024048,0.2713733911514282,0.19768035411834717,-0.512077271938324,-0.028283201158046722,-0.6954190135002136,0.11446138471364975,-0.2860060930252075,-0.21039089560508728,-0.2809334397315979,0.07328227162361145,0.24490410089492798,0.10557851940393448,0.3627528250217438,0.6230398416519165,0.47363579273223877,0.030887600034475327,0.21527250111103058,-0.04419353976845741,0.37976643443107605,0.4567742943763733,0.13760869204998016,0.008102704770863056,-0.35921725630760193,-0.33943867683410645,-0.017358779907226562,-0.07857274264097214,0.13672590255737305,0.06111174821853638,-0.18967145681381226,0.09294392168521881,0.14648108184337616,-0.057874348014593124,0.04506753012537956,-0.26270556449890137,0.14843110740184784,0.07142366468906403,0.025517674162983894,-0.062193725258111954,0.06256737560033798,0.022915275767445564,0.23311299085617065,-0.10299475491046906,0.08496364206075668,-0.038809798657894135,0.19801828265190125,0.13862481713294983,-0.22659055888652802,0.0712687075138092,0.015025459229946136,-0.3358491361141205,0.38995426893234253,0.4250011742115021,0.16800932586193085,0.05359842628240585,-0.4819795489311218,-0.4039499759674072,-0.34876543283462524,0.1002853512763977,-0.15887154638767242,0.2737792432308197,-0.041658915579319],[0.014712139032781124,0.028531309217214584,-0.14286650717258453,-0.26834622025489807,0.3778408169746399,0.13651880621910095,0.4741617739200592,-0.17400622367858887,0.053782761096954346,0.35384345054626465,-0.26369521021842957,-0.4033396244049072,0.05456765368580818,-0.11977579444646835,0.031294673681259155,-0.001500743324868381,0.012525065802037716,-0.0701553225517273,-0.0036555861588567495,0.02351556532084942,-0.2531595528125763,0.07839584350585938,0.44381844997406006,0.624235212802887,0.0050242627039551735,0.09249238669872284,-0.8729153871536255,0.08161333948373795,0.36769700050354004,0.16712364554405212,-0.04053979739546776,-0.5161241888999939,-0.6897188425064087,0.09312461316585541,0.17000563442707062,-0.15607288479804993,0.05857842043042183,-1.1091660261154175,0.08730617165565491,-0.23895372450351715,0.02086678333580494,0.16670823097229004,-0.1675116866827011,0.1288372278213501,0.11437942087650299,-0.03493834659457207,0.06298084557056427,-0.006264868192374706,-0.21325139701366425,-0.012891684658825397,0.13084456324577332,-0.15435630083084106,0.02138521708548069,-0.04315461590886116,-0.07726382464170456,0.37120136618614197,0.2732374668121338,0.15721896290779114,0.552551805973053,-0.35686057806015015,-0.4651767611503601,0.161171555519104,-0.10729872435331345,-0.02133188582956791,0.023780783638358116],[0.07925648987293243,-0.29529258608818054,-0.17043758928775787,0.052601322531700134,0.622948408126831,-0.6608033180236816,-0.5914681553840637,-0.021316900849342346,-0.33257225155830383,0.2712711691856384,0.07313063740730286,-0.5893712639808655,-0.3352147042751312,0.07758133858442307,0.15746831893920898,0.3089469373226166,-0.2779128849506378,0.10465740412473679,0.46811211109161377,0.10768094658851624,0.2441459745168686,0.263923704624176,0.19995228946208954,0.22054392099380493,0.8694667816162109,-0.059654269367456436,0.2658245861530304,0.2671068012714386,-0.01672770082950592,0.044274210929870605,0.023191750049591064,-0.21093511581420898,-1.9966360330581665,0.673815906047821,0.44155439734458923,-0.3934522867202759,-0.0537475124001503,-0.21828800439834595,0.23248612880706787,-0.1514550745487213,-0.035950805991888046,-0.2723926305770874,0.0030363681726157665,-0.14237065613269806,-0.18548856675624847,-0.019037539139389992,-0.18979643285274506,0.17915335297584534,0.28147491812705994,-0.19673526287078857,-0.01574164628982544,0.3262656331062317,0.012122384272515774,0.11179733276367188,0.22053003311157227,0.0014736952725797892,0.056584201753139496,0.09003137052059174,0.9232890605926514,-0.1387602984905243,0.16326633095741272,0.15217258036136627,-0.1433236002922058,-0.21580347418785095,0.12510210275650024],[-0.11673979461193085,-0.12322970479726791,-0.8936846852302551,-0.09247706830501556,0.26444652676582336,-0.5912153124809265,-0.023907223716378212,-0.050387587398290634,0.4672166705131531,0.32093358039855957,0.07116170972585678,0.02549103833734989,0.11380815505981445,0.06506194174289703,0.0885925218462944,0.105924092233181,-0.12504294514656067,-0.19770900905132294,-0.08145719766616821,-0.014862418174743652,0.34475797414779663,-0.20285460352897644,-0.3391464948654175,0.06526638567447662,-0.5203782916069031,-0.0903158038854599,0.2865681052207947,0.6628313660621643,-0.15890103578567505,0.05021657794713974,-0.05967286229133606,0.5926843881607056,-0.5254058837890625,0.1823522299528122,-0.15809166431427002,0.24116256833076477,0.14206421375274658,0.4036632180213928,0.04431919753551483,-0.17570778727531433,0.06726352870464325,-0.06167250871658325,-0.13483811914920807,0.09041668474674225,-0.051791172474622726,0.22287166118621826,0.10647004842758179,0.019883183762431145,-0.07789324223995209,0.11392322927713394,0.0258258618414402,-0.09923761337995529,0.18567810952663422,0.3473401665687561,-0.19223040342330933,0.6818082928657532,-0.11337710171937943,0.08726421743631363,0.48586034774780273,-0.9076969623565674,-0.0031781308352947235,-0.14269329607486725,0.06423117965459824,-0.09288313239812851,-0.08180580288171768],[0.08101464807987213,0.20519797503948212,-0.31893420219421387,0.04364187642931938,-0.04337964206933975,0.19134658575057983,-0.10769635438919067,0.324122816324234,-0.7416481971740723,-0.16538141667842865,0.11749154329299927,-0.16399750113487244,0.04237164184451103,-0.11719371378421783,0.16759492456912994,-0.23817145824432373,0.13391251862049103,0.22025154531002045,0.008917775936424732,-0.04988599941134453,-0.2895697355270386,-0.2696826159954071,0.06142410635948181,0.21824456751346588,-0.22972938418388367,-0.12323866784572601,0.2814657986164093,-0.2443818300962448,0.04913949966430664,0.22976675629615784,-0.002711961744353175,0.0020168779883533716,0.3782958388328552,-0.30895647406578064,0.3372751772403717,0.18463048338890076,0.30754363536834717,0.0062972609885036945,-0.0017844041576609015,-0.12768509984016418,0.1597968339920044,-0.10567454993724823,0.08450434356927872,0.04674174264073372,0.19215819239616394,0.10290426015853882,0.08136758208274841,0.047758229076862335,-0.028845524415373802,0.2024863064289093,-0.19084903597831726,-0.02883702516555786,0.031597454100847244,0.1181095540523529,-0.18965481221675873,0.3013385236263275,0.2788170278072357,0.17984163761138916,-0.79090815782547,-0.5190674066543579,-0.31820982694625854,0.3222654461860657,0.025758257135748863,0.03154971823096275,0.22161650657653809],[0.2699974775314331,0.21498629450798035,0.6481664180755615,0.25007879734039307,-0.16445142030715942,0.26228588819503784,0.26704129576683044,0.07102102041244507,-0.8918663263320923,0.15424029529094696,-0.47330138087272644,-0.32859840989112854,0.019553694874048233,-0.05889880284667015,-0.27124279737472534,-0.4037729799747467,0.01989363506436348,0.03860069066286087,0.06382022798061371,-0.12156764417886734,-0.47755661606788635,0.049146682024002075,0.06651276350021362,-0.07072865962982178,0.17200541496276855,0.07081081718206406,-0.8897919058799744,-0.20185354351997375,-0.21171492338180542,-0.09872720390558243,0.08410539478063583,-0.2755281627178192,1.3618762493133545,0.23187413811683655,-0.10112102329730988,-0.14818856120109558,0.13743193447589874,0.3454333543777466,-0.08944723010063171,0.0059539503417909145,0.04773757979273796,0.014849893748760223,-0.024546464905142784,0.04840559512376785,-0.0015639362391084433,-0.18175822496414185,0.046861257404088974,-0.12112396955490112,-0.26892128586769104,-0.0438721626996994,-0.24878254532814026,-0.3181677460670471,0.0911579430103302,-0.3346250355243683,0.1996268779039383,0.0005302801146171987,0.06969217956066132,-0.093736931681633,0.3466828763484955,0.05141390860080719,-0.17745035886764526,-0.23052701354026794,0.18932415544986725,0.4709474444389343,0.05066268891096115],[0.18597011268138885,0.04068482667207718,-0.1863728165626526,0.3568519651889801,-0.006709109991788864,0.3417012691497803,-1.1784945726394653,0.3207443952560425,-0.8787055611610413,-0.23699869215488434,-0.12245643883943558,-0.2232692688703537,-0.5863487124443054,0.05721599608659744,-0.08534001559019089,0.3051190972328186,0.047047000378370285,0.20798227190971375,-0.08768577128648758,0.07777529209852219,0.006910883821547031,-0.09603603184223175,0.09946341812610626,-0.13461072742938995,0.12592637538909912,-0.03898521885275841,0.10971914231777191,-0.3189385235309601,-0.11305686086416245,0.02109779417514801,0.1429864764213562,0.13598765432834625,0.3062993288040161,0.06567343324422836,0.05794302746653557,-0.45099401473999023,0.03330617770552635,-0.4421827495098114,0.05626019835472107,-0.11858712881803513,-0.008931462652981281,-0.024212226271629333,0.17334064841270447,-0.14099940657615662,-0.16500554978847504,-0.10454429686069489,-0.14825429022312164,0.29043811559677124,0.30344337224960327,-0.01809457689523697,-0.16346539556980133,-0.1267649233341217,-0.11666370183229446,-0.05087766796350479,-0.15163129568099976,-0.08710123598575592,0.01968061551451683,-0.1554683893918991,-0.14272764325141907,0.16388387978076935,0.17780891060829163,0.19334831833839417,0.0026057648938149214,-0.012537377886474133,0.1767841875553131],[-0.05752582848072052,-0.6307443976402283,-0.8669043183326721,-0.07484960556030273,-0.09691928327083588,-0.3068579435348511,-0.057971853762865067,-0.13317370414733887,0.2922162115573883,0.30733343958854675,0.2401786595582962,0.34934884309768677,-0.12536248564720154,-0.038345497101545334,0.35614830255508423,0.3287937045097351,0.01049389410763979,0.07949186116456985,-0.11264222115278244,0.032090168446302414,0.7125207781791687,-0.5676652193069458,-0.3021506369113922,0.09563246369361877,-0.14228735864162445,0.1055213212966919,1.760478138923645,0.3791402578353882,-0.15157529711723328,0.32606637477874756,0.034922197461128235,0.06658860296010971,-0.625264585018158,0.3257848918437958,0.22648927569389343,0.3370724022388458,-0.25129374861717224,-0.055175308138132095,0.3870326280593872,-0.2391357570886612,0.12718386948108673,0.1102634146809578,-0.01448862161487341,0.19000422954559326,0.0480719655752182,0.06104279309511185,0.08556048572063446,-0.04730598255991936,0.03994915261864662,0.09694382548332214,-0.16430096328258514,-0.15336422622203827,0.0588354729115963,0.07201224565505981,-0.06852956116199493,0.530109703540802,-0.13817785680294037,0.0172484889626503,-0.18453390896320343,-0.37370532751083374,0.22612473368644714,-0.30940964818000793,-0.1384323388338089,0.11952280253171921,-0.01728034019470215],[0.21946465969085693,0.33892112970352173,0.5140496492385864,0.07315946370363235,-0.015221476554870605,-0.17609558999538422,-0.03984125703573227,0.15893305838108063,-0.9577972292900085,-0.4930274188518524,-0.1275135725736618,-0.3881981372833252,-0.14391569793224335,0.04137982428073883,-0.3219568431377411,-0.12931890785694122,-0.08043170720338821,-0.2863222658634186,-0.08417221903800964,-0.03302325680851936,-0.5838586091995239,0.3620279133319855,0.02245982736349106,-0.22442957758903503,0.06741632521152496,-0.03913791477680206,-0.9629645347595215,-0.4220918118953705,0.18378809094429016,0.11511781066656113,0.13887161016464233,0.15408842265605927,0.1504373401403427,0.06344927102327347,0.05166783556342125,-0.16664353013038635,0.18533627688884735,0.23701320588588715,0.009441495873034,0.1695411056280136,-0.16064517199993134,-0.14083492755889893,0.042985379695892334,-0.12740199267864227,-0.08164364844560623,0.22618421912193298,-0.20891131460666656,0.09195540100336075,0.22439119219779968,-0.05296458676457405,-0.04845309257507324,0.010831094346940517,-0.1836489886045456,-0.31845974922180176,-0.09307107329368591,0.05411382392048836,0.13797712326049805,-0.06203602999448776,-0.7256777286529541,0.12867596745491028,-0.06384532153606415,0.16704533994197845,0.21057558059692383,-0.10944771766662598,0.026209698989987373],[-0.2689785957336426,0.15800854563713074,-0.5597242116928101,0.37448373436927795,0.19884438812732697,0.15858474373817444,-0.390605628490448,0.12291524559259415,-0.7255585193634033,-0.1055777296423912,-0.2633667290210724,-0.5708722472190857,-0.21487130224704742,0.11803728342056274,0.2873654365539551,-0.23013024032115936,-0.058745432645082474,0.09785664081573486,0.5232101678848267,0.017215773463249207,-0.18300019204616547,0.15924286842346191,0.23133623600006104,0.21456265449523926,0.25118276476860046,-0.1203751340508461,-0.03330666199326515,-0.39240598678588867,0.00034635563497431576,-0.0703020915389061,0.10865161567926407,0.23312054574489594,0.14655837416648865,0.1051909476518631,0.15059970319271088,-0.1283925473690033,0.08404368907213211,0.30219554901123047,0.12594017386436462,-0.04801271855831146,-0.2174675464630127,-0.03013128787279129,-0.0024576473515480757,-0.08581846207380295,0.005617318209260702,0.2014513462781906,-0.0528804287314415,0.17763927578926086,0.17468930780887604,-0.14212022721767426,0.13352827727794647,-0.06604280322790146,-0.11127492785453796,0.1777178943157196,0.25659099221229553,0.4347284734249115,-0.023417914286255836,0.26232388615608215,-0.48754703998565674,-0.44994762539863586,0.06389226764440536,0.14133617281913757,-0.1770837903022766,0.0599541999399662,0.1980542540550232],[-0.28886014223098755,0.0021568851079791784,0.13200494647026062,0.3126722574234009,-0.06215115636587143,0.02332611382007599,-0.43357160687446594,-0.05515306815505028,-0.4360363483428955,0.061197429895401,-0.36204707622528076,0.152064248919487,0.2796420156955719,-0.08464358001947403,0.6477797627449036,-0.38077056407928467,0.3043532073497772,0.04346495866775513,0.6158193945884705,0.08061717450618744,-0.1828443706035614,0.0993805080652237,-0.1005462035536766,0.2759212255477905,-0.5486116409301758,-0.10872654616832733,0.208509624004364,-0.44829317927360535,-0.06805098056793213,0.08378526568412781,0.08174066990613937,-0.04320339113473892,0.7201749682426453,0.08407273888587952,0.29014459252357483,0.42147570848464966,-0.0374174639582634,0.18599624931812286,0.019868141040205956,-0.3285738229751587,0.2787029445171356,0.09380599111318588,-0.23992478847503662,0.2281814068555832,0.12421400845050812,-0.13212184607982635,0.25981906056404114,-0.04241274297237396,-0.23960576951503754,0.09385600686073303,-0.10709425061941147,-0.23174934089183807,0.2424534559249878,0.14260831475257874,0.11218811571598053,0.373930960893631,-0.07944369316101074,0.2758224606513977,0.04775366559624672,-0.6720574498176575,-0.7461443543434143,-0.34967511892318726,0.26764383912086487,0.3567199409008026,0.007674491498619318],[-0.21267859637737274,-0.18311290442943573,-0.4815557599067688,-0.017301077023148537,-0.314849317073822,0.11267058551311493,-0.28495168685913086,-0.29009810090065,-0.37379589676856995,0.18653610348701477,-0.5428268909454346,-0.3386504054069519,-0.2616591453552246,0.11454102396965027,0.11879229545593262,0.19721391797065735,-0.05077030509710312,-0.1169280931353569,0.17413155734539032,0.05972921848297119,0.022646881639957428,0.508838951587677,-0.09468167275190353,0.16280333697795868,-0.06404010951519012,0.060577332973480225,-0.3434262275695801,0.26248040795326233,-0.24399861693382263,-0.15532442927360535,-0.05738434940576553,-0.24095289409160614,-0.0022563147358596325,0.0828356072306633,-0.25676992535591125,0.033827103674411774,0.11039543896913528,0.09081608057022095,0.08939408510923386,-0.027948135510087013,-0.13748495280742645,0.08664566278457642,-0.08509155362844467,-0.016668900847434998,0.27281349897384644,-0.17966511845588684,-0.18094319105148315,0.24660345911979675,-0.19157730042934418,-0.12996609508991241,-0.08155582845211029,0.23168551921844482,-0.1032600849866867,0.05441967397928238,0.28677958250045776,0.35273346304893494,-0.004857243970036507,0.1577429175376892,0.33553823828697205,-0.6212618350982666,-0.06041507422924042,0.12961262464523315,-0.0594797283411026,-0.06520318984985352,-0.21237529814243317],[-0.12438548356294632,-0.04951529949903488,0.19150854647159576,-0.06795038282871246,-0.12223215401172638,-0.25650274753570557,-0.04391780495643616,0.10561393946409225,0.5276418328285217,-0.18606944382190704,0.6877011656761169,0.7124075889587402,0.20923946797847748,0.0633067712187767,-0.06720621883869171,0.06933069229125977,-0.014713442884385586,0.18988695740699768,-0.12603828310966492,-0.05333247408270836,-0.06376263499259949,-0.07868033647537231,0.17079633474349976,0.36067476868629456,-0.10652951151132584,-0.021516233682632446,1.2052141427993774,-0.15563735365867615,0.004857783205807209,0.14107125997543335,0.07205735146999359,-0.27489811182022095,0.15497173368930817,0.01949371211230755,0.23518647253513336,0.23811554908752441,0.1497722566127777,-0.18737071752548218,-0.3008158206939697,-0.10394273698329926,0.2851918637752533,-0.1687847375869751,-0.20062673091888428,0.2505999207496643,-0.07259771972894669,-0.356689453125,0.09070312976837158,-0.1497158706188202,-0.17675821483135223,0.2780514657497406,-0.026796141639351845,0.05425875261425972,0.27179354429244995,0.034911781549453735,0.06657421588897705,-0.373911052942276,-0.1808272898197174,0.03172960877418518,-0.3828652799129486,0.056414924561977386,-0.22110870480537415,-0.017924504354596138,-0.15599648654460907,-0.2135137915611267,-0.06474766135215759],[-0.2768156826496124,0.3133508861064911,0.541886568069458,0.356954425573349,-0.31435006856918335,-0.007056090515106916,0.040962349623441696,-0.02731352113187313,0.08104956150054932,-0.01332207303494215,0.20511557161808014,0.09647896885871887,0.029161006212234497,0.0927124097943306,0.30491960048675537,-0.6233838200569153,-0.26439008116722107,-0.2137746959924698,-0.3711221516132355,0.05860590562224388,0.05193046107888222,-0.47612816095352173,0.10137671232223511,0.08948139101266861,-0.03716285899281502,0.03907810524106026,0.4269546568393707,0.0672420784831047,0.20633839070796967,0.07246990501880646,-0.35239261388778687,-0.04279610514640808,0.06780479848384857,-0.15265853703022003,-0.06022123619914055,0.32298076152801514,-0.2532597780227661,0.028917713090777397,-0.21177926659584045,-0.3718547821044922,0.45531782507896423,-0.2894357442855835,-0.2293565720319748,0.32413771748542786,0.09438100457191467,-0.24660392105579376,0.3017709255218506,-0.11931641399860382,-0.3092498183250427,0.30303338170051575,-0.2449934035539627,-0.4126774072647095,0.13204997777938843,0.11009524017572403,-0.24192950129508972,-0.12835483253002167,-0.18031688034534454,0.3816501200199127,-0.014860848896205425,0.31401631236076355,-0.3921608626842499,-0.31916967034339905,-0.08339224755764008,-0.02183234505355358,-0.11598943173885345],[0.10507187992334366,0.3042125999927521,0.5694653391838074,0.24040651321411133,-0.0581657849252224,-0.14312437176704407,-0.47194308042526245,0.08764786273241043,-1.064877986907959,-0.14671331644058228,-0.2266518771648407,-0.5969362854957581,-0.19716554880142212,0.08337080478668213,-0.14529353380203247,-0.38254261016845703,0.21593478322029114,0.12161152809858322,0.05205342173576355,-0.023645829409360886,-0.39508986473083496,0.19202569127082825,0.15937379002571106,0.20114311575889587,0.19821974635124207,-0.029924433678388596,-1.3421560525894165,-1.0570284128189087,-0.0726395919919014,0.008383607491850853,0.02699223905801773,-0.18600565195083618,-0.4053598642349243,0.12718266248703003,-0.025714397430419922,-0.2159622758626938,0.011510387994349003,-0.14253370463848114,-0.15118439495563507,-0.0572386272251606,-0.09524694830179214,0.023158179596066475,-0.17695078253746033,0.015594624914228916,-0.08059464395046234,-0.27157464623451233,-0.12597356736660004,0.0793115422129631,-0.19954192638397217,-0.11465350538492203,0.054648738354444504,-0.09489277005195618,0.09080848097801208,-0.3178803324699402,0.07226871699094772,0.13444103300571442,-0.07474728673696518,-0.49661269783973694,0.16218064725399017,-0.06271686404943466,-0.33107614517211914,0.15156643092632294,-0.034975118935108185,0.04414511099457741,0.06026698648929596],[0.019379761070013046,0.34622693061828613,0.06923815608024597,0.16632898151874542,0.14603686332702637,-0.072786346077919,-0.5959187746047974,0.10197068005800247,-0.9545567631721497,-0.5351649522781372,0.010265856981277466,-0.3872562348842621,-0.026529468595981598,-0.07592179626226425,-0.2353227734565735,-0.43005481362342834,0.1916247010231018,0.12683768570423126,-0.03674286603927612,0.07622082531452179,-0.4252232611179352,-0.3421231806278229,-0.05828230828046799,0.2829035818576813,-0.44774967432022095,-0.10167866200208664,-0.07054100930690765,-0.9865106344223022,0.03243304044008255,-0.006457366980612278,0.010920824483036995,0.01614805869758129,-0.049476008862257004,0.08567386120557785,0.24410772323608398,0.02914278581738472,0.10572700947523117,-0.13743095099925995,-0.08030400425195694,-0.2533484101295471,0.06785494089126587,-0.2139376997947693,0.2540953755378723,0.06580127030611038,0.2288898229598999,-0.12248094379901886,0.16025276482105255,0.1958039551973343,-0.07996102422475815,0.20383703708648682,-0.2692309319972992,-0.17997413873672485,0.22023417055606842,0.08918669074773788,-0.06995724141597748,0.25385206937789917,0.17827878892421722,0.26106470823287964,-0.7942748665809631,-0.30134037137031555,-0.4415820837020874,0.05789709836244583,-0.05448296666145325,0.007867880165576935,0.16614453494548798],[0.009639901109039783,-0.2740274667739868,0.2999837398529053,-0.042484965175390244,0.22337961196899414,-0.26107215881347656,-0.12321967631578445,-0.0596436969935894,-0.23674128949642181,0.2737720310688019,-0.22496657073497772,-0.5109995007514954,-0.45820850133895874,-0.08585862070322037,0.053893618285655975,0.29616132378578186,-0.1360950917005539,0.18907305598258972,0.31372618675231934,-0.015547812916338444,-0.08805761486291885,0.44918423891067505,0.30652961134910583,0.24259749054908752,0.4213232696056366,-0.06957603245973587,-0.6074745655059814,0.06399009376764297,0.10917951166629791,-0.03450968861579895,0.3194200396537781,-0.14463919401168823,-0.41983625292778015,0.6635295152664185,-0.025078115984797478,-0.3953332304954529,0.08666011691093445,-0.33506110310554504,0.1700686365365982,0.23375952243804932,-0.1791020929813385,0.2929536700248718,0.043702103197574615,-0.21537883579730988,-0.02896777354180813,0.16058826446533203,-0.08674971014261246,0.1290280967950821,0.22586479783058167,-0.2494138479232788,0.029581641778349876,0.12786109745502472,-0.11885196715593338,-0.1525808870792389,0.37814152240753174,-0.3251532018184662,0.006293614860624075,-0.014883680269122124,-0.0013079633936285973,0.5243090987205505,0.5221596360206604,0.33273106813430786,0.12386636435985565,0.05925123021006584,0.1415298730134964],[-0.07384873181581497,-0.04271475970745087,0.04260747879743576,-0.19255925714969635,0.028649814426898956,-0.4121396243572235,0.33989962935447693,0.06505274027585983,0.5298950672149658,0.1906348168849945,0.23613868653774261,0.5129019618034363,-0.12531527876853943,0.11186675727367401,0.15683066844940186,0.19588445127010345,-0.13808321952819824,-0.1866539567708969,-0.20384493470191956,0.07944852858781815,0.20228956639766693,0.049506593495607376,-0.2744617760181427,0.1166834831237793,-0.38665977120399475,-0.06069942191243172,1.9681881666183472,0.03453649580478668,0.14827007055282593,0.4008963406085968,0.12150060385465622,0.11003155261278152,-0.0211191326379776,0.07862846553325653,0.5517569780349731,0.40884533524513245,0.12670370936393738,-0.32880833745002747,0.06564280390739441,0.1513443887233734,0.1378745585680008,-0.012536182068288326,0.10451915860176086,0.05509350076317787,0.17908482253551483,0.12826403975486755,0.033773139119148254,0.024743232876062393,0.15615494549274445,0.14489547908306122,0.1412261426448822,0.10762883722782135,0.06846828758716583,-0.02709708921611309,-0.18629761040210724,0.09493138641119003,-0.022651033475995064,0.12431008368730545,-0.3144702911376953,-0.2381099909543991,0.17112429440021515,-0.12314438074827194,0.2817399203777313,-0.1041402518749237,0.26249513030052185],[-0.19117537140846252,-0.12815658748149872,-0.24681666493415833,-0.40755507349967957,0.04158683493733406,-0.15505272150039673,0.6949805021286011,-0.27926841378211975,1.013461947441101,-0.14377914369106293,0.12577447295188904,0.08023056387901306,0.33868324756622314,-0.04250515252351761,0.09529583901166916,-0.460026353597641,-0.07149159908294678,-0.14272552728652954,-0.01246513333171606,-0.04311077296733856,0.2696956694126129,-0.2107536345720291,-0.05411970242857933,-0.13692009449005127,0.03819025680422783,0.017017386853694916,-0.6781912446022034,0.6902667880058289,-0.04358260706067085,0.10657083988189697,-0.07011858373880386,-0.3852056562900543,-0.4449343979358673,-0.15341801941394806,-0.2911132574081421,-0.3264107406139374,-0.09077014029026031,-0.050202611833810806,-0.021332379430532455,-0.015002083964645863,0.008692187257111073,-0.09820489585399628,-0.37570521235466003,0.06106363236904144,-0.19674871861934662,0.07639376819133759,-0.0077118338085711,-0.07240184396505356,-0.3336854577064514,-0.052266575396060944,0.12240196019411087,0.12785954773426056,-0.10277098417282104,0.11437179148197174,-0.15607772767543793,-0.19742485880851746,0.024073196575045586,0.06599625200033188,0.8292456865310669,-0.03475884720683098,0.06150543689727783,-0.02470855601131916,-0.01900174655020237,-0.3343431353569031,-0.12239127606153488],[0.27870509028434753,0.04915044829249382,-0.25622689723968506,0.2782537043094635,0.34469836950302124,0.02642456628382206,-1.094347596168518,0.13259217143058777,-0.364341139793396,-0.09249388426542282,-0.07598017901182175,-0.04567328095436096,-0.16074727475643158,-0.08039765059947968,0.03605109080672264,0.15885606408119202,0.30721986293792725,0.22937755286693573,0.16501732170581818,-0.015297351405024529,0.18116150796413422,0.18456275761127472,0.052704256027936935,0.07545526325702667,0.21025682985782623,0.05256140977144241,-0.015807215124368668,-0.06330417841672897,0.011724443174898624,0.07986433804035187,0.007237253710627556,0.5828828811645508,-0.7792213559150696,-0.14572647213935852,0.11854304373264313,-0.41529929637908936,-0.10148559510707855,0.020809220150113106,-0.1628442257642746,-0.21835839748382568,0.1405348926782608,-0.20453029870986938,-0.04054644703865051,-0.02261032722890377,-0.284487783908844,-0.10113418847322464,-0.03574715927243233,-0.19617478549480438,-0.06989544630050659,-0.0796181932091713,-0.19253796339035034,-0.013506874442100525,0.1373228281736374,0.13116194307804108,0.0051501356065273285,0.462085485458374,0.18923145532608032,-0.25102147459983826,-0.39960530400276184,-0.3237982988357544,-0.18673275411128998,0.17391814291477203,-0.0904974415898323,-0.06584421545267105,-0.042285896837711334],[-0.3662742078304291,0.007478418760001659,-0.2033875733613968,-0.28034695982933044,-0.06287145614624023,-0.059835225343704224,0.9582005143165588,-0.24806876480579376,0.656973659992218,0.023996056988835335,0.15102621912956238,0.4530123174190521,0.2758849859237671,-0.04154226556420326,0.14044161140918732,-0.19773250818252563,0.090778648853302,0.09282924234867096,0.26100289821624756,-0.09301113337278366,0.1417471021413803,0.2863385081291199,-0.35200169682502747,-0.24951046705245972,-0.028762416914105415,0.09743984788656235,-0.18240487575531006,0.5166219472885132,0.09128174185752869,-0.1742868572473526,-0.17309656739234924,-0.27126654982566833,-0.28765928745269775,-0.25227174162864685,-0.04282820224761963,-0.017563171684741974,-0.041139476001262665,0.13807882368564606,-0.16083407402038574,0.07506419718265533,0.12220532447099686,0.2835983335971832,-0.16489450633525848,-0.020628316327929497,-0.19565467536449432,-0.0015273692552000284,0.09781176596879959,-0.14733293652534485,0.19014163315296173,0.0348215326666832,0.14159899950027466,-0.028769737109541893,0.032638803124427795,-0.023624084889888763,-0.08746311068534851,-0.3496927320957184,0.022662630304694176,0.07914987951517105,-0.021585920825600624,0.32037046551704407,0.06983645260334015,-0.08140066266059875,0.2723001539707184,0.013486053794622421,-0.217802032828331],[-0.2144777774810791,-0.2716696858406067,-1.1424572467803955,-0.14365413784980774,0.27557018399238586,-0.34030622243881226,-0.2541576623916626,-0.12771868705749512,0.6826770901679993,0.05553945153951645,0.3987954258918762,0.4624767601490021,-0.05960652232170105,0.09413743019104004,0.06083453446626663,0.05804476886987686,-0.2470277100801468,-0.1514119803905487,-0.11023090779781342,0.013873908668756485,0.3779962956905365,-0.47253158688545227,0.14147786796092987,0.20100603997707367,-0.021587934345006943,-0.10117516666650772,0.4226111173629761,0.5375231504440308,0.14192745089530945,0.2670789957046509,-0.10210771858692169,0.5064095854759216,-0.7867230176925659,-0.1690881848335266,0.07322371006011963,0.12305901199579239,-0.08854980766773224,-0.13311289250850677,-0.03768901154398918,0.053381141275167465,0.14546525478363037,-0.1821102499961853,-0.03459002450108528,0.0169818215072155,-0.043302640318870544,0.08950014412403107,-0.059346966445446014,-0.033713795244693756,0.15545280277729034,-0.04082227498292923,-0.0582338385283947,0.1828620433807373,-0.1437809020280838,0.18866580724716187,-0.5151150226593018,0.21926374733448029,-0.08051248639822006,0.2178879827260971,0.3281833827495575,-0.3262791335582733,0.054452188313007355,0.07222394645214081,-0.2880813479423523,-0.47809138894081116,-0.20109723508358002],[0.1920360028743744,-0.0030847336165606976,-0.084489606320858,-0.0002849003649316728,-0.2681405544281006,0.3036091923713684,0.8431410193443298,0.11045809090137482,-0.7477715015411377,0.07667447626590729,-0.2734573781490326,0.16555246710777283,0.06524941325187683,0.039691489189863205,-0.4262109696865082,-0.17962895333766937,0.1784944087266922,-0.12995465099811554,-0.07564282417297363,0.11136185377836227,-0.1296265423297882,0.08999615907669067,-0.09901297092437744,-0.24353192746639252,-0.37477806210517883,-0.005414001643657684,-0.3853580951690674,0.17630790174007416,0.1003703624010086,0.034597247838974,0.020511511713266373,0.2594517469406128,0.9868301749229431,0.11769133806228638,-0.1549556851387024,0.8304463624954224,0.2483948916196823,0.4927748739719391,0.019015192985534668,0.1473306566476822,-0.016667529940605164,0.008696559816598892,0.10035828500986099,0.00114680384285748,0.04162001609802246,-0.15005961060523987,0.007494272664189339,-0.28723084926605225,-0.12120836228132248,0.03255700320005417,-0.17022351920604706,0.056739892810583115,0.19764162600040436,-0.370815634727478,0.24306978285312653,0.0694405734539032,0.039863597601652145,0.25913986563682556,0.31457921862602234,-0.2459571659564972,-0.442017138004303,-0.20311211049556732,0.4378178119659424,0.5596286654472351,0.23886457085609436],[0.19060873985290527,0.1952655017375946,-0.10153384506702423,0.20663170516490936,0.040386710315942764,0.25706055760383606,-0.06284990906715393,0.18570810556411743,-0.7835401296615601,-0.14589881896972656,-0.6672659516334534,-0.601776659488678,0.1454920768737793,-0.05708818510174751,-0.14072561264038086,-0.02040041610598564,-0.05092187598347664,0.060014642775058746,0.07390992343425751,0.11864029616117477,-0.5712777376174927,0.0526643730700016,0.13743163645267487,-0.007081503514200449,0.15276919305324554,-0.009434384293854237,-1.0230085849761963,0.08002161234617233,-0.10954918712377548,-0.23381225764751434,-0.04714259132742882,-0.16333486139774323,0.60689377784729,0.0653710886836052,-0.4131227135658264,-0.20463672280311584,-0.06953021883964539,-0.01820371113717556,-0.04925885424017906,-0.3254840075969696,0.13024526834487915,-0.12182477861642838,-0.24760431051254272,0.07215910404920578,-0.22704000771045685,-0.19512736797332764,-0.008018694818019867,-0.03446156159043312,-0.264843225479126,-0.11452356725931168,-0.10862847417593002,-0.29655054211616516,0.0071618626825511456,0.023091651499271393,-0.18671616911888123,-0.010893118567764759,0.0997791439294815,0.04963447526097298,0.06540969759225845,-0.17053264379501343,0.15678268671035767,0.03927084803581238,-0.02730751968920231,0.022834504023194313,0.12797315418720245],[-0.11366383731365204,-0.35220909118652344,-0.05731126293540001,-0.13044069707393646,-0.09320899844169617,-0.3620624542236328,-0.25375211238861084,-0.06226485222578049,0.2549689710140228,0.23270434141159058,0.2995099127292633,-0.020536892116069794,-0.24025003612041473,0.09589377045631409,0.276690810918808,-0.0641116201877594,-0.15480244159698486,-0.013035120442509651,-0.13910341262817383,0.05450638756155968,0.23510795831680298,-0.1058463305234909,-0.04429108276963234,0.1158405989408493,-0.5774922966957092,0.07060021907091141,2.1150314807891846,0.32262182235717773,0.023965904489159584,0.06479518115520477,0.07141778618097305,0.7070348262786865,-0.500481367111206,0.18176665902137756,0.3082840144634247,0.4433765709400177,0.01762920618057251,0.3134000301361084,0.041796691715717316,-0.06273484975099564,0.24570241570472717,-0.0990203469991684,-0.08969893306493759,0.15925456583499908,0.11911721527576447,-0.07833977788686752,0.07069487124681473,-0.20153549313545227,0.14947257936000824,0.16793812811374664,-0.18202129006385803,0.0773337259888649,0.07626953721046448,-0.013082967139780521,-0.11208298057317734,0.6080920100212097,-0.08170049637556076,0.22379891574382782,-0.03174576908349991,-0.4589700698852539,0.09513507783412933,-0.10461965948343277,0.029515935108065605,-0.1874735802412033,0.06734232604503632],[0.16326214373111725,0.4212644100189209,0.44860729575157166,0.19063492119312286,0.293906033039093,0.24609722197055817,-0.4217998683452606,0.057838745415210724,-0.7116073966026306,0.1651405692100525,-0.34888601303100586,0.0714595690369606,-0.2953246235847473,-0.03331376239657402,-0.2578997313976288,-0.45001766085624695,0.20557627081871033,-0.022046027705073357,0.05752602219581604,-0.06679314374923706,-0.15522123873233795,0.01499233115464449,-0.16207432746887207,-0.43469110131263733,-0.3062753975391388,0.05196822062134743,-1.4214242696762085,-0.5693843960762024,-0.019561447203159332,-0.30504781007766724,-0.13814643025398254,-0.3064267933368683,1.0626189708709717,0.12197967618703842,-0.09822601079940796,-0.3365054130554199,0.09338617324829102,0.26486214995384216,-0.002573155565187335,0.15506911277770996,-0.12420207262039185,0.019775284454226494,0.052461009472608566,-0.21332862973213196,0.10076073557138443,-0.09119738638401031,-0.13831788301467896,0.3238336443901062,-0.06809799373149872,-0.09020869433879852,-0.10415070503950119,-0.18167124688625336,-0.024571284651756287,-0.0115077905356884,0.06117008626461029,0.12905234098434448,0.051419973373413086,-0.22730006277561188,-0.5969884395599365,0.15279817581176758,0.21567745506763458,0.07017803192138672,0.20911049842834473,0.11633381247520447,0.18479140102863312],[-0.1991713047027588,0.012012278661131859,-0.1564984917640686,-0.2388109266757965,-0.028484493494033813,-0.3100438714027405,-0.3165745735168457,-0.13669617474079132,0.71190345287323,-0.25268250703811646,0.483920156955719,-0.009572858922183514,0.11051015555858612,-0.0757603868842125,0.1416751593351364,0.11665928363800049,0.0015272203600034118,0.14780418574810028,-0.23666025698184967,0.11458250135183334,0.2511451542377472,-0.08371245115995407,0.15159489214420319,0.39047807455062866,0.06339528411626816,-0.06370629370212555,0.4993477165699005,0.06298718601465225,0.18216192722320557,0.3640436828136444,-0.12259089946746826,0.615887463092804,-1.2367292642593384,-0.3956963121891022,0.26924917101860046,0.17367422580718994,-0.2111780345439911,0.06896315515041351,0.18133226037025452,0.21569706499576569,-0.14127403497695923,-0.14882934093475342,0.1590556651353836,-0.04710860550403595,0.14041773974895477,0.24954853951931,0.024767007678747177,-0.07961078733205795,0.005188648123294115,-0.03154965490102768,0.1531677544116974,0.4988560080528259,-0.2001180797815323,0.5548868179321289,-0.20299817621707916,0.1174139678478241,0.022778579965233803,0.19081667065620422,-0.10705544799566269,-0.1482866406440735,-0.08404660224914551,0.18297439813613892,-0.27597856521606445,-0.20387820899486542,0.028236066922545433],[-0.15937936305999756,-0.18388578295707703,0.2467028796672821,0.0015563084743916988,0.28252995014190674,-0.500716507434845,-0.1856703907251358,-0.015070385299623013,0.7891637086868286,0.2829248011112213,0.28210005164146423,-0.020466724410653114,-0.08009639382362366,-0.031967636197805405,0.43308886885643005,0.19203051924705505,-0.25828808546066284,0.022081846371293068,0.06234457716345787,-0.0811130553483963,0.858038067817688,0.13346511125564575,-0.17825926840305328,0.044436462223529816,0.21847108006477356,0.004151106812059879,0.9649883508682251,0.35216930508613586,-0.10121244937181473,0.0863930732011795,0.04090217873454094,0.023491697385907173,-0.468671590089798,0.2984689474105835,0.031207246705889702,0.4096642732620239,0.19509927928447723,-0.05865087732672691,0.21999220550060272,0.06496857851743698,0.018004445359110832,0.18611027300357819,-0.11639679223299026,0.09138473123311996,0.01591089926660061,-0.17936456203460693,0.2061709761619568,-0.030695082619786263,-0.04126967117190361,-0.01692812703549862,0.06127773970365524,-0.08125093579292297,0.17007672786712646,0.20197360217571259,0.06253799051046371,-0.13533173501491547,-0.1688006967306137,0.10672743618488312,0.14229147136211395,-0.07244202494621277,0.2611250877380371,-0.1677977591753006,0.08995835483074188,-0.07186955213546753,0.12616993486881256],[0.2947239875793457,0.15282027423381805,0.2986278235912323,0.27535301446914673,-0.2695644497871399,0.273795485496521,-0.21163144707679749,0.31339341402053833,-0.5249866247177124,-0.24424953758716583,0.019737055525183678,0.4176730215549469,0.04285546392202377,-0.05141307786107063,0.029381969943642616,-0.1503213793039322,0.2384755164384842,0.07719748467206955,0.14592643082141876,0.12134844064712524,-0.19547079503536224,-0.07903192937374115,0.29237693548202515,0.4016819894313812,0.0589589849114418,-0.05214245989918709,0.3338933289051056,-0.6079334020614624,0.1193491742014885,0.14587105810642242,0.35506242513656616,0.1129756048321724,1.0671489238739014,0.07909215986728668,0.4784630239009857,0.38305509090423584,0.21393513679504395,0.18123650550842285,-0.10383642464876175,-0.048858098685741425,0.2725757360458374,0.042357780039310455,0.017993055284023285,0.1747751533985138,0.045114874839782715,-0.17463745176792145,0.2259732037782669,0.05459520220756531,0.040249746292829514,0.138161763548851,0.13288195431232452,-0.3033680021762848,0.06838847696781158,-0.317133367061615,0.04595081880688667,0.14724424481391907,0.09446045011281967,-0.24562276899814606,-0.6406363248825073,0.46864476799964905,0.340045303106308,0.07816345989704132,0.4276087284088135,0.38764452934265137,0.22349601984024048],[0.030438097193837166,-0.07800043374300003,0.008200518786907196,-0.007241975050419569,-0.3667207360267639,0.06970864534378052,0.40801066160202026,0.041661351919174194,0.7163581252098083,-0.11066632717847824,0.19050392508506775,0.01678633876144886,-0.12176737934350967,0.010669806972146034,-0.26536324620246887,0.3655700385570526,-0.28647860884666443,-0.30402371287345886,-1.0959198474884033,0.09992516785860062,0.11609476804733276,-0.48443010449409485,-0.11821118742227554,-0.03789497911930084,-0.482744961977005,0.10346440970897675,2.0882723331451416,-0.056815873831510544,0.16904328763484955,0.32694995403289795,-0.04460977390408516,0.04783178120851517,-0.14535078406333923,-0.09689875692129135,0.3288181722164154,0.36799919605255127,-0.19774369895458221,0.08790680766105652,0.20068523287773132,-0.11401335150003433,0.0945708155632019,0.06647469848394394,-0.09220560640096664,0.1131468415260315,0.08855804800987244,0.08418487012386322,0.09291272610425949,0.025711921975016594,-0.13679645955562592,0.12529054284095764,-0.005361424293369055,0.06001319736242294,0.0017070353496819735,0.20113857090473175,-0.21429665386676788,0.3988056182861328,0.05820508301258087,0.1542368084192276,0.506511926651001,-0.1891438215970993,0.3360808491706848,0.06870003789663315,0.13679030537605286,0.013327034190297127,0.0170111283659935],[0.0802290067076683,-0.12015292793512344,0.05523163080215454,-0.33882245421409607,-0.044182535260915756,-0.2118537425994873,1.1779184341430664,-0.25713515281677246,0.24850448966026306,0.2579142153263092,-0.0894438847899437,0.008347522467374802,0.363455206155777,-0.027854928746819496,-0.369900107383728,0.13620403409004211,-0.06949035823345184,-0.2227603644132614,-0.05233101546764374,-0.1179351881146431,-0.2944929301738739,0.2270331084728241,-0.1096009835600853,-0.002420073375105858,0.008618977852165699,0.07851605862379074,-1.2774006128311157,0.20924612879753113,-0.14219783246517181,-0.2174445390701294,-0.16710107028484344,-0.6254603266716003,-0.4847969114780426,-0.2415647953748703,-0.1816766858100891,-0.4301654100418091,0.04692435264587402,-0.08603222668170929,-0.047168128192424774,0.20926865935325623,-0.10759447515010834,0.2509731650352478,0.024672426283359528,-0.03606033697724342,-0.10782565921545029,0.25232791900634766,-0.15851539373397827,-0.0772302895784378,0.181204155087471,-0.002727291313931346,0.0962289348244667,-0.012327022850513458,-0.06419048458337784,-0.12694275379180908,0.22747811675071716,-0.42958879470825195,-0.1397632509469986,-0.34246358275413513,0.03260098397731781,0.4387854337692261,0.05117695778608322,-0.010070797055959702,0.04960556700825691,0.011846726760268211,-0.19094859063625336],[0.021070532500743866,0.07836352288722992,0.3629622459411621,0.13573622703552246,-0.06969897449016571,-0.08477527648210526,-0.08900145441293716,0.2633894979953766,0.10590916872024536,-0.2331448346376419,0.46871891617774963,0.3221055269241333,-0.08983413875102997,0.035326164215803146,-0.47422918677330017,0.09944929927587509,0.2333063930273056,0.6353350877761841,-0.06768815964460373,-0.06210960075259209,0.07343709468841553,-0.27276313304901123,0.16453850269317627,0.06497430801391602,0.22343328595161438,0.06257355958223343,0.5627857446670532,-0.193227618932724,0.24189181625843048,0.18606527149677277,0.1859617382287979,0.9038271307945251,0.07558461278676987,-0.06753494590520859,0.5147558450698853,0.3691273331642151,0.17623989284038544,0.984602153301239,-0.1257397085428238,-0.08222052454948425,0.20501071214675903,-0.15804199874401093,0.09826831519603729,0.17718054354190826,-0.03280985355377197,-0.058288056403398514,0.10877992957830429,0.044442225247621536,0.01693602465093136,0.10366121679544449,0.06498168408870697,-0.017144281417131424,0.013166012242436409,-0.10887720435857773,-0.08637282252311707,-0.13578112423419952,0.1279507279396057,-0.2548356354236603,-0.35250282287597656,0.47974860668182373,0.09107557684183121,0.006646331399679184,0.04244496673345566,0.20996856689453125,0.06668765842914581],[0.03403596952557564,-0.2415027767419815,0.38103368878364563,-0.08090591430664062,-0.14574787020683289,0.08534713089466095,0.9495857954025269,-0.0654706135392189,0.5830091238021851,0.7735101580619812,0.11692019551992416,0.595241129398346,0.3321913778781891,-0.07472070306539536,0.25880828499794006,0.3745861351490021,0.07975231111049652,-0.028868962079286575,-0.1132618635892868,-0.03236088529229164,0.02643543854355812,-0.1009119376540184,0.04030825197696686,0.033936310559511185,-0.44734248518943787,-0.09453621506690979,0.6491343379020691,0.28253182768821716,0.005886049475520849,0.18644456565380096,0.0810321643948555,-0.26240989565849304,0.46636301279067993,0.23369042575359344,0.10212794691324234,0.22701504826545715,-0.008677799254655838,-0.059367891401052475,-0.11858312040567398,-0.06294655799865723,-0.03911839798092842,0.004320563282817602,-0.09148040413856506,0.12727834284305573,0.21553295850753784,-0.17971907556056976,0.052676234394311905,-0.22620505094528198,0.11268123239278793,0.11330490559339523,0.187015101313591,-0.0986541360616684,0.2035551518201828,-0.30599862337112427,0.38559991121292114,-0.10904818773269653,-0.11832143366336823,0.09607233852148056,0.12237521260976791,0.2531451880931854,-0.32993072271347046,-0.2735193371772766,0.22237393260002136,0.3754037320613861,0.04783984273672104],[0.07306013256311417,-0.3902363181114197,0.30414271354675293,-0.07793115824460983,0.2869403660297394,0.016914183273911476,0.08053221553564072,0.09901238977909088,0.002435971051454544,0.5373417735099792,-0.15233571827411652,-0.28044724464416504,-0.09360463917255402,-0.10330110043287277,-0.015150929801166058,0.17392446100711823,0.05208912864327431,0.10724535584449768,0.21332532167434692,0.10821781307458878,0.3743642568588257,0.5636177659034729,0.3125116527080536,0.2869795262813568,0.3413497507572174,-0.028343357145786285,-0.6405585408210754,0.26717209815979004,0.09845281392335892,-0.008088424801826477,0.16544678807258606,-0.16661666333675385,-1.21123206615448,0.42259010672569275,0.006972652859985828,0.042799998074769974,0.1371045708656311,0.14896394312381744,-0.0412205271422863,-0.017606545239686966,0.1102050393819809,0.31038355827331543,-0.10915017127990723,0.09455141425132751,-0.2564361095428467,-0.23446360230445862,0.13790985941886902,-0.24008673429489136,-0.036395180970430374,0.05409203842282295,-0.1624618023633957,-0.17903167009353638,0.12277063727378845,-0.27382567524909973,0.2419624775648117,0.05712307617068291,-0.15922020375728607,-0.0046394686214625835,0.8889375925064087,-0.04803825169801712,-0.3015383183956146,-0.04183570668101311,-0.11183994263410568,0.15962538123130798,-0.0027140567544847727],[0.015191572718322277,-0.09407264739274979,0.007593420799821615,-0.18770508468151093,-0.21172308921813965,0.4422799050807953,0.2603910565376282,-0.36661872267723083,-0.556572437286377,0.14479482173919678,-0.46989449858665466,-0.3203088343143463,0.11894357949495316,-0.03351418673992157,-0.17365628480911255,0.00841305498033762,0.06810260564088821,-0.15339508652687073,0.21232712268829346,-0.08087264746427536,-0.09865356236696243,0.372883677482605,-0.07425115257501602,-0.47710296511650085,0.17338751256465912,-0.025023391470313072,-1.5854251384735107,-0.3070560693740845,-0.08301625400781631,-0.22524890303611755,-0.08058890700340271,-0.15767106413841248,0.14482887089252472,0.13121269643306732,-0.25729358196258545,-0.10266081243753433,-0.025003135204315186,-0.05399550125002861,0.08008534461259842,-0.011450465768575668,-0.12902075052261353,0.31259685754776,-0.05534849315881729,-0.1300118863582611,-0.052057910710573196,-0.0357164666056633,-0.07627139240503311,-0.0044278791174292564,-0.12574461102485657,0.00081137620145455,0.005727051757276058,-0.04118337109684944,-0.0179628673940897,-0.18402999639511108,0.2330145388841629,0.002535533858463168,-0.12778612971305847,-0.03415931388735771,0.2619664669036865,0.19881051778793335,-0.26003536581993103,0.07842294126749039,0.049785315990448,0.11918193846940994,-0.19297994673252106],[0.17069712281227112,0.04853647202253342,0.09904060512781143,-0.03752392157912254,-0.05713904649019241,0.28197765350341797,0.6951229572296143,-0.05956384912133217,0.40575918555259705,0.041085802018642426,-0.06267040222883224,0.19603478908538818,0.42991265654563904,0.0861930251121521,-0.3645477890968323,0.10177039355039597,0.03473443165421486,-0.2908285856246948,-0.027933891862630844,-0.03363095223903656,-0.33002129197120667,0.20304927229881287,-0.08763426542282104,-0.18421681225299835,0.07661658525466919,0.09447001665830612,-0.944334089756012,0.2527983784675598,-0.12558524310588837,-0.36644625663757324,-0.026979481801390648,-0.8293799757957458,0.09801928699016571,0.0046157934702932835,-0.2747017443180084,-0.21756359934806824,0.03505317494273186,-0.2382296621799469,-0.11616621166467667,0.11436951160430908,0.012566006742417812,0.22519712150096893,-0.04887184873223305,0.026301177218556404,0.01991521567106247,-0.2870691418647766,0.00878553930670023,-0.1792077124118805,-0.20862877368927002,0.09995052963495255,0.05775989219546318,-0.04379943385720253,0.09704773873090744,-0.43031761050224304,0.022215459495782852,-0.5430063009262085,0.07671953737735748,-0.49084487557411194,-0.021154314279556274,0.4365027844905853,0.1595674455165863,-0.02002301812171936,0.1325896829366684,0.27348870038986206,-0.15001296997070312],[-0.27155303955078125,-0.13303132355213165,-0.42318347096443176,-0.08308009058237076,0.19885629415512085,-0.2054210901260376,0.018800964578986168,-0.22533807158470154,1.0645250082015991,0.030581746250391006,0.30668628215789795,0.10810539871454239,0.12202506512403488,-0.0025240746326744556,0.09607433527708054,0.22772610187530518,-0.2113134264945984,0.007011808920651674,-0.16203023493289948,-0.06821396946907043,0.5160883665084839,0.07774656265974045,-0.05415620654821396,-0.35543155670166016,0.034468382596969604,-0.040509264916181564,0.1930444836616516,0.35305142402648926,-0.1950540989637375,-0.04007205367088318,0.15232259035110474,0.1756305694580078,-0.7859293222427368,0.04612904414534569,-0.2890865206718445,0.022213125601410866,-0.2510054409503937,-0.07773623615503311,0.2651331126689911,0.32252541184425354,-0.06495574861764908,0.07068268954753876,-0.07078101485967636,0.10986003279685974,0.28830376267433167,0.1064119040966034,-0.06825994700193405,0.13366471230983734,-0.16969601809978485,0.0724414736032486,0.26177698373794556,0.2237507551908493,-0.17935319244861603,0.3797183632850647,-0.23795318603515625,-0.08308444917201996,0.050023723393678665,-0.16979900002479553,0.5798625349998474,0.10408621281385422,0.4908553957939148,-0.28346800804138184,-0.10193616151809692,-0.20011287927627563,-0.03541270270943642],[0.20843620598316193,0.07968151569366455,0.19919249415397644,0.09421180188655853,-0.36190325021743774,0.5424584746360779,-0.02178153023123741,0.10756845027208328,-0.8755850791931152,0.1895921677350998,-0.29595279693603516,0.396411657333374,-0.16854678094387054,0.10826214402914047,-0.23614439368247986,0.04148375242948532,0.1316308081150055,-0.15422804653644562,-0.12219470739364624,0.00019604880071710795,-0.0696382075548172,0.04899923875927925,0.23767991364002228,-0.054814379662275314,-0.22146376967430115,-0.024287886917591095,0.227814182639122,-0.31314486265182495,-0.02427702210843563,0.0448840893805027,0.1221027746796608,-0.3620304465293884,1.3726717233657837,-0.09084245562553406,0.1224428191781044,0.46936577558517456,0.08354515582323074,-0.18433555960655212,0.10003641992807388,0.13571485877037048,0.0738610252737999,0.27257710695266724,-0.04871979355812073,0.044679101556539536,0.033621884882450104,-0.5022409558296204,0.1500937044620514,-0.11422557383775711,-0.14096733927726746,0.09704825282096863,-0.0391056053340435,-0.2512916922569275,0.14447367191314697,-0.40985652804374695,0.19270749390125275,-0.17434439063072205,-0.1518273502588272,0.12389209121465683,-0.34958982467651367,0.30431509017944336,-0.083195261657238,-0.05818891152739525,0.2747194766998291,0.3464307188987732,0.007571780122816563],[-0.008745999075472355,-0.055376142263412476,0.27735915780067444,-0.06568436324596405,-0.5572547912597656,-0.031930819153785706,1.1233177185058594,-0.10969072580337524,0.6161441802978516,-0.22843903303146362,0.22748005390167236,0.14966100454330444,0.29758262634277344,0.07609482109546661,-0.39034754037857056,-0.07964922487735748,-0.2502758204936981,-0.38005244731903076,-0.4541671574115753,0.09259998798370361,-0.23101267218589783,-0.2632055878639221,-0.18064787983894348,-0.11078362911939621,-0.3343927264213562,-0.07105720043182373,0.1076081395149231,-0.040232595056295395,-0.07159378379583359,-0.15841558575630188,-0.35258370637893677,-0.3352171778678894,0.8339976668357849,-0.291657954454422,-0.09256752580404282,0.022426100447773933,-0.03240169584751129,-0.018443787470459938,0.15847501158714294,