{"topology":"mlp_tanh_3layer","input_dim":65,"output_dim":18,"source":"model_hard.onnx","layers":[{"w":[[-0.13610854744911194,-0.4641905128955841,0.8403170704841614,-0.5641074180603027,0.06317341327667236,-0.6514571905136108,1.2720261812210083,-0.2465771585702896,0.5360695719718933,0.4335407316684723,0.2444799244403839,0.4139600992202759,0.5521997213363647,-0.07115662097930908,-0.26558664441108704,0.18951374292373657,0.0549803152680397,-0.3068208396434784,-0.10306720435619354,0.06057826429605484,-0.13550302386283875,-0.08105050027370453,-0.05793331190943718,-0.06869930773973465,0.613908052444458,-0.10729598999023438,-0.4104757606983185,0.017949175089597702,0.0861193835735321,-0.19069044291973114,-0.16670051217079163,-0.09272974729537964,-0.42525428533554077,0.5933863520622253,-0.41173407435417175,-0.4994434118270874,0.07827220112085342,0.4341055154800415,0.12443248182535172,0.24169166386127472,0.031473513692617416,-0.23499998450279236,-0.009944471530616283,0.29709935188293457,-0.5637648701667786,0.04040371999144554,0.08239926397800446,-0.6852417588233948,0.08304120600223541,0.18424168229103088,-0.35611146688461304,0.016555914655327797,0.1370004117488861,0.0851888433098793,0.6807243824005127,-0.5190324783325195,0.04776492714881897,-0.014156634919345379,0.4794442355632782,0.8300902843475342,0.2963464558124542,-0.23003777861595154,0.15610454976558685,0.14507554471492767,-0.10714578628540039],[-0.25675684213638306,0.13045629858970642,0.33491453528404236,0.43500638008117676,-0.10739434510469437,-0.3579462766647339,-1.5583633184432983,0.09893240034580231,0.030706288293004036,-0.1551123559474945,0.39374351501464844,0.30524301528930664,-0.0764932706952095,-0.06026111915707588,-0.24315865337848663,-0.06174325570464134,0.09850374609231949,-0.09562942385673523,0.9163371324539185,0.11363023519515991,0.48570582270622253,0.0109636839479208,0.34836217761039734,0.21107381582260132,0.7471258044242859,-0.041011326014995575,-0.4511747360229492,-0.9119019508361816,-0.08860569447278976,0.1203698068857193,0.02995164319872856,-0.6463176608085632,0.4323525130748749,0.9075284600257874,0.026886817067861557,0.04541065916419029,0.0041365413926541805,-1.0153051614761353,0.06954537332057953,0.17553414404392242,-0.12733887135982513,0.7834899425506592,-0.1409750133752823,-0.12651123106479645,-0.20791469514369965,0.09369242936372757,-0.19208036363124847,0.6022483110427856,0.558471143245697,-0.030952202156186104,-0.18560974299907684,-0.04286102578043938,-0.09100114554166794,-0.11549180746078491,0.008732899092137814,-0.3897981345653534,-0.0008803755627013743,-0.5059402585029602,-0.4093446433544159,0.625335693359375,-0.14042070508003235,0.044553883373737335,-0.2605946958065033,0.22302059829235077,-0.05338626354932785],[-0.3754914700984955,-0.2805669605731964,0.11304584890604019,-0.3674890398979187,0.21127954125404358,-0.4255281090736389,0.014155088923871517,0.0751376524567604,0.8524925112724304,0.2230246365070343,0.3939942419528961,0.2997743487358093,0.4547504484653473,-0.11284957081079483,0.04934137687087059,0.3747117817401886,-0.11575215309858322,0.01863078586757183,0.5429047346115112,-0.06142290681600571,1.0318390130996704,-0.1566467583179474,0.2740597426891327,-0.003076758701354265,0.9358000755310059,-0.042086511850357056,0.8867253661155701,0.6352667808532715,0.27130135893821716,0.008206355385482311,0.13343749940395355,-0.08255022764205933,-1.1059566736221313,-0.08496464043855667,-0.1556822955608368,0.6060267686843872,0.0035361628979444504,0.06358898431062698,0.025537461042404175,0.001270455657504499,-0.05740363150835037,0.44301310181617737,-0.26556310057640076,-0.025748129934072495,0.07905993610620499,-0.12759923934936523,-0.19040372967720032,0.022668836638331413,-0.3290698230266571,-0.08161554485559464,0.4968915283679962,0.12307710200548172,0.06774259358644485,0.6141543984413147,0.4347337782382965,-0.07752833515405655,0.07742654532194138,-0.39131832122802734,0.15792058408260345,-0.11009225249290466,-0.2715512812137604,-0.33810490369796753,0.11774894595146179,0.18161220848560333,-0.004359961953014135],[-0.4446946084499359,-0.8763822913169861,-0.5437105298042297,-0.2852509319782257,0.18719258904457092,-0.3470500111579895,0.06888675689697266,-0.03084825724363327,1.1805449724197388,0.7083871364593506,0.5430957078933716,0.4861156642436981,0.3698103427886963,-0.05840720981359482,0.6154193878173828,0.5396285057067871,0.0820036381483078,-0.0310309249907732,0.3846513330936432,-0.09236596524715424,1.0191898345947266,-0.56382817029953,0.10707959532737732,0.3532979488372803,-0.10475274920463562,-0.10650242120027542,1.9599944353103638,0.5877306461334229,0.3426412045955658,0.1197156235575676,-0.15139026939868927,-0.1330508440732956,-0.31151464581489563,0.41733741760253906,0.15098179876804352,0.06527470052242279,-0.32070499658584595,-0.04322149232029915,0.348682165145874,0.33644434809684753,-0.0599304735660553,-0.08053909242153168,0.6732932329177856,-0.197676882147789,0.16880176961421967,0.17427629232406616,-0.17238681018352509,0.17871175706386566,0.3398790955543518,-0.036061473190784454,0.792400598526001,0.1709282249212265,-0.19714470207691193,0.8181917071342468,0.3389050364494324,0.16082577407360077,-0.10590272396802902,-0.31692928075790405,0.0582534521818161,-0.253495991230011,-0.038191329687833786,-0.07278451323509216,-0.37853020429611206,0.3330889344215393,-0.1769225299358368],[-0.16834348440170288,0.09913518279790878,1.0275472402572632,0.7275329232215881,0.3583117127418518,0.4521169066429138,-0.31584814190864563,0.25409385561943054,0.7141134142875671,-0.2037048190832138,0.06016843020915985,0.26439231634140015,-0.8022289276123047,0.023521892726421356,0.4984298646450043,-0.5449920296669006,0.395738810300827,0.14136503636837006,0.10966257005929947,-0.1044379398226738,0.1505986750125885,-0.08432237803936005,0.670035719871521,0.6520602703094482,0.1538379043340683,-0.05244198068976402,-0.03181954473257065,-1.309211254119873,0.26548832654953003,0.2141491025686264,0.18147438764572144,-0.7569504380226135,1.164974331855774,0.2292788326740265,-0.03488755598664284,-0.47140851616859436,-0.21638451516628265,-0.2238396257162094,0.1591477394104004,0.5716665983200073,-0.10649999976158142,0.27060437202453613,0.03553056716918945,-0.14004173874855042,0.1028897762298584,0.2562428414821625,-0.12240026146173477,0.5042452216148376,0.0585206039249897,-0.1101963073015213,-0.11271709203720093,-0.08988389372825623,-0.07346197217702866,0.45225241780281067,0.17127127945423126,-0.012307611294090748,-0.09429892152547836,-0.14184729754924774,-0.12479747086763382,0.8032500743865967,0.31003525853157043,0.3731636106967926,-0.41460901498794556,0.14283643662929535,0.16659575700759888],[-0.32103949785232544,0.13379985094070435,0.986589789390564,0.4337462782859802,-0.4566563367843628,0.005186925642192364,0.11919141560792923,-0.2456257939338684,0.573076605796814,-0.7261444926261902,0.646713137626648,0.540920078754425,0.5967904925346375,0.09389461576938629,0.9887774586677551,0.6371177434921265,-0.5144985914230347,0.06977690011262894,-0.19989140331745148,-0.05710870772600174,-0.16850130259990692,0.4850887954235077,-0.294588565826416,0.0919443815946579,-0.013949363492429256,0.07067500799894333,0.5038127899169922,0.21917977929115295,0.21665629744529724,0.47765326499938965,0.3831830322742462,0.42856428027153015,-1.0083895921707153,0.5238608121871948,0.6746992468833923,0.1171845942735672,0.22443386912345886,0.39604198932647705,-0.024732282385230064,-0.13791288435459137,0.15116152167320251,0.0723806694149971,0.07647768408060074,0.25903138518333435,-0.18572524189949036,-0.017994500696659088,0.2818929851055145,0.09904968738555908,-0.09512373805046082,0.3478375971317291,0.1046748086810112,0.0798395648598671,0.2038637101650238,0.6310882568359375,0.19584921002388,0.2501283884048462,0.03245643898844719,-0.24543215334415436,-0.27772530913352966,0.05438908189535141,-0.7368800640106201,0.2705094814300537,-0.13836683332920074,0.04050451144576073,0.051402002573013306],[0.464534193277359,0.44749319553375244,1.0862321853637695,0.1494234800338745,-0.06485184282064438,0.26505550742149353,-1.0840708017349243,0.10993936657905579,-0.5329532027244568,-0.5162349939346313,0.36567261815071106,-0.4845273196697235,0.10411179065704346,0.04337656870484352,0.11956720054149628,-0.2360193282365799,0.3994816839694977,0.16343075037002563,0.20291361212730408,0.003510913345962763,-0.2582366466522217,0.3400750160217285,0.21615386009216309,0.511307954788208,0.0957035943865776,0.12092620879411697,-0.8539871573448181,-1.0520219802856445,-0.3435773253440857,0.29146838188171387,0.022218216210603714,-0.017139462754130363,-0.1552857607603073,-0.29394951462745667,0.12399369478225708,-0.1005900502204895,0.05056491866707802,-0.2713811695575714,0.19027836620807648,-0.1726454496383667,0.29489994049072266,0.24388805031776428,-0.08626549690961838,0.1156679317355156,0.2427588254213333,-0.5137724280357361,0.27030161023139954,0.23347237706184387,0.05716109648346901,0.26142948865890503,0.0908772200345993,-0.17692212760448456,0.10825492441654205,-0.5657428503036499,-0.34813350439071655,0.2125685065984726,0.12747856974601746,0.18038544058799744,-0.9097768068313599,0.14976373314857483,-0.17445531487464905,0.14731833338737488,-0.043676115572452545,0.5248092412948608,-0.10127364099025726],[-0.01250998955219984,0.12165838479995728,0.6564798355102539,0.524980366230011,-0.3054039478302002,0.1844443827867508,-0.49825412034988403,-0.12901946902275085,-0.655215859413147,-0.37566077709198,-0.12245061993598938,0.18816092610359192,-0.10328243672847748,-0.018059806898236275,-0.02115725353360176,-0.559360921382904,0.37233102321624756,0.8813730478286743,0.48573705554008484,-0.12198379635810852,-0.12544161081314087,0.4599558711051941,0.33019208908081055,0.21950264275074005,0.4715052545070648,0.0965832993388176,-1.673705816268921,-0.6155229806900024,0.5480384826660156,-0.1167040467262268,-0.20704573392868042,0.04152286797761917,0.49482154846191406,0.4317176640033722,0.21046067774295807,-0.4132375717163086,0.11505228281021118,-0.37733370065689087,0.14169713854789734,0.7542186975479126,-0.474900484085083,1.0814138650894165,0.3043369948863983,-0.3230748474597931,-0.48519158363342285,0.3711601793766022,-0.3949858844280243,-0.0005585935432463884,0.5657709240913391,-0.2998350262641907,0.0051559945568442345,0.005350877530872822,-0.2996932566165924,-0.4673863351345062,0.2333575189113617,-0.2190740704536438,0.009877186268568039,0.2181738168001175,-0.15514642000198364,0.45497041940689087,-0.5270013213157654,0.23791319131851196,-0.19212116301059723,0.0791843980550766,-0.042295146733522415],[0.14339521527290344,-0.17515666782855988,-0.4491974115371704,0.648103654384613,0.019771941006183624,0.16332300007343292,0.5858821272850037,0.100311279296875,-0.5044558644294739,0.10581396520137787,-0.3206483721733093,-0.7832286357879639,-0.04074133560061455,-0.04307679459452629,-0.2731892168521881,0.8879934549331665,-0.4402872622013092,-0.1605333536863327,0.289922297000885,0.12389850616455078,-0.1262383610010147,-0.5689041018486023,0.33459940552711487,0.25873056054115295,0.30116450786590576,0.09684183448553085,-1.2006216049194336,0.06978923082351685,0.4057442247867584,-0.29531213641166687,-0.034423038363456726,-0.7430377006530762,0.6778442859649658,0.413761168718338,-0.18940560519695282,0.020060136914253235,0.11832097172737122,0.14491435885429382,-0.01782924495637417,0.44646090269088745,0.011998360976576805,0.20892654359340668,0.060872677713632584,-0.12738963961601257,0.16268272697925568,-0.14129459857940674,-0.09055385738611221,0.5521480441093445,0.5213013291358948,0.045154716819524765,0.06431278586387634,0.014945777133107185,-0.05841976776719093,-0.19049201905727386,0.484820693731308,-0.24441587924957275,0.1579352617263794,0.4120759963989258,0.5329000353813171,0.16987711191177368,-0.07609386742115021,0.06514254212379456,0.1542842835187912,0.28194311261177063,0.07847769558429718],[-0.152574360370636,-0.15811361372470856,-0.27721548080444336,-0.24723803997039795,0.2872536778450012,-0.5033417344093323,-0.05722175911068916,-0.07036992907524109,0.3224891424179077,-0.16546888649463654,0.16381238400936127,-0.2844253480434418,0.26940083503723145,-0.0051454417407512665,0.10828427225351334,0.05389832332730293,-0.47447124123573303,-0.3533969521522522,-0.2660222053527832,0.03430355712771416,0.19094310700893402,-0.022092260420322418,0.5196742415428162,0.3352646827697754,1.14261794090271,0.04725703224539757,-1.2574267387390137,-0.15395507216453552,0.15936574339866638,0.06721407175064087,0.15047532320022583,0.020388050004839897,-1.68329918384552,-0.05232671648263931,-0.03516890108585358,-0.21716119349002838,0.14781342446804047,0.22484949231147766,0.0956135094165802,-0.20415599644184113,-0.27315157651901245,0.18990729749202728,-0.038496166467666626,-0.1171221137046814,-0.16772368550300598,0.41464468836784363,-0.19281505048274994,0.43805602192878723,-0.0574239082634449,-0.3437829911708832,-0.10133324563503265,0.5232135057449341,-0.22874543070793152,0.07130000740289688,0.4126856029033661,-0.6222184896469116,-0.26905086636543274,-0.1166277751326561,0.440227746963501,0.03895331546664238,-0.366658091545105,-0.028150850906968117,-0.28354403376579285,-0.14809957146644592,0.10301000624895096],[-0.11570321023464203,0.23261655867099762,-0.23445314168930054,-0.025029323995113373,-0.033775415271520615,-0.09739493578672409,2.0961546897888184,-0.45466354489326477,0.7215914130210876,0.23135551810264587,-0.4283817708492279,-0.40143725275993347,0.9018699526786804,0.0029728917870670557,-0.10065696388483047,0.0012915973784402013,-0.4505610167980194,-0.2557384669780731,-0.3580092191696167,0.030714187771081924,-0.10448193550109863,-0.16522353887557983,-0.23372243344783783,-0.07208748906850815,0.5578550100326538,-0.09120141714811325,0.37057384848594666,0.32999762892723083,0.11478807777166367,0.15442918241024017,0.03183671087026596,0.5363864302635193,-0.3938482999801636,-0.7931583523750305,-0.05052487924695015,0.07693847268819809,0.05799436941742897,0.6430822610855103,-0.04045912250876427,-0.11530061811208725,-0.08175969123840332,-0.21397773921489716,-0.2040916234254837,0.08652662485837936,0.15175028145313263,-0.061451032757759094,0.03093799017369747,-0.0015289057046175003,-0.45683586597442627,-0.13407185673713684,0.43009546399116516,-0.23090526461601257,-0.17802292108535767,0.7268415093421936,-0.4048338532447815,0.3881596624851227,0.20160391926765442,0.5263051390647888,0.4713672697544098,-0.38843512535095215,0.22937418520450592,-0.12308400124311447,0.3980395197868347,-0.04076511412858963,-0.13777151703834534],[-0.09189729392528534,-0.16053535044193268,0.4691658616065979,-0.2987077832221985,-0.6450030207633972,0.3255646526813507,1.4015352725982666,-0.4721592366695404,0.40632158517837524,0.17752379179000854,0.12129760533571243,1.1967121362686157,0.6851728558540344,-0.04794727638363838,-0.0924462378025055,-0.6601412296295166,0.35614854097366333,0.23691831529140472,-0.13444644212722778,0.12243005633354187,0.27771320939064026,-0.5008310675621033,0.3410215973854065,0.8305740356445312,-0.24857617914676666,0.07171488553285599,0.12547791004180908,0.36629238724708557,-0.05157710611820221,-0.2780705392360687,-0.34012624621391296,-0.32689112424850464,0.6933237910270691,-0.023756083101034164,-0.1417890340089798,0.728640615940094,-0.21627017855644226,-0.333141952753067,0.08825679123401642,0.09747088700532913,0.016917942091822624,-0.33267080783843994,0.048755381256341934,-0.004402067046612501,0.10969910770654678,-0.03641720116138458,0.0129256471991539,0.0181408803910017,-0.29512935876846313,-0.006852390244603157,-0.1142505407333374,-0.06975210458040237,0.08180280029773712,-0.12437047064304352,0.3655340075492859,0.2488836646080017,0.3106142580509186,-0.1786598563194275,0.3662275969982147,0.1571999341249466,-0.2601989209651947,-0.18141388893127441,-0.10589204728603363,0.5439895987510681,-0.2359427660703659],[-0.15107864141464233,-0.30380716919898987,-0.0996069386601448,-0.20367303490638733,0.11708857119083405,-0.5264630913734436,0.4978114664554596,-0.30557700991630554,1.094779372215271,-0.4376595616340637,-0.022513041272759438,0.205455020070076,0.23464789986610413,0.0604495070874691,0.016405021771788597,0.22298213839530945,-0.6385241150856018,-0.45194295048713684,-0.1393081545829773,-0.10766644030809402,0.6511763334274292,-0.10953284054994583,-0.22910846769809723,-0.16220925748348236,0.7481464743614197,0.09473136067390442,-0.004250756464898586,0.6543393135070801,-0.3902757465839386,-0.06874792277812958,0.2059699296951294,0.20187662541866302,-0.6071180701255798,0.3022364675998688,-0.6479234099388123,-0.09580575674772263,-0.0333983488380909,0.3757144808769226,-0.16399610042572021,0.04520909860730171,-0.3198755085468292,-0.21123066544532776,0.2835485637187958,-0.010949186980724335,-0.15528647601604462,0.36768972873687744,-0.22568444907665253,-0.37024062871932983,-0.15533383190631866,-0.2392568588256836,-0.1606249213218689,0.566116213798523,-0.3975682854652405,0.240083709359169,0.032438892871141434,-0.6606590151786804,-0.275511771440506,-0.06493017822504044,1.0173746347427368,0.25580883026123047,0.33595654368400574,-0.06938996911048889,-0.37130793929100037,-0.7675254940986633,-0.11973675340414047],[0.34014347195625305,0.2767060101032257,-0.9208414554595947,-0.2919142544269562,-0.4059808850288391,0.4321998953819275,-0.45365047454833984,-0.08302213251590729,-0.6067097187042236,-0.23897452652454376,-0.040680017322301865,0.1195702999830246,0.1231914609670639,0.09228489547967911,-0.2918936312198639,-0.4821285903453827,0.502514123916626,0.2553176283836365,0.036456845700740814,0.03812798112630844,-0.5172226428985596,-0.9537354707717896,0.3026910722255707,0.5211427807807922,0.19641414284706116,-0.024240201339125633,-0.4910975396633148,-0.6690015196800232,0.06559581309556961,-0.12357328832149506,-0.24577824771404266,-0.40454500913619995,0.38490188121795654,-0.8158873915672302,0.3292604982852936,0.12822391092777252,-0.015002642758190632,0.20272263884544373,-0.1563170850276947,0.07900393009185791,-0.06559981405735016,-0.18388307094573975,0.3980852961540222,-0.1664295494556427,0.36079487204551697,-0.1204405128955841,0.06620213389396667,0.19689509272575378,0.15998511016368866,-0.11057886481285095,0.20060716569423676,-0.01047403272241354,0.021209903061389923,0.06429257243871689,-0.0058764079585671425,0.9195846319198608,0.13199187815189362,0.05703601986169815,-0.12274608016014099,-1.074687123298645,-0.6046512722969055,0.07926521450281143,-0.34566551446914673,0.22889919579029083,-0.16793152689933777],[-0.23808644711971283,-0.1262555569410324,-0.9335102438926697,-0.11108455806970596,0.057901907712221146,-0.6721937656402588,0.7013590931892395,-0.16331453621387482,0.4763658940792084,0.04123525694012642,0.21227699518203735,0.2547113001346588,0.767778754234314,-0.005694109480828047,0.12163609266281128,0.892519474029541,-0.12460014969110489,0.0022843871265649796,0.31037595868110657,-0.08251947909593582,0.703361451625824,-0.2870900630950928,-0.024090168997645378,0.06444893032312393,0.36899980902671814,-0.04617823660373688,1.1884335279464722,0.7887430191040039,0.0009152665734291077,-0.15483130514621735,-0.06960532069206238,0.37296387553215027,-0.6656545996665955,-0.10505083948373795,0.030126679688692093,-0.09441942721605301,-0.1893101930618286,-0.7238247990608215,-0.5286363959312439,-0.3183325231075287,0.27156224846839905,-0.31728988885879517,0.24270479381084442,0.09506510198116302,-0.08275304734706879,-0.004634159617125988,0.048108045011758804,-0.49681907892227173,-0.22576375305652618,0.05539364367723465,-0.44014933705329895,0.5407857894897461,-0.010990604758262634,0.4223845601081848,-0.27537304162979126,-0.3155182898044586,0.0918748527765274,-0.08792874962091446,-0.005920996889472008,-0.08380038291215897,0.053034260869026184,-0.41209161281585693,0.5437982678413391,0.2152993083000183,-0.17938017845153809],[-0.3196416199207306,0.32296767830848694,-0.0897621437907219,-0.07820360362529755,-0.2126416116952896,0.3185701370239258,-0.6996641159057617,-0.13921774923801422,0.4090934097766876,-0.20911040902137756,0.16701948642730713,0.3694201409816742,-0.23596107959747314,-0.026444438844919205,0.07856769114732742,-0.07492311298847198,-0.25251346826553345,-0.2850118577480316,-0.5865717530250549,-0.022778404876589775,0.22434143722057343,0.18320000171661377,-0.5377355217933655,-0.0032027552369982004,-0.00945605244487524,-0.052024126052856445,1.7890888452529907,-0.440461128950119,-0.1360063999891281,-0.19845321774482727,-0.310407817363739,0.4424300193786621,-1.6544345617294312,-1.1792372465133667,0.5634046792984009,0.08899646997451782,-0.26568761467933655,-0.22723890841007233,-0.3084873855113983,-0.23942846059799194,0.024434881284832954,0.1869274079799652,-0.04834164306521416,-0.022672008723020554,0.3450353443622589,-0.2307964265346527,-0.10343792289495468,-0.08684935420751572,-0.4753348231315613,-0.0513889454305172,0.4429483711719513,-0.0647403672337532,-0.05161495879292488,0.3128242790699005,-0.413119912147522,-0.022115260362625122,-0.019252968952059746,-0.12837433815002441,-0.823660671710968,-0.3082481026649475,-0.18664111196994781,-0.030556486919522285,-0.06345048546791077,-0.32957541942596436,-0.07170013338327408],[-0.3251116871833801,0.5826964378356934,1.1538417339324951,-0.38784849643707275,-0.40845122933387756,-0.45628270506858826,0.2714235186576843,-0.354268878698349,0.37956103682518005,-0.39802172780036926,0.5505136251449585,0.14150430262088776,0.7794539332389832,-0.06426510214805603,0.18225160241127014,-0.5543370246887207,-0.21061573922634125,0.22004391252994537,1.2300020456314087,-0.07308933883905411,-0.7533128261566162,-0.029004260897636414,0.530373215675354,0.4332958459854126,0.9848344326019287,-0.04737026244401932,0.40666237473487854,-0.6366024613380432,0.2773478925228119,-0.45874103903770447,-0.011217901483178139,-0.22810746729373932,0.7633626461029053,-0.10091836005449295,0.0840069055557251,-0.6479781270027161,-0.22508566081523895,0.07101383060216904,0.15519623458385468,0.21021078526973724,0.012551624327898026,0.44843074679374695,-0.20878173410892487,-0.043754223734140396,-0.10288412123918533,-0.3025307357311249,-0.13846276700496674,0.3727846145629883,-0.2891885042190552,-0.11607218533754349,0.042617034167051315,-0.29656416177749634,-0.21479865908622742,-0.20104804635047913,0.07702233642339706,-0.5875727534294128,0.061763662844896317,0.4383964538574219,-0.4816998839378357,0.6331536173820496,-0.15361031889915466,0.08438390493392944,-0.2211233377456665,0.03354490175843239,-0.19164171814918518],[0.6525093913078308,0.002253359416499734,-0.5582929849624634,-0.09245865046977997,0.4371400475502014,0.022173361852765083,-0.3259841799736023,0.2554174065589905,-0.5773235559463501,-0.1026422455906868,-0.22295449674129486,-1.0753682851791382,0.15390783548355103,-0.06422574073076248,-0.8695526123046875,-0.13886670768260956,-0.07313504070043564,0.23757414519786835,-0.5074906349182129,0.05636981874704361,0.018249891698360443,-0.23308292031288147,0.41738227009773254,0.39515000581741333,0.5676130056381226,-0.035386815667152405,-0.1661316454410553,0.24950620532035828,0.02859068289399147,0.19477416574954987,0.028340555727481842,0.5858615040779114,-1.2628134489059448,0.18964771926403046,-0.3300674855709076,0.07620799541473389,0.4811960458755493,1.0419553518295288,-0.16734100878238678,-0.3778597414493561,0.1291051208972931,0.030330803245306015,0.06860851496458054,0.08067900687456131,-0.9778489470481873,0.08919250965118408,0.07630719244480133,-0.2567448318004608,0.5624738931655884,0.15940511226654053,-0.2317490577697754,-0.14722974598407745,-0.02226078324019909,-0.26280689239501953,0.11679339408874512,0.22615431249141693,0.17760317027568817,-0.1637423038482666,0.5520666837692261,0.0915306955575943,-0.15718071162700653,0.14417196810245514,-0.003794450080022216,-0.06929690390825272,0.1681271344423294],[-0.05231871083378792,-0.03087417036294937,-0.1924884021282196,-0.4968984127044678,0.41334956884384155,-1.02378249168396,1.0280606746673584,0.07254863530397415,0.8070912957191467,0.4965183138847351,-0.2376629114151001,-0.4001356065273285,0.47315096855163574,0.044421058148145676,0.06527913361787796,-0.2271883338689804,-0.4595579504966736,-0.2833930552005768,0.1252443492412567,-0.05713183432817459,-0.6056682467460632,0.031211279332637787,0.08933214098215103,-0.31709444522857666,0.23720957338809967,-0.11695476621389389,-0.49789145588874817,0.5756179690361023,-0.15430320799350739,0.09411236643791199,0.21871449053287506,-0.1836550235748291,-1.0678637027740479,0.005041880998760462,-0.2675587832927704,-0.0711822584271431,0.11785899847745895,0.14682047069072723,-0.3763999044895172,-0.20575854182243347,0.10266972333192825,-0.9099223613739014,0.0353475846350193,0.26333901286125183,-0.6637371778488159,0.18678393959999084,0.14502906799316406,-0.42715969681739807,0.23633848130702972,0.057901881635189056,-0.5146987438201904,-0.08062771707773209,0.09666257351636887,0.0921303853392601,-0.28844738006591797,-0.6854771375656128,0.1682589203119278,-0.5460346341133118,0.46641960740089417,0.4740039110183716,0.34971097111701965,-0.08581247180700302,0.03736260160803795,-0.5963185429573059,0.11948578804731369],[-0.04697763919830322,-0.5225920677185059,-0.4801926910877228,0.5651940107345581,0.5715631246566772,0.40966978669166565,0.2538224756717682,0.11803926527500153,-1.6925466060638428,0.3930729627609253,-0.12627235054969788,-0.23514485359191895,-0.5071553587913513,-0.11068428307771683,-0.03427664563059807,0.4622557759284973,-0.08640296012163162,-0.24895936250686646,0.4386310577392578,0.05172738432884216,-0.02827184647321701,0.9041494131088257,0.021670140326023102,-0.036478206515312195,0.5044729709625244,-0.06885380297899246,-0.11551735550165176,0.07347974926233292,0.16104942560195923,0.19684912264347076,-0.030101722106337547,-1.0554265975952148,-0.13411661982536316,0.3432893753051758,0.2532995045185089,-0.07043062895536423,0.26392319798469543,-0.6512425541877747,0.09340618550777435,0.027505282312631607,-0.023536380380392075,0.19964629411697388,0.2774392068386078,-0.19039706885814667,-0.13594235479831696,-0.6774740219116211,-0.039317697286605835,-0.10760194808244705,0.4461909532546997,-0.05042412877082825,-0.07957000285387039,0.29619935154914856,0.03106231614947319,-0.49446675181388855,0.23091189563274384,-0.37504488229751587,-0.26712170243263245,0.5595656037330627,0.8349078297615051,0.5203219652175903,0.06447090953588486,-0.03860188648104668,-0.029027342796325684,0.2094532698392868,0.20167341828346252],[0.8601928949356079,0.4912123382091522,0.11655344069004059,0.307621031999588,-0.19579648971557617,0.7073066234588623,0.09178055822849274,0.22077856957912445,-0.6720134019851685,-0.15706227719783783,-0.11156219989061356,0.5591367483139038,0.010404781438410282,-0.045945726335048676,-0.14085695147514343,0.43970420956611633,0.3217319846153259,-0.030181078240275383,0.16468726098537445,0.035801298916339874,-0.5341448783874512,0.4559289515018463,0.11102140694856644,-0.3814500570297241,-0.3219044506549835,-0.03681670501828194,-0.6105529069900513,-0.20740549266338348,-0.0527181476354599,-0.05444813519716263,0.2742246091365814,-0.20131359994411469,0.9729881286621094,-0.32667896151542664,0.36951783299446106,-0.009122354909777641,-0.08283502608537674,0.025205673649907112,-0.4382546544075012,-0.13358667492866516,-0.07942420244216919,0.02297314442694187,-0.15781323611736298,0.046307146549224854,0.025845931842923164,0.364870548248291,0.05378575995564461,0.3348376750946045,-0.3334504961967468,-0.0067482683807611465,-0.4393060505390167,-0.26396530866622925,0.0961381271481514,-0.4058647155761719,-0.1666276752948761,0.961447536945343,0.4068860411643982,0.3495374023914337,-0.2538810968399048,0.025412805378437042,-0.6176747679710388,-0.19396927952766418,0.5088331699371338,0.9868293404579163,0.27977854013442993],[-0.25092652440071106,0.3764220178127289,-1.1840810775756836,0.597381591796875,0.7406575083732605,0.0047241877764463425,-1.025223731994629,0.6644173860549927,-0.08946821838617325,-0.3379512131214142,0.0745377466082573,0.13084232807159424,-0.4593724012374878,-0.06282179057598114,0.3837302327156067,0.5162020325660706,-0.3520897924900055,-0.5352914929389954,-0.42845746874809265,-0.08390474319458008,0.22603750228881836,0.3966936469078064,-0.829291045665741,-0.7014040946960449,-0.6281401515007019,-0.040475212037563324,2.5561835765838623,-0.04067585989832878,0.021007996052503586,0.45295897126197815,0.30233559012413025,0.09242815524339676,1.097442865371704,-0.44579848647117615,0.05127205699682236,0.23905235528945923,0.12886427342891693,-0.6696452498435974,0.29620251059532166,-0.26357415318489075,-0.05038051679730415,-0.32905149459838867,0.33986639976501465,-0.19174592196941376,0.8916146159172058,0.0015109102241694927,-0.06929927319288254,0.3718727231025696,0.18111813068389893,-0.10342550277709961,0.2517528831958771,0.07350847870111465,-0.09102900326251984,0.2380300611257553,-0.7011637687683105,-0.5745218992233276,-0.009554369375109673,0.03051256760954857,-0.3773382008075714,-0.2704816162586212,0.33809909224510193,0.19962556660175323,0.20817366242408752,-0.3846490979194641,0.42022615671157837],[0.19020508229732513,-0.1604226529598236,-0.22552497684955597,0.6038358211517334,-0.07473143935203552,0.02264002151787281,0.8126099705696106,0.17715606093406677,-0.8142175674438477,-0.04881433770060539,-0.5028826594352722,-0.9971506595611572,0.11841794848442078,-0.10348187386989594,0.011580104939639568,0.2544907033443451,-0.5243694186210632,0.018787655979394913,0.6608913540840149,0.12382293492555618,-0.016228793188929558,0.0687985047698021,0.5726731419563293,0.13482984900474548,1.1637752056121826,-0.05518290773034096,-1.519169807434082,-0.43992939591407776,-0.10044822841882706,0.15433818101882935,0.07597687840461731,-0.08790528029203415,0.44055289030075073,0.36407870054244995,-0.3974871039390564,-0.2892330586910248,0.08465389162302017,0.2016432285308838,-0.17868828773498535,0.559758186340332,-0.24029292166233063,-0.03627729043364525,0.09397510439157486,-0.11932531744241714,-0.303750604391098,0.635258138179779,-0.05208314210176468,0.01542060635983944,0.459647536277771,-0.055534727871418,-0.28962090611457825,0.22743435204029083,-0.19210253655910492,-0.5971955060958862,-0.044018398970365524,-0.1512530893087387,-0.08307383209466934,0.4081870913505554,0.46563971042633057,0.26999229192733765,0.16992811858654022,0.3774208128452301,0.04228305444121361,-0.09038768708705902,0.1281280517578125],[-0.13491734862327576,0.013460990972816944,-0.4278022050857544,0.09240180999040604,0.037644319236278534,0.6142200827598572,0.4555145502090454,0.1743989884853363,-0.5887385606765747,0.7529394626617432,-0.31470873951911926,-0.618013322353363,-0.46549808979034424,-0.04602116718888283,0.400431752204895,-0.09665931016206741,-0.028537435457110405,0.32512059807777405,0.9797635674476624,-0.028256429359316826,0.7030935883522034,0.20466852188110352,0.03175720199942589,-0.15686893463134766,0.73362797498703,0.06288714706897736,0.06508389115333557,0.26076754927635193,0.1309574991464615,-0.7523571848869324,-0.15324589610099792,0.2444276660680771,0.35284996032714844,0.23271889984607697,-0.21972410380840302,-0.16001150012016296,0.0401056706905365,-0.23694778978824615,-0.04628503695130348,0.5876607894897461,0.024435807019472122,0.6448754668235779,0.5527019500732422,-0.0762944370508194,-0.06344977021217346,0.03843371570110321,-0.2289956510066986,0.3117018938064575,-0.03667629882693291,-0.222154438495636,0.3242219388484955,0.5706592798233032,-0.28160524368286133,0.038437023758888245,0.3241085708141327,-0.6555417776107788,0.011841565370559692,0.8104315996170044,-0.002546630334109068,0.8364225625991821,0.7879841327667236,0.1924460530281067,0.39194607734680176,0.11370382457971573,0.1249256357550621],[-0.24028384685516357,-0.10442975163459778,0.43056371808052063,0.6580262780189514,-0.012480363249778748,-0.6726570725440979,-0.1432294249534607,0.2581390142440796,0.8549417853355408,-0.08651040494441986,0.6714747548103333,0.6253452897071838,0.1844826191663742,0.11190256476402283,0.15908491611480713,-0.06349115073680878,-0.036404334008693695,0.043881867080926895,-0.21338196098804474,0.08541285246610641,0.30619949102401733,-0.13693852722644806,-0.14458252489566803,0.04699422046542168,-0.1464255303144455,0.004354814533144236,0.928887665271759,0.23645024001598358,0.0064662154763937,0.535666823387146,0.3504696190357208,0.11835908889770508,-0.878745436668396,-0.09059331566095352,0.6749277114868164,0.40394312143325806,-0.22532916069030762,-0.6974338293075562,0.19119632244110107,-0.5036600232124329,0.3443058431148529,-0.1646333783864975,-0.1966232806444168,0.18684610724449158,-0.0291700828820467,-0.24567370116710663,0.20336490869522095,-0.34723180532455444,0.3249847888946533,0.13069120049476624,0.14176009595394135,-0.31861671805381775,0.1707269251346588,0.24650484323501587,0.2968774139881134,-0.36055752635002136,-0.09583702683448792,-0.666773796081543,-0.3043304979801178,-0.5373073220252991,-0.5600430965423584,-0.16979794204235077,-0.37771111726760864,-0.4112718105316162,0.15789476037025452],[0.5345143675804138,-0.2746579051017761,-0.036237072199583054,0.25905632972717285,0.19570915400981903,0.19951914250850677,-0.7430917620658875,0.27573758363723755,-0.9501885175704956,0.22326083481311798,-0.021990109235048294,-0.5742810964584351,-0.2655923664569855,-0.07233031094074249,-0.35095199942588806,-0.4076327085494995,0.4833129942417145,0.4244813621044159,0.18082772195339203,0.07762998342514038,-0.2608315050601959,-0.1333693414926529,0.6149872541427612,0.8740957975387573,-0.05950102582573891,0.1078873723745346,-1.3607178926467896,-0.6738128066062927,-0.08213215321302414,0.30251848697662354,0.017782466486096382,0.08769768476486206,0.027846600860357285,0.05427997186779976,0.22410999238491058,0.15222860872745514,0.08621624112129211,0.349537193775177,0.11380892246961594,0.12765805423259735,-0.2740887999534607,0.3359344005584717,0.21172136068344116,0.050481777638196945,-0.018072636798024178,0.23705244064331055,0.055758677423000336,-0.1904146671295166,0.6315147280693054,0.07795719057321548,0.20017921924591064,-0.04395519569516182,0.018749648705124855,-0.35631856322288513,0.43023136258125305,1.032238483428955,0.06780846416950226,-0.36769717931747437,0.07851993292570114,-0.4186391532421112,-0.13296626508235931,0.14637739956378937,-0.3499259054660797,0.7204809188842773,0.12113944441080093],[0.2032647281885147,0.03194717690348625,0.2253088653087616,-0.024282079190015793,-0.31352218985557556,0.7747312188148499,0.534900963306427,-0.20101332664489746,-0.38495388627052307,0.3796968460083008,-0.4641672968864441,-0.755727231502533,-0.2951544225215912,0.12132590264081955,-0.31663501262664795,-0.1837085634469986,-0.1019277423620224,-0.22346632182598114,0.030894918367266655,0.020619191229343414,-0.9068775773048401,-0.5442628860473633,-0.068720743060112,-0.3939651548862457,-0.18703968822956085,0.10850585997104645,-1.2246342897415161,-0.5311194062232971,-0.05702595412731171,-0.1976575255393982,0.15476101636886597,-0.4335353374481201,0.47295019030570984,0.3374667763710022,-0.22572650015354156,-0.19925352931022644,0.1182004064321518,-0.08350163698196411,0.06847313791513443,0.033484723418951035,0.05544797703623772,0.4146081209182739,-0.40544819831848145,0.04181772843003273,0.02687949873507023,0.16759023070335388,0.054112758487463,0.3359130918979645,-0.20833730697631836,-0.12328919768333435,-0.18008922040462494,0.09933208674192429,0.2458144724369049,0.20626702904701233,0.2603743076324463,0.275544136762619,0.269271582365036,0.1186961755156517,0.28309693932533264,0.3754565119743347,0.44545575976371765,0.15793177485466003,0.366372674703598,0.5547674298286438,0.058075252920389175],[0.03342823311686516,-0.5660927891731262,-0.07742976397275925,-0.5324861407279968,-0.436300665140152,0.2289976328611374,1.2582100629806519,-0.013973002322018147,-0.6031136512756348,0.27905142307281494,0.1505095213651657,1.2396049499511719,0.2539226710796356,-0.09350311011075974,-0.11811093986034393,0.15719909965991974,0.09092093259096146,-0.20369839668273926,-0.049149077385663986,0.07354746013879776,-0.1712040901184082,0.022263623774051666,-0.21746012568473816,-0.4442391097545624,-0.7563207745552063,-0.07216856628656387,-0.20122118294239044,0.19434696435928345,0.327616423368454,0.01746889017522335,0.12286800146102905,-0.011659822426736355,0.8588626384735107,0.03370748832821846,0.10572546720504761,0.6343446969985962,0.1321217119693756,0.15071257948875427,-0.013624487444758415,0.8879740238189697,-0.3093884289264679,0.1617928147315979,0.49320128560066223,-0.07656905800104141,-0.09655340015888214,0.06604459881782532,-0.06482978165149689,-0.09849246591329575,-0.500333309173584,-0.16427230834960938,0.007253941614180803,0.3225654363632202,-0.19345156848430634,-0.4883250594139099,0.5528855323791504,-0.28746336698532104,-0.34252193570137024,0.21604470908641815,-0.24183717370033264,0.17143741250038147,-0.21306325495243073,0.0735686644911766,-0.11242099106311798,0.0426800400018692,-0.015975337475538254],[0.06174743175506592,-0.4482656717300415,1.1524789333343506,-0.5421440005302429,-0.04841810092329979,-0.28220006823539734,1.2753533124923706,-0.36334794759750366,0.876829206943512,1.1403026580810547,0.06456752121448517,0.005165237467736006,0.45471444725990295,-0.037224963307380676,0.3962700068950653,0.40581753849983215,-0.3218322694301605,-0.2806992530822754,0.3049885928630829,0.030223408713936806,0.46606069803237915,0.4029923677444458,0.1680321991443634,-0.1520611047744751,0.45275792479515076,0.10556624084711075,-0.7206214666366577,0.6104830503463745,-0.13668370246887207,-0.2891826927661896,0.10267730802297592,0.1212591677904129,-0.1652803122997284,0.6930856108665466,-0.5484852194786072,-0.6828551292419434,-0.2553805112838745,0.42572689056396484,0.03841719776391983,0.8975683450698853,-0.23282216489315033,0.3047417998313904,0.4854387044906616,0.00922810286283493,-0.02409026399254799,-0.22589829564094543,-0.19030630588531494,-0.02141517587006092,-0.33738523721694946,-0.15345537662506104,0.3864697515964508,-0.25407567620277405,-0.047839049249887466,0.2324284166097641,0.9469836354255676,-0.36407533288002014,0.07355224341154099,-0.33917152881622314,0.640169620513916,0.5928774476051331,0.16091391444206238,-0.04116005823016167,0.12622010707855225,-0.07477948069572449,-0.32995498180389404],[-0.12354427576065063,0.14363320171833038,-0.6098719239234924,0.14740584790706635,0.36535391211509705,-0.43087053298950195,-0.3316679298877716,0.0748584195971489,0.2202228158712387,-0.16461719572544098,0.7155843377113342,0.10118908435106277,0.15056084096431732,-0.10737708956003189,0.18850259482860565,0.15369825065135956,0.09774180501699448,0.3561704456806183,0.15307025611400604,-0.019096771255135536,0.3921497166156769,-0.04116477817296982,-0.09065503627061844,0.3698219060897827,0.0372280590236187,-0.1234087198972702,1.5237598419189453,-0.10661320388317108,0.5288036465644836,0.8037517666816711,0.3501519560813904,0.4509664475917816,-1.2853201627731323,-0.01608322374522686,0.8507967591285706,0.7997273802757263,0.29406073689460754,0.4717257022857666,-0.25044551491737366,-0.3111934959888458,0.08089149743318558,-0.40164849162101746,0.0992942675948143,0.2015041708946228,-0.042662180960178375,0.3904499113559723,0.18158966302871704,-0.14789478480815887,0.3049957752227783,0.07839179784059525,0.23644350469112396,-0.13178770244121552,0.09533841907978058,0.35821783542633057,-0.2496817409992218,0.6623939275741577,0.11455313116312027,0.24152548611164093,0.056559860706329346,-0.3267320990562439,-0.31715068221092224,0.42606016993522644,-0.07928358018398285,-0.25728172063827515,0.24645698070526123],[0.1992352306842804,-0.061831001192331314,-0.696407675743103,0.11088395118713379,0.30804410576820374,0.05203753709793091,-0.3356654942035675,-0.06260763108730316,-0.33698683977127075,0.2556973099708557,-0.7030153870582581,-0.5042397975921631,-0.03975646570324898,0.06222391501069069,0.25023341178894043,0.20003336668014526,-0.2556321322917938,-0.7248675227165222,0.052487824112176895,0.011542407795786858,-0.39322784543037415,0.565471887588501,-0.42850399017333984,-0.10995876789093018,-0.4592721164226532,0.036595046520233154,-0.8983572721481323,-0.020603563636541367,-0.36096999049186707,0.17748242616653442,0.015006665140390396,0.22737687826156616,-0.15282462537288666,0.20261618494987488,-0.2785171568393707,-0.16505159437656403,-0.217755988240242,1.085726022720337,-0.11184737086296082,-0.5668532848358154,0.31125545501708984,0.49826690554618835,-0.18095655739307404,0.052580107003450394,-0.14957214891910553,0.0011476028012111783,0.22000634670257568,0.40152090787887573,-0.4465221166610718,0.019321991130709648,-0.18496173620224,0.16669756174087524,0.05661526322364807,0.2684303820133209,0.41485702991485596,0.12644653022289276,0.08233243227005005,0.3842504620552063,0.29300498962402344,-0.40742793679237366,-0.1470371037721634,0.11180325597524643,-0.05998560041189194,-0.16348056495189667,0.014612676575779915],[-0.04600059241056442,-0.3996938169002533,-0.4447128176689148,-0.08738885074853897,0.36395102739334106,0.29618513584136963,0.05433431267738342,-0.06168176233768463,-0.962891161441803,0.8676160573959351,-1.0988940000534058,-1.4136334657669067,-0.7197363972663879,0.06365516036748886,0.09903253614902496,0.5270307660102844,-0.3150191903114319,-0.05649769306182861,0.3153265118598938,-0.0026368186809122562,-0.4909687936306,0.7734289169311523,-0.6624560952186584,-0.29579415917396545,-0.2689586281776428,-0.07525534182786942,0.10628784447908401,0.03399430587887764,-0.22711415588855743,-0.17810146510601044,0.32744330167770386,0.4607628881931305,-0.39815306663513184,0.06479505449533463,0.12133287638425827,-0.46214643120765686,0.4212599992752075,0.17942482233047485,0.12901104986667633,-0.13169647753238678,0.12826737761497498,0.3524034023284912,-0.03096318431198597,0.04626830294728279,-0.11298717558383942,0.13544416427612305,-0.021143130958080292,-0.04627230390906334,0.18599501252174377,-0.019036224111914635,-0.19447959959506989,0.2529262900352478,0.1638132780790329,0.054254382848739624,0.12851102650165558,0.20368725061416626,-0.3134290874004364,0.5119972229003906,-0.12673965096473694,0.16014480590820312,0.447587251663208,0.3141109347343445,0.2211756855249405,-0.6144527792930603,0.19143329560756683],[-0.11716552823781967,0.11399532854557037,-0.36556169390678406,-0.6121480464935303,0.31671515107154846,-1.0994007587432861,-0.41502058506011963,0.01964210905134678,0.8765779137611389,-0.2927899658679962,0.18579109013080597,0.6650937795639038,0.33907583355903625,0.08590608835220337,-0.45317426323890686,-0.28041747212409973,-0.127742737531662,-0.10843190550804138,-0.5999488234519958,-0.0479436069726944,-0.3925402760505676,-0.11426017433404922,-0.17578232288360596,-0.4466012120246887,-0.5014042854309082,0.07255495339632034,0.2293865978717804,0.6919822096824646,-0.2891007363796234,0.619921088218689,-0.0028103766962885857,0.5419945120811462,0.21163508296012878,-0.07749559730291367,-0.1501372903585434,0.2570207417011261,-0.04025987908244133,0.28610700368881226,0.05025647208094597,-0.09894243627786636,-0.0582958348095417,-0.31102898716926575,-0.04992973804473877,-0.15873008966445923,0.15606112778186798,0.38362932205200195,0.010510909371078014,-0.10226904600858688,0.36607998609542847,0.013484674505889416,0.43011778593063354,-0.4378661811351776,-0.11949542164802551,0.01773715950548649,-0.2123698741197586,0.05962405726313591,-0.1788928210735321,-0.04774455726146698,0.46588563919067383,-0.6763634085655212,-0.5658847093582153,-0.36606866121292114,-0.3020007908344269,-0.6330865025520325,0.04732640087604523],[0.08060611039400101,0.7030664086341858,0.7054659128189087,0.450808048248291,-0.3648504912853241,0.5140203237533569,0.4008495509624481,-0.04839656129479408,-0.45594385266304016,-0.4310867488384247,-0.23159824311733246,-0.43491435050964355,0.24949795007705688,0.09636955708265305,-0.4820229709148407,-0.14512993395328522,-0.21492786705493927,0.17372146248817444,-0.44649577140808105,0.057321421802043915,-0.9741862416267395,0.6735863089561462,-0.11315209418535233,-0.516858696937561,0.141745924949646,-0.0749431774020195,-2.04091739654541,-0.45970863103866577,-0.16394434869289398,-0.3921958804130554,-0.12296541035175323,0.35212191939353943,0.7292267084121704,-0.08616767823696136,-0.11182481050491333,-0.558046281337738,-0.06591715663671494,-0.17458327114582062,-0.26664963364601135,0.12427347153425217,-0.3592495024204254,0.5248531699180603,-0.1773342341184616,-0.2813835144042969,-0.11775485426187515,-0.10645082592964172,-0.25510385632514954,-0.023386714980006218,0.25516313314437866,-0.0466255322098732,-0.06084064394235611,0.1679442822933197,-0.1951633244752884,-0.2175430804491043,0.02811380662024021,-0.7523480653762817,-0.041665077209472656,-0.006580580957233906,-0.233005553483963,0.49611523747444153,-0.36901620030403137,0.16726575791835785,0.19898542761802673,-0.008707251399755478,-0.010754738003015518],[0.1472526341676712,-0.1325310617685318,-0.8437101244926453,0.17346347868442535,0.11613082885742188,0.4750102758407593,-0.7075275778770447,-0.2012609839439392,-0.4649062156677246,0.4437098801136017,-0.5629939436912537,-0.5473048090934753,-1.1132155656814575,-0.050181999802589417,0.13872948288917542,0.4657520651817322,-0.42391258478164673,-0.8622390627861023,-0.21432086825370789,-0.07666010409593582,0.22485780715942383,0.9517111778259277,-0.7306532859802246,-0.5549798011779785,-0.5673732757568359,0.11991828680038452,-0.2797848880290985,0.2462899386882782,-0.264249324798584,0.049917854368686676,0.1364801675081253,-0.5001949667930603,-0.4035244584083557,-0.019529085606336594,0.12334489077329636,0.08464165776968002,0.1185770034790039,0.05848316848278046,-0.16263097524642944,-0.2872712314128876,0.091743104159832,0.2040022760629654,-0.2888244688510895,-0.0113755501806736,-0.16596460342407227,0.007979659363627434,0.09714656323194504,-0.0926424115896225,0.033632792532444,0.11938602477312088,0.03185024857521057,0.18230202794075012,0.10060887038707733,-0.21158041059970856,0.22682805359363556,0.12085264176130295,0.019641133025288582,-0.16087108850479126,-0.10232336819171906,-0.4682217836380005,-0.21864567697048187,0.19955818355083466,0.1623837649822235,-0.022262893617153168,-0.023925649002194405],[-0.13204342126846313,0.3946731686592102,-0.6671252250671387,-0.2568306028842926,-0.14330759644508362,-0.5415529608726501,0.8434514403343201,0.25604870915412903,-0.46370038390159607,0.08824193477630615,-0.17687878012657166,-0.27245891094207764,0.23812589049339294,-0.024005116894841194,0.4383421242237091,0.4912063181400299,-0.6912516355514526,-0.402798593044281,-0.16988524794578552,0.03542960807681084,-0.5431140065193176,0.5058363676071167,-0.41807979345321655,-0.3375256061553955,-0.34567126631736755,-0.08453967422246933,0.546867847442627,-0.8446124792098999,0.6511326432228088,0.1511410027742386,-0.10910291969776154,0.4596080780029297,0.9277026653289795,0.08223097026348114,0.7308757901191711,0.07868215441703796,0.1791386753320694,0.1261574923992157,-0.21450604498386383,0.05276517942547798,0.04922385513782501,-0.2605704069137573,0.16861720383167267,-0.10401953756809235,-0.2742275595664978,0.129177063703537,-0.00023091452021617442,-0.041037507355213165,0.07133007794618607,-0.14945966005325317,0.48629286885261536,-0.5108210444450378,0.03239849954843521,0.09357655793428421,-0.35724112391471863,-0.0365755632519722,-0.013286558911204338,0.7644498944282532,-1.062496542930603,-0.07780645787715912,-0.8229507207870483,0.20674224197864532,0.36358627676963806,-0.11993251740932465,0.0775945782661438],[-0.09919525682926178,0.2780400514602661,-0.07300422340631485,-0.017942111939191818,-0.09936877340078354,-0.1484028846025467,2.005882501602173,-0.11141130328178406,0.7561519145965576,-0.15476888418197632,-0.3321553170681,-0.24894411861896515,0.14955593645572662,0.041207730770111084,-0.0004848665848840028,-0.14490412175655365,-0.01712806150317192,-0.12232658267021179,-0.9148580431938171,-0.11954957991838455,-0.6953626275062561,0.6182305812835693,-0.9240738749504089,-0.3794957995414734,-0.3368264138698578,0.02744816243648529,-0.007491042371839285,0.5987120866775513,-0.10959882289171219,0.37409505248069763,0.1823982149362564,0.1260368674993515,-0.370503306388855,-0.2953723669052124,0.08812489360570908,-0.28466328978538513,-0.26777467131614685,-0.2008924037218094,0.09775646775960922,-0.034035611897706985,-0.028973747044801712,0.17763032019138336,-0.6514773368835449,-0.2272520661354065,-0.1383766382932663,0.1098712831735611,-0.10529941320419312,-0.24496006965637207,-0.06879625469446182,-0.19395427405834198,-0.17556186020374298,0.15126243233680725,-0.014707601629197598,0.0776836946606636,-0.558939516544342,-0.03125520423054695,-0.16061750054359436,0.11983296275138855,-0.31388139724731445,-0.26339030265808105,-0.36530160903930664,-0.20446722209453583,0.44193947315216064,0.0800207182765007,-0.041539013385772705],[0.4680165946483612,-0.5469253659248352,-0.0908283069729805,0.29951852560043335,0.42565423250198364,0.31173262000083923,-0.5072252750396729,0.02359921857714653,-0.6248201131820679,0.32291164994239807,-0.010423600673675537,-0.1069893166422844,-0.0958247259259224,0.07328227162361145,-0.0949276015162468,-0.0058356537483632565,0.8614736199378967,1.0638933181762695,0.2991326153278351,0.030887600034475327,0.022900670766830444,-0.13634824752807617,0.6104301810264587,0.7332658767700195,0.3498605489730835,0.008102704770863056,-0.048015743494033813,-0.36666882038116455,0.08998125046491623,-0.077824167907238,0.00782078132033348,0.13007190823554993,-0.18944306671619415,0.16249783337116241,0.5444933772087097,-0.1839362233877182,-0.3387730121612549,-0.33267277479171753,0.13031193614006042,0.25651177763938904,-0.04997580498456955,0.16888350248336792,0.17170216143131256,-0.004382002167403698,0.19573789834976196,-0.031648483127355576,0.1323382705450058,-0.05837889015674591,0.3525037467479706,0.17785917222499847,-0.21004536747932434,0.05183795467019081,0.06084419786930084,-0.6165667176246643,0.7070513367652893,0.8792604804039001,0.18052029609680176,-0.13188527524471283,-0.1284443736076355,-0.49543246626853943,0.008764505386352539,-0.23062555491924286,-0.2846023738384247,0.9784583449363708,-0.20055676996707916],[0.5948030352592468,-0.07902923226356506,0.33020779490470886,-0.527331531047821,0.2622933089733124,0.34370407462120056,0.6414827704429626,-0.30377551913261414,-0.7249282598495483,-0.1652500331401825,-0.06788888573646545,-0.5965316891670227,0.1353912055492401,-0.11977579444646835,-0.35369420051574707,-0.20388725399971008,-0.0015098399017006159,0.07118583470582962,-0.17349734902381897,0.02351556532084942,-0.6620343923568726,0.471891850233078,0.4894810914993286,0.7395862936973572,0.1780775487422943,0.09249238669872284,-0.9547587633132935,0.14078697562217712,0.555116593837738,0.21994400024414062,-0.07978896051645279,-0.8912412524223328,-0.8380356431007385,0.5247641205787659,0.17198462784290314,-0.07012252509593964,0.2577902376651764,-0.9087222814559937,-0.35161176323890686,-0.6465166807174683,0.2552028298377991,-0.3449392318725586,0.023716509342193604,0.3522127866744995,-0.5567514896392822,-0.2827894389629364,0.2994789779186249,-0.6993284225463867,0.18342836201190948,0.21735957264900208,-0.44022127985954285,-0.42355838418006897,0.35167360305786133,-0.7437009215354919,-0.48032253980636597,0.428636372089386,0.42778900265693665,-0.29629161953926086,0.410175085067749,-0.32672810554504395,-0.4981837272644043,0.1418534368276596,0.061740655452013016,0.21642610430717468,0.031602706760168076],[0.02743748389184475,-0.2515573501586914,-0.4424733519554138,0.20541928708553314,0.6527369618415833,-1.0270640850067139,-0.927179217338562,-0.028871148824691772,-0.19833911955356598,0.49339398741722107,-0.08753547072410583,-1.1714632511138916,-0.43598663806915283,0.07758133858442307,0.3257978856563568,0.025282246991991997,-0.351885586977005,0.004567981697618961,0.37688860297203064,0.10768094658851624,-0.12310893833637238,0.0589899867773056,0.2876543700695038,0.36483991146087646,1.1609958410263062,-0.059654269367456436,0.5208868384361267,0.05273427814245224,0.12850238382816315,0.19054579734802246,0.004764885175973177,-0.32602065801620483,-1.906868577003479,0.6776264905929565,0.3456660807132721,-0.28544795513153076,0.060216303914785385,-0.4614318311214447,0.4295150935649872,-0.4421987533569336,0.03042229264974594,-0.09591800719499588,0.38327839970588684,-0.17335231602191925,-0.13452960550785065,-0.344546914100647,-0.23379825055599213,0.04404324293136597,0.44685524702072144,-0.20583651959896088,0.09748551994562149,0.5689193606376648,-0.028038334101438522,0.23658716678619385,-0.07948899269104004,-0.14280971884727478,-0.1438966542482376,0.10080073773860931,1.0423485040664673,0.016651898622512817,0.412764310836792,0.015527794137597084,-0.027876146137714386,-0.1851704865694046,0.16207244992256165],[0.02764289453625679,0.027368882670998573,-0.4913315773010254,-0.5683833956718445,0.5549214482307434,-1.5165153741836548,-0.19937564432621002,0.21892984211444855,0.2661634087562561,0.24008393287658691,-0.01723293960094452,0.13501040637493134,0.24485936760902405,0.06506194174289703,0.10551346093416214,0.42246896028518677,-0.4240919053554535,-0.5317971110343933,-0.17203733325004578,-0.014862418174743652,0.1914745271205902,-0.0727565586566925,-0.5975476503372192,-0.3476884365081787,-0.6828319430351257,-0.0903158038854599,0.3586662709712982,0.7800499200820923,-0.5747203826904297,0.06335292011499405,0.026340117678046227,0.7645946741104126,-0.8158156275749207,0.17089295387268066,-0.05869649723172188,0.23342671990394592,0.12304114550352097,0.809884786605835,-0.21066725254058838,-0.6324431300163269,0.19683478772640228,-0.37349218130111694,-0.18160539865493774,0.16697148978710175,-0.07202070206403732,0.042873792350292206,0.21239645779132843,0.04953230544924736,-0.2650109827518463,0.19141274690628052,0.16738079488277435,-0.32442763447761536,0.2869190275669098,0.3210570216178894,-0.2029254138469696,0.8700131177902222,-0.029365476220846176,-0.3721606135368347,0.5427961349487305,-1.1316394805908203,-0.32883739471435547,-0.2548942565917969,0.3561536967754364,-0.11450783908367157,0.033260319381952286],[0.044107139110565186,0.3523299992084503,-0.6278596520423889,0.5454943776130676,0.0622401237487793,0.1764417439699173,0.033148813992738724,0.35242748260498047,-0.4283117651939392,0.0490102581679821,0.23522718250751495,-0.371815949678421,0.4041101336479187,-0.11719371378421783,0.26298633217811584,-0.3852812647819519,0.4468097984790802,0.6708301305770874,0.20911197364330292,-0.04988599941134453,-0.39156922698020935,-0.37227481603622437,0.06675717234611511,0.06983104348182678,0.252681702375412,-0.12323866784572601,-0.02599477954208851,-0.4434260427951813,-0.051980409771203995,0.2800222635269165,0.10776300728321075,0.14039888978004456,0.3725493550300598,-0.3516101539134979,0.4339216649532318,0.2749210596084595,0.3322601318359375,-0.037132930010557175,0.0052878414280712605,-0.46552059054374695,0.2845812141895294,0.07062924653291702,0.03556074947118759,0.10218677669763565,0.3431724011898041,0.23251965641975403,0.1830170750617981,0.12872940301895142,0.13195692002773285,0.3019351065158844,0.08054525405168533,-0.49145767092704773,0.12740564346313477,0.1361169070005417,-0.23288840055465698,0.4363439977169037,0.32743239402770996,0.25135642290115356,-0.8542918562889099,-0.5717271566390991,-0.3572569489479065,0.39738401770591736,0.0065163844265043736,0.2471233755350113,0.30495044589042664],[0.4092610776424408,0.014265300706028938,0.3657425343990326,0.38045716285705566,-0.00475727254524827,-0.2820364832878113,0.6923556327819824,-0.0008904465357773006,-1.1949772834777832,-0.0011719136964529753,-0.26882898807525635,-0.20072448253631592,-0.08930999040603638,-0.05889880284667015,-0.0675521269440651,-0.71979820728302,-0.05553225427865982,-0.14840516448020935,0.005930538289248943,-0.12156764417886734,-0.22067071497440338,-0.4256371259689331,0.4940969944000244,0.3206922113895416,0.31240564584732056,0.07081081718206406,-1.3570805788040161,-0.16742010414600372,-0.2831973731517792,0.4510945975780487,0.08623756468296051,-0.4528351426124573,1.4383610486984253,0.03599021956324577,-0.30530282855033875,-0.10626190155744553,-0.18330004811286926,0.4116436839103699,0.1857614517211914,0.01302573923021555,-0.06866344809532166,0.11797001212835312,-0.2706822156906128,-0.025355318561196327,-0.08885122090578079,-0.29315176606178284,0.07469645887613297,-0.10225045680999756,-0.248653382062912,-0.026980433613061905,-0.2971212863922119,-0.43587347865104675,0.08940862119197845,-0.7754243016242981,0.370152086019516,0.3483394682407379,-0.0338561050593853,-0.001533721573650837,0.47494858503341675,-0.13767443597316742,0.3083590865135193,-0.2978235185146332,-0.12111291289329529,0.45989394187927246,-0.08552183210849762],[0.10459541529417038,0.05916375294327736,-0.24269384145736694,0.635262131690979,-0.2764035165309906,0.5270070433616638,-1.4122872352600098,0.25611400604248047,-0.8640303015708923,-0.47522005438804626,-0.06318704038858414,-0.48678576946258545,-0.556350588798523,0.05721599608659744,-0.17783887684345245,0.1457875669002533,0.0120846563950181,0.0011869884328916669,-0.286793053150177,0.07777529209852219,0.0049970257095992565,-0.35255712270736694,-0.03591116890311241,-0.03848699852824211,-0.16047440469264984,-0.03898521885275841,-0.21170072257518768,-0.8547593951225281,-0.1935652196407318,0.11582005769014359,0.20631004869937897,0.08114250004291534,0.22195276618003845,0.19727616012096405,-0.04401957243680954,-0.212908536195755,0.23688548803329468,-1.372217059135437,0.010471188463270664,-0.1286824345588684,0.03251942992210388,0.13638579845428467,0.24472786486148834,-0.0705767571926117,-0.3235347867012024,0.12197009474039078,-0.11319156736135483,0.20227950811386108,0.790687084197998,0.10737617313861847,-0.23320221900939941,0.17589852213859558,-0.0676472932100296,-0.37737858295440674,-0.2782450020313263,-0.5065484642982483,-0.19548159837722778,-0.16275790333747864,-0.46261194348335266,0.19510452449321747,-0.1425347775220871,0.41169849038124084,-0.06705065071582794,-0.22472979128360748,0.24834279716014862],[-0.08385797590017319,-0.5868732333183289,-1.0670809745788574,-0.10484427958726883,0.05813514068722725,-0.6211608648300171,-0.22447650134563446,-0.005604366306215525,0.3389515280723572,0.3119755685329437,0.04021819680929184,0.15816575288772583,0.13067615032196045,-0.038345497101545334,0.6368404030799866,0.2313443124294281,0.18030627071857452,-0.06497729569673538,0.2423589825630188,0.032090168446302414,0.8075404763221741,-1.1464768648147583,-0.16066108644008636,0.28509336709976196,-0.2837224006652832,0.1055213212966919,1.9495162963867188,0.1448877900838852,0.03629649803042412,0.14051412045955658,0.041188985109329224,-0.37165677547454834,-0.580735981464386,0.21727460622787476,0.38440099358558655,0.28188616037368774,-0.32906025648117065,-0.6046198010444641,0.24851380288600922,-0.29410967230796814,0.01854109764099121,0.18527966737747192,-0.0036635822616517544,0.08305299282073975,0.13196499645709991,0.37904229760169983,-0.004369131289422512,0.0884842500090599,-0.2636446952819824,-0.020067289471626282,0.1780795156955719,-0.35149985551834106,-0.004305648617446423,0.42019855976104736,-0.2509784698486328,0.5384453535079956,-0.08778879046440125,-0.11161455512046814,-0.33754962682724,-0.6471968293190002,0.18180005252361298,-0.2830274999141693,-0.11229140311479568,0.24617448449134827,-0.0015905691543594003],[0.1559230387210846,0.42634835839271545,0.8527603149414062,0.22055478394031525,-0.0664978176355362,0.11235669255256653,-0.04300880804657936,0.05630255118012428,-0.3786294758319855,-0.2798836827278137,-0.05698390677571297,-0.3084653317928314,-0.043419115245342255,0.04137982428073883,0.08411205559968948,-0.38369667530059814,0.29910755157470703,0.13531962037086487,0.015123441815376282,-0.03302325680851936,-0.5114678740501404,0.20657551288604736,0.316367506980896,-0.0017084424616768956,-0.013094266876578331,-0.03913791477680206,-1.502074122428894,-0.6952282786369324,-0.11526842415332794,0.3906337320804596,0.30264219641685486,0.3112771213054657,0.4682202637195587,0.16241946816444397,0.2192942053079605,-0.4483257830142975,0.0710236132144928,0.48613905906677246,0.2548893690109253,0.28839582204818726,-0.637346625328064,0.26501330733299255,0.11268814653158188,-0.5064346194267273,0.10496868193149567,0.7273455262184143,-0.4922392964363098,0.28401097655296326,0.5413170456886292,-0.3199256360530853,0.2931041121482849,0.06597194820642471,-0.44054022431373596,-0.10838358104228973,-0.2855161130428314,0.3834799528121948,0.23069296777248383,0.2589203715324402,-0.7715718150138855,0.11494836211204529,-0.4338889718055725,0.20417608320713043,0.1221218854188919,-0.03448614478111267,0.007773466873914003],[0.11549991369247437,-0.14526891708374023,-0.3466350734233856,0.17038272321224213,0.07653718441724777,0.7067003846168518,-0.8823411464691162,0.21237030625343323,-0.8501107692718506,0.24837064743041992,-0.22989343106746674,-0.46908658742904663,-0.3354353606700897,0.11803728342056274,0.1189798042178154,-0.49653202295303345,0.5624450445175171,0.6016947627067566,0.8017541766166687,0.017215773463249207,-0.43889400362968445,0.3361246883869171,0.23480084538459778,0.40099436044692993,0.6915621161460876,-0.1203751340508461,-0.12011325359344482,-0.5246648192405701,0.114817313849926,0.0882105678319931,0.09174329787492752,0.46314430236816406,-0.1151464581489563,0.24274232983589172,0.6046102643013,0.052510861307382584,0.07530784606933594,0.15392020344734192,-0.05962589755654335,-0.19347886741161346,-0.10958918184041977,-0.15623265504837036,0.21861901879310608,0.05591734126210213,-0.18580572307109833,0.4490319490432739,0.11874239891767502,0.0024099641013890505,0.5842405557632446,0.013340800069272518,-0.047810181975364685,-0.26424485445022583,0.09642583131790161,-0.13999700546264648,0.4294392168521881,0.9041452407836914,0.030574597418308258,-0.011833630502223969,-0.3106147050857544,-0.482438325881958,0.019833937287330627,0.10166604071855545,-0.1675514429807663,0.5681216716766357,0.21999411284923553],[-0.2478109747171402,-0.11921025067567825,0.1335950791835785,0.3128902316093445,0.013321693055331707,0.3185023367404938,-0.6235615015029907,0.06598474830389023,-0.5845702290534973,0.19751514494419098,-0.16684606671333313,0.608055055141449,0.47070398926734924,-0.08464358001947403,0.8141801953315735,-0.2569548785686493,0.19414903223514557,-0.06420706957578659,0.3620707094669342,0.08061717450618744,-0.1711004674434662,0.11197561770677567,0.18887299299240112,0.6949315667152405,-0.4664510488510132,-0.10872654616832733,0.36517882347106934,-0.2484501749277115,0.04099131375551224,0.13713516294956207,0.058683618903160095,0.21433541178703308,1.0358219146728516,0.3419799208641052,0.32999739050865173,0.23621656000614166,-0.4247513711452484,0.25052547454833984,0.5173938870429993,-0.7189267873764038,0.3749423623085022,0.1757073700428009,-0.1988515853881836,0.3480098843574524,-0.02246866002678871,-0.4537348449230194,0.4465995132923126,0.3657170832157135,-0.3350927531719208,0.24421510100364685,-0.03290383517742157,-0.8346165418624878,0.35328611731529236,0.04993163421750069,0.3259595036506653,0.7384343147277832,0.017159420996904373,0.30949559807777405,0.15202586352825165,-0.881463348865509,-0.9714961647987366,-0.38980501890182495,-0.11260037124156952,0.4483225643634796,-0.09761136025190353],[-0.22159017622470856,-0.1769833266735077,-0.5317806601524353,0.28780803084373474,-0.46168047189712524,0.611203670501709,0.2791540026664734,-0.32991233468055725,-0.1983841508626938,0.2541799545288086,-0.7159981727600098,-0.9067478775978088,-0.34681910276412964,0.11454102396965027,0.24044208228588104,-0.0714486613869667,-0.03819582983851433,-0.27501627802848816,0.42323431372642517,0.05972921848297119,-0.21575568616390228,0.41151008009910583,0.005568943917751312,0.2061535269021988,0.05622853711247444,0.060577332973480225,-0.17480061948299408,0.3759499788284302,-0.026057537645101547,-0.3424810469150543,0.14348357915878296,0.20382782816886902,-0.1308695375919342,0.12267308682203293,-0.04001254588365555,0.16159969568252563,0.2525055408477783,-0.1994537115097046,-0.23162667453289032,-0.3966820538043976,0.0762205570936203,0.027398332953453064,-0.27877071499824524,0.17117194831371307,-0.014027697965502739,-0.25162577629089355,-0.022835111245512962,0.2910859286785126,-0.14738112688064575,-0.027756575495004654,-0.36834633350372314,0.09341214597225189,-0.016240572556853294,0.3854440450668335,0.5604169368743896,0.16100014746189117,0.22776387631893158,0.45027944445610046,0.6544284820556641,-0.0791981965303421,0.26246970891952515,0.361404150724411,0.09867939352989197,-0.07829002290964127,-0.09094513952732086],[-0.18471349775791168,-0.18458819389343262,0.34429073333740234,-0.3348996639251709,-0.4266161322593689,-0.1595565676689148,-0.2313113957643509,-0.23685161769390106,0.6250724792480469,0.12456487119197845,0.5239204168319702,1.1051161289215088,0.5783381462097168,0.0633067712187767,-0.20322173833847046,0.4067816138267517,-0.1729688197374344,0.07047492265701294,-0.08471012860536575,-0.05333247408270836,0.20086264610290527,0.03931388631463051,0.0820201113820076,0.48709943890571594,0.17926794290542603,-0.021516233682632446,0.9085946083068848,0.24609646201133728,0.2199450433254242,0.3805866837501526,0.14926543831825256,-0.25186946988105774,0.00859025213867426,0.364025741815567,0.26714229583740234,0.3290543258190155,-0.02501830831170082,-0.49835672974586487,0.0204924363642931,0.1546400636434555,0.06640145927667618,0.019135288894176483,-0.1600421667098999,0.122091144323349,0.001991680823266506,-0.2618694007396698,-0.0031968937255442142,-0.08478470146656036,0.03432472050189972,0.19885031878948212,0.1993458867073059,0.18400923907756805,0.14760234951972961,-0.06466080993413925,0.22077861428260803,-0.25121548771858215,-0.2500177323818207,-0.31027448177337646,-0.39552879333496094,-0.247279092669487,-1.0292739868164062,0.00915407482534647,-0.35478106141090393,-0.20385488867759705,-0.21508967876434326],[-0.031204096972942352,0.2267996221780777,0.2920011281967163,0.6188393235206604,-0.3085887134075165,0.08388173580169678,-0.0880124419927597,-0.12133515626192093,0.12241926789283752,-0.14816495776176453,0.5735377669334412,0.7844300270080566,0.05316083878278732,0.0927124097943306,0.2631561756134033,-0.6888840794563293,-0.08310159295797348,-0.07650131732225418,-0.7681637406349182,0.05860590562224388,-0.10470926016569138,-0.5538663268089294,0.27806106209754944,0.4428704082965851,-0.09137628227472305,0.03907810524106026,0.08610816299915314,0.2654433250427246,0.07659349590539932,0.1915200799703598,-0.5181568264961243,-0.16337867081165314,0.22778724133968353,0.4279848337173462,-0.21463483572006226,-0.023965349420905113,-0.5748400688171387,0.06167963892221451,-0.13907290995121002,-0.8413417935371399,0.6621385216712952,-0.27824023365974426,-1.0799193382263184,0.5537727475166321,0.17638784646987915,-0.8248294591903687,0.6268654465675354,-0.47721460461616516,-0.05891885608434677,0.5762659907341003,-0.8941600918769836,-0.5071751475334167,0.2992416024208069,-0.3833036720752716,-0.03861825540661812,0.06102956086397171,-0.13902583718299866,0.3717074692249298,0.13294431567192078,0.06509950011968613,-0.6680800318717957,-0.49815788865089417,-0.31907325983047485,0.014032011851668358,-0.32238438725471497],[0.37128183245658875,0.07535906881093979,0.5454763770103455,0.292204886674881,-0.12161531299352646,-0.21756187081336975,-0.8801643252372742,0.11893709003925323,-1.2497457265853882,-0.4960571825504303,0.15977835655212402,-0.1708778291940689,-0.06935449689626694,0.08337080478668213,-0.3283507525920868,-0.637812077999115,0.2121323198080063,0.21921923756599426,-0.7263537645339966,-0.023645829409360886,-0.5790073871612549,-0.01335088163614273,0.26416775584220886,0.5450183153152466,-0.17669853568077087,-0.029924433678388596,-1.5364187955856323,-1.3405450582504272,0.23053835332393646,0.1389167159795761,-0.03920228034257889,0.1572117954492569,-0.432622492313385,0.2671056389808655,-0.02917177975177765,-0.09856153279542923,0.0317746177315712,0.03344636410474777,0.16859780251979828,0.07999981939792633,-0.2533154785633087,0.4180857241153717,-0.5091473460197449,-0.06875822693109512,-0.2613542973995209,-0.3000974655151367,-0.14414049685001373,-0.3746870160102844,0.44778019189834595,-0.0982135608792305,0.1680736243724823,-0.1262170821428299,0.1510593146085739,-0.62458336353302,0.07228878885507584,0.5007404685020447,-0.033248454332351685,-0.42660558223724365,0.3019847571849823,-0.36814627051353455,-0.4853547513484955,0.3136417269706726,-0.14209255576133728,0.2949100434780121,0.05370396375656128],[0.3877536952495575,0.5992531180381775,0.4686839282512665,-0.16994869709014893,0.08418653905391693,0.06602783501148224,-0.7513253688812256,0.06927058100700378,-1.0886732339859009,-0.4374954402446747,0.06019952520728111,-0.37132298946380615,0.08212697505950928,-0.07592179626226425,-0.2244771271944046,-0.6230942010879517,0.32332319021224976,0.3809480369091034,-0.10669904947280884,0.07622082531452179,-0.446973592042923,-0.44659262895584106,-0.006846265401691198,0.5192720890045166,-0.7554454803466797,-0.10167866200208664,-0.24209313094615936,-1.1378928422927856,-0.040801722556352615,0.016180329024791718,-0.04044467210769653,0.08686995506286621,0.15800493955612183,0.0874326303601265,0.41473016142845154,0.103802390396595,0.09842860698699951,-0.36698228120803833,0.0999191552400589,-0.2762390971183777,-0.05291659012436867,-0.15494148433208466,0.6384882926940918,-0.18575215339660645,0.21416103839874268,-0.05971455201506615,0.010241233743727207,0.4086313843727112,0.38573306798934937,0.015150249004364014,-0.07579223811626434,-0.2920116186141968,0.09855366498231888,-0.2731102705001831,-0.03230857104063034,0.5415903329849243,0.09585496783256531,0.5837685465812683,-0.8190085887908936,-0.5335158705711365,-0.47929486632347107,-0.08850838989019394,-0.09752729535102844,0.1767827868461609,0.1351790875196457],[-0.048865366727113724,-0.05587638542056084,0.19753174483776093,0.2780529856681824,0.07627008855342865,-0.35463884472846985,-0.09704308211803436,0.00860340055078268,-0.17506158351898193,0.1704719066619873,-0.3120017647743225,-1.297672152519226,-0.56043541431427,-0.08585862070322037,-0.028672005981206894,0.5984341502189636,-0.638140857219696,-0.15934281051158905,0.607742965221405,-0.015547812916338444,0.0015745604177936912,0.50789874792099,0.007551221642643213,-0.12470564246177673,0.45664429664611816,-0.06957603245973587,-0.39019307494163513,-0.42215463519096375,0.16107363998889923,-0.0611673966050148,0.5049264430999756,-0.11283452808856964,-0.6198462843894958,0.43339505791664124,-0.15963447093963623,-0.326473206281662,0.2695015072822571,-0.4285549819469452,-0.037656474858522415,0.18551139533519745,0.04450676962733269,0.24909120798110962,-0.13652509450912476,-0.18734972178936005,-0.38985317945480347,0.18959544599056244,-0.09604524821043015,-0.1897422969341278,0.1683361977338791,-0.22472673654556274,0.11791074275970459,0.09300783276557922,-0.025034911930561066,-0.08352212607860565,0.13657133281230927,-0.6329087615013123,-0.008018789812922478,0.2540709674358368,-0.37588146328926086,0.9284946918487549,0.14047329127788544,0.748104989528656,0.40874186158180237,-0.1613008677959442,0.2990397810935974],[-0.17201963067054749,0.0755307599902153,0.6168223023414612,-0.25971731543540955,0.28677839040756226,-0.8066979050636292,0.3347340226173401,0.22299523651599884,0.9199301600456238,0.3738872706890106,0.10493375360965729,0.7495799660682678,0.16108813881874084,0.11186675727367401,0.5753734707832336,0.17339399456977844,-0.20302744209766388,-0.32671359181404114,-0.34977805614471436,0.07944852858781815,0.6727508306503296,-0.03230445459485054,-0.38568660616874695,0.04849572852253914,-0.4733847379684448,-0.06069942191243172,1.7967454195022583,0.2890790104866028,0.13090801239013672,0.5177338123321533,0.45421651005744934,0.2788083553314209,-0.07613744586706161,-0.03972870856523514,0.5433029532432556,0.40219804644584656,0.08100959658622742,-0.5380675792694092,0.14043955504894257,0.478023499250412,0.10012006014585495,0.04921162128448486,0.05842076987028122,-0.024879008531570435,0.25070807337760925,0.4143400490283966,-0.092340387403965,0.17176707088947296,0.2712239921092987,0.0031948050018399954,0.19973962008953094,0.27006927132606506,-0.015949608758091927,0.31536632776260376,0.10225556790828705,0.1676885336637497,-0.0027224679943174124,0.4204452931880951,-0.2776436507701874,-0.39747461676597595,0.16374200582504272,0.09777937084436417,0.20959310233592987,-0.44758525490760803,0.41360148787498474],[-0.20581303536891937,-0.12610074877738953,-0.4111712872982025,-0.6074051260948181,0.026532378047704697,-0.23893465101718903,1.010616421699524,-0.3173997700214386,0.920138955116272,-0.10034389793872833,0.015265844762325287,0.205378919839859,0.24971571564674377,-0.04250515252351761,-0.07488066703081131,-0.016553502529859543,-0.3462314009666443,-0.23459380865097046,0.015303737483918667,-0.04311077296733856,0.24893313646316528,-0.12339453399181366,-0.4216088652610779,-0.4281238913536072,0.1982547491788864,0.017017386853694916,-0.6596840620040894,1.0611644983291626,-0.004831078927963972,0.20531532168388367,0.18140877783298492,-0.4579710364341736,-0.5589724779129028,-0.1522015482187271,-0.34671908617019653,-0.5140843391418457,0.012068836018443108,0.3684936463832855,-0.2360905557870865,-0.1166427880525589,0.23453527688980103,-0.5515424609184265,-0.44157636165618896,0.23375512659549713,-0.5441335439682007,-0.4106908440589905,0.1117396429181099,-0.13028284907341003,-0.73724764585495,0.030507279559969902,-0.3707621991634369,0.24939516186714172,-0.06333521008491516,0.2529313564300537,-0.23232372105121613,-0.15990903973579407,-0.009079317562282085,0.07310127466917038,1.4327560663223267,-0.10044888406991959,0.06848987936973572,-0.1264156699180603,0.22187338769435883,-0.31498149037361145,-0.00925555732101202],[0.3155352473258972,-0.003524750005453825,0.07362470775842667,0.435516357421875,0.18875165283679962,0.0018145038047805429,-1.5025007724761963,0.002515446161851287,-0.18162108957767487,-0.13299398124217987,-0.13154837489128113,0.00852020364254713,-0.265604168176651,-0.08039765059947968,-0.17209376394748688,-0.40351366996765137,0.6907299160957336,0.714812159538269,0.07746563851833344,-0.015297351405024529,0.44264134764671326,0.2922418713569641,0.09202990680932999,0.4046400785446167,0.004003548063337803,0.05256140977144241,0.19163183867931366,-0.24679337441921234,-0.1488766223192215,0.07288657128810883,-0.25114884972572327,1.1800525188446045,-0.8537117838859558,-0.32681164145469666,0.049740225076675415,-0.34071698784828186,-0.3138444721698761,0.06480114161968231,-0.5355271100997925,-0.17703953385353088,0.0665285587310791,0.18443553149700165,-0.20331233739852905,-0.05208037421107292,-0.6518641114234924,-0.19825047254562378,-0.010363816283643246,-0.1799178421497345,0.2636944353580475,-0.01314585842192173,-0.3095170855522156,-0.22539012134075165,0.21313905715942383,0.1320452243089676,-0.2727980613708496,1.0252583026885986,0.19632935523986816,-0.30992722511291504,-0.3757595419883728,-0.5681638717651367,-0.308879017829895,0.06884053349494934,-0.36403557658195496,0.24050158262252808,-0.25165319442749023],[-0.5528463125228882,0.00956039410084486,-0.0204139593988657,-0.4239293038845062,-0.163426473736763,-0.05721230059862137,1.0494598150253296,-0.3900813162326813,0.43275392055511475,0.1805552840232849,0.12117428332567215,0.6629939675331116,-0.02528022974729538,-0.04154226556420326,0.11801232397556305,0.523539662361145,-0.3225802779197693,-0.06564857065677643,0.03112061321735382,-0.09301113337278366,3.272700632805936e-05,0.741755485534668,-0.6942399740219116,-0.7851699590682983,0.051313500851392746,0.09743984788656235,-0.1780349314212799,0.9010056257247925,0.25287023186683655,-0.26450568437576294,0.00198089936748147,-0.4817275106906891,-0.5665456652641296,-0.32802218198776245,0.09782655537128448,0.17859144508838654,0.3762623071670532,0.5789328217506409,-0.1573529690504074,-0.04956742376089096,0.3015671670436859,0.08762187510728836,-0.3057662546634674,0.17831748723983765,-0.35796499252319336,-0.30619049072265625,0.227770134806633,-0.35333630442619324,-0.38110408186912537,0.15813516080379486,0.058153294026851654,0.04742377623915672,0.07410918176174164,0.08538955450057983,0.18806543946266174,-0.47470781207084656,0.10580716282129288,-0.2831616699695587,-0.03472916781902313,0.4498458802700043,0.054064564406871796,0.03555821254849434,0.4702388346195221,-0.31409162282943726,-0.05593239888548851],[-0.3390679359436035,-0.2574787437915802,-1.1803538799285889,-0.6125395894050598,0.39339444041252136,-0.7570661306381226,-0.3688773810863495,0.046909183263778687,0.4118306040763855,-0.10401716083288193,0.2582883834838867,0.5314956307411194,0.09432392567396164,0.09413743019104004,0.015778932720422745,0.057844847440719604,-0.18325889110565186,-0.21660096943378448,0.15491874516010284,0.013873908668756485,0.22764381766319275,-0.7163411974906921,0.1110692024230957,-0.06953669339418411,0.12744343280792236,-0.10117516666650772,0.6372622847557068,0.6452077627182007,-0.16417254507541656,0.3271147906780243,0.08374825865030289,0.6634737253189087,-0.7640321850776672,-0.1861160695552826,-0.21639344096183777,0.11654032766819,0.15218524634838104,-0.12069381773471832,-0.3511383831501007,-0.20703884959220886,0.3618590533733368,-0.4623660147190094,-0.14794029295444489,0.22553230822086334,0.053118009120225906,-0.6146513819694519,0.13023746013641357,-0.5121474862098694,0.284587562084198,0.16686232388019562,-0.14721475541591644,-0.19959208369255066,-0.003515496151521802,0.28672710061073303,-0.6070687174797058,-0.16612599790096283,-0.15370266139507294,0.2010706067085266,0.5949721336364746,-0.5002108812332153,-0.019160468131303787,-0.08176983147859573,-0.29679015278816223,-0.753239631652832,0.006729781627655029],[0.6737293601036072,0.16637344658374786,-0.22611716389656067,0.3853652775287628,-0.24956323206424713,0.43812283873558044,0.7266728281974792,0.14251363277435303,-0.8087825179100037,-0.19047409296035767,-0.11044679582118988,0.7107235193252563,0.20724377036094666,0.039691489189863205,-0.4585280120372772,-0.46185874938964844,0.4267269968986511,0.06881492584943771,-0.07466999441385269,0.11136185377836227,-0.07884345203638077,0.016973379999399185,0.032517559826374054,-0.07693909108638763,-0.41362637281417847,-0.005414001643657684,-0.5826354622840881,0.1159038171172142,0.33940091729164124,-0.18328939378261566,0.06363490223884583,0.19919024407863617,0.7755163908004761,-0.1110202744603157,0.0503598228096962,1.0058974027633667,0.29173675179481506,0.515714168548584,-0.36128470301628113,-0.26055049896240234,0.10653321444988251,-0.3553045392036438,-0.23455338180065155,0.2700885236263275,-0.004369586706161499,-0.37860366702079773,0.22617708146572113,-0.6569343209266663,-0.8178101181983948,0.17934291064739227,-0.3643471598625183,-0.21447673439979553,0.38520124554634094,-0.7109091877937317,0.5628894567489624,0.5345348715782166,0.26680588722229004,0.29221320152282715,0.6163455247879028,-0.15418046712875366,-0.3001747131347656,-0.03702321648597717,0.4782599210739136,0.4985688626766205,0.2871684730052948],[0.48332837224006653,-0.0481821745634079,0.09514748305082321,0.08847730606794357,-0.10066293925046921,0.4448786675930023,-0.08466946333646774,-0.0889371708035469,-0.9207550287246704,-0.31449371576309204,-0.5565851926803589,-0.4347298741340637,0.5027099251747131,-0.05708818510174751,-0.2560042440891266,-0.03559917211532593,0.21779271960258484,-0.007470042910426855,0.4624271094799042,0.11864029616117477,-0.4894968569278717,-0.3352981209754944,0.34108784794807434,0.08833447843790054,0.17943072319030762,-0.009434384293854237,-1.2086987495422363,0.3641214668750763,-0.431937575340271,-0.1918489634990692,-0.014361427165567875,-0.16480672359466553,0.8116090297698975,0.3459201455116272,-0.6106798052787781,-0.3102070093154907,-0.007246974390000105,0.3447475731372833,-0.09499403089284897,-0.17596088349819183,0.4091450572013855,-0.2926196753978729,-0.32964327931404114,0.40142080187797546,-0.5275768041610718,-0.03307189419865608,0.31171688437461853,-0.007200718857347965,-0.13329236209392548,0.16657067835330963,-0.2769160270690918,-0.5731394290924072,0.21000178158283234,-0.14496734738349915,-0.17623622715473175,0.24063068628311157,0.20964524149894714,0.3105403482913971,0.7321921586990356,-0.11649315059185028,0.8132607936859131,-0.16060854494571686,-0.12206095457077026,0.028821676969528198,0.06221821531653404],[-0.0911400243639946,-0.26235827803611755,-0.4387136697769165,0.12099577486515045,0.25559118390083313,-0.8227327466011047,-0.4918903708457947,0.20931972563266754,0.2994586229324341,0.2523168921470642,0.15570715069770813,-0.16205333173274994,0.19783316552639008,0.09589377045631409,0.6246021389961243,-0.3799755275249481,-0.018845422193408012,-0.4141688644886017,0.04976716637611389,0.05450638756155968,0.632429838180542,0.10527176409959793,-0.4528054893016815,-0.28995010256767273,-0.5994350910186768,0.07060021907091141,2.523198127746582,0.7303333878517151,-0.24037140607833862,-0.11641297489404678,0.08931437879800797,1.3332363367080688,-0.5075467228889465,-0.17420722544193268,0.32200464606285095,0.3309677243232727,-0.04330804571509361,0.45451629161834717,0.3007557988166809,-0.026785958558321,-0.01773478463292122,0.29225954413414,-0.2747935652732849,-0.017901362851262093,0.6905303001403809,0.01648809388279915,-0.13279050588607788,-0.07798945158720016,0.4262772798538208,-0.02625524438917637,0.09759348630905151,0.09930582344532013,-0.08364778012037277,0.20925214886665344,-0.05471520125865936,0.6834978461265564,0.062358155846595764,0.24203616380691528,0.0691622942686081,-0.4431212842464447,0.35753634572029114,0.08142295479774475,0.04697518050670624,-0.17599493265151978,0.14685575664043427],[0.27267810702323914,0.3712918162345886,0.5952104926109314,0.3877018988132477,0.3076792359352112,0.6445664763450623,-0.43567660450935364,-0.08605372160673141,-0.4850464463233948,0.4416724145412445,-0.2974560856819153,0.3419627845287323,-0.6291776895523071,-0.03331376239657402,-0.34666523337364197,-0.4707006514072418,0.15033121407032013,0.027399098500609398,-0.2120325118303299,-0.06679314374923706,-0.22933731973171234,-0.03930555284023285,0.10818980634212494,-0.02398824878036976,-0.5219013094902039,0.05196822062134743,-1.5386137962341309,-0.4294322729110718,-0.17247474193572998,-0.09701500087976456,-0.1920904815196991,-0.41835156083106995,1.5143276453018188,0.0789976567029953,-0.19340766966342926,-0.5493503212928772,-0.0904187336564064,0.640918493270874,0.40459856390953064,0.587821900844574,-0.25769665837287903,0.2241532951593399,0.42934510111808777,-0.4092533588409424,0.5478384494781494,0.09344303607940674,-0.23817993700504303,0.7072703838348389,0.14968407154083252,-0.21882039308547974,0.08533588796854019,-0.19630733132362366,-0.1615006923675537,-0.15011908113956451,0.061932094395160675,0.4194004535675049,0.06803228706121445,-0.03309076279401779,-0.5981705784797668,0.11221692711114883,0.3768636882305145,0.12796831130981445,-0.12423423677682877,0.018148282542824745,0.05173138156533241],[-0.4405019283294678,0.23524124920368195,-0.3320929706096649,-0.5380215048789978,0.12441359460353851,-0.28814059495925903,-0.3763803243637085,0.007952320389449596,1.123295545578003,-0.0761978030204773,0.058877862989902496,-0.16344304382801056,0.14708392322063446,-0.0757603868842125,-0.15010102093219757,0.10514504462480545,0.17906838655471802,0.4938353896141052,-0.20547880232334137,0.11458250135183334,0.3865128755569458,0.6875143051147461,-0.40582147240638733,-0.22786760330200195,0.21971428394317627,-0.06370629370212555,0.5694191455841064,0.08173255622386932,0.0011499972315505147,0.12097781896591187,-0.06676427274942398,0.6378962993621826,-1.3434908390045166,-0.5835073590278625,0.3170930743217468,0.020442217588424683,-0.08463431149721146,0.3904102146625519,-0.29837462306022644,0.07528162747621536,0.047119271010160446,-0.20851509273052216,0.39057308435440063,0.08746480196714401,0.07781145721673965,-0.009788809344172478,0.08485694229602814,0.02087738737463951,-0.23094607889652252,0.01232848595827818,0.2001926600933075,0.6327922940254211,-0.141080841422081,0.8673978447914124,-0.26565080881118774,-0.03418973088264465,0.05228505656123161,0.03345588594675064,-0.25001028180122375,-0.41069158911705017,-0.2573651671409607,0.11059644818305969,-0.1717989146709442,-0.3271736800670624,0.14216747879981995],[-0.18450993299484253,0.25346750020980835,0.43003028631210327,0.33542028069496155,0.29343900084495544,-0.7292691469192505,-0.1450682431459427,0.16265393793582916,1.2601516246795654,0.07459058612585068,0.1489972323179245,-0.26218122243881226,0.3445233702659607,-0.031967636197805405,0.8765802979469299,0.26332980394363403,-0.7664440870285034,0.07247639447450638,0.13967899978160858,-0.0811130553483963,1.0791617631912231,0.23977287113666534,-0.20205575227737427,0.2184518724679947,0.5556229948997498,0.004151106812059879,0.7741526961326599,0.08581019937992096,-0.35554054379463196,-0.018969958648085594,0.2276567667722702,0.5399001836776733,-1.073703408241272,-0.1095740869641304,-0.20319457352161407,0.5156920552253723,0.2597943842411041,-0.14165599644184113,0.10832507163286209,-0.35681623220443726,0.26029396057128906,0.36054855585098267,-0.6315732598304749,0.28450891375541687,-0.025328194722533226,-0.6648974418640137,0.30567631125450134,-0.3626388907432556,-0.6017144322395325,0.060102127492427826,-0.3483731746673584,0.23656262457370758,0.25886422395706177,0.6206809282302856,-0.003945972770452499,-0.4114532172679901,-0.23090460896492004,-0.37797385454177856,0.046471163630485535,-0.14825783669948578,0.30491891503334045,-0.030878057703375816,0.17228223383426666,-0.5667067170143127,0.2715357840061188],[0.45415186882019043,0.10412470251321793,0.33311137557029724,0.26523810625076294,-0.1471249908208847,0.29237645864486694,-0.2326091229915619,0.45604532957077026,-0.4703534245491028,-0.382589191198349,0.19900262355804443,0.501556396484375,0.4303800165653229,-0.05141307786107063,0.15603740513324738,-0.09812472760677338,0.3690378963947296,0.12248539179563522,0.2988756000995636,0.12134844064712524,-0.028550082817673683,0.01784287579357624,0.42158350348472595,0.46900081634521484,0.1715608537197113,-0.05214245989918709,0.3665866553783417,-0.42115700244903564,0.3444320261478424,0.12808312475681305,0.47218629717826843,-0.07149476557970047,1.0301192998886108,0.07887513190507889,0.6574022769927979,0.40367597341537476,0.12134123593568802,-0.029039442539215088,-0.24367545545101166,0.023479465395212173,0.34266629815101624,0.0659867450594902,-0.050386589020490646,0.29918327927589417,-0.08065573126077652,-0.08813975751399994,0.34842488169670105,-0.15381141006946564,0.17764364182949066,0.25879350304603577,0.20622220635414124,-0.32528409361839294,0.2113640457391739,-0.3729454278945923,-0.05007427930831909,0.44016993045806885,0.3817313611507416,-0.009443986229598522,-0.5559766292572021,0.6274355053901672,0.13509340584278107,0.2946435213088989,0.5405251979827881,0.5116919875144958,0.2942686080932617],[0.16096113622188568,0.011500231921672821,0.1370006799697876,0.15403544902801514,-0.19632470607757568,-0.07177864760160446,0.05315813422203064,0.22957563400268555,1.251299500465393,-0.025505708530545235,-0.16915284097194672,-0.12951821088790894,-0.0916251540184021,0.010669806972146034,-0.2712862491607666,0.59184730052948,-0.07260493189096451,-0.31791993975639343,-1.4781720638275146,0.09992516785860062,0.2758633494377136,-0.355081707239151,-0.4719230532646179,-0.3205741047859192,-0.4951574504375458,0.10346440970897675,2.2896745204925537,0.17032328248023987,0.43123385310173035,0.33729541301727295,-0.030022257938981056,-0.4393928050994873,0.06249136105179787,-0.28260332345962524,0.7028642296791077,0.16174453496932983,-0.29140087962150574,-0.04937367141246796,0.07894641160964966,-0.1779138296842575,0.13841679692268372,-0.19084815680980682,-0.06624875962734222,0.22560161352157593,-0.09746634215116501,0.24586808681488037,0.19835591316223145,-0.02154892310500145,-0.2735917568206787,0.199632927775383,0.011456919834017754,0.25285494327545166,0.0727890282869339,0.6556990146636963,-0.3695017695426941,1.0456514358520508,0.2743619978427887,0.2700337767601013,0.3742605745792389,-0.32196125388145447,0.3464512526988983,0.16060222685337067,0.3182259798049927,0.18460015952587128,0.052589718252420425],[-0.1553002893924713,-0.11105019599199295,0.15903764963150024,-0.3610883951187134,0.06496899574995041,-0.1316237449645996,1.615025520324707,-0.0725521519780159,0.6961369514465332,0.40937256813049316,-0.283962607383728,-0.002662394195795059,0.2552298903465271,-0.027854928746819496,-0.495084673166275,0.11437477171421051,-0.14611662924289703,-0.1847848743200302,-0.2801818251609802,-0.1179351881146431,-0.8398560285568237,0.30546608567237854,-0.3905545771121979,-0.4517282247543335,-0.4097250998020172,0.07851605862379074,-1.3611756563186646,0.3507586419582367,0.16666844487190247,-0.008609420619904995,0.09529835730791092,-0.5642280578613281,-0.5697946548461914,-0.5405954718589783,-0.07709289342164993,-0.3608459234237671,0.20148570835590363,0.16154053807258606,-0.06067506968975067,0.5442924499511719,-0.2546670436859131,0.1061226949095726,0.1417466253042221,-0.12719781696796417,0.10646498203277588,0.6350363492965698,-0.25135061144828796,0.09797387570142746,0.2945803999900818,-0.08806765824556351,-0.05216067284345627,0.09890127927064896,-0.09214689582586288,0.16502520442008972,0.24661794304847717,-0.6726943850517273,-0.0610172338783741,-0.062401361763477325,0.0013397905277088284,0.5304383039474487,-0.028599977493286133,0.09266969561576843,0.26647305488586426,0.04335378110408783,0.024279138073325157],[-0.1040475144982338,0.00011743501090677455,0.4593520164489746,-0.09350555390119553,0.350097119808197,-0.22588017582893372,-0.2521496117115021,0.532701849937439,0.0010763402096927166,-0.2309611290693283,0.5683546662330627,0.6930926442146301,0.22493840754032135,0.035326164215803146,-0.5415946841239929,0.2726411521434784,0.20086140930652618,0.5411113500595093,-0.11872046440839767,-0.06210960075259209,-0.026815177872776985,-0.16226078569889069,0.15965662896633148,-0.049025826156139374,0.3586817979812622,0.06257355958223343,1.004931092262268,0.10829436033964157,0.21694837510585785,0.12806731462478638,0.2681363821029663,0.8076140284538269,0.3335181772708893,0.0035723375622183084,0.5592126846313477,0.354602575302124,0.020424259826540947,1.0861867666244507,-0.08056117594242096,0.30385681986808777,0.21418219804763794,-0.32305240631103516,0.2923629879951477,0.13675692677497864,0.040307577699422836,0.20849013328552246,0.11949626356363297,-0.11014904081821442,-0.12885704636573792,0.09802976250648499,0.10655593872070312,0.010518893599510193,-0.009515692479908466,-0.06802782416343689,0.10186027735471725,-0.055448345839977264,0.1489056646823883,-0.10285498946905136,-0.2536362111568451,0.1997227668762207,0.37560608983039856,0.02048906870186329,0.09809435158967972,0.21675042808055878,0.1493549644947052],[0.17803215980529785,-0.47408372163772583,0.2959994077682495,-0.2573259770870209,0.12480226904153824,0.06165105104446411,1.468414068222046,0.08929397910833359,0.6133758425712585,0.8350338935852051,0.17947281897068024,0.8818686008453369,0.27694934606552124,-0.07472070306539536,0.4157906472682953,0.9438150525093079,-0.28272897005081177,-0.28289225697517395,-0.09298577159643173,-0.03236088529229164,-0.18476784229278564,-0.5914010405540466,0.9148580431938171,0.559066653251648,-0.5790858864784241,-0.09453621506690979,0.2753768563270569,0.3337758481502533,0.23791612684726715,0.3721495270729065,0.11662004142999649,-0.11640655249357224,0.34214383363723755,0.2859148681163788,0.3390624523162842,0.3273564875125885,-0.12783071398735046,-0.1197446659207344,-0.28109413385391235,-0.15348364412784576,0.03708416596055031,-0.14569824934005737,-0.22029773890972137,0.2740841507911682,0.08273641765117645,-0.22879493236541748,0.15913528203964233,-0.2014278918504715,0.03288314864039421,0.2223372757434845,-0.03680504485964775,-0.36808648705482483,0.38179725408554077,-0.22757618129253387,0.6225094795227051,-0.2973282039165497,-0.12075093388557434,0.016825562343001366,-0.05028581619262695,0.26598143577575684,-0.6804449558258057,-0.2625476121902466,0.09598807990550995,0.4636956453323364,0.07210668921470642],[0.02036857046186924,-0.6274956464767456,0.4280606806278229,-0.5090587139129639,0.1979699581861496,-0.12262117117643356,0.3131003975868225,0.08195186406373978,-0.17408327758312225,0.6579379439353943,-0.06052176281809807,-0.6999408006668091,-0.32085004448890686,-0.10330110043287277,0.12240530550479889,-0.2648616433143616,-0.11806235462427139,0.2053963541984558,-0.15130499005317688,0.10821781307458878,0.19572338461875916,0.4886876046657562,0.4629599452018738,0.7283176183700562,0.03919687494635582,-0.028343357145786285,-0.6625900864601135,0.2185901254415512,0.13986696302890778,0.3587818443775177,0.10172642022371292,-0.16768552362918854,-1.7133456468582153,-0.0943840891122818,-0.15692603588104248,0.18306972086429596,0.126149982213974,0.41855424642562866,-0.10020428895950317,-0.33964458107948303,0.045657988637685776,0.6223636269569397,-0.3227752447128296,0.18327106535434723,-0.43028560280799866,-0.6712900400161743,0.19139420986175537,-0.5801600217819214,0.2153044193983078,0.11570430546998978,-0.6156523823738098,-0.46564435958862305,0.2881482243537903,-0.22379224002361298,0.3983803987503052,-0.16821643710136414,-0.25713980197906494,-0.03492020070552826,1.2354546785354614,-0.12545308470726013,-0.0952463299036026,-0.14125186204910278,-0.41497334837913513,-0.019626256078481674,-0.0322602204978466],[-0.004228129517287016,-0.033101897686719894,-0.17802421748638153,-0.2570420801639557,-0.29383009672164917,0.7149421572685242,0.44464385509490967,-0.46208882331848145,-0.9801749587059021,-0.40221890807151794,-0.07252218574285507,-0.15525388717651367,-0.08806778490543365,-0.03351418673992157,-0.24177473783493042,-0.020080305635929108,0.08183665573596954,-0.2628467381000519,0.6141600012779236,-0.08087264746427536,-0.41339316964149475,0.06450867652893066,0.14562658965587616,-0.5978374481201172,0.28647658228874207,-0.025023391470313072,-1.805250644683838,-0.6899275183677673,-0.053593698889017105,-0.508249044418335,-0.152387335896492,-0.3070315718650818,-0.10339806228876114,-0.08308009058237076,-0.1760677993297577,0.0063887047581374645,0.1536940038204193,0.5602197647094727,0.17418795824050903,-0.09336680173873901,-0.13618357479572296,0.2314656376838684,-0.13807401061058044,-0.15346290171146393,-0.10025490075349808,-0.18800213932991028,-0.09906728565692902,0.2272983342409134,-0.34952762722969055,-0.05117300525307655,0.13374368846416473,-0.14703960716724396,-0.04438934847712517,-0.26850345730781555,0.001698579522781074,-0.2903083264827728,-0.22339937090873718,-0.3582085371017456,0.11058712005615234,0.3776479661464691,-0.6650596857070923,-0.043626897037029266,0.0906897783279419,0.07926418632268906,-0.1823769062757492],[0.2014586627483368,-0.23891188204288483,0.4641716182231903,0.04612105339765549,-0.1839391589164734,0.5384655594825745,0.8894857168197632,-0.29304563999176025,0.7968764305114746,0.38881465792655945,-0.05353277921676636,0.3756199777126312,0.36419975757598877,0.0861930251121521,-0.6400291919708252,0.01346097607165575,0.3376760184764862,-0.2066243290901184,-0.3090658187866211,-0.03363095223903656,-0.6805914640426636,0.07797382026910782,0.15444307029247284,0.16866609454154968,-0.08693136274814606,0.09447001665830612,-0.6298810839653015,0.47600263357162476,0.10541647672653198,-0.32599303126335144,-0.03582203760743141,-1.005607008934021,0.17972524464130402,0.09438205510377884,-0.42768412828445435,-0.3854442834854126,0.026560436934232712,-0.38255295157432556,0.10444971919059753,0.4267832338809967,3.2314928830601275e-05,0.10898430645465851,-0.12779845297336578,0.07250366359949112,0.13731245696544647,-0.1917172372341156,0.03614197298884392,-0.21540102362632751,0.008514760062098503,0.14328062534332275,-0.11234815418720245,0.182241290807724,0.14304833114147186,-0.09572787582874298,0.25600895285606384,-0.40515637397766113,0.2130947858095169,-0.7175887227058411,0.059949204325675964,0.5458326935768127,0.4443633556365967,-0.07900914549827576,0.12677648663520813,0.44386765360832214,-0.23723936080932617],[-0.3549400568008423,0.1090090349316597,-0.5841219425201416,0.08001473546028137,-0.014855463989078999,0.037230849266052246,0.3450640141963959,-0.2387510985136032,0.8057708144187927,-0.20591796934604645,0.1630336195230484,-0.022131996229290962,-0.009547397494316101,-0.0025240746326744556,-0.05350729823112488,0.6334934830665588,-0.6003965139389038,-0.36108294129371643,0.03799418359994888,-0.06821396946907043,0.7051712870597839,1.0495175123214722,-0.39550626277923584,-0.6500251889228821,0.11056482046842575,-0.040509264916181564,0.3991349935531616,0.5283783674240112,-0.3313524127006531,-0.21580180525779724,0.3565658628940582,0.23700501024723053,-1.026505470275879,0.18891309201717377,-0.550430417060852,0.32963231205940247,0.12810508906841278,-0.13157734274864197,0.1690894365310669,-0.08970653265714645,0.09596429020166397,-0.033898599445819855,-0.4039810597896576,0.19939689338207245,0.28065723180770874,-0.19796188175678253,-0.15882274508476257,0.14027003943920135,-0.5123817920684814,0.01611144468188286,0.16353754699230194,0.18038193881511688,-0.2975160479545593,0.4274199306964874,-0.2613341808319092,-1.0394939184188843,-0.028142262250185013,-0.49085983633995056,0.2429187297821045,0.5634266138076782,0.4342118501663208,-0.2634856104850769,0.35497209429740906,-0.2938515543937683,0.16426478326320648],[0.5107775330543518,-0.18254804611206055,-0.026978395879268646,0.07614290714263916,-0.00707975821569562,0.8502785563468933,0.43486639857292175,0.33721497654914856,-0.9610080122947693,0.08899114280939102,-0.16714772582054138,0.5829859972000122,-0.28918367624282837,0.10826214402914047,-0.23916497826576233,0.1731899380683899,0.2731328308582306,0.27468669414520264,-0.31393709778785706,0.00019604880071710795,-0.227803036570549,0.07043351978063583,0.4313657283782959,0.0597391240298748,-0.6060518622398376,-0.024287886917591095,0.2806142568588257,-0.2386818528175354,-0.052448272705078125,0.16150133311748505,0.08187135308980942,-0.5358584523200989,1.633751630783081,0.12196610867977142,0.1688726842403412,0.44156894087791443,-0.09945283085107803,-0.4521317183971405,0.17690476775169373,0.5895481705665588,0.1695414036512375,0.5141666531562805,-0.22543586790561676,0.167128324508667,0.0064603956416249275,-0.1038103997707367,0.2148905247449875,-0.296698659658432,0.0012018640991300344,0.13549910485744476,0.09669254720211029,-0.14182427525520325,0.1642073541879654,-0.6931648254394531,0.3546309471130371,-0.2777279019355774,-0.04766784608364105,0.19464249908924103,-0.4529784321784973,0.4950704574584961,-0.2728976309299469,0.15864190459251404,-0.056065451353788376,0.2531399428844452,0.004791375249624252],[0.05521967262029648,0.0615425743162632,0.7297043800354004,-0.05242173373699188,-0.43042638897895813,-0.06893309205770493,1.575021505355835,0.01727631874382496,0.5402998924255371,-0.3000863492488861,0.23547358810901642,0.554747462272644,0.190605029463768,0.07609482109546661,-0.5427230000495911,0.12391911447048187,0.009825783781707287,-0.08019345253705978,-0.6470657587051392,0.09259998798370361,0.11064166575670242,-0.5929294228553772,0.08519570529460907,-0.3558860719203949,-0.3860524892807007,-0.07105720043182373,0.023899579420685768,0.12613579630851746,0.07736851274967194,-0.6069750189781189,-0.5437950491905212,-0.6742227077484131,0.7629388570785522,-0.3185540437698364,0.06615208834409714,0.10357585549354553,0.107868492603302,-0.02168826386332512,-0.14689572155475616,0.36264505982398987,-0.10361094027757645,-0.3218773603439331,0.059894319623708725,-0.20893144607543945,0.009608115069568157,0.7145156264305115,-0.01660297065973282,0.15342795848846436,-0.5414756536483765,-0.04348029941320419,-0.06869622319936752,0.05050716549158096,-0.13217554986476898,0.07826682925224304,-0.1502973884344101,0.04146692901849747,0.2902343273162842,-0.08072465658187866,-0.983329713344574,0.5483694672584534,-0.1077006533741951,-0.09804151952266693,0.520572304725647,0.39624133706092834,-0.05108695849776268],[0.2797049582004547,-0.5777715444564819,0.08751562237739563,-0.5679742097854614,-0.314441055059433,-0.12003649771213531,-0.3768685460090637,0.4176970422267914,-0.3440506160259247,0.5957297086715698,-0.15057812631130219,0.15994735062122345,-0.8545092344284058,0.0756610557436943,0.3477296531200409,0.7030234932899475,-0.4009292423725128,-0.7695185542106628,-0.5025043487548828,