{"topology":"mlp_tanh_3layer","input_dim":65,"output_dim":18,"source":"model_norespawn.onnx","layers":[{"w":[[-0.4298136830329895,-0.18782807886600494,1.0981485843658447,-1.118189811706543,-0.05644862353801727,-0.638874351978302,1.4286150932312012,-0.3132993280887604,0.47606778144836426,0.3876127004623413,0.1788848638534546,0.3307197690010071,0.8809520602226257,-0.07115662097930908,-0.2615436315536499,0.47846123576164246,-0.17721953988075256,-0.4436124861240387,-0.4382551610469818,0.06057826429605484,-0.4165278375148773,-0.6682654619216919,-0.3575364947319031,-0.35154715180397034,0.38347798585891724,-0.10729598999023438,-0.27062106132507324,-0.7142819762229919,0.1344955563545227,0.05739247798919678,0.1612914502620697,0.3389109671115875,-0.1985711306333542,0.5716506242752075,-0.33129167556762695,-0.7878873348236084,-0.035146184265613556,0.9641916155815125,0.6245898604393005,0.868522584438324,-0.2704489231109619,-0.1430262178182602,0.5301347374916077,0.1052100881934166,-0.27501779794692993,0.23518162965774536,-0.14160190522670746,-0.7712913155555725,0.6455680727958679,-0.05015663430094719,-0.10466193407773972,-0.18177278339862823,-0.027582431212067604,0.03834962844848633,0.6963510513305664,-0.9330356121063232,-0.055946506559848785,0.008796891197562218,-0.06946220993995667,0.8406825661659241,0.24437128007411957,-0.4054991602897644,0.18778572976589203,0.0869530439376831,-0.05672305077314377],[-0.37736785411834717,0.28143319487571716,0.031011292710900307,0.4505575895309448,0.0033153630793094635,-1.0080910921096802,-1.360941767692566,-0.004938434809446335,0.5154324769973755,-0.2267782837152481,0.31167545914649963,0.017063725739717484,0.15884166955947876,-0.06026111915707588,-0.03097923845052719,0.007966686971485615,0.11807093769311905,-0.06936895847320557,0.8267715573310852,0.11363023519515991,0.6380424499511719,-0.0019927998073399067,0.3027237355709076,0.15520945191383362,0.6622278690338135,-0.041011326014995575,-0.7059739828109741,-1.8465169668197632,-0.0662991926074028,0.030168671160936356,-0.1435321569442749,-1.219918966293335,0.4541497528553009,0.02589893713593483,0.27363988757133484,-0.20236055552959442,-0.05085966736078262,-1.3545455932617188,0.08075698465108871,0.17266955971717834,-0.05373368412256241,1.0772134065628052,-0.27981990575790405,-0.09322371333837509,-0.19256138801574707,-0.5006043910980225,-0.2107480764389038,0.6617774367332458,0.20969747006893158,-0.043735407292842865,-0.1534297913312912,0.6754326224327087,-0.26695528626441956,0.34162139892578125,-0.02715805545449257,-0.5404888987541199,-0.06654421240091324,-0.7085713744163513,-1.1273412704467773,0.6611180305480957,0.2244081050157547,0.03244491666555405,-0.22234968841075897,0.17541201412677765,-0.17046098411083221],[-0.5921744704246521,-0.5962538719177246,0.14922069013118744,-0.5986261367797852,0.2006300389766693,-0.8101862072944641,-0.545451283454895,-0.23087838292121887,0.7705358266830444,0.43439626693725586,0.1646011769771576,0.37920746207237244,0.42551183700561523,-0.11284957081079483,-0.02950756996870041,0.5930955410003662,-0.0639718621969223,-0.10671737045049667,0.6581006050109863,-0.06142290681600571,0.9217340350151062,-0.340929239988327,0.4302830696105957,-0.10743512958288193,0.8068609237670898,-0.042086511850357056,0.711886465549469,0.8242014646530151,0.2926217019557953,-0.21035628020763397,-0.1782969832420349,-0.5585070848464966,-0.9636695981025696,0.03262621536850929,-0.026807386428117752,0.6402754783630371,-0.14182308316230774,-0.05532529577612877,0.3231756091117859,0.5448977947235107,-0.27060988545417786,0.27769964933395386,-0.261481910943985,-0.20027180016040802,0.4215265214443207,-0.13236545026302338,-0.3834061622619629,0.008689790964126587,-0.3746388256549835,-0.27131208777427673,1.2588887214660645,0.4925486743450165,-0.2731171250343323,0.5569727420806885,0.49451687932014465,-0.12405219674110413,-0.0786837711930275,-0.727131724357605,0.12205740809440613,-0.3347109854221344,-0.5680174827575684,-0.4315909743309021,0.11877503991127014,0.02160206064581871,-0.2662337124347687],[-0.2320338934659958,-0.677079439163208,-0.6400474309921265,0.007341776043176651,0.6252204775810242,-0.43226826190948486,-0.17578284442424774,0.15459096431732178,1.2530882358551025,1.1056007146835327,0.705522358417511,0.8179116249084473,0.5224752426147461,-0.05840720981359482,0.8714019060134888,0.7234153747558594,0.3878154158592224,0.3636074364185333,0.34613895416259766,-0.09236596524715424,1.0649219751358032,-0.6375921368598938,0.3938705027103424,0.6503937840461731,0.2944011092185974,-0.10650242120027542,1.9490693807601929,0.11568808555603027,0.9647640585899353,0.7443081736564636,-0.12927602231502533,0.344492644071579,-0.07838296890258789,0.3293197751045227,0.5753213763237,0.5245053768157959,-0.1672089397907257,0.18535292148590088,0.3267512619495392,0.4344348907470703,0.19214606285095215,-0.08958328515291214,0.12667451798915863,0.1575751155614853,0.1487535983324051,0.14476479589939117,0.1622631847858429,0.19036443531513214,-0.2974461615085602,0.37742558121681213,0.6348088383674622,-0.06342747062444687,0.2124285250902176,0.7969586849212646,0.27750712633132935,0.6826909184455872,0.2896893620491028,-0.3375721275806427,0.3291197419166565,-0.021326474845409393,0.22885562479496002,0.2979860007762909,-0.2928645610809326,0.7032447457313538,-0.04466729238629341],[0.07199007272720337,0.38554808497428894,1.746381163597107,0.6435303092002869,0.4512377977371216,0.5637785792350769,0.11865600198507309,0.45018529891967773,0.3988228440284729,-0.34898942708969116,-0.11300749331712723,0.23935148119926453,-1.1241875886917114,0.023521892726421356,0.17298588156700134,-0.8751088380813599,0.16349080204963684,0.07736805081367493,-0.4632110893726349,-0.1044379398226738,0.26732873916625977,-0.3661305010318756,0.3349451720714569,0.5174720287322998,-0.1491824984550476,-0.05244198068976402,-0.24119749665260315,-1.9022668600082397,-0.04553046077489853,0.46082064509391785,0.08919946104288101,-0.541523277759552,1.024713158607483,-0.1346026211977005,-0.09527453780174255,-0.6216675043106079,-0.5282347798347473,-1.003695011138916,0.15383252501487732,0.7133097052574158,0.14031630754470825,0.17668017745018005,0.09541643410921097,0.04818223789334297,0.0447705052793026,0.618254542350769,0.045867376029491425,0.6050683856010437,-0.1831727921962738,0.02626526914536953,-0.5323915481567383,0.367264986038208,-0.07179103046655655,-0.12470260262489319,0.05303854122757912,-0.29991614818573,-0.08376391977071762,-0.48628556728363037,-0.18593937158584595,0.971337616443634,-0.038924459367990494,0.2737060487270355,-0.447687029838562,0.26561376452445984,0.08672749251127243],[-0.6500599980354309,-0.18689662218093872,1.2325843572616577,0.3151220679283142,-0.6713103652000427,0.19105979800224304,0.0835430696606636,-0.34806695580482483,1.0869390964508057,-0.4530348777770996,0.40509146451950073,0.7098678946495056,1.0620466470718384,0.09389461576938629,1.4283456802368164,0.6142219305038452,-0.6033162474632263,0.05517417564988136,0.5105440020561218,-0.05710870772600174,-0.17264114320278168,0.7398375272750854,-0.39081960916519165,0.1153593361377716,0.22611047327518463,0.07067500799894333,0.3812832832336426,0.27600333094596863,0.1904786378145218,0.7278502583503723,0.3972437083721161,-0.17501506209373474,-0.8711822628974915,0.7945278286933899,0.6975879669189453,0.26254820823669434,0.16633166372776031,-0.46255558729171753,-0.24172626435756683,-0.20879565179347992,0.4271501898765564,0.2653048634529114,-0.283479243516922,0.5431223511695862,-0.1252666413784027,-0.4192323386669159,0.5361651182174683,0.15477007627487183,-0.6853983998298645,0.6836891770362854,-0.22260713577270508,0.3099721670150757,0.3125247657299042,0.8605012893676758,0.43337035179138184,0.1886780709028244,-0.12051389366388321,0.2553468942642212,-0.3063468039035797,-0.18815593421459198,-0.6725243926048279,0.06794923543930054,-0.254867821931839,-0.05532119795680046,-0.0023218360729515553],[0.2484220713376999,0.39673489332199097,1.4789947271347046,0.3826136887073517,-0.3825521469116211,1.0067795515060425,-1.5265710353851318,0.18469618260860443,0.38857215642929077,-0.5825856924057007,0.33299851417541504,-0.23033879697322845,-0.013679665513336658,0.04337656870484352,0.7241355776786804,-0.10071783512830734,0.31809645891189575,0.2099844366312027,0.04223833605647087,0.003510913345962763,0.006001308094710112,0.9740853905677795,0.6304720640182495,0.667389452457428,-0.22579121589660645,0.12092620879411697,-0.9308728575706482,-0.9934189319610596,-0.4880506992340088,0.2499961107969284,-0.15743690729141235,-0.5900959968566895,-0.030386589467525482,-0.31594350934028625,0.28027454018592834,0.043182387948036194,0.17428477108478546,-0.6232885718345642,0.26377391815185547,-0.4303011894226074,0.1076052263379097,0.5852596759796143,-0.6534010171890259,-0.13374003767967224,0.6804699301719666,-0.2262107878923416,0.04066801071166992,0.4167468249797821,0.041162263602018356,0.09136074781417847,0.5139065384864807,-0.19202759861946106,-0.13414515554904938,-0.12178248912096024,-0.5897921919822693,0.02891332283616066,0.19106906652450562,0.6876108646392822,-0.7029789686203003,0.37769657373428345,-0.7053752541542053,0.30798253417015076,-0.10407790541648865,0.7119865417480469,-0.09282433241605759],[-0.2141498178243637,0.19492173194885254,0.63878333568573,1.1767255067825317,-0.6884557604789734,-0.05568428337574005,0.08331908285617828,-0.01619829423725605,-0.4101531505584717,-0.42256370186805725,-0.3133050799369812,-0.05579635873436928,-0.14183300733566284,-0.018059806898236275,0.09738346934318542,-0.5397639870643616,0.2761513590812683,0.9481552243232727,0.2724030613899231,-0.12198379635810852,-0.01724262163043022,0.18989421427249908,0.5690916776657104,0.5741961002349854,0.3399146795272827,0.0965832993388176,-1.8980796337127686,-0.7152158617973328,0.3997807204723358,0.2679404616355896,0.20750533044338226,0.16036401689052582,0.616209089756012,0.44855111837387085,-0.06908399611711502,-0.8220900297164917,-0.08291669934988022,0.2056904435157776,0.1469416469335556,1.2274290323257446,-0.6275736689567566,1.8966543674468994,0.20152634382247925,-0.5425419211387634,-0.5668911337852478,0.7024716734886169,-0.601246178150177,0.6212599277496338,0.0853985920548439,-0.4702400267124176,-0.09133804589509964,0.7547256350517273,-0.5811843872070312,-0.09494540840387344,-0.3802654445171356,-0.5911555290222168,-0.14529550075531006,0.0669192299246788,-0.2947612404823303,0.4684349596500397,-0.6414307355880737,0.0862913653254509,-0.311574250459671,-0.03814588114619255,0.07533017545938492],[0.07825731486082077,-0.1713249385356903,-0.6540604829788208,1.0855822563171387,0.22085370123386383,-0.05001693218946457,1.0042051076889038,0.1754143387079239,-0.3676117956638336,0.02010178565979004,-0.25162768363952637,-1.3864264488220215,-0.45558011531829834,-0.04307679459452629,-0.489341676235199,1.3307284116744995,-0.28934627771377563,0.3057335913181305,-0.09057595580816269,0.12389850616455078,-0.19508403539657593,-0.07487806677818298,0.3617919385433197,0.4220893681049347,0.35147497057914734,0.09684183448553085,-1.2441726922988892,0.07058076560497284,0.41419002413749695,-0.19989703595638275,-0.0577688105404377,-0.4947620928287506,0.6856522560119629,0.4947032630443573,-0.29908305406570435,-0.07476918399333954,0.030706282705068588,0.27691760659217834,0.15408006310462952,0.6372634172439575,-0.10433262586593628,0.5185063481330872,0.19430124759674072,-0.40852224826812744,0.11795566231012344,0.0943741574883461,-0.34798499941825867,0.9223763346672058,0.45801207423210144,-0.2461705505847931,-0.19153618812561035,0.3235843777656555,-0.30863437056541443,-0.19174398481845856,0.5251502394676208,-0.5920735597610474,0.049069397151470184,0.6477861404418945,0.4706604480743408,0.08109508454799652,-0.6028585433959961,-0.07511193305253983,0.21135470271110535,0.204457625746727,0.06616400182247162],[-0.5019474625587463,-0.08149129152297974,-0.8536602258682251,0.061047665774822235,0.45031115412712097,-0.907782256603241,0.36593273282051086,0.23915870487689972,0.4611654281616211,-0.5148120522499084,0.2128896713256836,-0.18770284950733185,-0.04575633630156517,-0.0051454417407512665,0.41461628675460815,-0.4753676950931549,-0.6287668943405151,-0.44571617245674133,-0.22298948466777802,0.03430355712771416,0.5524894595146179,-0.18107958137989044,0.47703060507774353,0.12423195689916611,1.3721843957901,0.04725703224539757,-1.3477641344070435,-0.28244301676750183,-0.04327470809221268,0.2887139618396759,0.436953604221344,-0.03232179954648018,-1.7286028861999512,-0.28666090965270996,-0.05800660699605942,-0.14596706628799438,0.19316036999225616,0.37643131613731384,0.22467178106307983,-0.35377800464630127,-0.25225353240966797,0.2637394964694977,0.4830757975578308,-0.11009819805622101,-0.5345967411994934,0.4588340222835541,-0.2700486481189728,0.678044319152832,0.22199811041355133,-0.432330846786499,0.38914430141448975,0.12876743078231812,-0.3718986213207245,0.4874159097671509,0.0029768769163638353,-0.9766520261764526,-0.3789919316768646,-0.3341573476791382,-0.19102458655834198,0.09250342100858688,0.08321616053581238,-0.01231533382087946,-0.12931674718856812,-0.6215201616287231,0.31868165731430054],[0.01622815430164337,0.604185163974762,0.17287465929985046,0.19204720854759216,0.0009726046700961888,-0.045960310846567154,2.4304282665252686,-0.5897216200828552,0.6922990679740906,0.31707271933555603,-0.4311111569404602,-0.7368239164352417,1.335466742515564,0.0029728917870670557,-0.2167300283908844,-0.15022209286689758,-0.2819048762321472,0.016737770289182663,0.31499236822128296,0.030714187771081924,-0.1418248862028122,-0.34395456314086914,-0.3152276277542114,-0.1462976187467575,0.38465559482574463,-0.09120141714811325,0.3202826678752899,0.38247978687286377,0.0787944570183754,0.3532174527645111,0.1564401388168335,1.6265616416931152,-0.5126504302024841,-1.177755355834961,0.04301620274782181,0.5526136755943298,0.39389535784721375,0.5115965008735657,0.2870246171951294,-0.33466649055480957,-0.18146850168704987,-0.04645896703004837,-0.08593187481164932,-0.03609318658709526,0.05645596608519554,0.014794817194342613,-0.06345413625240326,0.10301562398672104,-0.41455650329589844,-0.26162973046302795,0.7406468391418457,-0.3379070460796356,-0.2679188549518585,0.7878779768943787,-0.5639437437057495,0.4362967312335968,0.2868545353412628,0.5952504277229309,0.19009174406528473,-0.10132762044668198,0.2900748550891876,-0.13283191621303558,0.5856836438179016,-0.08067966252565384,-0.017171848565340042],[0.06264856457710266,0.11577601730823517,0.2825694680213928,-0.2745712399482727,-0.7567608952522278,0.2827780842781067,2.2663469314575195,-0.7708731889724731,0.23869232833385468,0.003874623915180564,0.24684862792491913,1.0126270055770874,0.5237589478492737,-0.04794727638363838,-0.35264408588409424,-0.554789662361145,0.48994216322898865,0.6496959924697876,-0.27245599031448364,0.12243005633354187,0.20805931091308594,-0.670686662197113,0.24202637374401093,1.180822730064392,-0.19449613988399506,0.07171488553285599,0.2936089336872101,-0.2088477909564972,0.061342958360910416,-0.478099524974823,-0.5686548352241516,-0.9632527232170105,0.7634285092353821,-0.36946189403533936,-0.1487455815076828,0.4375022351741791,-0.4380834698677063,-0.48525598645210266,0.13926538825035095,0.15034860372543335,-0.020409587770700455,-0.7171528339385986,0.1603701412677765,-0.06608211249113083,0.38173654675483704,-0.2794622480869293,-0.032601892948150635,0.1221344918012619,0.04850231856107712,-0.04758431762456894,0.0814046636223793,-0.5975692272186279,0.12306177616119385,-0.16286812722682953,0.22903504967689514,0.24696199595928192,0.4511656165122986,-0.5686058402061462,0.023294903337955475,0.2739754915237427,-0.102105051279068,-0.1262868046760559,-0.23237308859825134,0.9749623537063599,-0.49393346905708313],[-0.4594462215900421,-0.5209584832191467,-0.2975011169910431,-0.35446032881736755,-0.03749576583504677,-0.6458486914634705,0.7556071877479553,-0.5210862755775452,0.9538638591766357,-0.6222104430198669,-0.26526549458503723,0.11456214636564255,0.23457370698451996,0.0604495070874691,-0.12236225605010986,-0.05780781805515289,-0.9115297198295593,-0.7672202587127686,-0.3692449629306793,-0.10766644030809402,0.192298024892807,-0.6264677047729492,-0.5136134028434753,-0.7421984076499939,0.26723402738571167,0.09473136067390442,0.42662760615348816,0.7669596076011658,-0.22292672097682953,-0.04944419488310814,0.24444591999053955,0.5501121282577515,-0.7265858054161072,0.09496229887008667,-0.8176971077919006,0.3116488456726074,0.14978337287902832,0.277299165725708,0.48473623394966125,-0.04749823361635208,-0.4214276969432831,-0.030802568420767784,0.044596828520298004,-0.17349284887313843,-0.3932143449783325,0.5310348868370056,-0.4505109190940857,0.05659814178943634,-0.3197952210903168,-0.4640065133571625,0.2899754047393799,0.26455795764923096,-0.7226526141166687,0.07324333488941193,-0.09948913753032684,-1.0155739784240723,-0.6137741208076477,-0.09574530273675919,1.1835888624191284,0.09716323763132095,0.3002171218395233,-0.4132423400878906,-0.34283381700515747,-1.071277379989624,-0.12987872958183289],[0.24500738084316254,-0.12244834750890732,-0.8140117526054382,-0.5687395930290222,-0.8000155687332153,1.1151447296142578,-0.9018054008483887,-0.4089989960193634,-1.171196699142456,-0.36423346400260925,0.047551948577165604,0.1071629524230957,-0.3274352252483368,0.09228489547967911,-0.39263591170310974,-0.22213225066661835,0.4235495328903198,0.27234092354774475,-0.5389026403427124,0.03812798112630844,-0.409351646900177,-0.45831650495529175,0.20186972618103027,0.1280922293663025,-0.4062252938747406,-0.024240201339125633,-0.058790381997823715,-0.388386607170105,0.22301553189754486,-0.3166888654232025,-0.38581785559654236,-0.2418527454137802,0.23796120285987854,-0.7817507982254028,0.43900924921035767,0.01996288262307644,-0.2651885151863098,0.10473886132240295,-0.27611109614372253,0.050872765481472015,-0.24060530960559845,-0.13866381347179413,0.2107727825641632,-0.33901336789131165,0.025449873879551888,0.0557466596364975,-0.09333836287260056,0.24570341408252716,-0.42719805240631104,-0.24323399364948273,0.29148173332214355,-0.25849732756614685,0.056279316544532776,-0.12487924098968506,0.04955717548727989,1.3086369037628174,-0.02286762371659279,0.26903119683265686,0.059394627809524536,-1.3695192337036133,0.05016464367508888,-0.03469327092170715,-0.5861735939979553,0.09475897252559662,-0.4253963828086853],[-0.004763044882565737,0.07526808232069016,-0.9346497058868408,0.2128913253545761,0.15655338764190674,-1.0944634675979614,1.145330548286438,-0.1093117892742157,0.7410333752632141,0.25215157866477966,0.6034462451934814,1.169950008392334,0.8597639203071594,-0.005694109480828047,0.20044197142124176,1.241817831993103,0.2893388569355011,0.31091320514678955,0.10741107910871506,-0.08251947909593582,0.27744340896606445,-0.6359950304031372,0.6871545910835266,0.8566876649856567,0.30907875299453735,-0.04617823660373688,1.15975022315979,0.9196802973747253,0.12642575800418854,0.023286545649170876,-0.14403174817562103,0.22293329238891602,-0.7813703417778015,-0.00514344684779644,0.23516502976417542,0.07003969699144363,-0.04891762509942055,-0.8465753793716431,-0.12184877693653107,0.00042040017433464527,-0.06915968656539917,-0.2765580415725708,0.6448190212249756,-0.1800013780593872,0.26640796661376953,0.2102964222431183,-0.20992955565452576,-0.13950040936470032,-0.2513033151626587,-0.17211587727069855,-0.67344069480896,0.8198830485343933,-0.05479488894343376,0.5103664398193359,-0.11732316762208939,0.07606888562440872,0.4455091953277588,0.17481358349323273,-0.2316627949476242,0.1344185322523117,-0.13063190877437592,-0.07233928889036179,0.5742085576057434,0.6708396673202515,-0.1297185868024826],[-0.444246381521225,0.047194018959999084,0.27392446994781494,0.4063902497291565,-0.11587677150964737,0.32824501395225525,-0.8160037398338318,0.0703311488032341,0.6833059191703796,-0.12881705164909363,0.1104947105050087,0.6286869049072266,-0.8655922412872314,-0.026444438844919205,0.23760652542114258,-0.2858894169330597,-0.41527843475341797,-0.7405663728713989,-1.5447683334350586,-0.022778404876589775,0.31279677152633667,-0.29251372814178467,-0.3810350298881531,0.006277516018599272,-0.5268673896789551,-0.052024126052856445,2.424767017364502,-0.0003303978010080755,-0.308224081993103,0.014256816357374191,-0.22435954213142395,1.1780585050582886,-1.002181887626648,-0.6268404126167297,0.43224796652793884,0.31587985157966614,-0.021592913195490837,0.19563530385494232,-0.17024485766887665,0.29954561591148376,-0.12077880650758743,0.15427392721176147,-0.24241940677165985,-0.07798116654157639,0.6955870389938354,0.19376789033412933,-0.2010851949453354,-0.13308629393577576,-0.2855003774166107,-0.09848251193761826,0.9213541150093079,0.11093583703041077,-0.1831504851579666,0.5333467721939087,-0.3470771014690399,0.11257144808769226,-0.04987850412726402,0.5119102001190186,-0.5161756873130798,-0.34616711735725403,-0.42801156640052795,-0.020995890721678734,-0.05094977840781212,-0.44607749581336975,0.1312466412782669],[-0.10279449820518494,1.0344386100769043,1.4731084108352661,-1.2886384725570679,-0.381246417760849,-0.6948792338371277,0.2261112928390503,-0.20562930405139923,0.1519279181957245,-0.9176779389381409,0.8127768039703369,0.29706597328186035,0.559518575668335,-0.06426510214805603,-0.16908825933933258,-0.7249436974525452,-0.045630063861608505,0.26849550008773804,0.4876246750354767,-0.07308933883905411,-0.9537508487701416,0.09825462102890015,0.21164390444755554,0.3075755834579468,0.40616267919540405,-0.04737026244401932,0.11714498698711395,-1.2316131591796875,0.14030498266220093,-0.05422809347510338,0.31465229392051697,-0.6215046644210815,0.7850605249404907,-0.6726610064506531,-0.0998244509100914,-0.6139350533485413,-0.07545654475688934,-0.3086148798465729,0.17330707609653473,-0.24479570984840393,0.01671983301639557,0.4771431088447571,-0.6281837821006775,-0.10653764009475708,-0.3304443657398224,-0.43960079550743103,-0.23601636290550232,0.7112303376197815,-0.9125444889068604,-0.23029033839702606,-0.2963374853134155,-0.1738329529762268,-0.285442590713501,-0.23428690433502197,-0.21140439808368683,-0.49381589889526367,0.14567427337169647,0.6781926155090332,-0.990821123123169,0.8044140934944153,-0.30236947536468506,0.13686758279800415,0.01549516711384058,0.010330024175345898,0.031537871807813644],[0.6579676270484924,-0.3381313979625702,-0.91715008020401,-0.3205392360687256,0.466884970664978,0.3515741229057312,-0.07102517783641815,0.3782520890235901,-0.6874071359634399,0.18118958175182343,-0.3262474834918976,-1.2818793058395386,0.29640907049179077,-0.06422574073076248,-0.7095707058906555,0.11788393557071686,0.07749537378549576,0.4939960837364197,-0.6023716330528259,0.05636981874704361,0.10824094712734222,0.033345624804496765,0.36893028020858765,-0.09815795719623566,0.43860557675361633,-0.035386815667152405,0.003338512731716037,0.34122034907341003,-0.35586830973625183,0.32560455799102783,-0.04585152491927147,0.7622723579406738,-1.1060270071029663,0.2188553512096405,-0.6634083390235901,0.01620096154510975,0.48451003432273865,1.2224609851837158,-0.5741862058639526,-0.48199307918548584,0.049520496279001236,0.030457548797130585,0.07129937410354614,0.005887032952159643,-1.3074949979782104,-0.3805431127548218,-0.004922392778098583,-0.5893598794937134,0.4325287640094757,0.10988005995750427,-0.33730247616767883,0.05484515056014061,-0.1382550448179245,-0.46521100401878357,0.30153411626815796,0.09706661850214005,0.11035027354955673,0.15151451528072357,1.2650904655456543,0.1484586000442505,-0.5349624752998352,0.07284659147262573,-0.3101861774921417,-0.026719940826296806,0.20034147799015045],[-0.08062400668859482,-0.10863921791315079,-0.9984692931175232,-0.7792364358901978,0.3096802532672882,-1.165798306465149,1.294026255607605,-0.1180439442396164,0.4300573170185089,-0.2113824039697647,-0.30337825417518616,-0.49394044280052185,0.32212206721305847,0.044421058148145676,-0.10456597059965134,-0.6161083579063416,-0.41623446345329285,-0.4913625717163086,-0.2503889203071594,-0.05713183432817459,-0.8952128887176514,-0.23229920864105225,-0.10004423558712006,-0.6268068552017212,0.16161388158798218,-0.11695476621389389,-0.3422771096229553,0.9535533785820007,-0.31769853830337524,-0.017763009294867516,0.4019671380519867,-0.6932015419006348,-1.2910157442092896,-0.0632719174027443,-0.5724679231643677,0.0051049436442554,0.20153464376926422,-0.10834856331348419,-0.4803217947483063,-0.6494780778884888,0.2466762661933899,-1.410905122756958,-0.08964087069034576,0.29334473609924316,-0.8176215887069702,-0.3219657242298126,0.16071631014347076,-0.3996715247631073,0.16553491353988647,0.04595274105668068,-0.8913102149963379,0.029097601771354675,0.13285203278064728,-0.21353523433208466,-0.7546393275260925,-0.7341572046279907,-0.01230247225612402,-0.8874686360359192,0.10611220449209213,0.47773653268814087,0.612703263759613,-0.1298961043357849,0.1535595953464508,-1.3042253255844116,0.1342446357011795],[-0.49507519602775574,-0.5873795747756958,-1.0257542133331299,0.9641982913017273,0.8757421374320984,0.15553244948387146,0.2950843274593353,0.3683248460292816,-1.5471962690353394,0.40992021560668945,-0.042290959507226944,-0.2594781816005707,-0.40791743993759155,-0.11068428307771683,0.1902795433998108,0.3756147623062134,0.1779758334159851,-0.07104551047086716,0.3921988010406494,0.05172738432884216,0.4008159041404724,0.7680843472480774,0.06940370798110962,0.14158309996128082,0.7604313492774963,-0.06885380297899246,0.27841717004776,-0.3758217990398407,0.3995044231414795,0.4261007010936737,0.02319873496890068,-1.1255815029144287,0.2964552938938141,0.3868454694747925,0.34536513686180115,-0.12067107856273651,0.4838194251060486,0.17249256372451782,0.6132434606552124,0.1556498408317566,-0.2849368751049042,0.3613557815551758,0.8097295165061951,-0.3871951997280121,0.63739413022995,-0.9511751532554626,-0.2273220270872116,0.041078586131334305,0.7634874582290649,-0.2642543911933899,-0.09165529161691666,0.9280386567115784,-0.18815961480140686,0.2114172875881195,0.5457965135574341,-0.7096030712127686,-0.3300726115703583,0.906950056552887,0.6315335035324097,0.7111768126487732,-0.034164536744356155,-0.17494793236255646,-0.01484847441315651,0.1045110747218132,0.38970959186553955],[0.714481770992279,0.4901702105998993,0.37749189138412476,-0.06819632649421692,-0.7071738243103027,1.0409406423568726,-1.0241644382476807,-0.14413954317569733,-0.6314614415168762,-0.8664666414260864,-0.31565147638320923,0.3049701750278473,-0.54224693775177,-0.045945726335048676,-0.053663384169340134,0.317339152097702,-0.07881726324558258,-0.4626356363296509,-0.02669425494968891,0.035801298916339874,-0.588893473148346,0.40499231219291687,-0.04167955368757248,-0.5073326230049133,-0.05376244708895683,-0.03681670501828194,-0.3892569839954376,0.06404627859592438,-0.13486617803573608,-0.44931530952453613,0.13488106429576874,-0.0684666782617569,1.2981475591659546,-0.6554652452468872,0.13343720138072968,-0.4629001021385193,-0.678013801574707,-0.4991346299648285,-0.36821725964546204,-0.28769850730895996,-0.3739551901817322,0.04399750754237175,-0.8598204255104065,-0.25598829984664917,0.5471310615539551,0.3913704752922058,-0.20823565125465393,0.18975484371185303,-0.827485978603363,-0.23480969667434692,-0.4272054135799408,-0.05332394689321518,-0.13490380346775055,-0.40339136123657227,-0.7738211750984192,1.2714858055114746,0.1847986876964569,0.40874847769737244,-0.4794938564300537,-0.3731987178325653,-0.8827162981033325,-0.47522130608558655,0.33378708362579346,0.9603320360183716,-0.11571461707353592],[-0.21278472244739532,0.2916554808616638,-0.9058742523193359,0.45888209342956543,0.9309675693511963,-0.5900765061378479,-1.3665626049041748,0.686972439289093,-0.667550802230835,-0.6469694375991821,0.048530470579862595,-0.01791234314441681,-0.882353663444519,-0.06282179057598114,-0.13821114599704742,0.37425631284713745,-0.39976391196250916,-0.5857423543930054,-1.1830687522888184,-0.08390474319458008,0.07805068790912628,-0.12366296350955963,-0.943673312664032,-0.8444979190826416,-0.8723585605621338,-0.040475212037563324,2.939183235168457,0.569196879863739,-0.053488753736019135,0.9136722087860107,0.809917151927948,0.6148135662078857,1.2711725234985352,-0.21781693398952484,-0.03496813401579857,0.3177892863750458,0.08267945051193237,-0.5982339978218079,-0.22513699531555176,-0.4937235713005066,0.030257223173975945,-0.4854881763458252,0.24999608099460602,-0.20189328491687775,0.7468224763870239,-0.06408597528934479,-0.06254647672176361,0.12844997644424438,0.28302979469299316,-0.16046635806560516,-0.13106831908226013,0.2049342840909958,-0.05717861279845238,-0.13159435987472534,-0.3935219347476959,-0.5152619481086731,-0.16373877227306366,-0.08040737360715866,-0.5028367638587952,-0.44600361585617065,0.11588214337825775,0.15215612947940826,0.21319276094436646,-0.7009241580963135,0.5819100737571716],[0.0699223205447197,0.08458974957466125,-0.6275792717933655,0.5008546113967896,-0.1962045431137085,0.12630657851696014,0.8735333681106567,-0.014582974836230278,-0.7864912152290344,-0.6501414775848389,-0.5211575031280518,-1.3918744325637817,0.4745458662509918,-0.10348187386989594,0.2545306384563446,-0.11554214358329773,-0.4773828387260437,-0.12025689333677292,0.8401782512664795,0.12382293492555618,-0.5775741338729858,-0.8779050707817078,0.9828934073448181,0.5348186492919922,1.2199548482894897,-0.05518290773034096,-1.4774333238601685,-0.5386495590209961,0.3399871587753296,0.1606191098690033,0.13911771774291992,-0.5307612419128418,0.6914904713630676,0.05200619623064995,-0.35180750489234924,-0.4007761776447296,0.10725103318691254,0.6506382822990417,-0.6801738739013672,0.6383398771286011,-0.21511097252368927,-0.15202699601650238,0.1348748505115509,-0.22305624186992645,-0.7559815049171448,0.9771617650985718,-0.08543291687965393,0.04958181083202362,0.4800676107406616,-0.14471368491649628,-0.6833499073982239,0.4106311798095703,-0.22653837502002716,-0.3490848243236542,-0.5907705426216125,-0.29077544808387756,-0.12585318088531494,0.6010462045669556,0.5113688707351685,0.3537779748439789,0.09490963071584702,0.3035818934440613,0.14791014790534973,-0.1515938639640808,0.10078033059835434],[-0.1681799292564392,0.15067578852176666,-0.6371806263923645,-0.2822380065917969,0.3737991154193878,0.7679261565208435,0.903732180595398,0.5289890766143799,-0.5846012830734253,0.6002092361450195,-0.34913143515586853,-0.9972033500671387,-0.31063026189804077,-0.04602116718888283,0.43664759397506714,-0.23978041112422943,-0.23546713590621948,-0.10876616090536118,0.812465488910675,-0.028256429359316826,0.8651898503303528,0.21951617300510406,0.2204223871231079,-0.007238995749503374,0.8304683566093445,0.06288714706897736,-0.625413179397583,-0.24585074186325073,0.3245573341846466,-0.5426857471466064,-0.16116903722286224,0.4499087631702423,0.32630398869514465,-0.22627967596054077,-0.08733542263507843,-0.21347852051258087,0.15369008481502533,-0.7635812759399414,-0.056307096034288406,0.9084994196891785,0.07182518392801285,0.6622775793075562,0.8199818730354309,0.04537438601255417,-0.3820857107639313,-0.06055530533194542,-0.0714842826128006,0.3045443892478943,0.20842671394348145,-0.11509721726179123,-0.18452832102775574,0.3239600956439972,-0.09344642609357834,0.08218622207641602,0.2064097672700882,-0.8414581418037415,0.048856209963560104,1.1569970846176147,0.01761758141219616,0.9684330821037292,1.3131462335586548,0.19478285312652588,0.4248853623867035,0.19999338686466217,0.27634871006011963],[-0.36281898617744446,-0.36463186144828796,0.718916654586792,0.9053040146827698,0.23185360431671143,-0.3542928397655487,-0.3808029294013977,0.6325380802154541,1.0446109771728516,0.23862138390541077,0.7070708870887756,1.0433412790298462,0.3177904188632965,0.11190256476402283,0.7362561225891113,0.18713928759098053,0.07782229781150818,-0.15648753941059113,-0.03178248926997185,0.08541285246610641,0.43257179856300354,-0.23027798533439636,0.2721979320049286,0.514246940612793,-0.05159888416528702,0.004354814533144236,0.6827066540718079,0.5979201793670654,0.4527219831943512,0.455402672290802,0.29659396409988403,0.004266837611794472,-1.1527668237686157,0.4013940393924713,1.1468271017074585,0.3233658969402313,-0.40628722310066223,-0.5705479979515076,0.4417273998260498,-0.3023521304130554,0.28835979104042053,0.048616260290145874,-0.2892458140850067,0.22468851506710052,0.599138617515564,-0.13508771359920502,0.1710261106491089,-0.255293607711792,0.3388744294643402,0.2073722779750824,0.3968378007411957,0.013445605523884296,0.03721346706151962,0.5888328552246094,0.7646133899688721,-0.0741729587316513,0.023840315639972687,-0.779991865158081,-0.09816403687000275,-0.6333521604537964,-0.5785762071609497,0.04430992528796196,-0.5509335994720459,-0.38184869289398193,0.2039714753627777],[0.5364583730697632,-0.34480026364326477,-0.13697059452533722,0.5811989903450012,-0.030269451439380646,0.5208994150161743,-0.9412832260131836,0.018881313502788544,-1.0728639364242554,-0.15334327518939972,-0.08468401432037354,-1.110941767692566,-0.5755113363265991,-0.07233031094074249,-0.5034492015838623,-0.7459913492202759,0.41562414169311523,0.49316930770874023,-0.19078132510185242,0.07762998342514038,-0.272988498210907,-0.11484651267528534,0.43853098154067993,0.38809531927108765,-0.9827176928520203,0.1078873723745346,-1.6071751117706299,-1.0782928466796875,-0.2147783786058426,-0.11555067449808121,-0.5405599474906921,-0.04069558158516884,0.08640727400779724,-0.300253689289093,0.36930564045906067,-0.39675235748291016,-0.37428247928619385,-0.08037622272968292,-0.055115390568971634,0.2153259813785553,-0.4278137683868408,0.5903341770172119,0.3542833626270294,-0.17047961056232452,-0.28741031885147095,0.6619813442230225,-0.14413821697235107,-0.3400800824165344,0.8301636576652527,-0.11031228303909302,0.5125834941864014,-0.06085903197526932,-0.21617265045642853,-0.5268492698669434,-0.11070408672094345,1.0155003070831299,-0.09211049228906631,-0.17602984607219696,-0.3624919056892395,-0.5594176650047302,-0.199925497174263,-0.025525344535708427,-0.5619063973426819,0.8029175400733948,-0.32605692744255066],[0.41423630714416504,0.37420853972435,0.1599200963973999,0.19220612943172455,-0.09739498049020767,0.9957899451255798,0.06934074312448502,-0.12732751667499542,-0.5393435955047607,0.30007070302963257,-0.1593369096517563,-1.1417559385299683,-0.688218891620636,0.12132590264081955,-0.48534324765205383,-0.15581807494163513,0.2249288260936737,-0.08347944915294647,-0.1864737868309021,0.020619191229343414,-1.0044066905975342,-0.5218433141708374,-0.10695375502109528,-0.3590960204601288,-0.6233136653900146,0.10850585997104645,-1.040636420249939,-0.6679345965385437,0.13384783267974854,0.04981828108429909,0.48416686058044434,-0.28891634941101074,0.7907941341400146,0.08530296385288239,-0.31576332449913025,0.241531103849411,0.41524752974510193,-0.141009122133255,-0.10478973388671875,-0.15555889904499054,-0.09602491557598114,0.45838287472724915,-0.6351481080055237,-0.08213967084884644,-0.3235553503036499,0.20336535573005676,0.0025428629014641047,0.12371381372213364,-0.1836133748292923,-0.20131754875183105,-0.8060992360115051,0.03464763984084129,0.31230977177619934,0.08764693886041641,0.08730857819318771,0.7604803442955017,0.5035463571548462,0.3276657462120056,0.32041093707084656,0.4422776699066162,0.4553288221359253,0.30432915687561035,0.35797223448753357,0.5770639777183533,0.31569963693618774],[0.050121620297431946,-0.6724863648414612,-0.17928875982761383,-0.6073102355003357,-0.6408991813659668,0.7229090929031372,1.145551085472107,-0.27402016520500183,-0.558319091796875,0.1349111646413803,-0.10303078591823578,1.277855634689331,0.5447417497634888,-0.09350311011075974,0.1304415762424469,0.8547236919403076,-0.017825432121753693,-0.29941418766975403,0.4791563153266907,0.07354746013879776,-0.13038824498653412,-0.09430134296417236,-0.2832473814487457,-0.20273496210575104,-0.6703006029129028,-0.07216856628656387,-0.45791545510292053,-0.040369413793087006,0.5279521942138672,-0.4134175479412079,-0.36495286226272583,-0.5127418041229248,0.6325371861457825,0.08369125425815582,0.20396116375923157,0.5780551433563232,0.07536870986223221,0.738010823726654,-0.08360888808965683,0.9198989868164062,-0.5516241192817688,0.04509206488728523,0.6705616116523743,-0.19922851026058197,0.21995232999324799,-0.07838360220193863,-0.20199955999851227,-0.2806031405925751,-0.3039122223854065,-0.21094004809856415,0.10732173919677734,0.22333760559558868,-0.312578946352005,-0.6329535245895386,0.80412358045578,-0.30144333839416504,-0.31352493166923523,-0.11566431820392609,-0.35388270020484924,0.1167990192770958,0.6116898655891418,0.24395647644996643,-0.18878765404224396,0.15288302302360535,-0.31271299719810486],[0.09322532266378403,-0.3535609245300293,1.0125646591186523,-1.2735158205032349,0.08188040554523468,-0.02185923047363758,1.4705554246902466,-0.1948704868555069,1.0652023553848267,1.3788686990737915,-0.016367068514227867,0.07565618306398392,1.050086259841919,-0.037224963307380676,0.568679690361023,0.8577172160148621,-0.31418198347091675,-0.11134977638721466,0.5886377096176147,0.030223408713936806,0.8247204422950745,0.39770323038101196,0.10242163389921188,-0.1802069991827011,1.1786301136016846,0.10556624084711075,-0.6204090714454651,0.4034692943096161,0.1564820557832718,-0.36787253618240356,-0.021984893828630447,-0.07243340462446213,-0.11813148111104965,0.3770509958267212,-0.32873132824897766,-0.8052025437355042,-0.22853600978851318,0.7383354902267456,0.30943676829338074,1.0121431350708008,-0.18985897302627563,0.30449816584587097,0.8677356839179993,0.08104968816041946,-0.08207032829523087,-0.211187943816185,-0.10098177194595337,-0.19673697650432587,-0.2656782865524292,-0.07061941921710968,0.619719386100769,-0.7257408499717712,0.061505962163209915,0.21312420070171356,1.1167690753936768,-0.520938515663147,0.18367400765419006,-0.47115230560302734,0.307200163602829,0.562656581401825,0.1433124542236328,-0.03231418505311012,0.2713339328765869,0.1085490807890892,-0.3019334673881531],[-0.4672873914241791,-0.0971914753317833,-0.4146959185600281,0.3596349060535431,0.34647488594055176,-1.0451101064682007,-0.9151028394699097,-0.2501415014266968,0.6040450930595398,-0.10951929539442062,0.31902971863746643,0.022808056324720383,-0.04614434763789177,-0.10737708956003189,0.2854533791542053,0.5645624399185181,-0.06870873272418976,0.37166187167167664,0.5922730565071106,-0.019096771255135536,0.4795892536640167,0.13659773766994476,0.040084537118673325,0.2533441185951233,0.16771867871284485,-0.1234087198972702,1.8363145589828491,-0.06102326512336731,0.5524923801422119,0.24083058536052704,-0.13449940085411072,0.5925216674804688,-0.980128288269043,0.2952704429626465,0.8823051452636719,0.927138090133667,0.3487735092639923,1.0434341430664062,-0.14940674602985382,-0.217673659324646,-0.023524951189756393,-0.17635975778102875,-0.3159451484680176,0.06613646447658539,0.17570142447948456,0.5521396398544312,0.09674707055091858,-0.29628533124923706,0.0286849457770586,-0.024909595027565956,0.600659191608429,0.06802120804786682,0.01708531379699707,0.34279584884643555,-0.2716129422187805,1.3808226585388184,-0.048624057322740555,-0.11176566034555435,-0.10113172233104706,-0.7534837126731873,-0.8461501598358154,0.23580971360206604,-0.036781951785087585,-0.19241468608379364,-0.05878867581486702],[0.3544970154762268,0.06277552992105484,-0.84673011302948,0.28487202525138855,0.04665340855717659,0.2440652698278427,-0.5706743001937866,-0.10950656980276108,-0.698079526424408,0.5108603239059448,-0.7801005244255066,-0.7588405013084412,-0.16400395333766937,0.06222391501069069,-0.09650609642267227,-0.4158909022808075,-0.26701316237449646,-0.9676598906517029,-0.3705134987831116,0.011542407795786858,-0.21555450558662415,0.8988326787948608,-0.8663961291313171,-0.5488260388374329,-1.0037972927093506,0.036595046520233154,-1.037846326828003,0.6341251134872437,-0.32244667410850525,0.06602153927087784,0.07349295169115067,0.43158257007598877,-0.3217002749443054,0.6127409338951111,-0.4065883755683899,-0.11459001898765564,-0.03242749348282814,1.4440679550170898,0.05018242076039314,-0.6753492951393127,0.15631583333015442,0.9235988855361938,-0.1838304102420807,-0.11306466907262802,-0.5008377432823181,0.10304184257984161,0.04859403148293495,0.4806917607784271,-0.40918979048728943,-0.19711604714393616,-0.130454421043396,0.21914838254451752,-0.045513518154621124,0.32458460330963135,0.42184826731681824,0.21502713859081268,0.012751325964927673,0.42749497294425964,0.5354702472686768,-0.5054779648780823,-0.02150602452456951,0.07709991186857224,-0.14264817535877228,-0.4975549280643463,0.088069386780262],[-0.03150993958115578,-0.27224254608154297,-0.6456541419029236,-0.06845852732658386,0.4933711290359497,0.9523907899856567,-0.20740759372711182,0.15609265863895416,-1.0653575658798218,0.8550397753715515,-1.028259038925171,-1.8139656782150269,-0.832912027835846,0.06365516036748886,0.2205641120672226,0.4608331620693207,-0.042587947100400925,-0.2196536362171173,0.514510989189148,-0.0026368186809122562,-0.37518203258514404,0.5296350121498108,-0.7698818445205688,-0.6662898659706116,-0.8416088819503784,-0.07525534182786942,0.3143925368785858,-0.1257699429988861,-0.19753918051719666,0.1682632565498352,0.6107615232467651,0.9889584183692932,-0.016133366152644157,-0.014282693155109882,0.3452960252761841,-0.19458742439746857,0.814884603023529,0.19741877913475037,0.0414147712290287,0.0465516671538353,0.058024048805236816,0.39359748363494873,0.3293881416320801,0.08704155683517456,-0.27506768703460693,0.4890897274017334,0.016396868973970413,-0.12397006154060364,0.4268399178981781,0.0038607337046414614,-0.7665086388587952,0.18245333433151245,0.2674081325531006,-0.18362846970558167,0.2850290834903717,0.35962095856666565,-0.21709610521793365,0.8747435808181763,0.19097603857517242,0.2111668586730957,-0.08697300404310226,0.388765424489975,0.4892946481704712,-0.8137357831001282,0.5072242617607117],[-0.2762784957885742,0.017366185784339905,-0.192794069647789,-0.5247049927711487,0.4888962209224701,-1.7091559171676636,-0.6129646301269531,0.15559320151805878,1.367110013961792,-0.5592342615127563,0.45660609006881714,1.5449223518371582,0.6342676281929016,0.08590608835220337,-0.25257644057273865,-0.38498160243034363,0.21722204983234406,0.503123939037323,0.01241185050457716,-0.0479436069726944,-0.21978512406349182,-0.22969794273376465,0.3364185094833374,-0.055320266634225845,-0.19103609025478363,0.07255495339632034,0.29048898816108704,0.790695071220398,-0.2735776901245117,0.6889474987983704,0.28066104650497437,0.20860056579113007,0.5426445007324219,-0.1759287565946579,-0.11329968273639679,0.3503522574901581,0.013351378031075,0.3151954412460327,0.2308390736579895,-0.2958211302757263,-0.09229781478643417,0.0636649802327156,-0.011394123546779156,-0.03984551876783371,0.1390122026205063,0.11895015090703964,0.14231352508068085,0.23426081240177155,0.24593332409858704,0.21601836383342743,0.41246217489242554,-0.27841949462890625,-0.014703323133289814,-0.006800106726586819,-0.33549806475639343,0.3276652693748474,-0.011809324845671654,0.3592565953731537,0.14261600375175476,-0.6878933906555176,-0.6415179371833801,-0.0998227521777153,-0.36305341124534607,-0.5246466994285583,0.20903530716896057],[-0.14541544020175934,0.46407246589660645,0.8275458812713623,0.6608661413192749,-0.3239426612854004,0.43050915002822876,0.46202361583709717,-0.026729939505457878,-0.5581865906715393,-0.6311572790145874,-0.39092063903808594,-1.1529687643051147,-0.03156113624572754,0.09636955708265305,-0.590786874294281,0.11611535400152206,-0.3097878396511078,-0.11637144535779953,-0.4674183428287506,0.057321421802043915,-0.5614790320396423,1.3125108480453491,-0.5943272709846497,-0.8345033526420593,-0.003991382662206888,-0.0749431774020195,-2.230919361114502,-0.19018664956092834,-0.37434884905815125,-0.33940500020980835,0.2899002134799957,0.4395737648010254,0.7450995445251465,-0.011188700795173645,-0.6278042793273926,-0.47042834758758545,-0.08360673487186432,-0.24464675784111023,-0.37450453639030457,-0.2201177477836609,-0.21842451393604279,0.6322249174118042,-0.5329993367195129,-0.16667023301124573,-0.09729865938425064,-0.0600515715777874,-0.12018777430057526,0.05558917671442032,0.19136033952236176,0.06783178448677063,-0.3061085045337677,0.14890852570533752,-0.25272896885871887,-0.44912320375442505,-0.2648792862892151,-1.2909122705459595,-0.35126498341560364,0.238637775182724,0.23048220574855804,0.41489875316619873,-0.3925076723098755,-0.15191537141799927,0.11024735122919083,-0.6362389326095581,0.14698509871959686],[0.1357104778289795,-0.046974584460258484,-0.9227764010429382,-0.11790522187948227,0.27154046297073364,1.10995352268219,-0.6661370396614075,0.014328704215586185,-0.9537251591682434,0.3365005552768707,-0.37765762209892273,-0.7070885896682739,-1.18953537940979,-0.050181999802589417,-0.19048067927360535,-0.04087808355689049,-0.21689234673976898,-1.173763632774353,-0.4395448863506317,-0.07666010409593582,0.390560120344162,1.3041354417800903,-0.8638204336166382,-1.1236950159072876,-0.5244445204734802,0.11991828680038452,0.030547302216291428,0.5039741396903992,-0.2357063740491867,0.35507023334503174,0.6701272130012512,0.052960801869630814,0.13888458907604218,0.5539569854736328,0.048689212650060654,0.15067404508590698,0.49155405163764954,0.31308698654174805,-0.024063654243946075,-0.41530904173851013,-0.030634401366114616,0.6055130362510681,-0.37487974762916565,-0.04426601901650429,0.06540565192699432,-0.18536697328090668,0.008292091079056263,-0.05946441367268562,-0.01336726825684309,0.028660668060183525,0.23616158962249756,0.3241674602031708,-0.07746956497430801,-0.47464752197265625,0.053579237312078476,-0.0427914559841156,0.0392613559961319,-0.31221580505371094,-0.20456796884536743,-0.24025391042232513,-0.44058167934417725,0.2194170504808426,0.1949547827243805,-0.19158080220222473,0.3755268454551697],[-0.1602775901556015,0.5387743711471558,-0.62068110704422,-0.4032854735851288,-0.3715457618236542,-0.7120248079299927,1.0277079343795776,0.5041336417198181,-0.41906702518463135,-0.3198716938495636,-0.04723462462425232,-0.04473043605685234,0.14684730768203735,-0.024005116894841194,0.4294029176235199,0.43406426906585693,-0.5473487973213196,-0.4720076620578766,-0.11409103125333786,0.03542960807681084,-0.30810073018074036,0.47347012162208557,-0.42859557271003723,-0.35324376821517944,-0.11765788495540619,-0.08453967422246933,0.3047669529914856,-1.171528697013855,1.0836683511734009,0.08407749980688095,-0.2391321063041687,0.8871612548828125,0.8978500366210938,-0.15030676126480103,0.6586782932281494,0.19560204446315765,0.28483912348747253,0.8619582653045654,-0.17924761772155762,-0.41460660099983215,-0.18076986074447632,0.1046508327126503,0.12035106122493744,-0.3263173997402191,0.373228520154953,0.16115301847457886,-0.16557268798351288,0.27723297476768494,0.32685479521751404,-0.2799864113330841,0.3311965763568878,-0.5252456068992615,-0.050816308706998825,-0.1126323938369751,-0.7889233231544495,0.16452962160110474,0.08930112421512604,0.6266616582870483,-1.5400731563568115,-0.25002601742744446,-1.067242980003357,0.2867129445075989,0.6142187714576721,-0.3656933307647705,0.1551467627286911],[-0.15529756247997284,0.10109962522983551,0.5012804865837097,0.2071089744567871,0.005855564959347248,-0.22480571269989014,2.220506429672241,0.10098658502101898,0.6936959624290466,-0.2143813520669937,-0.5127935409545898,-0.8728505969047546,-0.10488904267549515,0.041207730770111084,-0.052391599863767624,-0.1759226769208908,-0.09328428655862808,-0.24164460599422455,-0.8910039663314819,-0.11954957991838455,-0.6783409714698792,0.5486522912979126,-0.9577924013137817,-0.20524533092975616,-0.06494574248790741,0.02744816243648529,0.15153980255126953,1.06049644947052,-0.5509703159332275,0.571013331413269,0.45096853375434875,0.215106800198555,-0.2547822594642639,0.22593000531196594,-0.40215054154396057,-0.2038208693265915,-0.2309034913778305,-0.09859628975391388,0.20590271055698395,-0.6067757606506348,0.20746108889579773,0.27826663851737976,-0.7448137998580933,0.04803004860877991,-0.05216318741440773,-0.028801079839468002,0.1047404333949089,-0.43707558512687683,0.08442766964435577,0.026463564485311508,-0.2836807072162628,0.20855027437210083,0.026269618421792984,-0.11680962145328522,-0.46388912200927734,-0.3012235462665558,-0.2488044798374176,-0.14929543435573578,-0.401047945022583,-0.3134922683238983,-0.9982051253318787,-0.23625588417053223,0.41140222549438477,-0.3715861439704895,0.1402667760848999],[0.4433770477771759,-0.35106807947158813,0.04274291545152664,0.39517515897750854,0.38092881441116333,0.4052560031414032,-0.7730341553688049,-0.07157836109399796,-0.4502793550491333,0.22069360315799713,-0.01799357868731022,-0.095522440969944,-0.22783058881759644,0.07328227162361145,0.2614872455596924,-0.002523448783904314,0.8890252113342285,1.1111373901367188,0.2889591455459595,0.030887600034475327,0.012241261079907417,-0.06498777121305466,1.197237491607666,1.2163312435150146,0.3882756233215332,0.008102704770863056,-0.13894835114479065,-0.3320299983024597,-0.04479736089706421,-0.19131608307361603,-0.3331560492515564,0.09892838448286057,0.237187460064888,0.18232427537441254,0.7579230070114136,-0.6296408772468567,-0.630685567855835,-0.5502917170524597,0.002661988139152527,0.5044898390769958,-0.30940449237823486,0.28431427478790283,0.10663465410470963,-0.21376189589500427,0.3036762475967407,0.02192678116261959,-0.05538135766983032,-0.2240845412015915,0.08561912924051285,0.01042820792645216,0.37094199657440186,0.15455959737300873,-0.09218975156545639,-0.5278199911117554,0.35383933782577515,1.400944709777832,0.3069014549255371,-0.021008413285017014,-0.08480726182460785,-0.6289295554161072,-0.191999152302742,-0.20073659718036652,-0.5899624824523926,1.3581249713897705,-0.45893800258636475],[0.10170281678438187,-0.44991201162338257,1.0167096853256226,-0.3217538595199585,0.43500518798828125,-0.4991348385810852,1.1214244365692139,-0.41022562980651855,-0.7234306335449219,0.0876801460981369,0.12104980647563934,-0.7917518615722656,0.45299649238586426,-0.11977579444646835,-0.13110767304897308,0.16726472973823547,0.31083667278289795,0.2744492292404175,0.585377037525177,0.02351556532084942,-0.36645692586898804,0.9554170370101929,0.7045081257820129,0.8495864868164062,0.08951651304960251,0.09249238669872284,-1.6978071928024292,0.37549349665641785,0.5056705474853516,0.3796835243701935,0.08677765727043152,-0.8821941018104553,-0.8060089945793152,0.79471755027771,0.17625771462917328,-0.17306126654148102,0.26702284812927246,-1.0726490020751953,-0.6873430013656616,-0.636771559715271,0.6771236062049866,-0.8082082271575928,-0.04782000184059143,0.6597057580947876,-0.6713733673095703,-1.2535600662231445,0.59044349193573,-0.9950631260871887,-0.2675209641456604,0.4299814701080322,-0.20814169943332672,0.07126832753419876,0.36566755175590515,-0.5687585473060608,-0.10374167561531067,0.5621863007545471,0.40976324677467346,-0.5316122174263,0.5814642310142517,-0.45033013820648193,0.2501648962497711,0.26194775104522705,-0.0658617615699768,0.1807004064321518,0.06329727917909622],[-0.6066121459007263,-0.1759321242570877,-0.32378336787223816,0.45198848843574524,1.1253790855407715,-1.4251961708068848,-1.559926152229309,0.48511019349098206,0.10095061361789703,0.35430896282196045,-0.06653645634651184,-1.4287691116333008,-0.8256083130836487,0.07758133858442307,1.0410559177398682,-0.33092597126960754,-0.2718369960784912,-0.173566997051239,0.17531339824199677,0.10768094658851624,0.17160280048847198,-0.2718566060066223,0.5650415420532227,0.4349510371685028,0.9361376166343689,-0.059654269367456436,1.155430555343628,0.3777848780155182,0.5188758969306946,0.03294675797224045,-0.04349813982844353,0.1762733906507492,-1.1407866477966309,0.4033433794975281,0.535365104675293,-0.2890220880508423,0.1201082170009613,-0.3442534804344177,0.7298526167869568,-0.21819452941417694,-0.0931081622838974,-0.44830086827278137,0.5344347357749939,-0.251171350479126,0.31571799516677856,-0.052911028265953064,-0.33454859256744385,0.3691748380661011,0.6625538468360901,-0.2849423885345459,0.35720789432525635,0.5712049603462219,-0.11903458833694458,0.7648350596427917,-0.26889103651046753,-0.21835725009441376,-0.22566840052604675,0.7981369495391846,1.1991057395935059,-0.1468632072210312,0.06064792722463608,0.08450628817081451,0.013026947155594826,-0.5883164405822754,0.33796069025993347],[0.15182404220104218,0.03540222346782684,-0.5035507678985596,-0.337075412273407,0.7904977202415466,-1.516725778579712,-0.30919644236564636,0.429558128118515,0.14173740148544312,-0.024253614246845245,0.1610776036977768,0.5165502429008484,0.7143669128417969,0.06506194174289703,0.03994538262486458,0.2412245124578476,-0.3314032554626465,-0.40113312005996704,0.030401131138205528,-0.014862418174743652,0.2610025107860565,0.38041096925735474,-0.6202996373176575,-0.6358072757720947,-0.9408662915229797,-0.0903158038854599,0.33791887760162354,1.2392851114273071,-0.7354740500450134,0.07753226161003113,0.17966024577617645,1.1219557523727417,-0.8934644460678101,0.7774210572242737,0.06888355314731598,0.28622597455978394,0.17436188459396362,0.860277533531189,-0.1689998209476471,-0.4298374652862549,0.1138446182012558,-0.3778572678565979,0.10951657593250275,0.08146920800209045,-0.24949122965335846,0.3846965432167053,0.12472213804721832,0.14442937076091766,-0.448595255613327,0.1301804631948471,0.636486291885376,-0.43112483620643616,0.32081371545791626,0.12516911327838898,-0.3228415846824646,0.9643998742103577,0.08825737237930298,-0.10070020705461502,0.6629169583320618,-1.2161872386932373,-0.8997668623924255,-0.20790430903434753,0.5622475147247314,-0.2184820920228958,0.18151356279850006],[-0.11503378301858902,0.42205625772476196,-0.3909098207950592,1.2645624876022339,0.2418794482946396,0.2488342672586441,-0.19768230617046356,0.3850797414779663,0.016888733953237534,0.0344560481607914,0.007337966933846474,-0.3901289105415344,0.6647288799285889,-0.11719371378421783,0.7245163917541504,-0.31083163619041443,0.08324573934078217,0.6506115198135376,0.7575196623802185,-0.04988599941134453,-0.15434902906417847,-0.354515939950943,0.23251661658287048,0.36739224195480347,0.25346285104751587,-0.12323866784572601,-0.3656619191169739,-0.3240343928337097,-0.28241199254989624,-0.09582943469285965,-0.24471622705459595,-0.05479517579078674,0.3603649139404297,-0.6292178630828857,0.3021218478679657,-0.20993424952030182,-0.4289349913597107,-1.0588276386260986,-0.20776717364788055,-0.8408680558204651,0.19578340649604797,0.08703821897506714,0.09048880636692047,-0.054064709693193436,0.595310389995575,0.3261886537075043,0.08909296244382858,0.08745426684617996,0.2108311951160431,0.19459232687950134,0.42358195781707764,-0.822106659412384,0.1768839806318283,0.4829597473144531,-0.4514774978160858,0.5152032971382141,0.2481796145439148,0.23521077632904053,-1.0340090990066528,-0.6638405919075012,-0.6644996404647827,0.27767395973205566,0.08151204884052277,0.36730340123176575,-0.10173214226961136],[0.4105449914932251,0.19306260347366333,0.7468512654304504,-0.26058998703956604,-0.08067858219146729,0.10888897627592087,0.8756791353225708,-0.128040611743927,-1.5130537748336792,-0.10325551778078079,-0.3368188738822937,-0.4708625078201294,-0.45340678095817566,-0.05889880284667015,-0.12794579565525055,-0.7943138480186462,-0.1858033835887909,-0.2936723530292511,-0.25354069471359253,-0.12156764417886734,0.40893733501434326,-0.5048099160194397,-0.24262523651123047,-0.2637668550014496,0.4745461940765381,0.07081081718206406,-1.780357837677002,-0.5136135816574097,-0.4343951344490051,0.20591066777706146,0.04121830686926842,-1.1754119396209717,0.9293012619018555,-0.49055787920951843,-0.505553662776947,-0.3849377930164337,-0.5287908315658569,0.19152849912643433,0.09452077746391296,-0.061491459608078,-0.20565462112426758,0.08808024227619171,-0.14692379534244537,-0.2341095358133316,-0.31913867592811584,-0.1800011247396469,-0.1400427669286728,0.05480007082223892,-0.061757590621709824,-0.27681630849838257,-0.1685621589422226,-0.4510396122932434,-0.15531481802463531,-1.1257312297821045,0.3929364085197449,-0.1389240324497223,-0.24326053261756897,0.18088822066783905,0.5364360213279724,-0.13525918126106262,0.8102595806121826,-0.4845714569091797,-0.3771257698535919,0.13165052235126495,-0.28117749094963074],[0.2162974625825882,0.3646793067455292,0.31308799982070923,1.0159741640090942,0.2979372441768646,0.7037892937660217,-1.263071894645691,0.888350248336792,-0.8026695847511292,-0.7792212963104248,0.07189523428678513,-0.6532323956489563,-1.0589637756347656,0.05721599608659744,-0.4486561119556427,-0.6231711506843567,-0.04703544080257416,-0.2536284923553467,-1.123001217842102,0.07777529209852219,0.42278385162353516,-0.176792711019516,-0.09899115562438965,-0.3438756763935089,-0.4013141393661499,-0.03898521885275841,0.13745073974132538,-0.6508305668830872,-0.3430079519748688,0.4773881733417511,0.5950766801834106,0.4146934747695923,0.4899119734764099,0.3880823254585266,-0.18552419543266296,-0.11454187333583832,0.2857953906059265,-1.2832437753677368,-0.04667920991778374,-0.33431097865104675,0.24884137511253357,0.3430940508842468,-0.09123401343822479,0.14100676774978638,-0.3891235888004303,-0.4772598445415497,0.047574903815984726,-0.09779831022024155,0.23301494121551514,0.2963176667690277,-0.49626174569129944,0.5012130737304688,0.01799076423048973,-0.11014129966497421,-0.3583712577819824,-0.6090729832649231,-0.13615983724594116,0.13366881012916565,-0.4575441777706146,0.1585514098405838,0.00994699727743864,0.6229077577590942,-0.06430941075086594,-0.5201447606086731,0.6107035875320435],[0.016922907903790474,-0.7140519618988037,-1.378465175628662,-0.004562448710203171,-0.07170408964157104,-0.4426867365837097,-0.5730264782905579,-0.14558292925357819,0.3430975079536438,0.5310917496681213,0.21864069998264313,0.7897335886955261,0.2704896032810211,-0.038345497101545334,0.7873789668083191,0.21878425776958466,0.517823338508606,0.35489538311958313,0.32070696353912354,0.032090168446302414,0.7248961925506592,-1.2329378128051758,0.5324399471282959,0.8992371559143066,0.1257825344800949,0.1055213212966919,2.083555221557617,0.21387797594070435,0.16334716975688934,0.10379678755998611,-0.28386542201042175,0.026312360540032387,-0.1541912853717804,0.6441836357116699,0.6921665668487549,0.2160327434539795,-0.35432910919189453,-0.49414151906967163,0.3576754629611969,-0.49071207642555237,-0.02491884119808674,-0.013987082056701183,0.23723016679286957,0.07297340035438538,0.14248380064964294,0.12691952288150787,-0.0626518651843071,0.07842803001403809,-0.22831308841705322,-0.04149569571018219,0.24029982089996338,-0.3211245834827423,-0.010643485002219677,0.26380082964897156,-0.3551027476787567,1.0716214179992676,0.2236405909061432,-0.5160359144210815,-0.2810104191303253,-0.4647989273071289,-0.5309494733810425,-0.03772887960076332,0.03344849497079849,0.8480436205863953,-0.16806308925151825],[0.13814035058021545,0.116744264960289,0.6501165628433228,0.9386939406394958,-0.33948230743408203,0.1557455211877823,-0.33880215883255005,0.01683315820991993,0.04605172574520111,-0.3047138750553131,-0.11248266696929932,-0.3975389003753662,0.021684952080249786,0.04137982428073883,0.5609690546989441,-0.0033025643788278103,0.4501124322414398,0.19351531565189362,0.649513840675354,-0.03302325680851936,-0.3519221544265747,0.14760059118270874,0.501776933670044,0.2213771939277649,0.2997772991657257,-0.03913791477680206,-1.5269345045089722,-0.711750864982605,-0.608725368976593,0.08267050236463547,0.18791081011295319,0.05385032296180725,0.8019694685935974,0.6601487398147583,-0.11868402361869812,-0.8025273680686951,-0.3770400285720825,0.5863813757896423,0.059190258383750916,0.08767358958721161,-0.6020867824554443,0.5559901595115662,0.26579737663269043,-0.5427525639533997,-0.19052155315876007,1.2506930828094482,-0.4719202518463135,0.4780641794204712,1.3619914054870605,-0.3238835632801056,0.1915736049413681,0.37546148896217346,-0.5669382214546204,-0.2258269488811493,-0.6156360507011414,0.6799860000610352,0.2753106951713562,0.3837224543094635,-0.6576372981071472,0.07489914447069168,-0.5762148499488831,0.15936249494552612,0.04303727671504021,0.21576562523841858,-0.20520278811454773],[0.02069273591041565,-0.291744202375412,-0.7216494083404541,0.3593757748603821,-0.21918006241321564,1.269016146659851,-1.2692440748214722,-0.05704697221517563,-0.8800906538963318,0.1393607258796692,-0.3056088387966156,-0.4196508526802063,-0.027231404557824135,0.11803728342056274,0.49861592054367065,-0.41622278094291687,0.6408143043518066,0.22426985204219818,1.150829792022705,0.017215773463249207,-0.5811823010444641,0.2608586847782135,0.6790948510169983,1.0640463829040527,0.8490153551101685,-0.1203751340508461,0.15176929533481598,-0.379081666469574,0.16840171813964844,-0.12942719459533691,-0.1463712751865387,0.3977053165435791,0.44784948229789734,0.5359582304954529,0.4601353406906128,-0.21061183512210846,-0.2724784016609192,0.5367531776428223,-0.4985881447792053,-0.13159795105457306,-0.292938232421875,-0.2819393575191498,0.16018272936344147,-0.11576184630393982,-0.49527281522750854,0.8108393549919128,0.0019549208227545023,-0.2558925449848175,0.41556623578071594,-0.08579842746257782,0.01069197990000248,-0.23476582765579224,0.07992886751890182,-0.08877154439687729,0.04187244176864624,1.177664875984192,-0.026069749146699905,-0.18880411982536316,-0.34241002798080444,-0.67228764295578,0.011265309527516365,0.04426039010286331,-0.39660799503326416,0.7401419281959534,-0.08050227165222168],[-0.2791653573513031,-0.42315027117729187,0.15930311381816864,0.20044530928134918,-0.2666744887828827,0.9577281475067139,-1.632198452949524,-0.3423043489456177,-0.3667205274105072,0.4013828635215759,-0.23974837362766266,0.695709228515625,0.5091666579246521,-0.08464358001947403,1.0720502138137817,-0.0021025207825005054,0.28013014793395996,-0.04392579197883606,0.18779122829437256,0.08061717450618744,-0.05924856290221214,0.5725370645523071,0.5792296528816223,1.1951675415039062,-0.6175732016563416,-0.10872654616832733,0.17905038595199585,-0.5129302144050598,-0.08891867846250534,-0.04466722160577774,-0.15979993343353271,0.112982839345932,0.656806468963623,0.011210833676159382,0.4428786039352417,0.2716396152973175,-0.5940577387809753,0.681142270565033,0.853996992111206,-1.0333904027938843,0.08023030310869217,0.48364144563674927,-0.6864548325538635,0.12123879045248032,0.5212160348892212,-0.3887462019920349,0.1866045743227005,0.7090877890586853,-0.599815309047699,0.048156678676605225,0.18562035262584686,-0.6632041931152344,0.1764126867055893,-0.05292782559990883,0.3547905385494232,1.2947982549667358,0.016334593296051025,-0.09416763484477997,0.023441124707460403,-1.097179651260376,-0.25219133496284485,-0.31314826011657715,-0.46966955065727234,0.5684709548950195,-0.3834439814090729],[-0.017852000892162323,0.049237366765737534,-0.5617470145225525,0.20016002655029297,0.07732332497835159,0.07620514929294586,0.2319227010011673,-0.14683206379413605,-0.41029128432273865,0.3048178255558014,-0.728213906288147,-1.6101452112197876,-0.4824279248714447,0.11454102396965027,0.148349791765213,-0.3363114297389984,-0.1648293286561966,-0.4912012815475464,0.3610345423221588,0.05972921848297119,-0.11180669069290161,0.40112069249153137,-0.4672413468360901,-0.4699808657169342,-0.1383693963289261,0.060577332973480225,0.18330149352550507,0.7860126495361328,0.13056442141532898,-0.09464994072914124,0.7071169018745422,0.7464912533760071,0.37229305505752563,0.3934199810028076,-0.10544659197330475,0.16703499853610992,0.4158354103565216,-0.18489685654640198,-0.28615257143974304,-0.22041338682174683,-0.09490490704774857,0.19756339490413666,-0.5615484118461609,0.026445956900715828,-0.2628827691078186,-0.23514994978904724,-0.1837797313928604,0.1532200276851654,-0.8404685258865356,-0.18117301166057587,-0.6074941158294678,0.2716406583786011,-0.058661822229623795,0.2989256978034973,0.23756368458271027,0.43037039041519165,0.25352951884269714,0.2997278869152069,0.8769455552101135,-0.09013242274522781,0.6563712358474731,0.3479565978050232,0.2875079810619354,-0.3609665632247925,0.23287846148014069],[-0.24904176592826843,-0.24185332655906677,0.8486250042915344,-0.6939993500709534,-0.5118430852890015,0.3578648865222931,-0.06314432621002197,-0.25054678320884705,0.9331920742988586,-0.09223049134016037,0.3747020661830902,1.3215793371200562,0.9778784513473511,0.0633067712187767,-0.31295156478881836,0.5762683153152466,0.06786846369504929,0.6066494584083557,0.14401917159557343,-0.05333247408270836,0.11256028711795807,-0.05519533157348633,0.20579609274864197,0.8098738789558411,0.7890737056732178,-0.021516233682632446,0.9231887459754944,-0.038313306868076324,0.3835608959197998,0.07840244472026825,-0.239486962556839,-0.6669186949729919,0.07024837285280228,0.46790042519569397,0.5289390087127686,0.27595338225364685,-0.23827114701271057,-0.6971274614334106,0.09451499581336975,-0.15255296230316162,-0.05425315350294113,0.1381353884935379,-0.42102375626564026,-0.014228182844817638,0.20010602474212646,-0.760097086429596,-0.13627153635025024,-0.04278102144598961,-0.27125242352485657,0.12142201513051987,0.16287340223789215,0.3262484073638916,0.1587095856666565,0.03019833192229271,0.06815408170223236,-0.18401113152503967,-0.21781860291957855,-0.4416167736053467,-0.5216462016105652,-0.21863394975662231,-0.9342450499534607,0.07834944128990173,-0.3536134362220764,0.24316225945949554,-0.43424126505851746],[0.1645863950252533,0.13897083699703217,0.24607129395008087,1.056888461112976,-0.13290616869926453,0.3576730489730835,0.20679369568824768,-0.16245314478874207,0.4921160042285919,0.4723030626773834,0.532411515712738,1.0444705486297607,0.06784071773290634,0.0927124097943306,0.6237224340438843,-0.7740415334701538,0.095059834420681,0.45126333832740784,-0.545982837677002,0.05860590562224388,0.3302474021911621,0.1784971058368683,0.40990447998046875,0.9261505007743835,-0.007934242486953735,0.03907810524106026,-0.001888362574391067,0.5355662107467651,-0.35423603653907776,0.3788268566131592,-0.6644335985183716,-0.6289680004119873,0.40234842896461487,1.0283095836639404,-0.33738407492637634,-0.13236138224601746,-0.6988356113433838,0.13082510232925415,-0.09263653308153152,-0.7607121467590332,0.8203638792037964,0.0006929373485036194,-1.3007289171218872,0.7228537797927856,0.47427716851234436,-0.9510092735290527,0.8445680141448975,-0.6406218409538269,0.373218297958374,0.8517804741859436,-1.000077486038208,-0.3353921175003052,0.4587324559688568,-0.15298236906528473,0.6857306957244873,0.4373120963573456,0.10213936120271683,0.7574581503868103,0.2308221161365509,0.15339075028896332,-0.7737674117088318,-0.3488038182258606,-0.3435245454311371,0.7694674730300903,-0.4327077865600586],[0.5227383375167847,0.03134474158287048,0.2085285186767578,0.11582033336162567,-0.4261985123157501,0.2792152166366577,-1.2335262298583984,-0.22034476697444916,-1.7108614444732666,-0.4638778567314148,0.2604387104511261,0.12426828593015671,0.12597092986106873,0.08337080478668213,0.11548640578985214,-0.5333937406539917,0.045464303344488144,0.3304150402545929,-0.30749598145484924,-0.023645829409360886,-0.673658013343811,0.282381534576416,0.4464845657348633,0.8849087953567505,-0.049665436148643494,-0.029924433678388596,-1.4944719076156616,-1.155424952507019,-0.16859211027622223,0.09068337827920914,-0.15690183639526367,0.19990815222263336,-0.4925895035266876,0.04822589457035065,-0.3098319470882416,-0.01412887591868639,0.06757251173257828,0.3115195631980896,-0.08567876368761063,-0.21250709891319275,-0.4423847198486328,0.20081669092178345,-0.06701444834470749,-0.36500123143196106,-0.2854628264904022,-0.07144193351268768,-0.4230201542377472,-0.4528650641441345,0.7947708964347839,-0.4078262448310852,0.36367806792259216,0.04992426931858063,-0.06687065213918686,-1.1960773468017578,-0.3733130693435669,0.8602539896965027,-0.05940334126353264,-0.7254223227500916,0.3047208786010742,-0.4212890863418579,-0.8519462943077087,0.3131221830844879,-0.32191792130470276,0.2639603614807129,-0.08907385170459747],[0.36504828929901123,0.4922337532043457,1.1693035364151,0.3333421051502228,-0.17559091746807098,0.16971464455127716,-1.7046284675598145,0.05715303122997284,-1.196579098701477,-0.4538940489292145,-0.2269936352968216,-0.6010858416557312,-0.4379972517490387,-0.07592179626226425,0.06604249030351639,-0.6820688843727112,0.11776968836784363,0.09260447323322296,-0.5343015193939209,0.07622082531452179,-0.28885626792907715,-0.21287816762924194,-0.10268298536539078,0.3733971118927002,-1.2752166986465454,-0.10167866200208664,-0.1818133145570755,-1.1158788204193115,-0.28794175386428833,-0.16577042639255524,-0.3520274758338928,0.1434113085269928,-0.10610216856002808,-0.013768844306468964,0.2989553213119507,0.14538834989070892,0.11741599440574646,-0.962367057800293,-0.21496370434761047,-0.6726089715957642,-0.14059337973594666,-0.11236750334501266,0.3990659713745117,-0.35943931341171265,0.10053014755249023,-0.31753048300743103,-0.14016106724739075,0.2940264046192169,0.08598838746547699,-0.17589184641838074,-0.07370548695325851,0.013959494419395924,-0.04607812687754631,-0.22223249077796936,-0.05791298300027847,0.35827863216400146,-0.09176439791917801,0.6863792538642883,-0.7859411239624023,-0.773027777671814,-0.650632381439209,-0.3294318914413452,-0.252363383769989,-0.05776461213827133,0.04040517285466194],[-0.14709022641181946,-0.26196664571762085,0.04564264416694641,-0.009357267990708351,0.14012719690799713,-0.07251399755477905,0.13540944457054138,0.07550958544015884,-0.12485162168741226,0.20898525416851044,-0.6065883040428162,-1.6242380142211914,-0.4859561026096344,-0.08585862070322037,-0.020616406574845314,0.5666489601135254,-0.7273366451263428,-0.2546999752521515,0.5458296537399292,-0.015547812916338444,-0.1044093444943428,0.658870279788971,0.017632320523262024,-0.2379431575536728,0.7349767088890076,-0.06957603245973587,-0.2286415696144104,0.03889377415180206,0.11864236742258072,0.10702832788228989,0.7181858420372009,0.2020098865032196,-0.573076605796814,0.41771650314331055,-0.1877208650112152,-0.014004111289978027,0.8166345357894897,-0.14221803843975067,0.10774309933185577,0.20957492291927338,0.011143108829855919,0.45473772287368774,0.09719529002904892,-0.3058989942073822,-0.20919305086135864,0.09529751539230347,-0.24329306185245514,-0.1871526837348938,0.7246261835098267,-0.3798086941242218,-0.08715686947107315,0.00041181794949807227,-0.29320186376571655,0.04965738207101822,0.2506718039512634,-1.1116719245910645,-0.15428483486175537,0.5756739974021912,0.1672022044658661,1.1087950468063354,-0.44646841287612915,0.8427354693412781,0.5777974128723145,-0.6198858022689819,0.6172757744789124],[-0.3846430778503418,-0.05773404240608215,0.9917077422142029,-0.5763177275657654,-0.02259698137640953,-0.9606565833091736,-0.01341242715716362,0.26716846227645874,0.9985182285308838,0.45481449365615845,-0.12223487347364426,0.9199185371398926,-0.3721103370189667,0.11186675727367401,0.9759007096290588,0.22493930160999298,-0.5270388126373291,-0.5743100047111511,-0.452299565076828,0.07944852858781815,1.0716906785964966,-0.07238758355379105,-0.8981914520263672,-0.2974623739719391,-0.6421337723731995,-0.06069942191243172,1.843446135520935,0.33527877926826477,0.01702149771153927,0.41060054302215576,0.42726343870162964,0.7123669981956482,-0.5191060900688171,-0.03041800856590271,0.44150400161743164,0.15699957311153412,-0.0016359032597392797,-0.17025606334209442,-0.21907049417495728,0.5075643062591553,0.4233146905899048,-0.45409953594207764,-0.12670084834098816,0.18229232728481293,0.3180898129940033,0.9958536028862,0.1222868338227272,0.09474779665470123,0.2608325779438019,0.15543080866336823,0.4316216707229614,0.08233610540628433,0.012084736488759518,0.39874374866485596,-0.024504072964191437,0.012214445509016514,-0.2959805428981781,0.6158086657524109,-0.6786409020423889,-0.7911154627799988,0.04092533886432648,-0.11879912763834,0.20187968015670776,-0.8633231520652771,0.37650519609451294],[-0.19261674582958221,-0.15635327994823456,-0.22321467101573944,-1.3523813486099243,0.023535585030913353,-0.5077582597732544,1.2033973932266235,-0.5338528752326965,0.3274869918823242,-0.20688331127166748,0.23495742678642273,0.3570209741592407,0.09939699620008469,-0.04250515252351761,-0.41836661100387573,-0.142293319106102,-0.38055312633514404,-0.2757672667503357,-0.038104649633169174,-0.04311077296733856,-0.21970203518867493,-0.14009524881839752,-0.8337938785552979,-0.4951655864715576,0.030360043048858643,0.017017386853694916,-0.5020829439163208,1.6651419401168823,-0.14909911155700684,0.6084625720977783,0.6321131587028503,-0.47268420457839966,-0.7771166563034058,0.09881071001291275,-0.6063125133514404,-0.24896399676799774,0.18528416752815247,0.7144734859466553,0.10274411737918854,-0.2011265903711319,0.3374086916446686,-0.545114278793335,-0.07652775943279266,0.2839725613594055,-0.5091578960418701,-0.6734182238578796,0.17249849438667297,0.18609032034873962,-1.1715911626815796,0.04693230986595154,-0.20166386663913727,0.3071919083595276,-0.06982636451721191,0.1658676564693451,-0.1945618838071823,0.018834445625543594,-0.035922661423683167,-0.14076033234596252,2.003772497177124,-0.06476383656263351,0.010295717976987362,-0.15097303688526154,0.3411172330379486,-0.4853062033653259,0.13123983144760132],[0.3510681092739105,-0.10414662212133408,0.16856542229652405,0.7054900527000427,0.17956531047821045,0.3839511275291443,-1.4761689901351929,0.061039477586746216,-0.28432703018188477,-0.01494829636067152,0.08048465102910995,0.05055107921361923,-0.10129056125879288,-0.08039765059947968,-0.24374455213546753,-0.681834876537323,1.0630155801773071,1.0826045274734497,0.034622907638549805,-0.015297351405024529,0.37699979543685913,0.6107746958732605,0.7909834384918213,0.932952880859375,-0.1765272468328476,0.05256140977144241,0.09927058964967728,0.08930186927318573,-0.29560747742652893,0.03383409604430199,-0.31963253021240234,1.0769671201705933,-0.7109584808349609,-0.14551673829555511,-0.0381532721221447,-0.7424201965332031,-0.6139804720878601,-0.2561481297016144,-1.2250691652297974,-0.07891744375228882,0.04089928790926933,0.0988602489233017,-0.23849071562290192,-0.2543029487133026,-1.1100094318389893,0.5964645743370056,-0.12022983282804489,0.027191944420337677,0.5165640711784363,-0.16258805990219116,-0.008510233834385872,-0.5298055410385132,0.13918210566043854,0.07711923122406006,-0.05707623064517975,1.0451894998550415,0.21837007999420166,-0.33245205879211426,-0.5611308813095093,-0.6309230923652649,-0.4965343773365021,0.08542783558368683,-0.7599014043807983,0.4564472436904907,-0.35494059324264526],[-0.646263837814331,-0.06839357316493988,-0.19852006435394287,-0.7181856632232666,-0.5157129168510437,0.2754237949848175,1.462180256843567,-0.6715367436408997,0.10692383348941803,-0.2540619969367981,0.05243372917175293,0.7707461714744568,-0.190373957157135,-0.04154226556420326,-0.3225255310535431,0.4437226355075836,-0.4283496141433716,-0.062073078006505966,-0.2662235200405121,-0.09301113337278366,-0.4470937252044678,0.6844300031661987,-0.6035698056221008,-0.5545832514762878,0.3073863685131073,0.09743984788656235,-0.3087395131587982,0.9441503882408142,0.1487855464220047,-0.10215544700622559,-0.02690448798239231,-0.6320536136627197,-0.3360109329223633,0.22815294563770294,-0.24135234951972961,0.16509215533733368,0.44567978382110596,0.9380781650543213,0.40390288829803467,-0.10897447168827057,0.11783494800329208,0.45712363719940186,-0.1961546540260315,0.03048492968082428,0.1635013222694397,-0.7978874444961548,0.10293205082416534,-0.09336555749177933,-0.33674249053001404,0.040257882326841354,0.09623593091964722,0.003019945928826928,-0.10703345388174057,-0.1882920265197754,0.3050025403499603,-0.8779826760292053,-0.02382322959601879,-0.815211296081543,-0.6651612520217896,0.5385127663612366,-0.07082250714302063,0.04937344044446945,0.38336047530174255,-0.5937227010726929,-0.13987420499324799],[-0.4529486298561096,-0.38105177879333496,-1.2713650465011597,-0.49426785111427307,0.39626654982566833,-1.332736849784851,-0.6597502827644348,-0.10520054399967194,0.2169809192419052,-0.3661322593688965,0.2369396835565567,0.7884164452552795,0.23206454515457153,0.09413743019104004,-0.007099505979567766,0.04186511039733887,-0.5175337791442871,-0.503340482711792,-0.05401952937245369,0.013873908668756485,0.0002275686274515465,-1.1056733131408691,0.42271658778190613,0.18188586831092834,-0.13480807840824127,-0.10117516666650772,1.1191952228546143,0.6874560713768005,0.04088257625699043,0.5389185547828674,-0.055942513048648834,0.3445020318031311,-0.5651134252548218,-0.0036447779275476933,-0.18139944970607758,0.21973590552806854,0.2822694480419159,0.8846191167831421,-0.44146040081977844,0.2889366149902344,0.44543421268463135,-0.6500731110572815,-0.2104414403438568,0.3138832747936249,-0.4165022373199463,-0.1598069667816162,0.21070490777492523,-0.678631067276001,0.47676193714141846,0.2564164102077484,0.10606661438941956,-0.4608621895313263,0.05716118589043617,0.2862984538078308,-0.36390507221221924,-0.38981547951698303,-0.33595144748687744,0.05113731324672699,0.628387451171875,-0.6515356302261353,-0.06428302079439163,-0.257423460483551,-0.38562461733818054,-0.8774932622909546,-0.05058208853006363],[0.48698243498802185,0.01048323605209589,-0.5558605790138245,0.34929782152175903,-0.005041004624217749,0.27094095945358276,0.25917184352874756,0.2752054035663605,-0.5933114886283875,-0.028712913393974304,0.14358682930469513,1.0322976112365723,0.28797903656959534,0.039691489189863205,-0.014182970859110355,0.07999341934919357,0.6782558560371399,-0.19862255454063416,0.8412151336669922,0.11136185377836227,0.12060584127902985,0.2566123604774475,0.2382495403289795,0.30300173163414,0.0015294024487957358,-0.005414001643657684,-0.8822871446609497,0.07217922061681747,0.1208711490035057,0.23139670491218567,0.3253290057182312,0.4458496868610382,0.4785437285900116,0.042570676654577255,-0.04338999465107918,1.554884672164917,0.7443116903305054,0.7972725033760071,-0.21149496734142303,-0.1467677652835846,0.07945302873849869,-0.3332969546318054,-0.5248353481292725,0.32308489084243774,0.16696934401988983,-0.4086475968360901,0.2318076491355896,-1.0315064191818237,-1.5391346216201782,0.19127091765403748,-0.2281539887189865,0.44575557112693787,0.4666171073913574,-0.4207168221473694,0.5475918054580688,0.7524788975715637,0.3382963538169861,0.504500150680542,0.9278378486633301,-0.33082449436187744,-0.8408786058425903,-0.041674599051475525,0.5405285954475403,0.5920525193214417,0.536149799823761],[0.41776716709136963,0.0417163260281086,0.07143870741128922,-0.10243301838636398,-0.5136474967002869,0.5994345545768738,-0.376141756772995,-0.40395206212997437,-0.7805628180503845,-0.3434779644012451,-0.531405508518219,-0.8830675482749939,0.37408480048179626,-0.05708818510174751,0.004026035778224468,0.139826700091362,0.046373095363378525,-0.08654971420764923,0.5425757765769958,0.11864029616117477,0.11247245967388153,-0.19226202368736267,0.2311307191848755,-0.11573201417922974,0.9591717720031738,-0.009434384293854237,-1.1319308280944824,0.7292699217796326,-0.5614018440246582,-0.23516759276390076,-0.0795527771115303,-0.4792366325855255,0.9923160076141357,0.13294045627117157,-0.9525759220123291,-0.6842519044876099,-0.21274252235889435,0.20263537764549255,-0.24056416749954224,-0.1831611692905426,0.08984014391899109,-0.4004727900028229,-0.6764147281646729,0.002108146669343114,-0.9890007376670837,-0.0034466541837900877,-0.05509382486343384,0.1194441094994545,-0.21463558077812195,-0.2233070731163025,-0.28023162484169006,-0.3086245059967041,-0.05817665159702301,0.2522510588169098,-0.4158400297164917,0.15515054762363434,0.043596893548965454,1.1415952444076538,1.419683575630188,-0.30334341526031494,0.951456606388092,-0.35890182852745056,-0.3849245309829712,-0.06483523547649384,-0.14505769312381744],[-0.1765790432691574,-0.4325608015060425,0.05069518834352493,-0.0306058619171381,0.04582113027572632,-0.15238752961158752,-0.9370819926261902,0.11116209626197815,0.2852497100830078,0.4678279161453247,-0.1879548728466034,-0.07674350589513779,0.1257132738828659,0.09589377045631409,0.5723552703857422,-0.3974400758743286,-0.19513867795467377,-0.7314642071723938,0.14422385394573212,0.05450638756155968,0.4937252998352051,-0.021320126950740814,-0.6056629419326782,-0.24185577034950256,-0.584943950176239,0.07060021907091141,3.190279006958008,0.8720422983169556,-0.4564296007156372,-0.45462074875831604,-0.07242153584957123,1.8083542585372925,-0.2766733467578888,-0.11873984336853027,0.23689785599708557,-0.04329020529985428,-0.16084077954292297,0.9119786024093628,0.22299101948738098,0.04171779751777649,0.06843707710504532,0.4354355037212372,-0.22881217300891876,0.05668758228421211,0.7853488326072693,0.46634259819984436,-0.06555068492889404,0.25893110036849976,1.225510835647583,-0.011205240152776241,0.44135504961013794,-0.2446032464504242,-0.15313144028186798,0.1488146334886551,0.1800137460231781,0.6718705296516418,0.04089726507663727,0.6214697957038879,0.10326587408781052,-0.6792070865631104,-0.3959495723247528,-0.011745256371796131,0.18941976130008698,-0.0954783633351326,0.014014379121363163],[0.34453147649765015,0.40287718176841736,1.3849823474884033,0.3178693950176239,0.2276908904314041,0.9605326056480408,-0.8019123673439026,0.009555302560329437,-0.24412497878074646,0.8036738038063049,0.2960514426231384,0.5806488990783691,-0.6925509572029114,-0.03331376239657402,-0.3055589199066162,0.01609085313975811,0.530874490737915,0.41931408643722534,-0.5362352728843689,-0.06679314374923706,0.3137906789779663,0.2079206109046936,0.09242606163024902,0.05845467001199722,-0.45910823345184326,0.05196822062134743,-1.8892102241516113,-0.825593888759613,0.009835539385676384,0.07837929576635361,0.037310946732759476,-0.3822513222694397,1.3364708423614502,-0.09058813750743866,0.06891917437314987,-0.42257487773895264,0.21108412742614746,0.4747527837753296,0.08958373218774796,0.5626137852668762,-0.06399949640035629,0.16042110323905945,0.40997570753097534,-0.22344692051410675,0.5241698026657104,0.2602551281452179,-0.011426659300923347,0.8052331209182739,0.06784190237522125,0.0005108395707793534,-0.14548353850841522,0.06063826382160187,0.11275065690279007,-0.017932137474417686,0.3499062955379486,0.7882941365242004,0.3293088972568512,-0.007706239353865385,-0.602715790271759,0.39829015731811523,0.07247404754161835,0.37904900312423706,-0.08816605806350708,0.3427712023258209,0.2994926869869232],[-0.28776365518569946,0.03491544723510742,-0.17038701474666595,-0.56153404712677,0.24905988574028015,-0.967691957950592,-0.3416144847869873,0.4104281961917877,1.1689164638519287,-0.18582144379615784,-0.1340690702199936,-0.07773531973361969,0.1547788828611374,-0.0757603868842125,-0.37616729736328125,0.3067838251590729,-0.05954686924815178,0.5769010782241821,-0.20443600416183472,0.11458250135183334,-0.14804695546627045,0.8702101111412048,-0.2266465723514557,-0.613376259803772,-0.1626521646976471,-0.06370629370212555,0.8862717151641846,0.20921026170253754,0.07650095969438553,0.28320369124412537,0.08995210379362106,1.0596692562103271,-1.0678926706314087,-0.3525885045528412,0.38687530159950256,-0.17828607559204102,-0.26780539751052856,-0.2407551258802414,-0.35412076115608215,0.06127406656742096,0.09491241723299026,0.006903017871081829,0.4173755645751953,0.23228205740451813,0.1748073548078537,-0.07951664924621582,0.19149334728717804,0.026164298877120018,-0.4037153720855713,0.16787028312683105,-0.317518025636673,0.8423143029212952,-0.007447939831763506,0.7443479299545288,-0.5250032544136047,0.08087249100208282,0.16315102577209473,-0.5795601010322571,-0.7252448201179504,-0.39954710006713867,-1.1590014696121216,0.1265295445919037,0.19181153178215027,-0.3452114164829254,0.28461870551109314],[-0.14582446217536926,0.3251079320907593,0.6664407253265381,0.16619493067264557,0.03722996637225151,-0.5139763355255127,-0.45960426330566406,0.06288228929042816,1.4382811784744263,0.18207256495952606,-0.23661448061466217,-0.3251257836818695,0.25135496258735657,-0.031967636197805405,1.055578351020813,0.28855931758880615,-1.2475948333740234,-0.24978654086589813,0.034654583781957626,-0.0811130553483963,1.1206597089767456,0.2707210183143616,-0.5578820109367371,-0.34834936261177063,0.8406744599342346,0.004151106812059879,0.4376441240310669,0.35494640469551086,-0.48099422454833984,0.125511035323143,0.3066381514072418,0.18085281550884247,-1.091787576675415,0.20002028346061707,-0.2999800741672516,0.4971430003643036,0.22485782206058502,0.2130621075630188,0.04736873880028725,-0.5710240006446838,0.44124066829681396,0.07903551310300827,-0.5680338144302368,0.561962366104126,0.015897223725914955,-1.0052851438522339,0.5225574374198914,-0.5145706534385681,-0.5417149662971497,0.25783470273017883,-0.31670355796813965,0.1948958784341812,0.3439442813396454,0.6555456519126892,0.05405426397919655,-0.43327805399894714,-0.19481174647808075,-0.07340310513973236,-0.13848495483398438,-0.2212885469198227,0.2799871265888214,0.06253599375486374,0.37997716665267944,-0.7676284909248352,0.23606951534748077],[0.2759779393672943,0.10852953791618347,-0.27485471963882446,0.2403206080198288,-0.3097649812698364,0.45950937271118164,-0.21638812124729156,0.23643331229686737,-0.4536958336830139,-0.6565491557121277,0.09350360929965973,0.3368089199066162,0.21819166839122772,-0.05141307786107063,0.2590581476688385,-0.279549777507782,0.2707154154777527,0.17298321425914764,0.34947478771209717,0.12134844064712524,0.27481627464294434,-0.10001474618911743,0.45408087968826294,0.5693941712379456,0.15559205412864685,-0.05214245989918709,0.4561859965324402,-0.5367491841316223,0.30363133549690247,0.015725480392575264,0.34997183084487915,-0.12257905304431915,1.2442255020141602,-0.032447829842567444,0.5774097442626953,0.34243500232696533,0.02079291082918644,-0.5386538505554199,-0.11510150134563446,-0.15281732380390167,0.4021914601325989,0.18247951567173004,-0.03229508548974991,0.38107261061668396,0.1755511611700058,-0.4218461215496063,0.43856480717658997,-0.09066580981016159,0.06547705084085464,0.3555280566215515,0.2563508450984955,-0.22779496014118195,0.3444286286830902,-0.4066920578479767,-0.33350101113319397,0.5317739248275757,0.2632678151130676,-0.1488112211227417,-0.8132928013801575,0.41600167751312256,0.5074707269668579,0.424215704202652,0.4217914938926697,0.3279738128185272,0.11610253155231476],[0.520483672618866,0.08338234573602676,0.6426770687103271,-0.06875220686197281,-0.015514528378844261,-0.10949628055095673,-0.27990487217903137,0.15781624615192413,1.0387415885925293,0.016849860548973083,-0.08160798996686935,-0.1014113798737526,-0.15335959196090698,0.010669806972146034,-0.4304371476173401,0.7344653606414795,-0.04465213045477867,0.0465686060488224,-1.2108607292175293,0.09992516785860062,-0.04930844157934189,-0.2908901572227478,-0.23865920305252075,-0.2950172424316406,-0.27711525559425354,0.10346440970897675,2.9940249919891357,0.7168434858322144,0.5791199803352356,0.22933122515678406,0.026892535388469696,-0.915946364402771,0.20290608704090118,0.1946888566017151,0.626516580581665,-0.03613783419132233,-0.4507647752761841,-0.8572633862495422,0.17692074179649353,-0.3446381390094757,0.2572939395904541,-0.5418217778205872,0.11391038447618484,0.30374571681022644,-0.15539555251598358,0.41103595495224,0.321003258228302,-0.06174563989043236,-0.19978749752044678,0.30406370759010315,0.14396920800209045,-0.058268941938877106,0.31270673871040344,0.4032011330127716,-0.4338417947292328,1.5577383041381836,0.5117244720458984,0.06453520059585571,0.49308425188064575,-0.33231121301651,0.7960267066955566,0.19388987123966217,0.690085232257843,0.6170994639396667,-0.017322897911071777],[-0.3929004967212677,-0.14965377748012543,-0.12782742083072662,-0.5166693329811096,-0.0231408029794693,-0.2218439280986786,2.043827533721924,-0.12418438494205475,0.877465546131134,0.2361261546611786,-0.45080214738845825,-0.4350225329399109,0.30645155906677246,-0.027854928746819496,-0.25243180990219116,0.7333006262779236,-0.27707043290138245,-0.31002649664878845,-0.37665486335754395,-0.1179351881146431,-0.5925901532173157,0.5491139888763428,-0.7512322664260864,-0.34522587060928345,-0.5021819472312927,0.07851605862379074,-1.4112285375595093,0.3595382869243622,0.10760698467493057,0.19563516974449158,0.32817593216896057,-0.9799572229385376,-0.29366976022720337,-0.6013990044593811,-0.38116586208343506,-0.31538787484169006,0.28704634308815,-0.5726457238197327,0.2920645773410797,0.7258242964744568,-0.475610613822937,0.46647539734840393,0.48602864146232605,-0.42007437348365784,0.23587444424629211,0.5904955267906189,-0.5093865394592285,0.8065677285194397,0.05415339022874832,-0.41879501938819885,-0.4876868426799774,0.5392520427703857,-0.3698761463165283,0.31000009179115295,-0.1677139848470688,-1.1930692195892334,-0.2106790840625763,-0.09837976843118668,0.19426070153713226,0.5300738215446472,-0.08665332198143005,-0.16068093478679657,0.3856196999549866,-0.13370883464813232,0.11932725459337234],[0.04964734986424446,0.4170137047767639,0.6737536191940308,-0.3577720820903778,0.0570896677672863,-0.1663089543581009,-0.6090428233146667,0.19661161303520203,-0.27568697929382324,-0.949885904788971,0.27993524074554443,0.5922414660453796,0.056475818157196045,0.035326164215803146,-0.8932805061340332,-0.2793788015842438,-0.00729124341160059,0.5510296821594238,-0.22544434666633606,-0.06210960075259209,-0.6078029870986938,-0.6528216600418091,-0.05911689251661301,-0.15966030955314636,0.5886741280555725,0.06257355958223343,1.1977969408035278,-0.08984249085187912,0.22720657289028168,-0.2354864478111267,-0.21976478397846222,0.6151010990142822,0.17575214803218842,-0.5025476217269897,0.5871946811676025,0.04015769436955452,-0.4222504794597626,0.7114945650100708,-0.30270084738731384,-0.09245488792657852,0.2695704996585846,-0.6932183504104614,0.2216004729270935,0.1834980547428131,0.0027193427085876465,-0.1976059228181839,0.1451008915901184,-0.0940072163939476,-0.29468077421188354,0.16444166004657745,-0.3332540690898895,-0.5417628288269043,0.11748351156711578,-0.4612666070461273,-0.5151283740997314,-0.12246310710906982,0.020860053598880768,-0.44737333059310913,-0.8441272377967834,-0.13436125218868256,0.5802479386329651,-0.08010078221559525,0.027293089777231216,0.08731679618358612,-0.34298232197761536],[0.13804802298545837,-0.41188377141952515,0.6619061231613159,-0.5385358929634094,0.6395928859710693,-0.6632370948791504,1.9157787561416626,0.6562213897705078,0.2432176023721695,0.7367661595344543,0.17263010144233704,0.6330296993255615,0.14316660165786743,-0.07472070306539536,0.12294527143239975,0.965150773525238,-0.11802519112825394,0.0576595738530159,0.00036681987694464624,-0.03236088529229164,-0.1547427922487259,-0.8720853328704834,0.8130855560302734,0.6315041780471802,-0.2801732122898102,-0.09453621506690979,0.08418869227170944,-0.18792741000652313,0.45861491560935974,0.5865076780319214,0.23114708065986633,-0.021832048892974854,0.5071440935134888,0.35583552718162537,0.3846149444580078,0.09918510913848877,-0.3918289840221405,0.06729898601770401,-0.4962591230869293,-0.3073849678039551,0.2603461444377899,-0.3986179530620575,-0.4101373851299286,0.566889762878418,-0.2984294891357422,-0.7054129242897034,0.4478846788406372,-0.5900439023971558,-0.3809809386730194,0.5266155004501343,-0.03818900138139725,-0.6897229552268982,0.7032145261764526,-0.322321355342865,0.5688071846961975,-0.2918608784675598,0.02326706238090992,-0.05434126406908035,-0.1354105919599533,0.1870253086090088,-0.5865886211395264,-0.06424753367900848,0.15572388470172882,0.44529470801353455,0.17954328656196594],[-0.2381284534931183,-0.5970532298088074,0.44108477234840393,-1.2520304918289185,0.4097234904766083,-0.02299194224178791,0.19895291328430176,0.26160746812820435,-0.320076584815979,1.17350435256958,0.3328031897544861,-0.6311442255973816,0.34692659974098206,-0.10330110043287277,0.02880287356674671,-0.5934897065162659,0.678466796875,0.45868030190467834,0.04158300906419754,0.10821781307458878,0.7029876708984375,1.4077709913253784,0.2543497681617737,0.2613503932952881,-0.743762731552124,-0.028343357145786285,-0.2942398190498352,0.25271329283714294,0.1067173033952713,0.6665428280830383,0.10971437394618988,0.41295957565307617,-0.9490659832954407,-0.16994476318359375,0.03813505172729492,0.34962353110313416,0.3427088260650635,0.8249430060386658,0.10861144214868546,-0.2863999307155609,0.23694011569023132,0.6707757115364075,-0.3088110387325287,0.3411896228790283,-0.38201090693473816,-0.766162633895874,0.3694041967391968,-0.48668476939201355,0.19557127356529236,0.25599250197410583,-0.7577987313270569,-0.7861750721931458,0.43909919261932373,-0.12640541791915894,0.9690253138542175,0.0771937370300293,-0.11515751481056213,0.5107616186141968,1.3717150688171387,-0.1704598069190979,0.36229079961776733,0.04573250561952591,-0.45126909017562866,-0.036183614283800125,0.11942041665315628],[0.1977548748254776,0.23806481063365936,0.24160513281822205,-0.460432767868042,-0.23686867952346802,0.7033919095993042,0.6394811868667603,-0.5247752070426941,-1.3873316049575806,-0.7680894136428833,0.13580529391765594,-0.3376822769641876,-0.24157363176345825,-0.03351418673992157,-0.49193912744522095,-0.30627167224884033,0.3689862787723541,-0.1643504947423935,-7.345225458266214e-05,-0.08087264746427536,-0.9486696720123291,-0.3637610971927643,0.34357452392578125,-0.30472078919410706,0.09077112376689911,-0.025023391470313072,-1.6443923711776733,-0.5248132348060608,-0.40028002858161926,-0.7193836569786072,-0.3811052739620209,-0.9003987908363342,-0.14819321036338806,-0.2216310352087021,-0.40294381976127625,0.1660463958978653,0.2311127781867981,0.7256938219070435,0.2083105444908142,0.0221430454403162,-0.15094594657421112,0.18925414979457855,-0.10664596408605576,-0.20225226879119873,-0.08184191584587097,-0.348618745803833,-0.13556106388568878,0.07024557888507843,-0.5192022323608398,-0.09498263895511627,0.06885495781898499,0.07273242622613907,-0.11491713672876358,-0.6118738651275635,-0.3638826310634613,-0.44010648131370544,-0.19808360934257507,-0.5127102136611938,0.021245239302515984,0.6754623055458069,-0.42232152819633484,0.14306922256946564,-0.05087050795555115,-0.21432657539844513,-0.25829899311065674],[0.1429099291563034,-0.044032055884599686,0.8118160963058472,0.17549225687980652,0.0796101912856102,0.4125974178314209,1.7038872241973877,-0.28418296575546265,1.046774983406067,0.23544898629188538,0.1890154927968979,0.2751736044883728,0.4127123951911926,0.0861930251121521,-0.43083900213241577,-0.34504449367523193,0.6041391491889954,0.38763752579689026,-0.37618961930274963,-0.03363095223903656,-0.7205706834793091,-0.2016673982143402,-0.002904995111748576,0.33650311827659607,-0.1370248645544052,0.09447001665830612,-0.550480842590332,0.2043789178133011,0.09584396332502365,-0.21583925187587738,-0.20165897905826569,-1.2706546783447266,0.7118750214576721,0.22108575701713562,-0.548497200012207,-0.001849000109359622,0.2058202624320984,-0.136642724275589,0.15223848819732666,0.6225154995918274,-0.04937370866537094,-0.03168432414531708,-0.17719100415706635,0.023603027686476707,0.20089004933834076,-0.5909427404403687,0.05826101452112198,-0.29232656955718994,-0.22428102791309357,0.17083317041397095,-0.48226672410964966,0.3223976790904999,0.34801504015922546,-0.08712685108184814,-0.1125083938241005,-0.695247232913971,0.3593232333660126,-0.6257825493812561,0.13229313492774963,0.8663269877433777,0.9338796138763428,0.1069413423538208,-0.02898298017680645,0.389376163482666,-0.23739083111286163],[-0.21376316249370575,0.2980790436267853,-0.655612051486969,-0.048068732023239136,0.17368380725383759,0.13818614184856415,0.5520065426826477,0.05636013299226761,0.5953956246376038,-0.307685911655426,0.20476296544075012,-0.4420716166496277,-0.521047830581665,-0.0025240746326744556,-0.25010302662849426,0.22730204463005066,-0.7868396043777466,-0.6360566020011902,-0.5032665729522705,-0.06821396946907043,0.47394680976867676,0.8991814851760864,-0.8408591151237488,-1.0599536895751953,-0.17844489216804504,-0.040509264916181564,0.5886220335960388,0.3220262825489044,-0.3075319230556488,0.24910113215446472,0.9714965224266052,1.1056132316589355,-0.7994590401649475,-0.13148266077041626,-0.6752843260765076,0.3751786947250366,0.22789493203163147,0.056150466203689575,0.5775095820426941,-0.2694941759109497,0.26631006598472595,-0.24179624021053314,-0.45594900846481323,0.36817267537117004,0.5009039044380188,-0.3366163671016693,-0.06915780901908875,0.5495557188987732,-1.170596718788147,0.06980384141206741,-0.06927083432674408,0.1455434113740921,-0.28849148750305176,0.4932219088077545,-0.0010861871996894479,-1.2522356510162354,-0.006137925665825605,-0.24310705065727234,0.19263625144958496,0.6224402189254761,0.7844753265380859,-0.26013919711112976,0.7099195718765259,-0.5041310787200928,0.5269200801849365],[-0.07513827085494995,-0.7583279609680176,-0.3557455539703369,0.38850799202919006,-0.14012956619262695,1.0290147066116333,1.0335485935211182,0.07575897872447968,-0.40001505613327026,0.33517155051231384,-0.35931330919265747,0.2942463159561157,-0.28680920600891113,0.10826214402914047,0.09752406179904938,0.36644989252090454,0.24372996389865875,0.29704827070236206,-0.4862881600856781,0.00019604880071710795,0.002946411957964301,0.17198379337787628,0.30590108036994934,-0.06858579814434052,-0.7064886689186096,-0.024287886917591095,0.5507419109344482,-0.07091112434864044,0.02175290696322918,-0.16811150312423706,-0.35086575150489807,-0.8686224222183228,2.314497470855713,0.3291110396385193,0.18783250451087952,0.19197240471839905,-0.2573970854282379,-0.059079624712467194,0.42817002534866333,1.2490543127059937,-0.15185041725635529,0.7247909307479858,0.30431216955184937,-0.15476097166538239,0.6404913663864136,0.16722120344638824,-0.1002817451953888,-0.4743722081184387,0.38792237639427185,-0.16861490905284882,0.7243935465812683,0.03915485739707947,-0.11874350160360336,-0.5387831926345825,0.3959116041660309,-0.5843819975852966,-0.1823558658361435,0.5467793345451355,-0.5136363506317139,0.41225749254226685,-0.18012729287147522,0.11692939698696136,-0.30651506781578064,0.28114625811576843,-0.3041036128997803],[-0.01390172354876995,-0.12810049951076508,1.0689380168914795,-0.4498124420642853,-0.13711512088775635,-0.3299238681793213,2.104802131652832,0.22257886826992035,0.7518857717514038,0.01823578029870987,0.42360785603523254,0.15554861724376678,-0.1544845700263977,0.07609482109546661,-0.29034632444381714,0.6726382374763489,-0.0932488888502121,-0.09738833457231522,-1.2606892585754395,0.09259998798370361,0.15693816542625427,-0.4623492956161499,0.1277962177991867,-0.27429038286209106,-0.49760952591896057,-0.07105720043182373,0.37239184975624084,0.3600940704345703,0.1606404334306717,-0.5123956799507141,-0.3960181772708893,-0.7650827765464783,0.8820281028747559,0.057089101523160934,0.1446063220500946,0.1460774540901184,0.27695509791374207,-0.47590187191963196,0.36502835154533386,0.5147101283073425,-0.1445874124765396,-0.06527002900838852,0.045215997844934464,-0.18749235570430756,0.35224345326423645,1.1124179363250732,-0.036625638604164124,0.6635527610778809,-0.324768990278244,-0.0786912739276886,0.007905117236077785,0.36308664083480835,-0.2931766211986542,0.23939713835716248,0.1691179871559143,-0.14385783672332764,0.3718183934688568,0.4458127021789551,-0.31695863604545593,0.6258945465087891,0.8180182576179504,-0.10461195558309555,0.6002858877182007,0.4428124725818634,0.144614577293396],[0.4057041108608246,-0.41444411873817444,0.49300315976142883,-0.395967960357666,-0.4223821759223938,0.37383726239204407,-0.17142821848392487,0.5283047556877136,-0.15615299344062805,0.8934865593910217,-0.22323966026306152,0.4066002368927002,-0.7899675965309143,0.0756610557436943,0.6357049942016602,1.0573471784591675,-0.4576733410358429,-1.1732864379882812,-0.3410543203353882,-0.036495108157396317,0.5863960385322571,-0.4147922992706299,-0.23930245637893677,-0.5348109006881714,0.001249311026185751,0.11317279189825058,3.0520272254943848,-0.16643041372299194,0.22015652060508728,0.0628911480307579,0.08127228170633316,0.7588866949081421,0.7399918437004089,-0.29088932275772095,0.6935490369796753,0.7130610942840576,0.23485849797725677,-0.15899060666561127,-0.17011258006095886,-0.1219070628285408,0.3575228452682495,-0.5346238017082214,0.11539945006370544,0.32418617606163025,0.12848639488220215,-0.18026690185070038,0.3467519283294678,-0.5488214492797852,0.22462156414985657,