{"topology":"mlp_tanh_3layer","input_dim":65,"output_dim":18,"source":"model_evolved.onnx","layers":[{"w":[[-0.4269808530807495,-0.3549360930919647,1.0924769639968872,-1.291122555732727,-0.03722785785794258,-0.5497029423713684,1.3669894933700562,-0.2282542884349823,0.5170537233352661,0.3245105743408203,0.2175266295671463,0.4797603487968445,0.6640145778656006,-0.07115662097930908,-0.17117410898208618,0.4480901062488556,-0.1360146403312683,-0.3349725306034088,-0.48352858424186707,0.06057826429605484,-0.40574613213539124,-0.6581355929374695,-0.33353129029273987,-0.22725899517536163,0.3374292552471161,-0.10729598999023438,-0.21022994816303253,-0.43696141242980957,0.23410460352897644,0.054801926016807556,0.15194907784461975,0.15969021618366241,-0.13688544929027557,0.6390393376350403,-0.2151414155960083,-0.7978872656822205,-0.020310793071985245,0.9728891253471375,0.5252301692962646,0.906971275806427,-0.14848990738391876,-0.2772752642631531,0.43839868903160095,0.1877017617225647,-0.40939292311668396,0.18891501426696777,-0.04123686999082565,-0.8168519735336304,0.635195791721344,0.0406164713203907,-0.15263259410858154,-0.04038967192173004,0.01746954768896103,0.019275469705462456,0.6231017112731934,-0.7849026918411255,-0.01801060326397419,0.04936183989048004,-0.14495849609375,0.8493752479553223,0.22118808329105377,-0.3443337082862854,0.21014763414859772,0.128641277551651,-0.02651333250105381],[-0.20075063407421112,0.4193515181541443,0.000824368791654706,0.45376840233802795,-0.12412672489881516,-0.8261808753013611,-1.4943245649337769,-0.09190045297145844,0.4637080729007721,-0.2263294756412506,0.30886784195899963,0.12131854146718979,0.31668880581855774,-0.06026111915707588,0.020870758220553398,-0.2403724640607834,0.2152489423751831,0.09440393000841141,1.1127772331237793,0.11363023519515991,0.5986554026603699,-0.044064734131097794,0.31562888622283936,0.2580679953098297,0.766543447971344,-0.041011326014995575,-0.6898685097694397,-1.8501548767089844,-0.0506405308842659,0.11788779497146606,-0.07114061713218689,-1.16372549533844,0.40152934193611145,0.05700788274407387,0.19984596967697144,-0.08507054299116135,0.11157781630754471,-1.3287253379821777,-0.01154595147818327,0.24155960977077484,-0.02589719370007515,0.8259636759757996,-0.08499197661876678,-0.07077429443597794,-0.20032046735286713,-0.5566269159317017,-0.17636321485042572,0.6292412281036377,0.32675597071647644,-0.0074874586425721645,-0.24412637948989868,0.4676014482975006,-0.2138589471578598,0.22371630370616913,-0.08672992140054703,-0.3958198130130768,0.04197286441922188,-0.7300898432731628,-0.9795290231704712,0.7734296321868896,0.019519327208399773,0.12451937794685364,-0.2389659285545349,0.20435625314712524,-0.11460950970649719],[-0.5613868236541748,-0.46766671538352966,0.10103017091751099,-0.5979332327842712,0.18647176027297974,-0.8512479066848755,-0.35548365116119385,-0.15683744847774506,0.9095935225486755,0.46414437890052795,0.2187182754278183,0.2891862392425537,0.4369444251060486,-0.11284957081079483,0.03568355366587639,0.5852405428886414,-0.08091792464256287,0.024905838072299957,0.6317815780639648,-0.06142290681600571,0.9721230268478394,-0.31735849380493164,0.48029035329818726,-0.06419224292039871,0.937211275100708,-0.042086511850357056,0.8368364572525024,0.7008352279663086,0.3692701756954193,-0.06708482652902603,-0.026543334126472473,-0.463112473487854,-0.8566932082176208,0.034509774297475815,0.015157658606767654,0.6542454957962036,-0.08934205025434494,-0.18086093664169312,0.3517913818359375,0.5426217913627625,-0.29266253113746643,0.2754020094871521,-0.18548233807086945,-0.22792492806911469,0.406938374042511,0.02357593923807144,-0.3873099386692047,0.06719545274972916,-0.3554497957229614,-0.27577483654022217,1.2030282020568848,0.4866081774234772,-0.24134711921215057,0.6887671947479248,0.5178467631340027,-0.06615554541349411,0.010253667831420898,-0.7092893719673157,0.03064591996371746,-0.24157068133354187,-0.4905291497707367,-0.3745591342449188,0.15011075139045715,0.009514291770756245,-0.17684905230998993],[-0.3086238205432892,-0.8091966509819031,-0.6447961330413818,-0.08192507922649384,0.41993477940559387,-0.18839654326438904,-0.1589207500219345,0.009393308311700821,1.309674620628357,1.022573471069336,0.6368885040283203,0.8304013609886169,0.38288354873657227,-0.05840720981359482,0.846240758895874,0.685336172580719,0.38522806763648987,0.2907892167568207,0.31065651774406433,-0.09236596524715424,1.0942083597183228,-0.6045165061950684,0.36489078402519226,0.5412780046463013,0.3461282253265381,-0.10650242120027542,1.8118287324905396,0.038357581943273544,0.8752379417419434,0.6809411644935608,-0.08210469037294388,0.06986027210950851,-0.15655940771102905,0.324966162443161,0.5435057282447815,0.40620157122612,-0.2323502153158188,0.007658412680029869,0.40276914834976196,0.5299640893936157,0.11056189984083176,-0.09147538244724274,0.3192918598651886,0.06741034239530563,0.21841418743133545,0.28184273838996887,0.06705915927886963,0.2804301083087921,-0.21458083391189575,0.2804635763168335,0.7867457866668701,0.010252542793750763,0.11263994872570038,0.8168401718139648,0.21266579627990723,0.6744498610496521,0.20968776941299438,-0.336137056350708,0.35282769799232483,-0.09390756487846375,0.2104651778936386,0.18635611236095428,-0.31925731897354126,0.6932167410850525,-0.09520000964403152],[0.07831123471260071,0.33040541410446167,1.801545262336731,0.7088336944580078,0.500258207321167,0.496346116065979,0.16374453902244568,0.3716980814933777,0.31633085012435913,-0.31715092062950134,-0.0911562591791153,0.29636093974113464,-0.999342679977417,0.023521892726421356,0.28394433856010437,-0.7863157391548157,0.14310410618782043,0.006030146032571793,-0.34908953309059143,-0.1044379398226738,0.2603166699409485,-0.2692076861858368,0.4272233247756958,0.619240939617157,-0.044575344771146774,-0.05244198068976402,-0.14504028856754303,-1.8500028848648071,-0.07981172949075699,0.46838948130607605,0.16891200840473175,-0.6253325343132019,1.0763028860092163,-0.12838159501552582,-0.11972156912088394,-0.6720095276832581,-0.40557050704956055,-0.8768132328987122,0.15619570016860962,0.7038476467132568,0.046577416360378265,0.11480222642421722,0.12996497750282288,-0.04719378426671028,0.11411266773939133,0.47531095147132874,-0.03915417566895485,0.6891674995422363,-0.22045792639255524,-0.05359145998954773,-0.5436292290687561,0.2612397074699402,-0.09139247238636017,-0.2250259965658188,-0.062190838158130646,-0.18231454491615295,-0.06748678535223007,-0.538062334060669,-0.23415745794773102,0.9333065748214722,0.10558422654867172,0.2752937972545624,-0.46589821577072144,0.20467816293239594,0.12567049264907837],[-0.5576617121696472,-0.15965940058231354,1.3509485721588135,0.49343109130859375,-0.6508086919784546,0.20993204414844513,0.21347294747829437,-0.3270764648914337,0.8670248985290527,-0.5912325978279114,0.47990942001342773,0.8065890073776245,1.0060235261917114,0.09389461576938629,1.2479413747787476,0.6070356369018555,-0.5149191617965698,0.19354121387004852,0.40978169441223145,-0.05710870772600174,-0.2621479630470276,0.784536600112915,-0.3408520817756653,0.010425705462694168,0.23051917552947998,0.07067500799894333,0.3442125916481018,0.28104400634765625,0.24192456901073456,0.7830960750579834,0.43034544587135315,-0.14565446972846985,-0.8356314897537231,0.884895920753479,0.6888225674629211,0.24540087580680847,0.2442360818386078,-0.34452134370803833,-0.25173184275627136,-0.13159193098545074,0.43246158957481384,0.15356948971748352,-0.10339830070734024,0.5211871862411499,-0.11163154989480972,-0.4286828935146332,0.527157187461853,0.14564958214759827,-0.6845638751983643,0.6584393382072449,-0.10847879201173782,0.20535284280776978,0.31368881464004517,0.727458119392395,0.36372101306915283,0.03361453115940094,-0.10196713358163834,0.0873730480670929,-0.2263137251138687,-0.11763006448745728,-0.7056710124015808,0.11827713996171951,-0.24328164756298065,-0.04723510146141052,0.049525514245033264],[0.28908413648605347,0.4842447340488434,1.5283410549163818,0.42925480008125305,-0.28042951226234436,0.8632524013519287,-1.4229768514633179,0.2104354351758957,0.3861747980117798,-0.5363259315490723,0.3564823269844055,-0.33772826194763184,0.11335647851228714,0.04337656870484352,0.7268431186676025,-0.1148291528224945,0.2870442867279053,0.24661274254322052,0.1407545804977417,0.003510913345962763,-0.023279214277863503,1.013018012046814,0.6153658628463745,0.6637510061264038,-0.06432812660932541,0.12092620879411697,-0.9553961157798767,-0.8328959941864014,-0.3557721674442291,0.23335470259189606,-0.15579460561275482,-0.4899142384529114,0.004715926945209503,-0.2548215985298157,0.34100043773651123,-0.0036409625317901373,0.1902039796113968,-0.36867421865463257,0.21426305174827576,-0.4337112307548523,0.24635756015777588,0.513887345790863,-0.5719118714332581,-0.02853846549987793,0.6583905220031738,-0.314529687166214,0.15454187989234924,0.46330639719963074,-0.16942726075649261,0.17473512887954712,0.32898956537246704,-0.09686874598264694,-0.051070455461740494,-0.10872720927000046,-0.5590043663978577,0.027954677119851112,0.21097715198993683,0.574610710144043,-0.7951231598854065,0.41675475239753723,-0.7287426590919495,0.33929792046546936,-0.08326907455921173,0.7225571274757385,-0.0808914452791214],[-0.18337741494178772,0.3308987319469452,0.7805048823356628,1.1837528944015503,-0.5520665645599365,0.10415290296077728,0.2010248899459839,0.08190096169710159,-0.32532188296318054,-0.31290578842163086,-0.18866398930549622,0.04437212273478508,0.20685771107673645,-0.018059806898236275,0.18054142594337463,-0.39892277121543884,0.30225318670272827,0.8733687400817871,0.3556359112262726,-0.12198379635810852,0.062007881700992584,0.3450019359588623,0.636101484298706,0.6644251346588135,0.4834345579147339,0.0965832993388176,-1.8490660190582275,-0.84952712059021,0.46789783239364624,0.36394327878952026,0.18233495950698853,0.24363082647323608,0.6051334142684937,0.3289796710014343,0.010943558067083359,-0.6242425441741943,0.09403306245803833,0.284330815076828,0.11045818030834198,1.2123583555221558,-0.6319705843925476,1.8542990684509277,0.1989739090204239,-0.5174394845962524,-0.6571736335754395,0.5243102312088013,-0.5788668394088745,0.5903331637382507,0.09092162549495697,-0.451012521982193,-0.1096724420785904,0.7093972563743591,-0.5428361296653748,-0.03459378704428673,-0.2286636233329773,-0.4711868464946747,-0.008826621808111668,0.013644405640661716,-0.282593309879303,0.589758574962616,-0.6758210062980652,0.25533196330070496,-0.23185032606124878,0.006076085846871138,0.16797202825546265],[0.23125892877578735,-0.058297377079725266,-0.4962261915206909,1.0703550577163696,0.41812586784362793,0.027033215388655663,1.0072425603866577,0.3329988718032837,-0.4568396806716919,0.14976170659065247,-0.18494147062301636,-1.3374011516571045,-0.5282357931137085,-0.04307679459452629,-0.5827723741531372,1.2218115329742432,-0.4213293790817261,0.0642072781920433,-0.2790941894054413,0.12389850616455078,-0.4372880458831787,-0.2706352174282074,0.22449806332588196,0.3583689033985138,0.17462293803691864,0.09684183448553085,-1.2910563945770264,-0.09375617653131485,0.5103163719177246,-0.09842763841152191,-0.02139398828148842,-0.5119957327842712,0.663317084312439,0.4241654574871063,-0.2543931305408478,0.13226045668125153,0.0898241326212883,0.2962515354156494,0.15379495918750763,0.5023173093795776,-0.09602475166320801,0.39142197370529175,-0.1115722805261612,-0.36460310220718384,-0.01705333963036537,-0.0012744517298415303,-0.298448383808136,0.8444973826408386,0.3342732787132263,-0.20005838572978973,-0.15521156787872314,0.33574655652046204,-0.2609667181968689,-0.2597835063934326,0.5447542071342468,-0.5179766416549683,0.09824243932962418,0.650797963142395,0.5030065178871155,0.08478514850139618,-0.47440117597579956,-0.030841805040836334,0.2849738299846649,0.15822650492191315,0.1510896235704422],[-0.5006877183914185,-0.08196109533309937,-0.5464893579483032,-0.035247139632701874,0.38368988037109375,-0.9223390221595764,0.4465091824531555,0.11037486791610718,0.2601498067378998,-0.5952624678611755,0.11696398258209229,-0.3081181049346924,-0.018029462546110153,-0.0051454417407512665,0.2859669029712677,-0.6186002492904663,-0.7586674690246582,-0.49701637029647827,-0.26479384303092957,0.03430355712771416,0.5357645750045776,-0.3066307008266449,0.4022367000579834,0.11901979148387909,1.3217161893844604,0.04725703224539757,-1.3676396608352661,-0.16076260805130005,-0.06264984607696533,0.22683562338352203,0.3233584463596344,-0.07188993692398071,-1.6965923309326172,-0.28383100032806396,-0.11438117176294327,-0.20116157829761505,0.0618961937725544,0.32282987236976624,0.16938553750514984,-0.3156895637512207,-0.39400091767311096,0.2714973986148834,0.3413151204586029,-0.27035966515541077,-0.5202087163925171,0.45620542764663696,-0.44592756032943726,0.5316470265388489,0.13518065214157104,-0.6189097762107849,0.2686622738838196,0.46533703804016113,-0.5726101398468018,0.26587751507759094,-0.05651946738362312,-1.030871033668518,-0.49620524048805237,-0.26310718059539795,-0.2189050167798996,-0.05764011666178703,-0.07378038763999939,-0.14569194614887238,-0.12459691613912582,-0.5941044688224792,0.1939273327589035],[0.07379483431577682,0.5452356934547424,0.2695464491844177,0.316203236579895,0.05233018100261688,0.08495452255010605,2.5669960975646973,-0.4364067614078522,0.6727724075317383,0.36020946502685547,-0.34161338210105896,-0.6576279401779175,1.3793072700500488,0.0029728917870670557,-0.2505120635032654,-0.08009178936481476,-0.17091649770736694,0.08567628264427185,0.31388577818870544,0.030714187771081924,-0.04784262925386429,-0.2737136483192444,-0.21107012033462524,-0.05663404241204262,0.5589556694030762,-0.09120141714811325,0.21506552398204803,0.4040672481060028,0.16369777917861938,0.37896451354026794,0.2844501733779907,1.5255316495895386,-0.6284437775611877,-1.1130783557891846,0.16319647431373596,0.40594810247421265,0.29061359167099,0.6336907744407654,0.1757628172636032,-0.22462822496891022,-0.14768940210342407,-0.2187962383031845,0.03387109562754631,0.0005814807373099029,-0.004774324595928192,0.06270745396614075,-0.02127392217516899,-0.04324377700686455,-0.27472198009490967,-0.2091590166091919,0.6840037703514099,-0.3700214624404907,-0.2031920701265335,0.7736879587173462,-0.5621991753578186,0.4624360501766205,0.3672460615634918,0.571825385093689,0.18849600851535797,-0.08820562809705734,0.17314811050891876,-0.11421561986207962,0.6251217126846313,-0.05785396695137024,0.048812251538038254],[-0.045635201036930084,0.06608839333057404,0.23886020481586456,-0.2667902708053589,-0.630806028842926,0.2505982220172882,2.1411938667297363,-0.7720369696617126,0.38371312618255615,-0.04931759089231491,0.2894725501537323,1.105014681816101,0.5085679292678833,-0.04794727638363838,-0.17785930633544922,-0.48449254035949707,0.4714076519012451,0.6141582727432251,-0.25657808780670166,0.12243005633354187,0.2817176580429077,-0.635961651802063,0.3086434006690979,1.1559953689575195,-0.17402459681034088,0.07171488553285599,0.39371997117996216,-0.06049641966819763,0.06884022057056427,-0.48649656772613525,-0.5487858057022095,-0.9315590262413025,1.0260910987854004,-0.21909712255001068,-0.18507657945156097,0.46112746000289917,-0.353498250246048,-0.3441888093948364,0.13815945386886597,0.031103651970624924,0.09449302405118942,-0.7714170813560486,0.1641373336315155,0.02039404958486557,0.33539217710494995,-0.3441442847251892,0.06565453857183456,0.029611976817250252,0.13952066004276276,0.02146814949810505,0.15753187239170074,-0.6362883448600769,0.1847570389509201,-0.07376348227262497,0.1329968124628067,0.44773000478744507,0.4638538062572479,-0.46309250593185425,0.18194368481636047,0.250074177980423,-0.17788539826869965,-0.15066693723201752,-0.22126320004463196,0.9262648820877075,-0.45932143926620483],[-0.3936103582382202,-0.46709221601486206,-0.43742889165878296,-0.3495500683784485,-0.010913999751210213,-0.6837462186813354,0.7759853601455688,-0.47027429938316345,0.9979841709136963,-0.5459364652633667,-0.20984035730361938,0.17709828913211823,0.2553490698337555,0.0604495070874691,-0.11099263280630112,-0.13720914721488953,-0.8731330037117004,-0.7563658356666565,-0.3711300194263458,-0.10766644030809402,0.27128076553344727,-0.6861013770103455,-0.45628035068511963,-0.6504575610160828,0.3255622386932373,0.09473136067390442,0.37520912289619446,0.7612668871879578,-0.17498569190502167,-0.015018484555184841,0.27746596932411194,0.5233041048049927,-0.819591224193573,0.023838594555854797,-0.766677737236023,0.36514654755592346,0.14782457053661346,0.2828965187072754,0.5056083798408508,-0.0032502824906259775,-0.3795301914215088,-0.08565417677164078,0.1651621162891388,-0.119183748960495,-0.38530442118644714,0.5996295213699341,-0.3804565966129303,-0.08057218790054321,-0.24689191579818726,-0.39182552695274353,0.3773358464241028,0.23418472707271576,-0.6325530409812927,0.10548245906829834,-0.036540791392326355,-0.9968719482421875,-0.568088710308075,-0.15265624225139618,1.1544249057769775,0.1302560269832611,0.3503262400627136,-0.37539148330688477,-0.31759288907051086,-1.0301975011825562,-0.10131721198558807],[0.3280092179775238,-0.030049683526158333,-0.9015890955924988,-0.5020055770874023,-0.6460081338882446,0.9007965922355652,-0.9337256550788879,-0.2786964178085327,-1.1424652338027954,-0.37767764925956726,0.11095808446407318,0.028886619955301285,-0.3046601414680481,0.09228489547967911,-0.4287666380405426,-0.2687397599220276,0.42211678624153137,0.24101872742176056,-0.5086338520050049,0.03812798112630844,-0.44156476855278015,-0.5004645586013794,0.21647609770298004,0.22037869691848755,-0.46929094195365906,-0.024240201339125633,-0.06026946008205414,-0.3512973189353943,0.2214445173740387,-0.29979780316352844,-0.46605485677719116,-0.32856637239456177,0.2359817624092102,-0.7670398354530334,0.4678270220756531,0.0792192593216896,-0.2250148206949234,0.09066107124090195,-0.3622536361217499,0.057209230959415436,-0.1479981690645218,-0.20664630830287933,0.1984880566596985,-0.2529654800891876,-0.037614643573760986,0.09664525836706161,-0.005577715113759041,0.0878191739320755,-0.2820478677749634,-0.16635528206825256,0.2236146628856659,-0.3424103856086731,0.12831690907478333,-0.052573565393686295,-0.02216779626905918,1.270715594291687,0.019515080377459526,0.29219043254852295,0.0029632174409925938,-1.337829351425171,-0.07740598171949387,0.0011626690393313766,-0.5618236660957336,0.12691722810268402,-0.3813902735710144],[-0.07051795721054077,0.06166684627532959,-1.047508955001831,0.08516046404838562,0.20190908014774323,-1.1588134765625,1.1073386669158936,-0.1821182817220688,0.6881020665168762,0.17229759693145752,0.5383293628692627,1.055284023284912,0.7754359841346741,-0.005694109480828047,0.27619603276252747,1.1715998649597168,0.17045380175113678,0.3342130780220032,-0.08538594841957092,-0.08251947909593582,0.19199064373970032,-0.662708044052124,0.698543131351471,0.8139967322349548,0.27343103289604187,-0.04617823660373688,1.104602336883545,0.9273014068603516,0.046258267015218735,0.04157218337059021,-0.024880295619368553,0.15814143419265747,-0.7018175721168518,-0.0848955288529396,0.21258890628814697,0.19414669275283813,0.015155655331909657,-0.8719223737716675,-0.1212068572640419,-0.20014619827270508,-0.03350628539919853,-0.31780925393104553,0.4978969395160675,-0.16235610842704773,0.24166470766067505,0.17011313140392303,-0.20302380621433258,-0.22376643121242523,-0.30561912059783936,-0.1811572164297104,-0.6144813299179077,0.7969014644622803,-0.07386583089828491,0.5355446934700012,-0.17723605036735535,-0.08333262801170349,0.36910727620124817,0.1877341866493225,-0.2048843652009964,0.0668681412935257,-0.26963651180267334,-0.16596998274326324,0.5840451121330261,0.6083754897117615,-0.0885300487279892],[-0.47408032417297363,0.0025185965932905674,0.27494680881500244,0.4118548035621643,-0.04802357032895088,0.13055308163166046,-0.6538835167884827,0.09783778339624405,0.7432969212532043,-0.11243186146020889,0.09866780042648315,0.5752068758010864,-0.7882550954818726,-0.026444438844919205,0.3512154519557953,-0.22561225295066833,-0.31487247347831726,-0.5315752029418945,-1.3885612487792969,-0.022778404876589775,0.3515321910381317,-0.28160303831100464,-0.45958080887794495,0.04134861007332802,-0.5226821899414062,-0.052024126052856445,2.177847146987915,-0.11601246893405914,-0.29614752531051636,0.018648255616426468,-0.2187243402004242,1.1571273803710938,-1.2985804080963135,-0.6417035460472107,0.4548524022102356,0.32318124175071716,-0.01919631101191044,-0.016383595764636993,-0.19608575105667114,0.33984142541885376,-0.1842842698097229,0.2342626452445984,-0.06176725775003433,-0.15192006528377533,0.6213847398757935,0.26481932401657104,-0.2676238417625427,-0.07488805800676346,-0.33797112107276917,-0.1642274409532547,0.7475912570953369,0.18623094260692596,-0.25465157628059387,0.5673271417617798,-0.25759777426719666,0.13435570895671844,-0.04346034675836563,0.24916504323482513,-0.5930458307266235,-0.44054296612739563,-0.3473251461982727,8.283388160634786e-05,-0.08322257548570633,-0.4725550413131714,0.14114810526371002],[-0.2569871246814728,0.970431923866272,1.2033488750457764,-1.3242623805999756,-0.37849271297454834,-0.5607181787490845,0.20984789729118347,-0.23017679154872894,0.17529022693634033,-0.8843477964401245,0.7842877507209778,0.3059181869029999,0.688711941242218,-0.06426510214805603,-0.02085229381918907,-0.7895339131355286,-0.08482830226421356,0.2483057975769043,0.4894527792930603,-0.07308933883905411,-0.7660729289054871,0.14603319764137268,0.27916988730430603,0.39303144812583923,0.5278192162513733,-0.04737026244401932,0.3751853406429291,-1.2346792221069336,0.1939696967601776,-0.14948956668376923,0.21112318336963654,-0.7271944284439087,0.9348134994506836,-0.6215536594390869,-0.08479742705821991,-0.5810493230819702,-0.11725834012031555,-0.2829056680202484,0.20461365580558777,-0.13233420252799988,-0.0130934352055192,0.5172032713890076,-0.48834681510925293,-0.14719991385936737,-0.23652230203151703,-0.45997899770736694,-0.2794114351272583,0.7270064949989319,-0.780587375164032,-0.26870039105415344,-0.22175325453281403,-0.15028536319732666,-0.299679696559906,-0.20150941610336304,-0.2913763225078583,-0.61766117811203,0.1073712632060051,0.7095505595207214,-0.9373815059661865,0.7980614304542542,-0.45101311802864075,0.07327607274055481,-0.006394678261131048,0.0336722806096077,-0.029205260798335075],[0.5848232507705688,-0.3587039113044739,-0.8975818157196045,-0.29905396699905396,0.5600336194038391,0.16564783453941345,-0.12683194875717163,0.3885993957519531,-0.6356915235519409,0.20134195685386658,-0.33918240666389465,-1.2461670637130737,0.3012840747833252,-0.06422574073076248,-0.7479474544525146,0.1157039925456047,0.03361472859978676,0.4609313905239105,-0.5431532859802246,0.05636981874704361,0.15153354406356812,0.030858896672725677,0.3524167239665985,-0.038482487201690674,0.505350649356842,-0.035386815667152405,-0.047862086445093155,0.22899237275123596,-0.39125722646713257,0.3727976381778717,-0.016477789729833603,0.8555510640144348,-1.1361945867538452,0.14656412601470947,-0.7612227201461792,-0.03284071013331413,0.4545355439186096,1.0897122621536255,-0.5747180581092834,-0.22628450393676758,0.0518796406686306,0.08751469105482101,0.22374549508094788,0.008471710607409477,-1.3224247694015503,-0.2405291199684143,-0.01038549654185772,-0.5617152452468872,0.5807923078536987,0.10896401852369308,-0.1786990761756897,0.11843106150627136,-0.13701048493385315,-0.40799635648727417,0.3806798756122589,-0.015524081885814667,0.06253286451101303,0.2383609563112259,1.1432479619979858,0.14311914145946503,-0.4981309473514557,0.007878033444285393,-0.2864576578140259,-0.06277360767126083,0.20359592139720917],[-0.19800999760627747,-0.1287190169095993,-0.9865595698356628,-0.8036571741104126,0.25263142585754395,-1.231013536453247,1.2252051830291748,-0.11933434009552002,0.5113546848297119,-0.09338212758302689,-0.31364068388938904,-0.47109970450401306,0.44564273953437805,0.044421058148145676,-0.10914275795221329,-0.6037057042121887,-0.5488980412483215,-0.5778350234031677,-0.23568184673786163,-0.05713183432817459,-0.8235177397727966,-0.17475886642932892,-0.2220183163881302,-0.6960163712501526,0.31787630915641785,-0.11695476621389389,-0.2966454327106476,1.0157063007354736,-0.26391759514808655,0.0046983808279037476,0.3709399998188019,-0.6444371938705444,-1.081853985786438,-0.002876891754567623,-0.5546712279319763,0.05767486244440079,0.14857926964759827,-0.004045344889163971,-0.35062167048454285,-0.6169620752334595,0.24156415462493896,-1.166721224784851,-0.02860155701637268,0.2847018539905548,-0.7369157671928406,-0.32042694091796875,0.13897231221199036,-0.3907693922519684,0.21855232119560242,0.015194625593721867,-0.6621639132499695,0.18422771990299225,0.06452308595180511,-0.029929010197520256,-0.6127083897590637,-0.7087265849113464,-0.04638129100203514,-0.748275637626648,0.2786579430103302,0.42629510164260864,0.7241690158843994,-0.17921583354473114,0.1733778715133667,-1.3138819932937622,0.10655003786087036],[-0.3826112747192383,-0.5237779021263123,-0.9267751574516296,0.8500584959983826,0.7995303869247437,0.303622305393219,0.3296547830104828,0.38126707077026367,-1.7242072820663452,0.37926074862480164,-0.08888866007328033,-0.3909480571746826,-0.5960924029350281,-0.11068428307771683,0.018389388918876648,0.3300890624523163,0.23898747563362122,-0.05841230973601341,0.42495614290237427,0.05172738432884216,0.2831231653690338,0.7247751951217651,0.047571804374456406,0.23707057535648346,0.7253117561340332,-0.06885380297899246,0.24778321385383606,-0.2781587839126587,0.35193002223968506,0.42264324426651,0.05001064017415047,-1.2825818061828613,0.27786916494369507,0.5052663087844849,0.28063878417015076,-0.14902958273887634,0.37142330408096313,0.09557170420885086,0.5909311175346375,0.10680316388607025,-0.20611093938350677,0.2810038924217224,0.5621903538703918,-0.2971727252006531,0.4536946713924408,-0.952086865901947,-0.12227417528629303,-0.027222024276852608,0.7260875105857849,-0.16122722625732422,-0.07146986573934555,0.7873125076293945,-0.11998138576745987,-0.004966885317116976,0.5168272256851196,-0.791359007358551,-0.35770004987716675,0.7884769439697266,0.4873661398887634,0.6852524876594543,-0.02394741401076317,-0.2536599338054657,-0.0452401228249073,0.07670522481203079,0.3668949007987976],[0.8015419840812683,0.5506933927536011,0.26430049538612366,0.207815021276474,-0.4852645993232727,0.8677405714988708,-0.8950379490852356,-0.03462957590818405,-0.643570065498352,-0.756244957447052,-0.14738284051418304,0.46757563948631287,-0.35481199622154236,-0.045945726335048676,-0.09350261837244034,0.40323811769485474,0.07533366978168488,-0.29086047410964966,-0.08878503739833832,0.035801298916339874,-0.6512226462364197,0.503169059753418,0.12736433744430542,-0.38715314865112305,-0.18577875196933746,-0.03681670501828194,-0.3915289044380188,0.12565730512142181,-0.0011875777272507548,-0.4228658080101013,0.15199725329875946,0.096714086830616,1.214432954788208,-0.6106805205345154,0.2992710471153259,-0.330131471157074,-0.5120394825935364,-0.31363651156425476,-0.4031498432159424,-0.30363577604293823,-0.296931654214859,-0.09473556280136108,-0.8552705645561218,-0.1768464893102646,0.562693178653717,0.3516136109828949,-0.1204269677400589,0.27304428815841675,-0.9229217767715454,-0.14793837070465088,-0.5959842205047607,-0.1516766995191574,0.00823945365846157,-0.415993869304657,-0.708054780960083,1.384515643119812,0.3321331739425659,0.5636266469955444,-0.3234039843082428,-0.20546455681324005,-0.8234087824821472,-0.30614879727363586,0.3810746371746063,1.0254217386245728,-0.012131808325648308],[-0.12366139143705368,0.31484097242355347,-1.0394235849380493,0.34254705905914307,1.053189992904663,-0.43969425559043884,-1.1161141395568848,0.903365433216095,-0.7241582870483398,-0.6396490335464478,0.0913378968834877,0.03934157267212868,-0.8807846903800964,-0.06282179057598114,-0.18915171921253204,0.24694067239761353,-0.3910607099533081,-0.6090126633644104,-1.029798150062561,-0.08390474319458008,0.06230230629444122,-0.08468440920114517,-0.9416940212249756,-0.7812787890434265,-0.846886157989502,-0.040475212037563324,2.7405340671539307,0.39029109477996826,-0.12758572399616241,0.8746520280838013,0.7567802667617798,0.4828234612941742,1.1614171266555786,-0.25403693318367004,-0.04153118655085564,0.28155234456062317,0.12580037117004395,-0.6236085295677185,-0.08258533477783203,-0.48893487453460693,-0.07699652016162872,-0.4092799723148346,0.1942691206932068,-0.2821856737136841,0.7829340696334839,-0.043393999338150024,-0.15487532317638397,0.23197409510612488,0.24238593876361847,-0.22692500054836273,0.05515263229608536,0.098372682929039,-0.08646330237388611,-0.12320385873317719,-0.32156723737716675,-0.7012621760368347,-0.10011284798383713,-0.03877979516983032,-0.5688941478729248,-0.34275832772254944,0.14143045246601105,0.2379535585641861,0.24829386174678802,-0.6900601983070374,0.6574831008911133],[0.11192744970321655,0.16147355735301971,-0.597626268863678,0.546712338924408,-0.14956112205982208,0.18225979804992676,1.0109524726867676,0.0738668292760849,-0.7613016963005066,-0.5470002889633179,-0.5655751824378967,-1.4295133352279663,0.48560792207717896,-0.10348187386989594,0.12798205018043518,-0.20988845825195312,-0.6604114174842834,-0.29006561636924744,0.7331503629684448,0.12382293492555618,-0.6241154074668884,-0.917026698589325,0.749584972858429,0.3828743100166321,1.0734673738479614,-0.05518290773034096,-1.3631787300109863,-0.5924492478370667,0.3501460552215576,0.13782735168933868,0.15139414370059967,-0.5436644554138184,0.7606920599937439,-0.0706510990858078,-0.3321657180786133,-0.2887057065963745,0.0865563377737999,0.5087060332298279,-0.5542079210281372,0.7013146281242371,-0.26056450605392456,-0.23709732294082642,0.1100374236702919,-0.22076325118541718,-0.6943519711494446,0.951079249382019,-0.09154266864061356,-0.03421223536133766,0.46972766518592834,-0.15065379440784454,-0.6167210936546326,0.4285544157028198,-0.19463899731636047,-0.29931923747062683,-0.5251230001449585,-0.3708474934101105,-0.1234937459230423,0.6781231760978699,0.5411186814308167,0.36600521206855774,0.09857068210840225,0.3123772144317627,0.2076411247253418,-0.18449033796787262,0.1263428032398224],[-0.25016266107559204,0.044460225850343704,-0.749596118927002,-0.2640930414199829,0.2698477506637573,0.8668286204338074,1.1107293367385864,0.4804120361804962,-0.5512362718582153,0.6954523324966431,-0.3013016879558563,-0.9435909986495972,-0.11336618661880493,-0.04602116718888283,0.49983468651771545,-0.11648640781641006,-0.06599018722772598,-0.048819418996572495,1.053895115852356,-0.028256429359316826,0.8741216659545898,0.07632303982973099,0.27054280042648315,0.059752628207206726,1.1183463335037231,0.06288714706897736,-0.5383498668670654,-0.27172917127609253,0.31526654958724976,-0.5248623490333557,-0.16777828335762024,0.12050978094339371,0.4458712339401245,-0.20273806154727936,-0.05870845541357994,-0.10061153024435043,0.18920139968395233,-0.6851087808609009,-0.06334739178419113,0.8908401727676392,0.04028350114822388,0.6997165083885193,0.8282003402709961,0.011019139550626278,-0.3643692135810852,-0.019693218171596527,-0.11029478162527084,0.34061315655708313,0.28275883197784424,-0.16158372163772583,-0.09955217689275742,0.5492119789123535,-0.1818455159664154,0.0873643159866333,0.3872796297073364,-0.8246719241142273,0.04092995822429657,1.1085566282272339,0.05729484185576439,1.0219837427139282,1.0996803045272827,0.19475707411766052,0.3779661953449249,0.22065101563930511,0.27245041728019714],[-0.4681873023509979,-0.45447757840156555,0.7426443696022034,0.7633494734764099,0.3239215910434723,-0.6205869913101196,-0.27813538908958435,0.5214622020721436,1.1389497518539429,0.25806885957717896,0.6607476472854614,1.0144891738891602,0.19318334758281708,0.11190256476402283,0.7055147290229797,0.3525153696537018,0.06557347625494003,-0.16547782719135284,-0.1772615909576416,0.08541285246610641,0.47486501932144165,-0.17677870392799377,0.2923741638660431,0.4033280611038208,-0.022157685831189156,0.004354814533144236,0.7390013933181763,0.644798219203949,0.39758729934692383,0.4820880889892578,0.2671465575695038,0.05167132616043091,-1.0649670362472534,0.5118951797485352,1.0255169868469238,0.31662964820861816,-0.4069069027900696,-0.48375582695007324,0.5290615558624268,-0.22409959137439728,0.19665418565273285,0.09599354863166809,-0.15653128921985626,0.11331210285425186,0.6738324165344238,-0.0346359945833683,0.05844808369874954,-0.1017322689294815,0.3090610206127167,0.08387178927659988,0.4534153640270233,0.07157237827777863,-0.06558308750391006,0.6209298372268677,0.8711085915565491,-0.2066013216972351,-0.09173517674207687,-0.6670423150062561,-0.04521245136857033,-0.7062546610832214,-0.32886165380477905,-0.062334757298231125,-0.6417577266693115,-0.4702015817165375,0.15908578038215637],[0.6378707885742188,-0.226621612906456,0.019471442326903343,0.5076898336410522,0.21653197705745697,0.4916765093803406,-1.004084825515747,0.20710939168930054,-1.082175612449646,-0.0278587955981493,0.036887213587760925,-0.9227069616317749,-0.6799471974372864,-0.07233031094074249,-0.5620458722114563,-0.7186262607574463,0.5697869062423706,0.585213840007782,-0.14286105334758759,0.07762998342514038,-0.2522468864917755,-0.05197730287909508,0.5870531797409058,0.6034397482872009,-0.8823049664497375,0.1078873723745346,-1.541306972503662,-1.0822144746780396,-0.141392320394516,0.09844888746738434,-0.3312830924987793,0.17416058480739594,0.16685399413108826,-0.35943350195884705,0.35558393597602844,-0.18165133893489838,-0.14559008181095123,0.12576894462108612,-0.08564106374979019,0.21161006391048431,-0.410058856010437,0.6370540261268616,0.3357101082801819,-0.13297277688980103,-0.3116995692253113,0.601365864276886,-0.10949613153934479,-0.30354365706443787,0.6653069853782654,-0.06917759031057358,0.42418861389160156,-0.05557218939065933,-0.160113126039505,-0.5433240532875061,-0.01349620707333088,1.0905852317810059,0.063149593770504,-0.20970332622528076,-0.25066906213760376,-0.32504111528396606,-0.18724748492240906,0.13125868141651154,-0.5401310920715332,0.7745699286460876,-0.10686326771974564],[0.21656744182109833,0.29521211981773376,0.27432310581207275,0.10356178134679794,-0.17550157010555267,0.9673725962638855,0.016597220674157143,-0.21826894581317902,-0.48716241121292114,0.3625235855579376,-0.20025521516799927,-1.2376071214675903,-0.7706919312477112,0.12132590264081955,-0.400604248046875,-0.11006893217563629,0.23149818181991577,-0.16490468382835388,-0.15742145478725433,0.020619191229343414,-0.9478779435157776,-0.5233494639396667,-0.20803877711296082,-0.573516309261322,-0.5981776118278503,0.10850585997104645,-0.9734008312225342,-0.7696051001548767,0.11628758907318115,-0.05021442100405693,0.3362126052379608,-0.5985580682754517,0.8058376908302307,0.0006202428485266864,-0.3073302209377289,0.16174058616161346,0.37013980746269226,-0.21415725350379944,0.02812931500375271,-0.051624663174152374,-0.16039837896823883,0.4422704875469208,-0.6999382376670837,-0.14287804067134857,-0.04571722075343132,0.2221192866563797,-0.07623592019081116,0.15599307417869568,-0.12609925866127014,-0.27606385946273804,-0.496762216091156,0.2006426304578781,0.20295976102352142,0.11587230116128922,0.15338270366191864,0.6632722616195679,0.36490508913993835,0.49048280715942383,0.34621185064315796,0.31537750363349915,0.626537024974823,0.16056106984615326,0.36825793981552124,0.5745071768760681,0.21866820752620697],[0.0457872711122036,-0.7161306142807007,0.012892789207398891,-0.5416221022605896,-0.5247924327850342,0.8530495166778564,1.3221831321716309,-0.18787682056427002,-0.4856298565864563,0.17627283930778503,-0.013303637504577637,1.3595751523971558,0.6187402606010437,-0.09350311011075974,0.224712535738945,0.846809983253479,-0.011967936530709267,-0.33049583435058594,0.5467963814735413,0.07354746013879776,-0.0246051587164402,0.12071818113327026,-0.135540172457695,-0.17434482276439667,-0.5514721870422363,-0.07216856628656387,-0.5613325238227844,0.051812924444675446,0.5283573865890503,-0.33288776874542236,-0.30085521936416626,-0.33838337659835815,0.6402351260185242,0.16478686034679413,0.2204102724790573,0.6420643329620361,0.13668689131736755,0.9848980903625488,-0.012616788037121296,0.8618358373641968,-0.4079365134239197,0.06842911243438721,0.58868008852005,-0.11204158514738083,0.24563638865947723,-0.09878669679164886,-0.13149772584438324,-0.24458804726600647,-0.4864625334739685,-0.16593116521835327,0.2400331199169159,0.2892518639564514,-0.31188738346099854,-0.5421074628829956,0.8148634433746338,-0.236580029129982,-0.2388445883989334,-0.031339380890131,-0.4053419232368469,0.14989982545375824,0.5769588947296143,0.3449464738368988,-0.13283337652683258,0.16571849584579468,-0.23727145791053772],[0.0696098804473877,-0.4499221742153168,1.0963597297668457,-1.2800058126449585,-0.0031250372994691133,0.03366537764668465,1.5133198499679565,-0.18169093132019043,0.9845046997070312,1.4027806520462036,-0.026591159403324127,0.062430139631032944,0.9613083600997925,-0.037224963307380676,0.4787101149559021,0.7155961394309998,-0.30174288153648376,-0.047575563192367554,0.6638892292976379,0.030223408713936806,0.7440056204795837,0.16541163623332977,0.14408598840236664,-0.09124384820461273,1.2924797534942627,0.10556624084711075,-0.45882222056388855,0.43344664573669434,0.09940661489963531,-0.22732840478420258,0.057525284588336945,-0.18657448887825012,-0.07761124521493912,0.4030383825302124,-0.3623993992805481,-0.759969174861908,-0.18535304069519043,0.8549262881278992,0.35060250759124756,1.0770394802093506,-0.15829315781593323,0.30660492181777954,0.8438956141471863,0.09168917685747147,-0.09658731520175934,-0.3292546570301056,-0.0636385902762413,-0.14734962582588196,-0.2446715384721756,-0.04773106053471565,0.5742356181144714,-0.5494565367698669,0.10471931099891663,0.09438127279281616,1.0898009538650513,-0.43382689356803894,0.17522285878658295,-0.5133830904960632,0.22699382901191711,0.5385444164276123,0.30637598037719727,-0.0636492520570755,0.22296744585037231,0.04202772304415703,-0.25438159704208374],[-0.3524339199066162,0.03426027670502663,-0.457347571849823,0.3153880536556244,0.5433375239372253,-1.0000989437103271,-0.8099897503852844,-0.10105191916227341,0.6917858123779297,-0.051687873899936676,0.4268578588962555,-0.013788050040602684,0.0740460529923439,-0.10737708956003189,0.28400468826293945,0.47589609026908875,-0.1512676328420639,0.23301798105239868,0.4886012077331543,-0.019096771255135536,0.5868849158287048,0.17797552049160004,-0.00441767368465662,0.17849618196487427,0.1238614097237587,-0.1234087198972702,1.7541780471801758,-0.16936947405338287,0.5943748950958252,0.2983800768852234,-0.04503355547785759,0.5793347954750061,-1.134885549545288,0.30300474166870117,0.943045973777771,0.9952652454376221,0.45675599575042725,0.9473715424537659,-0.18249091506004333,-0.34880876541137695,0.04201296716928482,-0.2405698597431183,-0.3167688846588135,0.14218813180923462,0.07123167812824249,0.3322427570819855,0.16550622880458832,-0.36368680000305176,-0.052791837602853775,0.036407891660928726,0.5688876509666443,0.06821461766958237,0.0564982034265995,0.45238637924194336,-0.17145761847496033,1.3320982456207275,0.058399077504873276,0.022273410111665726,-0.04682499170303345,-0.6349416971206665,-0.45906519889831543,0.3561590611934662,0.047242261469364166,-0.20827239751815796,0.05965661257505417],[0.4240979254245758,0.15507636964321136,-0.5167409777641296,0.33439111709594727,0.07415958493947983,0.36559563875198364,-0.5365515351295471,-0.023321576416492462,-0.7570658326148987,0.5336376428604126,-0.743497908115387,-0.9295920133590698,-0.23200343549251556,0.06222391501069069,-0.24896295368671417,-0.46317267417907715,-0.1749686598777771,-0.9238427877426147,-0.19310131669044495,0.011542407795786858,-0.2919946014881134,0.7214911580085754,-0.9321759939193726,-0.592386782169342,-1.1233693361282349,0.036595046520233154,-0.9654197096824646,0.44312602281570435,-0.3270825743675232,0.10483169555664062,0.03419574350118637,0.2732900381088257,-0.37161561846733093,0.33545899391174316,-0.4125027358531952,-0.04091767594218254,-0.06036169454455376,1.1747639179229736,0.02618713118135929,-0.6956123113632202,0.14525985717773438,0.876153826713562,-0.30589503049850464,-0.12027915567159653,-0.5762415528297424,0.12449795752763748,0.04519786313176155,0.4292723536491394,-0.5451048612594604,-0.19569166004657745,-0.10396966338157654,0.20541654527187347,-0.036972224712371826,0.26428771018981934,0.46777188777923584,0.18368114531040192,0.030095050111413002,0.38598203659057617,0.32208988070487976,-0.5172553062438965,0.08272852748632431,0.1399189531803131,-0.11541635543107986,-0.49107426404953003,0.09248574823141098],[-0.1041920855641365,-0.3369940221309662,-0.579915463924408,0.033343736082315445,0.4729292094707489,1.0141725540161133,-0.22453267872333527,0.18341827392578125,-1.0466516017913818,0.9593367576599121,-1.0056229829788208,-1.851578950881958,-0.791074812412262,0.06365516036748886,0.21784275770187378,0.4638693332672119,-1.271847213502042e-05,-0.1760113388299942,0.6936631798744202,-0.0026368186809122562,-0.47192397713661194,0.4388071894645691,-0.7344531416893005,-0.5135257244110107,-0.6749588847160339,-0.07525534182786942,0.29931846261024475,-0.1823112517595291,-0.147800013422966,0.09983779489994049,0.6410455703735352,0.642370879650116,-0.24016167223453522,-0.16489200294017792,0.36570802330970764,-0.17113029956817627,0.6926896572113037,-0.02184499055147171,0.16368384659290314,0.04642180725932121,-0.018289338797330856,0.5082807540893555,0.2268645465373993,0.05397392809391022,-0.15089154243469238,0.49378538131713867,-0.025354567915201187,-0.0864618793129921,0.4111287593841553,-0.02330760844051838,-0.5189495086669922,0.32534223794937134,0.19281232357025146,-0.1433795988559723,0.3997272551059723,0.316930890083313,-0.24242280423641205,0.8347913026809692,0.17118693888187408,0.19654738903045654,0.020884787663817406,0.4319188892841339,0.42267993092536926,-0.800247311592102,0.48283615708351135],[-0.24806742370128632,-0.019459158182144165,-0.2316681295633316,-0.654940128326416,0.4519871175289154,-1.6964374780654907,-0.6028331518173218,0.16852207481861115,1.4190634489059448,-0.5892346501350403,0.4334445297718048,1.4333155155181885,0.535241961479187,0.08590608835220337,-0.07764797657728195,-0.28378334641456604,0.08154550194740295,0.28116732835769653,-0.14925868809223175,-0.0479436069726944,-0.13633783161640167,-0.18953527510166168,0.2911432683467865,-0.07588502019643784,-0.4532581567764282,0.07255495339632034,0.22603662312030792,0.9306713938713074,-0.2261047661304474,0.653008222579956,0.2971203923225403,0.246889129281044,0.4764505922794342,-0.035369355231523514,-0.13235393166542053,0.20291119813919067,-0.08674707263708115,0.26697003841400146,0.21924863755702972,-0.44366246461868286,-0.052331674844026566,-0.04075729846954346,-0.0015198549954220653,-0.022385118529200554,0.13132479786872864,0.13700148463249207,0.14837366342544556,0.19367022812366486,0.13140861690044403,0.22548021376132965,0.470411092042923,-0.4150959551334381,-0.029665915295481682,0.09202377498149872,-0.3694148659706116,0.3579716980457306,-0.037465013563632965,0.3401215970516205,0.24649572372436523,-0.7447710037231445,-0.5629611015319824,-0.1619361788034439,-0.3036460280418396,-0.5200887322425842,0.17861416935920715],[-0.06130528450012207,0.5662011504173279,0.8340126872062683,0.7752640843391418,-0.20848844945430756,0.35703685879707336,0.5580533742904663,0.14317679405212402,-0.5235578417778015,-0.4811345040798187,-0.343540221452713,-1.0891507863998413,0.15803110599517822,0.09636955708265305,-0.47057652473449707,0.2379825860261917,-0.4290868639945984,-0.28891775012016296,-0.4845510721206665,0.057321421802043915,-0.4316263496875763,1.2239748239517212,-0.6493632793426514,-0.8473988771438599,-0.015129121951758862,-0.0749431774020195,-2.3068251609802246,-0.3041664958000183,-0.274356484413147,-0.29869845509529114,0.295896977186203,0.47261273860931396,0.6390137076377869,0.02358999289572239,-0.5475037693977356,-0.37904080748558044,-0.02510119415819645,-0.20682327449321747,-0.3788800835609436,-0.3003940284252167,-0.19885025918483734,0.6093705892562866,-0.6092149019241333,-0.1540360450744629,-0.08691015839576721,-0.22035002708435059,-0.10402368009090424,0.024571334943175316,0.14152701199054718,0.07963738590478897,-0.32570821046829224,0.11977545917034149,-0.21777530014514923,-0.39203864336013794,-0.09702495485544205,-1.2841167449951172,-0.27258750796318054,0.28133776783943176,0.22044867277145386,0.4913097023963928,-0.31859028339385986,-0.06869885325431824,0.20796382427215576,-0.622749388217926,0.23208461701869965],[0.15933360159397125,-0.11185739189386368,-0.7107192873954773,-0.014636768028140068,0.26172956824302673,1.0776457786560059,-0.8035051822662354,0.07845964282751083,-0.9943735599517822,0.3917579650878906,-0.3139585554599762,-0.676512598991394,-1.3924388885498047,-0.050181999802589417,-0.3835400938987732,0.14216315746307373,-0.09518983960151672,-1.0930867195129395,-0.392942875623703,-0.07666010409593582,0.17463193833827972,1.2188471555709839,-0.8165537714958191,-1.0203479528427124,-0.6868991255760193,0.11991828680038452,-0.05087663605809212,0.6281611323356628,-0.17689979076385498,0.40099307894706726,0.6866353154182434,0.06677775830030441,0.04995941370725632,0.5692497491836548,0.08334138989448547,0.2783491313457489,0.5451359152793884,0.27558502554893494,-0.07949188351631165,-0.3132953345775604,0.06172332912683487,0.4947701096534729,-0.3962802290916443,0.08169320225715637,-0.07040122896432877,-0.0765526294708252,0.12671402096748352,-0.10163476318120956,0.09920042008161545,0.17006836831569672,0.12641915678977966,0.2275046706199646,0.04385988786816597,-0.49981141090393066,0.09437527507543564,-0.0677272155880928,0.04507870972156525,-0.20631322264671326,-0.15418744087219238,-0.300118625164032,-0.32228145003318787,0.2874777913093567,0.13383345305919647,-0.2204354852437973,0.42665895819664],[-0.09809137880802155,0.6182600259780884,-0.6064066290855408,-0.4395850598812103,-0.2690727710723877,-0.5410355925559998,0.8532854318618774,0.5800551772117615,-0.48453062772750854,-0.18941758573055267,-0.07379686832427979,-0.05193818733096123,0.20565034449100494,-0.024005116894841194,0.45516669750213623,0.32354986667633057,-0.5531941652297974,-0.3926558792591095,0.020540686324238777,0.03542960807681084,-0.2901683747768402,0.3257134258747101,-0.3210674226284027,-0.201942577958107,0.06039591506123543,-0.08453967422246933,0.2971965968608856,-1.0753146409988403,1.1264618635177612,0.17963644862174988,-0.17155778408050537,0.8770357370376587,0.832518458366394,-0.10622155666351318,0.7246108055114746,0.30839455127716064,0.3098277151584625,0.8486422300338745,-0.1111723929643631,-0.3144886791706085,-0.21489185094833374,0.06617675721645355,0.2413347065448761,-0.3474355638027191,0.3835662007331848,0.19280412793159485,-0.2344864457845688,0.27275344729423523,0.2761674225330353,-0.3525523543357849,0.3958538770675659,-0.5017873644828796,-0.13840538263320923,-0.1123480573296547,-0.6600704193115234,0.07756856083869934,0.06919779628515244,0.5408385992050171,-1.4422861337661743,-0.2709226608276367,-1.2338368892669678,0.3018943965435028,0.607944667339325,-0.36993229389190674,0.21396133303642273],[-0.06168307363986969,0.13611023128032684,0.35789754986763,0.17136211693286896,0.13168932497501373,-0.04830982908606529,2.376189947128296,0.2815217673778534,0.7922222018241882,-0.18865074217319489,-0.380208283662796,-0.7029134035110474,0.011032165959477425,0.041207730770111084,-0.1189083531498909,-0.19316774606704712,-0.12210040539503098,-0.27890780568122864,-0.8838485479354858,-0.11954957991838455,-0.628873348236084,0.3558919429779053,-1.0439245700836182,-0.31042957305908203,0.058204103261232376,0.02744816243648529,0.06767702102661133,1.072391152381897,-0.41628754138946533,0.5635759830474854,0.5152421593666077,0.24226580560207367,-0.3130091428756714,0.25332531332969666,-0.23137684166431427,-0.14449483156204224,-0.2638789713382721,-0.0838959813117981,0.15724216401576996,-0.6474679708480835,0.23595930635929108,0.23351596295833588,-0.692389190196991,0.08673317730426788,-0.07881420105695724,-0.08177676051855087,0.13137036561965942,-0.4861258268356323,0.0659799724817276,0.05172675475478172,-0.2731630206108093,0.15305230021476746,0.06674916297197342,0.0328577421605587,-0.4290271997451782,-0.33950886130332947,-0.15543951094150543,-0.14603553712368011,-0.5192180275917053,-0.19349248707294464,-0.6427516937255859,-0.06904716789722443,0.525624692440033,-0.3373798131942749,0.2175101637840271],[0.45470771193504333,-0.39110153913497925,-0.005481506232172251,0.4576921761035919,0.42664095759391785,0.4173063039779663,-0.7654138207435608,-0.07192399352788925,-0.37462666630744934,0.24078336358070374,0.031817104667425156,-0.14953109622001648,-0.2870447635650635,0.07328227162361145,0.18113099038600922,0.09270502626895905,0.9113337397575378,1.1073092222213745,0.17795205116271973,0.030887600034475327,0.03333268314599991,0.081153504550457,1.299393892288208,1.301957368850708,0.24352993071079254,0.008102704770863056,-0.0022639043163508177,-0.4168526232242584,0.0069082072004675865,-0.1257597804069519,-0.2644098997116089,0.19860152900218964,0.16755639016628265,0.0856628566980362,0.7144889235496521,-0.5286611318588257,-0.5826362371444702,-0.5393561720848083,-0.03460682928562164,0.359626442193985,-0.258735716342926,0.25452637672424316,0.014108042232692242,-0.1638018637895584,0.37372466921806335,-0.10806040465831757,0.002081901766359806,-0.07765260338783264,0.16945143043994904,0.050613828003406525,0.1382606029510498,0.1902880221605301,-0.07564292103052139,-0.5166516304016113,0.4111926555633545,1.3903770446777344,0.31198111176490784,-0.1613864153623581,-0.1014225035905838,-0.5343976020812988,-0.25229427218437195,-0.20600274205207825,-0.6049579381942749,1.3347110748291016,-0.41894814372062683],[0.29823100566864014,-0.11824612319469452,0.9695605039596558,-0.4094802439212799,0.5159889459609985,-0.21953654289245605,1.2009871006011963,-0.2120777815580368,-0.7208301424980164,-0.0011563603766262531,0.1690373420715332,-0.7901543974876404,0.5011923909187317,-0.11977579444646835,-0.21593789756298065,0.0499478317797184,0.30918556451797485,0.30709898471832275,0.6489080190658569,0.02351556532084942,-0.43620672821998596,0.9304684400558472,0.6852959394454956,0.8377301692962646,0.04568886011838913,0.09249238669872284,-1.5985509157180786,0.17289383709430695,0.5912383198738098,0.2863904535770416,0.12572519481182098,-0.7637977004051208,-0.7759806513786316,0.6357805728912354,0.2445228546857834,-0.07354187220335007,0.2850593328475952,-1.0174589157104492,-0.6561337113380432,-0.6117109656333923,0.7190881371498108,-0.8452422618865967,0.028119433671236038,0.723910927772522,-0.48042893409729004,-1.0081533193588257,0.6776419281959534,-0.9513749480247498,-0.13741859793663025,0.5199251770973206,-0.4766642451286316,-0.16102084517478943,0.5025009512901306,-0.5726227760314941,-0.21364039182662964,0.4956400692462921,0.536707878112793,-0.6480157971382141,0.35053035616874695,-0.2911580801010132,0.35911646485328674,0.3556402623653412,0.007439592853188515,0.25478455424308777,0.15196195244789124],[-0.5070477724075317,0.03877219185233116,-0.31654441356658936,0.5272248387336731,1.1622194051742554,-1.3641090393066406,-1.495509147644043,0.4759264886379242,-0.011689301580190659,0.33576062321662903,-0.08128704130649567,-1.5060851573944092,-0.7453112602233887,0.07758133858442307,0.9990702867507935,-0.47837841510772705,-0.35049742460250854,-0.11643752455711365,0.30868202447891235,0.10768094658851624,0.06487297266721725,-0.44457098841667175,0.4664798974990845,0.3509119749069214,1.0640228986740112,-0.059654269367456436,1.170612096786499,0.24925509095191956,0.6071575284004211,0.030400874093174934,-0.04210062325000763,-0.1407330334186554,-1.2258714437484741,0.2881903350353241,0.5739738941192627,-0.23467324674129486,0.09398629516363144,-0.4639853537082672,0.5865355730056763,-0.05355279892683029,-0.1480284482240677,-0.526297926902771,0.760248064994812,-0.2982149124145508,0.1729191243648529,-0.12359362840652466,-0.3723943531513214,0.3490390479564667,0.6653001308441162,-0.32381346821784973,0.36268317699432373,0.6082157492637634,-0.14933501183986664,0.6854376792907715,-0.28205135464668274,-0.23590171337127686,-0.17953339219093323,0.6927567720413208,0.9513298869132996,-0.09452328830957413,0.20894989371299744,0.12296625226736069,0.03363910689949989,-0.5672396421432495,0.33048519492149353],[0.05889936164021492,-0.02752186916768551,-0.6920112371444702,-0.4188597798347473,0.6725655198097229,-1.6024348735809326,-0.45169132947921753,0.378921777009964,0.19106781482696533,-0.14871636033058167,0.10054360330104828,0.5216420888900757,0.46751418709754944,0.06506194174289703,-0.16324372589588165,0.2832796573638916,-0.2582986056804657,-0.33245062828063965,-0.13963650166988373,-0.014862418174743652,0.24299868941307068,0.42320623993873596,-0.4974014461040497,-0.4842425584793091,-1.0127360820770264,-0.0903158038854599,0.3144833743572235,1.1883678436279297,-0.8253520727157593,0.01165618933737278,0.07706084847450256,1.0425360202789307,-0.8169751167297363,0.6796425580978394,-0.035650935024023056,0.2610139548778534,0.10483092814683914,0.6574801206588745,-0.1429583877325058,-0.5325023531913757,0.058266956359148026,-0.3379966914653778,-0.0011995654786005616,0.04237116128206253,-0.32451120018959045,0.4145485460758209,0.09457974135875702,0.13925495743751526,-0.5030167102813721,0.11439274996519089,0.5781412720680237,-0.4160621464252472,0.28641775250434875,0.18137028813362122,-0.4738943576812744,0.9059783816337585,-0.013502925634384155,-0.12748464941978455,0.6434114575386047,-1.302099347114563,-0.9766395688056946,-0.2941020131111145,0.5148439407348633,-0.23484498262405396,0.10401318222284317],[-0.02965143695473671,0.42383918166160583,-0.6248342990875244,1.1331963539123535,0.25856339931488037,0.21299003064632416,-0.25603675842285156,0.3248412609100342,0.01095616165548563,0.019626690074801445,0.02390880323946476,-0.4659785032272339,0.6228154301643372,-0.11719371378421783,0.5961670279502869,-0.40951308608055115,0.10520175844430923,0.6580095887184143,0.6460010409355164,-0.04988599941134453,-0.27649053931236267,-0.4223651587963104,0.24147693812847137,0.4195999205112457,0.37299972772598267,-0.12323866784572601,-0.3769923448562622,-0.36507683992385864,-0.3200400769710541,-0.14949645102024078,-0.274390310049057,-0.03573841229081154,0.34840744733810425,-0.610802173614502,0.2647835314273834,-0.2946910560131073,-0.4811016917228699,-1.0098912715911865,-0.2724073529243469,-0.8858329057693481,0.18757356703281403,0.138667494058609,0.1792616993188858,-0.05834343284368515,0.463948130607605,0.3471323251724243,0.06329364329576492,0.254446417093277,0.25745347142219543,0.1543724536895752,0.2720355987548828,-0.8014951348304749,0.13476455211639404,0.4754827618598938,-0.4899231791496277,0.4074256122112274,0.2651965022087097,0.17175419628620148,-0.9605873823165894,-0.6542820334434509,-0.656919538974762,0.28524354100227356,0.08593939244747162,0.39826834201812744,-0.15111105144023895],[0.4117288589477539,0.09998906403779984,0.6378137469291687,-0.17731700837612152,0.03018127754330635,-0.1824219971895218,1.056659460067749,-0.0661705881357193,-1.5596811771392822,-0.18211980164051056,-0.2971368432044983,-0.3749110698699951,-0.3288204073905945,-0.05889880284667015,-0.17802760004997253,-0.762269914150238,-0.12912704050540924,-0.21780647337436676,-0.221195787191391,-0.12156764417886734,0.39576271176338196,-0.47182291746139526,-0.21768465638160706,-0.18655474483966827,0.4049191474914551,0.07081081718206406,-1.7302381992340088,-0.5573297739028931,-0.3973216116428375,0.2884284555912018,0.02819880284368992,-1.0467398166656494,1.033212423324585,-0.4907587766647339,-0.5052626132965088,-0.30477723479270935,-0.4094003736972809,0.15087442100048065,0.12050672620534897,-0.011528179980814457,-0.22501824796199799,0.06942261010408401,-0.11521217226982117,-0.26212191581726074,-0.19265834987163544,-0.18468032777309418,-0.15242113173007965,0.10263188183307648,-0.06745041906833649,-0.2854418158531189,-0.19714105129241943,-0.38668957352638245,-0.17797620594501495,-1.2149994373321533,0.3220716416835785,-0.13784536719322205,-0.22781451046466827,0.36813798546791077,0.5176912546157837,-0.10591673851013184,0.8550829887390137,-0.46307653188705444,-0.3575895428657532,0.0926438570022583,-0.2213059365749359],[0.05387361720204353,0.1299424022436142,0.28577592968940735,1.1201988458633423,0.034937284886837006,0.5055135488510132,-1.290067195892334,0.6208269000053406,-0.9047339558601379,-0.7457584142684937,-0.14930766820907593,-0.9238601326942444,-1.037049651145935,0.05721599608659744,-0.43168506026268005,-0.4962877929210663,-0.0748365968465805,-0.3733181357383728,-1.07635498046875,0.07777529209852219,0.2615676522254944,-0.022483669221401215,-0.11871261149644852,-0.31053626537323,-0.3769185245037079,-0.03898521885275841,-0.026960987597703934,-0.6997433304786682,-0.2983783483505249,0.2769209146499634,0.38829857110977173,0.24134284257888794,0.2921485900878906,0.3305875062942505,-0.2191261500120163,-0.3722268342971802,0.10290250927209854,-1.4996479749679565,-0.021621866151690483,-0.2026052623987198,0.08718597143888474,0.4109284281730652,0.08149724453687668,-0.03716661036014557,-0.22932739555835724,-0.20955754816532135,-0.13175462186336517,0.09965541213750839,0.4946161210536957,0.09993577003479004,-0.3745369017124176,0.49348390102386475,-0.19946081936359406,-0.16020292043685913,-0.3560011088848114,-0.7913457155227661,-0.3652636706829071,0.09442558884620667,-0.23528985679149628,-0.022036215290427208,-0.2718241512775421,0.3755728006362915,-0.23394088447093964,-0.6038081049919128,0.3791557550430298],[-0.04828307405114174,-0.6723690032958984,-1.3456885814666748,-0.09290874749422073,0.04691139608621597,-0.6553646326065063,-0.4967203140258789,-0.1631387323141098,0.49161747097969055,0.5461858510971069,0.26174646615982056,0.7258992791175842,0.2250164896249771,-0.038345497101545334,0.7847973108291626,0.11803199350833893,0.5008638501167297,0.39924192428588867,0.2310619056224823,0.032090168446302414,0.6884264349937439,-1.2399839162826538,0.49861595034599304,0.7650606036186218,0.13679656386375427,0.1055213212966919,2.113950729370117,0.07596637308597565,0.16244001686573029,0.28691017627716064,-0.1471797078847885,0.10993731021881104,-0.2556827962398529,0.5378069281578064,0.7422580718994141,0.31704163551330566,-0.2704327404499054,-0.6140027046203613,0.40984439849853516,-0.4660812318325043,-0.04839233681559563,0.056581031531095505,0.2924901843070984,0.08102799952030182,0.26973769068717957,0.234050452709198,-0.055808160454034805,0.1891924887895584,-0.17649133503437042,-0.0244786087423563,0.23664967715740204,-0.4189392030239105,0.014079549349844456,0.42188507318496704,-0.2150779515504837,1.0398287773132324,0.18954816460609436,-0.5390725135803223,-0.2430723011493683,-0.43394219875335693,-0.325255811214447,-0.07076065242290497,0.05618162825703621,0.7510393261909485,-0.09766940027475357],[0.18305976688861847,0.17857787013053894,0.8776122331619263,0.7864843010902405,-0.342739999294281,0.20967954397201538,-0.43432366847991943,0.011594723910093307,0.021455878391861916,-0.33475807309150696,-0.11398878693580627,-0.412109375,0.08607643097639084,0.04137982428073883,0.3507383167743683,-0.060939885675907135,0.26979386806488037,-0.040006913244724274,0.5092139840126038,-0.03302325680851936,-0.4696676433086395,0.16180972754955292,0.44084855914115906,0.12518133223056793,0.13967649638652802,-0.03913791477680206,-1.5960512161254883,-0.8109260201454163,-0.5231122970581055,0.18487665057182312,0.18769198656082153,0.037964869290590286,0.7822995185852051,0.6535391807556152,-0.11698271334171295,-0.6946169137954712,-0.23478859663009644,0.5863410234451294,0.21569515764713287,0.16500738263130188,-0.6465177536010742,0.5633578300476074,0.3261350691318512,-0.5692130327224731,-0.12321576476097107,1.2238153219223022,-0.5102340579032898,0.4953300356864929,1.2363959550857544,-0.36852148175239563,0.2757893204689026,0.36623165011405945,-0.5552130937576294,-0.25197556614875793,-0.5963497757911682,0.6811370849609375,0.28037452697753906,0.49090757966041565,-0.5529434680938721,0.1198975071310997,-0.5503312349319458,0.21052829921245575,0.14365904033184052,0.22279563546180725,-0.15736013650894165],[0.02409437857568264,-0.2837357819080353,-0.6224757432937622,0.23809514939785004,-0.18501116335391998,1.2507258653640747,-1.2368659973144531,-0.012777925468981266,-0.783432126045227,0.2141084522008896,-0.25289660692214966,-0.483140766620636,0.031987693160772324,0.11803728342056274,0.5833953022956848,-0.4311803877353668,0.6938462853431702,0.2203182876110077,1.1140443086624146,0.017215773463249207,-0.6353743672370911,0.11815646290779114,0.699729859828949,0.9489645957946777,0.7551953196525574,-0.1203751340508461,0.21055394411087036,-0.4765877425670624,0.17466555535793304,-0.199961319565773,-0.24188581109046936,0.41603899002075195,0.3630673885345459,0.361197292804718,0.5770888924598694,-0.25775596499443054,-0.2198510617017746,0.4226774573326111,-0.5788397789001465,-0.10207369923591614,-0.2502422332763672,-0.23462297022342682,0.10463051497936249,-0.06956201046705246,-0.4691653549671173,0.8630645275115967,0.05938316136598587,-0.1268993318080902,0.4076424241065979,-0.02978595532476902,-0.19816996157169342,-0.3410310447216034,0.1510433703660965,0.027543852105736732,0.19445034861564636,1.1573845148086548,0.01585857756435871,-0.061546873301267624,-0.4516036808490753,-0.6245322823524475,-0.07756668329238892,0.028612708672881126,-0.37717723846435547,0.8252425789833069,-0.08120793104171753],[-0.1543651521205902,-0.2639048099517822,0.09403686225414276,0.29263243079185486,-0.04375320300459862,0.9228670597076416,-1.4461277723312378,-0.24884013831615448,-0.47079241275787354,0.43684151768684387,-0.20796053111553192,0.7371912002563477,0.4169973134994507,-0.08464358001947403,0.9028850793838501,-0.10568171739578247,0.3051752746105194,0.10228753834962845,0.10342628508806229,0.08061717450618744,-0.19993118941783905,0.48266440629959106,0.7228082418441772,1.2806147336959839,-0.5777058005332947,-0.10872654616832733,0.1514158844947815,-0.5818196535110474,-0.04372892901301384,0.03682846203446388,-0.14140953123569489,0.1351529061794281,0.773301362991333,-0.05637821555137634,0.4738559424877167,0.3554880619049072,-0.47892650961875916,0.7727963328361511,0.6728776097297668,-0.9891504645347595,0.1391885131597519,0.32626017928123474,-0.6167739033699036,0.17524923384189606,0.34618762135505676,-0.20760290324687958,0.2568187415599823,0.6329022645950317,-0.5335217714309692,0.12810009717941284,-0.12756416201591492,-0.9475520849227905,0.3268478512763977,-0.15250663459300995,0.37708577513694763,1.2494345903396606,0.08954732865095139,0.020691700279712677,-0.07320114225149155,-1.0008316040039062,-0.47071728110313416,-0.21357901394367218,-0.4378795623779297,0.5950568318367004,-0.3018249571323395],[-0.13823692500591278,-0.03671199455857277,-0.47850117087364197,0.2751540243625641,0.03597671166062355,0.13761882483959198,0.17754101753234863,-0.17008423805236816,-0.48144152760505676,0.24674519896507263,-0.7445420622825623,-1.6829596757888794,-0.4825931787490845,0.11454102396965027,0.1970497965812683,-0.3237929046154022,-0.10165338963270187,-0.4235684275627136,0.5037968158721924,0.05972921848297119,-0.22705693542957306,0.3021275997161865,-0.4474862813949585,-0.3983513414859772,-0.12497899681329727,0.060577332973480225,0.1175779476761818,0.7264372110366821,0.07656816393136978,-0.18896903097629547,0.6187512874603271,0.6075881123542786,0.3252003788948059,0.30697694420814514,-0.11608482897281647,0.14958764612674713,0.33243250846862793,-0.3985912799835205,-0.25653016567230225,-0.2755219042301178,-0.15983009338378906,0.15692491829395294,-0.5916573405265808,-0.023101333528757095,-0.13300897181034088,-0.20461906492710114,-0.21849651634693146,0.3267122209072113,-0.6918506026268005,-0.20860302448272705,-0.5600153207778931,0.3273196220397949,-0.08397280424833298,0.2516137361526489,0.20598867535591125,0.30352672934532166,0.1846296638250351,0.42252248525619507,0.8652886748313904,-0.11282185465097427,0.6883416771888733,0.32466721534729004,0.207955002784729,-0.35239261388778687,0.16175967454910278],[-0.07913298904895782,-0.10146506875753403,0.7803780436515808,-0.6116849780082703,-0.2678243815898895,0.2215181291103363,-0.15050791203975677,-0.15703362226486206,0.9714670181274414,-0.017525717616081238,0.48702260851860046,1.4720735549926758,0.953773021697998,0.0633067712187767,-0.3694199025630951,0.495259553194046,0.01477783266454935,0.5882022380828857,0.03594595193862915,-0.05333247408270836,0.0969264879822731,0.07181936502456665,0.2849184572696686,0.7949039936065674,0.8024634122848511,-0.021516233682632446,0.9959830045700073,0.1142759621143341,0.3530263304710388,0.24088408052921295,-0.1208202913403511,-0.48834291100502014,0.0759587436914444,0.6553879380226135,0.49487170577049255,0.40614578127861023,-0.07216769456863403,-0.5498404502868652,0.0390813834965229,-0.17825400829315186,0.11292687058448792,-0.03585819527506828,-0.3224554657936096,0.12326856702566147,0.0985257551074028,-0.7200828194618225,0.014351504854857922,-0.10700416564941406,-0.35774993896484375,0.25048014521598816,0.17418785393238068,0.17716550827026367,0.2769222855567932,0.023784801363945007,0.14123694598674774,-0.07993093878030777,-0.07510463893413544,-0.5826064348220825,-0.5110252499580383,-0.05969247221946716,-0.9569959044456482,0.1595497876405716,-0.2846395969390869,0.25138163566589355,-0.2982971668243408],[0.129545658826828,0.14686396718025208,0.23826569318771362,0.8984102606773376,-0.09835242480039597,0.40008288621902466,0.29783719778060913,-0.12447911500930786,0.36828112602233887,0.3504464626312256,0.5001291632652283,0.9361863136291504,0.09678918123245239,0.0927124097943306,0.7123473286628723,-0.6915711164474487,0.20710866153240204,0.5688235759735107,-0.6288504004478455,0.05860590562224388,0.2568797469139099,0.15376052260398865,0.5153899788856506,1.016768455505371,-0.03181026130914688,0.03907810524106026,0.05789018049836159,0.3253420889377594,-0.2816982865333557,0.23852694034576416,-0.7320389151573181,-0.5485158562660217,0.5080571174621582,0.7163617610931396,-0.31700414419174194,-0.2700885534286499,-0.7674421072006226,0.10470704734325409,-0.2267020344734192,-0.8360498547554016,0.7854509353637695,-0.11082770675420761,-1.1870027780532837,0.6980842351913452,0.4885629415512085,-0.8340277671813965,0.8201705813407898,-0.8048272132873535,0.29169270396232605,0.8201751708984375,-0.9504711627960205,-0.3879415690898895,0.4162262976169586,-0.21063213050365448,0.5299479961395264,0.36059874296188354,0.10113158077001572,0.7118878364562988,0.06843134015798569,0.19882015883922577,-0.806029200553894,-0.2939557731151581,-0.3561696410179138,0.7935383915901184,-0.466970831155777],[0.42502397298812866,-0.01771455630660057,0.05740491300821304,0.06723766028881073,-0.4137095808982849,0.12555593252182007,-1.2979741096496582,-0.25848469138145447,-1.5079737901687622,-0.5993110537528992,0.1768043041229248,0.12753406167030334,0.22762422263622284,0.08337080478668213,0.05532103404402733,-0.7034292221069336,0.15954560041427612,0.4153600335121155,-0.2542971968650818,-0.023645829409360886,-0.4533458948135376,0.26333144307136536,0.4279617369174957,0.8584005832672119,-0.04113119840621948,-0.029924433678388596,-1.4929113388061523,-1.2317636013031006,-0.1576898992061615,-0.02470710128545761,-0.22502011060714722,0.20771794021129608,-0.573523998260498,-0.0020065531134605408,-0.31452494859695435,-0.08251535147428513,-0.016877343878149986,0.21820560097694397,-0.0052915047854185104,-0.12102217227220535,-0.5388641357421875,0.3000235855579376,0.05686783045530319,-0.46937063336372375,-0.17440669238567352,0.021038396283984184,-0.5282254815101624,-0.3338543176651001,0.8609039187431335,-0.5165418982505798,0.5193725824356079,0.025411443784832954,-0.16299061477184296,-1.009721040725708,-0.46605372428894043,0.8108437657356262,-0.11899051815271378,-0.5443925261497498,0.2656787931919098,-0.4405609667301178,-0.818954586982727,0.3072340786457062,-0.38107234239578247,0.23760440945625305,-0.16596971452236176],[0.3064082860946655,0.4580526351928711,1.0100148916244507,0.1355382353067398,-0.18550430238246918,0.02860301546752453,-1.827700138092041,-0.06444080173969269,-1.1476227045059204,-0.41256776452064514,-0.22164617478847504,-0.6180225610733032,-0.46230360865592957,-0.07592179626226425,0.08517776429653168,-0.6126032471656799,0.11204525083303452,0.12114311009645462,-0.4966801702976227,0.07622082531452179,-0.18611352145671844,-0.11571791768074036,-0.22209401428699493,0.23325209319591522,-1.2933717966079712,-0.10167866200208664,-0.16416200995445251,-1.0137330293655396,-0.20797401666641235,-0.33741262555122375,-0.6194362044334412,0.1556505709886551,-0.16870823502540588,-0.04363628476858139,0.3271844685077667,0.021953649818897247,-0.006230163853615522,-0.9384140968322754,-0.19776573777198792,-0.5906278491020203,-0.21360540390014648,-0.09405892342329025,0.5504053235054016,-0.4288063943386078,0.12257324159145355,-0.09409676492214203,-0.22141455113887787,0.31921645998954773,0.20561273396015167,-0.25482258200645447,0.014866822399199009,-0.017507659271359444,-0.12114053964614868,-0.10431388020515442,-0.04863291233778,0.39039984345436096,-0.15289874374866486,0.778150200843811,-0.589991569519043,-0.8354551196098328,-0.5852925777435303,-0.38018372654914856,-0.251047819852829,-0.0031034534331411123,-0.14056214690208435],[-0.15360622107982635,-0.2299850583076477,0.06926752626895905,0.11886481195688248,0.2432708740234375,0.01972595602273941,0.1503830999135971,0.21867075562477112,-0.04922183230519295,0.29626649618148804,-0.5433709025382996,-1.5824602842330933,-0.3402777314186096,-0.08585862070322037,-0.02588251605629921,0.5753196477890015,-0.7352223992347717,-0.32504960894584656,0.5564440488815308,-0.015547812916338444,-0.1652449667453766,0.5492943525314331,0.003986839670687914,-0.15001565217971802,0.8575026988983154,-0.06957603245973587,-0.35874924063682556,-0.09140214323997498,0.14439576864242554,0.1582527458667755,0.7614240050315857,0.11360207945108414,-0.7379407286643982,0.1885552704334259,-0.19967910647392273,0.11008220911026001,0.7707581520080566,-0.23791474103927612,0.24194812774658203,0.21384820342063904,-0.030534889549016953,0.5360203385353088,0.028182564303278923,-0.34875860810279846,-0.15526467561721802,0.06311536580324173,-0.2580884099006653,-0.07381128519773483,0.4900543987751007,-0.39740121364593506,-0.018216747790575027,0.0891217589378357,-0.27000078558921814,0.07303708791732788,0.4506501853466034,-1.1631873846054077,-0.11911448836326599,0.591682493686676,0.0326501838862896,1.0968966484069824,-0.32437533140182495,0.8664079904556274,0.5902546644210815,-0.6195984482765198,0.6527838110923767],[-0.3126157224178314,-0.051416873931884766,0.8941609859466553,-0.6847245693206787,-0.002907190704718232,-0.9075275659561157,0.13553717732429504,0.3228984773159027,1.0706688165664673,0.37476685643196106,-0.089270681142807,0.7937480211257935,-0.2174750566482544,0.11186675727367401,0.9483621120452881,0.17796306312084198,-0.5621031522750854,-0.7686402201652527,-0.5115427374839783,0.07944852858781815,1.2073849439620972,-0.04773229360580444,-0.7676104307174683,-0.18935853242874146,-0.5235169529914856,-0.06069942191243172,1.8596088886260986,0.46196067333221436,0.1022888794541359,0.2689899206161499,0.3519681692123413,0.6012503504753113,-0.4679979681968689,-0.03866398707032204,0.5150801539421082,0.21616502106189728,0.0460282564163208,-0.20950829982757568,-0.2954506278038025,0.34948790073394775,0.42445194721221924,-0.4354654848575592,-0.21811920404434204,0.18899735808372498,0.13497713208198547,0.8046954274177551,0.1272774040699005,0.10002665221691132,0.1046769842505455,0.16012823581695557,0.3683357536792755,0.10274700075387955,0.0354284793138504,0.41193607449531555,-0.07014820724725723,0.08484138548374176,-0.2312573343515396,0.6027974486351013,-0.6963029503822327,-0.7969256639480591,0.09127093106508255,-0.08249413222074509,0.24152381718158722,-0.8130687475204468,0.38681209087371826],[-0.23394836485385895,-0.21790477633476257,-0.35475051403045654,-1.274931788444519,-0.08508992195129395,-0.4732871353626251,1.0332165956497192,-0.5555474162101746,0.3797351121902466,-0.25357329845428467,0.23305854201316833,0.42807602882385254,0.11155803501605988,-0.04250515252351761,-0.31248557567596436,0.009591016918420792,-0.4548170864582062,-0.28460758924484253,0.012407992966473103,-0.04311077296733856,-0.16660605370998383,-0.24465663731098175,-0.8254713416099548,-0.542297899723053,0.05401882156729698,0.017017386853694916,-0.5275441408157349,1.5963295698165894,-0.027218958362936974,0.5102881789207458,0.5828818082809448,-0.40766191482543945,-0.7778913974761963,0.08726854622364044,-0.4632498621940613,-0.3201061487197876,0.16297507286071777,0.775809645652771,0.13241071999073029,-0.08508212864398956,0.35822904109954834,-0.5410115122795105,-0.14535483717918396,0.31662458181381226,-0.4734315276145935,-0.4606415331363678,0.20367570221424103,0.04559407755732536,-0.8867043852806091,0.0858142077922821,-0.2058025449514389,0.4129917621612549,-0.03559290990233421,0.27711033821105957,-0.21979549527168274,0.04309910163283348,-0.06700289994478226,0.07175544649362564,1.943508505821228,-0.17890265583992004,0.12145348638296127,-0.18530374765396118,0.32061251997947693,-0.5006776452064514,0.10133999586105347],[0.31425541639328003,-0.2090231478214264,0.0655505582690239,0.43423059582710266,0.1418885737657547,0.1465860903263092,-1.5710893869400024,-0.013941578567028046,-0.20664148032665253,0.03393777087330818,0.04095454886555672,0.04405509680509567,-0.20056015253067017,-0.08039765059947968,-0.36937254667282104,-0.4918789565563202,1.0266896486282349,0.9879295825958252,-0.11459088325500488,-0.015297351405024529,0.3748200237751007,0.7758486866950989,0.7525255680084229,0.9430986046791077,-0.26507478952407837,0.05256140977144241,0.08867780864238739,0.011946740560233593,-0.23466607928276062,-0.05617304518818855,-0.36086753010749817,1.1676045656204224,-0.7471041679382324,-0.18424466252326965,-0.06367240846157074,-0.7108021378517151,-0.6108419299125671,-0.1929381936788559,-1.1714917421340942,0.07891722023487091,0.025364721193909645,0.25717827677726746,-0.08345667272806168,-0.25792834162712097,-1.043664813041687,0.5727929472923279,-0.11969274282455444,0.14712010324001312,0.607235312461853,-0.1487332582473755,-0.07131839543581009,-0.4195866584777832,0.13281755149364471,0.10567750036716461,-0.013588504865765572,1.086689829826355,0.18646520376205444,-0.23137590289115906,-0.45470014214515686,-0.6404330134391785,-0.42074477672576904,0.04983881860971451,-0.7605032920837402,0.46338576078414917,-0.39673352241516113],[-0.7306250929832458,-0.07431720197200775,-0.16844607889652252,-0.5580114722251892,-0.6031379103660583,0.3326912522315979,1.2623594999313354,-0.7477543950080872,0.35772427916526794,-0.28443706035614014,-0.020149562507867813,0.704708456993103,-0.06867678463459015,-0.04154226556420326,-0.07192035764455795,0.5042774081230164,-0.447143018245697,-0.040973108261823654,-0.24511361122131348,-0.09301113337278366,-0.21431253850460052,0.6537008881568909,-0.5977475047111511,-0.6329636573791504,0.5254780054092407,0.09743984788656235,-0.3333851099014282,1.0294578075408936,0.05960698425769806,-0.04378660395741463,-0.008208751678466797,-0.827584445476532,-0.2606765329837799,0.2883111834526062,-0.2161269634962082,0.005997698288410902,0.4124930202960968,0.8741774559020996,0.3376785218715668,-0.3907875418663025,0.2593156695365906,0.4619619846343994,-0.4112119972705841,0.13943959772586823,0.11293765902519226,-0.8141686320304871,0.19862385094165802,-0.22095932066440582,-0.35831955075263977,0.0994444191455841,0.05473896116018295,0.11582361161708832,-0.05938533693552017,0.029455123469233513,0.3130702078342438,-0.7937129735946655,-0.05111999809741974,-0.6469176411628723,-0.6553747653961182,0.48937126994132996,-0.14623002707958221,0.04831573739647865,0.3870539665222168,-0.6169282793998718,-0.17584161460399628],[-0.38946717977523804,-0.3375348150730133,-1.391737937927246,-0.4909062385559082,0.4296621084213257,-1.2796343564987183,-0.45077309012413025,0.08902580291032791,0.30558404326438904,-0.3170866072177887,0.40496209263801575,0.8785693645477295,0.31360116600990295,0.09413743019104004,-0.004051547031849623,0.03998396173119545,-0.3850775957107544,-0.3902253210544586,-0.11327949911355972,0.013873908668756485,0.03229052945971489,-1.0149877071380615,0.5253031849861145,0.22322417795658112,-0.0134627940133214,-0.10117516666650772,0.9758415222167969,0.7921544909477234,-0.006770308595150709,0.6173861026763916,0.14708225429058075,0.611092746257782,-0.6483702063560486,0.056876204907894135,-0.20256277918815613,0.25360754132270813,0.3317069709300995,0.6869487762451172,-0.4056617021560669,0.18550348281860352,0.48982343077659607,-0.5348979830741882,-0.22235313057899475,0.3590860068798065,-0.4576174020767212,-0.2962544560432434,0.2715127170085907,-0.625255286693573,0.43638497591018677,0.3290463089942932,0.11430039256811142,-0.5927178859710693,0.13261163234710693,0.4958547055721283,-0.30954083800315857,-0.4355412721633911,-0.22032397985458374,0.11913076788187027,0.6955215930938721,-0.5582518577575684,-0.06959574669599533,-0.18728803098201752,-0.3254234492778778,-0.8592767119407654,0.10624044388532639],[0.46848344802856445,0.0006312922341749072,-0.5589303970336914,0.36275577545166016,-0.10266643762588501,0.3681170642375946,0.17925746738910675,0.21967816352844238,-0.5706023573875427,-0.025914905592799187,0.11414256691932678,1.034229040145874,0.2965622544288635,0.039691489189863205,-0.07802756875753403,0.031999919563531876,0.6262996792793274,-0.3193524181842804,0.7485800981521606,0.11136185377836227,0.13827010989189148,0.21909262239933014,0.24554066359996796,0.369459867477417,-0.024498017504811287,-0.005414001643657684,-0.8913301229476929,0.013317032717168331,0.07532944530248642,0.180769681930542,0.29670989513397217,0.45916080474853516,0.4869855046272278,-0.02560657449066639,-0.0547109991312027,1.5026739835739136,0.7013289928436279,0.8214072585105896,-0.19659258425235748,-0.11646285653114319,0.09184391796588898,-0.3839113116264343,-0.5228388905525208,0.3341274857521057,0.2360793799161911,-0.42823275923728943,0.24098901450634003,-1.0349963903427124,-1.5480858087539673,0.20113302767276764,-0.16528385877609253,0.4573439657688141,0.4605712592601776,-0.4012629985809326,0.5408825278282166,0.7531481981277466,0.3395918309688568,0.512028157711029,1.0089200735092163,-0.3132794499397278,-0.859208881855011,-0.04772711172699928,0.5391787886619568,0.5941638350486755,0.4958891272544861],[0.45508942008018494,0.006311620585620403,-0.000984090380370617,-0.020257093012332916,-0.5294662714004517,0.5621693730354309,-0.3510259687900543,-0.3942244350910187,-0.8959726691246033,-0.32404765486717224,-0.566676914691925,-0.7566561698913574,0.41428783535957336,-0.05708818510174751,-0.01443577278405428,0.13131029903888702,0.03724085912108421,-0.014737257733941078,0.5460495352745056,0.11864029616117477,0.006432340946048498,-0.10485958307981491,0.20527085661888123,-0.12698623538017273,0.761073112487793,-0.009434384293854237,-1.216267466545105,0.6020262241363525,-0.4959154725074768,-0.45546063780784607,-0.27819541096687317,-0.47398027777671814,0.8898832201957703,0.014649382792413235,-0.917066752910614,-0.8053679466247559,-0.3376995027065277,0.19127264618873596,-0.18157070875167847,-0.1466294229030609,0.035931918770074844,-0.3532482087612152,-0.645209014415741,-0.031240878626704216,-0.8990874290466309,-0.03352560102939606,-0.08713378012180328,0.129135861992836,-0.15583297610282898,-0.24721023440361023,-0.36626556515693665,-0.257157564163208,-0.06516481935977936,0.22974707186222076,-0.35952699184417725,0.01552724838256836,-0.0006346672889776528,1.1806964874267578,1.3178783655166626,-0.33963122963905334,0.7087441086769104,-0.36649882793426514,-0.388134241104126,-0.022421348839998245,-0.26293113827705383],[-0.14443640410900116,-0.42408260703086853,-0.045006755739450455,0.13564306497573853,0.09197837114334106,-0.24087923765182495,-0.8986508250236511,0.19587120413780212,0.4145280420780182,0.4625805914402008,-0.16040758788585663,-0.09095248579978943,0.19877605140209198,0.09589377045631409,0.5702285766601562,-0.4282512366771698,-0.13287724554538727,-0.5743281841278076,0.10006033629179001,0.05450638756155968,0.6418424844741821,0.07781258970499039,-0.6663554906845093,-0.28270119428634644,-0.686676561832428,0.07060021907091141,3.0473177433013916,0.971369743347168,-0.4501102566719055,-0.40954816341400146,0.011148129589855671,1.7621339559555054,-0.4153842628002167,-0.04223418980836868,0.24814161658287048,0.08583515882492065,-0.10592608153820038,0.8854244947433472,-0.010826656594872475,0.008542932569980621,0.09484811872243881,0.3127284049987793,-0.35732150077819824,0.10172102600336075,0.6401175260543823,0.3437909781932831,-0.02394120767712593,0.19651250541210175,1.0674960613250732,0.04456327483057976,0.3221443295478821,-0.38411056995391846,-0.08687947690486908,0.23775789141654968,0.16738389432430267,0.643368124961853,0.11026095598936081,0.5319215059280396,0.20230437815189362,-0.6301501989364624,-0.2336680144071579,0.02347252145409584,0.26502811908721924,-0.055702194571495056,0.09240764379501343],[0.3388143479824066,0.4452645778656006,1.2262028455734253,0.38368093967437744,0.13758724927902222,0.9513043165206909,-0.8847877979278564,-0.0033923143055289984,-0.26460424065589905,0.6129026412963867,0.2012861967086792,0.5519305467605591,-0.6700140833854675,-0.03331376239657402,-0.28086626529693604,-0.16254554688930511,0.49392446875572205,0.29082512855529785,-0.43517962098121643,-0.06679314374923706,0.3249671459197998,0.2200290560722351,0.04065774753689766,0.04493267089128494,-0.46547576785087585,0.05196822062134743,-1.8743882179260254,-0.9388587474822998,-0.01202041283249855,-0.12584221363067627,-0.14593730866909027,-0.5178536176681519,1.4305744171142578,-0.2304409146308899,0.004898846615105867,-0.4939819872379303,0.16556018590927124,0.504263699054718,0.02712082862854004,0.5751127004623413,-0.10801755636930466,0.16879944503307343,0.4979454278945923,-0.27256929874420166,0.48400765657424927,0.18364615738391876,-0.0611453540623188,0.8601855039596558,0.013262028805911541,-0.05777789652347565,-0.22980201244354248,0.06415153294801712,0.07719376683235168,0.014936060644686222,0.1178075447678566,0.7049059271812439,0.26901933550834656,-0.017831597477197647,-0.7738081216812134,0.32124170660972595,0.08506589382886887,0.3566761314868927,-0.13815486431121826,0.3119334280490875,0.21506616473197937],[-0.2512623369693756,0.09819260984659195,-0.28487154841423035,-0.47388648986816406,0.3147347867488861,-1.156599998474121,-0.45111802220344543,0.40866196155548096,1.1272695064544678,-0.11853871494531631,-0.08777365833520889,-0.11725839227437973,0.1275528371334076,-0.0757603868842125,-0.4784945547580719,-0.008113806135952473,-0.22804242372512817,0.45938870310783386,-0.3281618356704712,0.11458250135183334,-0.02733762003481388,0.6311976313591003,-0.22452306747436523,-0.6205844283103943,-0.14358378946781158,-0.06370629370212555,0.8870800137519836,0.36386939883232117,0.07819323986768723,0.3256606161594391,0.13922983407974243,0.9808200597763062,-1.1465930938720703,-0.25960102677345276,0.39095374941825867,-0.22340963780879974,-0.30955228209495544,-0.336414098739624,-0.4802573323249817,-0.08735348284244537,0.2250598967075348,-0.08771132677793503,0.4040379226207733,0.3809847831726074,-0.08056490868330002,-0.3146953284740448,0.32779961824417114,-0.17975738644599915,-0.38143062591552734,0.2957649230957031,-0.2190931886434555,0.5581470727920532,0.1139957383275032,0.703229546546936,-0.38914012908935547,-0.014496196061372757,0.14600124955177307,-0.6418178081512451,-0.7849737405776978,-0.44866135716438293,-1.0510860681533813,0.08610367774963379,0.21259288489818573,-0.34651052951812744,0.2824801206588745],[-0.2161220908164978,0.2991905212402344,0.7536798119544983,0.20996181666851044,0.0965394377708435,-0.6937392950057983,-0.3086453676223755,0.018081989139318466,1.454808235168457,0.20006020367145538,-0.28144708275794983,-0.37047460675239563,0.2973020076751709,-0.031967636197805405,1.1916742324829102,0.4032210111618042,-1.2099360227584839,-0.29625120759010315,0.12726657092571259,-0.0811130553483963,1.1401715278625488,0.3545112907886505,-0.6446312069892883,-0.4593205153942108,0.8789296746253967,0.004151106812059879,0.5098209977149963,0.35301560163497925,-0.49800384044647217,0.13812486827373505,0.24208304286003113,-0.01464634109288454,-1.0074299573898315,0.28337937593460083,-0.30883195996284485,0.35445570945739746,0.0972798615694046,0.06062152236700058,0.09166433662176132,-0.563674807548523,0.3934653401374817,0.06786125153303146,-0.5145955681800842,0.49741023778915405,-0.018749363720417023,-0.9074534773826599,0.46489498019218445,-0.42530015110969543,-0.5688621997833252,0.19560833275318146,-0.2556934654712677,0.24498556554317474,0.29919174313545227,0.6087116003036499,0.10694070160388947,-0.5373550653457642,-0.2953406870365143,-0.0944766104221344,-0.0848279669880867,-0.3278166353702545,0.26514047384262085,-0.0447772815823555,0.3288835287094116,-0.8148927688598633,0.150292307138443],[0.30207109451293945,0.10318710654973984,-0.1884513944387436,0.25735506415367126,-0.31203052401542664,0.3715655505657196,-0.23475080728530884,0.18588203191757202,-0.5102930665016174,-0.6817858219146729,0.048378050327301025,0.3497036397457123,0.3412221670150757,-0.05141307786107063,0.27291420102119446,-0.2868969142436981,0.2824113667011261,0.15288858115673065,0.4210647940635681,0.12134844064712524,0.30666014552116394,-0.08308735489845276,0.4728051424026489,0.5526468753814697,0.20042972266674042,-0.05214245989918709,0.4641248285770416,-0.4999352991580963,0.3175378143787384,-0.08944359421730042,0.3164401352405548,-0.018177896738052368,1.2238059043884277,-0.06797333061695099,0.5825241208076477,0.32108715176582336,-0.012462002225220203,-0.43697795271873474,-0.10018579661846161,-0.13314302265644073,0.41392120718955994,0.15452617406845093,-0.015873270109295845,0.3879821002483368,0.14956462383270264,-0.5144854187965393,0.45061081647872925,-0.139219269156456,-0.01669362373650074,0.36354508996009827,0.25156331062316895,-0.2361236959695816,0.3635203242301941,-0.4728022515773773,-0.37777137756347656,0.46397462487220764,0.23876532912254333,-0.2249470055103302,-0.8263611793518066,0.3847077786922455,0.47701287269592285,0.34537285566329956,0.41531917452812195,0.3341818153858185,0.06683707982301712],[0.367085337638855,-0.1255534142255783,0.6241370439529419,-0.21183724701404572,-0.2742512822151184,-0.010403173975646496,-0.40389126539230347,-0.048604145646095276,1.163254737854004,-0.0008687907829880714,-0.2196294665336609,-0.16431693732738495,-0.18229329586029053,0.010669806972146034,-0.4715617299079895,0.6845273375511169,0.002559181535616517,0.18837125599384308,-1.2316339015960693,0.09992516785860062,0.14209289848804474,-0.32766208052635193,-0.3953942358493805,-0.3743797242641449,-0.37593474984169006,0.10346440970897675,2.8299691677093506,0.8477048873901367,0.49058982729911804,-0.014545781537890434,-0.12575986981391907,-0.8749316930770874,0.1582465022802353,0.15979894995689392,0.6363024711608887,-0.14117330312728882,-0.6128417253494263,-1.0098905563354492,0.30134159326553345,-0.519340991973877,0.1541375368833542,-0.4429987072944641,-0.0555051788687706,0.23433777689933777,-0.0860699787735939,0.47700244188308716,0.23623566329479218,-0.017295535653829575,-0.3622048795223236,0.24364009499549866,0.15781554579734802,-0.10385777056217194,0.2786746025085449,0.48598095774650574,-0.49924519658088684,1.4313162565231323,0.3616860806941986,-0.1208246722817421,0.38144537806510925,-0.44400906562805176,0.6360032558441162,0.07086019963026047,0.6319998502731323,0.6131640672683716,-0.20041143894195557],[-0.20723822712898254,-0.02111521176993847,-0.007294930052012205,-0.3337520360946655,-0.007448355667293072,-0.20059657096862793,1.8744161128997803,-0.06978762894868851,0.8166579008102417,0.2638187110424042,-0.4359486401081085,-0.31308868527412415,0.35293272137641907,-0.027854928746819496,-0.38436856865882874,0.58425372838974,-0.41589993238449097,-0.40481895208358765,-0.539192259311676,-0.1179351881146431,-0.7620545625686646,0.46105465292930603,-0.808128297328949,-0.47163286805152893,-0.6044422388076782,0.07851605862379074,-1.452335238456726,0.4952797591686249,0.20824387669563293,0.3619830310344696,0.4208425283432007,-1.083834171295166,-0.3424881398677826,-0.45470312237739563,-0.30107009410858154,-0.1860104650259018,0.3766483664512634,-0.37208157777786255,0.3084714114665985,0.7704009413719177,-0.46460068225860596,0.48599427938461304,0.5820702314376831,-0.3869491517543793,0.14325642585754395,0.47762078046798706,-0.4695635735988617,0.710907518863678,0.09204848110675812,-0.3776382505893707,-0.3487308621406555,0.5983784198760986,-0.2908221483230591,0.18081286549568176,-0.11426102370023727,-0.9940342307090759,-0.1162336990237236,0.06760241091251373,0.3137355148792267,0.6042846441268921,-0.30750706791877747,-0.08079855889081955,0.4581702947616577,-0.10907211154699326,0.20149487257003784],[-0.010856266133487225,0.3509671986103058,0.6845260858535767,-0.2904265820980072,0.132412388920784,-0.19831468164920807,-0.5757825970649719,0.18027302622795105,-0.3043793737888336,-0.8734644651412964,0.2556513845920563,0.5182932615280151,0.03722947835922241,0.035326164215803146,-0.8716334104537964,-0.24744154512882233,-0.08690504729747772,0.4104031026363373,-0.27420082688331604,-0.06210960075259209,-0.6373605132102966,-0.6921206116676331,-0.10269510000944138,-0.23229654133319855,0.45924901962280273,0.06257355958223343,1.2397278547286987,-0.08278173208236694,0.19995908439159393,-0.3175799250602722,-0.25105440616607666,0.8102343678474426,0.17573431134223938,-0.3395073115825653,0.548941969871521,0.04988414794206619,-0.409513384103775,0.855716347694397,-0.3580389618873596,-0.050403982400894165,0.24981899559497833,-0.6141880750656128,0.25882694125175476,0.17035208642482758,-5.725994924432598e-05,-0.1457757204771042,0.10984688252210617,0.04847626015543938,-0.37518975138664246,0.13319571316242218,-0.33888885378837585,-0.25533053278923035,0.03670003265142441,-0.45767009258270264,-0.38920482993125916,-0.3136165142059326,-0.013362189754843712,-0.4331161081790924,-0.7239611744880676,-0.11480091512203217,0.5052574872970581,-0.09035957604646683,0.033097535371780396,0.053047195076942444,-0.3528309464454651],[0.09408996999263763,-0.47721898555755615,0.7918363213539124,-0.7035947442054749,0.5996437668800354,-0.5908820629119873,1.9142717123031616,0.570088803768158,0.2958177924156189,0.8086367249488831,0.1335398405790329,0.6837571263313293,0.1697031557559967,-0.07472070306539536,0.17660048604011536,1.0049967765808105,-0.19381891191005707,0.03778586909174919,-0.0852225124835968,-0.03236088529229164,-0.18822605907917023,-0.8978531956672668,0.8576436042785645,0.6152746081352234,-0.2785654664039612,-0.09453621506690979,0.13988931477069855,-0.1628751903772354,0.4574715793132782,0.6401540637016296,0.19543375074863434,-0.12845762073993683,0.581651508808136,0.3970978856086731,0.35724562406539917,0.11079870164394379,-0.31246843934059143,0.16783744096755981,-0.4736040234565735,-0.24685858190059662,0.24164260923862457,-0.41509073972702026,-0.30037933588027954,0.5351881980895996,-0.24738188087940216,-0.6502295732498169,0.4171299636363983,-0.5355319976806641,-0.36378780007362366,0.4883415997028351,0.054140955209732056,-0.6035373210906982,0.6507343649864197,-0.23478879034519196,0.6734486222267151,-0.32227420806884766,-0.01768040843307972,-0.0752774029970169,-0.13382099568843842,0.12794962525367737,-0.48302707076072693,-0.12068353593349457,0.14730969071388245,0.4159085154533386,0.17326419055461884],[-0.25268641114234924,-0.6603386402130127,0.469625324010849,-1.0402921438217163,0.4446510970592499,0.044958293437957764,0.2162775993347168,0.22251057624816895,-0.20864801108837128,1.2584142684936523,0.2608875632286072,-0.758307933807373,0.3505593538284302,-0.10330110043287277,0.08732589334249496,-0.4630991220474243,0.594338595867157,0.3811335563659668,0.06499925255775452,0.10821781307458878,0.7708857655525208,1.5080695152282715,0.20572862029075623,0.2696968913078308,-0.665908694267273,-0.028343357145786285,-0.3582930266857147,0.21619339287281036,0.05976838245987892,0.5406574010848999,0.15019512176513672,0.17747889459133148,-1.1101856231689453,-0.12355884909629822,-0.08281219005584717,0.25075432658195496,0.21968208253383636,0.7224160432815552,0.15195535123348236,-0.254650741815567,0.10910245776176453,0.6947295665740967,-0.3456916809082031,0.22828657925128937,-0.2923417091369629,-0.7872061133384705,0.24606697261333466,-0.47260674834251404,0.25974777340888977,0.13130807876586914,-0.47261175513267517,-0.6406984925270081,0.29183429479599,-0.06871926784515381,1.0528157949447632,0.07682069391012192,-0.14570847153663635,0.5382022261619568,1.4970905780792236,-0.21016234159469604,0.31565579771995544,0.022427476942539215,-0.4753713309764862,-0.015059979632496834,0.07174009829759598],[0.18991754949092865,0.27817973494529724,0.03479329124093056,-0.4477859139442444,-0.316668838262558,0.7578954696655273,0.5366794466972351,-0.4643915295600891,-1.352473497390747,-0.7838987708091736,0.22461870312690735,-0.3289763629436493,-0.23435503244400024,-0.03351418673992157,-0.4593065083026886,-0.45860156416893005,0.41893497109413147,-0.1646677553653717,0.0418098010122776,-0.08087264746427536,-0.9012041091918945,-0.5634956955909729,0.3531503677368164,-0.3733654320240021,0.08460810780525208,-0.025023391470313072,-1.6574004888534546,-0.5246168375015259,-0.33219537138938904,-0.7373621463775635,-0.4154367744922638,-0.8973860144615173,-0.17442618310451508,-0.23809310793876648,-0.3178780972957611,0.21846318244934082,0.23305156826972961,0.7833421230316162,0.21624882519245148,0.059450700879096985,-0.19509346783161163,0.21161234378814697,-0.02367590181529522,-0.22833508253097534,-0.05602322146296501,-0.38113492727279663,-0.16520479321479797,0.08640661835670471,-0.34245675802230835,-0.1241055577993393,0.12844155728816986,0.045677825808525085,-0.11952374875545502,-0.4711335301399231,-0.4141221344470978,-0.3286968469619751,-0.1744803488254547,-0.492083877325058,0.06354755163192749,0.6274503469467163,-0.4568467438220978,0.14701437950134277,-0.017930397763848305,-0.18161191046237946,-0.24809497594833374],[0.09019862860441208,-0.12822526693344116,0.6264152526855469,0.1331494301557541,-0.000754912500269711,0.43918389081954956,1.3930511474609375,-0.3969077467918396,0.9222323298454285,0.028313910588622093,0.1409435272216797,0.270751029253006,0.3246973752975464,0.0861930251121521,-0.4468797445297241,-0.3515699803829193,0.558813750743866,0.3217586874961853,-0.4637030065059662,-0.03363095223903656,-0.8323324918746948,-0.293311208486557,0.0075321197509765625,0.29112952947616577,-0.1787164956331253,0.09447001665830612,-0.6177842020988464,0.09761721640825272,0.05368510261178017,-0.33605122566223145,-0.30488452315330505,-1.5337483882904053,0.6776829957962036,0.16908064484596252,-0.6247838735580444,-0.22509106993675232,0.08868273347616196,-0.2693631947040558,0.16492316126823425,0.5898041129112244,-0.025484343990683556,0.1089886948466301,-0.18832503259181976,0.043747734278440475,0.29100295901298523,-0.611452043056488,0.06741068512201309,-0.3334158658981323,-0.1056007444858551,0.1796213686466217,-0.4611321687698364,0.31928539276123047,0.2961918115615845,-0.21552889049053192,-0.3094034790992737,-0.7211119532585144,0.24572354555130005,-0.6675872206687927,0.1873103678226471,0.770666241645813,0.875011682510376,-0.05559361353516579,-0.06437723338603973,0.41939061880111694,-0.3553062081336975],[-0.28990381956100464,0.28087255358695984,-0.7910935878753662,0.07815446704626083,0.12582755088806152,0.06540617346763611,0.5516438484191895,-0.04589065909385681,0.47256606817245483,-0.5147870182991028,0.18547868728637695,-0.2828400433063507,-0.5615938305854797,-0.0025240746326744556,-0.44804829359054565,0.07918710261583328,-0.7710385918617249,-0.5290326476097107,-0.5495133399963379,-0.06821396946907043,0.3073980212211609,0.71396803855896,-0.8089029788970947,-0.9750269651412964,-0.002941595856100321,-0.040509264916181564,0.5160290598869324,0.35954928398132324,-0.3809264004230499,0.24198389053344727,0.9678515195846558,1.0349714756011963,-0.8004952073097229,-0.051445405930280685,-0.7159155607223511,0.4200810194015503,0.26068398356437683,0.02795027755200863,0.5419933795928955,-0.20210346579551697,0.2662094235420227,-0.2445865422487259,-0.3939190208911896,0.3758060336112976,0.43701860308647156,-0.4561469554901123,-0.04970783740282059,0.37450429797172546,-1.1182143688201904,0.10817361623048782,-0.026984957978129387,0.08522909134626389,-0.24329185485839844,0.37582531571388245,-0.22255051136016846,-1.1701571941375732,-0.06318942457437515,-0.3487945795059204,0.11469687521457672,0.5577706694602966,0.9660482406616211,-0.30523601174354553,0.7098566889762878,-0.5054442286491394,0.49785396456718445],[-0.048083506524562836,-0.8023406863212585,-0.3688478469848633,0.379124253988266,-0.04499657452106476,1.0560115575790405,0.998450756072998,0.13625863194465637,-0.43983733654022217,0.42169222235679626,-0.32851478457450867,0.243449866771698,-0.39066147804260254,0.10826214402914047,0.04612141475081444,0.5132794976234436,0.25750014185905457,0.2916545867919922,-0.5112637281417847,0.00019604880071710795,-0.047961048781871796,0.19270887970924377,0.34425005316734314,-0.037694863975048065,-0.7680590748786926,-0.024287886917591095,0.44189995527267456,-0.18790023028850555,-0.04289969801902771,-0.07737678289413452,-0.307778000831604,-0.7598156332969666,2.242271661758423,0.33065658807754517,0.17028267681598663,0.2859453856945038,-0.21982520818710327,-0.10827659070491791,0.3777712881565094,1.2870947122573853,-0.10742200911045074,0.48933497071266174,0.33448824286460876,-0.12233635783195496,0.6960234642028809,0.27179014682769775,-0.06303152441978455,-0.3957573175430298,0.3056474030017853,-0.13558559119701385,0.7772011756896973,0.0488886721432209,-0.11756458133459091,-0.5830017924308777,0.5199813842773438,-0.6374370455741882,-0.22170761227607727,0.6181001663208008,-0.366854727268219,0.37321358919143677,-0.06319990754127502,0.08238770067691803,-0.29113060235977173,0.23090358078479767,-0.2542547285556793],[-0.03083690255880356,-0.10517323762178421,1.0005133152008057,-0.5423856377601624,-0.17840684950351715,-0.28171056509017944,2.0817642211914062,0.22176185250282288,0.6761025190353394,-0.11407023668289185,0.32898858189582825,0.11538895964622498,-0.07901432365179062,0.07609482109546661,-0.2340831756591797,0.48197317123413086,-0.11189980059862137,-0.14292848110198975,-1.2301863431930542,0.09259998798370361,0.15171436965465546,-0.5010160803794861,0.18970371782779694,-0.09769806265830994,-0.34867483377456665,-0.07105720043182373,0.3749101459980011,0.22884957492351532,0.023323029279708862,-0.5544350147247314,-0.4357847273349762,-0.7705695033073425,0.9720963835716248,-0.06931044906377792,0.09866411983966827,0.22911806404590607,0.3372788429260254,-0.30587565898895264,0.3474641442298889,0.4387053847312927,-0.10918929427862167,-0.20202748477458954,0.12902991473674774,-0.18941031396389008,0.3628680408000946,1.1988309621810913,-0.01767050102353096,0.5568504929542542,-0.2269735038280487,-0.09403647482395172,0.04324271157383919,0.1431138664484024,-0.29115796089172363,0.25745120644569397,0.1208767518401146,-0.13349978625774384,0.31925082206726074,0.2629851996898651,-0.4474981725215912,0.5647682547569275,0.8587501645088196,-0.1314648985862732,0.5810289978981018,0.4220806360244751,0.15501615405082703],[0.41494113206863403,-0.5499448180198669,0.5275582671165466,-0.30346181988716125,-0.5188316702842712,0.3668060600757599,-0.210603728890419,0.4573185443878174,-0.20380255579948425,0.8930136561393738,-0.19003765285015106,0.39079123735427856,-0.9081599712371826,0.0756610557436943,0.5118906497955322,0.9589353203773499,-0.38305073976516724,-0.9984875321388245,-0.3302697539329529,-0.036495108157396317,0.41492733359336853,-0.3584643602371216,-0.10343026369810104,-0.33311334252357483,-0.11243972182273865,0.11317279189825058,3.0730557441711426,0.08210771530866623,0.18231482803821564,0.06817646324634552,0.09069390594959259,0.8369778990745544,0.6348435282707214,-0.23686666786670685,0.6700252890586853,0.6759145259857178,0.19901123642921448,-0.2348424345254898,-0.13571861386299133,-0.17626634240150452,