{"topology":"mlp_tanh_3layer","input_dim":65,"output_dim":18,"source":"model_warrior.onnx","layers":[{"w":[[-0.34066739678382874,-0.196121945977211,1.4177101850509644,-1.5800224542617798,0.02028489299118519,-0.5593255758285522,1.4968985319137573,-0.08401601761579514,0.36803174018859863,0.2827036678791046,0.19677914679050446,0.2930346131324768,1.1055666208267212,-0.07115662097930908,-0.22337432205677032,0.2081758826971054,-0.112117238342762,-0.22375710308551788,-0.30203109979629517,0.06057826429605484,-0.4381808638572693,-0.6999837160110474,-0.4189322888851166,-0.24214883148670197,0.3108527660369873,-0.10729598999023438,-0.23923137784004211,-0.5333986282348633,-0.16259025037288666,-0.056830182671546936,-0.07310876250267029,0.09846726804971695,-0.24644719064235687,0.5290126204490662,-0.22163355350494385,-0.7976574301719666,0.044683221727609634,0.5017128586769104,0.5041859149932861,0.8519245982170105,-0.12815819680690765,0.008454721421003342,0.21315699815750122,0.22505223751068115,-0.34394732117652893,-0.047433432191610336,-0.010904784314334393,-0.8191103339195251,0.7138465642929077,0.04123565927147865,-0.24952442944049835,-0.2016438990831375,0.04808430373668671,-0.26690158247947693,0.2893361449241638,-1.2685893774032593,-0.09248113632202148,0.015876205638051033,-0.30345869064331055,0.9482642412185669,0.21917122602462769,-0.3176741898059845,0.12241803854703903,0.04462651163339615,-0.02893325872719288],[-0.09698037058115005,0.3582935631275177,-0.2754940092563629,0.880061686038971,-0.012670625001192093,-0.6446750164031982,-1.676450252532959,0.08136506378650665,0.26859140396118164,-0.15179796516895294,0.28568336367607117,0.40964275598526,0.5056605339050293,-0.06026111915707588,-0.18492156267166138,-0.42110705375671387,0.14157132804393768,0.04337109625339508,1.2599924802780151,0.11363023519515991,0.5375681519508362,-0.07649210095405579,0.0773213729262352,0.08654889464378357,1.1326178312301636,-0.041011326014995575,-0.5707691311836243,-2.1595969200134277,0.01688649319112301,0.20287790894508362,-0.033428117632865906,-0.8281598091125488,0.4530993402004242,0.27279603481292725,0.057280633598566055,-0.3033703863620758,-0.09525204449892044,-1.9411364793777466,0.12140154838562012,0.2902953028678894,-0.08237932622432709,0.8557074069976807,-0.11951568722724915,-0.04634992778301239,0.07881355285644531,-0.6769569516181946,-0.18885360658168793,0.6055023670196533,0.1902906745672226,-0.003545809770002961,-0.0008533193613402545,0.5714378952980042,-0.32869550585746765,0.08679379522800446,0.011873726733028889,-0.7147024869918823,0.006530461832880974,-0.6002854108810425,-1.203986406326294,0.6950207352638245,-0.2656283676624298,-0.11354681849479675,-0.2361164540052414,0.2004242092370987,-0.11222764849662781],[-0.5713359117507935,-0.5872873663902283,0.38118359446525574,-0.27162274718284607,0.1838264912366867,-0.5980522632598877,-0.1372368484735489,-0.058995287865400314,1.058471441268921,0.7824350595474243,0.3817332684993744,0.347773939371109,0.41547876596450806,-0.11284957081079483,0.010747349821031094,0.5253094434738159,-0.08665929734706879,-0.0637076199054718,0.6019757986068726,-0.06142290681600571,1.199462652206421,-0.21716517210006714,0.36752748489379883,-0.13359716534614563,0.6734771132469177,-0.042086511850357056,0.7513698935508728,1.0478328466415405,0.6964491605758667,0.08500870317220688,-0.13187961280345917,-0.3360936939716339,-0.8412387371063232,-0.0800229161977768,0.0755600705742836,0.8659141063690186,0.1170957013964653,0.11385089159011841,0.7799322009086609,0.7340145707130432,-0.3588741421699524,0.12268003076314926,0.07310748845338821,-0.33015069365501404,0.3409736454486847,-0.002782497089356184,-0.45932748913764954,0.09500214457511902,-0.0413338840007782,-0.3191593289375305,1.290042757987976,0.7465687394142151,-0.3681209981441498,0.6936033964157104,0.6262136697769165,-0.23234739899635315,0.004112349357455969,-0.74425208568573,0.2806326746940613,-0.21357831358909607,-0.2929542660713196,-0.44963300228118896,0.18005260825157166,0.06825698912143707,-0.11602932959794998],[-0.45981237292289734,-0.9162395596504211,-0.4537467062473297,-0.3365410268306732,0.2909835875034332,-0.2554703652858734,-0.27685555815696716,0.053799182176589966,1.5079065561294556,0.9248212575912476,0.49552297592163086,0.7445545196533203,0.3622291386127472,-0.05840720981359482,1.0635298490524292,0.8517465591430664,0.3147001564502716,0.09977295249700546,0.3814469873905182,-0.09236596524715424,1.3036727905273438,-0.6161580085754395,0.30807653069496155,0.45534926652908325,0.304126113653183,-0.10650242120027542,1.7974722385406494,0.04895417019724846,0.9186962246894836,0.71349036693573,-0.10169586539268494,0.05211776867508888,-0.14075225591659546,0.3814365565776825,0.5175148844718933,0.42827221751213074,-0.24130073189735413,0.012957748025655746,0.41141098737716675,0.9084811806678772,0.00829277653247118,0.1438031941652298,0.4103669822216034,-0.05389191955327988,0.17264048755168915,0.35516270995140076,-0.05668224021792412,0.39667510986328125,0.013153579086065292,0.17359374463558197,0.9100306034088135,0.3029415011405945,-0.02121666446328163,0.9458664059638977,0.20702672004699707,0.7059680223464966,0.1599096804857254,-0.19499467313289642,0.8900596499443054,-0.15344950556755066,0.013268946669995785,0.22826535999774933,-0.4928155541419983,0.5261921882629395,-0.08966978639364243],[0.0015800150576978922,0.29462945461273193,1.61513352394104,0.7698244452476501,0.8377990126609802,0.48577407002449036,-0.27705812454223633,0.33316558599472046,0.4358689785003662,-0.21561630070209503,0.0024815937504172325,0.3661671578884125,-0.9338056445121765,0.023521892726421356,0.35875970125198364,-0.6453127861022949,0.13038067519664764,-0.13919366896152496,-0.2651505172252655,-0.1044379398226738,0.5621867775917053,-0.034890316426754,0.5360430479049683,0.6128253936767578,0.40815967321395874,-0.05244198068976402,0.1015319675207138,-1.4581873416900635,0.06374526023864746,0.6752514839172363,0.0785808116197586,-1.1109340190887451,1.3526692390441895,-0.056146860122680664,-0.03875277563929558,-0.5306585431098938,-0.2081620842218399,-1.0222926139831543,0.14737030863761902,0.524942934513092,0.18893709778785706,0.21091733872890472,-0.1450118124485016,0.10932765901088715,0.16426116228103638,0.418103963136673,0.07436899095773697,0.8200072646141052,-0.4954291880130768,0.03501039743423462,-0.7608757019042969,0.6211215257644653,-0.022284261882305145,-0.18077780306339264,-0.10635387897491455,-0.13425372540950775,-0.00865495391190052,-0.4826967120170593,-0.3024721145629883,1.0141479969024658,0.3763461410999298,0.3075849115848541,-0.35992422699928284,0.32916194200515747,0.16789911687374115],[-0.7310213446617126,-0.4290510416030884,1.317386507987976,0.5895912647247314,-0.5576802492141724,-0.136439710855484,-0.3357604742050171,-0.3976079523563385,0.7527555823326111,-0.21620424091815948,0.3963848352432251,0.792410135269165,0.43113285303115845,0.09389461576938629,1.3559136390686035,0.986246645450592,-0.6450212597846985,-0.16167663037776947,0.1342857927083969,-0.05710870772600174,0.11066926270723343,1.2221484184265137,-0.4553409814834595,-0.1720372438430786,0.13199244439601898,0.07067500799894333,0.058194197714328766,0.1373688280582428,0.18847815692424774,0.9158556461334229,0.3025795519351959,-0.20197950303554535,-0.8153807520866394,1.1048930883407593,0.46018552780151367,0.45658940076828003,-0.012969664297997952,-0.5343880653381348,-0.06635960191488266,0.07421374320983887,0.30592694878578186,0.12550696730613708,0.011789960786700249,0.40142303705215454,0.017589522525668144,-0.23964901268482208,0.3947826623916626,0.2177916020154953,-0.48168155550956726,0.5189327001571655,-0.10668649524450302,0.5041366219520569,0.09148276597261429,0.6408281326293945,0.8811100721359253,0.22595353424549103,-0.2879011034965515,-0.10271957516670227,0.14556409418582916,-0.3282933235168457,-1.1696040630340576,0.10008002072572708,-0.7105776071548462,-0.2433561533689499,-0.11582386493682861],[0.263211727142334,0.5006158351898193,1.8979817628860474,0.2016831636428833,-0.6192058324813843,0.6332895755767822,-1.7435427904129028,0.07038026303052902,0.22317446768283844,-0.23371927440166473,0.1495879888534546,-0.31237369775772095,-0.053902897983789444,0.04337656870484352,0.5186038017272949,-0.08154746890068054,0.20823189616203308,0.14915812015533447,0.27364543080329895,0.003510913345962763,-0.1791335940361023,1.002602219581604,0.4444175958633423,0.5847393870353699,-0.07095011323690414,0.12092620879411697,-0.7410755753517151,-0.8657296299934387,-0.37174177169799805,0.08217834681272507,-0.21207445859909058,-0.5174103379249573,-0.14770573377609253,-0.6378429532051086,0.04137846454977989,-0.12265022844076157,0.04344591498374939,-0.5212201476097107,0.12882287800312042,-0.48567235469818115,0.2742294669151306,0.42464420199394226,-0.5883349180221558,-0.02529287151992321,0.4916190803050995,-0.11153610795736313,0.13629284501075745,0.3559549152851105,-0.14528925716876984,0.1258775293827057,0.3040429651737213,-0.14737385511398315,-0.18839120864868164,-0.1812463104724884,-0.4229678511619568,0.1070314347743988,0.05965818092226982,0.34857264161109924,-1.1393715143203735,0.25950467586517334,-1.2244023084640503,0.20421700179576874,-0.33163514733314514,0.5378234386444092,-0.20138730108737946],[-0.0829126164317131,0.26734814047813416,0.5029026865959167,1.0459985733032227,-0.6880096793174744,0.23095285892486572,0.33420801162719727,-0.03076397068798542,-0.4699597954750061,-0.2077653706073761,-0.15201129019260406,-0.01811714470386505,0.31211918592453003,-0.018059806898236275,-0.0029576404485851526,-0.46181872487068176,0.5074560642242432,1.1556745767593384,0.7704988121986389,-0.12198379635810852,-0.09392718970775604,0.4566332995891571,0.7333006262779236,0.5404123067855835,0.28454238176345825,0.0965832993388176,-2.067413806915283,-0.892920732498169,0.1707679033279419,0.4126654267311096,0.3403530418872833,0.24447880685329437,0.5694988965988159,0.5113890171051025,-0.23355410993099213,-0.8238565325737,-0.19272159039974213,-0.1439928263425827,-0.1026410460472107,1.2050518989562988,-0.590425431728363,1.4991023540496826,0.03921177238225937,-0.5029196739196777,-0.7043235301971436,0.547264575958252,-0.5993488430976868,0.4175354838371277,0.009320579469203949,-0.47476926445961,-0.14495649933815002,0.7178927063941956,-0.6407569646835327,-0.1789036989212036,-0.2604331970214844,-0.5977035760879517,-0.10987355560064316,-0.1550094038248062,-0.19108077883720398,0.5994311571121216,-1.3476592302322388,0.08369937539100647,-0.4433267116546631,-0.09696055203676224,0.07836800813674927],[-0.007377619855105877,-0.415239542722702,-0.9936713576316833,0.8487576842308044,0.3928641378879547,-0.09614274650812149,1.2009493112564087,0.3300522565841675,-0.15105624496936798,0.5672445297241211,-0.011597068049013615,-1.5599530935287476,-0.5505902767181396,-0.04307679459452629,-0.4940532147884369,1.441193699836731,-0.27754878997802734,0.3106294572353363,-0.514793872833252,0.12389850616455078,-0.08840929716825485,0.29071131348609924,0.17604169249534607,0.23348568379878998,-0.11849033087491989,0.09684183448553085,-1.064595103263855,0.4483664929866791,0.4731084406375885,-0.10254521667957306,0.08849649131298065,-0.6159321665763855,0.6682765483856201,0.5801097750663757,-0.182853564620018,0.10991755872964859,0.08671898394823074,0.5195354223251343,0.036796316504478455,0.6977999806404114,-0.22759240865707397,0.27500712871551514,0.2977604866027832,-0.45155084133148193,0.03370382636785507,0.34801095724105835,-0.33590564131736755,0.9448350071907043,0.8861292004585266,-0.25248363614082336,0.0951135903596878,-0.04013867676258087,-0.26630643010139465,-0.18030384182929993,0.9494270086288452,-0.49431926012039185,0.12003005295991898,1.1595712900161743,1.1064687967300415,0.0861000046133995,-0.4549141228199005,0.17272314429283142,0.13273613154888153,0.058637477457523346,0.18639825284481049],[-0.5128088593482971,-0.1868709921836853,-0.8404573798179626,-0.28291818499565125,0.29281142354011536,-1.134044885635376,0.24543169140815735,-0.0791863426566124,-0.0692896619439125,-0.4860512316226959,-0.07871975749731064,-0.25652363896369934,-0.13380327820777893,-0.0051454417407512665,0.02555261179804802,-0.784601092338562,-0.7924005389213562,-0.52335125207901,-0.4687115252017975,0.03430355712771416,0.24980749189853668,-0.3967238962650299,0.31508633494377136,0.10331431776285172,1.1052101850509644,0.04725703224539757,-1.2843925952911377,-0.3474746346473694,-0.14231379330158234,0.24072939157485962,0.21011875569820404,-0.3571799695491791,-1.6674284934997559,-0.299685001373291,-0.24507758021354675,-0.34605562686920166,-0.11943555623292923,0.48473307490348816,0.31740543246269226,-0.35951006412506104,-0.5045219659805298,0.058053772896528244,0.28400468826293945,-0.3853665292263031,-0.3869588077068329,0.4537945091724396,-0.5659499168395996,0.5818709135055542,0.05157129094004631,-0.745315670967102,0.32529592514038086,0.4563922584056854,-0.7144350409507751,0.013124673627316952,-0.11237865686416626,-1.258976936340332,-0.7532022595405579,-0.5019198060035706,-0.3635198771953583,-0.34026265144348145,-0.40986159443855286,-0.19375160336494446,-0.42910802364349365,-0.8704476356506348,0.026546195149421692],[-0.03712148219347,0.41383907198905945,0.19385771453380585,0.6188308000564575,-0.19970914721488953,-0.06316068023443222,2.728172540664673,-0.6162523627281189,0.7902724742889404,0.7470906972885132,-0.3643859326839447,-0.5185021758079529,1.2043344974517822,0.0029728917870670557,0.14070241153240204,0.46347764134407043,-0.2721834182739258,-0.06016773357987404,0.022623293101787567,0.030714187771081924,-0.4216342866420746,-0.09221717715263367,0.3137817084789276,0.4056251645088196,0.5012234449386597,-0.09120141714811325,0.06889326125383377,0.2905934751033783,-0.020360710099339485,0.4019298255443573,0.40678101778030396,1.881149172782898,-0.7850494384765625,-1.1939624547958374,0.22046107053756714,0.7053057551383972,0.4231235980987549,0.5497175455093384,0.40163999795913696,-0.22372014820575714,-0.2578766345977783,0.11430220305919647,0.007492207456380129,-0.060355719178915024,0.12092913687229156,0.07810801267623901,-0.07332254946231842,0.282840758562088,-0.32345059514045715,-0.27168405055999756,0.7386401295661926,-0.2853541672229767,-0.2654742896556854,0.7124416828155518,-0.18838967382907867,0.7637524604797363,0.42072901129722595,0.40178942680358887,0.03757977485656738,-0.14110156893730164,0.02196248434484005,-0.06282602995634079,0.35826775431632996,-0.03434400260448456,0.0688755214214325],[0.05954037606716156,-0.08062291890382767,-0.10892770439386368,-0.3656570017337799,-0.8059415221214294,0.15611031651496887,2.2559359073638916,-0.8802268505096436,0.37969985604286194,0.05123579874634743,0.22353225946426392,1.3328856229782104,0.736827552318573,-0.04794727638363838,-0.2317391037940979,-0.39368903636932373,0.4694303572177887,0.6731231212615967,-0.16293415427207947,0.12243005633354187,0.3629390597343445,-0.4289103150367737,0.4092250466346741,1.340932011604309,0.35163769125938416,0.07171488553285599,-0.1535850316286087,-0.4566868245601654,-0.010145026259124279,-0.34076833724975586,-0.6434279084205627,-1.2004884481430054,0.45100152492523193,-0.5678595304489136,-0.2168235033750534,0.7369670867919922,-0.2637217342853546,-0.5059773921966553,0.1917174756526947,-0.005264168605208397,0.05836700275540352,-0.7628941535949707,0.2886792719364166,0.06476443260908127,0.3294137716293335,-0.3365793526172638,0.08218274265527725,-0.1593284159898758,0.23359818756580353,0.047834161669015884,0.030379435047507286,-0.521425724029541,0.15054772794246674,0.005660501774400473,0.16625595092773438,0.4269488453865051,0.3896748721599579,-0.7872793078422546,-0.21079468727111816,0.2717225253582001,0.003933275584131479,-0.059680309146642685,-0.6473489999771118,0.91195148229599,-0.4970727860927582],[-0.4642375707626343,-0.36489856243133545,-0.6661496758460999,-0.3227527439594269,0.02060331031680107,-0.9827730059623718,0.9263096451759338,-0.42554378509521484,1.0086220502853394,-0.4424217939376831,-0.15748761594295502,0.31642046570777893,0.3534027636051178,0.0604495070874691,-0.23984484374523163,-0.13058918714523315,-0.9845935702323914,-0.7180643081665039,-0.36707791686058044,-0.10766644030809402,0.17102313041687012,-0.8067296147346497,-0.5677884817123413,-0.7208787202835083,0.26528874039649963,0.09473136067390442,0.2545241117477417,0.5706537365913391,-0.2145228236913681,0.03040497750043869,0.27933311462402344,0.5757204294204712,-0.8815451264381409,-0.15464520454406738,-0.7653250694274902,0.47194555401802063,0.2693624496459961,0.418841689825058,0.44836777448654175,-0.16340330243110657,-0.43380922079086304,0.01602850668132305,-0.1289593130350113,-0.14121562242507935,-0.4722038209438324,0.5400042533874512,-0.39958104491233826,-0.0713830292224884,-0.2665277421474457,-0.4033128023147583,0.898192286491394,0.15194836258888245,-0.6742917895317078,0.049540866166353226,-0.16815023124217987,-0.9684038758277893,-0.5483123064041138,-0.15190908312797546,1.0635067224502563,0.20129665732383728,0.4738447666168213,-0.36912280321121216,-0.21398580074310303,-1.0295301675796509,-0.04568986967206001],[0.277996301651001,-0.13214357197284698,-0.8306556344032288,-0.052622850984334946,-0.7709733843803406,1.117774486541748,-0.6955915093421936,-0.42149022221565247,-1.055192232131958,-0.42381274700164795,0.02202392742037773,-0.09149674326181412,-0.48829060792922974,0.09228489547967911,-0.3870328962802887,-0.008276749402284622,0.2080189287662506,0.07384966313838959,-0.9645615220069885,0.03812798112630844,-0.4762634038925171,-0.4412482976913452,0.12541481852531433,0.0838548019528389,-0.4615064561367035,-0.024240201339125633,0.012584655545651913,-0.013924209401011467,0.12656556069850922,-0.5902746915817261,-0.7426996827125549,-0.2013562023639679,0.4269065260887146,-0.5623690485954285,0.34974053502082825,-0.20890922844409943,-0.41427138447761536,0.4947739839553833,-0.33429816365242004,0.29125550389289856,-0.2442544847726822,-0.34995922446250916,0.41328614950180054,-0.3641256093978882,0.060746341943740845,0.21006789803504944,-0.09466075152158737,0.17896340787410736,-0.18893897533416748,-0.2316170036792755,0.21019546687602997,-0.09044826775789261,0.09817817062139511,0.059575341641902924,0.1354055404663086,1.3644808530807495,-0.016593463718891144,0.2778030335903168,0.06303395330905914,-1.3333289623260498,-0.1686028242111206,0.03301144763827324,-0.5293383598327637,0.2311248481273651,-0.6028643250465393],[-0.28037798404693604,-0.21414479613304138,-0.7064452767372131,-0.3702801764011383,0.2369750440120697,-1.249584674835205,1.1608024835586548,-0.15358972549438477,1.1037169694900513,0.48200833797454834,0.7325100898742676,1.145344853401184,0.6450574994087219,-0.005694109480828047,0.3874201476573944,1.4938454627990723,0.2376452088356018,0.27014443278312683,-0.18117426335811615,-0.08251947909593582,0.19930817186832428,-0.8812975883483887,0.7065768241882324,0.8196688294410706,-0.2801898717880249,-0.04617823660373688,1.2658706903457642,0.9604901075363159,-0.07570365071296692,0.07825719565153122,-0.058612238615751266,0.20390723645687103,-0.4018509089946747,-0.10465022921562195,0.1810237467288971,0.04804769903421402,-0.09871942549943924,-0.9519871473312378,0.15055769681930542,0.11309158056974411,-0.23225750029087067,-0.08156003803014755,0.8457021713256836,-0.3829123377799988,0.2726918160915375,0.5718338489532471,-0.398074209690094,0.2126133143901825,0.0945984274148941,-0.3713149130344391,-0.23847916722297668,0.9791610836982727,-0.2832571268081665,0.593553364276886,-0.20692747831344604,-0.13673901557922363,0.23553763329982758,0.554520308971405,0.34109169244766235,-0.057227056473493576,-0.12652012705802917,-0.3438018262386322,0.49765732884407043,0.7201253175735474,-0.13844648003578186],[-0.3314113914966583,0.07790977507829666,0.3494497835636139,0.6249249577522278,0.1354486346244812,0.02410697564482689,-1.0682581663131714,0.21904709935188293,0.7504814267158508,-0.027255628257989883,0.16305606067180634,0.5941087603569031,-0.8867906928062439,-0.026444438844919205,0.18471185863018036,-0.35339316725730896,-0.11997269839048386,-0.2810305953025818,-1.7000267505645752,-0.022778404876589775,0.1748427152633667,-0.09204334020614624,-0.4329249858856201,-0.18242527544498444,-0.593769907951355,-0.052024126052856445,2.184303045272827,-0.18180210888385773,-0.34815332293510437,0.12433068454265594,-0.024057216942310333,1.4787927865982056,-1.3322335481643677,-0.8936631083488464,0.361198365688324,0.5685786008834839,-0.09232956171035767,-0.2129778265953064,-0.557889997959137,0.4147733151912689,-0.2258414775133133,0.2140415906906128,-0.1004905179142952,-0.20835131406784058,0.48119065165519714,0.14051884412765503,-0.29705095291137695,0.0484449528157711,-0.4429578185081482,-0.16871489584445953,0.28239601850509644,0.1542763113975525,-0.2606085538864136,0.5881658792495728,0.16744402050971985,0.30362555384635925,0.05060305446386337,0.34725436568260193,-0.4735332429409027,-0.5431082248687744,-0.17142654955387115,-0.18345080316066742,0.09959520399570465,-0.1643894761800766,0.22360898554325104],[-0.34756797552108765,0.8846405148506165,1.3970712423324585,-1.353181004524231,-0.7029365301132202,-0.4623209238052368,0.1483469158411026,-0.5492785573005676,0.22808781266212463,-1.0395128726959229,0.8603881001472473,0.3392150104045868,1.0081965923309326,-0.06426510214805603,0.0690656304359436,-0.9099024534225464,-0.17364934086799622,0.0372677743434906,0.5294559001922607,-0.07308933883905411,-0.9346595406532288,-0.02923247031867504,0.5049937963485718,0.5718408823013306,0.503117024898529,-0.04737026244401932,0.422904908657074,-1.3485510349273682,0.23084065318107605,-0.39272671937942505,0.13794144988059998,-0.5838347673416138,0.842168927192688,-0.8722348809242249,-0.3046005070209503,-0.6938596963882446,-0.27508264780044556,-0.46404609084129333,0.2765667736530304,-0.1872568577528,-0.1229361891746521,0.40312957763671875,-0.3018229305744171,-0.24649806320667267,0.2764265835285187,-0.5481017827987671,-0.3925859034061432,0.8447017073631287,-0.760553777217865,-0.37655770778656006,-0.07920916378498077,0.03000110201537609,-0.4657136797904968,-0.15025517344474792,-0.36643463373184204,-0.58433997631073,-0.037828657776117325,0.6426079273223877,-1.1357413530349731,0.5611475110054016,-0.2197573333978653,0.01693425327539444,-0.3728123903274536,-0.02173045091331005,-0.22084197402000427],[0.43253153562545776,-0.42328670620918274,-1.1058804988861084,-0.5880692601203918,0.6204042434692383,-0.07007177174091339,-0.4329293966293335,0.32815971970558167,-0.5496581196784973,0.5756736397743225,-0.3380787670612335,-1.4487131834030151,0.19374941289424896,-0.06422574073076248,-0.4863041639328003,0.5010581612586975,0.07494069635868073,0.41170382499694824,-0.6366055011749268,0.05636981874704361,0.8379772901535034,0.5294039845466614,0.04673207178711891,-0.4535275995731354,0.4238576292991638,-0.035386815667152405,-0.14427052438259125,0.43056485056877136,-0.37005671858787537,0.3536767065525055,-0.10143520683050156,0.7719411253929138,-0.9399885535240173,0.23205740749835968,-0.5954551696777344,-0.3721671402454376,0.07262720912694931,1.144952416419983,-0.4223769009113312,-0.16921716928482056,0.01046721637248993,-0.014577357098460197,0.4525167942047119,-0.0670272558927536,-1.2325100898742676,-0.2317769080400467,-0.05952674150466919,-0.4312802255153656,0.5419895052909851,0.05935334041714668,-0.08250631392002106,0.07940763980150223,-0.16609056293964386,-0.23993822932243347,1.057078242301941,0.3335006535053253,0.08364079892635345,-0.010060003958642483,0.9271523356437683,0.15138423442840576,-0.9776654839515686,-0.023559441789984703,-0.28659486770629883,0.032642316073179245,0.021180545911192894],[-0.050962530076503754,0.028870975598692894,-0.836390495300293,-0.756935179233551,0.32930970191955566,-1.3724583387374878,1.4420820474624634,-0.16100475192070007,0.24855642020702362,-0.021612124517560005,-0.181300088763237,-0.5473965406417847,0.3206219971179962,0.044421058148145676,-0.23396272957324982,-0.7902119159698486,-0.514350414276123,-0.38899561762809753,-0.36263349652290344,-0.05713183432817459,-1.2042558193206787,-0.30370283126831055,-0.16658228635787964,-0.6547245979309082,-0.09705298393964767,-0.11695476621389389,-0.07622916996479034,1.001264214515686,-0.45179224014282227,-0.04721575975418091,0.3389463722705841,-0.6727849245071411,-1.0696603059768677,0.01821775548160076,-0.5480268597602844,0.15519103407859802,0.27938616275787354,0.26839256286621094,-0.40053263306617737,-0.774807870388031,0.27128204703330994,-1.3179887533187866,-0.03300878033041954,0.2884405851364136,-0.8119531273841858,-0.559951901435852,0.16360367834568024,-0.5530247688293457,0.20031625032424927,0.052894867956638336,-0.8497770428657532,0.1641165167093277,0.16895554959774017,-0.3638210892677307,-0.782891571521759,-0.8010361194610596,0.04428432136774063,-1.084559440612793,-0.17955583333969116,0.7163571119308472,0.6634419560432434,-0.09872806072235107,0.5219047665596008,-1.2207472324371338,0.12725995481014252],[-0.6416530013084412,-0.7891463041305542,-0.9031874537467957,1.0551998615264893,0.9887346625328064,0.021999357268214226,0.35741814970970154,0.39216265082359314,-1.4884769916534424,0.5626164674758911,-0.11468245089054108,-0.7999798655509949,-0.7760454416275024,-0.11068428307771683,0.34406885504722595,0.6066660284996033,0.2566984295845032,-0.02341698296368122,0.620305061340332,0.05172738432884216,0.4347326159477234,0.8250492811203003,0.15292838215827942,0.3499642610549927,0.6330324411392212,-0.06885380297899246,0.21988390386104584,0.05103953555226326,0.3224998414516449,0.3511162996292114,-0.0252007395029068,-1.2482699155807495,0.47375190258026123,0.9288862943649292,0.37076494097709656,-0.4787616431713104,0.17286570370197296,-0.31613025069236755,0.7609527111053467,0.23840199410915375,-0.4081508219242096,0.043155863881111145,0.15589012205600739,-0.4658118188381195,0.46182361245155334,-0.8790610432624817,-0.2509508430957794,0.00023375148884952068,0.48279398679733276,-0.27853620052337646,0.20076602697372437,0.6943299174308777,-0.19416603446006775,0.3486582934856415,0.7174630165100098,-0.7168259620666504,-0.44034597277641296,1.0615766048431396,0.8353585004806519,0.643464207649231,-0.15620920062065125,-0.10769262164831161,-0.26095542311668396,-0.08279120177030563,0.2811318039894104],[0.6838678121566772,0.259027361869812,0.3970940411090851,0.05584840476512909,-0.5795665383338928,0.7048122882843018,-1.3600999116897583,-0.11877267807722092,-0.5798957943916321,-0.5846511721611023,-0.06717634201049805,0.4280407428741455,-0.25572019815444946,-0.045945726335048676,-0.15940611064434052,0.8296861052513123,0.051097333431243896,-0.36271971464157104,0.07208514213562012,0.035801298916339874,-0.14533299207687378,1.1299545764923096,0.16245947778224945,-0.36040833592414856,0.07221703231334686,-0.03681670501828194,-0.1851290613412857,0.41634172201156616,0.1556573510169983,-0.4602305293083191,0.1312016248703003,-0.14627529680728912,1.425059199333191,-0.1692599207162857,0.24535875022411346,-0.4653928577899933,-0.7251071929931641,-0.26282718777656555,-0.26708489656448364,-0.17348483204841614,-0.3814064562320709,-0.04887564107775688,-0.9170506000518799,-0.22712813317775726,0.6270028352737427,0.5812356472015381,-0.19090192019939423,0.31873512268066406,-0.7493226528167725,-0.19471627473831177,-0.5326675772666931,-0.1322856843471527,-0.08393827825784683,-0.43576931953430176,-0.5755210518836975,1.6084632873535156,0.2563319504261017,0.7505851984024048,-0.08641865104436874,-0.30618810653686523,-0.9155723452568054,-0.3972095847129822,0.3246147334575653,1.146660566329956,-0.12827567756175995],[-0.29278355836868286,0.18020042777061462,-0.9507891535758972,0.2981818616390228,1.1875522136688232,-0.8650771379470825,-1.0604392290115356,0.7632691860198975,-0.8118398189544678,-0.6404029726982117,0.13154713809490204,-0.04845445975661278,-1.015426754951477,-0.06282179057598114,-0.18777784705162048,0.4533690810203552,-0.5594380497932434,-0.946648359298706,-1.25307297706604,-0.08390474319458008,0.09172186255455017,-0.21671134233474731,-0.9867340326309204,-0.7282500267028809,-0.4377661347389221,-0.040475212037563324,2.5872089862823486,0.178660050034523,-0.012286966666579247,1.2249664068222046,0.6944149136543274,0.3142840564250946,1.1174391508102417,-0.28094539046287537,-0.10760817676782608,0.30896663665771484,0.16502521932125092,-0.6381465196609497,0.15953406691551208,-0.5098248720169067,-0.2173754721879959,-0.22015507519245148,0.026917392387986183,-0.3905579447746277,0.6289669871330261,0.0717511922121048,-0.2920585572719574,0.15303604304790497,0.5211144685745239,-0.37511104345321655,0.31876325607299805,0.13910256326198578,-0.33020538091659546,-0.1536078155040741,-0.2954109311103821,-0.7771429419517517,-0.18067888915538788,-0.32126155495643616,-0.5176725387573242,-0.680891752243042,0.6651697158813477,-0.033859532326459885,0.29815810918807983,-0.8663805723190308,0.6006169319152832],[0.1028190478682518,0.14167138934135437,-0.511926531791687,0.3903384804725647,-0.16746647655963898,-0.09444382041692734,0.9850224852561951,-0.06818258762359619,-1.0772203207015991,-0.49936443567276,-0.579969584941864,-1.7059756517410278,0.3928089737892151,-0.10348187386989594,0.018015403300523758,-0.364828497171402,-0.5503687262535095,-0.13891327381134033,0.89945387840271,0.12382293492555618,-0.7301866412162781,-0.6672711968421936,0.8297896385192871,0.42033153772354126,0.8542207479476929,-0.05518290773034096,-1.3257133960723877,-0.29843103885650635,0.20342615246772766,0.14304879307746887,0.16594432294368744,-0.7087979912757874,0.6902251839637756,0.08436272293329239,-0.40109822154045105,-0.09721169620752335,0.17566344141960144,0.9120411276817322,-0.7252645492553711,0.6080326437950134,-0.20833882689476013,-0.35405805706977844,0.006664221175014973,-0.2323472499847412,-0.6591143012046814,0.9582370519638062,-0.10277234762907028,-0.04830615967512131,0.636957585811615,-0.16840772330760956,-0.673899233341217,0.3469686806201935,-0.1638566553592682,-0.4190188944339752,-0.4177016019821167,-0.4147765338420868,-0.2534589469432831,0.87538743019104,0.7553565502166748,0.4164991080760956,0.36041006445884705,0.25978904962539673,0.0825456827878952,-0.44364121556282043,0.11915615200996399],[-0.1762673705816269,0.18090584874153137,-0.9245201945304871,-0.31594228744506836,0.1348273903131485,0.7116215229034424,1.3230541944503784,0.4694243371486664,-0.5839095711708069,0.6884191632270813,-0.47389256954193115,-1.1763027906417847,-0.24750269949436188,-0.04602116718888283,0.8261092901229858,-0.024969683960080147,-0.10713512450456619,-0.0922829657793045,0.9673232436180115,-0.028256429359316826,1.0211213827133179,0.18833287060260773,0.4490092098712921,0.30932387709617615,0.9255104064941406,0.06288714706897736,-1.1255773305892944,-0.7132033705711365,0.07190804183483124,-0.41209346055984497,-0.12412769347429276,-0.06535232067108154,0.022683599963784218,-0.6839442253112793,-0.3693605065345764,-0.08128046989440918,0.13421514630317688,-0.7770714163780212,-0.12813664972782135,0.709962010383606,0.060103170573711395,0.7983362078666687,0.6094058156013489,0.07857795059680939,-0.6285387873649597,-0.4619631767272949,-0.0448247529566288,0.2330988049507141,0.023318162187933922,-0.1240246593952179,-0.30229464173316956,0.345887154340744,-0.04614220932126045,-0.09566090255975723,0.42141297459602356,-0.9315769672393799,-0.08099963515996933,0.46146920323371887,-0.2178581804037094,0.8698252439498901,1.5256651639938354,0.1424696147441864,0.15590883791446686,0.079338438808918,0.26950332522392273],[-0.4736514091491699,-0.6181460022926331,0.8109006881713867,0.7903324961662292,0.43269655108451843,-0.7302573323249817,-0.47491776943206787,0.5911880731582642,1.0454853773117065,0.5702158212661743,0.7859640121459961,1.088761806488037,0.3245559334754944,0.11190256476402283,0.5387853384017944,0.5563814043998718,0.15483097732067108,-0.3216736614704132,0.23969240486621857,0.08541285246610641,0.405233770608902,-0.07755639404058456,0.4675785303115845,0.5952913761138916,0.17830942571163177,0.004354814533144236,0.6338042616844177,0.49243471026420593,0.28249266743659973,0.5802194476127625,0.3221035897731781,0.3155724108219147,-1.0952073335647583,0.4859558343887329,0.9269805550575256,0.5414586067199707,-0.3096396028995514,-0.6126864552497864,0.6356937289237976,-0.022494684904813766,0.05529925599694252,0.24905286729335785,-0.12984254956245422,0.07164449989795685,0.7461974620819092,0.048961006104946136,-0.014149939641356468,-0.14896884560585022,0.6941357851028442,0.017843427136540413,0.41759687662124634,0.2790745496749878,-0.19827817380428314,0.6608926057815552,1.1043576002120972,-0.34848129749298096,-0.1834469437599182,-0.6259868144989014,0.33810296654701233,-0.778120219707489,-0.40317511558532715,0.027138998731970787,-0.9096441864967346,-0.5578551888465881,0.2457246482372284],[0.5812779664993286,-0.26496195793151855,0.20410414040088654,0.574350118637085,0.32529962062835693,0.5159515142440796,-1.4422246217727661,0.2873828113079071,-0.775268018245697,-0.0793386772274971,0.20732827484607697,-0.8000893592834473,-0.7206904292106628,-0.07233031094074249,-0.5426226258277893,-0.7918305397033691,0.8391303420066833,0.796793520450592,-0.2696622908115387,0.07762998342514038,0.015027938410639763,-0.02058870531618595,0.7961334586143494,0.9070127606391907,-0.9428900480270386,0.1078873723745346,-1.2191187143325806,-0.656880795955658,0.2519080340862274,0.31175750494003296,0.005700692534446716,0.5499931573867798,-0.06894617527723312,-0.5530045032501221,0.6127741932868958,0.025266610085964203,-0.06087105721235275,0.44482773542404175,-0.4119976758956909,0.26882946491241455,-0.36400240659713745,0.46461379528045654,0.3806677460670471,-0.029477328062057495,-0.5253573656082153,0.6107484102249146,-0.023866930976510048,-0.540587842464447,0.8199759721755981,0.023702777922153473,0.31911876797676086,0.0007755089900456369,-0.09499234706163406,-0.42459458112716675,-0.4820364713668823,1.424683928489685,0.2908288538455963,0.10498577356338501,-0.30879244208335876,-0.2834041714668274,-0.13345134258270264,0.3573007583618164,-0.40868812799453735,0.814975380897522,0.07360532879829407],[0.11890790611505508,0.14925919473171234,0.42189040780067444,0.428234338760376,-0.35982340574264526,0.8293230533599854,-0.38478660583496094,-0.5704759359359741,-0.5753296613693237,0.5481919646263123,-0.48731330037117004,-1.5503315925598145,-0.9444766640663147,0.12132590264081955,-0.24173209071159363,0.07752439379692078,-0.040868207812309265,-0.3743439316749573,-0.3568016588687897,0.020619191229343414,-1.2353394031524658,-0.901943027973175,0.024334710091352463,-0.4751366078853607,-0.9006994962692261,0.10850585997104645,-1.0561946630477905,-1.0079777240753174,-0.29635941982269287,-0.2308226227760315,0.19120965898036957,-1.072568655014038,0.6363244652748108,-0.1870114505290985,-0.5819813013076782,0.18310248851776123,0.25834181904792786,-0.19722427427768707,-0.07762054353952408,0.09231320768594742,-0.2939078211784363,0.5348121523857117,-0.683062732219696,-0.30079197883605957,0.02352588064968586,0.29785406589508057,-0.2426399290561676,0.3348865211009979,-0.08026693761348724,-0.4346286356449127,-0.733508288860321,0.25713881850242615,0.15314021706581116,0.23471257090568542,0.3574436604976654,0.5335441827774048,0.08931352198123932,0.2438391149044037,0.31681448221206665,0.11626408249139786,0.44887903332710266,0.004662300460040569,0.024522729218006134,0.26463624835014343,0.0004916201578453183],[-0.10345011949539185,-0.8653725981712341,0.22081977128982544,-0.47421035170555115,-0.5622756481170654,0.5826107263565063,1.5891367197036743,-0.22331836819648743,-0.5642268657684326,0.13821443915367126,-0.028231268748641014,1.4880799055099487,0.6200850605964661,-0.09350311011075974,0.3365246057510376,1.0506993532180786,-0.18488791584968567,-0.39846208691596985,0.5328809022903442,0.07354746013879776,0.0343785434961319,0.3282566964626312,-0.048362910747528076,-0.10282011330127716,-0.57827228307724,-0.07216856628656387,-0.6398348212242126,0.2788676917552948,0.6281580924987793,-0.15239457786083221,-0.17863625288009644,-0.2735033631324768,0.7306857109069824,0.34989073872566223,0.07793096452951431,0.6149106621742249,0.1320066899061203,1.1076033115386963,-0.11916644126176834,0.9084149599075317,-0.5908897519111633,0.2361462563276291,0.7910916209220886,-0.25018981099128723,0.22617577016353607,0.06953685730695724,-0.2657102346420288,-0.2210036814212799,-0.1965707540512085,-0.3104124367237091,0.3677394688129425,0.15750901401042938,-0.40337932109832764,-0.6578742861747742,0.7462262511253357,-0.0118616484105587,-0.37603044509887695,-0.23002783954143524,-0.16123522818088531,0.0652504488825798,0.6927406787872314,0.3756321966648102,-0.3467439115047455,-0.07975462079048157,-0.2020423263311386],[-0.015524599701166153,-0.5473146438598633,0.9587177634239197,-1.3310028314590454,-0.0962546244263649,0.12317398935556412,1.8554726839065552,-0.02299465984106064,1.1524999141693115,1.4402750730514526,-0.02909252792596817,-0.16416195034980774,1.0295964479446411,-0.037224963307380676,0.749569833278656,1.042536973953247,-0.07105229794979095,-0.13786061108112335,0.9690394401550293,0.030223408713936806,1.3033525943756104,0.33484312891960144,0.30632343888282776,0.09337707608938217,1.5021215677261353,0.10556624084711075,-0.38729679584503174,0.47180989384651184,8.885457646101713e-05,-0.17002834379673004,0.07063831388950348,-0.10754438489675522,-0.34173786640167236,0.35930609703063965,-0.41956451535224915,-0.5085709691047668,-0.054487913846969604,0.8351985812187195,0.6376721858978271,0.6581168174743652,-0.02481190674006939,0.2409888058900833,0.918907642364502,0.2665919363498688,-0.1342570036649704,-0.5082870125770569,0.06657743453979492,-0.19066298007965088,-0.12533468008041382,0.022015023976564407,0.6243946552276611,-0.32535335421562195,0.027538497000932693,0.2078535109758377,1.0566742420196533,-0.7256532907485962,0.15345638990402222,-0.06996701657772064,0.15940852463245392,0.6230095624923706,0.2486388236284256,0.0585951991379261,0.02223571203649044,-0.2768050730228424,-0.1473112553358078],[-0.21051129698753357,-0.0660799965262413,-0.6327230930328369,0.4010619819164276,0.6100422143936157,-1.0304341316223145,-1.083752155303955,-0.06926627457141876,0.29988908767700195,-0.18533296883106232,0.5604338645935059,0.3029532730579376,0.11358816176652908,-0.10737708956003189,-0.01743384450674057,0.7895615100860596,-0.09255616366863251,0.2528858780860901,0.6310251951217651,-0.019096771255135536,0.6475087404251099,0.3013662099838257,-0.12238921970129013,0.08273724466562271,0.08980049937963486,-0.1234087198972702,1.9687494039535522,0.09135134518146515,0.8114399313926697,0.2945404648780823,0.004373657982796431,0.2924787402153015,-1.0667766332626343,0.46206411719322205,0.7976225018501282,0.9462159872055054,0.47008076310157776,1.2588534355163574,-0.18915796279907227,-0.3182162940502167,0.03013608418405056,-0.27264854311943054,-0.44410598278045654,0.17819173634052277,0.02218029648065567,0.45312145352363586,0.19449228048324585,-0.45972687005996704,0.08540022373199463,0.057344064116477966,0.42800214886665344,0.3438849151134491,0.0030699712224304676,0.07836005836725235,-0.10691764205694199,1.6277679204940796,0.11755651235580444,0.05149752274155617,-0.03777528554201126,-0.7881834506988525,-1.0672070980072021,0.3335062563419342,0.03021492250263691,-0.06421209126710892,0.10062651336193085],[0.3677085340023041,0.19219143688678741,-0.44019317626953125,0.26114794611930847,0.29331618547439575,0.16044636070728302,-1.146708607673645,0.17479190230369568,-0.7842062711715698,0.4847547113895416,-0.7307800054550171,-0.9297937154769897,-0.39105212688446045,0.06222391501069069,-0.20440413057804108,-0.29171064496040344,-0.23789368569850922,-1.077302098274231,-0.35053080320358276,0.011542407795786858,-0.30522602796554565,0.9186396598815918,-1.0777698755264282,-0.8323813080787659,-1.2885870933532715,0.036595046520233154,-0.6929108500480652,0.7221717238426208,-0.11308213323354721,0.05030486732721329,0.19699789583683014,-0.012893117032945156,0.017777182161808014,0.68039470911026,-0.3058173656463623,-0.2940766215324402,-0.2911408245563507,1.118475079536438,-0.05655869096517563,-0.6675975322723389,0.11106270551681519,0.9062532186508179,-0.30205413699150085,-0.15203824639320374,-0.6706480383872986,0.09174223244190216,0.051419198513031006,0.48038825392723083,-0.5781270861625671,-0.18245981633663177,-0.16109606623649597,-0.042919307947158813,0.10784469544887543,0.16839471459388733,0.19631034135818481,0.3395348787307739,0.08832676708698273,0.8020404577255249,0.5056414604187012,-0.574245035648346,-0.27542611956596375,0.13772335648536682,0.06051476299762726,-0.7021004557609558,0.1371236890554428],[-0.27689167857170105,-0.22328117489814758,-0.7668329477310181,0.27960205078125,0.31386876106262207,0.7808700203895569,-0.6758266687393188,0.12533707916736603,-0.9977422952651978,0.6143376231193542,-1.1043955087661743,-2.270561456680298,-1.0069297552108765,0.06365516036748886,0.47764191031455994,0.3753082752227783,-0.0920797735452652,-0.26831352710723877,0.3768739700317383,-0.0026368186809122562,-0.2087298333644867,0.3858855068683624,-1.0841575860977173,-0.8085519671440125,-0.9062961339950562,-0.07525534182786942,0.47746992111206055,-0.2265564203262329,-0.295937180519104,-0.024365609511733055,0.6010314226150513,0.7312124967575073,-0.2687511444091797,-0.522688627243042,0.2017485499382019,-0.2714673578739166,0.5806064605712891,-0.23905189335346222,-0.06987904757261276,-0.0770832821726799,0.03022761270403862,0.4499211609363556,0.13738898932933807,0.04667876660823822,-0.3641749918460846,0.3262271583080292,-0.03206310421228409,-0.17194917798042297,0.534172534942627,-0.027192112058401108,-0.37357601523399353,0.013096910901367664,0.19933706521987915,0.17963404953479767,0.3235785663127899,0.14120331406593323,-0.32151690125465393,0.758083164691925,-0.08441618084907532,0.11846078187227249,-0.07329092174768448,0.18115955591201782,0.8718194365501404,-0.9088732600212097,0.4112255573272705],[-0.40379947423934937,-0.12084450572729111,-0.20890852808952332,-0.7008037567138672,0.6783389449119568,-1.784949541091919,-0.5296524167060852,0.2734392285346985,1.320768117904663,-0.46689102053642273,0.6460227966308594,1.6468769311904907,0.6323084235191345,0.08590608835220337,-0.11994676291942596,-0.16066895425319672,0.14200349152088165,0.2226359099149704,-0.2969728112220764,-0.0479436069726944,-0.1613367795944214,0.0073247808031737804,0.475591778755188,0.06755159050226212,-0.01512998715043068,0.07255495339632034,0.3370168209075928,0.6734362840652466,-0.32659971714019775,0.7516046762466431,0.18914158642292023,0.38415762782096863,0.8894076347351074,0.15521587431430817,-0.2573723793029785,0.26801449060440063,-0.07349055260419846,0.4876042604446411,0.22054994106292725,-0.35529616475105286,-0.07265888899564743,-0.19230976700782776,0.26763421297073364,-0.0905691385269165,0.14617183804512024,0.29563480615615845,0.10625094175338745,0.24716567993164062,0.2304731160402298,0.16722741723060608,0.32860639691352844,-0.30911293625831604,-0.09231481701135635,-0.1423618644475937,-0.45150506496429443,0.23175565898418427,-0.10130015015602112,0.5374081134796143,0.6213390231132507,-0.8405590653419495,-0.7000764608383179,-0.13209320604801178,-0.41369742155075073,-0.6224837303161621,0.1759442836046219],[-0.22822752594947815,0.5098636746406555,0.8483017086982727,0.6656103134155273,-0.28207913041114807,0.4791085720062256,0.6661289930343628,0.0774761289358139,-0.6466111540794373,-0.44023001194000244,-0.31199514865875244,-1.1987998485565186,0.07002416998147964,0.09636955708265305,-0.3181294798851013,0.1428331434726715,-0.47337689995765686,-0.45772743225097656,-0.6472305655479431,0.057321421802043915,-0.18859753012657166,1.4620295763015747,-0.6916636824607849,-0.8184590935707092,0.12984399497509003,-0.0749431774020195,-2.5359573364257812,-0.19491668045520782,-0.33263397216796875,-0.1960294097661972,0.4083794951438904,0.502389669418335,0.4724175035953522,-0.16535159945487976,-0.42845791578292847,-0.46581271290779114,-0.20449276268482208,-0.6200140714645386,-0.5194939970970154,-0.24713027477264404,-0.20323553681373596,0.6203643679618835,-0.6286065578460693,-0.2000216543674469,0.014490541070699692,-0.19307629764080048,-0.1422511637210846,0.15645435452461243,-0.05846039578318596,0.008846789598464966,-0.38637933135032654,0.19290004670619965,-0.26342540979385376,-0.360624760389328,0.01925026997923851,-1.556969404220581,-0.41478389501571655,0.22859172523021698,0.08976095169782639,0.6007673144340515,-0.26624593138694763,-0.09767831116914749,-0.017539169639348984,-0.9056474566459656,0.18983691930770874],[-0.09569936990737915,-0.11771587282419205,-0.7850553393363953,0.05536062270402908,0.5436220765113831,0.4190184772014618,-0.9389052987098694,0.25134703516960144,-0.923943042755127,0.503068208694458,-0.3347155749797821,-0.8873052597045898,-1.947717547416687,-0.050181999802589417,-0.2312798649072647,0.2845984995365143,-0.20216767489910126,-1.3543641567230225,-0.47184285521507263,-0.07666010409593582,0.17387248575687408,1.3620269298553467,-0.8531308770179749,-1.3009250164031982,-0.5733212232589722,0.11991828680038452,-0.03629841282963753,0.6661266088485718,-0.10355984419584274,0.35991206765174866,0.6133297681808472,-0.20614080131053925,0.32692620158195496,0.7472208142280579,-0.0507691390812397,0.19909729063510895,0.5601872801780701,0.011482049711048603,-0.1145021989941597,-0.2367742508649826,0.04893513768911362,0.3992534279823303,-0.4331195652484894,0.027421582490205765,-0.07374564558267593,0.1600150167942047,0.05972269922494888,-0.17655904591083527,0.28871703147888184,0.1209828332066536,0.26519736647605896,0.16930894553661346,-0.017316440120339394,-0.35765716433525085,0.07841520756483078,0.051508475095033646,-0.04149432107806206,0.011494689621031284,-0.016042497009038925,-0.5244985222816467,-0.3134332597255707,0.1334334909915924,0.3244185447692871,-0.3569542169570923,0.46116071939468384],[0.010824550874531269,0.6272486448287964,-0.5074144005775452,-0.5227906107902527,-0.423584908246994,-0.9841662049293518,1.1539483070373535,0.5255727767944336,-0.7281181812286377,-0.3402334749698639,-0.15134473145008087,-0.26398053765296936,0.15367543697357178,-0.024005116894841194,0.2524140775203705,0.08457989245653152,-0.5670730471611023,-0.4797254502773285,0.0914088562130928,0.03542960807681084,-0.6685462594032288,0.13977891206741333,-0.33835166692733765,-0.30973806977272034,-0.21952518820762634,-0.08453967422246933,0.15736019611358643,-1.1079245805740356,1.159192681312561,-0.012488476932048798,-0.505612850189209,0.7478764653205872,0.6931377053260803,-0.23232975602149963,0.5730873346328735,0.49780046939849854,0.30208197236061096,1.2916924953460693,-0.3081617057323456,-0.23082129657268524,-0.07672256976366043,-0.3465100824832916,0.29011744260787964,-0.3266323208808899,0.3578081727027893,0.2789270281791687,-0.1871270090341568,0.05793830752372742,0.19608056545257568,-0.3070537745952606,0.2791147530078888,-0.6660323143005371,-0.05364751070737839,-0.5030417442321777,-1.1301239728927612,-0.12690423429012299,-0.027381250634789467,0.39822623133659363,-1.8346843719482422,-0.4298127293586731,-0.9931433796882629,0.17196451127529144,0.7841392755508423,-0.562168538570404,0.07669141888618469],[0.03248358145356178,0.24348889291286469,-0.11127037554979324,0.3278992772102356,0.10824501514434814,-0.22174468636512756,2.5527217388153076,0.15132610499858856,0.8164764046669006,-0.14456836879253387,-0.5050442218780518,-0.8742108941078186,0.07987615466117859,0.041207730770111084,-0.052456051111221313,-0.17550115287303925,-0.304756224155426,-0.29521825909614563,-1.0570249557495117,-0.11954957991838455,-0.701874852180481,0.4487930238246918,-1.4144372940063477,-0.5819735527038574,-0.2661503851413727,0.02744816243648529,-0.0472630076110363,1.2232451438903809,-0.31191056966781616,0.33940425515174866,0.282063364982605,0.06256807595491409,-0.5416240096092224,0.1776147037744522,0.01652844250202179,0.034738000482320786,-0.195649653673172,-0.46050703525543213,0.1243155375123024,-0.5665755867958069,0.23622968792915344,0.09887581318616867,-0.7409407496452332,0.019397735595703125,-0.05925465002655983,-0.17367172241210938,0.1067066416144371,-0.4989699125289917,0.25781095027923584,0.00106254022102803,-0.4000042974948883,0.1477500945329666,0.07025393098592758,-0.04672805219888687,-0.387238472700119,-0.3104439079761505,-0.14814536273479462,-0.43965762853622437,-0.710886538028717,-0.04130188003182411,-0.6757729649543762,0.1309545636177063,0.7487923502922058,-0.2911055088043213,0.10925985127687454],[0.659613847732544,-0.18535763025283813,0.06775946170091629,0.3300831615924835,0.393820583820343,0.7088391780853271,-0.9379093647003174,-0.023290786892175674,-0.2509380280971527,0.26144981384277344,-0.1282292604446411,-0.3691646158695221,-0.1926077902317047,0.07328227162361145,0.02550589293241501,0.04438277333974838,1.2088158130645752,1.3971878290176392,0.49433037638664246,0.030887600034475327,-0.14162687957286835,0.004405255429446697,1.4410771131515503,1.423897385597229,0.03074861690402031,0.008102704770863056,0.1097777783870697,-0.47973328828811646,0.09914664924144745,-0.23773685097694397,-0.3184623420238495,0.3469218611717224,-0.22260478138923645,-0.38523006439208984,0.7913768887519836,-0.44741806387901306,-0.6445035934448242,-0.5130058526992798,0.0012033419916406274,0.2673364281654358,-0.27411314845085144,0.32198628783226013,-0.09425560384988785,-0.15865489840507507,0.13773657381534576,-0.08797413855791092,0.02693549171090126,-0.28157421946525574,0.11863643676042557,0.10164081305265427,0.3335310220718384,-0.233326256275177,0.027985356748104095,-0.5726958513259888,0.3438432812690735,1.1915793418884277,0.41764765977859497,0.12075138092041016,-0.04538935050368309,-0.5066068172454834,-0.31554675102233887,-0.10523637384176254,-0.7898629307746887,1.3266772031784058,-0.44183310866355896],[0.4272894561290741,-0.12727093696594238,0.43282923102378845,-0.12303316593170166,0.5861331820487976,-0.5929346680641174,1.3393609523773193,-0.1042671725153923,-0.6689586043357849,0.03735607489943504,0.16017785668373108,-1.1692556142807007,0.6254512667655945,-0.11977579444646835,-0.11202768236398697,-0.20029789209365845,0.4245591163635254,0.558882474899292,1.020078182220459,0.02351556532084942,-0.16537275910377502,1.0642330646514893,0.9671850204467773,1.0210648775100708,-0.12416458874940872,0.09249238669872284,-1.6672874689102173,-0.058497510850429535,0.5892999768257141,0.4208090901374817,0.1583450585603714,-0.7596567273139954,-0.8071934580802917,0.5518085360527039,0.3612802028656006,-0.054628755897283554,0.3832171857357025,-1.082482933998108,-0.5466786026954651,-0.5006449222564697,0.8749107718467712,-0.7474251985549927,0.4311172366142273,0.8661404848098755,-0.28617212176322937,-1.2184761762619019,0.8145943284034729,-1.0137712955474854,0.23687712848186493,0.6776321530342102,-0.7494202852249146,-0.3020362854003906,0.6327384114265442,-0.4219817817211151,-0.2619822323322296,0.6300041079521179,0.6435584425926208,-0.5437573790550232,0.16301360726356506,-0.2783089876174927,0.174923837184906,0.3371242582798004,0.03783822059631348,0.37525081634521484,0.23477613925933838],[-0.6463180780410767,-0.07746455073356628,-0.28745466470718384,0.46210527420043945,1.2071253061294556,-1.4717355966567993,-1.8315685987472534,0.5163688063621521,-0.1481209546327591,0.10723844170570374,-0.11470646411180496,-1.808807134628296,-1.0414907932281494,0.07758133858442307,1.1267848014831543,-0.37735071778297424,-0.16073940694332123,0.12547554075717926,0.06253061443567276,0.10768094658851624,0.2772839069366455,-0.36235177516937256,0.3896988034248352,0.25258976221084595,0.4178052842617035,-0.059654269367456436,0.8354018330574036,-0.12076468020677567,0.29872649908065796,0.23143501579761505,0.06665411591529846,-0.2037249207496643,-1.365074872970581,0.3721703290939331,0.5221872925758362,-0.11813376843929291,0.16548661887645721,-0.633488118648529,0.7592850923538208,0.09570062905550003,-0.06814877688884735,-1.1793261766433716,0.32893136143684387,-0.23698438704013824,-0.060546357184648514,-0.6203126907348633,-0.32977887988090515,0.3058226406574249,0.47854965925216675,-0.28973543643951416,0.8002104163169861,0.7749134302139282,-0.18325111269950867,0.7540423274040222,-0.3061975836753845,-0.3070754110813141,-0.1875879019498825,0.6940620541572571,1.094266653060913,-0.19908802211284637,0.027266819030046463,0.09579546749591827,-0.070591501891613,-0.6013687252998352,0.3978022038936615],[0.1284349113702774,-0.18331117928028107,-0.7737258672714233,-0.8312353491783142,0.9717287421226501,-1.5101070404052734,-0.4394277334213257,0.6290969252586365,0.15252789855003357,0.24541433155536652,0.08024270087480545,0.5347148180007935,0.3278752267360687,0.06506194174289703,-0.3202555775642395,0.546531617641449,-0.2560054361820221,-0.3095965087413788,-0.11763806641101837,-0.014862418174743652,-0.03328973427414894,0.4294497072696686,-0.7449208498001099,-0.666962206363678,-1.2350739240646362,-0.0903158038854599,0.14199014008045197,1.112987995147705,-1.0816084146499634,-0.016756843775510788,0.08203186839818954,1.0912857055664062,-0.7408780455589294,0.8588577508926392,-0.2696216106414795,0.22919729351997375,0.11368866264820099,0.875891387462616,-0.07007525116205215,-0.4217461943626404,-0.0352155864238739,-0.38756275177001953,0.3147915303707123,-0.07887069135904312,-0.17766283452510834,0.36563196778297424,0.013215472921729088,0.18419696390628815,-0.2597009837627411,0.032020628452301025,0.6950703859329224,-0.3727438449859619,0.18587958812713623,-0.10046419501304626,-0.25604110956192017,0.7457600235939026,-0.030264126136898994,-0.11722014844417572,0.9229885339736938,-1.3826638460159302,-0.9086586236953735,-0.31685519218444824,0.48053544759750366,-0.2762852609157562,0.19465045630931854],[0.20194414258003235,0.4836558401584625,-0.7310242652893066,1.0062000751495361,-0.035374801605939865,0.19044393301010132,-0.15699388086795807,0.23996812105178833,-0.2685103714466095,0.03600432351231575,-0.1885271817445755,-0.47778764367103577,0.8012312054634094,-0.11719371378421783,0.01044481247663498,-0.7475077509880066,-0.029070282354950905,0.6778469681739807,1.1599935293197632,-0.04988599941134453,-0.758796751499176,-0.570650041103363,0.10725898295640945,0.1806447058916092,0.44945141673088074,-0.12323866784572601,-0.3799585700035095,-0.09313051402568817,0.035846464335918427,-0.39560699462890625,-0.4503871500492096,0.0451817512512207,0.26279595494270325,-0.9323647022247314,0.29490235447883606,-0.3862912058830261,-0.5169194936752319,-0.803801953792572,-0.4627116024494171,-1.0106834173202515,0.20901787281036377,0.023247582837939262,-0.027723949402570724,-0.040598832070827484,0.4563707411289215,0.3817400336265564,0.06635606288909912,0.09777458757162094,0.0539228618144989,0.1897306889295578,0.4348563551902771,-0.8450510501861572,0.049803055822849274,0.3497237265110016,-0.40457984805107117,0.49872517585754395,0.26663896441459656,0.08342461287975311,-1.127639651298523,-0.8721734881401062,-0.6899652481079102,0.18861840665340424,-0.036215346306562424,0.4348633885383606,-0.2545003294944763],[0.3253359794616699,0.07671867311000824,0.5705845355987549,-0.6417973041534424,-0.02015094831585884,-0.20502214133739471,0.8491608500480652,-0.12248355895280838,-1.4522628784179688,0.028456518426537514,-0.4925978183746338,-0.5027015805244446,-0.3632909655570984,-0.05889880284667015,-0.09375821053981781,-0.5836732983589172,-0.333379864692688,-0.4038594961166382,-0.38288313150405884,-0.12156764417886734,0.5900668501853943,-0.06375673413276672,-0.5768844485282898,-0.5353426337242126,0.3157957196235657,0.07081081718206406,-1.7929661273956299,-0.5266874432563782,-0.718829333782196,0.2307380586862564,-0.10660788416862488,-0.8361066579818726,1.2022541761398315,-0.1953471302986145,-0.9044672250747681,-0.2548977732658386,-0.5434470772743225,0.5550110340118408,0.21455781161785126,-0.061869021505117416,-0.2616848349571228,0.06508725136518478,-0.277080774307251,-0.2732597589492798,-0.2663152515888214,-0.0737808421254158,-0.16186335682868958,0.08832582086324692,-0.1355796456336975,-0.3100436329841614,-0.11269447952508926,-0.4036615788936615,-0.18855233490467072,-1.0437743663787842,0.49093320965766907,-0.24399441480636597,-0.38294389843940735,0.3405051529407501,0.7161979079246521,-0.1476159244775772,0.8956772685050964,-0.5592271089553833,-0.49835410714149475,-0.2032146155834198,-0.3341785967350006],[0.05186779424548149,0.04696502909064293,0.4201084077358246,1.2442359924316406,0.001928788493387401,0.9703482389450073,-1.4439672231674194,0.717220664024353,-0.8361409306526184,-0.8721194863319397,-0.1666562557220459,-0.9900106191635132,-0.9604542851448059,0.05721599608659744,-0.3958488702774048,-0.5669398903846741,-0.1874048411846161,-0.4697515368461609,-1.127034306526184,0.07777529209852219,0.42937585711479187,-0.0935223400592804,-0.7196635007858276,-0.8114407658576965,-0.3514645993709564,-0.03898521885275841,0.3658750355243683,-0.528025209903717,-0.260032594203949,0.18618731200695038,0.3190045654773712,0.3803156018257141,0.492043673992157,0.4681439697742462,0.006161141209304333,-0.49977630376815796,-0.04969709739089012,-1.562613606452942,-0.04561389237642288,-0.19064581394195557,0.03420273959636688,0.5259764790534973,-0.027066519483923912,-0.023867536336183548,-0.1895701289176941,-0.15365153551101685,-0.1470407247543335,0.16675099730491638,0.3979452848434448,0.08870846778154373,-0.40939149260520935,0.697586178779602,-0.2438187301158905,0.11094117909669876,-0.4388388991355896,-0.5724719762802124,-0.33155930042266846,0.24964968860149384,-0.3066249489784241,-0.1952851265668869,-0.4164053201675415,0.34412938356399536,0.08328601717948914,-0.5163393616676331,0.3294794261455536],[-0.0477653332054615,-0.7458392381668091,-1.568701982498169,-0.3356085419654846,0.004870265256613493,-0.4204403758049011,-0.5264456272125244,-0.26583775877952576,0.45150288939476013,0.5438383221626282,0.2033747434616089,0.7012417316436768,0.4171963930130005,-0.038345497101545334,0.3979527950286865,0.10437866300344467,0.4150592088699341,0.34547993540763855,0.7033663988113403,0.032090168446302414,0.5389147400856018,-1.4691137075424194,0.5476509928703308,0.8917227387428284,0.19896695017814636,0.1055213212966919,2.3253891468048096,0.12760773301124573,0.059837792068719864,0.05713995546102524,-0.14541827142238617,0.6685830950737,-0.49726423621177673,0.5021971464157104,0.44180819392204285,0.36980438232421875,-0.2661110758781433,-0.4903919994831085,0.6951257586479187,-0.5724859237670898,-0.12368042767047882,0.1067238301038742,0.29879501461982727,0.04623080790042877,0.11627276986837387,0.1313665509223938,-0.10846859216690063,0.07261084020137787,-0.03852212056517601,-0.05644209682941437,0.46711406111717224,-0.6445022225379944,0.040922172367572784,0.025549884885549545,-0.2778320610523224,0.8783657550811768,0.13714635372161865,-0.6720300316810608,-0.2577228546142578,-0.6446263194084167,-0.43210792541503906,-0.1463741660118103,-0.1086229681968689,0.5960893034934998,-0.133567214012146],[0.4522094428539276,0.4058263301849365,0.9810224175453186,1.155265212059021,-0.1963842362165451,0.33365315198898315,-0.5707082152366638,0.20855839550495148,0.008714013732969761,-0.5163387656211853,-0.012906969524919987,-0.08323215693235397,0.06400970369577408,0.04137982428073883,0.22545118629932404,-0.12469867616891861,0.3777911365032196,0.22180142998695374,0.40667152404785156,-0.03302325680851936,-0.4525594711303711,0.016395552083849907,0.4900294244289398,0.1201721802353859,-0.015874018892645836,-0.03913791477680206,-1.3716329336166382,-0.6159492135047913,-0.4419034421443939,0.30780333280563354,0.22844970226287842,0.2866222858428955,1.1627062559127808,0.862778902053833,-0.11509764939546585,-0.7246109843254089,-0.2149437516927719,0.6505162119865417,0.12013737857341766,0.013081376440823078,-0.455868124961853,0.19221051037311554,0.31131723523139954,-0.42245715856552124,-0.202975332736969,1.438279390335083,-0.36913591623306274,0.20939722657203674,1.1156885623931885,-0.24022816121578217,0.3713352084159851,0.18144628405570984,-0.3845256567001343,-0.43535616993904114,-0.8884428143501282,0.8798452019691467,0.4317413568496704,0.5045502781867981,-0.8236629366874695,0.396227091550827,-0.7486200928688049,0.3853680491447449,0.295515239238739,0.3473949432373047,-0.0706321969628334],[0.16499358415603638,-0.22396665811538696,-0.6678466200828552,0.278175950050354,0.002394501119852066,1.5184797048568726,-1.1534870862960815,0.06960040330886841,-0.655720055103302,0.5641970634460449,-0.31493204832077026,-0.4775051474571228,0.28025686740875244,0.11803728342056274,0.5504013895988464,-0.30723413825035095,0.6794497966766357,0.2548982501029968,1.587770938873291,0.017215773463249207,-0.4957430958747864,0.35130223631858826,0.5496008992195129,0.8471134305000305,0.7642893195152283,-0.1203751340508461,0.3516189157962799,-0.12053341418504715,0.3206423223018646,-0.012077986262738705,-0.03626011684536934,0.6709290146827698,0.6005675196647644,0.513627827167511,0.6099736094474792,-0.16243459284305573,-0.1875237375497818,0.47031518816947937,-0.6836977005004883,-0.04735156521201134,-0.22678881883621216,-0.24585945904254913,0.06950600445270538,-0.038777340203523636,-0.5426732301712036,0.9164329171180725,0.0816170796751976,-0.27757132053375244,0.3530218303203583,0.032533299177885056,-0.18271060287952423,-0.33756837248802185,0.22776152193546295,0.16359148919582367,0.5538736581802368,1.1806052923202515,0.16267867386341095,0.22643448412418365,-0.030520450323820114,-0.6322817206382751,-0.1897231638431549,0.027468418702483177,-0.37951916456222534,0.8944016098976135,0.030800344422459602],[-0.03402171656489372,-0.14178040623664856,-0.1241711750626564,0.4120352566242218,-0.15173983573913574,0.7538599967956543,-1.6088695526123047,-0.17594307661056519,-0.3385747969150543,0.00053700729040429,-0.30455461144447327,0.800288736820221,0.3777233064174652,-0.08464358001947403,1.1056431531906128,0.020406147465109825,0.15583421289920807,-0.16197432577610016,0.17356771230697632,0.08061717450618744,-0.12618155777454376,0.3985097110271454,0.7882245779037476,1.140048861503601,-0.6251773834228516,-0.10872654616832733,0.38341155648231506,-0.2351355254650116,0.24120298027992249,-0.3306107521057129,-0.32972392439842224,-0.32209059596061707,0.8117042183876038,0.23412086069583893,0.3377908766269684,0.09312747418880463,-0.681123673915863,0.8716527223587036,0.5615188479423523,-1.032916784286499,0.18674124777317047,0.09547077119350433,-0.6899138689041138,0.18016795814037323,0.3570592999458313,-0.3061489760875702,0.2969929277896881,0.5160307288169861,-0.41424232721328735,0.15494714677333832,-0.1705143004655838,-1.1032129526138306,0.3392142057418823,-0.10405018925666809,-0.08189874142408371,1.4539967775344849,0.12002582848072052,0.2030232697725296,0.006081017199903727,-1.1079456806182861,-0.7596614360809326,-0.21052193641662598,-0.505007266998291,0.6221665143966675,-0.41366979479789734],[-0.18514175713062286,0.040276993066072464,-0.4052985906600952,0.15644636750221252,0.09072926640510559,0.19251331686973572,-0.0870257243514061,-0.1920023262500763,-0.5214436054229736,0.1975809633731842,-0.7689032554626465,-2.0645949840545654,-0.590014636516571,0.11454102396965027,0.2316640317440033,-0.2074846774339676,-0.22588934004306793,-0.28946027159690857,0.7171733975410461,0.05972921848297119,-0.027555963024497032,0.32948651909828186,-0.6043029427528381,-0.2913207411766052,0.15997962653636932,0.060577332973480225,0.24961251020431519,0.4726674258708954,0.1061689481139183,-0.18316364288330078,0.7724670767784119,0.43386247754096985,0.4173389673233032,0.19560208916664124,0.011075538583099842,0.09785152971744537,0.28718137741088867,-0.5095557570457458,-0.4327761232852936,-0.4760100841522217,-0.008349386043846607,0.20425745844841003,-0.9962987899780273,0.04839450120925903,-0.2601659297943115,-0.382406622171402,-0.13273780047893524,0.3801890015602112,-0.827420175075531,-0.11300373822450638,-0.716687798500061,0.21262364089488983,0.023371588438749313,0.3250444233417511,0.22600142657756805,0.34723880887031555,0.18876132369041443,0.40379923582077026,0.8895817995071411,-0.09216717630624771,0.8048569560050964,0.25169089436531067,0.5952749848365784,-0.31790807843208313,0.1960197538137436],[0.03377736732363701,-0.1290142983198166,1.039975881576538,-1.0249806642532349,-0.42355579137802124,0.7056210041046143,-0.19342617690563202,-0.3129346966743469,0.8811795711517334,0.10601979494094849,0.23788726329803467,1.460546851158142,1.3563848733901978,0.0633067712187767,-0.5788440704345703,0.6361440420150757,-0.22463947534561157,0.3676311671733856,0.1353268325328827,-0.05333247408270836,-0.15609906613826752,0.009879141114652157,0.1576494574546814,0.809460461139679,1.0494176149368286,-0.021516233682632446,0.9168208837509155,0.11180931329727173,0.18873760104179382,0.11907650530338287,-0.37491482496261597,-0.3302847445011139,-0.2215726524591446,0.37261494994163513,0.2791266441345215,0.3016761243343353,-0.1414748877286911,-0.5786476731300354,0.17931054532527924,-0.07579516619443893,-0.0044036004692316055,0.07787138223648071,-0.21312551200389862,0.04750663787126541,0.24311546981334686,-0.8240547776222229,-0.07580023258924484,-0.22383803129196167,-0.2928612530231476,0.1688934862613678,0.41119906306266785,0.3332821726799011,0.15560391545295715,-0.23445077240467072,0.115324005484581,0.10208964347839355,-0.14736223220825195,-0.6160138249397278,-0.489224374294281,-0.1577727347612381,-0.9729201197624207,0.10091540217399597,-0.49228230118751526,0.36476412415504456,-0.46540841460227966],[-0.041215941309928894,0.11764249950647354,0.5058717131614685,0.8105713129043579,-0.01347237080335617,0.5040308833122253,0.10834042727947235,-0.11296141892671585,0.5946757793426514,0.4376055598258972,0.3866332173347473,1.0038137435913086,0.01866571605205536,0.0927124097943306,0.9670502543449402,-0.33692389726638794,0.17629261314868927,0.5187110900878906,-0.8191695213317871,0.05860590562224388,0.7448546886444092,0.4901602268218994,0.4809795320034027,0.8809308409690857,0.06079098954796791,0.03907810524106026,-0.08432930707931519,0.24594898521900177,-0.21617205440998077,0.347187876701355,-0.7661958336830139,-0.5275754332542419,0.8382456302642822,0.7919937372207642,-0.5528534054756165,-0.2569895386695862,-0.7379768490791321,0.296796053647995,-0.06657001376152039,-0.6342784762382507,0.5555824041366577,-0.014998593367636204,-0.9613013863563538,0.5163447260856628,0.7865123152732849,-0.8257726430892944,0.6985373497009277,-0.7065914273262024,0.4874866306781769,0.6703418493270874,-0.8257081508636475,-0.47122514247894287,0.3208189606666565,0.058855924755334854,0.6448131203651428,0.4752825200557709,0.14353300631046295,0.8397461175918579,0.1504041999578476,0.13902486860752106,-0.9213104844093323,-0.1759720891714096,-0.4153667390346527,0.8179365396499634,-0.46802228689193726],[0.48698824644088745,-0.0054568019695580006,-0.17459352314472198,-0.053355444222688675,-0.49470269680023193,0.0958021804690361,-1.989047646522522,-0.38537415862083435,-1.7214215993881226,-0.9616756439208984,0.21598553657531738,0.28742343187332153,-0.06325045228004456,0.08337080478668213,-0.0732554942369461,-0.9970061182975769,0.16410882771015167,0.5560120344161987,-0.17630383372306824,-0.023645829409360886,-0.5806620717048645,0.355898380279541,0.39559975266456604,0.6290208101272583,0.02318580634891987,-0.029924433678388596,-1.7774730920791626,-1.4106837511062622,-0.48733165860176086,0.048138607293367386,-0.1602090299129486,-0.0807899609208107,-0.7355924248695374,-0.041003428399562836,-0.6148359775543213,-0.13896873593330383,-0.12900403141975403,-0.13577762246131897,-0.1358793079853058,-0.2999762296676636,-0.39671790599823,0.035643577575683594,-0.11737265437841415,-0.3334144353866577,-0.6128806471824646,-0.10698340088129044,-0.413473904132843,-0.5174475312232971,0.49157780408859253,-0.40456822514533997,0.27514660358428955,0.053243208676576614,-0.05182163044810295,-1.0375244617462158,-0.5612674355506897,0.9014872312545776,-0.16534650325775146,-0.7278006076812744,0.12792332470417023,-0.5844618082046509,-0.4653894603252411,0.26816263794898987,-0.5367035269737244,-0.038267869502305984,-0.22154995799064636],[0.3310922086238861,0.45859766006469727,0.9119424819946289,0.11646652221679688,0.1373666673898697,-0.30584779381752014,-2.3871495723724365,0.06584636121988297,-1.3831028938293457,-0.5644230842590332,-0.2584528625011444,-0.47314053773880005,-0.2001173496246338,-0.07592179626226425,0.142960786819458,-0.5272917747497559,-0.12295810878276825,0.1424267441034317,-0.421896368265152,0.07622082531452179,0.008293066173791885,0.08916494995355606,-0.5239690542221069,-0.08864196389913559,-1.3324987888336182,-0.10167866200208664,0.13019999861717224,-0.646019697189331,-0.263873815536499,-0.2714625895023346,-0.6084152460098267,0.2965049743652344,0.08537746965885162,0.2263411581516266,0.1838819533586502,0.10246122628450394,0.024554742500185966,-0.8447085618972778,-0.28678977489471436,-0.5125109553337097,-0.2061956822872162,-0.23457694053649902,0.6154120564460754,-0.45755520462989807,0.17623713612556458,-0.17748428881168365,-0.22479373216629028,0.4927615225315094,0.0007749609649181366,-0.272515207529068,-0.17164984345436096,0.09271112829446793,-0.07638140022754669,-0.12777242064476013,-0.015629615634679794,0.734911322593689,-0.1942490190267563,1.1638048887252808,-0.18876224756240845,-1.2216013669967651,-0.14654168486595154,-0.3812413513660431,-0.19642509520053864,-0.22844690084457397,-0.07051313668489456],[-0.15240217745304108,-0.19788184762001038,0.08934035152196884,0.1725350022315979,0.0410819947719574,-0.4608859121799469,0.2526349723339081,0.05904179811477661,-0.1015009805560112,0.21968364715576172,-0.6215851306915283,-1.9211347103118896,-0.5996335744857788,-0.08585862070322037,0.16050797700881958,0.413865864276886,-0.8149491548538208,-0.3337424099445343,0.3930857479572296,-0.015547812916338444,-0.055122073739767075,0.31697338819503784,0.1782853603363037,0.046286847442388535,0.6561651825904846,-0.06957603245973587,-0.3882884085178375,-0.1625666618347168,0.19138401746749878,-0.039759550243616104,0.7160792946815491,0.01147946622222662,-1.083592414855957,-0.16030794382095337,-0.22510500252246857,0.03294840827584267,0.9865914583206177,-0.15478555858135223,0.1091541051864624,0.13695888221263885,0.1390843689441681,0.44793835282325745,-0.07833694666624069,-0.3020423352718353,-0.3391894996166229,-0.07578513771295547,-0.2139992117881775,-0.1729407161474228,0.694678783416748,-0.36133185029029846,0.1834784895181656,-0.16356134414672852,-0.32765766978263855,-0.059230174869298935,0.07607512176036835,-1.0318619012832642,-0.1564580649137497,0.5289937853813171,0.017565308138728142,1.1101936101913452,-0.5030996799468994,0.7489367723464966,0.8870079517364502,-0.5692518949508667,0.6538550853729248],[-0.20752772688865662,0.037785857915878296,1.0717474222183228,-1.1071676015853882,0.060332633554935455,-1.077629804611206,0.06559982150793076,0.33961543440818787,0.6000683903694153,-0.13622604310512543,-0.0024497483391314745,0.7824497818946838,-0.5188069343566895,0.11186675727367401,0.804885745048523,-0.241351917386055,-0.5359463691711426,-0.7956278920173645,-0.6421530246734619,0.07944852858781815,0.775748610496521,-0.7100803256034851,-0.6272279620170593,0.11820778250694275,-0.17412792146205902,-0.06069942191243172,2.1810264587402344,0.8684609532356262,0.17041067779064178,0.15431678295135498,0.19532734155654907,0.7074261903762817,-0.5163708329200745,-0.11882473528385162,0.6673293709754944,0.16332560777664185,0.1481664776802063,-0.1402413249015808,-0.40365421772003174,0.10217618197202682,0.4692240059375763,-0.7132228016853333,-0.2915329337120056,0.17414268851280212,-0.02500295825302601,0.6335603594779968,0.1380326747894287,0.11039939522743225,0.00129467633087188,0.13021618127822876,0.3006064295768738,-0.09985330700874329,0.06515374779701233,0.11499909311532974,-0.22134587168693542,0.1542043685913086,-0.32492899894714355,0.00805402547121048,-1.05504310131073,-0.9881408214569092,0.09518229216337204,-0.3422732949256897,0.45509451627731323,-0.8047372698783875,0.3677949905395508],[-0.3437313139438629,-0.2860012650489807,-0.32106760144233704,-0.9400601983070374,-0.18393529951572418,-0.4979565143585205,1.1868958473205566,-0.659266471862793,0.6804763674736023,-0.09469589591026306,0.20416978001594543,0.5279371738433838,0.2593814730644226,-0.04250515252351761,-0.07272804528474808,0.21920637786388397,-0.7168835401535034,-0.5333782434463501,0.11861120164394379,-0.04311077296733856,-0.278669148683548,-0.35782527923583984,-1.007546305656433,-0.5872418284416199,0.22737249732017517,0.017017386853694916,-0.7332702875137329,1.4810981750488281,-0.038851067423820496,0.5729655623435974,0.6046032309532166,-0.42006176710128784,-0.9156400561332703,-0.06466581672430038,-0.2690543830394745,-0.23619034886360168,0.2895042896270752,0.9027650952339172,0.17454688251018524,-0.02094336785376072,0.18976616859436035,-0.4039689302444458,-0.13538464903831482,0.21930037438869476,-0.2578904628753662,-0.4284094274044037,0.1261301338672638,0.4364891052246094,-1.0799517631530762,0.025805272161960602,-0.4598509669303894,0.703014612197876,-0.04208288714289665,0.40206801891326904,-0.09701909869909286,0.2422453761100769,-0.03323135897517204,-0.21403709053993225,1.9799703359603882,-0.037205468863248825,0.03237380459904671,-0.20331573486328125,0.44270390272140503,-0.3085617423057556,0.11678732931613922],[0.5024491548538208,-0.09778780490159988,-0.07505334168672562,0.4999041259288788,0.20165014266967773,0.23615571856498718,-1.780106544494629,0.06997708976268768,-0.36417078971862793,-0.08146392554044724,0.10945374518632889,0.2851344645023346,0.016847630962729454,-0.08039765059947968,-0.47806110978126526,-0.7009161710739136,1.1497576236724854,0.8742831945419312,0.05447855591773987,-0.015297351405024529,0.46462514996528625,0.8553410172462463,0.5690571069717407,0.643720805644989,-0.07168855518102646,0.05256140977144241,0.24797207117080688,0.33416128158569336,-0.04108398035168648,0.12851077318191528,-0.23932473361492157,1.2284232378005981,-0.8047801852226257,-0.4149188697338104,0.17761336266994476,-0.7630210518836975,-0.532044529914856,-0.31287696957588196,-1.4073565006256104,-0.11996516585350037,0.124114029109478,-0.04367414116859436,-0.19814880192279816,-0.185145303606987,-1.0198599100112915,0.5564324259757996,-0.06389401108026505,-0.09580092877149582,0.32259002327919006,-0.10657401382923126,0.054002683609724045,-0.4403432607650757,0.10689888894557953,0.055457305163145065,0.021324483677744865,1.3925395011901855,0.26856979727745056,0.23511627316474915,-0.20398622751235962,-0.6700320243835449,-1.0419793128967285,0.1588166356086731,-0.7934419512748718,0.49113205075263977,-0.2980373501777649],[-0.7095584273338318,-0.0302292350679636,0.11344708502292633,-0.3157287836074829,-0.3973335027694702,0.1979467272758484,1.7822712659835815,-0.597721517086029,0.23985619843006134,-0.30585119128227234,0.216009259223938,0.8522281050682068,-0.3097113370895386,-0.04154226556420326,0.22962595522403717,0.38932371139526367,-0.34577786922454834,0.0075339870527386665,-0.446348637342453,-0.09301113337278366,-0.10745299607515335,0.7145732045173645,-0.2597644627094269,-0.43101415038108826,0.5499051809310913,0.09743984788656235,-0.8327907919883728,0.7081050872802734,0.5344923138618469,-0.15641437470912933,-0.011496397666633129,-0.7494503855705261,-0.605349063873291,-0.014739956706762314,-0.030872683972120285,0.23102807998657227,0.46372151374816895,0.3680807650089264,0.3612437844276428,-0.3901265263557434,0.30644693970680237,0.41083618998527527,-0.4473736584186554,0.21601244807243347,0.12014355510473251,-0.8480635285377502,0.2715184688568115,-0.0850510448217392,-0.2924012839794159,0.17075446248054504,-0.0641883835196495,0.05916505306959152,0.008557130582630634,0.10940080881118774,0.28657668828964233,-0.8946554064750671,0.021574515849351883,-1.1045438051223755,-1.0611976385116577,0.5692929625511169,-0.04243512451648712,0.1633875072002411,0.4097856283187866,-0.5535140037536621,-0.10731324553489685],[-0.47215577960014343,-0.3873591125011444,-1.826108455657959,-0.5669539570808411,0.1313304901123047,-1.5086272954940796,-0.7997429966926575,-0.18921615183353424,0.4421464502811432,-0.6454892158508301,0.2735454738140106,0.88510662317276,0.6912252902984619,0.09413743019104004,0.03322489559650421,-0.163970947265625,-0.5940784215927124,-0.4858674705028534,0.07335617393255234,0.013873908668756485,0.1613049954175949,-0.9256116151809692,0.449123352766037,0.21133361756801605,0.3443916141986847,-0.10117516666650772,0.8798026442527771,0.6056703329086304,-0.04094956815242767,0.47773709893226624,0.08217878639698029,0.5555679202079773,-0.779004693031311,0.008261183276772499,-0.2874149680137634,0.1516382396221161,0.2820350229740143,0.5686348676681519,-0.28552141785621643,0.035885557532310486,0.37356966733932495,-0.37289005517959595,-0.10690715909004211,0.2577383816242218,-0.2980542480945587,-0.447643518447876,0.15204066038131714,-0.5552161335945129,0.5869377255439758,0.21361654996871948,0.2705822288990021,-0.5259885191917419,-0.0059410640969872475,0.48787450790405273,-0.6641108393669128,-0.12121441960334778,-0.24578358232975006,0.003023009281605482,0.5247506499290466,-0.8247782588005066,-0.10970555990934372,-0.25507092475891113,-0.23104114830493927,-0.8093083500862122,-0.03521793335676193],[0.7891288995742798,-0.1284605860710144,-0.3927341401576996,0.3283041715621948,-0.4646438956260681,0.18479405343532562,0.4501158595085144,-0.2040298730134964,-1.060909390449524,-0.4769206643104553,-0.36588254570961,0.7231136560440063,0.29974251985549927,0.039691489189863205,-0.27074354887008667,0.029795916751027107,0.22579143941402435,-0.7892494201660156,0.6617610454559326,0.11136185377836227,-0.025330254808068275,0.08997368812561035,0.03421428054571152,0.32095572352409363,0.2910676598548889,-0.005414001643657684,-0.984101414680481,-0.11771642416715622,-0.2806456983089447,0.0774843841791153,0.08198942989110947,0.3175295889377594,0.0498267225921154,-0.44419223070144653,-0.5536364912986755,1.5344572067260742,0.7532998919487,0.8510908484458923,-0.03754635155200958,-0.14580455422401428,-0.3257788419723511,-0.4304855465888977,-0.40761929750442505,-0.13501743972301483,0.42424702644348145,-0.2298687845468521,-0.19655583798885345,-0.6702964305877686,-1.509129285812378,-0.27041134238243103,-0.35270950198173523,0.7189896702766418,0.08669711649417877,-0.9492201209068298,0.30459749698638916,0.23449449241161346,-0.032462503761053085,0.34340301156044006,0.6771525740623474,-0.6169275641441345,-1.157529592514038,-0.32879000902175903,0.12086763232946396,0.2375752329826355,0.22096793353557587],[0.601716160774231,0.09980233758687973,0.15474723279476166,-0.4351709187030792,-0.07933570444583893,0.7002025246620178,-0.34227821230888367,-0.13877299427986145,-0.8750167489051819,0.11023816466331482,-0.17547161877155304,-0.5844006538391113,0.5509185194969177,-0.05708818510174751,-0.1735675036907196,0.36626046895980835,0.3500444293022156,0.22637659311294556,0.2639720141887665,0.11864029616117477,-0.05813366919755936,-0.06574240326881409,0.5625677108764648,0.15099723637104034,1.3970507383346558,-0.009434384293854237,-0.9859039187431335,1.04420006275177,-0.186981663107872,-0.16845694184303284,-0.19371415674686432,-0.6008413434028625,0.8841500282287598,0.22557967901229858,-0.7659732699394226,-0.42218032479286194,-0.0005821978556923568,0.5074443817138672,-0.4422597885131836,-0.19926239550113678,0.24532359838485718,-0.4575237035751343,-0.7372605800628662,0.20434419810771942,-1.1170530319213867,-0.038527488708496094,0.13241374492645264,0.1118861585855484,-0.30518659949302673,-0.025112390518188477,-0.519361138343811,-0.5493262410163879,0.1653517633676529,0.32997143268585205,0.06611716747283936,0.021844636648893356,0.2406647652387619,1.3123325109481812,1.6690586805343628,-0.011162062175571918,0.9580588936805725,-0.24211634695529938,-0.4144248962402344,0.23654532432556152,-0.007607544306665659],[0.20536677539348602,-0.27768710255622864,-0.11666224151849747,0.3455616533756256,0.16689655184745789,-0.2609250247478485,-1.3237804174423218,0.33012855052948,0.09878833591938019,0.22014260292053223,0.03448771685361862,0.17843018472194672,0.2542570233345032,0.09589377045631409,0.4055917263031006,-0.5112942457199097,-0.11409159004688263,-0.6696360111236572,-0.1154051423072815,0.05450638756155968,0.4995932877063751,-0.05352604761719704,-0.6607645750045776,-0.2572392523288727,-0.8019004464149475,0.07060021907091141,3.1434385776519775,1.2309504747390747,-0.2730027139186859,-0.08471276611089706,0.48923003673553467,2.0777957439422607,-0.585803747177124,-0.11602535098791122,0.2917138934135437,0.2662261128425598,0.2627882957458496,0.8243048787117004,-0.06538207828998566,-0.2407223880290985,0.3222486674785614,0.16836388409137726,-0.43336746096611023,0.34452635049819946,0.32635822892189026,0.30775195360183716,0.19890841841697693,-0.10234032571315765,1.1058223247528076,0.2810761630535126,0.327023983001709,-0.6269766688346863,0.03919665142893791,-0.13956819474697113,0.15612955391407013,0.908636212348938,0.3172343373298645,0.3364339768886566,0.30064651370048523,-0.3999251127243042,-0.7049525380134583,0.17005786299705505,0.46480169892311096,0.018478775396943092,0.44885408878326416],[0.45108550786972046,0.5338846445083618,1.387244701385498,0.5435632467269897,0.3598688244819641,0.8093879222869873,-0.8357436656951904,0.09806018322706223,-0.13425897061824799,0.689552903175354,0.1940992772579193,0.8271711468696594,-0.6310149431228638,-0.03331376239657402,-0.2910304665565491,-0.2512774169445038,0.48083892464637756,0.4372155964374542,-0.13496644794940948,-0.06679314374923706,0.3921946883201599,0.3843785226345062,0.014132421463727951,-0.06573790311813354,0.002219962887465954,0.05196822062134743,-1.7492294311523438,-0.5889633297920227,0.29388415813446045,0.08188077062368393,-0.11771060526371002,-0.6500198245048523,1.370444416999817,-0.1543584018945694,0.09958337992429733,-0.1671799123287201,0.4128992557525635,0.7545382976531982,0.09155083447694778,0.5272118449211121,-0.11609284579753876,0.25045472383499146,0.6805274486541748,-0.26870548725128174,0.567290186882019,0.23279161751270294,-0.055881090462207794,0.8308380842208862,-0.10628670454025269,-0.038926854729652405,-0.21990710496902466,-0.0744469165802002,0.14941996335983276,0.12745359539985657,0.14800116419792175,0.7343345880508423,0.40756934881210327,0.03094160184264183,-0.872561514377594,0.5255749225616455,0.30727943778038025,0.44224366545677185,0.0049616750329732895,0.41970136761665344,0.35034120082855225],[-0.1526499092578888,0.28917133808135986,-0.580970048904419,-0.5440514087677002,0.1582065224647522,-1.05717134475708,-0.4395945370197296,0.23426462709903717,1.2013417482376099,-0.2371761053800583,-0.2910104990005493,-0.16122287511825562,0.14476808905601501,-0.0757603868842125,-0.7298622727394104,-0.560310959815979,-0.2751157879829407,0.5057494640350342,-0.513002872467041,0.11458250135183334,-0.06812524050474167,0.6088298559188843,-0.6231768131256104,-0.8178436160087585,-0.4037809669971466,-0.06370629370212555,1.0544254779815674,0.4625459313392639,-0.011104010976850986,0.13043169677257538,-0.03873454034328461,0.8223471641540527,-1.1016310453414917,-0.500813364982605,0.39832425117492676,-0.33294400572776794,-0.2946719229221344,-0.2544865608215332,-0.5880842804908752,0.029995176941156387,0.3018159568309784,-0.08356427401304245,0.30841904878616333,0.4310159683227539,-0.2742225229740143,-0.5857592225074768,0.34942427277565,-0.1283407062292099,-0.8087681531906128,0.33398130536079407,-0.45212405920028687,0.6605941653251648,0.1617657095193863,0.5134623646736145,-0.43556657433509827,0.012373021803796291,0.15578462183475494,-0.4628050923347473,-0.8671682476997375,-0.6425661444664001,-1.2480288743972778,0.031112780794501305,0.27170202136039734,-0.4249414801597595,0.16507413983345032],[-0.05756904557347298,0.3443540632724762,1.1999894380569458,-0.1387300044298172,0.023657217621803284,-0.9040035605430603,-0.9530949592590332,0.09344835579395294,1.2214629650115967,0.1407654732465744,-0.1588052660226822,-0.48672959208488464,0.2456974983215332,-0.031967636197805405,1.2012267112731934,0.5879802703857422,-1.2580375671386719,-0.3768506944179535,-0.1593431532382965,-0.0811130553483963,1.3624415397644043,0.6121047735214233,-0.5977658629417419,-0.43143126368522644,0.783623993396759,0.004151106812059879,0.7710898518562317,0.8404102325439453,0.05197274684906006,0.17983728647232056,0.32330042123794556,-0.04376453161239624,-0.903113603591919,0.48430556058883667,-0.20858560502529144,0.4319414496421814,0.2596690058708191,0.49759364128112793,-0.04309070110321045,-0.5312315225601196,0.4715311527252197,0.2540940046310425,-0.960472822189331,0.5983404517173767,-0.14750175178050995,-0.8094196319580078,0.5451658368110657,-0.626554548740387,-0.3958960771560669,0.2738511860370636,-0.3761257231235504,0.28122445940971375,0.37646782398223877,0.3063611388206482,0.2009546160697937,-0.45973217487335205,-0.08692390471696854,-0.24863266944885254,-0.3120696246623993,-0.1471894085407257,-0.11972582340240479,0.10972120612859726,0.31214165687561035,-0.6624996066093445,0.27142736315727234],[0.30366051197052,0.21846738457679749,-0.10552284866571426,0.4234563708305359,-0.22950337827205658,0.20954936742782593,-0.1673808991909027,0.26432085037231445,-0.47679126262664795,-0.6471271514892578,0.09774690866470337,0.3595266342163086,0.34791508316993713,-0.05141307786107063,0.2503737807273865,-0.3277932405471802,0.24528378248214722,0.22598569095134735,0.4405842423439026,0.12134844064712524,0.5294898748397827,0.05071759968996048,0.544448733329773,0.44716715812683105,0.2126309871673584,-0.05214245989918709,0.5347424745559692,-0.4931303560733795,0.358479380607605,0.05165477097034454,0.39542466402053833,0.02281331643462181,1.2791119813919067,-0.12455028295516968,0.6157749891281128,0.35820919275283813,0.009746345691382885,-0.2976813316345215,-0.09265470504760742,-0.20435786247253418,0.4837791919708252,0.2093060463666916,-0.07653786242008209,0.46251341700553894,0.10767950862646103,-0.44966694712638855,0.5241070985794067,-0.142047718167305,-0.04354173690080643,0.44253239035606384,0.2862791419029236,-0.38964053988456726,0.4306541979312897,-0.3751166760921478,-0.3029968738555908,0.6084505319595337,0.40169230103492737,-0.20771802961826324,-0.8053985834121704,0.469973623752594,0.40847089886665344,0.4008146822452545,0.4931761622428894,0.4174860715866089,0.1331343650817871],[0.5043073892593384,0.07876548916101456,0.8767484426498413,0.43529123067855835,0.15153224766254425,-0.3706938326358795,-0.28513646125793457,0.18378517031669617,1.076890468597412,0.10319200903177261,0.004706015810370445,0.5435870885848999,-0.3848261535167694,0.010669806972146034,-0.46450933814048767,0.7023982405662537,0.3070836067199707,0.47632133960723877,-1.044736385345459,0.09992516785860062,0.2208758294582367,-0.18267755210399628,-0.21400536596775055,-0.0733913704752922,-0.09227097034454346,0.10346440970897675,2.3538997173309326,0.5416992902755737,1.105941891670227,0.4487999379634857,0.02409270964562893,-1.2164881229400635,0.04500662907958031,-0.30966827273368835,0.8730418086051941,0.08355211466550827,-0.3861393630504608,-1.2892341613769531,0.1737232357263565,-0.6522082090377808,0.28262433409690857,-0.43858712911605835,-0.344699889421463,0.42005154490470886,-0.19324536621570587,0.17943820357322693,0.45194798707962036,0.0016202012775465846,-0.4764500856399536,0.44107866287231445,-0.07601219415664673,-0.1658438891172409,0.5389814376831055,0.4117467403411865,-0.349222332239151,1.8313572406768799,0.5544694066047668,-0.45966246724128723,-0.028354495763778687,-0.3262067139148712,0.4278618395328522,0.35858285427093506,0.7299019694328308,0.8910686373710632,0.013316200114786625],[-0.09213664382696152,-0.11269523203372955,0.27438706159591675,-0.22507864236831665,0.13848719000816345,-0.31634023785591125,2.2407636642456055,0.055649857968091965,0.821718156337738,0.5755079984664917,-0.3549659252166748,-0.04227379336953163,0.36279183626174927,-0.027854928746819496,-0.30214226245880127,0.841330349445343,-0.240573450922966,-0.34303319454193115,-0.7110236287117004,-0.1179351881146431,-1.1332155466079712,0.8617778420448303,-0.6003615260124207,-0.32575103640556335,-0.8211420774459839,0.07851605862379074,-1.5375947952270508,0.5817580819129944,0.15317495167255402,0.4399668574333191,0.5080666542053223,-1.1180685758590698,-0.3103218972682953,-0.16050434112548828,-0.1275644153356552,-0.1561058759689331,0.42875924706459045,-0.4394616186618805,0.2303808331489563,0.7092016935348511,-0.3603074550628662,0.46623557806015015,0.3398993909358978,-0.20589379966259003,0.027694081887602806,0.356201708316803,-0.3381556272506714,0.8384336233139038,0.19220991432666779,-0.23577818274497986,-0.6129241585731506,0.8616403937339783,-0.17191176116466522,0.224215567111969,0.17743171751499176,-0.9682422876358032,0.04267251119017601,0.046752218157052994,0.5943188071250916,0.882498025894165,0.08424966782331467,0.18461626768112183,0.5686716437339783,-0.08510459959506989,0.2900311052799225],[-0.08736912906169891,0.27914750576019287,0.8328855633735657,-0.6921989917755127,0.30330291390419006,-0.3891617953777313,-0.6810386776924133,0.22125056385993958,-0.3055287301540375,-0.8233319520950317,0.4167416989803314,0.6902278065681458,0.021844087168574333,0.035326164215803146,-0.5169074535369873,0.17923042178153992,-0.11660105735063553,0.197651669383049,-0.3838284909725189,-0.06210960075259209,-0.476580947637558,-0.30830180644989014,-0.003626011312007904,-0.22120316326618195,0.7076160311698914,0.06257355958223343,1.6242188215255737,0.19737234711647034,0.3162555396556854,-0.4445272982120514,-0.29877257347106934,1.0581634044647217,0.2887163758277893,-0.11718329787254333,0.5924124121665955,-0.005881133954972029,-0.5034606456756592,1.0637025833129883,-0.41778233647346497,-0.04692664369940758,0.12286059558391571,-0.9689162373542786,0.43369007110595703,0.07636136561632156,0.1602170467376709,0.0688048005104065,-0.014495438896119595,0.37230971455574036,-0.14887301623821259,-0.022148560732603073,-0.43548423051834106,-0.20328132808208466,-0.13158077001571655,-0.25220754742622375,-0.4263802170753479,-0.16569560766220093,-0.03097856231033802,-0.3139328956604004,-0.573150634765625,-0.22766028344631195,0.7988464832305908,0.03088224306702614,-0.14335332810878754,-0.1651124358177185,-0.38592830300331116],[0.2007053941488266,-0.316726952791214,1.0404281616210938,-0.6842970252037048,0.6988178491592407,-0.5073569416999817,2.2664575576782227,0.8420316576957703,0.30562692880630493,0.8111861944198608,0.12415239214897156,0.6592448949813843,0.18086904287338257,-0.07472070306539536,0.1561211496591568,0.7763166427612305,-0.010861868970096111,0.0416904091835022,0.2012885957956314,-0.03236088529229164,-0.18358618021011353,-0.9816466569900513,0.6942870020866394,0.43343058228492737,-0.28182482719421387,-0.09453621506690979,0.01392828393727541,-0.4828132092952728,0.4759272336959839,0.6528838872909546,0.2594914138317108,-0.3643657863140106,0.4858730137348175,0.25240176916122437,0.448792427778244,0.018935246393084526,-0.3685716688632965,0.21318115293979645,-0.4323637783527374,-0.2465435117483139,0.2624087631702423,-0.362689346075058,-0.3151531517505646,0.56145179271698,-0.2659166753292084,-0.6202756762504578,0.46788397431373596,-0.28249964118003845,-0.679141640663147,0.5343995690345764,-0.18412761390209198,-0.5227686166763306,0.7859035730361938,-0.201939657330513,0.627546489238739,-0.33721616864204407,0.0839855894446373,-0.4806852638721466,-0.5562681555747986,0.18773974478244781,-0.4386081099510193,-0.019925624132156372,0.10684339702129364,0.47708970308303833,0.2382102608680725],[-0.3356509506702423,-0.7217201590538025,0.5689008831977844,-1.2552812099456787,0.33300691843032837,-0.3256544768810272,-0.3641316294670105,-0.014445318840444088,-0.39804917573928833,1.3616139888763428,-0.08185378462076187,-0.8268280625343323,0.2462998777627945,-0.10330110043287277,0.022759882733225822,-0.4715513288974762,0.4047764539718628,0.12466546148061752,-0.1707032173871994,0.10821781307458878,1.1206445693969727,1.6671441793441772,-0.13356368243694305,0.01039901003241539,-1.1585891246795654,-0.028343357145786285,-0.38711491227149963,0.27101901173591614,0.07924547046422958,0.4733930826187134,-0.052137915045022964,0.10680190473794937,-1.2780003547668457,-0.08646383136510849,-0.5504870414733887,0.29883506894111633,0.12578615546226501,0.5491631031036377,0.09892743825912476,-0.1698857992887497,-0.012340018525719643,0.9160966277122498,-0.5887798070907593,0.13972532749176025,-0.2437845766544342,-0.942211389541626,0.15207631886005402,-0.4111831486225128,0.39830681681632996,-0.007103344425559044,-0.4858101010322571,-0.5093267560005188,0.09547138959169388,-0.26725107431411743,1.1809827089309692,0.30556052923202515,-0.29324042797088623,0.6170510053634644,1.5549198389053345,-0.5484660863876343,0.3601209819316864,-0.05958553031086922,-0.7988286018371582,-0.3705153167247772,-0.11579730361700058],[0.1580483615398407,0.259347140789032,0.29096686840057373,-0.17273473739624023,-0.41693004965782166,1.1665557622909546,1.0509167909622192,-0.4860817790031433,-1.0035611391067505,-0.6678063869476318,0.03327152878046036,-0.4836333692073822,-0.06286938488483429,-0.03351418673992157,-0.31440308690071106,-0.4853193163871765,0.43552497029304504,0.053903378546237946,0.22830140590667725,-0.08087264746427536,-1.303117275238037,-0.7347238659858704,0.5033577084541321,-0.3037685751914978,-0.1960669308900833,-0.025023391470313072,-1.767318606376648,-0.4653755724430084,-0.293402761220932,-0.8634880185127258,-0.5593603253364563,-0.703700602054596,-0.051658593118190765,0.16400349140167236,-0.27504897117614746,0.08904550224542618,0.0992657020688057,0.6996021270751953,0.13610945641994476,0.1750817745923996,-0.22181636095046997,0.15670530498027802,0.11127056181430817,-0.22316449880599976,-0.12109450995922089,-0.20974008738994598,-0.17369312047958374,0.09536720812320709,-0.3565519452095032,-0.14205826818943024,0.03264397382736206,0.053540948778390884,-0.021001437678933144,-0.19814695417881012,-0.47803381085395813,-0.634769856929779,-0.1763361692428589,-0.4240310788154602,0.06897979229688644,0.8728112578392029,-0.4716982841491699,0.15042120218276978,0.15437382459640503,-0.16667655110359192,-0.35035228729248047],[-0.044354766607284546,-0.18405357003211975,0.5943651795387268,0.07567895948886871,0.0012298095971345901,0.5561598539352417,1.4011863470077515,-0.5712996125221252,1.003143548965454,0.12480273842811584,-0.024288292974233627,0.1888994723558426,0.5966188907623291,0.0861930251121521,-0.4507996141910553,-0.4271419942378998,0.6195076107978821,0.381458580493927,-0.23929090797901154,-0.03363095223903656,-0.9763983488082886,-0.41556814312934875,0.14885875582695007,0.43251973390579224,-0.2004328966140747,0.09447001665830612,-0.49593451619148254,0.16542008519172668,-0.15519453585147858,-0.15050552785396576,-0.3799419701099396,-1.3077963590621948,0.8937740921974182,0.31997135281562805,-0.7059695720672607,-0.2838634252548218,-0.00870513916015625,-0.48577749729156494,0.18443706631660461,0.6142910718917847,-0.06153896450996399,0.3773004710674286,-0.18878084421157837,-0.010357409715652466,0.558532178401947,-0.7762956023216248,0.010283773764967918,-0.1744004786014557,-0.14166103303432465,0.11272252351045609,-0.24428246915340424,0.4319189488887787,0.1911952644586563,-0.023339860141277313,-0.3305850625038147,-1.0375219583511353,0.19272901117801666,-0.6891370415687561,0.15442246198654175,0.8945727348327637,1.3470211029052734,0.051246192306280136,-0.30619701743125916,0.27368831634521484,-0.4783541262149811],[-0.4238849878311157,0.17880448698997498,-0.896456778049469,0.06647445261478424,0.20993547141551971,-0.17919868230819702,0.690022885799408,0.0844450369477272,0.4991001784801483,-0.12480422854423523,0.3116690218448639,-0.4470907151699066,-0.7901269197463989,-0.0025240746326744556,-0.3799770772457123,0.4035471975803375,-0.8727870583534241,-0.534716010093689,-0.7277001738548279,-0.06821396946907043,0.6598958373069763,1.09308660030365,-0.6544883847236633,-0.7470932602882385,0.10119027644395828,-0.040509264916181564,0.23275206983089447,0.21899425983428955,-0.5536894798278809,0.5464360117912292,1.0016002655029297,1.2163859605789185,-0.7390214800834656,0.006354682147502899,-0.6177049279212952,0.4220602512359619,0.3857588469982147,0.09625877439975739,0.6053513884544373,-0.16023138165473938,0.18958476185798645,-0.1788896918296814,-0.2188538908958435,0.23882414400577545,0.637881875038147,-0.48334378004074097,-0.1858692169189453,0.4870685935020447,-1.2328852415084839,0.0027469522319734097,0.1523631364107132,0.04648268222808838,-0.2897016406059265,0.48774805665016174,0.03572149574756622,-1.129611849784851,-0.01637875847518444,-0.4588858187198639,0.35053351521492004,0.6294646263122559,1.0687289237976074,-0.4088018238544464,0.8446579575538635,-0.3301311433315277,0.5944830775260925],[0.012203127145767212,-1.1391828060150146,-0.2684704661369324,0.40921491384506226,-0.029324155300855637,0.730710506439209,1.043948769569397,0.03929627314209938,-0.7201285362243652,0.29216182231903076,-0.446126252412796,0.20282383263111115,-0.24214208126068115,0.10826214402914047,-0.08492697775363922,0.5067752003669739,0.23354066908359528,0.3770412504673004,-0.17031030356884003,0.00019604880071710795,-0.21931129693984985,0.4301094114780426,0.5820605754852295,-0.009029221720993519,-0.6943396329879761,-0.024287886917591095,0.41639789938926697,0.391421377658844,0.1543569564819336,-0.12278268486261368,-0.38214436173439026,-1.029973030090332,2.3391120433807373,0.5826908946037292,0.2778254449367523,0.045349735766649246,-0.2114468663930893,0.1035754457116127,0.578320324420929,1.3441247940063477,-0.2430030107498169,0.38334986567497253,0.23789770901203156,-0.1869077831506729,0.8741294145584106,0.07679328322410583,-0.10359613597393036,-0.3239290416240692,0.8301027417182922,-0.17684917151927948,0.9398972392082214,-0.21466779708862305,-0.17083457112312317,-0.7178527116775513,0.5514228940010071,-0.6159989833831787,-0.2443879246711731,0.5806010961532593,-0.3719545602798462,0.46328794956207275,-0.021007146686315536,0.03320758417248726,-0.34246453642845154,0.21220502257347107,-0.3208218514919281],[-0.042045485228300095,-0.2672945559024811,0.9051656723022461,-0.46115556359291077,-0.3210231065750122,-0.6819292902946472,2.182926654815674,0.1829044222831726,0.742989182472229,-0.2657460570335388,0.18100839853286743,-0.09935557842254639,-0.33411905169487,0.07609482109546661,-0.1320100724697113,0.43286019563674927,-0.218324676156044,-0.3736867904663086,-1.5724315643310547,0.09259998798370361,-0.1712360978126526,-0.7962687611579895,0.4323321282863617,0.24698896706104279,-0.7220641374588013,-0.07105720043182373,0.6214095950126648,0.40009167790412903,-0.3347412049770355,-0.7403128743171692,-0.6286472678184509,-0.6056426167488098,0.6677046418190002,0.07755430787801743,-0.04061625152826309,-0.14000216126441956,0.1008073017001152,-0.3134758770465851,0.34657591581344604,0.11972374469041824,-0.07417040318250656,-0.23810698091983795,0.070579893887043,-0.20795497298240662,0.30348747968673706,1.231052279472351,-0.051718149334192276,0.581626296043396,-0.4493423104286194,-0.1379503309726715,-0.09400268644094467,0.4257257580757141,-0.3573495149612427,0.17358124256134033,-0.1504921019077301,-0.4033653736114502,0.056207671761512756,0.25258612632751465,-0.2300560027360916,0.27662894129753113,1.2385132312774658,-0.3851393163204193,0.4459972083568573,0.2847098410129547,-0.007078931666910648],[0.3817642629146576,-0.5754600763320923,0.3395659029483795,-0.5323154926300049,-0.5295542478561401,0.9567946791648865,-0.10724449902772903,0.46361202001571655,-0.17867492139339447,0.9160805344581604,-0.14652232825756073,0.5622913837432861,-0.8919532299041748,0.0756610557436943,0.49839386343955994,1.2147979736328125,-0.500830352306366,-1.1294353008270264,-0.23540225625038147,-0.036495108157396317,0.45391130447387695,-0.4049155116081238,0.008161519654095173,-0.20827516913414001,-0.04714532196521759,0.11317279189825058,2.833927869796753,-0.09538118541240692,0.43234002590179443,0.1942150741815567,0.027077382430434227,0.8409940600395203,0.4824410676956177,-0.7148343920707703,0.9257731437683105,0.5932515263557434,0.28540268540382385,-0.5342515707015991,-0.025521295145154,-0.1981002241373062,0.36816662549972534,-0.4754684567451477,0.03828388825058937,0.37800365686416626,-0.02768670953810215,-0.016679856926202774,0.37747156620025635,-0.763604462146759,0.5123817920684814,0.394501656293869,0.45958462357521057,-0.234031081199646,0.2850920557975769,0.11456958204507828,