{"topology":"mlp_tanh_3layer","input_dim":65,"output_dim":18,"source":"model_tactical.onnx","layers":[{"w":[[-0.5216280817985535,-0.2825412154197693,1.309294581413269,-1.7454432249069214,0.029180170968174934,-0.27574801445007324,2.3221421241760254,-0.01770317181944847,0.6852601766586304,0.15717744827270508,0.21234863996505737,0.5971060991287231,0.45043033361434937,-0.07115662097930908,0.06098487600684166,0.32210779190063477,-0.26176607608795166,-0.2687283158302307,-0.443401038646698,0.06057826429605484,0.11133792996406555,-0.4745146334171295,-0.564936101436615,-0.4612909257411957,0.5936243534088135,-0.10729598999023438,-0.5035197138786316,-0.6720703840255737,0.36935073137283325,0.10036798566579819,0.2553069293498993,-0.137956440448761,-0.08307738602161407,0.6900391578674316,-0.08360396325588226,-0.794135332107544,-0.03135395795106888,1.0326882600784302,0.5462176203727722,1.0458917617797852,-0.39240187406539917,0.04913065582513809,0.47423434257507324,0.0069089531898498535,-0.2917387783527374,0.5054848790168762,-0.2014121562242508,-0.4893598258495331,0.3617250323295593,-0.08286275714635849,-0.22489038109779358,0.23816604912281036,0.013860215432941914,0.287505179643631,0.23739886283874512,-0.7770684957504272,-0.008504319004714489,0.32671645283699036,-0.2097587138414383,0.907341480255127,0.3083885610103607,-0.23899540305137634,0.5284634828567505,0.1862601786851883,0.08034719526767731],[-0.4354245364665985,0.3166310787200928,-0.15926925837993622,0.7603606581687927,0.2912287414073944,-1.1823643445968628,-1.4912207126617432,0.19823631644248962,0.7404276132583618,0.18296770751476288,0.41812995076179504,0.03614620491862297,0.07256092876195908,-0.06026111915707588,0.01967853307723999,-0.2682127356529236,0.46934109926223755,0.35113224387168884,1.1347490549087524,0.11363023519515991,1.3375654220581055,0.3771550953388214,0.24347861111164093,-0.1509484052658081,0.8270347714424133,-0.041011326014995575,-0.38272222876548767,-1.552114725112915,0.0777960866689682,0.2330506592988968,-0.125872403383255,-1.4976913928985596,0.5683526992797852,-0.10242065042257309,0.061626289039850235,0.12835969030857086,0.40458089113235474,-1.1268198490142822,0.12193301320075989,0.4140622019767761,-0.018014438450336456,0.9351727366447449,-0.0221320241689682,-0.10949764400720596,-0.0477265827357769,-0.24911542236804962,-0.22086133062839508,0.695789635181427,0.333251029253006,-0.043417058885097504,0.06012433022260666,0.7466120719909668,-0.28720852732658386,0.6024845838546753,0.5056743025779724,-0.372093141078949,0.06475603580474854,-0.9749180674552917,-0.7393614053726196,0.7668060660362244,0.3319280743598938,0.014602224342525005,-0.2583124041557312,0.19529497623443604,0.07521791756153107],[-0.32391858100891113,-0.04250520467758179,0.4362790286540985,-0.4989948570728302,-0.12807881832122803,-0.40245968103408813,-0.5820492506027222,-0.10886949300765991,1.1026039123535156,0.34518441557884216,0.1314997524023056,0.30334314703941345,0.44881483912467957,-0.11284957081079483,-0.27418190240859985,0.28264397382736206,0.013060095719993114,0.25697919726371765,1.0750887393951416,-0.06142290681600571,0.8527700901031494,-0.7663416862487793,0.7689520716667175,0.29914700984954834,0.5074023008346558,-0.042086511850357056,0.5973635911941528,0.25793182849884033,0.40131571888923645,-0.24275922775268555,-0.22738248109817505,-0.8503894209861755,-1.2048115730285645,-0.5591772198677063,0.1618870347738266,0.8197468519210815,0.06859487295150757,0.32135626673698425,0.41738465428352356,0.2066827118396759,0.020646752789616585,-0.3997158706188202,-0.2071114480495453,0.052475493401288986,0.15759290754795074,-0.05779484659433365,-0.13299843668937683,-0.23907092213630676,-0.6662067174911499,0.006350548472255468,1.5209956169128418,0.14408189058303833,-0.0697162076830864,0.6180774569511414,0.06487306207418442,0.2006727010011673,0.23503531515598297,-1.0911051034927368,-0.6621540784835815,-0.14269065856933594,-0.6735354065895081,-0.34789949655532837,0.2084672451019287,0.25774505734443665,-0.1757546365261078],[-0.26146695017814636,-0.765369176864624,-0.648232638835907,-0.5098822712898254,0.11193576455116272,0.006240936927497387,-0.1847013235092163,-0.014306587167084217,1.4702904224395752,1.163575530052185,0.5476837754249573,0.808275580406189,0.6030308604240417,-0.05840720981359482,0.7476909160614014,0.46395689249038696,0.5291059613227844,0.5252414345741272,0.37978094816207886,-0.09236596524715424,1.3048996925354004,-0.8511155247688293,0.24966132640838623,0.5854318141937256,0.19320568442344666,-0.10650242120027542,1.8290152549743652,0.11133291572332382,0.9840944409370422,0.4379557967185974,-0.05380219966173172,0.23152510821819305,0.0038754206616431475,0.56083744764328,0.45080336928367615,0.3004108965396881,-0.3888311982154846,0.011056998744606972,0.3820694088935852,0.6392135620117188,0.1260039359331131,-0.21062210202217102,0.5375499129295349,0.05700043588876724,0.0628647431731224,0.38605961203575134,0.08387447148561478,0.24690662324428558,-0.06235605478286743,0.29705238342285156,0.7183704972267151,0.08210824429988861,0.1395447850227356,0.8789898753166199,0.27950572967529297,0.7020018696784973,0.1962893009185791,-0.5250402688980103,0.14159460365772247,-0.060247138142585754,0.3793914318084717,0.1864893138408661,-0.3695206046104431,0.7476490139961243,-0.16400353610515594],[-0.15613417327404022,0.3977513909339905,2.1845874786376953,0.9580984115600586,0.6396716237068176,0.3874194324016571,-0.1429685801267624,0.18657813966274261,0.6390482187271118,-0.18879911303520203,-0.028570527210831642,0.47414013743400574,-0.7428809404373169,0.023521892726421356,0.1841113269329071,-1.2638055086135864,0.18862435221672058,0.2429894655942917,-0.13501282036304474,-0.1044379398226738,0.21128426492214203,-0.5695002675056458,0.3243376314640045,0.444304496049881,0.42405280470848083,-0.05244198068976402,-0.4633011817932129,-2.3056907653808594,-0.22820605337619781,0.5743228197097778,0.09539056569337845,-0.37911269068717957,1.1569554805755615,-0.5608341097831726,-0.1320752203464508,-0.8848321437835693,-0.5246322154998779,-0.778031587600708,0.24054184556007385,0.6204604506492615,-0.021535415202379227,-0.10723541676998138,0.3669009804725647,-0.1485110968351364,0.25237149000167847,0.46450790762901306,-0.124905064702034,0.6488989591598511,-0.2390715330839157,-0.1460389643907547,-0.27771511673927307,0.07689443975687027,-0.12806570529937744,0.23296988010406494,0.16029930114746094,-0.20188428461551666,-0.038253799080848694,-0.8573854565620422,-0.937151312828064,0.9204002022743225,0.03952537849545479,0.1530061811208725,-0.46933481097221375,0.46676105260849,-0.008523045107722282],[-0.44584980607032776,0.043749477714300156,2.19150447845459,0.5932830572128296,-0.7224278450012207,0.5244882106781006,-0.03847993165254593,-0.4019014537334442,0.567474365234375,-0.6656185984611511,0.5568673610687256,1.0972580909729004,0.38028281927108765,0.09389461576938629,1.1400786638259888,0.6494655609130859,-0.5605242252349854,-0.1446819007396698,0.3256791830062866,-0.05710870772600174,-0.3248150944709778,0.765598475933075,-0.3286153972148895,0.042441029101610184,0.04616786167025566,0.07067500799894333,0.19242005050182343,-0.17247168719768524,0.24516171216964722,0.6231040954589844,0.2616253197193146,-0.13379395008087158,-0.972247838973999,0.6348201632499695,0.7417247891426086,0.16209948062896729,0.284673273563385,-0.2487810254096985,-0.3237162232398987,-0.3188368082046509,0.5542559027671814,0.009136339649558067,-0.31741997599601746,0.6119899153709412,-0.13373242318630219,-0.5479108095169067,0.6088548302650452,0.07304611802101135,-0.7279052138328552,0.7270966172218323,-0.1363404393196106,0.15133047103881836,0.23835210502147675,0.7141907215118408,0.5058668851852417,0.3401144742965698,0.028920721262693405,-0.01783880405128002,0.106674924492836,-0.055056311190128326,-1.0003292560577393,0.22850677371025085,-0.3018443286418915,0.29757216572761536,-0.02115502953529358],[0.11847197264432907,0.3746170997619629,1.4106934070587158,0.4819607734680176,-0.657707691192627,0.5561423897743225,-1.9639633893966675,-0.21371924877166748,0.4250767230987549,-0.3832584619522095,-0.094260573387146,-0.5500480532646179,0.48697927594184875,0.04337656870484352,0.6759634613990784,0.16891133785247803,-0.11319328844547272,-0.3355133533477783,0.510273277759552,0.003510913345962763,0.17506708204746246,1.2552690505981445,0.5044280290603638,0.5987111330032349,0.5051087141036987,0.12092620879411697,-1.2454297542572021,-1.0732089281082153,-0.6862481832504272,-0.2124524712562561,-0.49691006541252136,-0.5463924407958984,-0.38585102558135986,-0.7570094466209412,-0.21485882997512817,-0.2539485692977905,-0.08412928879261017,-0.5791201591491699,0.1823614537715912,-0.16104081273078918,-0.09484439343214035,0.4090062081813812,-0.10417116433382034,-0.5416293740272522,0.8440327048301697,-0.23465749621391296,-0.2689697742462158,0.6369248628616333,0.2781868278980255,-0.2780655026435852,0.41223159432411194,-0.0122707923874259,-0.3856280744075775,-0.2729911208152771,-0.6568450331687927,-0.3772892355918884,-0.2091463953256607,0.37233877182006836,-1.1339035034179688,0.06887279450893402,-0.7593052983283997,0.033046551048755646,-0.38360869884490967,0.5414137244224548,-0.4533754289150238],[-0.07674787193536758,0.3998391926288605,1.1693551540374756,1.2188040018081665,-0.4499489367008209,-0.08853345364332199,0.4430806040763855,0.22991584241390228,-0.5020617842674255,-0.4033937156200409,-0.3648577332496643,0.04469189792871475,0.0616234615445137,-0.018059806898236275,0.19267435371875763,-0.2965138256549835,0.31327182054519653,0.8948874473571777,0.5253264307975769,-0.12198379635810852,-0.2441340535879135,0.5354422330856323,0.6501750946044922,0.650764524936676,0.8317172527313232,0.0965832993388176,-2.0374317169189453,-1.0369131565093994,0.5606206059455872,0.5733608603477478,0.12767362594604492,0.6193584203720093,0.6977754831314087,0.5009890794754028,-0.017063869163393974,-0.6922023892402649,0.3008795976638794,0.6415724754333496,-0.18146608769893646,1.386637568473816,-0.6605507731437683,1.9250240325927734,0.20817750692367554,-0.5704125761985779,-0.6484134793281555,0.4782402217388153,-0.5700389742851257,0.8062468767166138,0.10963822901248932,-0.44419875741004944,-0.078316330909729,0.5816389918327332,-0.4844323694705963,-0.15474139153957367,0.04549240693449974,-0.5524691343307495,-0.010789377614855766,-0.12439177185297012,-0.26263365149497986,0.6459999084472656,-0.986635684967041,-0.008151518180966377,-0.08234645426273346,0.19408994913101196,0.27605971693992615],[0.19211861491203308,-0.0383870005607605,-0.8644346594810486,1.0891519784927368,0.5464320778846741,0.03917110711336136,1.681910514831543,0.3995184898376465,-0.1875831037759781,0.21970392763614655,0.08178732544183731,-1.3339754343032837,-0.7706995010375977,-0.04307679459452629,-0.23799709975719452,1.3630309104919434,-0.11202043294906616,0.13760021328926086,-0.5886195302009583,0.12389850616455078,-0.23455846309661865,-0.4268345236778259,0.5534029603004456,0.48900651931762695,0.062495484948158264,0.09684183448553085,-1.2526209354400635,0.13329678773880005,0.6730493903160095,0.22544872760772705,0.22823767364025116,-0.44983503222465515,0.4089072644710541,0.37530991435050964,-0.1046052798628807,0.41730988025665283,0.42503881454467773,-0.18928828835487366,0.37818142771720886,0.7354206442832947,-0.1928073614835739,0.4602224826812744,0.6203764081001282,-0.5065022706985474,0.12171614915132523,-0.008519736118614674,-0.3953495919704437,1.1784329414367676,0.27614715695381165,-0.28739362955093384,-0.027494244277477264,0.18858639895915985,-0.18476083874702454,-0.06224401295185089,0.6778666973114014,-0.5362477898597717,0.23825694620609283,0.676810622215271,0.20597855746746063,0.24529622495174408,-0.10932525247335434,0.004828473087400198,0.4520641565322876,0.28885573148727417,0.3813934624195099],[-0.5008322596549988,-0.001780317397788167,-0.915054440498352,-0.03826320543885231,0.06903037428855896,-0.8039246797561646,0.25117257237434387,0.05199793726205826,0.2678012251853943,-0.7371138334274292,0.22235415875911713,-0.21978506445884705,0.2733551263809204,-0.0051454417407512665,0.33453240990638733,-0.7175525426864624,-0.6450247764587402,-0.33245140314102173,0.10048355907201767,0.03430355712771416,0.6301669478416443,-0.7814690470695496,0.6073381304740906,0.40323224663734436,1.526596188545227,0.04725703224539757,-1.1788386106491089,-0.16512629389762878,-0.11892905831336975,0.06328612565994263,0.1763453334569931,0.12409147620201111,-1.986272931098938,-0.7850073575973511,0.17138227820396423,-0.07621551305055618,0.11822915822267532,0.42354944348335266,0.022983882576227188,-0.2350095510482788,-0.35564160346984863,0.0041782306507229805,0.2751774787902832,-0.25536903738975525,-0.5062044262886047,0.4863607585430145,-0.46784356236457825,0.4060167074203491,-0.013219323940575123,-0.6267814636230469,0.4281447231769562,0.3680630326271057,-0.5252381563186646,0.3943844139575958,-0.31120043992996216,-0.9931045770645142,-0.35166940093040466,-0.3474046289920807,-0.30345916748046875,-0.03627076372504234,-0.46070486307144165,-0.13462139666080475,0.07572709769010544,-0.5579017400741577,0.14151032269001007],[0.3563535213470459,0.6782819032669067,-0.005760570522397757,0.045478228479623795,-0.20668475329875946,1.1280208826065063,2.7294626235961914,-0.7070990204811096,0.5704280138015747,0.27941566705703735,-0.7833369970321655,-0.8081465363502502,1.565320372581482,0.0029728917870670557,-0.5946233868598938,-0.4293444752693176,-0.3907058835029602,0.09413362294435501,0.6855745911598206,0.030714187771081924,-0.3282196819782257,-0.5729420185089111,-0.6102485656738281,-0.2028501033782959,0.311251163482666,-0.09120141714811325,0.3798205554485321,0.7925228476524353,0.12689484655857086,-0.011671224609017372,-0.07844072580337524,1.4009060859680176,-0.753019392490387,-1.1003490686416626,0.007581924553960562,0.4540654420852661,0.2056547850370407,1.0367058515548706,0.4017946124076843,-0.40604686737060547,-0.19750840961933136,0.11737791448831558,-0.1929274946451187,-0.009490882977843285,0.08716089278459549,0.03030581586062908,-0.04693903774023056,0.13041064143180847,-0.4254712164402008,-0.2632301449775696,0.5699515342712402,-0.2915162146091461,-0.2853318452835083,0.5391384363174438,-0.8188952803611755,0.5435437560081482,0.2594658136367798,0.7405239939689636,-0.0007105737458914518,-0.1589394509792328,-0.2876770794391632,-0.15018244087696075,0.49417731165885925,-0.3863898515701294,-0.20780636370182037],[-0.019163303077220917,0.15928871929645538,0.02349320985376835,-0.870184600353241,-0.7056816220283508,0.22047273814678192,2.8520667552948,-0.8303716778755188,0.6326766610145569,-0.10870112478733063,0.11927720904350281,1.149303674697876,0.10808564722537994,-0.04794727638363838,0.08082131296396255,-0.4174416661262512,0.45431727170944214,0.6963815093040466,-0.4930790364742279,0.12243005633354187,0.6482816338539124,-0.47677621245384216,0.4659498631954193,1.1600852012634277,-0.5143840312957764,0.07171488553285599,-0.07865942269563675,-0.32462480664253235,-0.039591047912836075,-0.5397818088531494,-0.7727149724960327,-0.263893187046051,1.0294179916381836,-0.4278980493545532,-0.22373588383197784,0.3536200523376465,-0.5885723829269409,-0.00239776773378253,0.2765304148197174,-0.034287724643945694,0.04510406404733658,-0.47194719314575195,0.2239132821559906,0.012807055376470089,0.4685553312301636,-0.5798044204711914,0.06230229139328003,0.13835620880126953,0.2482348531484604,0.012671182863414288,0.2377196103334427,-0.49469447135925293,0.21771639585494995,-0.16751228272914886,-0.04803083837032318,0.8487277030944824,0.4239736497402191,-0.04652164503931999,0.01212900411337614,0.20109087228775024,-0.1654859036207199,-0.1050097718834877,-0.5851522088050842,0.9819666743278503,-0.6393365263938904],[-0.4006301164627075,-0.5178745985031128,-0.26944252848625183,-0.40621694922447205,-0.14183416962623596,-0.8396506309509277,0.5937448740005493,-0.5932194590568542,0.8921711444854736,-0.6107428669929504,-0.31659671664237976,0.07244399935007095,0.03979763388633728,0.0604495070874691,-0.1061718612909317,-0.2050059288740158,-0.9302187561988831,-0.9064074754714966,-0.3850240409374237,-0.10766644030809402,0.10701154917478561,-0.6732209324836731,-0.5959404110908508,-0.8939535617828369,0.34645897150039673,0.09473136067390442,0.4409751892089844,0.7783521413803101,-0.1825917661190033,-0.16968148946762085,0.17546436190605164,0.41945499181747437,-0.8716652393341064,-0.02743462473154068,-0.7902594804763794,0.3454481363296509,0.04691701382398605,0.2530265748500824,0.4519871175289154,-0.12152165174484253,-0.4519101083278656,0.047116443514823914,0.0063520269468426704,-0.18033188581466675,-0.2703428268432617,0.6442180275917053,-0.46690088510513306,0.09031853824853897,-0.35980719327926636,-0.47377824783325195,0.4285587966442108,0.32230040431022644,-0.7191211581230164,-0.04273498058319092,-0.0677463486790657,-0.9733350872993469,-0.7150816321372986,-0.22166986763477325,1.1948246955871582,0.03570638597011566,0.26103007793426514,-0.48958247900009155,-0.3903842568397522,-1.1349375247955322,-0.20917701721191406],[0.37235647439956665,0.06873711943626404,-0.681812047958374,-0.346755713224411,-1.0621496438980103,0.5862574577331543,-1.2085692882537842,-0.4213690757751465,-1.2943637371063232,-0.5025981068611145,0.3024631142616272,0.1680080145597458,-0.34374555945396423,0.09228489547967911,-0.48270028829574585,-0.031134311109781265,0.3241388201713562,0.19735679030418396,-0.6113938689231873,0.03812798112630844,-0.5288618803024292,-0.39636167883872986,0.16288083791732788,0.16993799805641174,-0.2246946543455124,-0.024240201339125633,0.03552607446908951,-0.3385099172592163,0.13174907863140106,-0.033480945974588394,-0.4202719032764435,-0.32687613368034363,0.5509102940559387,-0.5781403183937073,0.33445680141448975,-0.10179637372493744,-0.6016761064529419,0.2651180922985077,-0.40766847133636475,-0.024336662143468857,-0.03608088195323944,-0.2697713077068329,0.0023501075338572264,-0.14184483885765076,-0.1520795375108719,0.015864305198192596,0.09662563353776932,-0.17781195044517517,-0.19185563921928406,-0.06205753609538078,0.18792933225631714,-0.47949448227882385,0.29481855034828186,-0.016735514625906944,0.0014162486186251044,1.4888836145401,0.028149744495749474,0.48026391863822937,-0.05892710015177727,-1.4039517641067505,0.15161915123462677,0.06376993656158447,-0.6137229800224304,0.21618135273456573,-0.5837782025337219],[-0.08042711764574051,0.0469287745654583,-1.376661777496338,-0.2186722308397293,0.0860673040151596,-0.9380213022232056,1.367773175239563,-0.16314534842967987,0.5616307854652405,-0.2850711941719055,0.6401949524879456,1.3837883472442627,0.7371098399162292,-0.005694109480828047,0.2884730100631714,1.0879435539245605,0.2507658302783966,0.4688134491443634,-0.019327890127897263,-0.08251947909593582,0.09267616271972656,-0.7231356501579285,0.9637019038200378,0.9575731158256531,0.07597042620182037,-0.04617823660373688,1.2988545894622803,0.9618798494338989,-0.11618220806121826,-0.0075593446381390095,-0.11440756171941757,-0.010059524327516556,-0.41740623116493225,0.028492851182818413,-0.2557339668273926,-0.05878991261124611,-0.12031475454568863,-0.817345142364502,-0.06982995569705963,-0.11608821153640747,-0.13844676315784454,-0.4617467224597931,0.7474448680877686,-0.3089664876461029,0.256758451461792,0.1967771202325821,-0.3198416829109192,-0.12113092094659805,-0.361335426568985,-0.3147731125354767,-0.6908766627311707,0.8860116004943848,-0.1035718321800232,0.4257911145687103,-0.6374783515930176,0.12668560445308685,0.34701523184776306,0.5169771313667297,-0.35300812125205994,0.04811547324061394,-0.47681134939193726,-0.20833154022693634,0.5261935591697693,0.46413618326187134,-0.16878820955753326],[-0.35712823271751404,0.14290761947631836,0.6493445038795471,0.7864813208580017,0.41610661149024963,0.4517469108104706,-0.6037628650665283,0.7023234963417053,0.6913602948188782,-0.2927435338497162,0.6408193707466125,0.9469621181488037,-0.815497100353241,-0.026444438844919205,0.17372210323810577,-0.4580126404762268,0.31990596652030945,-0.12241174280643463,-1.2582975625991821,-0.022778404876589775,0.41768884658813477,-0.18973638117313385,-0.06153029948472977,0.2701440453529358,-0.12892332673072815,-0.052024126052856445,2.2349164485931396,-0.23635141551494598,-0.24131907522678375,0.7865467667579651,0.6493409276008606,1.4483672380447388,-1.1333671808242798,-0.42679786682128906,0.7307726144790649,0.4779628813266754,0.13855023682117462,-0.06174284964799881,-0.25849518179893494,0.09812644124031067,0.10172198712825775,-0.13837753236293793,-0.19470840692520142,0.18336522579193115,0.42469680309295654,-0.14927928149700165,0.047224223613739014,-0.23622527718544006,-0.3563174605369568,0.1761302500963211,0.602270245552063,0.2561831474304199,-0.02662237174808979,0.7246077060699463,-0.3080621361732483,0.23857620358467102,0.19931569695472717,0.20402495563030243,-0.7674001455307007,-0.12964493036270142,-0.2470557540655136,0.5629787445068359,-0.008468079380691051,-0.4156390428543091,0.7353489398956299],[-0.390222430229187,0.7140747308731079,1.5648114681243896,-0.993463397026062,-0.608595073223114,-0.7603396773338318,0.04799232259392738,-0.4274723529815674,-0.005289351101964712,-0.8048950433731079,0.2765294313430786,0.05981144309043884,0.6260412931442261,-0.06426510214805603,-0.2758515179157257,-1.14333176612854,-0.19744762778282166,-0.07240381091833115,0.4151029586791992,-0.07308933883905411,-0.9085710048675537,0.13011819124221802,0.16771404445171356,0.14310552179813385,0.9527870416641235,-0.04737026244401932,0.0681789219379425,-1.3072962760925293,0.11058929562568665,-0.4204249083995819,-0.10681101679801941,-0.9021312594413757,0.9012494683265686,-0.7569873929023743,-0.3201717138290405,-1.0415806770324707,-0.31584492325782776,-0.44800493121147156,0.2383774369955063,0.07219475507736206,-0.2786352038383484,0.5589966773986816,-0.2772164046764374,-0.42432284355163574,-0.20769861340522766,-0.22961638867855072,-0.5707898139953613,0.7957993149757385,-0.6182699799537659,-0.5602597594261169,-0.0754665955901146,0.038207557052373886,-0.6093177795410156,-0.1798379272222519,-0.08517777919769287,-0.9041750431060791,-0.288661390542984,0.6701399683952332,-1.3717721700668335,0.3917361795902252,-0.2338133305311203,-0.2664402723312378,-0.18677134811878204,-0.1942712366580963,-0.28276821970939636],[0.2973770797252655,-0.35408204793930054,-0.9791866540908813,-0.48296311497688293,0.659237802028656,0.3548393249511719,0.22140933573246002,0.6538038849830627,-0.5402406454086304,0.3221161365509033,-0.5024441480636597,-1.0617122650146484,0.07153642177581787,-0.06422574073076248,-0.9938754439353943,-0.255315899848938,0.057072196155786514,0.6961129307746887,-1.3918298482894897,0.05636981874704361,0.41553765535354614,-0.0009969457751139998,0.5074922442436218,0.17818373441696167,0.20267587900161743,-0.035386815667152405,0.41357770562171936,0.3067590892314911,-0.23406001925468445,0.48967042565345764,-0.11837465316057205,0.7640583515167236,-0.8561775088310242,0.2788517475128174,-0.5586630702018738,0.10558384656906128,0.4371931552886963,1.2138330936431885,-0.17516104876995087,-0.25220558047294617,0.000724672747310251,0.29221153259277344,0.4067065417766571,-0.0598829947412014,-1.2194823026657104,-0.2679196894168854,-0.07586551457643509,-0.057505328208208084,0.8988773226737976,0.03722207993268967,-0.33544063568115234,0.033359140157699585,-0.1621333211660385,-0.32119229435920715,0.43911129236221313,-0.4266798198223114,0.07086770981550217,0.557361900806427,1.5625606775283813,0.18149463832378387,-0.40876853466033936,0.007257344666868448,-0.38951948285102844,-0.10481107234954834,0.2230859100818634],[-0.32982543110847473,-0.25841763615608215,-0.9798673391342163,-1.1484911441802979,0.26010945439338684,-1.5439196825027466,1.4975450038909912,-0.220590278506279,0.45523253083229065,-0.3579987585544586,-0.4211844503879547,-0.4194563031196594,0.3611714839935303,0.044421058148145676,-0.07338906079530716,-0.6387811303138733,-0.7667407393455505,-0.6793387532234192,0.04419507086277008,-0.05713183432817459,-0.6120541095733643,-0.014384661801159382,-0.623019814491272,-0.9998090863227844,0.43763604760169983,-0.11695476621389389,-0.45153775811195374,0.8287349939346313,-0.27595776319503784,0.2536971867084503,0.5887564420700073,-0.6103509664535522,-1.071625828742981,0.08925922960042953,-0.7398704886436462,-0.04947807267308235,0.04652762785553932,-0.039616432040929794,-0.221124067902565,-0.44239991903305054,0.049164656549692154,-0.9030778408050537,0.2913801968097687,0.0784609392285347,-0.6535948514938354,-0.01965624839067459,-0.08075619488954544,-0.3088788390159607,0.48267921805381775,-0.20502065122127533,-0.9474626779556274,0.5488536357879639,-0.14579923450946808,-0.0985984355211258,-0.8439988493919373,-0.664442241191864,-0.01119116973131895,-0.6901121735572815,0.6036298871040344,0.31687381863594055,0.686554491519928,-0.18299663066864014,0.3228241205215454,-1.4212062358856201,0.11051186919212341],[-0.2541027069091797,-0.5053925514221191,-0.6655216813087463,1.0903297662734985,1.01237154006958,0.15427768230438232,0.2864912748336792,0.509283185005188,-1.7183815240859985,0.5174500346183777,-0.31722262501716614,-1.166929841041565,-0.7239019870758057,-0.11068428307771683,-0.014324481599032879,0.4741542637348175,-0.037282105535268784,-0.4086461067199707,0.01029175240546465,0.05172738432884216,0.44938352704048157,0.6858081817626953,0.3884357511997223,0.5083521604537964,1.0398985147476196,-0.06885380297899246,-0.13520191609859467,-0.29807209968566895,0.021691743284463882,0.42334866523742676,0.207158163189888,-1.5737797021865845,-0.20503343641757965,0.3744645118713379,0.2294451743364334,0.08170799911022186,0.5723171234130859,-0.20490792393684387,0.5557739734649658,-0.0656215250492096,-0.1067207083106041,0.07968317717313766,0.8476214408874512,-0.26046380400657654,0.525490403175354,-1.1438024044036865,-0.0799076035618782,-0.12549862265586853,0.5170891284942627,-0.11015411466360092,-0.17542529106140137,0.7298627495765686,-0.021236762404441833,-0.08534074574708939,0.6228333711624146,-0.9218401908874512,-0.36240288615226746,0.5299374461174011,0.7213316559791565,0.7039282321929932,0.2242412269115448,-0.24827001988887787,-0.12317956984043121,-0.14388824999332428,0.5340399146080017],[1.1971478462219238,0.6147407293319702,0.5089700222015381,0.18869861960411072,-0.5223207473754883,1.0206313133239746,-0.6863508224487305,-0.041022785007953644,-0.7890904545783997,-0.6997436881065369,-0.22714567184448242,0.709324300289154,-0.3865092992782593,-0.045945726335048676,-0.1608985811471939,0.48961272835731506,0.01277646329253912,-0.538703978061676,-0.27605703473091125,0.035801298916339874,-0.7201791405677795,0.601036548614502,-0.1676786094903946,-0.5472989082336426,-0.04644666984677315,-0.03681670501828194,-0.7698466777801514,-0.3310389816761017,-0.09014008194208145,-0.6295298337936401,-0.0037451807875186205,0.1857888251543045,0.9124922156333923,-0.7676703333854675,0.14404501020908356,-0.5235549807548523,-0.5725559592247009,-0.2964448928833008,-0.68360435962677,-0.6289809346199036,-0.016675744205713272,-0.10826916247606277,-1.3588038682937622,0.08113536983728409,0.15668098628520966,-0.037812765687704086,0.13295911252498627,-0.015957262367010117,-0.9866119027137756,0.11044000089168549,-0.7202711701393127,-0.24687984585762024,0.1889328956604004,-0.733511209487915,-0.847233235836029,1.5818257331848145,0.47166386246681213,0.7595576047897339,-0.2855303883552551,-0.22638995945453644,-0.6438266038894653,-0.25481560826301575,0.32784566283226013,1.1480430364608765,-0.09361736476421356],[-0.4067147672176361,0.05524821579456329,-1.1255052089691162,0.5732554197311401,0.6836981773376465,-0.29525473713874817,-1.0781922340393066,0.6449679136276245,-0.7718596458435059,-0.5816802978515625,-0.12425437569618225,-0.09125791490077972,-0.655982255935669,-0.06282179057598114,-0.5023522973060608,0.26114681363105774,-0.8339800238609314,-0.9591567516326904,-0.9759760499000549,-0.08390474319458008,-0.44545218348503113,-0.3792355954647064,-1.0131056308746338,-0.6340832710266113,-0.7150399088859558,-0.040475212037563324,2.673582077026367,0.35430920124053955,-0.3381120562553406,0.9616760611534119,0.656122624874115,0.25138983130455017,0.9733984470367432,-0.796852707862854,-0.25507232546806335,0.22972066700458527,0.15531980991363525,-0.9831290245056152,0.26800471544265747,0.05310013145208359,-0.552399754524231,-0.10194813460111618,0.8597352504730225,-0.718120813369751,1.0285793542861938,0.37244823575019836,-0.5894103646278381,0.635572612285614,0.5488030314445496,-0.6765903830528259,0.5685734152793884,0.2061893492937088,-0.46609920263290405,-0.2847955524921417,-0.3047158122062683,-1.2008545398712158,-0.3028283715248108,-0.20878934860229492,-0.46585598587989807,-0.6249896287918091,0.2254747748374939,0.12837837636470795,-0.03865823522210121,-0.7517257332801819,0.5463641881942749],[0.1678648293018341,0.5142410397529602,-0.09399115294218063,0.25772157311439514,-0.21461261808872223,0.4593122899532318,1.190522313117981,0.08902598172426224,-0.5500202775001526,-0.8515486121177673,-0.5084487199783325,-1.7015372514724731,0.9571989178657532,-0.10348187386989594,0.18829874694347382,-0.7904563546180725,-0.21552203595638275,0.007347109727561474,0.8852348327636719,0.12382293492555618,-0.14609235525131226,-0.6950438618659973,0.9920799732208252,0.2990330457687378,0.8847952485084534,-0.05518290773034096,-1.413285493850708,-0.8422006964683533,0.44244638085365295,0.1124916672706604,0.14143532514572144,-0.6906299591064453,0.536932647228241,-0.4372238516807556,-0.08001385629177094,-0.29893240332603455,0.06790896505117416,-0.10124329477548599,-0.8977521061897278,0.3643321394920349,-0.11836034059524536,-0.11848695576190948,-0.13848602771759033,-0.08269841223955154,-0.779755711555481,1.0471773147583008,0.035791367292404175,-0.3490371108055115,0.19469735026359558,-0.05589985474944115,-0.5823742747306824,0.1887349784374237,-0.11660754680633545,-0.31855764985084534,-1.0099480152130127,-0.2974884808063507,0.1883031576871872,0.5939750671386719,-0.05192172899842262,0.579037606716156,0.3271462321281433,0.4041922986507416,0.5276070237159729,0.07297056168317795,0.1287567913532257],[-0.1454256772994995,0.09646230190992355,-0.9797457456588745,-0.577275276184082,0.2501763105392456,1.1000072956085205,1.0651215314865112,0.4514681398868561,-0.4325728118419647,0.6489711999893188,-0.4874044954776764,-1.1804560422897339,0.3327811360359192,-0.04602116718888283,0.3741299510002136,-0.43349140882492065,0.24102631211280823,0.2517198324203491,1.2797642946243286,-0.028256429359316826,1.0061103105545044,0.22134244441986084,0.3146139085292816,0.09999439865350723,1.0606756210327148,0.06288714706897736,-1.0746666193008423,-0.5004907250404358,0.4678700566291809,-0.37395861744880676,-0.2147403210401535,-0.9127464294433594,0.13995389640331268,-0.4394252300262451,0.007189578376710415,0.08889210224151611,0.2220660001039505,-1.035840630531311,-0.0702584907412529,0.5179106593132019,0.19041000306606293,0.3703474700450897,0.7299926280975342,0.1747765839099884,-0.6180908679962158,-0.04825403913855553,0.01632637158036232,0.1518653929233551,0.19019725918769836,-0.05953080207109451,-0.14156313240528107,0.23724475502967834,-0.10666188597679138,-0.07392607629299164,0.09664934128522873,-1.1621800661087036,0.008867987431585789,1.1960135698318481,-0.2852751910686493,1.0907821655273438,0.9823739528656006,0.12203923612833023,0.404617577791214,0.20984795689582825,0.2568339407444],[-0.35102519392967224,-0.3232264518737793,0.975095272064209,0.9741337299346924,0.13237330317497253,-0.5671190619468689,-0.20355771481990814,0.5715010166168213,0.9080681800842285,0.3617808520793915,0.7632641792297363,1.216212272644043,0.42807382345199585,0.11190256476402283,0.2977394163608551,0.0792112797498703,0.2605685293674469,-0.013961625285446644,0.22724702954292297,0.08541285246610641,0.10074236989021301,-0.5445135831832886,0.5725306868553162,0.6792833805084229,-0.6101272106170654,0.004354814533144236,0.2953197658061981,0.48352062702178955,0.8688802719116211,0.5384384393692017,0.29598402976989746,0.38731157779693604,-1.1103270053863525,-0.049126360565423965,1.2518230676651,0.6375201344490051,-0.21883583068847656,-0.24121636152267456,0.45109590888023376,-0.2720886766910553,0.30086272954940796,-0.22593122720718384,-0.1975233554840088,0.14677445590496063,0.6632462739944458,0.009994796477258205,0.13241560757160187,-0.14410147070884705,0.11964789032936096,0.16553346812725067,0.5148617625236511,-0.28193992376327515,0.04485171288251877,0.6741873621940613,1.328696846961975,-0.2360152155160904,-0.059474118053913116,-0.8095008730888367,0.3612598478794098,-0.6702099442481995,-0.23088206350803375,0.0887131318449974,-0.6612491011619568,-0.43465888500213623,0.25070735812187195],[0.539326548576355,-0.22324171662330627,0.3186071217060089,0.5201829075813293,0.3268628418445587,0.3769678771495819,-0.8403821587562561,0.3869645595550537,-0.8932902216911316,0.11299628764390945,0.007469860836863518,-0.9038221836090088,-0.21214956045150757,-0.07233031094074249,-0.20587725937366486,-0.6305631399154663,0.46816936135292053,0.684360682964325,-0.3215537965297699,0.07762998342514038,-0.2175235152244568,-0.5286819338798523,0.6304731369018555,0.9347346425056458,-0.6798298358917236,0.1078873723745346,-1.282485008239746,-1.4292576313018799,0.036833297461271286,0.2754664719104767,-0.24297790229320526,1.3218189477920532,0.4665675759315491,-0.5287113189697266,0.4702800214290619,-0.09874572604894638,-0.37156549096107483,0.31794288754463196,0.06573667377233505,0.2790163457393646,-0.4114709794521332,0.9751973152160645,0.044397950172424316,-0.1011589840054512,-0.16372373700141907,0.5828927159309387,-0.08362116664648056,-0.34991103410720825,0.9568147659301758,-0.040495309978723526,0.823810338973999,-0.29560449719429016,-0.1427304744720459,-0.7421192526817322,-0.07031762599945068,1.0638049840927124,0.07445011287927628,0.43452367186546326,-0.22630827128887177,-0.19018514454364777,0.3354945182800293,0.2171209305524826,-0.7740497589111328,0.9079590439796448,-0.09998617321252823],[0.08643046766519547,0.10947728157043457,-0.06707455217838287,0.42861083149909973,-0.22932785749435425,0.4347020089626312,-0.12004905939102173,-0.5071921944618225,-0.6364771127700806,0.47039365768432617,-0.16493918001651764,-1.705505132675171,-0.670086681842804,0.12132590264081955,-0.38845235109329224,-0.11327138543128967,0.07106722146272659,-0.33457469940185547,-0.42963674664497375,0.020619191229343414,-1.1804429292678833,-0.9100993871688843,0.0891420990228653,-0.37302443385124207,-0.3874058723449707,0.10850585997104645,-1.3403931856155396,-0.8241531252861023,-0.06467928737401962,-0.2072145789861679,0.20101389288902283,-1.1498379707336426,0.29460635781288147,-0.13774226605892181,-0.37226998805999756,0.5644246339797974,0.595085859298706,-0.20868389308452606,0.09474536776542664,-0.14049260318279266,-0.14326412975788116,0.5805659890174866,-0.781556248664856,-0.05714242905378342,-0.18476417660713196,0.294285386800766,-0.05390532687306404,0.15514300763607025,-0.04434053599834442,-0.2886815667152405,-0.6586907505989075,0.36893805861473083,0.10509272664785385,0.24614140391349792,0.3128150701522827,0.7231258749961853,0.09244660288095474,0.4681772291660309,0.11352561414241791,0.22173269093036652,0.730250895023346,0.02284173294901848,-0.05532027781009674,0.30072832107543945,0.15157368779182434],[-0.18260592222213745,-0.8463032841682434,0.3693174719810486,-0.7175353765487671,-0.5945246815681458,0.5261190533638,1.318253755569458,-0.13934087753295898,-0.5122748017311096,0.16130368411540985,0.139068141579628,1.0614736080169678,-0.08786959946155548,-0.09350311011075974,0.4853527247905731,1.112149715423584,-0.07686261832714081,-0.29487136006355286,-0.019785774871706963,0.07354746013879776,0.23325873911380768,0.26366332173347473,-0.29726967215538025,-0.10527269542217255,-0.7968395948410034,-0.07216856628656387,-0.5070037841796875,-0.09588000178337097,0.3512813150882721,-0.11300406605005264,-0.052388258278369904,0.17124001681804657,0.9279587268829346,0.23843277990818024,0.03645115718245506,0.7403786778450012,0.22675961256027222,1.6379755735397339,0.23781941831111908,0.9027274250984192,-0.5768484473228455,0.2046099752187729,1.2216508388519287,-0.20362438261508942,0.3967057168483734,-0.19985073804855347,-0.24685455858707428,-0.18558165431022644,-0.3319636583328247,-0.22313790023326874,0.5994282364845276,0.07911059260368347,-0.31677335500717163,-0.4066377878189087,0.7889505624771118,-0.1281517893075943,-0.3505227267742157,-0.6427736282348633,-0.34388357400894165,0.12884418666362762,1.129430890083313,0.16917379200458527,-0.20026305317878723,0.06869914382696152,-0.10545957088470459],[0.29116764664649963,-0.21239453554153442,1.358325719833374,-1.2757318019866943,0.03297838568687439,0.7379173040390015,2.0774917602539062,-0.10607267171144485,1.0974575281143188,1.2496317625045776,0.04750744625926018,-0.21490153670310974,1.3812304735183716,-0.037224963307380676,0.08977437764406204,0.4579673707485199,-0.15089544653892517,0.08683871477842331,0.9250479340553284,0.030223408713936806,0.6054356098175049,0.16002173721790314,0.1012009009718895,0.002473440021276474,1.3117485046386719,0.10556624084711075,-0.8282815217971802,0.32766199111938477,0.15746447443962097,-0.07150182873010635,0.26699772477149963,-0.1653689295053482,-0.35382547974586487,0.33850017189979553,-0.2625836730003357,-0.6914187669754028,0.0064504509791731834,0.9383863806724548,0.28168460726737976,0.9050024747848511,0.03741289675235748,0.11598511785268784,0.6059095859527588,0.3405512869358063,-0.36339935660362244,-0.4364798069000244,0.15713992714881897,-0.2727147042751312,-0.4557338356971741,0.1747099757194519,0.34080079197883606,-0.7961667776107788,0.2937469780445099,0.15838803350925446,1.062566876411438,-0.42258933186531067,0.36496755480766296,-1.0025207996368408,-0.3078673779964447,0.7229182124137878,0.016381459310650826,-0.0017134982626885176,0.4223341941833496,0.06909765303134918,-0.08077330887317657],[-0.48054543137550354,-0.1054128110408783,-0.8601318597793579,0.385028600692749,0.6000268459320068,-1.1768678426742554,-1.0341384410858154,-0.23170602321624756,0.6820716857910156,-0.0726315975189209,0.34345003962516785,0.16044484078884125,0.011858658865094185,-0.10737708956003189,0.21174831688404083,0.458000510931015,0.03936096280813217,0.3020741045475006,0.4553758502006531,-0.019096771255135536,0.45566728711128235,0.029440533369779587,0.12248465418815613,0.4512467384338379,0.02823132649064064,-0.1234087198972702,2.069831609725952,-0.35031354427337646,0.6671464443206787,0.39745470881462097,-0.07724789530038834,1.013594388961792,-0.8206972479820251,0.3845497667789459,0.8375384211540222,1.1550743579864502,0.4747339189052582,1.2379506826400757,-0.04694948345422745,-0.2642275393009186,-0.07334805279970169,-0.1695893108844757,-0.37871870398521423,0.042248211801052094,0.16720542311668396,0.49896934628486633,0.05120566859841347,-0.3105488419532776,0.08813673257827759,-0.07857313752174377,0.6552449464797974,0.13869492709636688,-0.035444751381874084,0.6714853644371033,-0.03790242597460747,1.4015804529190063,-0.169709712266922,0.3817503750324249,0.2890462577342987,-0.7409746646881104,-0.38446396589279175,0.3758799135684967,-0.2418409287929535,-0.4026629328727722,0.00011112601350760087],[0.365294873714447,0.13937610387802124,-0.13557827472686768,0.658371090888977,0.20609313249588013,0.5068832635879517,-0.6249023675918579,0.36436477303504944,-1.050164818763733,0.6015881896018982,-0.5795104503631592,-1.164223074913025,0.10256317257881165,0.06222391501069069,-0.5218513011932373,-0.18421846628189087,-0.17407210171222687,-1.001523733139038,0.47402089834213257,0.011542407795786858,-0.5449201464653015,0.45975327491760254,-1.0945183038711548,-0.8375349640846252,-0.8620606064796448,0.036595046520233154,-0.42033180594444275,0.8655922412872314,-0.8303976058959961,0.07101304829120636,0.18240846693515778,0.41625308990478516,-0.05488196760416031,0.8529883027076721,-0.5896908044815063,-0.2798321843147278,0.00019116199109703302,1.5013854503631592,-0.08863098174333572,-0.23626844584941864,0.06265665590763092,1.0139552354812622,-0.25440695881843567,-0.20286880433559418,-0.39583930373191833,0.23329663276672363,-0.023546962067484856,0.46404343843460083,-0.15193943679332733,-0.2768971621990204,-0.11319423466920853,0.39157819747924805,0.028496598824858665,0.49043840169906616,0.35655656456947327,-0.04180368036031723,0.052577387541532516,0.3423328995704651,0.43264517188072205,-0.4815453290939331,-0.4544966518878937,0.18819470703601837,0.19378197193145752,-0.33075574040412903,0.29381775856018066],[-0.010392190888524055,-0.4580635726451874,-0.6339645981788635,0.1848682314157486,0.46670079231262207,1.7571865320205688,-0.35461705923080444,0.2579633891582489,-1.0430155992507935,1.0717567205429077,-0.8869956731796265,-1.9229724407196045,-0.501867413520813,0.06365516036748886,0.2069937139749527,0.743792712688446,-0.07618149369955063,-0.026371745392680168,0.2582002580165863,-0.0026368186809122562,-0.427524209022522,0.3326508700847626,-0.8435418009757996,-0.26608964800834656,-0.8416184782981873,-0.07525534182786942,0.12461607903242111,-0.377000629901886,-0.32626873254776,0.08223845809698105,0.700387716293335,0.27430257201194763,-0.6898188591003418,-0.4055268466472626,0.272847056388855,-0.012381169013679028,0.846488356590271,-0.5499542355537415,0.219037726521492,-0.08887404203414917,0.061451904475688934,0.2757440507411957,0.33599480986595154,0.11713127046823502,-0.06839507818222046,0.5120789408683777,0.033218856900930405,-0.10798444598913193,0.4684414565563202,0.015918388962745667,-0.5809459686279297,0.13989748060703278,0.1954711526632309,-0.2913978397846222,0.34950461983680725,-0.16299694776535034,-0.3303252160549164,0.9645659923553467,0.02932313270866871,0.2884771525859833,-0.088619165122509,0.6917693018913269,0.40499043464660645,-0.9666039347648621,0.5833516120910645],[-0.1836063116788864,0.027132796123623848,-0.23314180970191956,-0.37554386258125305,0.24854536354541779,-1.8482985496520996,-0.9029338359832764,0.08099694550037384,1.3613165616989136,-0.20663471519947052,0.6479026079177856,1.899549961090088,0.8119410872459412,0.08590608835220337,0.08660956472158432,-0.13551297783851624,0.38445156812667847,0.6408718824386597,0.7628433108329773,-0.0479436069726944,-0.03826107829809189,0.11022616922855377,0.40960070490837097,0.16812722384929657,0.3991764485836029,0.07255495339632034,-0.20386235415935516,0.33497747778892517,-0.19339288771152496,0.6451135873794556,0.198883056640625,-0.040000222623348236,0.46128079295158386,-0.3368581235408783,-0.017594926059246063,0.19839921593666077,-0.3000861406326294,0.06306338310241699,-0.0871502161026001,-0.4370269179344177,0.11148056387901306,-0.24706542491912842,-0.1462147980928421,0.11029528081417084,-0.007663297932595015,0.1797349601984024,0.2871706485748291,-0.0241649579256773,0.12961986660957336,0.3773800730705261,0.29978135228157043,-0.4381726384162903,0.05889465659856796,0.2548561096191406,0.046248480677604675,0.325571745634079,0.04229012504220009,0.44727346301078796,0.4389050602912903,-0.7320058345794678,-0.8579002022743225,0.05523915961384773,-0.5030521154403687,-0.39497509598731995,0.03464812785387039],[-0.019821252673864365,0.6965886950492859,1.499340534210205,1.1984492540359497,-0.06395944207906723,-0.16412055492401123,0.7731277346611023,0.014416985213756561,-0.779598593711853,-0.6253032684326172,-0.2809259295463562,-1.0559372901916504,-0.08313718438148499,0.09636955708265305,-0.4129406809806824,0.44732457399368286,-0.36524152755737305,-0.3108234405517578,-0.5827432870864868,0.057321421802043915,-0.5176373720169067,1.1664743423461914,-0.44196346402168274,-0.6372716426849365,0.35474085807800293,-0.0749431774020195,-2.2030029296875,-0.5720760822296143,-0.2090180218219757,-0.1428542137145996,0.42952999472618103,1.125144124031067,0.5522505044937134,-0.26109740138053894,-0.5529428124427795,-0.14332248270511627,0.19076129794120789,-0.31547871232032776,-0.3443506062030792,-0.4813428223133087,-0.17104937136173248,0.6720544695854187,-0.7235652208328247,-0.07428178936243057,-0.011902750469744205,-0.39626628160476685,-0.0335301049053669,0.018869878724217415,0.02300627902150154,0.14065510034561157,-0.4939465820789337,-0.07064710557460785,-0.12205104529857635,-0.21439164876937866,-0.1355745941400528,-0.9486439824104309,-0.16102147102355957,0.31037089228630066,0.17407099902629852,0.6060068011283875,-0.30153846740722656,-0.059371352195739746,0.23647502064704895,-0.5693700909614563,0.3148696720600128],[0.05933590978384018,-0.10718812793493271,-1.1991984844207764,0.07686462253332138,0.05773785337805748,1.7198538780212402,-1.3142236471176147,0.030017267912626266,-0.8282356858253479,0.6825774908065796,-0.24939794838428497,-0.8929994106292725,-0.881976842880249,-0.050181999802589417,-0.29253706336021423,0.41452375054359436,-0.21334266662597656,-1.1475739479064941,-0.14976125955581665,-0.07666010409593582,0.32244715094566345,1.361415982246399,-0.6878673434257507,-0.9923109412193298,-0.04684760794043541,0.11991828680038452,0.22512464225292206,0.6347987055778503,-0.6733685731887817,0.2646908760070801,0.5989545583724976,0.21694141626358032,-0.13744957745075226,0.6518737077713013,-0.341714084148407,0.39561453461647034,0.6583377122879028,0.3410715162754059,0.08607561141252518,-0.12723363935947418,0.14920495450496674,0.5852006673812866,-0.3509402275085449,0.18457096815109253,0.004006940871477127,-0.034536100924015045,0.15647505223751068,-0.12445662915706635,0.403685063123703,0.2107098251581192,-0.012855170294642448,0.5365653038024902,-0.018574289977550507,-0.33061349391937256,0.10630877315998077,-0.5239120721817017,-0.08831977844238281,0.018511196598410606,0.41850733757019043,-0.31591007113456726,-0.5953032970428467,0.24789932370185852,0.16767093539237976,-0.3220483660697937,0.4119691848754883],[-0.22049841284751892,0.5913005471229553,-0.53554368019104,-0.4019538462162018,-0.495915949344635,-0.46521705389022827,1.0939202308654785,0.5707569718360901,-0.7134107351303101,-0.5211895108222961,-0.06420111656188965,-0.014938769862055779,-0.12194564938545227,-0.024005116894841194,0.5631108283996582,0.373208224773407,-0.7278867959976196,-0.8962147831916809,0.1890868842601776,0.03542960807681084,-0.1596040278673172,0.3149636387825012,-0.8885132074356079,-0.6204614043235779,0.27500566840171814,-0.08453967422246933,-0.15536978840827942,-1.4425245523452759,0.959864616394043,0.26273220777511597,-0.17339228093624115,1.1888763904571533,0.7268552184104919,-0.4003852307796478,0.5194355845451355,0.4510446786880493,0.27003157138824463,0.7194240093231201,-0.06150205805897713,-0.3792503774166107,-0.2840166985988617,-0.1768142729997635,0.6175762414932251,-0.48852697014808655,0.35075780749320984,0.34462347626686096,-0.36341264843940735,0.4612540006637573,0.11179253458976746,-0.504108726978302,0.3701927661895752,-0.6314535737037659,-0.27049437165260315,-0.15002408623695374,-0.8731271624565125,-0.2772494852542877,-0.03440150246024132,0.5840064287185669,-1.6965144872665405,-0.4124637544155121,-0.9194682836532593,0.1519230753183365,0.5390886664390564,-0.37196487188339233,0.1945955455303192],[0.04156038537621498,0.12009276449680328,-0.02970055863261223,0.36870071291923523,-0.04237557202577591,-0.019491229206323624,2.548389196395874,0.008575556799769402,0.4455097019672394,-0.31563419103622437,-0.41492798924446106,-0.9518956542015076,-0.48877012729644775,0.041207730770111084,-0.3783092498779297,-0.44714418053627014,-0.21629641950130463,-0.25966548919677734,-0.8498139977455139,-0.11954957991838455,-0.9201459288597107,0.32721298933029175,-1.322959303855896,-0.47118544578552246,0.10336727648973465,0.02744816243648529,-0.6112792491912842,0.6128107309341431,-0.5467755794525146,0.5098021030426025,0.47713160514831543,0.49936696887016296,-0.6040861010551453,0.3381271958351135,-0.41534602642059326,-0.13220123946666718,-0.07985910773277283,0.47408655285835266,0.24689027667045593,-0.7154908180236816,0.1707681566476822,0.2799106240272522,-1.0729377269744873,0.049210429191589355,-0.10251542925834656,-0.10589398443698883,0.09414728730916977,-0.5710922479629517,0.023465516045689583,-0.016444189473986626,-0.367034912109375,0.3163544237613678,-0.021214468404650688,-0.06159614026546478,-0.5167856216430664,-0.4425792098045349,-0.41377365589141846,0.06313373148441315,-0.37355414032936096,-0.4026681184768677,-0.7408928275108337,-0.1934933066368103,0.5296052098274231,-0.7285559773445129,0.1660083383321762],[0.47734951972961426,-0.309039443731308,-0.16113199293613434,0.31885460019111633,0.34211236238479614,0.25268587470054626,-1.2408257722854614,-0.18334141373634338,-0.14780744910240173,0.45519474148750305,-0.2620542049407959,-0.3609137237071991,-0.2168130874633789,0.07328227162361145,0.21896596252918243,0.22710666060447693,0.8721169233322144,1.214294195175171,0.07328194379806519,0.030887600034475327,-0.08307403326034546,-0.061042457818984985,1.3087503910064697,1.3047107458114624,-0.011077756062150002,0.008102704770863056,-0.21930819749832153,-0.37427571415901184,-0.0828375592827797,-0.18761159479618073,-0.5881673693656921,0.20212756097316742,0.010816987603902817,0.15845845639705658,0.6616923213005066,-0.6891953349113464,-0.7935492396354675,-0.7985567450523376,-0.14008960127830505,0.23929056525230408,-0.09536709636449814,0.30363765358924866,-0.32935261726379395,-0.08376795053482056,0.3569183051586151,-0.3180595338344574,0.11066776514053345,-0.24824076890945435,0.16657376289367676,0.1325695663690567,0.1406370848417282,0.027152910828590393,0.03169626370072365,-0.6794672608375549,0.46660980582237244,1.7682366371154785,0.024479806423187256,-0.060243140906095505,-0.3253304064273834,-0.6074371337890625,-0.025168392807245255,-0.18025551736354828,-0.9687715768814087,1.2049815654754639,-0.6472446322441101],[0.004225080367177725,-0.24416518211364746,1.0568145513534546,-0.7988926768302917,0.6043756604194641,-0.19003552198410034,1.5180079936981201,-0.3091961443424225,-0.6093202829360962,-0.027010725811123848,0.08633933961391449,-0.8443673849105835,0.2523682117462158,-0.11977579444646835,-0.3739382028579712,-0.09456057846546173,0.1325773447751999,-0.011231628246605396,0.5688003301620483,0.02351556532084942,-0.5517674684524536,0.4625873565673828,0.5122054815292358,0.5148860812187195,0.18353725969791412,0.09249238669872284,-0.9316004514694214,0.747467041015625,0.8972021341323853,-0.13930970430374146,-0.17982074618339539,-0.6942834258079529,-0.73404860496521,0.5067524313926697,0.30068641901016235,-0.018509048968553543,0.2883586287498474,-0.7668678760528564,-0.6135531663894653,-0.9716567397117615,0.7886187434196472,-0.6809617877006531,0.18882930278778076,0.7214354276657104,-0.267856627702713,-1.0097012519836426,0.6602442860603333,-0.9283224940299988,0.1886802613735199,0.492729514837265,-0.2881773114204407,-0.5821265578269958,0.43635839223861694,-0.5921363234519958,-1.1400854587554932,0.5124868154525757,0.5337648987770081,-1.010407567024231,0.0788780078291893,-0.4817252457141876,1.1706678867340088,0.1849902868270874,0.0921143889427185,0.13437135517597198,-0.0023031835444271564],[-0.3400877118110657,0.0828414037823677,-0.09053168445825577,0.7530381679534912,1.0410043001174927,-0.7555872201919556,-1.7125627994537354,0.5384314656257629,0.16042862832546234,0.3680214285850525,-0.11507391184568405,-1.8168268203735352,-0.7325432896614075,0.07758133858442307,1.1100213527679443,-0.5527637600898743,-0.2502678632736206,-0.23869793117046356,0.7506170868873596,0.10768094658851624,-0.2085237056016922,-0.9068444967269897,0.3392331004142761,0.26736003160476685,1.1249058246612549,-0.059654269367456436,1.4094791412353516,-0.14763621985912323,0.3770785331726074,0.0647144690155983,-0.0021506869234144688,-0.4173719882965088,-1.3630963563919067,-0.16205789148807526,0.31490278244018555,-0.22629286348819733,0.060515571385622025,-0.4703156352043152,0.5541077256202698,0.0341944694519043,0.10117743909358978,-0.8178582191467285,0.7203581929206848,-0.15796661376953125,0.4766809046268463,-0.3733597695827484,-0.29630133509635925,0.04126473888754845,0.6448909640312195,-0.24873343110084534,0.3771885335445404,0.6904783844947815,-0.14660456776618958,0.9128390550613403,-0.43074920773506165,-0.5184524655342102,-0.028889905661344528,0.6741542220115662,0.8718141913414001,-0.08302947133779526,0.06304991990327835,0.04540332406759262,0.2814767062664032,-0.4140367805957794,0.3560892343521118],[-0.07220522314310074,-0.17741812765598297,-0.20470185577869415,-1.0232844352722168,0.8227361440658569,-1.4823873043060303,-0.020685771480202675,0.6637663245201111,0.3555314540863037,0.08478101342916489,0.2720583379268646,0.7160134315490723,0.3628958761692047,0.06506194174289703,0.049671072512865067,0.5493050217628479,-0.1787562221288681,-0.23823240399360657,-0.19410736858844757,-0.014862418174743652,0.5646646618843079,1.0439234972000122,-0.7030422687530518,-0.738088071346283,-1.1994479894638062,-0.0903158038854599,0.33511415123939514,0.9914635419845581,-0.8610324263572693,0.05055971443653107,0.22038421034812927,1.2635486125946045,-0.45893046259880066,1.089735984802246,0.043328624218702316,0.18760593235492706,-0.029620559886097908,0.755584180355072,-0.2552575170993805,-0.4031890332698822,-0.011244410648941994,-0.25025293231010437,-0.0075492262840271,-0.02543034218251705,-0.2703242599964142,0.4592958390712738,0.005049101542681456,0.17059017717838287,-0.4136752188205719,0.021733397617936134,0.5525934100151062,-0.11042893677949905,0.20145036280155182,0.3304138481616974,-0.2968497574329376,0.7570487856864929,0.05690145492553711,-0.08287561684846878,0.9820322394371033,-1.3664271831512451,-1.1771436929702759,-0.19878755509853363,0.5095263123512268,-0.5485437512397766,0.20244428515434265],[-0.06874573230743408,0.24393537640571594,-0.42637506127357483,1.3919926881790161,0.5729597210884094,0.36368629336357117,0.20916202664375305,0.5711407661437988,0.014662646688520908,0.12570509314537048,0.09871188551187515,-0.2416597604751587,0.598316490650177,-0.11719371378421783,0.6543798446655273,-0.2899768352508545,0.17064215242862701,0.8173894286155701,0.34531307220458984,-0.04988599941134453,0.08552996814250946,0.17554356157779694,0.5405120253562927,0.7576060891151428,0.7489267587661743,-0.12323866784572601,-0.5197480916976929,-0.30205342173576355,-0.488477885723114,-0.0486716590821743,-0.10690554976463318,0.4319131374359131,0.47472402453422546,-0.5748253464698792,0.16036689281463623,-0.2533179819583893,-0.5744133591651917,-1.2689764499664307,-0.08259488642215729,-0.9217038154602051,0.24511857330799103,0.2588956356048584,-0.0740719884634018,-0.021720807999372482,0.6680032014846802,0.1184912845492363,0.11805488914251328,0.2641585171222687,0.4219447672367096,0.20676957070827484,0.7197831869125366,-0.8022595643997192,0.1393524557352066,0.35777124762535095,-0.4002840220928192,0.37761640548706055,0.20842209458351135,0.4415857791900635,-1.145653486251831,-0.5750893354415894,-0.7641354203224182,0.44975724816322327,-0.14894206821918488,0.3452775180339813,-0.04597477242350578],[0.33007678389549255,0.19738543033599854,1.361577033996582,0.41633594036102295,0.30584436655044556,-0.3677263557910919,1.4753369092941284,0.25092193484306335,-1.574808955192566,-0.1545984447002411,-0.11265208572149277,-0.694295346736908,-0.4922480881214142,-0.05889880284667015,-0.24769549071788788,-0.8922753930091858,0.15568643808364868,-0.07586713135242462,0.03991573676466942,-0.12156764417886734,0.3945153057575226,-0.5462868809700012,0.17901559174060822,0.04488542303442955,1.041937232017517,0.07081081718206406,-1.5930366516113281,-0.3562587797641754,-0.4130890965461731,0.5013425946235657,0.23361866176128387,-0.8933406472206116,1.4658045768737793,-0.4108796715736389,-0.318420946598053,-0.49864456057548523,-0.3045872151851654,0.41844648122787476,0.05346521735191345,-0.22926855087280273,-0.21248392760753632,0.4304625689983368,-0.6269923448562622,-0.1934940069913864,-0.4070380628108978,-0.006121233105659485,-0.13701477646827698,-0.07240290194749832,0.08019648492336273,-0.2364610880613327,-0.01938212290406227,-0.45376473665237427,-0.1940155327320099,-1.0776320695877075,0.49530887603759766,0.03154783695936203,-0.03435153886675835,0.09538768976926804,0.34610429406166077,-0.02504284307360649,1.1063872575759888,-0.5514095425605774,-0.08803173899650574,0.29123809933662415,-0.00787950400263071],[0.05611027032136917,0.023630645126104355,0.5092067718505859,1.2386317253112793,-0.12617236375808716,0.41767656803131104,-1.8161017894744873,0.3605693578720093,-1.0745763778686523,-0.3903265595436096,-0.1865244209766388,-0.7534458041191101,-0.8449447751045227,0.05721599608659744,-0.7798126339912415,0.014202292077243328,0.030273836106061935,-0.5198534727096558,-1.2882887125015259,0.07777529209852219,0.24458055198192596,0.28962165117263794,-0.16554279625415802,-0.38478803634643555,-0.22100774943828583,-0.03898521885275841,-0.4337784945964813,-0.8096838593482971,-0.11460276693105698,0.3578929603099823,0.5240228772163391,0.37342196702957153,0.12816397845745087,0.5728524327278137,-0.12952077388763428,-0.5768747925758362,-0.08930946886539459,-1.8167057037353516,0.03216107189655304,-0.05281146615743637,0.00012226855324115604,0.5370305180549622,0.06661312282085419,-0.07378438115119934,-0.22425605356693268,0.00951305404305458,-0.1880878210067749,-0.017668213695287704,0.5611664652824402,0.04081805422902107,-0.13421204686164856,0.5114212036132812,-0.2762928307056427,-0.49185165762901306,0.12878113985061646,-0.8888251781463623,-0.3913879096508026,-0.26884129643440247,0.19028453528881073,-0.04317908361554146,-0.5850837230682373,0.3020946979522705,-0.24432596564292908,-0.2842063307762146,0.25947389006614685],[-0.1121424213051796,-0.6088498830795288,-1.710379958152771,-0.045108895748853683,0.1771659255027771,-0.2890912890434265,-0.7914396524429321,-0.014453989453613758,0.5206608176231384,0.6331261396408081,0.2470405250787735,0.7113286852836609,0.4828745424747467,-0.038345497101545334,0.7205023765563965,0.09258893877267838,0.603574275970459,0.5724307894706726,0.3477932810783386,0.032090168446302414,0.757940411567688,-1.2342722415924072,0.591613233089447,0.995375394821167,0.13074876368045807,0.1055213212966919,2.4030344486236572,0.1630559265613556,-0.039400819689035416,0.21906377375125885,-0.23986481130123138,0.8377333283424377,0.11441448330879211,0.7202655076980591,0.45459887385368347,0.20595088601112366,-0.25626134872436523,-0.34007829427719116,0.5757929086685181,-0.6132452487945557,-0.0017408489948138595,0.13083787262439728,0.030874645337462425,0.18178904056549072,0.03648662194609642,0.2337864488363266,-0.007311931345611811,0.007766433525830507,-0.10681876540184021,0.06212114542722702,0.5697827935218811,-0.7064138650894165,0.028747547417879105,0.3364364504814148,-0.3259243071079254,1.1888422966003418,0.21646729111671448,-0.4950783848762512,-0.15770374238491058,-0.42186835408210754,-0.002632776740938425,0.02996540069580078,-0.0593077689409256,0.753472089767456,-0.07324611395597458],[0.19969189167022705,-0.2876145839691162,0.6014567017555237,0.804753839969635,-0.36529460549354553,0.2566848695278168,-0.20867739617824554,0.13854281604290009,0.006499466020613909,0.12644171714782715,-0.21518051624298096,-0.21476313471794128,-0.12305697053670883,0.04137982428073883,0.544677734375,0.6176803112030029,0.32320597767829895,0.06339198350906372,0.1400917023420334,-0.03302325680851936,-0.1796107143163681,0.434062123298645,0.5489481687545776,0.3027040958404541,-0.10326085984706879,-0.03913791477680206,-1.7018972635269165,-0.40707606077194214,-0.02614275924861431,0.10665849596261978,0.025311442092061043,0.14524464309215546,0.8123802542686462,1.0919697284698486,0.338906466960907,-0.8462001085281372,-0.13918395340442657,0.7573550343513489,0.10201898217201233,0.3434895873069763,-0.6890904903411865,1.0465284585952759,0.5095507502555847,-0.6576023101806641,-0.4719536304473877,1.4898728132247925,-0.5493646860122681,0.490414023399353,1.1686619520187378,-0.40800586342811584,0.6172037124633789,1.065477728843689,-0.7441164255142212,-0.20987948775291443,-0.12814269959926605,0.7944778800010681,0.31704604625701904,0.9616411924362183,-0.09770923107862473,0.16495296359062195,-0.6701440811157227,0.11802747845649719,0.09062949568033218,0.36587056517601013,-0.13600553572177887],[-0.09810228645801544,-0.3297058939933777,-1.0903429985046387,0.03851810842752457,-0.2768682539463043,1.0453832149505615,-1.7211148738861084,-0.01761491596698761,-0.7881520986557007,0.37443435192108154,-0.37631911039352417,-0.4481217563152313,0.5906254053115845,0.11803728342056274,0.6238605976104736,-0.3614027500152588,0.7847589254379272,0.1379554122686386,1.1930874586105347,0.017215773463249207,-0.5049552917480469,-0.10714436322450638,0.9817469716072083,1.1834754943847656,0.745116651058197,-0.1203751340508461,0.09149983525276184,-0.37783142924308777,0.3366614878177643,-0.3348214328289032,-0.4249512851238251,0.6836373805999756,0.4251807928085327,0.34327974915504456,0.5564113259315491,-0.4092748165130615,-0.36819741129875183,0.7400063276290894,-0.6257109045982361,-0.1711089313030243,-0.24422413110733032,-0.08499152213335037,-0.21506322920322418,-0.08428876847028732,-0.20968760550022125,0.693423867225647,0.0660710334777832,-0.05419224500656128,0.40564340353012085,-0.03519756719470024,-0.17632587254047394,-0.4780714213848114,0.1774221956729889,-0.12597237527370453,0.17583857476711273,1.3279715776443481,-0.10608651489019394,-0.04776415973901749,-0.6485883593559265,-0.6555215716362,-0.06859495490789413,0.10863576829433441,-0.7650389671325684,0.7011461853981018,-0.19720891118049622],[-0.03962499648332596,-0.14373518526554108,0.07251980900764465,0.44260528683662415,-0.14648105204105377,0.8465237021446228,-1.7001705169677734,-0.2157035619020462,-0.5047503113746643,0.770925760269165,-0.4590965211391449,0.5624018311500549,0.5851423740386963,-0.08464358001947403,1.0274055004119873,-0.03534349054098129,0.24716155230998993,-0.06270381808280945,0.2663767635822296,0.08061717450618744,-0.18619917333126068,0.48429086804389954,0.9804078340530396,1.453263521194458,-0.42881155014038086,-0.10872654616832733,-0.1618514209985733,-0.36686545610427856,-0.16435538232326508,-0.2542141377925873,-0.5157018303871155,0.5970989465713501,0.424018532037735,-0.5418002605438232,0.26587745547294617,0.3174057900905609,-0.5928083062171936,0.8627832531929016,0.6972358226776123,-1.0977871417999268,0.11401212960481644,0.4039612412452698,-0.6853604316711426,0.0436711348593235,0.5755334496498108,-0.5644046664237976,0.18720123171806335,0.7587714195251465,-0.4699203670024872,0.05915554240345955,-0.05917821452021599,-1.2750366926193237,0.36482271552085876,-0.2201405167579651,0.4133623242378235,1.1024713516235352,-0.07797575742006302,-0.23072154819965363,-0.37493768334388733,-1.1087665557861328,-0.22506137192249298,-0.29942190647125244,-0.664116382598877,0.6541638970375061,-0.45909732580184937],[-0.12027331441640854,0.06081264466047287,-0.5421016216278076,-0.17684662342071533,-0.013509349897503853,0.1715991199016571,0.16131557524204254,-0.11337839066982269,-0.5441607236862183,-0.05274229124188423,-0.7661842107772827,-2.1734585762023926,-0.03311159089207649,0.11454102396965027,-0.0026458001229912043,-0.5447825789451599,-0.3018418252468109,-0.5642781853675842,0.8706870079040527,0.05972921848297119,-0.31039825081825256,0.16108761727809906,-0.7215347290039062,-0.6364676356315613,-0.32879117131233215,0.060577332973480225,0.06767933070659637,0.6905949115753174,-0.17306356132030487,-0.3280293643474579,0.6996905207633972,0.7228173017501831,0.07163577526807785,0.14764976501464844,-0.09477762877941132,0.161941796541214,0.4580094516277313,-0.37480899691581726,-0.2158566564321518,-0.04821476340293884,-0.2623882591724396,0.2483854591846466,-0.5676388144493103,-0.07111115753650665,-0.04610290750861168,-0.07345300167798996,-0.3148411214351654,0.16513587534427643,-0.554993748664856,-0.26972252130508423,-0.3621300458908081,0.5363487601280212,-0.17058995366096497,0.5772057175636292,0.24996492266654968,0.21411438286304474,0.2272169440984726,0.4693569242954254,0.43384361267089844,-0.060208771377801895,0.6903820633888245,0.2900378704071045,0.323595255613327,-0.4016117751598358,0.25141283869743347],[-0.02347065880894661,-0.12981517612934113,0.42559579014778137,-0.718556821346283,-0.6685739755630493,0.3116108775138855,-0.3510187864303589,-0.34203648567199707,1.2846314907073975,-0.16039295494556427,0.3570806682109833,1.5924453735351562,1.4408130645751953,0.0633067712187767,0.053945668041706085,0.7069897651672363,-0.19164100289344788,0.2807653546333313,0.24111878871917725,-0.05333247408270836,0.23542438447475433,0.2906249463558197,0.24748654663562775,0.7118552327156067,0.7736483216285706,-0.021516233682632446,0.7518346905708313,0.11808145046234131,0.2338523417711258,-0.25264886021614075,-0.5375432372093201,-0.5487427115440369,-0.15559698641300201,0.6055061221122742,0.20241808891296387,0.14985127747058868,-0.4030359089374542,-0.515247642993927,0.0957062840461731,-0.17301875352859497,0.08824677765369415,0.020844699814915657,-0.18244986236095428,0.047173429280519485,0.1461901217699051,-0.8491075038909912,-0.03330713510513306,-0.07409413903951645,-0.4583975374698639,0.17882880568504333,0.22138027846813202,0.15481416881084442,0.27172791957855225,0.03103119134902954,-0.026783432811498642,-0.2543158531188965,-0.10328001528978348,-0.7060829401016235,-0.6711054444313049,-0.26022160053253174,-1.0187329053878784,-0.013163808733224869,-0.35520318150520325,0.32601141929626465,-0.6240096092224121],[0.42408260703086853,0.17797036468982697,0.27186208963394165,0.763350784778595,-0.24061454832553864,0.7212191224098206,0.04587182775139809,-0.22864019870758057,0.1397259384393692,0.32790520787239075,0.27955183386802673,1.0028835535049438,-0.07765798270702362,0.0927124097943306,0.575056791305542,-0.640177845954895,0.0673566684126854,0.2997871935367584,-0.8438992500305176,0.05860590562224388,0.5985161662101746,0.47963443398475647,0.37580326199531555,0.8698622584342957,-0.43279150128364563,0.03907810524106026,-0.29045215249061584,0.25727424025535583,-0.3718460500240326,-0.17435762286186218,-0.9819965958595276,-0.6395660638809204,-0.0964789092540741,0.4135650098323822,-0.34339383244514465,-0.4595582187175751,-0.9790699481964111,0.4620734751224518,-0.2846601903438568,-1.0032669305801392,0.7258407473564148,-0.20967529714107513,-1.7262301445007324,0.5945953726768494,0.6455612182617188,-1.0195280313491821,0.7615939974784851,-0.9366760849952698,0.5616101622581482,0.7652980089187622,-1.380324125289917,-0.337943434715271,0.3524324297904968,-0.5281691551208496,0.18004849553108215,0.43147194385528564,-0.10627815872430801,0.21308152377605438,-0.05027024820446968,0.08111198991537094,-0.8042160272598267,-0.4025213420391083,-0.4992876946926117,0.8268020749092102,-0.6611799597740173],[0.4823291599750519,-0.13196733593940735,0.04543941468000412,0.20422449707984924,-0.4555298089981079,0.028434161096811295,-1.5770807266235352,-0.42107656598091125,-1.552329182624817,-0.6061186194419861,0.053397998213768005,0.1473587155342102,0.2566327750682831,0.08337080478668213,0.08097507059574127,-0.6041206121444702,-0.051082201302051544,0.23663118481636047,-0.30758440494537354,-0.023645829409360886,-0.8080176711082458,0.15433953702449799,0.38026827573776245,0.7207838296890259,0.167012020945549,-0.029924433678388596,-2.0811562538146973,-0.9779598116874695,0.06561349332332611,-0.06186988949775696,-0.12678292393684387,0.6511577367782593,-1.02323317527771,0.0972302183508873,-0.34707629680633545,0.02911670133471489,0.14608517289161682,0.7381548881530762,0.04014844819903374,-0.002676909789443016,-0.6687319278717041,0.5611926913261414,-0.046083759516477585,-0.5604501366615295,-0.15860292315483093,0.10739415884017944,-0.6231037974357605,-0.4542827606201172,0.9091180562973022,-0.6072642803192139,0.585361897945404,0.15809385478496552,-0.2833539843559265,-0.9455978870391846,-0.649155855178833,0.7744471430778503,-0.18473578989505768,-1.3507161140441895,0.2239687442779541,-0.5582867860794067,-0.42426177859306335,0.255443811416626,-0.47982367873191833,0.0400472991168499,-0.1217268779873848],[0.6175054907798767,0.7219994068145752,1.2965505123138428,0.6813044548034668,-0.07751577347517014,-0.0009595070732757449,-1.7518771886825562,0.318034827709198,-1.2431800365447998,-0.27914658188819885,-0.08701035380363464,-0.6503015756607056,-0.49314385652542114,-0.07592179626226425,0.1813308298587799,-0.3883439004421234,0.290951669216156,0.353059321641922,0.15544277429580688,0.07622082531452179,-0.2532693147659302,-0.2480332851409912,0.09867686778306961,0.5577433705329895,-1.0218784809112549,-0.10167866200208664,-0.5144419074058533,-0.8863793611526489,-0.2402174472808838,-0.4433348476886749,-0.445014625787735,0.610268235206604,-0.47460609674453735,-0.05512462928891182,0.3175666034221649,0.02628329209983349,0.12092523276805878,-1.123592495918274,-0.6106399893760681,-1.0917785167694092,0.10503804683685303,-0.4836235046386719,0.13755497336387634,-0.10965686291456223,-0.22036421298980713,-0.391433447599411,0.07766831666231155,-0.029151665046811104,-0.016467437148094177,0.04862355813384056,-0.4430514872074127,-0.30504268407821655,0.14121651649475098,-0.14971911907196045,0.006942488253116608,0.7392683625221252,0.06509675085544586,1.0659438371658325,-0.5481855273246765,-0.731999397277832,-0.16518443822860718,-0.3436685800552368,-0.1620088815689087,0.13979826867580414,0.10438209027051926],[-0.05683388188481331,-0.21030989289283752,-0.6074864864349365,0.08316639065742493,0.30809950828552246,-0.44017356634140015,0.04950321093201637,0.005125022493302822,-0.4292791783809662,0.19553549587726593,-0.33698922395706177,-1.9199819564819336,-0.24774311482906342,-0.08585862070322037,-0.5904812216758728,0.22106589376926422,-0.5709048509597778,-0.2840960919857025,0.7115769982337952,-0.015547812916338444,-0.4487813413143158,0.18217405676841736,0.19283367693424225,0.06610311567783356,0.9432590007781982,-0.06957603245973587,0.0015990945976227522,-0.035001449286937714,-0.08502782136201859,0.13446804881095886,0.9363017082214355,-0.4825688600540161,-0.673559308052063,0.44995149970054626,-0.37883853912353516,0.07609426975250244,0.8188178539276123,-0.49030956625938416,0.13992370665073395,-0.028474006801843643,0.09352429956197739,0.15769705176353455,0.014505714178085327,-0.2551018297672272,-0.23875613510608673,-0.054759543389081955,-0.20367471873760223,-0.2510676085948944,0.24329382181167603,-0.3583112955093384,-0.2646884322166443,-0.025007091462612152,-0.2566438615322113,0.032533206045627594,0.5713555812835693,-1.6135201454162598,-0.3207310140132904,0.29658645391464233,-0.03342919796705246,1.0655128955841064,-0.34050849080085754,0.6064532399177551,0.6996866464614868,-0.7717060446739197,0.6528647541999817],[-0.2725905478000641,0.06061483174562454,1.5769739151000977,-0.7208876609802246,0.11176583915948868,-0.889402449131012,0.11237596720457077,0.564447820186615,0.7852576971054077,0.2018452137708664,0.07055694609880447,1.0211964845657349,-0.6296373009681702,0.11186675727367401,0.47548213601112366,-0.08181688189506531,-0.6259351372718811,-0.8688619136810303,-0.5225296020507812,0.07944852858781815,0.807115375995636,-0.45744502544403076,-0.9331276416778564,-0.19490598142147064,-0.8863706588745117,-0.06069942191243172,1.605641484260559,0.22819525003433228,-0.14734084904193878,0.41352972388267517,0.4563198685646057,0.811359703540802,-0.29728591442108154,-0.049321915954351425,0.49232831597328186,0.3311561048030853,0.1239124983549118,0.04456434026360512,-0.20721346139907837,0.2484871745109558,0.5252752900123596,-0.4879426658153534,-0.02684761956334114,0.26239678263664246,0.19411855936050415,0.6734094023704529,0.18570813536643982,0.26107561588287354,-0.27199628949165344,0.2166924774646759,0.4000224471092224,0.036712467670440674,0.06104249507188797,0.5365023612976074,-0.23919440805912018,-0.03415435180068016,-0.20312529802322388,0.15486444532871246,-1.071353793144226,-0.8604653477668762,0.004629235714673996,-0.07438565045595169,0.4383668899536133,-0.9264702796936035,0.5341476202011108],[-0.33192893862724304,-0.2926941514015198,-0.4755176305770874,-1.2457714080810547,-0.11693577468395233,-0.724595308303833,1.1602296829223633,-0.6439022421836853,0.509671151638031,0.17326116561889648,0.40877315402030945,0.49357283115386963,-0.23191095888614655,-0.04250515252351761,-0.23006446659564972,0.09064523130655289,-0.05010569468140602,-0.26894915103912354,-0.3121950626373291,-0.04311077296733856,0.008046288974583149,-0.032844576984643936,-0.5999101400375366,-0.44890040159225464,0.1376572698354721,0.017017386853694916,0.06524703651666641,1.8620671033859253,0.1862107366323471,0.7445617318153381,0.663190484046936,-0.3404727578163147,-0.4179892838001251,0.6613369584083557,-0.3263106048107147,-0.1435767114162445,0.21364086866378784,1.4569263458251953,0.2958698570728302,-0.15243738889694214,0.31561586260795593,-0.4071817696094513,0.02840796671807766,0.35360726714134216,-0.2759690284729004,-0.3955842852592468,0.18015645444393158,-0.15475612878799438,-0.7173603177070618,0.08798664063215256,-0.07545432448387146,0.8685393929481506,-0.11248881369829178,0.4503248929977417,0.02747981809079647,0.34749236702919006,0.126517653465271,-0.010030699893832207,2.5892720222473145,-0.12963074445724487,-0.06679663062095642,-0.02718293108046055,0.1980133354663849,-0.5001792907714844,0.1170397475361824],[0.44619375467300415,-0.11375685036182404,0.24745093286037445,0.2358604371547699,0.3292343318462372,0.06631423532962799,-1.4109925031661987,0.2046646922826767,-0.22695040702819824,0.18046365678310394,0.03197229653596878,0.3082299530506134,-0.006971028633415699,-0.08039765059947968,-0.05137031897902489,-0.3986244797706604,1.183516502380371,1.4960298538208008,-0.2509884834289551,-0.015297351405024529,0.5893219113349915,1.0397047996520996,0.9846277832984924,1.1776514053344727,-0.6963344216346741,0.05256140977144241,0.18459714949131012,0.010014715604484081,0.06951403617858887,-0.12315643578767776,-0.464678019285202,1.1157336235046387,-0.8608540296554565,-0.28116732835769653,0.12011496722698212,-0.5445891618728638,-0.4278804361820221,-0.07660466432571411,-1.573142409324646,-0.06852536648511887,0.22173061966896057,0.143143430352211,-0.473040908575058,-0.11855467408895493,-1.2336257696151733,0.3671357333660126,0.04584553465247154,-0.09404518455266953,0.8882349133491516,0.04649537429213524,-0.04014216735959053,-0.5242947936058044,0.2830435633659363,0.0015255887992680073,0.24765482544898987,1.3038411140441895,0.2832307815551758,-0.003961309790611267,-0.06472282111644745,-0.4822171926498413,-0.6589651107788086,0.3285699784755707,-0.8141268491744995,0.42048171162605286,-0.290842205286026],[-0.6073164939880371,-0.04570905864238739,-0.25398844480514526,-0.41825562715530396,-0.3326948881149292,0.3740476965904236,1.820467233657837,-0.5567496418952942,0.04267987236380577,-0.8350642323493958,-0.03282969444990158,0.7703472375869751,-0.03683171048760414,-0.04154226556420326,-0.3691720962524414,0.13554061949253082,-0.667468786239624,-0.39656034111976624,-0.1161920577287674,-0.09301113337278366,0.04760657995939255,0.997840940952301,-1.2759366035461426,-1.099096655845642,0.39652958512306213,0.09743984788656235,0.059321437031030655,1.503745436668396,0.1596693992614746,-0.2579802870750427,-0.0686887800693512,-0.7877153158187866,-0.20630483329296112,0.5598569512367249,-0.2782103419303894,-0.12646250426769257,0.4660816490650177,0.8263998031616211,0.22649364173412323,-0.45953279733657837,0.2535596489906311,0.2694009244441986,-0.2725275754928589,0.07931660115718842,0.12584912776947021,-1.1322976350784302,0.1740969568490982,-0.2826279103755951,-0.576725959777832,0.08522321283817291,-0.3022066056728363,0.09541912376880646,0.005627673119306564,-0.02150316722691059,0.22969022393226624,-0.5991376042366028,2.5102124709519558e-05,-0.4699374735355377,-0.6675910353660583,0.4977969527244568,-0.134841188788414,0.16634014248847961,0.455330491065979,-0.8622235655784607,-0.11341461539268494],[-0.3788844347000122,-0.5252073407173157,-1.5944328308105469,-0.4126909673213959,0.21617814898490906,-1.7651995420455933,-0.9146333336830139,0.02418988011777401,-0.024108801037073135,-0.23321586847305298,0.576532244682312,1.0158597230911255,0.4721182584762573,0.09413743019104004,-0.20467427372932434,0.16012707352638245,-0.3627593517303467,-0.4491945505142212,-0.11589735001325607,0.013873908668756485,-0.33977165818214417,-1.1390068531036377,0.43958616256713867,0.07363501191139221,0.16213202476501465,-0.10117516666650772,1.0835753679275513,0.8065447807312012,0.01153318677097559,0.8279118537902832,0.305620938539505,0.4554320275783539,-0.3281090259552002,0.012379554100334644,-0.34024980664253235,0.20071782171726227,0.24165071547031403,0.24993526935577393,-0.5991928577423096,0.2834800183773041,0.6233664155006409,-0.5907657742500305,-0.2810027599334717,0.4590308666229248,-0.512822151184082,-0.11184421181678772,0.3443342447280884,-0.6536587476730347,0.6804628968238831,0.3860383927822113,-0.155354842543602,-0.7958066463470459,0.16802814602851868,0.2216273993253708,-0.08236135542392731,-0.22062432765960693,-0.30709999799728394,-0.2909935712814331,0.5555357336997986,-0.719485342502594,-0.1585385948419571,-0.2663772404193878,-0.39278724789619446,-1.1632715463638306,0.1099720224738121],[-0.09892198443412781,-0.4284655749797821,-0.9903591275215149,0.3383515775203705,-0.2690880000591278,0.3786735236644745,0.28755369782447815,0.050098393112421036,-0.3949161767959595,-0.0825791135430336,0.006173599977046251,0.7422418594360352,0.16598698496818542,0.039691489189863205,0.19472846388816833,0.30595695972442627,0.508425235748291,-0.5350037813186646,0.17400774359703064,0.11136185377836227,0.01253435667604208,0.23591594398021698,0.034540481865406036,-0.04420454055070877,-0.28953051567077637,-0.005414001643657684,-0.8670654892921448,0.24813440442085266,0.08592647314071655,0.2508609890937805,0.4527508020401001,0.016585825011134148,0.5862539410591125,0.06600191444158554,-0.19070647656917572,1.3444085121154785,0.4083845913410187,0.7178487777709961,0.14352865517139435,-0.18634118139743805,-0.10239449888467789,0.09327642619609833,-0.8435161709785461,0.1991204023361206,0.5645485520362854,-0.0768006443977356,0.09547436982393265,-0.7053019404411316,-1.6170233488082886,0.01583891548216343,0.21739590167999268,0.5898618698120117,0.24872496724128723,-0.39519307017326355,0.4461266100406647,0.6213164329528809,0.059249259531497955,0.5060383677482605,1.1883543729782104,-0.6169648766517639,-1.1708134412765503,-0.3415292501449585,0.24389122426509857,0.4031107425689697,0.38791579008102417],[0.5302144289016724,-0.12561319768428802,0.3053642511367798,-0.4337007999420166,-0.23577359318733215,0.38532665371894836,0.015802200883626938,-0.04175855591893196,-0.663284182548523,0.12878574430942535,-0.5959473252296448,-0.7520442605018616,0.6590797305107117,-0.05708818510174751,-0.11616470664739609,0.28521570563316345,0.16813960671424866,0.31245407462120056,0.8222113847732544,0.11864029616117477,0.21207238733768463,0.3216383755207062,0.03604789823293686,-0.23043805360794067,1.230680227279663,-0.009434384293854237,-1.6775317192077637,0.48624753952026367,-0.5199579000473022,-0.148160919547081,-0.058503538370132446,-0.4435279071331024,0.6696346402168274,0.5898973345756531,-1.0575857162475586,-0.7836730480194092,-0.41826191544532776,0.12173999845981598,-0.39779916405677795,-0.20617355406284332,0.17997153103351593,-0.5908752679824829,-0.4382936954498291,0.09519338607788086,-1.259329915046692,0.21769389510154724,0.03848933055996895,0.10757376253604889,-0.20351473987102509,-0.14321018755435944,-0.5936788320541382,-0.396111398935318,0.017954036593437195,0.3903755843639374,0.004268327262252569,-0.043740302324295044,0.028482388705015182,1.1433807611465454,1.5558308362960815,-0.2678897976875305,0.5736007690429688,-0.32050585746765137,-0.6215827465057373,-0.14776580035686493,-0.08490274846553802],[-0.15625333786010742,-0.4752641022205353,0.4177205562591553,0.16551396250724792,0.12086359411478043,0.1113351434469223,-0.9108088612556458,0.438760906457901,0.13731348514556885,0.23974968492984772,0.20405997335910797,0.1800357550382614,0.22829806804656982,0.09589377045631409,0.45247694849967957,-0.4967789351940155,0.12222153693437576,-0.566737949848175,0.09316033124923706,0.05450638756155968,0.42783674597740173,-0.037954892963171005,-0.40629103779792786,-0.05189482122659683,-1.0538691282272339,0.07060021907091141,3.080965042114258,0.9889452457427979,-0.522818922996521,-0.2816656827926636,0.16172710061073303,2.6798410415649414,0.14196842908859253,0.3132975995540619,0.0580950491130352,0.08546612411737442,-0.0674932673573494,1.1732276678085327,-0.14179570972919464,0.005387948360294104,0.19392192363739014,0.29384562373161316,-0.42458251118659973,0.1938634216785431,0.4178297519683838,0.3197169005870819,0.07275960594415665,-0.0012121928157284856,1.2152869701385498,0.12359747290611267,0.49054816365242004,-0.2691541016101837,-0.1544797569513321,0.14843417704105377,-0.03353876993060112,0.6556372046470642,0.09592576324939728,0.45426440238952637,0.2466013878583908,-0.6568117141723633,-0.10077261179685593,0.07058785110712051,0.23918180167675018,-0.24643848836421967,0.23726342618465424],[0.10880190134048462,0.5105773210525513,1.4783129692077637,0.4358549118041992,0.3292599022388458,0.7157727479934692,-0.5797500014305115,-0.013775799423456192,-0.11662711203098297,0.5523122549057007,0.3682938516139984,0.5720158219337463,-0.6466408371925354,-0.03331376239657402,-0.38384637236595154,-0.3876088857650757,0.5495457053184509,0.41103073954582214,-0.4747580587863922,-0.06679314374923706,0.7096759676933289,0.49838343262672424,0.21312390267848969,-0.1935066282749176,-0.7912085652351379,0.05196822062134743,-1.848752498626709,-0.9370117783546448,-0.04251499101519585,-0.05035741627216339,-0.47349849343299866,-0.44295281171798706,1.5437383651733398,-0.4531365633010864,-0.04592340067028999,-0.5588790774345398,0.10980366170406342,0.6529867649078369,0.005260888487100601,0.31027209758758545,-0.1917564570903778,0.15648427605628967,0.15375427901744843,-0.3935951292514801,0.07513818144798279,0.0038547893054783344,-0.13707071542739868,0.7248086333274841,0.09022417664527893,-0.12346343696117401,-0.246930330991745,0.12065817415714264,0.11718780547380447,0.019249210134148598,-0.11345108598470688,0.505985677242279,0.18609677255153656,-0.3263919949531555,-1.3853237628936768,0.2968253791332245,0.48980921506881714,0.25974392890930176,-0.09625732898712158,0.62068110704422,0.058677833527326584],[-0.21484316885471344,-0.12567342817783356,-0.37369832396507263,-1.387344479560852,-0.17370937764644623,-1.2060816287994385,-1.0810877084732056,-0.014107693918049335,0.5585793256759644,0.1403094232082367,-0.3024052679538727,-0.2374574989080429,0.016148755326867104,-0.0757603868842125,-0.5571261048316956,0.16765043139457703,-0.47623029351234436,0.1914341151714325,-0.42015331983566284,0.11458250135183334,-0.3237627148628235,0.560545027256012,-0.45956340432167053,-1.0182889699935913,0.07357706874608994,-0.06370629370212555,0.6782642006874084,0.4314524233341217,0.16052407026290894,0.18937420845031738,-0.09969955682754517,1.0572947263717651,-1.124537706375122,-4.4502394302980974e-05,0.25451135635375977,-0.628442108631134,-0.640828549861908,-0.09988248348236084,-0.5280274748802185,-0.0190799068659544,0.05992668494582176,-0.17414577305316925,0.6686293482780457,0.1290990710258484,0.0027891171630471945,-0.3184017241001129,0.09244370460510254,-0.19374306499958038,-0.25783663988113403,0.06092328205704689,-0.14962364733219147,0.6568187475204468,-0.06504281610250473,0.5480601191520691,-0.0929751768708229,-0.026225769892334938,-0.12221082299947739,-0.963837206363678,-0.8349305391311646,-0.7911918759346008,-1.0629316568374634,-0.20478889346122742,-0.033597301691770554,-0.2826913893222809,-0.08069568127393723],[-0.07601691782474518,0.2705228328704834,0.9374769926071167,-0.032178230583667755,0.002049405360594392,-0.681208610534668,-0.9732073545455933,-0.03440997004508972,1.2134922742843628,0.1621653437614441,-0.36580902338027954,-0.3265037536621094,-0.012304047122597694,-0.031967636197805405,0.6977590322494507,0.4287877678871155,-1.4762705564498901,-0.30183133482933044,0.2973986268043518,-0.0811130553483963,1.288421869277954,0.6063923835754395,-0.6266445517539978,-0.5787121653556824,0.49764344096183777,0.004151106812059879,0.4633474349975586,0.2048225998878479,-0.379760205745697,0.1832047402858734,0.4370298683643341,-0.5211330056190491,-1.468095302581787,-0.10622213780879974,-0.32321494817733765,0.6241281628608704,0.37564992904663086,0.2272554486989975,-0.00873389933258295,-0.6428084373474121,0.5224602222442627,0.15982334315776825,-0.573930561542511,0.5777103304862976,-0.20858092606067657,-0.8002617955207825,0.5014431476593018,-0.2835543751716614,-0.6065773963928223,0.23473761975765228,-0.47138839960098267,0.17386581003665924,0.2097327560186386,0.27329668402671814,0.19071970880031586,-0.5823478102684021,-0.4733958840370178,-0.4588582217693329,-0.030609125271439552,-0.47187528014183044,0.21179470419883728,-0.04063718765974045,0.31455862522125244,-1.1102721691131592,0.28389230370521545],[0.18499566614627838,0.26033130288124084,-0.6722797155380249,0.7007242441177368,-0.28293439745903015,0.3175349831581116,0.039624668657779694,0.3172697424888611,-0.380878746509552,-0.633465588092804,0.15332110226154327,0.5391817688941956,0.2868770360946655,-0.05141307786107063,0.44375455379486084,-0.25812646746635437,0.333992600440979,0.16386540234088898,-0.021168120205402374,0.12134844064712524,0.8854588866233826,0.3526647090911865,0.9384973645210266,0.6704418659210205,0.09388706088066101,-0.05214245989918709,0.30852654576301575,-0.6815105080604553,0.2464955449104309,0.2085016667842865,0.5381540656089783,0.0450180321931839,1.0887277126312256,-0.17700400948524475,0.542343258857727,0.0800493061542511,-0.15584741532802582,-0.662304162979126,-0.07405265420675278,-0.3538881540298462,0.4244172275066376,0.2107962965965271,-0.23215368390083313,0.42799603939056396,0.07378795742988586,-0.4324743151664734,0.5121496915817261,0.2582985758781433,-0.19317463040351868,0.4195270836353302,0.1462273895740509,-0.2663790285587311,0.41189122200012207,-0.409690260887146,-0.3555901348590851,0.6396257281303406,0.3835449516773224,-0.13786174356937408,-0.815185546875,0.5421356558799744,0.3552331328392029,0.43340158462524414,0.4641103744506836,0.46203938126564026,0.1115037277340889],[0.36025381088256836,-0.0011942923301830888,0.3563366234302521,-0.14782015979290009,-0.4093865752220154,0.3753509521484375,-0.2758140563964844,-0.18467040359973907,0.9580140113830566,0.05516428127884865,-0.1644447147846222,0.04925241693854332,-0.7936951518058777,0.010669806972146034,-0.6287453174591064,0.7126946449279785,-0.11683585494756699,0.09579382091760635,-1.390870451927185,0.09992516785860062,-0.2779453694820404,-0.6356169581413269,-0.20570187270641327,-0.18464791774749756,-0.7268887162208557,0.10346440970897675,2.605081796646118,0.6783360242843628,0.7703371644020081,-0.14307048916816711,-0.22113391757011414,-1.0208649635314941,0.1910829097032547,-0.03191893547773361,0.7793735861778259,-0.5014522671699524,-0.805341899394989,-1.4075968265533447,0.27792811393737793,-0.552987277507782,0.1375970095396042,-0.248026505112648,-0.24725449085235596,0.27033916115760803,-0.2548195719718933,0.5110644102096558,0.26024410128593445,0.13227257132530212,-0.6000978350639343,0.2733938992023468,0.21453996002674103,-0.2584557831287384,0.2696287930011749,0.27372732758522034,-0.4183099865913391,1.5512402057647705,0.2959595322608948,-0.16002662479877472,0.7067172527313232,-0.4762454032897949,0.8607091903686523,0.24832479655742645,0.29272201657295227,0.6450012922286987,-0.35362857580184937],[0.1488165259361267,0.15801867842674255,-0.14681556820869446,-0.5785178542137146,0.17176182568073273,0.08731424063444138,2.549694538116455,0.0049807233735919,0.5815941691398621,0.24621738493442535,-0.4826456904411316,-0.4582415521144867,0.1182621568441391,-0.027854928746819496,-0.620422899723053,0.407459020614624,-0.23080632090568542,-0.14249657094478607,-0.23578226566314697,-0.1179351881146431,-1.0929266214370728,0.26462802290916443,-0.767781138420105,-0.4224086105823517,-0.8897161483764648,0.07851605862379074,-1.676113486289978,0.6863835453987122,0.16588622331619263,0.4807713031768799,0.48722174763679504,-1.3320965766906738,-0.35944244265556335,-0.33899393677711487,-0.3050917685031891,-0.010829276405274868,0.5771288871765137,-0.3369700610637665,0.04485202208161354,0.758017361164093,-0.302249938249588,0.3230392336845398,0.5417274236679077,-0.2096509039402008,-0.0636724978685379,0.594996988773346,-0.34955453872680664,0.5944671034812927,-0.1866776943206787,-0.2685372829437256,-0.7264531254768372,0.32561278343200684,-0.113133005797863,-0.1367616355419159,-0.28042563796043396,-0.8645746111869812,-0.001228783279657364,-0.016509288921952248,0.15371382236480713,0.7391445636749268,-0.3380983769893646,-0.17144331336021423,0.5919849872589111,-0.06694889068603516,0.327959269285202],[0.4030267596244812,0.6454173922538757,0.9593058228492737,-0.7078607082366943,0.5892229080200195,-0.06889697164297104,-0.15213538706302643,0.4820302724838257,-0.3298782408237457,-0.6365563869476318,0.4350667893886566,0.8564935922622681,-0.06575191766023636,0.035326164215803146,-0.8895025253295898,-0.209080770611763,0.005868447013199329,0.284513920545578,-0.5860714912414551,-0.06210960075259209,-0.3023192882537842,-0.5621046423912048,0.099647656083107,-0.033517688512802124,0.35640114545822144,0.06257355958223343,0.8028442859649658,0.1404467523097992,0.5307852029800415,-0.07968484610319138,-0.10304811596870422,0.9625078439712524,0.3114553987979889,-0.06958191841840744,0.754521369934082,-0.16684865951538086,-0.38982057571411133,1.429834246635437,0.15178221464157104,-0.19981946051120758,0.17287126183509827,-0.3919253349304199,0.567914605140686,0.17167353630065918,-0.12739910185337067,0.1560298055410385,0.1860656440258026,0.5833116769790649,-0.09353796392679214,0.2050512135028839,-0.5634880065917969,-0.5678440928459167,0.28156545758247375,-0.3700837194919586,0.1449039876461029,-0.12914222478866577,0.3007872700691223,-0.3999458849430084,-0.6615601778030396,0.17977873980998993,0.664951503276825,0.061410654336214066,0.2473202645778656,0.40878984332084656,-0.1820553094148636],[0.22474634647369385,-0.4761350154876709,0.4235609471797943,-1.0347635746002197,0.2830246388912201,-0.38967105746269226,1.8366272449493408,0.16421206295490265,0.15028828382492065,1.095412015914917,0.12708976864814758,0.5298628211021423,0.36461105942726135,-0.07472070306539536,-0.07872945815324783,1.2820634841918945,-0.34581831097602844,0.1268617957830429,-0.015548670664429665,-0.03236088529229164,-0.17571741342544556,-1.0217125415802002,0.7249971628189087,0.5412295460700989,-0.6645918488502502,-0.09453621506690979,-0.3692859709262848,-0.40945541858673096,0.2796808183193207,0.6251364350318909,0.23565123975276947,0.14926934242248535,0.19852763414382935,0.0544593445956707,0.27170810103416443,0.02451220713555813,-0.5055675506591797,0.029510924592614174,-0.3914880156517029,-0.36390024423599243,0.236281156539917,-0.4097846746444702,-0.18392504751682281,0.5406649112701416,-0.21926440298557281,-0.7689625024795532,0.38909104466438293,-0.7621138095855713,-0.6759295463562012,0.4770857095718384,-0.03551983833312988,-0.719135046005249,0.606203556060791,-0.6085299253463745,0.7631223797798157,-0.3745129704475403,-0.11829070001840591,-0.3024451434612274,-0.494928777217865,0.04404059424996376,-1.0160568952560425,-0.05187229439616203,-0.11245287209749222,0.24622780084609985,-0.03667574003338814],[-0.1277773082256317,-0.5236104130744934,0.5372397303581238,-1.2254029512405396,0.031219689175486565,0.2060704231262207,-0.5740389823913574,0.0075225867331027985,-0.10680391639471054,1.0830127000808716,0.03521059453487396,-1.271384835243225,-0.28149858117103577,-0.10330110043287277,-0.012639854103326797,-0.6154578328132629,0.48984262347221375,0.2477203756570816,-0.04694405570626259,0.10821781307458878,1.1326370239257812,1.7508931159973145,0.0857895016670227,0.18979184329509735,-0.9567455649375916,-0.028343357145786285,-0.16787230968475342,0.5692081451416016,0.32177743315696716,0.13045810163021088,-0.2638125717639923,0.23968268930912018,-1.2291781902313232,0.04764449968934059,0.002921900013461709,0.2813904881477356,0.17029418051242828,0.8314093947410583,-0.02874423749744892,-0.37748387455940247,0.17566817998886108,0.5382564663887024,-0.4184074103832245,0.23834773898124695,-0.29205408692359924,-1.0737593173980713,0.2862333655357361,-0.6007605791091919,0.18963925540447235,0.16394005715847015,-0.6448299884796143,-0.7505536675453186,0.35298487544059753,0.042551327496767044,0.38639676570892334,0.30485233664512634,-0.1958952248096466,0.8854246139526367,1.7316170930862427,-0.28176939487457275,0.18494142591953278,-0.041668154299259186,-0.2346264272928238,0.051226500421762466,-0.17888635396957397],[0.011912842281162739,0.13466611504554749,0.050321560353040695,-0.5498510599136353,-0.15120571851730347,1.017412781715393,0.8696016669273376,-0.47361043095588684,-1.5558112859725952,-0.7719024419784546,0.34950587153434753,-0.4708615839481354,-0.2601734697818756,-0.03351418673992157,-0.4990805685520172,0.1413687765598297,0.13836707174777985,-0.3044896125793457,0.5338365435600281,-0.08087264746427536,-0.805672287940979,-0.3003823459148407,0.23537911474704742,-0.5284175872802734,0.6072865128517151,-0.025023391470313072,-1.4384130239486694,-0.2232973575592041,-0.4335419535636902,-0.699551522731781,-0.3886938989162445,-1.4719500541687012,-0.05337105691432953,0.030009081587195396,-0.5029850006103516,0.11263906210660934,0.08808286488056183,0.7479145526885986,0.47610530257225037,0.25587818026542664,-0.36962613463401794,0.3326301872730255,0.3094756007194519,-0.3771689236164093,0.1573086678981781,-0.23803937435150146,-0.30619701743125916,0.3470095098018646,-0.30295196175575256,-0.24850772321224213,0.23992078006267548,0.11065005511045456,-0.15544843673706055,-0.2970356047153473,-0.4147791862487793,-0.46286192536354065,-0.2381564825773239,-0.5826440453529358,0.3026319146156311,0.6154276132583618,-0.7104835510253906,0.03461431339383125,-0.019431881606578827,-0.24010789394378662,-0.29298198223114014],[-0.08286572992801666,-0.1686072200536728,0.321027010679245,-0.058360882103443146,0.1311132311820984,0.6740249991416931,2.1060783863067627,-0.46561574935913086,1.2900902032852173,0.3262573778629303,-0.06348210573196411,0.24832460284233093,0.6708267331123352,0.0861930251121521,-0.2631412744522095,-0.29418203234672546,0.6366814374923706,0.5837448239326477,0.07578258216381073,-0.03363095223903656,-0.5244819521903992,-0.018602008000016212,0.3854283094406128,0.7110058069229126,-0.2631211578845978,0.09447001665830612,-0.2870512306690216,0.4358882009983063,-0.0773468092083931,-0.18326063454151154,-0.34666433930397034,-1.8540183305740356,0.9974716901779175,0.509772002696991,-0.7645902037620544,-0.19610251486301422,0.13879628479480743,-0.5076540112495422,0.5085452198982239,0.8106799125671387,-0.1815117448568344,0.5639761090278625,-0.12726718187332153,-0.01996464468538761,0.6517839431762695,-0.3351587951183319,-0.006619620136916637,0.12405220419168472,0.0732889398932457,0.10990589112043381,-0.5031610727310181,0.5862120389938354,0.2815462648868561,-0.44133585691452026,-0.030182452872395515,-0.7454630136489868,0.2757839858531952,-0.07213327288627625,0.4696103036403656,0.9386469721794128,0.012203953228890896,0.14849574863910675,-0.3772349953651428,0.4045271873474121,-0.3720443844795227],[-0.3675527572631836,0.3483287990093231,-1.1338930130004883,0.1168157309293747,-0.0014553240034729242,0.18715445697307587,0.22057799994945526,-0.20408768951892853,0.4924122393131256,-0.8025019764900208,0.43650081753730774,-0.37816205620765686,-0.6430147290229797,-0.0025240746326744556,-0.5886439681053162,0.02851506695151329,-0.7422932386398315,-0.8426777720451355,-0.6982300877571106,-0.06821396946907043,0.3618379533290863,0.6694130301475525,-0.817276656627655,-1.2528003454208374,-0.3925812840461731,-0.040509264916181564,1.1427172422409058,0.11058104783296585,-0.3208436071872711,0.12965644896030426,1.1911108493804932,1.0734268426895142,-0.1082795113325119,0.15556029975414276,-0.4316685199737549,-0.10074169933795929,-0.04034791141748428,-0.10776984691619873,0.2572871446609497,-0.23248520493507385,0.37524405121803284,-0.26883646845817566,-0.5032544136047363,0.45797884464263916,0.3393694758415222,-0.5191609263420105,-0.05282285064458847,0.3719913959503174,-1.278532862663269,0.12951800227165222,-0.5001081824302673,-0.0584932379424572,-0.19521856307983398,0.593329131603241,-0.356402724981308,-0.9994084239006042,0.06793437153100967,-0.3864397704601288,0.34620237350463867,0.46082156896591187,1.1094774007797241,-0.5704993009567261,0.9167191982269287,-0.3369637131690979,0.41081875562667847],[0.07182350754737854,-0.5485653281211853,-0.27287986874580383,0.5760019421577454,0.08242496848106384,1.2783664464950562,1.569421648979187,0.35808831453323364,-0.7618485689163208,0.16121242940425873,-0.2122488021850586,0.34761980175971985,-0.7201917171478271,0.10826214402914047,-0.2682085633277893,0.09731646627187729,0.3224123418331146,0.3897774815559387,-1.1187351942062378,0.00019604880071710795,-0.28516873717308044,-0.034861136227846146,0.6122419834136963,-0.003650597296655178,-1.2893376350402832,-0.024287886917591095,0.22230057418346405,-0.6879659295082092,0.0034597893245518208,0.02645835094153881,0.045551594346761703,-0.5682094693183899,2.0385637283325195,0.01723012514412403,0.33779609203338623,0.3475940227508545,-0.06079297885298729,-0.5091629028320312,0.7309744954109192,1.115178108215332,-0.08830714970827103,0.6625799536705017,-0.04012298211455345,0.023449841886758804,0.7682461142539978,0.09941717982292175,0.059791091829538345,-0.44297659397125244,-0.12062082439661026,-0.003084251657128334,0.8439676761627197,-0.07886224240064621,0.033982664346694946,-0.8557374477386475,0.31758415699005127,-0.2897445261478424,-0.11214134097099304,0.5089883804321289,-1.0209238529205322,0.5135467052459717,0.5080870985984802,-0.09363935142755508,-0.22097909450531006,0.3297748267650604,0.00021905302128288895],[0.11832629889249802,0.17359738051891327,1.3822107315063477,-0.7861797213554382,-0.3556572496891022,-0.3762222230434418,2.5396804809570312,-0.024490617215633392,0.7453611493110657,-0.28344565629959106,0.23487575352191925,0.10777736455202103,0.05814149230718613,0.07609482109546661,-0.1363481879234314,0.26111268997192383,-0.19585756957530975,-0.12058079987764359,-0.9199694991111755,0.09259998798370361,0.04841714724898338,-0.773749828338623,0.1889043152332306,-0.3017176389694214,-0.31913259625434875,-0.07105720043182373,0.2014031708240509,0.15857796370983124,0.5110817551612854,-0.6551296710968018,-0.4855040907859802,-0.7314285635948181,0.8695058226585388,-0.3671913743019104,0.567186713218689,0.26893743872642517,0.3603924810886383,-0.04929579421877861,0.26857689023017883,0.10101339966058731,0.10965411365032196,-0.4812192916870117,-0.16447293758392334,0.0716547816991806,0.10542534291744232,1.1483337879180908,0.20070146024227142,0.44955122470855713,-0.8432834148406982,0.1481667309999466,-0.10028652846813202,-0.03974374756217003,-0.05874578654766083,0.32708242535591125,-0.10792417079210281,0.3520556390285492,0.5480599403381348,0.23575542867183685,-0.7832018733024597,0.6408451795578003,0.6946568489074707,-0.01727554388344288,0.6978521347045898,0.6202180981636047,0.06626883149147034],[0.5096389651298523,-0.3137749135494232,0.49664539098739624,-0.26351264119148254,-0.6057235598564148,1.1668105125427246,-0.5062925219535828,0.5969228744506836,-0.03896660730242729,0.8827933073043823,-0.027320457622408867,0.6778736114501953,-1.0811699628829956,0.0756610557436943,0.5698670744895935,0.958016037940979,-0.2691483199596405,-1.0310344696044922,-0.5896804928779602,-0.036495108157396317,0.2430168241262436,-0.6661603450775146,0.00989231001585722,-0.30631598830223083,-0.3000090420246124,0.11317279189825058,3.2917490005493164,-0.00823469739407301,0.4156047999858856,-0.08821986615657806,0.1048688217997551,0.6226516962051392,0.7432348728179932,-0.39006301760673523,0.9424960017204285,0.4733147919178009,0.12696276605129242,-0.829498827457428,0.1586991399526596,-0.2751241624355316,0.5171427726745605,-0.5729888081550598,-0.31885674595832825,0.5707577466964722,0.0622197762131691,-0.06377264857292175,0.5975809693336487,-0.6574095487594604,0.11956389248371124,0.5968047976493835,0.18110159039497375,-0.22586913406848907,0.48587092757225037,0.16345860064029694,