{"topology":"mlp_tanh_3layer","input_dim":65,"output_dim":18,"source":"model_cqb.onnx","layers":[{"w":[[-0.43965908885002136,-0.2200189083814621,0.9585033655166626,-1.4800981283187866,-0.08501707017421722,-0.4905250072479248,1.9278873205184937,-0.34264281392097473,0.7228634357452393,0.33384743332862854,0.01484363991767168,0.09307627379894257,0.8250887393951416,-0.07115662097930908,-0.18577663600444794,0.528066873550415,-0.22456102073192596,-0.3873171806335449,-0.37417900562286377,0.06057826429605484,-0.3585757315158844,-0.63747638463974,-0.5262171626091003,-0.4259622395038605,-0.21641352772712708,-0.10729598999023438,-0.27970948815345764,-0.7236707806587219,0.09078481048345566,0.20592281222343445,0.3030237555503845,0.1179356500506401,-0.04578226059675217,0.3870091140270233,-0.14845484495162964,-0.8233751654624939,0.02490406297147274,1.4333692789077759,0.3938765525817871,1.1292301416397095,-0.13575972616672516,-0.4851299524307251,0.6366599798202515,0.1581486165523529,-0.38289493322372437,0.5404355525970459,-0.08647814393043518,-0.6577927470207214,0.43426838517189026,-0.011219732463359833,-0.07573459297418594,-0.07442840188741684,-0.047847215086221695,0.043075744062662125,0.9418755769729614,-1.0127005577087402,-0.1477465033531189,0.07922211289405823,-0.3795531392097473,0.7954629063606262,0.17667941749095917,-0.5328883528709412,0.11518071591854095,0.04796983301639557,0.0073072463274002075],[-0.35290607810020447,0.3267677128314972,0.1383349895477295,0.6296877861022949,0.10937753319740295,-0.6545738577842712,-1.389068841934204,0.11323857307434082,0.4937468469142914,-0.019759392365813255,0.5920411348342896,0.2229882776737213,0.5561547875404358,-0.06026111915707588,0.26844266057014465,0.0007927297265268862,0.21470968425273895,0.08602716028690338,1.4170283079147339,0.11363023519515991,0.7126188278198242,0.46922120451927185,0.40689656138420105,0.31714388728141785,0.9249140024185181,-0.041011326014995575,-0.8106244206428528,-2.1134033203125,-0.2180473655462265,0.33289700746536255,0.04814463108778,-1.2353489398956299,0.3477214574813843,-0.1385144591331482,0.3711763620376587,0.2736699879169464,0.562792956829071,-0.8215445876121521,0.18937723338603973,0.15493150055408478,-0.03843814134597778,0.6435887217521667,0.10676182061433792,-0.09849416464567184,-0.22348876297473907,-0.3900788724422455,-0.20427612960338593,0.8877862095832825,0.26366281509399414,-0.014263653196394444,-0.24266719818115234,0.47435078024864197,-0.2835986018180847,0.4113871455192566,0.2214493453502655,-0.6049360632896423,0.042535584419965744,-0.6420852541923523,-0.9101095199584961,0.884215772151947,0.5284593105316162,0.16451172530651093,-0.2759499251842499,0.1413315236568451,0.16309985518455505],[-0.3143293261528015,-0.39022231101989746,0.21114666759967804,-0.9068244695663452,0.07345845550298691,-0.6394510269165039,-0.6556075811386108,-0.1600925773382187,0.5949820280075073,0.3218630254268646,0.2603331208229065,0.7440789341926575,0.26830434799194336,-0.11284957081079483,-0.042028944939374924,0.7263620495796204,0.03148382902145386,0.18385690450668335,0.9393225312232971,-0.06142290681600571,0.9203023910522461,0.16011427342891693,0.6228950619697571,0.0923231840133667,1.2327762842178345,-0.042086511850357056,0.8703093528747559,0.8202331066131592,0.36860835552215576,-0.20347106456756592,-0.08018277585506439,-0.6058904528617859,-0.9757562279701233,-0.12035723775625229,0.08941467851400375,0.7746797800064087,-0.03372053802013397,0.16300170123577118,0.12988436222076416,0.45542335510253906,-0.35020697116851807,0.006490367464721203,0.09159258008003235,-0.20498551428318024,0.10416975617408752,-0.21533100306987762,-0.3767588436603546,-0.23030151426792145,-0.29778555035591125,-0.24484051764011383,1.833998680114746,0.22445890307426453,-0.16164419054985046,0.44407182931900024,0.32078826427459717,0.1412913054227829,0.0835343599319458,-0.7042719721794128,-0.2614993453025818,-0.2658199667930603,-0.6120508313179016,-0.3717205226421356,0.16793228685855865,0.03204064443707466,-0.16955780982971191],[-0.2718900144100189,-0.7362967133522034,-0.5976887345314026,0.5960074663162231,0.3488363027572632,-0.250377357006073,0.17964409291744232,-0.07862009108066559,1.5064388513565063,1.0960533618927002,0.6047276854515076,1.1022648811340332,0.4481622278690338,-0.05840720981359482,0.7736597061157227,0.5797427892684937,0.5694257020950317,0.45247140526771545,0.01481508556753397,-0.09236596524715424,0.7399342656135559,-1.05466628074646,0.7527474761009216,0.9409967064857483,0.4189513921737671,-0.10650242120027542,1.7877846956253052,0.5014023780822754,0.9686602354049683,0.9088477492332458,0.03979039192199707,-0.12480606138706207,-0.49555519223213196,0.5144683718681335,0.7834873795509338,0.5885223746299744,0.0504876971244812,-0.1739637404680252,0.2866910994052887,0.3780824542045593,0.19019827246665955,-0.22058802843093872,0.4052271842956543,0.15473464131355286,0.08249098807573318,0.2543521225452423,0.13677433133125305,0.1786612868309021,-0.2466464787721634,0.35825175046920776,0.6400173902511597,-0.030366789549589157,0.1734195500612259,0.8517249226570129,0.05352316424250603,0.9607830047607422,0.24628525972366333,-0.3443598747253418,0.5522949695587158,-0.09790074825286865,0.28157514333724976,0.2726535499095917,-0.3338426947593689,0.6949188709259033,0.026565592736005783],[0.20859231054782867,0.5051265954971313,1.9724069833755493,0.8531246781349182,0.39452528953552246,0.23311054706573486,0.23850767314434052,0.1501566469669342,0.15389738976955414,-0.5434086322784424,-0.11647326499223709,0.2720440924167633,-0.9008510112762451,0.023521892726421356,0.02985313907265663,-1.0056322813034058,0.29346826672554016,0.10775920003652573,-0.27210867404937744,-0.1044379398226738,0.068526491522789,-0.3026435971260071,0.5958788990974426,0.7482149600982666,0.20474110543727875,-0.05244198068976402,-0.12959399819374084,-1.8347218036651611,-0.29443681240081787,0.49395838379859924,0.13654591143131256,-0.781000554561615,0.9197580814361572,-0.4214378595352173,-0.3392418920993805,-0.7414718866348267,-0.2931720018386841,-0.8970355987548828,0.19415906071662903,0.7658238410949707,0.0495251789689064,-0.052708372473716736,0.1856795698404312,-0.0013599201338365674,0.21640413999557495,0.8466613292694092,-0.04511173442006111,0.6402143836021423,-0.5730998516082764,-0.028416773304343224,-0.6837847828865051,0.23970714211463928,-0.06729763746261597,-0.4464958608150482,0.014565641060471535,-0.0774233341217041,0.0005279351025819778,-0.6566565632820129,-0.4275036156177521,1.0265772342681885,0.28395476937294006,0.2630740702152252,-0.36782681941986084,0.27247586846351624,0.07495397329330444],[-0.5849542021751404,-0.1521170437335968,1.436629056930542,0.4976593554019928,-0.9262398481369019,0.09291132539510727,0.3172397315502167,-0.6150884032249451,0.9791076183319092,-0.5204836130142212,0.39968985319137573,0.6593023538589478,1.1068260669708252,0.09389461576938629,1.3193942308425903,0.6633179187774658,-0.44919276237487793,0.24858371913433075,0.37955242395401,-0.05710870772600174,-0.3201755881309509,0.6047214865684509,-0.09596475213766098,0.15929916501045227,0.3155401945114136,0.07067500799894333,0.3644832372665405,-0.1303327977657318,0.14225706458091736,0.8644616007804871,0.5476981997489929,-0.050508011132478714,-0.891811192035675,1.0058900117874146,0.8086771368980408,0.31019145250320435,0.17027665674686432,-0.4589165151119232,-0.4250434637069702,-0.22203505039215088,0.44141295552253723,0.1390669047832489,0.016721731051802635,0.5379090905189514,-0.22821643948554993,-0.5156668424606323,0.5362346172332764,0.07657278329133987,-0.8687794208526611,0.6792811751365662,-0.12771283090114594,0.13774999976158142,0.3530552387237549,0.9269847869873047,0.40905532240867615,0.23755347728729248,-0.14330491423606873,0.043244246393442154,-0.26248905062675476,-0.12910917401313782,-0.6521415710449219,-0.018285982310771942,-0.2981438636779785,0.0014535094378516078,-0.03963102400302887],[0.1440824419260025,0.47015759348869324,1.3848079442977905,0.7707471251487732,-0.05734502524137497,0.6730847954750061,-1.5196160078048706,0.19965052604675293,0.6786772608757019,-0.7864762544631958,0.4167293310165405,-0.35108140110969543,0.2118569314479828,0.04337656870484352,1.002354621887207,-0.012362179346382618,0.3077337145805359,0.16797158122062683,0.055575162172317505,0.003510913345962763,0.11137507110834122,0.850324809551239,0.6921519041061401,0.7285862565040588,0.09471773356199265,0.12092620879411697,-1.0192515850067139,-1.180163025856018,-0.4014015793800354,0.26584744453430176,0.12463756650686264,-0.042686257511377335,0.06166965514421463,-0.5981441140174866,0.34556451439857483,0.14808037877082825,0.3917800188064575,-0.24668818712234497,0.3198689818382263,-0.3744708299636841,0.24129846692085266,0.4045884609222412,-0.7019287943840027,-0.0621902272105217,0.7066122889518738,-0.2422582358121872,0.1425677388906479,0.6128036975860596,-0.1162116751074791,0.14981046319007874,0.18664944171905518,0.06092524901032448,-0.007708069868385792,0.2666762173175812,-0.7868140935897827,0.27851101756095886,0.1907958984375,0.8165706396102905,-0.599468469619751,0.4724975526332855,-0.5355269312858582,0.17947500944137573,0.04494834318757057,0.5910716652870178,0.07607454806566238],[-0.1755228489637375,0.30071836709976196,0.863551914691925,1.3389458656311035,-0.6157302856445312,0.29745179414749146,0.6536702513694763,-0.01627541333436966,-0.45380228757858276,-0.5043255090713501,-0.26683101058006287,0.24130290746688843,0.3028181195259094,-0.018059806898236275,0.11379839479923248,-0.19602620601654053,0.21348971128463745,0.9679780006408691,0.7153868675231934,-0.12198379635810852,-0.10487475991249084,0.3739553391933441,0.5041619539260864,0.6138889193534851,0.8258200287818909,0.0965832993388176,-1.65642511844635,-0.5923094153404236,0.6990881562232971,0.35658538341522217,0.378082811832428,0.6755216121673584,0.9269838333129883,0.4710259735584259,0.04154590889811516,-0.5367850065231323,0.2933923602104187,0.013856163248419762,0.13448010385036469,1.430820345878601,-0.7149937152862549,1.7052541971206665,0.11945760250091553,-0.5912578701972961,-0.6786541938781738,0.567342221736908,-0.6614974141120911,0.4971538484096527,0.21897298097610474,-0.5240582823753357,-0.05421316251158714,0.7792997360229492,-0.5446685552597046,-0.07890543341636658,-0.18697895109653473,-0.5344394445419312,0.0014070681063458323,0.10134946554899216,-0.24363204836845398,0.6883321404457092,-0.42889168858528137,0.30629828572273254,-0.16761085391044617,0.02809237502515316,0.2788802981376648],[0.27000629901885986,-0.14075689017772675,-0.4624113440513611,0.9993867874145508,0.2782004177570343,0.42743366956710815,0.9733673930168152,0.3361518085002899,-0.6073970794677734,0.07489904016256332,-0.07699304074048996,-1.5826324224472046,-0.550350546836853,-0.04307679459452629,-0.7961883544921875,1.2468359470367432,-0.44216012954711914,-0.012558515183627605,-0.35536089539527893,0.12389850616455078,-0.45493578910827637,-0.44675958156585693,0.014992364682257175,-0.014534186571836472,-0.15182888507843018,0.09684183448553085,-1.0597164630889893,0.3287716507911682,0.40441903471946716,-0.3274177610874176,-0.27257972955703735,-0.9341339468955994,0.7044356465339661,0.7827177047729492,-0.23372778296470642,0.034852705895900726,0.17508172988891602,0.48574766516685486,-0.06340962648391724,0.5314006805419922,-0.14432735741138458,0.31495559215545654,0.08735428750514984,-0.3975427448749542,-0.26500362157821655,-0.08455462008714676,-0.3097563087940216,0.7579236030578613,0.3929213285446167,-0.2390093356370926,-0.14892207086086273,0.2391311526298523,-0.2694837152957916,-0.2973240315914154,0.7249950170516968,-0.7632315158843994,-0.01374004315584898,0.3736269474029541,0.957554817199707,-0.17023883759975433,-0.7110125422477722,-0.1694057583808899,0.25703173875808716,-0.02464195154607296,0.10184625536203384],[-0.9045337438583374,-0.2826215326786041,-0.5847474932670593,0.284400075674057,0.3617058992385864,-1.2132694721221924,0.4703020751476288,0.0750507041811943,0.4815411865711212,-0.8181893825531006,0.17266111075878143,-0.2709311246871948,0.09622416645288467,-0.0051454417407512665,0.5239623785018921,-0.7407524585723877,-0.6461367607116699,-0.46110549569129944,0.11574672162532806,0.03430355712771416,0.6426432728767395,-0.194609135389328,0.41953322291374207,0.09819033741950989,1.7682465314865112,0.04725703224539757,-1.131585955619812,0.08821350336074829,-0.27635708451271057,0.14958058297634125,0.21839109063148499,-0.3823864161968231,-1.3336023092269897,0.010585309006273746,-0.22648181021213531,-0.4771535396575928,-0.16078291833400726,0.19888706505298615,0.19897377490997314,-0.30495747923851013,-0.5614739060401917,0.11809539049863815,0.6290328502655029,-0.37104058265686035,-0.4331928491592407,0.263148695230484,-0.5846489667892456,0.9322310090065002,-0.03550860285758972,-0.7648016214370728,0.35879531502723694,0.8707495927810669,-0.714430034160614,0.5295333862304688,-0.08588901162147522,-1.1508737802505493,-0.5260336399078369,-0.1465098261833191,-0.24250784516334534,-0.08579577505588531,-0.048453185707330704,-0.14113397896289825,-0.14878813922405243,-0.6750977635383606,0.06897709518671036],[0.17278508841991425,0.6332786083221436,-0.38148993253707886,0.1187388226389885,-0.25190702080726624,0.18194124102592468,2.348569869995117,-0.8146638870239258,0.858467698097229,0.5707364678382874,-0.5717717409133911,-0.927560567855835,1.6865882873535156,0.0029728917870670557,0.07851602882146835,0.04116354137659073,-0.44126519560813904,-0.08763322234153748,0.5475173592567444,0.030714187771081924,0.23376289010047913,0.008654775097966194,-0.6822474002838135,-0.44486474990844727,0.24964170157909393,-0.09120141714811325,0.014802051708102226,-0.034230250865221024,0.07400671392679214,0.15329058468341827,0.12520234286785126,1.617924451828003,-0.830650269985199,-1.313619613647461,0.2424999177455902,0.15539376437664032,0.09197089076042175,0.5308356285095215,0.281055212020874,0.0002482182753738016,-0.2543816566467285,0.09444701671600342,-0.3089370131492615,-0.07952211052179337,0.09520057588815689,0.09198590368032455,-0.07002663612365723,0.007379385642707348,-0.12477411329746246,-0.2631171941757202,0.6777021288871765,-0.18889223039150238,-0.29751110076904297,0.8070453405380249,-0.4788416028022766,0.6028668880462646,0.3177749812602997,0.8106129169464111,0.38538578152656555,0.08834701031446457,0.08026819676160812,-0.12255595624446869,0.6627696752548218,0.19721263647079468,-0.21204087138175964],[-0.07105047255754471,0.047139573842287064,0.3031408190727234,0.15797676146030426,-0.6234942078590393,0.7221284508705139,1.980831503868103,-0.7623500227928162,0.771864116191864,0.21495836973190308,0.3242632746696472,1.1908522844314575,0.49606114625930786,-0.04794727638363838,0.11669465154409409,0.14831212162971497,0.6779788732528687,0.8680702447891235,-0.1297163963317871,0.12243005633354187,0.6285598278045654,-0.5306347608566284,0.5575546026229858,1.318780541419983,-0.35583627223968506,0.07171488553285599,0.07260369509458542,-0.384307861328125,0.18251031637191772,-0.32732725143432617,-0.36675047874450684,-0.9849490523338318,0.8728492856025696,-0.3440225422382355,-0.15213565528392792,0.689936101436615,-0.31455737352371216,-0.2963363826274872,0.2723214626312256,0.018158016726374626,0.06952916830778122,-0.804879367351532,0.1728844791650772,-0.014726522378623486,0.47502413392066956,-0.03785184770822525,0.0923255905508995,0.13438215851783752,0.11641912162303925,0.009722587652504444,0.10307958722114563,-0.5576830506324768,0.18651048839092255,0.3467952311038971,0.32390695810317993,0.6792122721672058,0.6211808323860168,-0.37998896837234497,0.5092585682868958,0.3658207654953003,-0.24343480169773102,-0.09336531907320023,-0.5014365911483765,1.030652403831482,-0.3770716190338135],[-0.6700298190116882,-0.6200951337814331,-0.33990195393562317,-0.31460127234458923,-0.1327746957540512,-0.7362777590751648,0.6469403505325317,-0.6501033902168274,0.9654155969619751,-0.4783933758735657,-0.2898222804069519,0.0697174221277237,0.1652863323688507,0.0604495070874691,-0.21495699882507324,-0.18673868477344513,-1.025765061378479,-0.8661676645278931,-0.4859044849872589,-0.10766644030809402,0.25079891085624695,-0.6030580997467041,-0.551198422908783,-0.7671253681182861,0.37747541069984436,0.09473136067390442,0.5633684396743774,0.8422125577926636,-0.16819795966148376,-0.11757758259773254,0.18664608895778656,0.42359206080436707,-0.606978714466095,0.13257935643196106,-0.8192225694656372,0.10854677855968475,-0.00956055149435997,0.2377965748310089,0.21552696824073792,-0.0440085344016552,-0.5161699056625366,0.023185646161437035,0.15555718541145325,-0.2867823541164398,-0.5274389982223511,0.5127427577972412,-0.541299045085907,0.1018388494849205,-0.08370772004127502,-0.5564652681350708,0.22730734944343567,0.16257278621196747,-0.8046653270721436,0.1114429384469986,0.04685148969292641,-1.0177905559539795,-0.6850294470787048,-0.19061389565467834,1.1161322593688965,0.04691021889448166,0.3046305477619171,-0.45053601264953613,-0.42924070358276367,-1.126076340675354,-0.2464073747396469],[0.3352311849594116,-0.04733330383896828,-0.9211868643760681,-0.3364671468734741,-0.5861864686012268,0.654297411441803,-1.6281332969665527,-0.31080082058906555,-1.3365408182144165,-0.31277838349342346,0.31453266739845276,0.1738886833190918,-0.4204866588115692,0.09228489547967911,-0.6343243718147278,-0.3828708231449127,0.6651917695999146,0.465631902217865,-0.4405471384525299,0.03812798112630844,-0.2923872768878937,-0.2724224328994751,-0.043770842254161835,-0.04970598593354225,-0.3070445954799652,-0.024240201339125633,-0.06236906349658966,-0.33938515186309814,0.4274168908596039,-0.3115575909614563,-0.22303496301174164,-0.03512638434767723,0.5580682158470154,-0.5596145987510681,0.5025123357772827,0.11253708600997925,-0.20266933739185333,0.3390849232673645,-0.42486387491226196,0.04691872373223305,-0.06572850048542023,-0.331784188747406,0.2025551050901413,-0.20150519907474518,0.024784671142697334,0.010193922556936741,0.04831935837864876,0.12932679057121277,-0.4367793798446655,-0.10707313567399979,0.1831633746623993,-0.44906967878341675,0.1777956634759903,-0.0376947857439518,-0.03381967172026634,1.663500428199768,0.09092587232589722,0.45838111639022827,0.05087880790233612,-1.361230731010437,0.18842488527297974,-0.0929303839802742,-0.5008788704872131,0.17056462168693542,-0.29129141569137573],[-0.13921409845352173,-0.11037907749414444,-0.6564944386482239,0.24127821624279022,-0.017761506140232086,-1.189889669418335,1.103803277015686,-0.27411121129989624,0.9853174686431885,0.17713913321495056,0.5188259482383728,1.3626905679702759,1.1144286394119263,-0.005694109480828047,0.4374145567417145,1.2427009344100952,0.2930055856704712,0.43329083919525146,-0.3838478922843933,-0.08251947909593582,0.304034560918808,-0.5695693492889404,0.7122513651847839,0.9677730798721313,0.34919261932373047,-0.04617823660373688,1.044061541557312,0.9641172289848328,0.12125948816537857,0.1972963809967041,0.15494583547115326,-0.36516913771629333,-0.7833045125007629,0.12028291076421738,0.44090214371681213,0.19957275688648224,0.11755069345235825,-0.8443816304206848,0.17998243868350983,0.11035346984863281,-0.4052337408065796,0.10516873747110367,0.8040082454681396,-0.4293496906757355,0.36292317509651184,0.45811861753463745,-0.44632580876350403,0.09892015159130096,-0.07423917949199677,-0.38391080498695374,-0.42748796939849854,0.8423404693603516,-0.22596599161624908,0.7915252447128296,0.017209794372320175,0.04698475822806358,0.44174033403396606,0.20819061994552612,-0.16565513610839844,0.16700436174869537,-0.28945937752723694,-0.1417752206325531,0.6140836477279663,0.854560136795044,-0.014691373333334923],[-0.4920854866504669,0.010404333472251892,0.4460202157497406,0.43905243277549744,-0.2250751256942749,0.09946246445178986,-0.9708337187767029,0.05470997840166092,0.46097883582115173,-0.4522891640663147,-0.015226929448544979,0.397582471370697,-0.8826828598976135,-0.026444438844919205,-0.022837622091174126,-0.6115617752075195,-0.41368767619132996,-0.7101936340332031,-1.7057812213897705,-0.022778404876589775,0.020944954827427864,-0.49330195784568787,-0.894345223903656,-0.5701234936714172,-0.6911396980285645,-0.052024126052856445,2.0309104919433594,-0.04241795465350151,-0.3994307219982147,-0.08968202769756317,-0.36393070220947266,0.9577915072441101,-1.5485124588012695,-0.6188662648200989,0.29994526505470276,0.3654968738555908,-0.1551259458065033,0.00872608833014965,-0.1467595249414444,0.2565740644931793,-0.3512859344482422,0.4526579976081848,0.0753386840224266,-0.3031044602394104,0.6689905524253845,0.22516947984695435,-0.448700875043869,-0.2007044553756714,-0.17876318097114563,-0.32860061526298523,0.9328128695487976,-0.0035683480091392994,-0.32131248712539673,0.718995988368988,-0.46834349632263184,0.21614830195903778,-0.12676702439785004,-0.015096716582775116,-1.081477165222168,-0.5921922922134399,-0.21753452718257904,-0.12351644784212112,-0.1446624994277954,-0.7438299059867859,0.011381438933312893],[-0.21600021421909332,1.0328967571258545,0.9397424459457397,-1.373149037361145,-0.32681283354759216,-0.7724823355674744,0.3281410038471222,-0.2244691699743271,0.0744650810956955,-1.0217804908752441,0.7893822193145752,0.2839433550834656,0.4895079731941223,-0.06426510214805603,-0.4256938099861145,-1.1128990650177002,0.14305973052978516,0.6238696575164795,0.5573260188102722,-0.07308933883905411,-1.1980117559432983,0.06103752180933952,0.12227316945791245,0.43727147579193115,0.32623419165611267,-0.04737026244401932,0.2894604504108429,-1.2881211042404175,0.34165331721305847,-0.0944906696677208,0.30148380994796753,-0.690495491027832,0.9351174831390381,-0.48392072319984436,0.0018822245765477419,-0.4532843828201294,-0.10234267264604568,-0.19375622272491455,0.20492185652256012,-0.348937064409256,0.3505723476409912,0.3904252350330353,-1.1108580827713013,0.15156136453151703,-0.18769694864749908,-0.5096957087516785,-0.01745428703725338,0.4519789218902588,-1.228971004486084,-0.009131858125329018,-0.02176399901509285,-0.07724571228027344,-0.25328347086906433,-0.49773508310317993,-0.3732215464115143,-0.6948153376579285,0.10293959826231003,0.8893868923187256,-0.8169249296188354,0.8191157579421997,-0.38251379132270813,-0.04788879305124283,0.07074235379695892,-0.003954279702156782,0.011819724924862385],[0.9697534441947937,-0.18295496702194214,-0.8707324266433716,-0.2705265283584595,0.5896501541137695,0.26462435722351074,-0.44471481442451477,0.34918680787086487,-0.7231705188751221,0.11297739297151566,-0.4203589856624603,-1.1408486366271973,0.23420393466949463,-0.06422574073076248,-0.8886953592300415,0.02471718192100525,0.09697256982326508,0.5450760722160339,-0.8927727937698364,0.05636981874704361,-0.1829942911863327,-0.28732603788375854,0.23763838410377502,0.0004133250913582742,0.5668065547943115,-0.035386815667152405,-0.28988882899284363,0.20509490370750427,-0.01871361769735813,0.2827955484390259,-0.12316389381885529,0.852715015411377,-1.3419338464736938,0.12492912262678146,-0.4993760585784912,0.1839810311794281,0.5451855659484863,1.1942830085754395,-0.8973754644393921,-0.1484418511390686,0.13263149559497833,-0.23309791088104248,0.4737772047519684,0.1142653152346611,-1.673084020614624,-0.10453452169895172,0.09931637346744537,-1.0529061555862427,0.5803036093711853,0.23204246163368225,-0.4478808641433716,0.23266002535820007,0.030945884063839912,-0.5959516167640686,0.08894228935241699,0.2869648337364197,0.21795447170734406,0.12590958178043365,1.1781256198883057,0.20941053330898285,-0.5998252630233765,0.017136748880147934,-0.0257478728890419,0.16527380049228668,0.19442009925842285],[-0.33399516344070435,-0.20126233994960785,-1.1855084896087646,-1.0651510953903198,0.45941996574401855,-1.2251583337783813,1.3584409952163696,-0.08437264710664749,0.8591523170471191,-0.3253059387207031,-0.2791488468647003,-0.5071001648902893,0.2766512632369995,0.044421058148145676,-0.050021544098854065,-1.0529898405075073,-0.4124402403831482,-0.5658140778541565,-0.21299207210540771,-0.05713183432817459,-0.8161843419075012,-0.10252513736486435,-0.4538552761077881,-0.7701138257980347,0.3033921420574188,-0.11695476621389389,-0.18146951496601105,1.02155339717865,-0.28632670640945435,0.15347929298877716,0.45925775170326233,-0.9267817735671997,-0.9029972553253174,0.1836014837026596,-0.41768786311149597,-0.06966876983642578,0.12466142326593399,-0.013659442774951458,-0.21800315380096436,-0.6137047410011292,0.16091370582580566,-1.1191446781158447,-0.09601494669914246,0.21293163299560547,-0.7213313579559326,-0.16339272260665894,0.07522796839475632,-0.47134077548980713,0.30262914299964905,-0.05766335502266884,-0.20841921865940094,-0.06015530973672867,-0.036054741591215134,0.2526744306087494,-0.7889508605003357,-0.8844476342201233,-0.03625333309173584,-0.5914872288703918,0.5822922587394714,0.6813158988952637,0.7862288951873779,-0.149681955575943,0.2827872335910797,-1.5064548254013062,0.1404271274805069],[-0.26329857110977173,-0.5238632559776306,-1.164203405380249,0.7183076739311218,0.7479180693626404,0.02694913186132908,0.17715661227703094,0.36410221457481384,-1.9692085981369019,0.4254611134529114,-0.1369905322790146,-0.3673819899559021,-0.6578269004821777,-0.11068428307771683,-0.03350374847650528,0.543511688709259,0.3472205400466919,0.028429528698325157,0.7273162603378296,0.05172738432884216,0.17560860514640808,0.46137675642967224,0.11042744666337967,0.2966001331806183,0.6576645970344543,-0.06885380297899246,0.21999067068099976,-0.18424434959888458,0.19122180342674255,0.21259534358978271,-0.03202906250953674,-1.710092544555664,0.2086833417415619,0.5464963316917419,0.23800913989543915,-0.22410091757774353,0.3643266558647156,0.3283250331878662,0.2928238809108734,0.2647049129009247,-0.2719796895980835,0.16413997113704681,0.4834125339984894,-0.32611018419265747,0.44188016653060913,-0.8935520648956299,-0.17324361205101013,0.01430513709783554,0.8718428015708923,-0.18621443212032318,-0.13140808045864105,0.6519603133201599,-0.12351279705762863,-0.4206416606903076,0.7923253178596497,-1.1833003759384155,-0.5056856870651245,0.5330424904823303,0.2924308180809021,0.6517396569252014,0.17860917747020721,-0.3851886987686157,-0.17965242266654968,0.07564667612314224,0.33190807700157166],[1.087068796157837,0.7814794182777405,0.2733018100261688,0.44977959990501404,-0.4185197651386261,1.500416874885559,-0.4186556339263916,0.10966843366622925,-0.8109046816825867,-0.7806463837623596,-0.21184100210666656,0.6273376941680908,0.04139639437198639,-0.045945726335048676,-0.386933833360672,0.453132301568985,-0.045680366456508636,0.048706427216529846,0.08534526079893112,0.035801298916339874,-0.7666056752204895,0.5421521663665771,0.09812253713607788,-0.45196008682250977,0.1507691591978073,-0.03681670501828194,-0.7251220941543579,-0.05888146162033081,-0.025950388982892036,-0.18149243295192719,0.3650159537792206,0.4925312101840973,1.0141085386276245,-0.6042580604553223,0.3040039539337158,-0.1264950931072235,-0.27191826701164246,-0.06889024376869202,-0.3042459785938263,-0.17104056477546692,-0.06622705608606339,-0.42493924498558044,-0.7420532703399658,0.05174783617258072,0.4703110456466675,0.8644341826438904,0.042879629880189896,-0.11976504325866699,-0.7621831893920898,0.02430044487118721,-0.6897114515304565,-0.1840364933013916,0.1677142083644867,-0.40073928236961365,-0.6987243294715881,1.540071725845337,0.6076192855834961,0.5475223660469055,-0.5581416487693787,-0.09471017867326736,-0.7237033843994141,-0.10675126314163208,0.5808945894241333,1.208916187286377,0.19830700755119324],[-0.24641332030296326,0.32483333349227905,-1.1231766939163208,0.6042778491973877,1.274014949798584,-0.1507536917924881,-1.1972346305847168,1.0205751657485962,-0.615882933139801,-0.666586697101593,0.3158808946609497,0.22375786304473877,-0.720812976360321,-0.06282179057598114,0.042924195528030396,0.16761469841003418,-0.5226576328277588,-0.5439938306808472,-1.048170566558838,-0.08390474319458008,0.33890774846076965,-0.07404717803001404,-1.037207841873169,-0.8550871014595032,-0.9151952862739563,-0.040475212037563324,2.8680765628814697,0.2863940894603729,-0.0007251512724906206,0.8388216495513916,0.5845353007316589,0.564296543598175,1.2815017700195312,-0.1368630826473236,0.08025205135345459,0.3790944814682007,0.1549849510192871,-0.8582938313484192,-0.06661855429410934,-0.4088621139526367,-0.008336685597896576,-0.025730006396770477,0.01941167376935482,-0.24843300879001617,0.806735634803772,0.10617692768573761,-0.12706314027309418,0.26645344495773315,0.3153054416179657,-0.1858697533607483,0.44901758432388306,-0.024429548531770706,-0.13022871315479279,0.13412164151668549,-0.2536602020263672,-0.9466698169708252,-0.09506223350763321,0.3868884742259979,-0.406695157289505,-0.4591854512691498,-0.4255659580230713,0.09730782359838486,0.34311458468437195,-0.5873438119888306,0.6456305384635925],[0.0703103095293045,0.031384315341711044,-0.4396170973777771,0.5160728096961975,-0.21285758912563324,-0.1148943156003952,0.9206466674804688,-0.18346194922924042,-0.8696807026863098,-0.46670278906822205,-0.6814360022544861,-1.844866156578064,0.14546500146389008,-0.10348187386989594,0.21954642236232758,0.007621393539011478,-0.7280892133712769,-0.5811572074890137,0.8123218417167664,0.12382293492555618,-0.5492521524429321,-0.6419289708137512,0.8264158964157104,0.4841557443141937,1.085802435874939,-0.05518290773034096,-1.4567378759384155,-0.5202987790107727,0.2092498540878296,0.05771337077021599,0.05751099810004234,-0.775667667388916,0.6712568402290344,-0.1812141239643097,-0.4312007427215576,-0.5098522901535034,-0.04614882916212082,0.5619274973869324,-0.5567892789840698,0.503166913986206,-0.17563295364379883,-0.3091777563095093,0.09486905485391617,-0.20053215324878693,-0.6973099112510681,0.9771510362625122,-0.10006922483444214,-0.04418551176786423,0.5200955271720886,-0.16671030223369598,-0.7162944674491882,0.5626662969589233,-0.27332839369773865,-0.3340122699737549,-0.08644082397222519,-0.5410088300704956,-0.30623865127563477,0.7142695188522339,0.9937160611152649,0.3231011927127838,-0.0666511282324791,0.13462218642234802,0.0759124904870987,-0.37773895263671875,-0.04302934557199478],[-0.2483241707086563,0.00481873145326972,-0.6545959711074829,-0.49652010202407837,0.32235515117645264,1.0080866813659668,1.162131905555725,0.6173122525215149,-0.635674774646759,0.6009280681610107,-0.3474483788013458,-1.0439528226852417,-0.2582460641860962,-0.04602116718888283,0.4101715683937073,-0.19324102997779846,0.0016474234871566296,0.04359595477581024,1.0187432765960693,-0.028256429359316826,1.0881688594818115,0.21334220468997955,0.07572655379772186,-0.07498468458652496,0.74619060754776,0.06288714706897736,-0.37802812457084656,-0.08244999498128891,0.28129565715789795,-0.6327127814292908,-0.004926908295601606,-0.02663617953658104,0.5182273387908936,0.0008227255893871188,-0.1825089454650879,-0.06443175673484802,0.3054487109184265,-0.5583775639533997,0.024906892329454422,1.0010411739349365,0.03563149645924568,0.6408984065055847,0.8246257901191711,0.028857441619038582,-0.37163496017456055,-0.07694561779499054,-0.05175086110830307,0.19795987010002136,0.3800323009490967,-0.10463329404592514,0.1727357804775238,0.4441934823989868,-0.204528346657753,-0.20382294058799744,0.44613030552864075,-1.2627352476119995,-0.06815747171640396,1.176714301109314,0.3741219639778137,1.0955272912979126,1.1547945737838745,0.13608482480049133,0.402536004781723,0.15140300989151,0.41572949290275574],[-0.5091882348060608,-0.17411504685878754,1.0859880447387695,1.0884745121002197,0.4888415038585663,-0.6115074753761292,-0.10414958745241165,0.7204614877700806,0.9009206891059875,-0.09928791224956512,0.8767691254615784,1.3438591957092285,0.24002590775489807,0.11190256476402283,0.6112174391746521,-0.01413446944206953,0.1224168986082077,-0.12149893492460251,-0.17203807830810547,0.08541285246610641,0.35785940289497375,-0.42160502076148987,0.3860573470592499,0.4429110884666443,-0.2367703765630722,0.004354814533144236,1.1580870151519775,0.6688417196273804,0.25093716382980347,0.5089504718780518,0.3635641932487488,0.023685768246650696,-0.7309317588806152,0.49943655729293823,0.8451927900314331,0.2962685525417328,-0.34485721588134766,-0.5350771546363831,0.432271271944046,-0.27211758494377136,0.2511218786239624,0.042445242404937744,-0.19634705781936646,0.17757867276668549,0.543511152267456,-0.11585573852062225,0.13350199162960052,-0.3814929723739624,0.2751295268535614,0.16834156215190887,0.5631870031356812,-0.20228737592697144,0.039429258555173874,0.6611542105674744,0.36138075590133667,-0.06811191141605377,-0.049742523580789566,-0.7292596101760864,-0.5649685859680176,-0.7734637260437012,-0.4652123749256134,0.1253674179315567,-0.5271408557891846,-0.4553157091140747,0.2842237949371338],[0.6128774285316467,-0.16337499022483826,-0.13622182607650757,0.2736372649669647,0.11475566774606705,0.5097892880439758,-1.1376436948776245,0.08008618652820587,-1.02194344997406,0.05768592283129692,-0.07029098272323608,-1.240596055984497,-0.9148573875427246,-0.07233031094074249,-0.7233266234397888,-0.5362424254417419,0.47411254048347473,0.47301435470581055,-0.18259663879871368,0.07762998342514038,-0.2322216033935547,0.1270548552274704,0.8257558345794678,0.8482850790023804,-1.008532166481018,0.1078873723745346,-1.5070208311080933,-0.8495035171508789,-0.26418936252593994,-0.003832236398011446,-0.2902121841907501,0.3590072989463806,0.32050076127052307,-0.15395225584506989,0.18749414384365082,-0.6022031903266907,-0.4143913686275482,0.014670591801404953,-0.316245436668396,-0.07563123852014542,-0.24890296161174774,0.5150451064109802,0.40479952096939087,-0.11495297402143478,-0.5349300503730774,0.3988269567489624,-0.07466674596071243,-0.2843908369541168,0.37303754687309265,-0.07083438336849213,0.10770518332719803,-0.04101501777768135,-0.12776516377925873,-0.6225118637084961,-0.19210071861743927,0.9111739993095398,-0.09633785486221313,-0.09461095184087753,-0.32566365599632263,-0.5767611861228943,-0.526554524898529,-0.10604195296764374,-0.5476633906364441,0.861548125743866,-0.22762465476989746],[0.2839607894420624,0.3686882555484772,-0.18133625388145447,-0.1385589987039566,-0.3320009410381317,0.830166220664978,-0.011724470183253288,-0.406532883644104,-0.6124230027198792,0.354340136051178,-0.14457976818084717,-1.1035133600234985,-0.8233523964881897,0.12132590264081955,-0.3637818694114685,-0.1661703735589981,0.4174553453922272,-0.09978004544973373,-0.29176291823387146,0.020619191229343414,-1.5833210945129395,-0.9109429121017456,-0.3983132839202881,-0.8983809947967529,-0.590688169002533,0.10850585997104645,-1.0920519828796387,-0.5839573740959167,0.3803030252456665,-0.15475620329380035,0.24824637174606323,-0.7876850962638855,0.6083028316497803,-0.10079284757375717,-0.12368849664926529,0.1899915337562561,0.5001268982887268,-0.23456871509552002,-0.06558351963758469,-0.10552407801151276,0.02312670834362507,0.3877871632575989,-0.8154885768890381,0.03145280107855797,-0.1539280265569687,0.5298019051551819,0.06398002058267593,0.5070449709892273,-0.7654043436050415,-0.17636190354824066,-0.8811935782432556,0.4643721580505371,0.1968759000301361,-0.09356372803449631,0.31786343455314636,0.8149958252906799,0.41226598620414734,0.3933391869068146,0.6443092226982117,0.3945707678794861,0.06891682744026184,0.10641737282276154,0.39671140909194946,0.7520492672920227,0.16002978384494781],[0.104839988052845,-0.5943629741668701,0.13485005497932434,-0.4948488771915436,-0.46191325783729553,0.9102500081062317,1.8266183137893677,-0.157160684466362,-0.6173452138900757,-0.03003297746181488,0.07418214529752731,1.4163274765014648,0.3167726397514343,-0.09350311011075974,0.13639061152935028,0.9472770094871521,-0.02943323738873005,-0.277423232793808,0.33296769857406616,0.07354746013879776,-0.17057693004608154,-0.07365732640028,-0.2705284059047699,-0.3116542100906372,-0.6879404187202454,-0.07216856628656387,-0.5862477421760559,-0.0468948595225811,0.5878236293792725,-0.4057607352733612,-0.19753669202327728,-0.779181957244873,0.5576406717300415,0.2580588757991791,0.3869580328464508,0.6544001698493958,0.16261310875415802,1.1225765943527222,0.02972036972641945,0.8159984350204468,-0.36089059710502625,0.09875211864709854,0.6413317322731018,-0.06395429372787476,0.38890349864959717,-0.4537876546382904,-0.07114223390817642,-0.4230244755744934,-0.5052274465560913,-0.1225585788488388,0.285322368144989,0.5361894965171814,-0.3213629722595215,-0.816390335559845,0.7587934732437134,-0.20969930291175842,-0.2796825170516968,-0.33138567209243774,-0.5163159966468811,0.17419637739658356,0.39269980788230896,0.4618285894393921,-0.24025706946849823,0.2669481933116913,-0.17640572786331177],[-0.04075641557574272,-0.5174252390861511,1.0801472663879395,-1.5680679082870483,0.06056475639343262,-0.059999726712703705,1.5301870107650757,-0.2626071572303772,0.7288582921028137,1.5110936164855957,0.07608362287282944,0.019534816965460777,1.0887906551361084,-0.037224963307380676,0.3016186058521271,1.0202878713607788,-0.1862592101097107,-0.06677272170782089,0.648936927318573,0.030223408713936806,0.6472039818763733,0.42605289816856384,0.13755057752132416,-0.12904062867164612,1.1905332803726196,0.10556624084711075,-0.4548740088939667,0.38916903734207153,0.17875686287879944,0.08640943467617035,0.14441968500614166,-0.23361317813396454,0.037878815084695816,0.10396064072847366,-0.3445090651512146,-0.6005488038063049,-0.056537460535764694,1.0546067953109741,0.2723613381385803,0.9981627464294434,-0.2423071712255478,0.317200243473053,1.250783085823059,0.07414130866527557,0.18062706291675568,-0.39321255683898926,-0.09146276116371155,-0.11947184056043625,-0.07287389039993286,-0.09532970935106277,0.7860625386238098,-0.49016252160072327,-0.024611661210656166,-0.07810782641172409,1.587851643562317,-0.47921428084373474,0.10245335847139359,-0.6463097333908081,0.10803008079528809,0.576598048210144,0.18909858167171478,-0.027891095727682114,-0.037720147520303726,-0.1820022165775299,-0.20151343941688538],[-0.32847538590431213,0.14726193249225616,0.09282151609659195,0.4947972297668457,0.49944061040878296,-0.8084588050842285,-0.8094349503517151,-0.09054503589868546,0.7273614406585693,-0.035007376223802567,0.5638025999069214,0.24515479803085327,0.059697069227695465,-0.10737708956003189,0.2289750725030899,0.36116671562194824,-0.17294925451278687,0.31454962491989136,0.5578599572181702,-0.019096771255135536,0.47838884592056274,-0.01295358408242464,0.032597143203020096,0.1716454029083252,0.20021751523017883,-0.1234087198972702,1.4976959228515625,-0.30734434723854065,0.46459999680519104,0.5715581178665161,0.2912473678588867,1.0308383703231812,-1.3987071514129639,0.006941241677850485,0.8355501890182495,1.1241892576217651,0.5734238624572754,0.5358881950378418,-0.12959223985671997,-0.4393744468688965,0.0649268701672554,-0.4746919870376587,-0.48378825187683105,0.2752700746059418,-0.085172638297081,0.11648987978696823,0.2588510811328888,-0.5543435215950012,-0.031325701624155045,0.14649565517902374,0.5481835603713989,-0.06022312864661217,0.17205940186977386,0.36987751722335815,-0.28743505477905273,1.3759584426879883,0.06918259710073471,-0.30334779620170593,-0.5383330583572388,-0.6434237360954285,-0.6967963576316833,0.22516760230064392,0.30662038922309875,-0.10246612131595612,0.2211807668209076],[0.2866818606853485,0.23273354768753052,-0.77046138048172,0.3062283396720886,0.030981801450252533,0.5285091400146484,-0.6713137030601501,0.055508606135845184,-0.6908555626869202,0.3248904049396515,-0.8298178911209106,-1.0525778532028198,0.07373891770839691,0.06222391501069069,-0.41149553656578064,-0.9710243940353394,-0.38690412044525146,-1.297493577003479,-0.3197878301143646,0.011542407795786858,-0.28362444043159485,0.5018889904022217,-1.4334523677825928,-0.8029900789260864,-1.0332772731781006,0.036595046520233154,-0.9007333517074585,0.5123203992843628,-0.34639376401901245,-0.17872849106788635,-0.01002365443855524,-0.11299041658639908,-0.24592170119285583,0.2849142253398895,-0.5122418403625488,-0.14729297161102295,-0.023059632629156113,1.2537692785263062,0.17290623486042023,-0.6933468580245972,0.053005803376436234,0.9402226805686951,-0.15959356725215912,-0.16442561149597168,-0.45805594325065613,0.11350556463003159,-0.014014207758009434,0.5033418536186218,-0.38279467821121216,-0.263100266456604,-0.046555813401937485,0.06372858583927155,-0.025119516998529434,0.5154276490211487,0.38731229305267334,0.1590001881122589,0.06415712833404541,0.20741957426071167,0.09205951541662216,-0.5275368094444275,0.18900421261787415,0.2825600802898407,0.0041646105237305164,-0.44226565957069397,0.12170190364122391],[0.09016890823841095,-0.30990248918533325,-0.9116579294204712,-0.5980703830718994,0.46420103311538696,1.0128458738327026,-0.3094169795513153,0.23706188797950745,-1.266864538192749,0.8135431408882141,-0.9464188814163208,-2.0073652267456055,-0.7934756875038147,0.06365516036748886,-0.0992233082652092,0.14214277267456055,0.17337952554225922,-0.15110816061496735,0.7972117066383362,-0.0026368186809122562,-0.5663902759552002,0.21232855319976807,-0.8908261656761169,-0.7122874855995178,-0.3023168742656708,-0.07525534182786942,0.28668609261512756,0.38832777738571167,-0.14703330397605896,-0.10346315801143646,0.6229433417320251,0.5370688438415527,-0.2544634938240051,0.0939892828464508,0.291645884513855,-0.2882458567619324,0.7112337350845337,-0.16968141496181488,0.0299301166087389,0.10778853297233582,0.032093197107315063,0.3456820249557495,0.24293486773967743,0.0571480356156826,-0.25243014097213745,0.36879733204841614,-0.010280987247824669,-0.048863787204027176,0.4408356249332428,-0.03771620988845825,-0.5933469533920288,0.06676279008388519,0.1966267228126526,-0.400482714176178,0.4777495265007019,0.16348475217819214,-0.23758558928966522,0.6149296760559082,0.26933425664901733,0.2861979007720947,-0.28196683526039124,0.4839591979980469,0.5906129479408264,-0.7478756308555603,0.5022748708724976],[-0.22205787897109985,0.022496096789836884,-0.12313686311244965,-0.8154255151748657,0.3422882854938507,-1.8077791929244995,-0.6155463457107544,0.07921228557825089,1.4326682090759277,-0.6711366176605225,0.28100645542144775,1.4857821464538574,0.4907582104206085,0.08590608835220337,-0.3394189774990082,-0.38410684466362,-0.058926790952682495,0.2375505119562149,-0.2423250824213028,-0.0479436069726944,0.1733887791633606,0.3032819926738739,0.2735206186771393,-0.07297074049711227,-0.5684507489204407,0.07255495339632034,-0.0025987427216023207,0.8815605640411377,-0.13686922192573547,0.6286264061927795,0.048259392380714417,0.1362793743610382,0.5880947113037109,-0.04273753613233566,-0.24375739693641663,0.16355513036251068,-0.1964094638824463,0.21005161106586456,0.2568494379520416,-0.7200645208358765,-0.1060112938284874,0.06959786266088486,-0.2754121720790863,0.0007652712520211935,-0.2643793225288391,0.020033951848745346,0.13960136473178864,0.22506769001483917,0.00587363401427865,0.25613918900489807,0.2523718476295471,-0.2668861448764801,-0.03437291085720062,0.010159911587834358,-0.5543960928916931,0.6733307242393494,-0.08898673206567764,0.418211430311203,0.081735759973526,-0.8961314558982849,-0.4428211748600006,-0.10538987815380096,-0.44565844535827637,-0.48608100414276123,0.01313770655542612],[-0.018581092357635498,0.5001734495162964,0.4816301167011261,1.0019898414611816,-0.250961035490036,0.3332965672016144,0.6084898710250854,0.11879611760377884,-0.5868221521377563,-0.6971546411514282,-0.12574194371700287,-1.3987784385681152,0.41638028621673584,0.09636955708265305,-0.21848075091838837,0.32200950384140015,-0.6015264391899109,-0.5560976266860962,-0.3933822512626648,0.057321421802043915,-0.44461843371391296,1.2343164682388306,-0.5916352868080139,-0.9341101050376892,-0.29346251487731934,-0.0749431774020195,-2.255643844604492,-0.25792497396469116,-0.43673720955848694,-0.48808565735816956,0.3776280879974365,0.3557727634906769,0.511361300945282,-0.18371790647506714,-0.5962745547294617,-0.5089620351791382,-0.02726462110877037,-0.019460812211036682,-0.24365073442459106,-0.03660568967461586,-0.20824582874774933,0.5173889994621277,-0.6241589188575745,-0.11784066259860992,0.05630995333194733,-0.24159197509288788,-0.093610979616642,-0.05780104175209999,0.34932610392570496,0.0933210551738739,-0.022358324378728867,0.11817340552806854,-0.2825922667980194,-0.529703676700592,-0.08065243065357208,-1.3486006259918213,-0.19576166570186615,0.251173734664917,0.07643085718154907,0.6649973392486572,-0.4153437614440918,0.08109156787395477,0.2516465187072754,-0.676131546497345,0.25167950987815857],[0.2036469429731369,-0.3375369608402252,-0.6591654419898987,-0.1500452309846878,0.345037043094635,1.169708251953125,-1.0857081413269043,0.16442012786865234,-1.276374101638794,0.4163120687007904,-0.2912471294403076,-0.638251006603241,-1.1397120952606201,-0.050181999802589417,-0.5000823140144348,0.12300832569599152,-0.1398189216852188,-1.0769848823547363,-0.6606767773628235,-0.07666010409593582,0.08438590914011002,1.2428749799728394,-0.984391450881958,-1.2640694379806519,-0.813481330871582,0.11991828680038452,-0.057655539363622665,0.9706597328186035,-0.06226012110710144,0.41177210211753845,0.5263797640800476,-0.665649950504303,0.11517146974802017,0.7711772322654724,0.11326032131910324,0.16188694536685944,0.5574249029159546,0.12030928581953049,-0.3184833824634552,-0.21154429018497467,0.07501311600208282,0.6001949906349182,-0.3877175748348236,0.08969511091709137,-0.2807824909687042,-0.0501774400472641,0.09993763267993927,-0.0419374443590641,-0.121421679854393,0.1673600673675537,-0.010148072615265846,0.37388476729393005,-0.015664702281355858,-0.536115288734436,0.32645362615585327,-0.25089287757873535,-0.014731201343238354,-0.34858039021492004,-0.2443545162677765,-0.2319834977388382,-0.613044023513794,0.25788813829421997,0.2389930635690689,-0.18045398592948914,0.3942822217941284],[-0.19386421144008636,0.5800487399101257,-0.4486500322818756,-0.34518516063690186,-0.41030004620552063,-0.5271964073181152,1.4254201650619507,0.29740795493125916,-0.45446068048477173,-0.5972983241081238,-0.17227646708488464,-0.32092493772506714,-0.06512404978275299,-0.024005116894841194,0.2788541615009308,0.23113693296909332,-0.7637290954589844,-0.5386687517166138,-0.20399291813373566,0.03542960807681084,-0.06064818799495697,0.3336193859577179,-0.5668015480041504,-0.46910107135772705,0.14005146920681,-0.08453967422246933,0.24088825285434723,-1.0144048929214478,0.9613853693008423,0.18810097873210907,-0.06579756736755371,1.1241542100906372,0.9537874460220337,-0.15244288742542267,0.44954875111579895,-0.20993727445602417,0.004561667796224356,1.138157844543457,-0.0326455719769001,-0.06532619893550873,-0.3468923568725586,0.2548261284828186,0.2882044017314911,-0.47285112738609314,0.5847648978233337,0.2378358393907547,-0.34610381722450256,0.39203885197639465,0.357986181974411,-0.4460400342941284,0.4661876857280731,-0.35719966888427734,-0.2730264961719513,-0.14059074223041534,-0.8971760869026184,-0.03488209471106529,-0.08258124440908432,0.44031602144241333,-1.5206068754196167,-0.46926140785217285,-1.3502349853515625,0.25720274448394775,0.5119054317474365,-0.46678879857063293,0.04010419920086861],[-0.0006778460810892284,0.25197717547416687,0.31559762358665466,0.42610490322113037,0.13267657160758972,0.1659255176782608,2.614743709564209,0.27743279933929443,0.7042195200920105,-0.4748046398162842,-0.16644808650016785,-0.5005699396133423,-0.2866548001766205,0.041207730770111084,-0.3467748761177063,-0.42828407883644104,-0.0810285210609436,-0.1635306477546692,-0.8205541968345642,-0.11954957991838455,-0.5701015591621399,0.2291542887687683,-0.9291269183158875,-0.33187994360923767,0.2964465916156769,0.02744816243648529,-0.17993131279945374,1.0403118133544922,-0.40517181158065796,0.7182564735412598,0.5843284726142883,0.28945913910865784,-0.5496295094490051,0.1411648988723755,-0.01370916422456503,-0.16300398111343384,-0.18001951277256012,-0.502515435218811,-0.0021701285149902105,-0.7558673620223999,0.3863798677921295,0.08007661998271942,-0.8230788707733154,0.1887860745191574,-0.4706189036369324,-0.05169035121798515,0.25077542662620544,-0.5002081990242004,0.16022369265556335,0.14506796002388,-0.23310628533363342,-0.08459244668483734,0.22954274713993073,0.13327710330486298,-0.5643684267997742,-0.20668575167655945,-0.0662640631198883,-0.3878491520881653,-0.7618728876113892,0.02628229185938835,-0.6330195069313049,0.06404414772987366,0.5994630455970764,-0.15406979620456696,0.2795034348964691],[0.5453809499740601,-0.38619181513786316,0.21426361799240112,0.9235506653785706,0.41390833258628845,0.5982863306999207,-0.7414512634277344,-0.0811474472284317,-0.23684705793857574,0.504142701625824,-0.0882805585861206,-0.09688320755958557,-0.4817814230918884,0.07328227162361145,0.18213994801044464,0.3110724985599518,1.1318053007125854,1.262426495552063,0.07052090764045715,0.030887600034475327,0.18548253178596497,0.24334409832954407,1.4745535850524902,1.3406181335449219,0.6194589734077454,0.008102704770863056,0.15316180884838104,-0.14245904982089996,0.1909835934638977,-0.14005760848522186,-0.05659478157758713,0.4321824610233307,0.5100768804550171,0.21370917558670044,0.7853320837020874,-0.5200386643409729,-0.4388606548309326,-0.45304644107818604,-0.0700232982635498,0.47179293632507324,-0.19960804283618927,0.10718678683042526,0.2289411425590515,-0.11896299570798874,0.29792138934135437,-0.0390101820230484,0.07010484486818314,0.016948921605944633,0.07142167538404465,0.11381670832633972,0.1263759881258011,0.15066801011562347,0.03949422389268875,-0.48365646600723267,0.5020642280578613,1.4962414503097534,0.4092008173465729,0.06632591784000397,0.11407164484262466,-0.5543016195297241,-0.1753128319978714,-0.19986729323863983,-0.5606250166893005,1.738573431968689,-0.30102697014808655],[-0.015961572527885437,-0.5417495965957642,1.0843077898025513,-0.6584131121635437,0.5999863743782043,0.02748052589595318,1.274076223373413,-0.25825080275535583,-0.5973666906356812,0.38073432445526123,-0.022823119536042213,-1.0741708278656006,0.6282739043235779,-0.11977579444646835,0.10525643825531006,0.39971283078193665,0.033839575946331024,0.18466860055923462,0.804623544216156,0.02351556532084942,-0.16409555077552795,1.2750476598739624,0.25670871138572693,0.405679851770401,0.17993442714214325,0.09249238669872284,-1.3625681400299072,0.12835364043712616,0.5388442873954773,0.15506282448768616,-0.08003024011850357,-1.4310250282287598,-0.682612419128418,0.7074946761131287,0.029215792194008827,-0.11038530617952347,0.13086844980716705,-1.1543712615966797,-0.5899164080619812,-0.2765899896621704,0.5170685052871704,-0.6811723709106445,0.26954638957977295,0.5701438784599304,-0.3386830687522888,-0.7080438137054443,0.5085326433181763,-0.8222488760948181,0.1827806532382965,0.35522666573524475,-0.0821961835026741,0.21986901760101318,0.36766719818115234,-0.1875901073217392,0.3306160867214203,-0.026296034455299377,0.2744448781013489,-0.711268424987793,0.671317458152771,-0.4399894177913666,1.097253441810608,0.11698943376541138,-0.20968344807624817,0.145054429769516,-0.00510636530816555],[-0.20583243668079376,0.31259816884994507,-0.6300314664840698,0.5969240069389343,1.116989254951477,-1.4538216590881348,-1.8270480632781982,0.6174927949905396,-0.3127889633178711,0.003509250935167074,0.01802326738834381,-1.4877831935882568,-0.9833828210830688,0.07758133858442307,0.7241721749305725,-0.7559916973114014,-0.48776206374168396,-0.45095908641815186,0.3298526704311371,0.10768094658851624,-0.22411108016967773,-0.7546353340148926,0.2045356035232544,0.32038185000419617,1.2826640605926514,-0.059654269367456436,1.5137550830841064,0.2196192890405655,0.5470969676971436,0.08998280018568039,-0.006708188913762569,-0.27963998913764954,-1.3694889545440674,-0.15773098170757294,0.5518671274185181,-0.12255830317735672,0.386247456073761,-0.38370445370674133,0.3399845361709595,-0.11916277557611465,0.11771134287118912,-1.0332304239273071,0.8132007122039795,-0.061747513711452484,0.15825679898262024,-0.5327446460723877,-0.16804036498069763,0.27424225211143494,0.7649400234222412,-0.08442378044128418,0.03742210194468498,0.11508431285619736,0.1449965089559555,0.42728525400161743,-0.6101639866828918,-0.27845171093940735,-0.18197257816791534,0.6155222058296204,0.5973805785179138,-0.07721549272537231,0.25564488768577576,0.08664779365062714,0.4397044777870178,-0.5038985013961792,0.4900747239589691],[-0.025798769667744637,0.05377253517508507,-0.7803506255149841,-0.6182897686958313,0.9552980065345764,-1.9761016368865967,-0.30984634160995483,0.6004868745803833,0.1652904599905014,-0.12539078295230865,0.23520858585834503,0.8385502099990845,0.3320000469684601,0.06506194174289703,-0.13747179508209229,0.2025105357170105,-0.10782986879348755,-0.30083200335502625,-0.10547305643558502,-0.014862418174743652,0.5210766196250916,0.4490642845630646,-0.4295731484889984,-0.4193247854709625,-0.9330559968948364,-0.0903158038854599,0.4493108093738556,1.7163312435150146,-0.9633944630622864,0.23230113089084625,-0.05513130873441696,0.8443658947944641,-0.5627515316009521,0.7710323929786682,0.03165201470255852,0.17504717409610748,0.008543126285076141,0.32661551237106323,-0.3278132677078247,-0.5864041447639465,0.008094060234725475,-0.4308398962020874,0.06584164500236511,-0.035695645958185196,-0.3516855239868164,0.19261156022548676,0.014705661684274673,-0.011721302755177021,-0.5613059997558594,0.06432570517063141,0.6506538987159729,-0.5185257196426392,0.32508718967437744,0.19225038588047028,-0.5940678715705872,0.9362689256668091,-0.022405726835131645,-0.20411927998065948,0.4937017560005188,-1.4144359827041626,-0.5447467565536499,-0.28113073110580444,0.3280608355998993,-0.28952035307884216,0.09637171030044556],[-0.13928350806236267,0.3035019338130951,-0.5913720726966858,1.2551885843276978,0.5655278563499451,0.29154402017593384,0.06664292514324188,0.3789970576763153,0.3030126392841339,0.06061780825257301,-0.06941979378461838,-0.3910979926586151,0.9127078056335449,-0.11719371378421783,0.9959836602210999,-0.2903995215892792,0.04762308672070503,0.7120590209960938,0.9319154620170593,-0.04988599941134453,-0.1950043886899948,-0.4031338691711426,0.4105295240879059,0.5201507210731506,0.5701636075973511,-0.12323866784572601,-0.5205084085464478,-0.5801720023155212,-0.28369539976119995,-0.08657258003950119,-0.23661987483501434,0.11896373331546783,0.3420381247997284,-0.7337601780891418,0.2387939989566803,-0.16301129758358002,-0.3764844238758087,-1.1093064546585083,-0.23210084438323975,-0.6936248540878296,0.18505963683128357,0.3054434061050415,0.1117015928030014,-0.016321521252393723,0.588108241558075,0.5298522114753723,0.10513892769813538,0.2934779226779938,0.5339502096176147,0.21073132753372192,0.036666274070739746,-0.6993840336799622,0.14462673664093018,0.7705524563789368,-0.6108928322792053,0.11713434010744095,0.19338466227054596,0.3225603997707367,-0.8552714586257935,-0.4941920340061188,-0.297925740480423,0.2777400016784668,0.06399616599082947,0.4866626262664795,-0.08149048686027527],[0.4659896790981293,0.06522742658853531,0.7669488191604614,-0.005166312213987112,-0.036581844091415405,-0.3393295407295227,0.5728378891944885,-0.11799746006727219,-1.7836867570877075,-0.26866787672042847,-0.22591277956962585,-0.5141732692718506,-0.8292692303657532,-0.05889880284667015,-0.31521469354629517,-0.7299366593360901,-0.2372799962759018,-0.31840530037879944,-0.45275428891181946,-0.12156764417886734,0.5130303502082825,-0.1863815039396286,-0.4999697208404541,-0.4163212776184082,0.21330048143863678,0.07081081718206406,-1.5167090892791748,-0.21388572454452515,-0.7219891548156738,0.30800116062164307,-0.017828473821282387,-1.0633653402328491,1.0606698989868164,-0.7248433232307434,-0.8221087455749512,-0.15264756977558136,-0.20420362055301666,0.39449289441108704,-0.0030111197847872972,0.1494525671005249,-0.20339429378509521,-0.08507876843214035,0.035991258919239044,-0.30293965339660645,-0.2661459445953369,-0.16619952023029327,-0.188203364610672,0.13333995640277863,-0.014569788239896297,-0.3396306335926056,-0.08029402792453766,-0.4376419484615326,-0.225874125957489,-1.1932916641235352,0.5576993227005005,-0.10287898033857346,-0.26371830701828003,0.5046396851539612,0.8461987972259521,-0.1310587078332901,0.935097336769104,-0.633891224861145,-0.3836056590080261,0.0401436910033226,-0.1821797788143158],[-0.05398058146238327,0.06813042610883713,0.5056463479995728,1.2315571308135986,0.15848270058631897,0.3051413297653198,-1.268525242805481,0.6693534255027771,-0.8695346117019653,-0.7604414820671082,-0.14682069420814514,-0.8693239092826843,-0.8713953495025635,0.05721599608659744,-0.32782018184661865,-0.5087614059448242,-0.36408624053001404,-0.704551100730896,-0.7917028665542603,0.07777529209852219,0.4267277717590332,0.05182889848947525,-0.2991330325603485,-0.3841152787208557,-0.538159191608429,-0.03898521885275841,0.3464580476284027,-0.6181232929229736,-0.11984327435493469,0.1957981437444687,0.5925195217132568,-0.0751478299498558,0.42761513590812683,0.47749778628349304,-0.03266420215368271,-0.3016427755355835,0.2151307463645935,-1.5096752643585205,0.09819703549146652,-0.09268856793642044,0.013947310857474804,0.34820687770843506,0.3503754138946533,-0.1055719256401062,-0.0967767983675003,-0.18693754076957703,-0.2020571231842041,0.0870828703045845,0.8108164072036743,0.03920939192175865,-0.23142656683921814,0.3064752519130707,-0.2021070271730423,-0.07942553609609604,-0.3194582164287567,-0.9749488234519958,-0.3319934904575348,0.11735498905181885,-0.31255730986595154,0.15059936046600342,-0.16675502061843872,0.3427032232284546,-0.056048501282930374,-0.626196563243866,0.5100476145744324],[-0.31903278827667236,-0.9418164491653442,-1.3704322576522827,-0.17748801410198212,-0.05178387090563774,-0.9557593464851379,-0.3382830023765564,-0.2938912808895111,0.25781017541885376,0.717406690120697,0.06919054687023163,0.6860255599021912,0.11555769294500351,-0.038345497101545334,0.9190694689750671,0.2714630663394928,0.3852025270462036,0.17477339506149292,0.3619873821735382,0.032090168446302414,0.7952587604522705,-1.0879323482513428,0.22697220742702484,0.4981778562068939,0.25217851996421814,0.1055213212966919,2.2994260787963867,0.014492558315396309,-0.22892792522907257,0.028425613418221474,-0.4239311218261719,0.23540349304676056,-0.20143938064575195,0.7395955920219421,0.5185373425483704,0.055674295872449875,-0.47824549674987793,-0.7551550269126892,0.7555496096611023,-0.3555414378643036,-0.5977681875228882,0.5450762510299683,0.599252462387085,-0.4314029812812805,0.7585349678993225,0.30721738934516907,-0.5227429270744324,0.7201264500617981,0.0848667174577713,-0.46559953689575195,0.39063310623168945,-0.172803595662117,-0.29119133949279785,0.12536932528018951,-0.031098950654268265,0.7317503690719604,-0.1113828495144844,-0.725793182849884,-0.19012272357940674,-0.7475429773330688,-0.1747981756925583,-0.23216038942337036,-0.2716591954231262,0.6076176166534424,-0.32659777998924255],[0.30514103174209595,0.3297078013420105,1.2811448574066162,0.7273189425468445,-0.24828536808490753,0.1602977216243744,-0.31368064880371094,0.0807226374745369,-0.30310481786727905,-0.456046462059021,0.03826335817575455,-0.32049328088760376,0.15974897146224976,0.04137982428073883,-0.06262846291065216,0.12884750962257385,0.199485644698143,-0.13766054809093475,0.6906952857971191,-0.03302325680851936,-0.9930115342140198,0.09645940363407135,0.6263946294784546,0.2506631314754486,0.366188108921051,-0.03913791477680206,-1.4455820322036743,-0.7337349653244019,-0.5602949261665344,0.32278573513031006,0.3504279553890228,0.402731329202652,0.8484053015708923,0.6041545271873474,-0.35234335064888,-0.5718268156051636,-0.11352875083684921,0.6377511024475098,0.17945024371147156,-0.07178021967411041,-0.44538962841033936,0.4075426161289215,0.22781847417354584,-0.38965001702308655,-0.50893634557724,1.2063605785369873,-0.321684330701828,0.2809365391731262,1.198890209197998,-0.22095318138599396,0.12718021869659424,0.2687509059906006,-0.3930520713329315,-0.2668047845363617,-0.4599286913871765,0.7392184138298035,0.3543764352798462,0.42005234956741333,-0.558992326259613,0.335026353597641,-0.44739437103271484,0.37217557430267334,0.044453397393226624,-0.015093664638698101,-0.03668563440442085],[-0.09161216020584106,-0.4104396402835846,-0.9126847386360168,0.12140046805143356,-0.0789044126868248,1.094376802444458,-1.373826026916504,0.0977167934179306,-0.505084216594696,0.5096895098686218,-0.3006456792354584,-0.5997955799102783,-0.04731553792953491,0.11803728342056274,0.81405109167099,-0.449228435754776,0.8843797445297241,0.16256172955036163,1.0222430229187012,0.017215773463249207,-0.39072951674461365,0.4546080231666565,0.8895612359046936,1.247327208518982,1.0712716579437256,-0.1203751340508461,0.16940870881080627,-0.41577184200286865,0.022577904164791107,-0.1157832071185112,-0.0016737593105062842,0.9692762494087219,0.583342432975769,0.390622615814209,0.4738284945487976,-0.371216356754303,-0.34023958444595337,0.361765056848526,-0.5944183468818665,0.12284540385007858,-0.18443523347377777,-0.36377692222595215,0.1060522198677063,-0.026155274361371994,-0.35854560136795044,0.9699155688285828,0.11909358948469162,-0.04997577518224716,0.30657127499580383,0.026993289589881897,-0.2012544423341751,-0.07893598824739456,0.22383394837379456,0.23218615353107452,0.39926087856292725,1.079187273979187,-0.058405566960573196,0.36719053983688354,-0.17793701589107513,-0.6739767789840698,-0.010881495662033558,0.03444770723581314,-0.471957266330719,0.8761943578720093,0.0022818746510893106],[-0.12757344543933868,-0.16440241038799286,0.1987793892621994,0.42116016149520874,-0.014392935670912266,1.0160801410675049,-1.445052146911621,-0.17448441684246063,-0.39413362741470337,0.6076356768608093,-0.23169666528701782,0.706993043422699,0.5277593731880188,-0.08464358001947403,0.9823459982872009,0.08706166595220566,0.6070773005485535,0.14750047028064728,0.43579909205436707,0.08061717450618744,-0.35913968086242676,0.7364128828048706,0.5865101218223572,1.071598768234253,-0.3258042633533478,-0.10872654616832733,0.0739540383219719,-0.6871718168258667,0.02655097469687462,0.16070713102817535,-0.00530668580904603,0.393019437789917,0.8644261360168457,-0.012598840519785881,0.366098016500473,0.20091032981872559,-0.5093201994895935,0.7126593589782715,0.6358891129493713,-1.296216607093811,0.2926810085773468,-0.021155375987291336,-0.3791618049144745,0.31098201870918274,0.2628495395183563,-0.499284029006958,0.3751855790615082,0.6988887190818787,-0.8934376835823059,0.253133088350296,-0.4934268593788147,-0.9463384747505188,0.43727830052375793,-0.18988992273807526,0.3844238519668579,1.4261372089385986,0.16026851534843445,-0.16052915155887604,0.05278555303812027,-1.0562957525253296,-0.12709711492061615,-0.10947767645120621,-0.5989079475402832,0.6175743341445923,-0.2394256740808487],[0.05102977156639099,-0.19830410182476044,-0.45704150199890137,-0.09702742099761963,0.18030211329460144,0.03965090960264206,0.3443323075771332,0.030398095026612282,-0.5765706896781921,0.2236015945672989,-0.7730633020401001,-1.8308742046356201,-0.4075164794921875,0.11454102396965027,0.17316292226314545,-0.3863515555858612,-0.005465862341225147,-0.2239130437374115,0.7083460092544556,0.05972921848297119,-0.6417603492736816,0.233274906873703,-0.7343981266021729,-0.41761741042137146,-0.21083739399909973,0.060577332973480225,0.17695710062980652,1.3434101343154907,0.24963852763175964,-0.2300967127084732,0.6989688873291016,0.40585464239120483,0.25998055934906006,0.8446667194366455,-0.30528032779693604,0.11080927401781082,0.44421568512916565,-0.5137310028076172,-0.2098015695810318,-0.2138572484254837,-0.19573286175727844,0.11913388967514038,-0.32012176513671875,-0.043405018746852875,-0.1037890613079071,-0.14664091169834137,-0.2587029039859772,0.5187889337539673,-0.7714803814888,-0.23603568971157074,-0.6250297427177429,0.514102578163147,-0.06593061238527298,0.113261878490448,0.30280783772468567,0.10164390504360199,0.24046804010868073,0.2871713638305664,1.0659887790679932,0.08164829015731812,0.6765007972717285,0.4281511902809143,0.4411434233188629,-0.4824124276638031,0.29813000559806824],[-0.2599232792854309,-0.25935274362564087,1.002624750137329,-0.48562878370285034,-0.2281201332807541,0.43636879324913025,-0.08460279554128647,-0.22876188158988953,1.129797339439392,0.20187048614025116,0.3727017641067505,1.5081251859664917,0.6864376068115234,0.0633067712187767,-0.20707887411117554,0.8571990132331848,-0.042550064623355865,0.5762033462524414,-0.08100423216819763,-0.05333247408270836,0.16437722742557526,0.04454153776168823,0.2810099720954895,0.5985448360443115,0.9714899659156799,-0.021516233682632446,1.1616010665893555,0.2184603214263916,0.16081660985946655,0.32874447107315063,-0.07755886018276215,-0.5650274157524109,0.30713337659835815,1.0309789180755615,0.3657395541667938,0.30944082140922546,-0.2943236529827118,-0.5547536015510559,0.12551389634609222,-0.3071790635585785,0.16033370792865753,-0.05942841246724129,-0.3404984772205353,0.18163546919822693,-0.01862933114171028,-0.8808146715164185,0.06753043830394745,-0.032549966126680374,-0.4652845561504364,0.28475940227508545,0.23838061094284058,0.3063039183616638,0.24521270394325256,0.19448606669902802,0.4312954843044281,-0.016193930059671402,-0.23134909570217133,-0.5534265041351318,-0.38212504982948303,-0.20998121798038483,-0.9561936855316162,0.09139949828386307,-0.5184709429740906,0.11540859937667847,-0.3886066675186157],[-0.05481625720858574,0.08139563351869583,0.4733251631259918,0.5522410273551941,-0.16872557997703552,0.5081358551979065,0.5377505421638489,-0.15617512166500092,0.4752862751483917,0.26001450419425964,0.5595186948776245,0.8320335149765015,0.19537921249866486,0.0927124097943306,0.8853974938392639,-0.4295722246170044,0.3710768520832062,0.7767271995544434,-0.3468596339225769,0.05860590562224388,0.21722932159900665,0.22565001249313354,1.1407570838928223,1.5995519161224365,0.05163276568055153,0.03907810524106026,-0.2043675184249878,0.43950212001800537,-0.19243299961090088,0.14811886847019196,-0.7514365911483765,-0.11064164340496063,0.4266798794269562,0.6726341843605042,-0.3094334304332733,-0.32731103897094727,-0.8724191188812256,0.11272002011537552,-0.030163487419486046,-1.1709156036376953,0.725798487663269,0.007155827712267637,-1.367209553718567,0.708071768283844,0.6447704434394836,-0.9369200468063354,0.814015805721283,-0.9093022346496582,0.42490899562835693,0.8113522529602051,-0.9639545679092407,-0.21903668344020844,0.27716416120529175,-0.14045867323875427,0.6158366799354553,0.5103146433830261,0.023051491007208824,0.6508169174194336,0.052676472812891006,0.13805954158306122,-0.5326109528541565,-0.33553704619407654,-0.6500365734100342,0.7813429236412048,-0.5246127247810364],[0.36833250522613525,0.14387130737304688,-0.3283088505268097,-0.05025451257824898,-0.601049542427063,-0.06931497901678085,-1.6795423030853271,-0.23364058136940002,-1.6518069505691528,-0.5541129112243652,0.19829440116882324,-0.07186155766248703,0.13280941545963287,0.08337080478668213,-0.042952053248882294,-0.8401961326599121,0.2100444883108139,0.436490535736084,-0.057724516838788986,-0.023645829409360886,-0.6097953915596008,0.11882001161575317,0.3971388041973114,0.8288961052894592,0.17043448984622955,-0.029924433678388596,-1.5697141885757446,-1.4834399223327637,-0.29856646060943604,-0.25227394700050354,-0.26795315742492676,0.3315231502056122,-0.6730747222900391,-0.5039263367652893,-0.41622695326805115,-0.22567833960056305,-0.07967492938041687,-0.02958640642464161,0.06908411532640457,-0.34940266609191895,-0.4839036166667938,-0.025765610858798027,0.16597360372543335,-0.4897291362285614,-0.2516118884086609,-0.20228253304958344,-0.56671541929245,-0.2859741747379303,0.6133358478546143,-0.5555224418640137,0.5100447535514832,-0.2191595584154129,-0.16464610397815704,-0.8496761322021484,-0.33274999260902405,0.7926012277603149,-0.30131372809410095,-0.8541368842124939,0.20664161443710327,-0.6184949278831482,-0.7585625052452087,-0.0903049111366272,-0.3430018723011017,0.27956172823905945,-0.19285914301872253],[0.27318352460861206,0.5691413879394531,0.7965467572212219,0.31551215052604675,-0.49724745750427246,0.04491579160094261,-2.477886199951172,-0.1825004369020462,-1.06819486618042,-0.8287932872772217,-0.3512391149997711,-0.6269932985305786,-0.01508105918765068,-0.07592179626226425,0.24282434582710266,-0.9610280990600586,-0.13346132636070251,0.05966397002339363,-0.05081357806921005,0.07622082531452179,-0.11491209268569946,-0.35364004969596863,-0.4237086772918701,0.13400787115097046,-1.1857848167419434,-0.10167866200208664,-0.2122272104024887,-1.1778546571731567,-0.027967914938926697,-0.3050994873046875,-0.47675853967666626,0.3993392586708069,-0.24397394061088562,-0.28213921189308167,0.35973024368286133,0.05352475494146347,-0.10013813525438309,-1.1272401809692383,-0.20954391360282898,-0.7071673274040222,-0.09485156089067459,-0.18129481375217438,0.44250401854515076,-0.35984373092651367,0.07158339768648148,-0.2346596121788025,-0.14891928434371948,0.38138315081596375,0.046899329870939255,-0.20099563896656036,-0.12690001726150513,-0.014397406950592995,-0.11956381052732468,0.0376829132437706,-0.36675766110420227,0.46411794424057007,-0.19956716895103455,0.7556719183921814,-0.8896750211715698,-0.8351401686668396,-0.7182437181472778,-0.3794059753417969,-0.16435320675373077,-0.0030616954900324345,-0.16752509772777557],[-0.19255390763282776,-0.20853964984416962,-0.04675494134426117,0.29155030846595764,0.22863836586475372,0.1953224539756775,0.10555250197649002,0.14477963745594025,0.06026158854365349,-0.03225428983569145,-0.49844154715538025,-1.6548763513565063,-0.4928279519081116,-0.08585862070322037,0.25934460759162903,0.5383492708206177,-0.7237232327461243,-0.42738914489746094,0.3764091730117798,-0.015547812916338444,-0.07410890609025955,0.4305880665779114,0.11264188587665558,-0.10324598848819733,0.4881201386451721,-0.06957603245973587,-0.14700253307819366,0.0469331368803978,-0.016418633982539177,0.046478576958179474,0.6077852845191956,-0.0649007260799408,-0.7804977297782898,0.17541185021400452,-0.2223324179649353,0.04929574951529503,0.9750319719314575,-0.1987885981798172,0.13966944813728333,0.3201828598976135,-0.07907227426767349,0.44289708137512207,-0.1698497086763382,-0.3378482460975647,-0.32296204566955566,-0.03700752556324005,-0.23759105801582336,-0.0838533565402031,0.6746004223823547,-0.37911078333854675,0.18215952813625336,-0.11235953122377396,-0.2848617434501648,0.3188665509223938,0.31994056701660156,-1.3097985982894897,-0.1908230185508728,1.0268523693084717,0.14383213222026825,1.0837576389312744,-0.4024641811847687,0.8207900524139404,0.8187731504440308,-0.6381993293762207,0.6422625780105591],[-0.17935976386070251,-0.0069776843301951885,0.9880415797233582,-0.6934633255004883,-0.21477559208869934,-1.3257277011871338,0.011862915009260178,0.19100229442119598,0.5815983414649963,-0.09704993665218353,-0.06252396106719971,0.7918767929077148,-0.4846307933330536,0.11186675727367401,0.6650546193122864,-0.2904701232910156,-0.8208063840866089,-1.2548991441726685,-0.5067132115364075,0.07944852858781815,0.8770356774330139,-0.3860342800617218,-0.9156150221824646,-0.34657201170921326,-0.8453062772750854,-0.06069942191243172,1.512082815170288,0.5423009395599365,-0.40744444727897644,0.45097216963768005,0.3796829283237457,0.14668242633342743,-0.5899401903152466,-0.08545346558094025,0.3220316469669342,0.18860121071338654,-0.013747838325798512,-0.2558037042617798,-0.32202255725860596,0.3046848773956299,0.3122169077396393,-0.23436975479125977,-0.5523834228515625,0.09822282940149307,0.10662878304719925,0.7751853466033936,0.02989468351006508,-0.04394650086760521,-0.27640584111213684,0.08870687335729599,0.35829684138298035,0.3731490969657898,-0.04766938090324402,-0.050905246287584305,-0.5717807412147522,0.05748657137155533,-0.4574093520641327,0.32452747225761414,-1.4665957689285278,-1.0451979637145996,-0.08698385208845139,-0.3828238546848297,0.24768248200416565,-1.1000975370407104,0.3357068598270416],[-0.17384032905101776,-0.23389799892902374,-0.044112686067819595,-1.0752679109573364,-0.006924914661794901,-0.7012057900428772,0.7575960755348206,-0.388052761554718,0.49441441893577576,0.2344052642583847,0.40484634041786194,0.6829080581665039,0.30044493079185486,-0.04250515252351761,-0.10219702124595642,0.3425597846508026,-0.5641455054283142,-0.2578331232070923,0.5933774709701538,-0.04311077296733856,-0.09916344285011292,0.035568155348300934,-0.8443293571472168,-0.342655748128891,0.2284221351146698,0.017017386853694916,-0.5726027488708496,1.6208263635635376,0.062169067561626434,0.7401353716850281,0.8578603267669678,-0.7708876132965088,-0.9227415919303894,0.0035656727850437164,-0.4365954101085663,-0.12766574323177338,0.19379836320877075,0.9528209567070007,0.2681419849395752,-0.12712304294109344,0.34394851326942444,-0.4915842115879059,0.030897820368409157,0.32030436396598816,-0.38541296124458313,-0.17738009989261627,0.19723184406757355,0.053167782723903656,-0.9306543469429016,0.11222680658102036,0.05800596997141838,0.4752146601676941,-0.052878428250551224,0.2175324708223343,0.07566338777542114,0.3086588978767395,-0.012779921293258667,0.1359509974718094,2.2637786865234375,-0.11451925337314606,0.5564554929733276,-0.12616676092147827,0.4332830309867859,-0.3710183799266815,0.2714007794857025],[0.2745814025402069,-0.35608646273612976,0.1387321650981903,0.21583548188209534,0.03599986433982849,0.17561309039592743,-1.8939951658248901,-0.08375468105077744,-0.0344550684094429,0.24086885154247284,-0.05929110199213028,-0.11747315526008606,0.05827980861067772,-0.08039765059947968,-0.352053165435791,-0.49698883295059204,0.9092570543289185,0.806515097618103,-0.2730971574783325,-0.015297351405024529,0.4574897587299347,1.011682391166687,1.1557108163833618,1.3100879192352295,-0.5998466610908508,0.05256140977144241,0.05682995915412903,-0.09548335522413254,-0.13709229230880737,0.02596460096538067,-0.20875103771686554,1.2518202066421509,-0.6260939240455627,-0.19520220160484314,-0.11533694714307785,-0.6626617908477783,-0.595222532749176,-0.5475682616233826,-1.39322829246521,0.08892157673835754,0.1245310828089714,0.03863539919257164,0.19060754776000977,-0.15387636423110962,-1.2424677610397339,0.5214571952819824,-0.022314250469207764,-0.042195357382297516,0.43708914518356323,-0.010687451809644699,-0.19691352546215057,-0.3658454716205597,0.19068507850170135,0.28151819109916687,-0.027812162414193153,1.2570531368255615,0.187445268034935,-0.12669289112091064,-0.7082249522209167,-0.8240691423416138,-0.05497263744473457,0.19766296446323395,-0.9300519824028015,0.44070327281951904,-0.3606208562850952],[-0.7315812706947327,0.03295762091875076,-0.34080955386161804,-0.6645048260688782,-0.48071199655532837,0.35342076420783997,1.5267424583435059,-0.6343194842338562,0.4961642920970917,-0.5886021256446838,0.07302965968847275,1.0153993368148804,0.06137969717383385,-0.04154226556420326,0.10469042509794235,0.3584116995334625,-0.4045954644680023,-0.022517530247569084,-0.006795414257794619,-0.09301113337278366,-0.4113065302371979,0.19400860369205475,-0.771142303943634,-0.7845825552940369,0.8886579871177673,0.09743984788656235,-0.10933440923690796,1.3053333759307861,0.2516583502292633,0.04096332564949989,0.052219539880752563,-1.043831467628479,0.17116379737854004,0.7452735900878906,-0.08026090264320374,0.20015791058540344,0.4909651279449463,0.8695417046546936,0.19813945889472961,-0.2616249620914459,0.17921611666679382,0.704066812992096,-0.6697260737419128,0.14717742800712585,0.3512045741081238,-0.8395645618438721,0.22643592953681946,-0.313306599855423,-0.24495604634284973,0.11429787427186966,0.18141159415245056,0.08222122490406036,-0.003375205909833312,-0.006503214128315449,0.17148831486701965,-0.7816104888916016,0.05240149423480034,-0.6656160950660706,-0.5238024592399597,0.7779861092567444,0.13295352458953857,0.1713048219680786,0.5011484622955322,-0.5953491926193237,-0.09156095236539841],[-0.6355319023132324,-0.5578151345252991,-1.4122473001480103,-0.2066272497177124,0.39510732889175415,-1.6325584650039673,-0.44069498777389526,0.0246166680008173,0.3125803768634796,-0.09483586996793747,0.3403588831424713,0.906339168548584,0.2098529189825058,0.09413743019104004,-0.05877744033932686,0.18486322462558746,-0.39926445484161377,-0.2740819752216339,-0.010403289459645748,0.013873908668756485,0.052126720547676086,-1.2241790294647217,0.8091399073600769,0.6396315693855286,0.2834768295288086,-0.10117516666650772,0.9273170232772827,0.7796097993850708,-0.18111471831798553,0.8264479637145996,0.16304552555084229,0.858490526676178,-0.4405488669872284,0.22441597282886505,-0.3340859115123749,0.33576446771621704,0.34188786149024963,0.6482202410697937,-0.2057441771030426,0.13428553938865662,0.23520617187023163,-0.27665790915489197,-0.3075791001319885,0.18681257963180542,-0.2717861831188202,-0.4753197133541107,0.07914290577173233,-0.5442819595336914,0.4285147488117218,0.1612575352191925,0.4493806064128876,-0.6402004957199097,-0.06376941502094269,0.5113608837127686,-0.3514004647731781,-0.5423244833946228,-0.3775356709957123,0.3214961290359497,0.797469973564148,-0.7533762454986572,0.3334692418575287,-0.19328290224075317,-0.6519253253936768,-1.0374354124069214,0.09044142812490463],[0.40527278184890747,0.35735249519348145,-0.5308007597923279,0.23368768393993378,-0.23980335891246796,0.41084060072898865,0.20833320915699005,0.007670520804822445,-0.610424816608429,-0.24498657882213593,0.040874265134334564,1.0709691047668457,0.30570483207702637,0.039691489189863205,0.039741192013025284,0.08219169825315475,0.7062727212905884,-0.4059973359107971,0.9934280514717102,0.11136185377836227,0.25204047560691833,0.4463869035243988,0.3755509555339813,0.3948477804660797,0.10520763695240021,-0.005414001643657684,-1.0634664297103882,-0.3755511939525604,-0.06041629984974861,0.006597795523703098,0.12230147421360016,0.5972501039505005,0.3853321075439453,-0.4362318217754364,-0.19306090474128723,1.7088900804519653,0.7734889388084412,0.6832768321037292,-0.4226120710372925,-0.28105810284614563,0.07131125777959824,-0.6179681420326233,-0.3079816699028015,0.3229391872882843,-0.03634084761142731,-0.509571373462677,0.1789717823266983,-1.3929990530014038,-1.716921329498291,0.135294109582901,-0.2897629737854004,0.16047541797161102,0.44228997826576233,-0.5761664509773254,0.44112518429756165,0.6195732355117798,0.06702814996242523,0.49421998858451843,0.9764277338981628,-0.463575154542923,-0.8816627264022827,-0.022458812221884727,0.3708275556564331,0.4923209846019745,0.3674372136592865],[0.48439279198646545,-0.049550171941518784,0.2628732919692993,0.06397980451583862,-0.47784262895584106,0.6567254662513733,-0.08742023259401321,-0.33027082681655884,-0.7241989374160767,-0.2344014197587967,-0.7452645301818848,-1.248812198638916,0.6934141516685486,-0.05708818510174751,0.12392180413007736,0.03081628307700157,0.002802264643833041,0.10168290883302689,0.28249073028564453,0.11864029616117477,-0.014011773280799389,-0.004398430231958628,-0.1332273781299591,-0.42577168345451355,0.3117345869541168,-0.009434384293854237,-1.3205288648605347,0.6839457154273987,-0.4176499843597412,-0.44783341884613037,-0.36260277032852173,-0.7910451292991638,0.9194212555885315,0.17052118480205536,-1.191124677658081,-1.0637106895446777,-0.45688146352767944,0.17260532081127167,-0.14188329875469208,0.031582608819007874,0.023314107209444046,-0.209603413939476,-0.6930063366889954,-0.04018128290772438,-0.8091891407966614,0.043520186096429825,-0.11726824194192886,0.19691644608974457,0.1736457645893097,-0.2731463313102722,-0.2633343040943146,-0.32200881838798523,-0.10592125356197357,0.21739690005779266,-0.26645854115486145,-0.3478713631629944,-0.037039365619421005,1.0129897594451904,1.4100314378738403,-0.22360451519489288,0.7168592810630798,-0.4615868330001831,-0.33723700046539307,-0.058082178235054016,-0.3132270872592926],[-0.13906031847000122,-0.3585423231124878,-0.11701446771621704,0.45798924565315247,0.35203665494918823,-0.16931547224521637,-0.6423869729042053,0.5106560587882996,0.5534743666648865,0.19442768394947052,0.06022237241268158,-0.004109900910407305,0.47862327098846436,0.09589377045631409,0.7385926842689514,-0.5134581327438354,0.13635510206222534,-0.626490592956543,0.2557936906814575,0.05450638756155968,0.8695700168609619,0.013508420437574387,-0.5554017424583435,-0.04669928923249245,-0.37532034516334534,0.07060021907091141,2.7847988605499268,0.8508029580116272,-0.26483893394470215,-0.24851062893867493,0.2645621597766876,1.975722074508667,-0.6832900643348694,-0.09095430374145508,0.3211509883403778,0.35546112060546875,0.16829782724380493,0.7562653422355652,0.0831737294793129,0.08921464532613754,0.07209578901529312,0.2772950828075409,-0.21482641994953156,0.13100765645503998,0.6743249297142029,0.07249188423156738,0.02036125771701336,0.04470496624708176,1.2718868255615234,0.12058636546134949,0.5636358857154846,-0.6428139805793762,-0.013316917233169079,0.6489430069923401,0.1408022791147232,0.7571879029273987,0.3117964267730713,0.7193068265914917,0.08379749953746796,-0.3798395097255707,0.04667440056800842,0.4096437394618988,0.28789016604423523,-0.08072727173566818,0.4084583818912506],[0.42884257435798645,0.4442415237426758,1.4348435401916504,0.510722279548645,0.20495811104774475,1.0949238538742065,-0.9081507325172424,-0.091159887611866,-0.27233952283859253,0.8893327713012695,0.18300674855709076,0.4886032044887543,-0.7743399143218994,-0.03331376239657402,-0.16049964725971222,-0.04449138045310974,0.24344979226589203,0.08313556760549545,-0.6592397093772888,-0.06679314374923706,0.3951300382614136,0.5424752235412598,-0.16059201955795288,-0.28470468521118164,-0.9022427201271057,0.05196822062134743,-1.8541203737258911,-0.6112327575683594,-0.01339734811335802,-0.3559334874153137,-0.14295561611652374,-0.5087530016899109,1.1559739112854004,-0.5272048115730286,-0.06667985767126083,-0.3452170491218567,0.3603648543357849,0.6346469521522522,0.2266363501548767,0.5603979825973511,-0.03809697553515434,0.2994668185710907,0.4323444366455078,-0.21526306867599487,0.7388674020767212,0.4329516887664795,-0.03186747804284096,0.9462685585021973,0.34377923607826233,-0.010745598934590816,-0.31420910358428955,-0.12665827572345734,0.1511579006910324,-0.09909016638994217,0.20790095627307892,0.908179759979248,0.2537197172641754,0.10191904753446579,-0.8195621371269226,0.16033755242824554,-0.05806759372353554,0.2817859351634979,-0.09643745422363281,0.4824187159538269,0.24938756227493286],[-0.06111477315425873,0.26106151938438416,-0.3194822072982788,-0.49348950386047363,0.2470107227563858,-0.930003821849823,-0.24074339866638184,0.4138512909412384,0.8449500799179077,-0.28283819556236267,-0.10476849228143692,0.1298265904188156,0.028035972267389297,-0.0757603868842125,-0.7937479019165039,-0.3627619445323944,-0.19136030972003937,0.6038113236427307,-0.7871876358985901,0.11458250135183334,-0.07275305688381195,0.4174708425998688,0.16657087206840515,-0.23795747756958008,-0.03061651438474655,-0.06370629370212555,0.9707883596420288,0.3331640362739563,0.1314030885696411,0.3603784441947937,0.16511844098567963,0.9656671285629272,-1.163536548614502,-0.4018985629081726,0.4422098696231842,-0.03384404629468918,-0.3153539299964905,-0.2008288949728012,-0.5226345658302307,-0.34159573912620544,0.3789273202419281,-0.08861269801855087,-0.02774992771446705,0.5856338739395142,-0.6778282523155212,-0.4276367127895355,0.4841781556606293,-0.2048788070678711,-1.1148494482040405,0.4737434983253479,-0.5056731104850769,0.5870652794837952,0.3225080370903015,0.4932168424129486,-0.8056064248085022,0.004349269438534975,0.09344520419836044,-1.012813687324524,-1.505405068397522,-0.5351536273956299,-1.0970357656478882,0.09230973571538925,0.2112126350402832,-0.3766036927700043,0.2868722677230835],[-0.1075650230050087,0.43839630484580994,1.0585473775863647,0.08092484623193741,0.001891563879325986,-0.4995461404323578,-0.30271708965301514,-0.06125718727707863,1.2109546661376953,-0.13227666914463043,-0.296994149684906,-0.29840126633644104,0.4801633059978485,-0.031967636197805405,1.2884160280227661,0.33703386783599854,-1.6020504236221313,-0.5334428548812866,0.1510159969329834,-0.0811130553483963,1.2405526638031006,0.08459347486495972,-0.7368336319923401,-0.5031704902648926,0.8111252188682556,0.004151106812059879,0.3323107659816742,0.14684824645519257,-0.5257983207702637,-0.05901356786489487,0.16568203270435333,-0.721986711025238,-1.494840383529663,0.06375264376401901,-0.2658088803291321,0.4067428410053253,0.2220952957868576,0.017159098759293556,0.1290971338748932,-0.5947757363319397,0.3309530019760132,0.0844191387295723,-0.5242336988449097,0.44360920786857605,-0.12153591215610504,-0.9710121750831604,0.3840060234069824,-0.3862560987472534,-0.5445047616958618,0.14669130742549896,-0.25905075669288635,0.12755773961544037,0.3513668179512024,0.5237043499946594,0.04117690026760101,-0.5896797776222229,-0.2638685405254364,-0.3302718698978424,-0.586808443069458,-0.3732548952102661,0.2673088014125824,-0.10169964283704758,0.5023071765899658,-0.8365936279296875,0.1376972198486328],[0.34587040543556213,0.22116534411907196,-0.2425982803106308,0.08626873791217804,-0.5783946514129639,0.6492453217506409,-0.12047207355499268,-0.015247298404574394,-0.7440999746322632,-1.1283581256866455,-0.30228981375694275,0.23081748187541962,0.3884250521659851,-0.05141307786107063,-0.05556994304060936,-0.6409320831298828,-0.10071110725402832,0.019199537113308907,0.6315312385559082,0.12134844064712524,0.15849444270133972,-0.24401232600212097,0.4060855805873871,0.5159022212028503,0.28809526562690735,-0.05214245989918709,0.5701325535774231,-0.5734325647354126,0.1598537266254425,-0.20148763060569763,0.2459414154291153,0.13062231242656708,1.2436920404434204,-0.15094995498657227,0.5577778816223145,0.16342808306217194,-0.1422920674085617,-0.33882734179496765,-0.1610272228717804,-0.08312354236841202,0.38687098026275635,0.11633001267910004,-0.20809337496757507,0.3563114404678345,-0.010095307603478432,-0.2657696008682251,0.4037097990512848,-0.2445679008960724,-0.17085956037044525,0.3201351463794708,0.26640942692756653,-0.4746898114681244,0.27638599276542664,-0.6628456711769104,-0.8209788799285889,0.45275038480758667,0.1180463433265686,-0.4616753160953522,-1.2574981451034546,0.23524853587150574,0.6080648303031921,0.22957023978233337,0.3994438052177429,0.18563704192638397,-0.08432263135910034],[0.23778504133224487,-0.2097259908914566,0.43665945529937744,0.21820779144763947,-0.21136753261089325,-0.2809635400772095,-0.5414366722106934,0.05509684234857559,1.0632730722427368,0.10851962119340897,-0.4348391890525818,-0.3905668556690216,-0.014113310724496841,0.010669806972146034,-0.5561332702636719,0.5243030786514282,-0.322527140378952,-0.00393231026828289,-1.4836207628250122,0.09992516785860062,0.07165543735027313,-0.32386916875839233,-0.5195937156677246,-0.3771840035915375,-0.5957083106040955,0.10346440970897675,3.164360284805298,0.6391657590866089,0.6511556506156921,-0.0985119566321373,-0.26199206709861755,-1.244118571281433,0.3995426595211029,0.033817172050476074,0.6570397615432739,-0.37654662132263184,-1.0301220417022705,-1.2399729490280151,0.22317518293857574,-0.5209282636642456,0.06307072937488556,0.006025922484695911,-0.07659414410591125,0.15542446076869965,-0.1043134480714798,0.6186187267303467,0.16425225138664246,-0.12498901039361954,-0.41009244322776794,0.18212157487869263,0.17261819541454315,-0.06018466129899025,0.2035578340291977,0.4241512715816498,-0.34137582778930664,1.2988213300704956,0.22699734568595886,-0.06843767315149307,0.20793481171131134,-0.6460842490196228,0.6545752286911011,0.09834111481904984,0.4694187641143799,0.558434784412384,-0.36610469222068787],[0.15213891863822937,0.18856480717658997,0.3305862247943878,-0.31159284710884094,-0.07041437178850174,-0.07028410583734512,2.1176838874816895,-0.07384330779314041,0.23061314225196838,-0.16135644912719727,-0.3619247376918793,-0.0401323065161705,0.5603114366531372,-0.027854928746819496,-0.6857501864433289,0.516538143157959,-0.3950190246105194,-0.044177066534757614,-0.20892928540706635,-0.1179351881146431,-0.9745315313339233,0.1724504679441452,-1.0729299783706665,-0.6904807686805725,-0.24097010493278503,0.07851605862379074,-1.3823639154434204,0.8796201348304749,0.5222765207290649,0.3995608985424042,0.46705034375190735,-1.3670872449874878,-0.35502487421035767,-0.28569239377975464,0.06660962104797363,0.01304754987359047,0.6681146621704102,0.06542464345693588,0.27483195066452026,0.8276908993721008,-0.378216415643692,0.09653005003929138,0.6929900050163269,-0.2463749647140503,-0.046170566231012344,0.5577568411827087,-0.3716050386428833,0.7557531595230103,-0.027118440717458725,-0.269681841135025,-0.5683366060256958,0.730709969997406,-0.15683504939079285,-0.3133357763290405,-0.3613758385181427,-0.71226966381073,0.14567454159259796,-0.4079998731613159,0.1204623207449913,0.9593138098716736,-0.15172146260738373,0.021077830344438553,0.7296534180641174,-0.09312288463115692,0.31715667247772217],[0.26747989654541016,0.7439703941345215,0.4417899250984192,0.10224778950214386,0.09982164949178696,0.20907054841518402,-0.21563924849033356,0.13595256209373474,-0.4145669937133789,-1.0200519561767578,0.26323413848876953,0.5174432992935181,0.14791105687618256,0.035326164215803146,-1.2233203649520874,-0.6017330288887024,-0.17051200568675995,0.514764130115509,-0.4970541298389435,-0.06210960075259209,-0.7653084993362427,-0.8024228811264038,-0.055798761546611786,-0.07308533042669296,0.6167239546775818,0.06257355958223343,1.1718806028366089,-0.20372247695922852,0.01568632759153843,-0.27965089678764343,-0.21178750693798065,1.0272197723388672,0.15540653467178345,-0.5186876654624939,0.43518078327178955,0.05880385637283325,-0.4177212119102478,0.942891538143158,-0.28886476159095764,0.22470726072788239,0.4139285981655121,-0.70224529504776,-0.25172555446624756,0.3358422517776489,-0.19364339113235474,-0.3664192855358124,0.33969706296920776,-0.21312828361988068,-0.5476186275482178,0.3514775335788727,-0.3981461524963379,-0.2349115014076233,0.25695815682411194,-0.5377606749534607,-0.5289605855941772,-0.06655782461166382,0.23134516179561615,-0.39307963848114014,-0.5150676965713501,0.06976798176765442,0.5541022419929504,-0.03753889724612236,0.09512289613485336,0.2490924894809723,-0.3522549271583557],[-0.03766933083534241,-0.7051047086715698,0.905937671661377,-0.582111656665802,0.4570242464542389,-0.9937917590141296,1.6492964029312134,0.23191064596176147,0.3598647713661194,1.17924165725708,-0.25646743178367615,0.43717336654663086,0.18906603753566742,-0.07472070306539536,0.10852647572755814,1.3663614988327026,-0.2784777581691742,0.24555641412734985,-0.004994344897568226,-0.03236088529229164,-0.7267369627952576,-1.072352647781372,1.0940017700195312,1.000044345855713,-0.18452619016170502,-0.09453621506690979,-0.3187583088874817,-0.4308951795101166,0.6230989694595337,0.5492528676986694,0.05196768790483475,-0.44738656282424927,0.5701953172683716,0.36112654209136963,0.26212966442108154,-0.02604081481695175,-0.6156626343727112,-0.11474159359931946,-0.36441922187805176,-0.2688799500465393,0.08903861790895462,-0.1468142718076706,-0.16321058571338654,0.3699321448802948,-0.10417068749666214,-0.6279076337814331,0.27253785729408264,-0.2615794241428375,-0.2887556254863739,0.3381575047969818,-0.006540640722960234,-0.2743094861507416,0.4894512891769409,-0.7368906736373901,0.6644703149795532,-0.2743534445762634,-0.19047318398952484,0.1294887661933899,-0.00893387757241726,-0.10272517055273056,-0.559869110584259,-0.17709246277809143,-0.20982569456100464,0.2859535217285156,-0.11336295306682587],[0.012004715390503407,-0.4142700135707855,0.8596104979515076,-1.2743898630142212,0.1666158139705658,0.16417783498764038,0.13864530622959137,0.1821768879890442,-0.30698105692863464,1.473421573638916,0.08626725524663925,-0.9669278860092163,0.45537498593330383,-0.10330110043287277,-0.03815799579024315,-0.7257869839668274,0.6983819007873535,0.5104245543479919,0.37119629979133606,0.10821781307458878,0.8441213369369507,1.5091462135314941,-0.06755293160676956,0.10829142481088638,-0.5272618532180786,-0.028343357145786285,-0.26704567670822144,0.18828421831130981,0.08692876994609833,0.08035005629062653,-0.12695765495300293,-0.11908269673585892,-1.4352774620056152,-0.3883301615715027,-0.16284869611263275,0.09145306050777435,0.2380000352859497,0.5976868271827698,0.054964642971754074,-0.4640025496482849,0.14876745641231537,0.531531035900116,-0.5071408748626709,0.26916298270225525,-0.35285964608192444,-1.1018165349960327,0.2598673701286316,-0.7169486880302429,0.3596644699573517,0.1551385372877121,-0.6319884657859802,-0.7232590913772583,0.29366201162338257,-0.18285636603832245,1.116091012954712,0.008950973860919476,-0.10512944310903549,0.25306811928749084,1.121459722518921,-0.15285953879356384,0.19551272690296173,0.14188969135284424,-0.5474764108657837,-0.014475524425506592,-0.037077996879816055],[0.028826478868722916,0.14343073964118958,0.028862690553069115,-0.2744971513748169,-0.1997172087430954,0.5821353197097778,0.8819382190704346,-0.2808123826980591,-1.5302661657333374,-0.8558290004730225,0.24143165349960327,-0.5417023301124573,-0.5827372074127197,-0.03351418673992157,-0.44727250933647156,-0.32839927077293396,0.3879636526107788,-0.1871214359998703,0.24343562126159668,-0.08087264746427536,-1.1522094011306763,-0.5254760980606079,0.45510607957839966,-0.2388920783996582,0.5140894651412964,-0.025023391470313072,-1.6678895950317383,-0.515251636505127,-0.4433280825614929,-0.731975793838501,-0.4053758680820465,-0.990877091884613,-0.08728968352079391,-0.19125205278396606,-0.4515594244003296,0.14003325998783112,0.12407756596803665,0.9004760980606079,0.14743851125240326,0.023808803409337997,-0.15523286163806915,0.05510837212204933,0.09117340296506882,-0.24022747576236725,0.040173765271902084,-0.3714236915111542,-0.17574124038219452,0.34455645084381104,-0.4857634902000427,-0.1872873604297638,0.1607803851366043,0.09645448625087738,-0.24525433778762817,-0.637148916721344,-0.4692140221595764,-0.7209721207618713,-0.40609851479530334,-0.8244176506996155,-0.05906018614768982,0.5617908835411072,-0.6540710926055908,0.11434394121170044,-0.35337162017822266,-0.4848230183124542,-0.2252356857061386],[0.16572661697864532,0.022869335487484932,0.6806755065917969,-0.04899771511554718,-0.34501802921295166,0.9041311144828796,1.4910560846328735,-0.7262560725212097,0.770929753780365,0.2012096643447876,-0.033725786954164505,0.10560931265354156,0.2961985766887665,0.0861930251121521,-0.585180401802063,-0.48793622851371765,0.5521976947784424,0.25492218136787415,-0.5497674942016602,-0.03363095223903656,-1.3148130178451538,-0.5334539413452148,-0.032038986682891846,0.1768263429403305,-0.32095110416412354,0.09447001665830612,-0.8021032810211182,-0.1614469289779663,0.14963573217391968,-0.45049554109573364,-0.4767623841762543,-1.8844956159591675,0.46811848878860474,-0.35585838556289673,-0.5291851162910461,-0.2090553492307663,0.18808479607105255,-0.15057937800884247,0.4866064488887787,0.37240275740623474,-0.042412564158439636,0.017805024981498718,-0.322682648897171,0.006800608243793249,0.38590189814567566,-0.4917519986629486,0.0282723531126976,-0.261715829372406,-0.06753236055374146,0.11048640310764313,-0.133998841047287,0.08326029777526855,0.20080672204494476,-0.510094165802002,-0.29002612829208374,-0.6529164910316467,0.21575242280960083,-0.5895888805389404,0.23697450757026672,0.7506808638572693,0.47134071588516235,-0.15432240068912506,-0.22823844850063324,0.4569939374923706,-0.49515336751937866],[-0.42645373940467834,0.1302938163280487,-0.8719455003738403,-0.08788333833217621,0.1330033391714096,-0.09405912458896637,-0.009784772992134094,-0.19539013504981995,0.2625056207180023,-0.7150809168815613,0.0723918229341507,-0.3814398944377899,-0.5832525491714478,-0.0025240746326744556,-0.5268644094467163,-0.3859088122844696,-0.9013450145721436,-0.6709564328193665,-0.617247998714447,-0.06821396946907043,0.6182604432106018,0.7623982429504395,-1.052557349205017,-0.9574369192123413,-0.18741680681705475,-0.040509264916181564,0.760702908039093,0.6216089129447937,-0.6147940158843994,0.20774881541728973,0.8067687153816223,0.9367430210113525,-0.7319878935813904,0.01910492032766342,-0.877564549446106,0.4593219757080078,0.2402234524488449,0.19438213109970093,0.6490814685821533,-0.3228200376033783,0.11548157036304474,0.08758321404457092,-0.6738380193710327,0.25209349393844604,0.4815753400325775,-0.6332255005836487,-0.21935832500457764,0.5319002270698547,-1.0157355070114136,-0.03388124704360962,0.28032511472702026,0.10162004828453064,-0.4335591197013855,0.11385297775268555,-0.32955315709114075,-1.3383029699325562,-0.27810683846473694,-0.1064060851931572,0.18256419897079468,0.49567657709121704,1.0967791080474854,-0.1750497817993164,0.549537181854248,-1.03758704662323,0.38054534792900085],[0.4065183997154236,-0.5754523277282715,-0.18902787566184998,0.3912924826145172,0.21228548884391785,1.6570250988006592,1.368132472038269,0.34110140800476074,-0.7630322575569153,0.18076686561107635,-0.22474704682826996,0.6098703145980835,-0.07917829602956772,0.10826214402914047,-0.06946580111980438,0.7385962009429932,0.4833637475967407,0.517463743686676,-0.5073140263557434,0.00019604880071710795,-0.2711692452430725,0.16556206345558167,0.7942060828208923,0.15843182802200317,-0.8259009122848511,-0.024287886917591095,0.20253553986549377,0.011594954878091812,0.1619640290737152,0.36754438281059265,-0.04903203248977661,-0.4622252881526947,2.0484347343444824,0.5016347169876099,0.3053193688392639,0.46447861194610596,0.14128486812114716,0.2844606637954712,0.33201977610588074,1.061543583869934,0.149518683552742,0.4149588942527771,0.22975656390190125,0.18380030989646912,0.820181131362915,-0.12912939488887787,0.2521805763244629,-0.474507212638855,0.4964589476585388,0.13650768995285034,0.46375736594200134,-0.12270738929510117,0.15586726367473602,-0.9377362728118896,0.22342659533023834,-0.8016051650047302,0.022724734619259834,0.35630175471305847,-0.563187837600708,0.6849204301834106,-0.2631991505622864,0.40315109491348267,-0.2322903424501419,0.23102429509162903,0.033446669578552246],[0.1352500170469284,0.04763117432594299,1.5044326782226562,-0.28145962953567505,-0.2652380168437958,-0.32702872157096863,2.335660934448242,0.36308303475379944,0.5109769105911255,-0.35663679242134094,0.34660783410072327,-0.05999577417969704,-0.4305768609046936,0.07609482109546661,-0.3231673836708069,0.3924075663089752,-0.20883964002132416,-0.16643290221691132,-1.285165548324585,0.09259998798370361,0.07783301174640656,-0.8481137752532959,-0.27002930641174316,-0.6734753847122192,-0.6918969750404358,-0.07105720043182373,0.3294314444065094,0.6734978556632996,0.1360233575105667,-0.5384603142738342,-0.4989750385284424,-1.0264400243759155,0.8656909465789795,0.4018283486366272,0.3526908755302429,0.2545316219329834,0.22734054923057556,-0.2629063129425049,0.34171774983406067,0.2667734622955322,-0.08768755942583084,-0.37986716628074646,-0.21844445168972015,-0.16746316850185394,0.30842211842536926,1.2682082653045654,-0.016296815127134323,0.2016787827014923,-0.027381371706724167,-0.1137651726603508,0.17811468243598938,-0.2148730456829071,-0.1956474334001541,0.1641591638326645,-0.1538451910018921,-0.21166688203811646,0.38208550214767456,0.29833728075027466,-0.3238134980201721,0.7005687952041626,0.6305024027824402,-0.10452619194984436,0.6418757438659668,0.2791909873485565,0.14977632462978363],[0.4821580648422241,-0.3193628489971161,0.04833338037133217,-0.0940571129322052,-0.24471603333950043,0.23540250957012177,-0.13099677860736847,0.5476982593536377,0.06540489941835403,0.7256541848182678,-0.07049664855003357,0.8034578561782837,-0.9452595114707947,0.0756610557436943,0.8118165135383606,0.7986839413642883,-0.299432635307312,-1.0425165891647339,-0.5369994640350342,-0.036495108157396317,0.683110773563385,-0.7382634878158569,-0.005092539358884096,-0.4179772138595581,-0.21541942656040192,0.11317279189825058,2.869490623474121,-0.0756770521402359,0.3780871331691742,-0.13753502070903778,0.030793143436312675,1.450253963470459,0.24230365455150604,-0.49256277084350586,0.7437036633491516,0.755841076374054,0.18079565465450287,-0.3482421636581421,-0.3607262074947357,-0.3655429780483246,0.575118362903595,-0.5867103338241577,-0.054433565586805344,0.5872158408164978,-0.23324184119701385,-0.2863502502441406,0.5769297480583191,-0.6371405124664307,0.19923214614391327,0.5884493589401245,0.06964129954576492,-0.1456654816865921,0.4834715723991394,0.27422860264778137,-0.49211469292640686,