{"topology":"mlp_tanh_3layer","input_dim":65,"output_dim":18,"source":"model_sharpshooter.onnx","layers":[{"w":[[-0.5023685097694397,-0.40946799516677856,1.305801272392273,-0.981336772441864,-0.13989241421222687,-0.40864869952201843,1.3602056503295898,-0.2712840437889099,0.7358865737915039,0.24670501053333282,0.21021272242069244,0.4932194948196411,0.5930412411689758,-0.07115662097930908,-0.0334431529045105,0.6181653738021851,-0.3380509912967682,-0.6283776164054871,-0.8901500105857849,0.06057826429605484,-0.42406317591667175,-0.6517897248268127,-0.8172521591186523,-0.6248689293861389,-0.04801923409104347,-0.10729598999023438,-0.19540703296661377,-0.16046850383281708,0.3233715891838074,0.08503757417201996,0.3499810993671417,0.2932293713092804,0.00771327642723918,0.7785863876342773,-0.14157305657863617,-0.7632748484611511,0.09889071434736252,1.3639198541641235,0.7276521325111389,0.9792042970657349,-0.35665300488471985,-0.5969642400741577,0.6661781668663025,-0.002859571250155568,-0.15993495285511017,0.4930581748485565,-0.2130119949579239,-0.48268836736679077,0.8867627382278442,-0.11815711110830307,-0.18178531527519226,-0.08673857897520065,-0.0785616859793663,0.3611101806163788,0.8012732267379761,-0.786191999912262,0.035719070583581924,0.294463187456131,-0.012359466403722763,0.8300676345825195,0.1944429725408554,-0.26450639963150024,0.4581397473812103,0.18382517993450165,0.06152607873082161],[-0.2232789844274521,0.3682509660720825,0.17053402960300446,0.005665217060595751,0.006697340402752161,-0.6658284664154053,-1.7545275688171387,0.028664354234933853,0.3656695783138275,-0.3742702603340149,0.10608469694852829,-0.12084018439054489,0.1791887879371643,-0.06026111915707588,-0.006322687957435846,-0.540716290473938,0.11149731278419495,0.3482382595539093,1.5421892404556274,0.11363023519515991,0.18432679772377014,-0.5717378258705139,0.23310483992099762,0.4453130066394806,1.2653237581253052,-0.041011326014995575,-0.6173462867736816,-2.2281785011291504,0.23298096656799316,0.042153097689151764,-0.008273910731077194,-0.8904702663421631,-0.09512551128864288,-0.38344606757164,0.32993459701538086,0.012209173291921616,0.013047962449491024,-1.4928524494171143,-0.07045871019363403,0.18826185166835785,-0.11708338558673859,0.774189829826355,-0.13445188105106354,-0.09579528868198395,-0.06850312650203705,-0.5415729880332947,-0.27046629786491394,0.5663831233978271,0.31687745451927185,-0.07216404378414154,-0.17208661139011383,0.6630473732948303,-0.2893940508365631,0.19278845191001892,-0.1553715616464615,-0.7487925887107849,-0.09664524346590042,-0.5562678575515747,-1.290226936340332,0.7441838979721069,-0.26664990186691284,-0.02227485179901123,-0.35776960849761963,0.09516605734825134,-0.08976691961288452],[-0.49097588658332825,-0.2979399561882019,0.19150498509407043,-0.8702531456947327,0.1665690392255783,-0.43697699904441833,-0.28245559334754944,-0.1630338877439499,0.9039855599403381,0.4053192138671875,0.4548150599002838,0.5087277293205261,0.4123520851135254,-0.11284957081079483,0.17362061142921448,0.623894453048706,0.17750486731529236,-0.03361089527606964,0.7617775201797485,-0.06142290681600571,1.2200673818588257,-0.42679986357688904,0.37273964285850525,-0.17148545384407043,1.230617642402649,-0.042086511850357056,0.7891165018081665,0.3839704096317291,0.5439404249191284,0.05173454433679581,0.14785990118980408,-0.7276480197906494,-1.0014837980270386,-0.1741538941860199,0.4013470709323883,0.7654479146003723,-0.1516311913728714,-0.11303899437189102,0.3425454795360565,0.30208152532577515,-0.07201545685529709,0.4602075517177582,-0.49366268515586853,-0.05350644513964653,0.18111589550971985,-0.5787410140037537,-0.16746245324611664,0.13543857634067535,-0.6378644108772278,-0.04129853844642639,1.1044305562973022,0.44589218497276306,-0.01522646564990282,0.5662598013877869,0.5488371849060059,0.3444688618183136,0.31272992491722107,-0.685791552066803,-0.216877743601799,-0.07497899979352951,-0.27302828431129456,-0.2035338133573532,0.25024154782295227,0.4269583821296692,-0.1402113437652588],[-0.2642733156681061,-0.7744681239128113,-1.009765863418579,0.07331383973360062,0.5244176387786865,-0.14751961827278137,-0.06579907983541489,-0.007925287820398808,1.160036325454712,0.977435827255249,0.7301620244979858,1.0870277881622314,0.3302210569381714,-0.05840720981359482,0.6403186321258545,0.46630701422691345,0.6628391146659851,0.6927146315574646,0.10957657545804977,-0.09236596524715424,0.7834264636039734,-0.8553398847579956,0.6839002966880798,0.8340493440628052,-0.12278971076011658,-0.10650242120027542,1.5672190189361572,0.10492292046546936,1.0694928169250488,0.7986062169075012,-0.017678825184702873,0.09055861830711365,0.0768495723605156,0.492646723985672,0.47884276509284973,0.5075926780700684,-0.25414690375328064,0.2922877371311188,0.43727219104766846,0.46560582518577576,0.1200970783829689,-0.2469361424446106,0.42992907762527466,0.10702789574861526,0.22124932706356049,0.22512522339820862,0.12413564324378967,0.34060150384902954,-0.3347584009170532,0.33078253269195557,0.740348756313324,-0.05215049907565117,0.1725037842988968,0.6776435375213623,0.2498835176229477,0.8879990577697754,0.22921307384967804,-0.5524306893348694,0.4444166421890259,-0.11568555235862732,0.023973902687430382,0.38443800806999207,-0.504418134689331,0.6544642448425293,-0.09157701581716537],[-0.05784754082560539,0.11140833050012589,1.9201773405075073,0.6585951447486877,0.6820620894432068,0.46455925703048706,-0.4470888078212738,0.48044314980506897,0.21938036382198334,-0.44027358293533325,-0.32716843485832214,0.26654279232025146,-1.0967116355895996,0.023521892726421356,0.18046650290489197,-1.046705961227417,0.0828840509057045,0.21079540252685547,-0.3105328679084778,-0.1044379398226738,0.5082077980041504,-0.2780824899673462,0.20235419273376465,0.3532020151615143,-0.4308152198791504,-0.05244198068976402,-0.05089090019464493,-1.7298277616500854,-0.2595053017139435,0.49441149830818176,0.12488024681806564,-0.367291122674942,1.286531925201416,0.1105804443359375,-0.1004556193947792,-0.8344942331314087,-0.6779129505157471,-1.0984774827957153,0.20522461831569672,0.6872722506523132,-0.05681602656841278,0.14251454174518585,0.08551770448684692,-0.1551203578710556,0.19438935816287994,0.4916561245918274,-0.15596607327461243,0.8687074780464172,-0.31035512685775757,-0.17844967544078827,-0.5717628598213196,0.4887935519218445,-0.20307350158691406,-0.16031721234321594,-0.23305077850818634,-0.41779741644859314,-0.23944273591041565,-0.6527880430221558,-0.01096840389072895,0.9179182648658752,-0.20330177247524261,0.03429050371050835,-0.5921621322631836,0.21131253242492676,0.049054037779569626],[-0.4987061619758606,0.004747286904603243,1.5850934982299805,0.43636226654052734,-0.9108969569206238,0.8635850548744202,0.09432829171419144,-0.4003514051437378,0.9974038004875183,-0.6003242135047913,0.5102479457855225,0.8306915163993835,0.8367860317230225,0.09389461576938629,1.3252261877059937,0.3855302929878235,-0.47814399003982544,0.2023114711046219,0.7881601452827454,-0.05710870772600174,-0.4112986922264099,0.6315348148345947,-0.13104282319545746,0.20671065151691437,0.32711243629455566,0.07067500799894333,0.7107062935829163,0.38951247930526733,0.25214678049087524,0.8976867198944092,0.362964928150177,0.05148972198367119,-0.7330353260040283,0.6498093008995056,0.7324684262275696,0.19704356789588928,0.327582985162735,-0.434405118227005,-0.34268656373023987,-0.2256600558757782,0.5656279921531677,0.026937682181596756,-0.15996605157852173,0.5790550112724304,-0.26093533635139465,-0.4473798871040344,0.6009498238563538,9.192503785016015e-05,-0.745755136013031,0.7288307547569275,-0.12407426536083221,-0.022141993045806885,0.37392860651016235,0.7481197714805603,0.32711052894592285,0.5399461984634399,0.034239400178194046,0.1461016982793808,-0.040752992033958435,-0.14758411049842834,-0.9262860417366028,0.1615082025527954,-0.18796399235725403,0.13880297541618347,0.031247828155755997],[0.18833503127098083,0.4699374735355377,1.854474663734436,0.024008367210626602,-0.4586241543292999,0.8468512296676636,-1.6295461654663086,0.2037450671195984,0.4485197961330414,-0.43857499957084656,0.4455387592315674,-0.31375640630722046,0.46361657977104187,0.04337656870484352,0.887066662311554,-0.20613440871238708,0.24403537809848785,0.20464925467967987,0.2584993839263916,0.003510913345962763,-0.12209591269493103,1.0220706462860107,0.6129727959632874,0.5972261428833008,0.1720956563949585,0.12092620879411697,-0.9684553742408752,-1.3023144006729126,-0.4030332863330841,0.27550172805786133,-0.013005200773477554,0.05434449762105942,0.05945263430476189,-0.6667535305023193,-0.019775867462158203,-0.19631661474704742,0.034664418548345566,-0.47932741045951843,0.2105492204427719,-0.49035295844078064,0.29131701588630676,0.5660262703895569,-0.4282424747943878,-0.01531551405787468,0.7073855996131897,-0.398185670375824,0.14975835382938385,0.43050435185432434,0.03064814768731594,0.17466451227664948,0.3967694044113159,-0.10453971475362778,-0.0249898973852396,-0.07360692322254181,-0.6183334589004517,0.19472409784793854,0.23411925137043,1.019594430923462,-0.5479214787483215,0.3442651033401489,-0.49659523367881775,0.33441197872161865,-0.20797882974147797,0.5679030418395996,-0.08766261488199234],[0.03487255051732063,0.3004896938800812,1.2400637865066528,1.2586681842803955,-0.8884378671646118,-0.19763825833797455,-0.07148214429616928,-0.13246892392635345,-0.5074217319488525,-0.39585334062576294,-0.4171757698059082,-0.09289206564426422,0.07797495275735855,-0.018059806898236275,0.01918284222483635,-0.4954293966293335,0.1702161282300949,0.7253490686416626,-0.1757543832063675,-0.12198379635810852,0.04244711250066757,0.37792906165122986,0.3472307026386261,0.20600385963916779,0.8874039649963379,0.0965832993388176,-2.2726786136627197,-1.2958372831344604,0.17612504959106445,0.2895645201206207,0.15100187063217163,0.42106470465660095,0.006670057307928801,0.18624648451805115,-0.177125483751297,-0.8106328845024109,-0.11198975145816803,0.2950960397720337,-0.11552915722131729,1.1671020984649658,-0.560699999332428,1.8097866773605347,-0.08535999059677124,-0.48878490924835205,-0.968680739402771,0.5437250137329102,-0.5450236797332764,0.4884805977344513,0.14758498966693878,-0.45976415276527405,-0.34569069743156433,0.8619892001152039,-0.5018734931945801,-0.10991225391626358,-0.04889092594385147,-0.4497109353542328,-0.17960846424102783,-0.38449129462242126,-0.0379192978143692,0.49550777673721313,-0.6751559972763062,0.12649019062519073,-0.3085927665233612,-0.09069038182497025,0.014249926432967186],[0.3345020115375519,0.0026087434962391853,-0.6394148468971252,1.4203664064407349,0.4155225455760956,0.24550357460975647,1.1755478382110596,0.4200593829154968,-0.48296865820884705,-0.03662730008363724,-0.09736473113298416,-1.289975643157959,-0.6666362285614014,-0.04307679459452629,-0.4994603991508484,1.099082112312317,-0.3422762155532837,0.22178976237773895,-0.43188101053237915,0.12389850616455078,-0.5116938948631287,-0.574104368686676,0.47478345036506653,0.6691043972969055,0.274209588766098,0.09684183448553085,-1.517345666885376,-0.4258921444416046,0.6845539212226868,-0.028076689690351486,0.14180615544319153,-0.5763324499130249,0.3713507354259491,0.5376818776130676,-0.2233438342809677,0.4172074496746063,0.3063141405582428,0.5073093175888062,-0.1286148577928543,0.27717921137809753,0.09788884967565536,0.11038193106651306,-0.10907012969255447,-0.17889155447483063,-0.055476412177085876,-0.2850646674633026,-0.1268407702445984,0.7698994278907776,0.31315338611602783,-0.016224339604377747,-0.23602476716041565,0.1902458816766739,-0.07294348627328873,-0.5233058333396912,0.1925932914018631,-0.4617786109447479,0.07156940549612045,0.41904208064079285,0.42114686965942383,0.26790744066238403,-0.8498707413673401,0.020662372931838036,0.25464603304862976,0.08022107928991318,0.3099840581417084],[-0.7546969652175903,-0.1767771989107132,-0.48943081498146057,-0.12786716222763062,0.24760344624519348,-1.1253528594970703,0.49268627166748047,-0.04090556502342224,0.4592364728450775,-0.5903410911560059,0.13521026074886322,-0.2377200573682785,-0.149595245718956,-0.0051454417407512665,0.4711339771747589,-0.36568114161491394,-0.6993880271911621,-0.40565598011016846,-0.5243901610374451,0.03430355712771416,0.7291273474693298,-0.16673438251018524,0.5205650329589844,0.04666644707322121,1.3255500793457031,0.04725703224539757,-1.1653634309768677,-0.15859881043434143,-0.11012176424264908,0.0810050368309021,0.24972231686115265,-0.13313445448875427,-1.781408667564392,-0.5718466639518738,-0.21967966854572296,-0.13257354497909546,0.05460457503795624,0.060733962804079056,0.3435054123401642,-0.03847254440188408,-0.37596288323402405,0.5167551636695862,0.10425553470849991,-0.3474624454975128,-0.5120396018028259,0.6832992434501648,-0.4961051046848297,0.817990779876709,0.16211707890033722,-0.678023636341095,0.4403418302536011,0.6514763236045837,-0.6116422414779663,0.26966142654418945,-0.028705665841698647,-0.9803830981254578,-0.6625065207481384,-0.4613950848579407,-0.088165782392025,-0.1510462760925293,0.19037072360515594,-0.02590944431722164,-0.38967907428741455,-0.73124760389328,0.10994627326726913],[0.05040477216243744,0.4744102656841278,0.3990192711353302,-0.14544324576854706,-0.05140019953250885,0.270052969455719,3.087031602859497,-0.5455283522605896,0.6223929524421692,0.577755868434906,-0.5919365882873535,-0.8306190967559814,1.6383700370788574,0.0029728917870670557,-0.17785443365573883,-0.11355910450220108,-0.5352486968040466,-0.22014456987380981,0.5317025184631348,0.030714187771081924,-0.16142673790454865,-0.6292464137077332,-0.4590524137020111,-0.09076400101184845,0.4475543797016144,-0.09120141714811325,0.443552166223526,0.41424456238746643,-0.0332019068300724,0.2151416391134262,0.05851896479725838,1.7226721048355103,-0.5315827131271362,-1.2284048795700073,-0.042256418615579605,0.34882888197898865,0.21963930130004883,0.3958301246166229,0.20385238528251648,-0.22035567462444305,-0.2377755343914032,0.007391487713903189,0.07068394869565964,-0.10866596549749374,0.041032206267118454,0.07529454678297043,-0.12560053169727325,0.24556516110897064,-0.604945957660675,-0.3474845290184021,0.7060134410858154,-0.09009584039449692,-0.34244871139526367,0.7120500206947327,-0.32976746559143066,0.11727063357830048,0.25387516617774963,0.4433385133743286,0.35251420736312866,-0.2935297191143036,-0.014895184896886349,-0.1498938500881195,0.44783464074134827,-0.10374408215284348,-0.1033506691455841],[-0.13058634102344513,-0.17639149725437164,0.224356546998024,-0.3250677287578583,-0.4322316646575928,0.41968587040901184,2.2354824542999268,-0.6200844049453735,0.3460807800292969,0.03192121163010597,0.6393635869026184,1.4462634325027466,0.7522764205932617,-0.04794727638363838,0.002132051857188344,-0.5282406806945801,0.8540055155754089,0.9730749726295471,-0.0073740119114518166,0.12243005633354187,0.15745480358600616,-0.5167788863182068,0.4554206430912018,1.4555087089538574,-0.06586941331624985,0.07171488553285599,0.10619065165519714,0.2301032394170761,0.10344291478395462,-0.2742155194282532,-0.3648955821990967,-0.9469731450080872,1.1300427913665771,0.0933060422539711,0.14420433342456818,0.3506217896938324,-0.4532455801963806,-0.07191227376461029,0.31547972559928894,0.1991400271654129,0.11138048022985458,-0.5122249126434326,0.1965285986661911,0.06198304519057274,0.38318783044815063,-0.1752791702747345,0.0934431403875351,0.14049513638019562,0.3344884216785431,0.059129998087882996,0.37991154193878174,-0.3579300045967102,0.15109384059906006,-0.008196745067834854,0.4984152615070343,0.4174615442752838,0.4809745252132416,-0.6855934262275696,0.588394820690155,0.4294736683368683,-0.2527623176574707,-0.028734564781188965,-0.22568155825138092,1.1260998249053955,-0.37577974796295166],[-0.4858147203922272,-0.27996882796287537,-0.6668359041213989,-0.14273256063461304,0.07295912504196167,-0.5600326061248779,1.028133749961853,-0.42384976148605347,1.174997091293335,-0.7974908947944641,-0.008205628953874111,0.22659248113632202,0.5363295674324036,0.0604495070874691,-0.11130412667989731,-0.05885843187570572,-0.8470152020454407,-0.828953742980957,-0.09819204360246658,-0.10766644030809402,0.3118138611316681,-0.774638831615448,-0.3947572410106659,-0.5863587260246277,0.13028199970722198,0.09473136067390442,0.6730541586875916,0.9390352368354797,0.022283311933279037,0.10284516960382462,0.4256942570209503,0.6175315380096436,-0.8378240466117859,0.0020631994120776653,-0.5505110025405884,0.5514214038848877,0.4205944836139679,0.6869615316390991,0.6893182992935181,-0.15723390877246857,-0.22902517020702362,-0.027047041803598404,0.3981470763683319,0.012801882810890675,-0.156992569565773,0.4152315557003021,-0.2398224025964737,0.09784882515668869,-0.31215110421180725,-0.26559287309646606,0.6335462331771851,0.05883174389600754,-0.5280963778495789,0.2228274643421173,-0.38409408926963806,-0.8359051942825317,-0.43488365411758423,-0.04224783927202225,1.265897512435913,0.28405827283859253,0.43903082609176636,-0.22354353964328766,-0.17605750262737274,-1.0932830572128296,0.0579560287296772],[0.3469562828540802,-0.049543049186468124,-0.9803481101989746,-0.3115372955799103,-0.6343514323234558,1.0569486618041992,-1.1479463577270508,-0.15856565535068512,-1.2450634241104126,-0.43822261691093445,0.32854515314102173,0.2301948219537735,-0.08396106958389282,0.09228489547967911,-0.43723630905151367,-0.11741489917039871,0.6751652359962463,0.4416404366493225,0.013170197606086731,0.03812798112630844,-0.6550981998443604,-0.2504386603832245,0.48470333218574524,0.2120751589536667,0.10336804389953613,-0.024240201339125633,0.10589424520730972,-0.5730268359184265,0.40387025475502014,-0.3681493103504181,-0.5000755786895752,-0.6368463635444641,0.4144957363605499,-0.9252873063087463,0.6351346969604492,0.16254504024982452,-0.006361348554491997,-0.050862956792116165,-0.2993311882019043,0.07964830100536346,-0.09390052407979965,-0.30363795161247253,0.08255517482757568,-0.15118451416492462,0.00017653695249464363,-0.04017343744635582,0.07186229526996613,-0.07403741031885147,-0.2885056436061859,-0.06163056939840317,0.12387607246637344,-0.32435426115989685,0.23403923213481903,-0.20084065198898315,0.03261510282754898,1.3826872110366821,0.07242341339588165,0.26579520106315613,0.07248805463314056,-1.2490578889846802,-0.09523249417543411,-0.04512196034193039,-0.5448259711265564,0.26184818148612976,-0.2687305510044098],[-0.18918582797050476,0.08141950517892838,-1.3112083673477173,-0.12694761157035828,0.24036160111427307,-0.9755212664604187,0.8722871541976929,-0.27334320545196533,0.9649172425270081,0.00012246462574694306,0.5580543875694275,1.3241621255874634,0.7268019914627075,-0.005694109480828047,0.36821499466896057,0.9701496958732605,0.3308103680610657,0.6075795888900757,-0.15254203975200653,-0.08251947909593582,0.2773013114929199,-0.4530702531337738,0.640614926815033,0.8292050957679749,0.2852490246295929,-0.04617823660373688,1.1982090473175049,1.0118434429168701,0.2913235127925873,-0.1382627785205841,-0.13847117125988007,0.07454752922058105,-0.4368659555912018,-0.17385953664779663,0.2829671800136566,0.15628014504909515,-0.08639030903577805,-0.7768439054489136,0.0373242013156414,-0.07215127348899841,-0.11309679597616196,-0.04199019446969032,0.46031683683395386,-0.20933155715465546,0.3800693452358246,0.11400231719017029,-0.25206536054611206,-0.0721052885055542,-0.3473548889160156,-0.20902831852436066,-0.45269086956977844,0.9994734525680542,-0.16469202935695648,0.8896165490150452,-0.225017711520195,0.09185992926359177,0.39721399545669556,0.21870052814483643,-0.17484410107135773,-0.04755275323987007,-0.5912734866142273,-0.11235743761062622,0.635750949382782,0.8602234125137329,-0.19523726403713226],[-0.5029105544090271,0.19482167065143585,0.42583411931991577,0.6193068027496338,0.04803613945841789,0.3789994716644287,-0.43475109338760376,0.43054887652397156,0.5635392069816589,-0.20027819275856018,0.29410672187805176,0.8642200827598572,-0.7389369010925293,-0.026444438844919205,0.3862767219543457,-0.590231716632843,-0.10496734082698822,-0.46070319414138794,-1.4169855117797852,-0.022778404876589775,0.8683217167854309,-0.19383004307746887,-0.5484851598739624,-0.06045061722397804,-0.2787849009037018,-0.052024126052856445,2.4999160766601562,-0.23783260583877563,-0.2265903353691101,0.03648630157113075,-0.08124774694442749,0.7912516593933105,-1.0755982398986816,-0.742886483669281,0.36007338762283325,0.3209262788295746,-0.016809634864330292,0.18954387307167053,-0.19111628830432892,0.2953488826751709,-0.11660397797822952,0.2245088368654251,-0.3617366552352905,-0.05804325267672539,0.6569088697433472,0.0795825719833374,-0.1807710826396942,-0.21677079796791077,-0.6755602955818176,-0.10426489263772964,1.0713989734649658,0.07990015298128128,-0.2105935513973236,0.5944990515708923,-0.21850356459617615,0.021610459312796593,0.14661824703216553,0.2772867977619171,-0.8440392017364502,-0.46578705310821533,0.20376813411712646,0.06024399772286415,0.00062253960641101,-0.4580825865268707,0.30189886689186096],[-0.18091997504234314,0.9107994437217712,1.3481674194335938,-1.4115227460861206,-0.33914920687675476,-0.8277152180671692,0.30890440940856934,-0.4670364260673523,-0.19864435493946075,-0.879154622554779,0.5492550134658813,0.029502179473638535,0.3052993416786194,-0.06426510214805603,-0.3203915059566498,-0.7594689726829529,-0.3970735967159271,0.007300799246877432,0.09725410491228104,-0.07308933883905411,-0.766980767250061,-0.1562560796737671,0.20907974243164062,0.4225497543811798,0.18327049911022186,-0.04737026244401932,0.4298005998134613,-1.286655306816101,-0.1527399867773056,-0.35684844851493835,0.15472093224525452,-0.6577715277671814,0.9474183917045593,-0.8173854351043701,-0.5236527919769287,-0.9403615593910217,-0.325160413980484,-0.27026844024658203,0.29327893257141113,-0.22464068233966827,-0.13827259838581085,0.7145256400108337,-0.7368919849395752,-0.29789507389068604,-0.10077396035194397,-0.5878444314002991,-0.410601407289505,0.6906083226203918,-0.9186283349990845,-0.37707749009132385,-0.3683362901210785,0.020388776436448097,-0.45934703946113586,-0.46089547872543335,-0.3385208249092102,-0.8585638403892517,0.01819450408220291,0.6072417497634888,-0.9887656569480896,0.7454819083213806,-0.3570716679096222,-0.07600943744182587,-0.08202468603849411,-0.3917090594768524,-0.20173531770706177],[0.48029425740242004,-0.39391568303108215,-1.0292474031448364,-0.06920059770345688,0.5864459872245789,0.14895568788051605,-0.29314813017845154,0.3342798948287964,-0.6582028865814209,0.4172525405883789,-0.4261752963066101,-1.3855476379394531,0.3521760404109955,-0.06422574073076248,-0.6790372729301453,0.2451404184103012,-0.14208747446537018,0.41282957792282104,-0.6820275187492371,0.05636981874704361,0.07962663471698761,0.10002859681844711,0.27909836173057556,-0.11068044602870941,0.5859975218772888,-0.035386815667152405,0.10927131772041321,0.4977557361125946,-0.6502209901809692,0.21515901386737823,-0.20393045246601105,0.38839954137802124,-1.1106561422348022,0.5449866056442261,-1.1038355827331543,0.09021101146936417,0.4108569622039795,0.8034878373146057,-0.6056414842605591,-0.26756158471107483,0.04232023283839226,0.2795273959636688,0.3254038989543915,-0.0550900362432003,-1.2349181175231934,-0.18436890840530396,-0.05723007395863533,-0.32991909980773926,0.6677468419075012,0.03972753509879112,-0.04941456764936447,0.4237780272960663,-0.2582424581050873,-0.5278173685073853,0.2794921398162842,0.012939384207129478,-0.02821458876132965,0.12499187886714935,1.4786872863769531,0.007659282069653273,-1.0761932134628296,0.0855729803442955,-0.2652740478515625,-0.07397717237472534,0.09674601256847382],[-0.3068954646587372,-0.16112972795963287,-1.042230486869812,-0.7203686237335205,0.2696206569671631,-1.3156975507736206,1.2292908430099487,-0.18889231979846954,0.653206467628479,-0.08134422451257706,-0.3749372959136963,-0.7900885939598083,0.504314661026001,0.044421058148145676,0.08836392313241959,-0.2488217055797577,-0.853039026260376,-0.7543730139732361,0.08047069609165192,-0.05713183432817459,-0.6756990551948547,-0.01701989211142063,-0.34835895895957947,-0.8310635089874268,0.31124168634414673,-0.11695476621389389,-0.3977413475513458,0.9583213329315186,-0.3300666809082031,0.010367967188358307,0.39865145087242126,-1.011681079864502,-1.170296549797058,-0.017911212518811226,-0.6731311678886414,0.016064226627349854,0.06427095085382462,-0.12626878917217255,-0.13223524391651154,-0.6072037220001221,0.17857642471790314,-1.2535954713821411,0.38256382942199707,0.13898518681526184,-0.6164456605911255,-0.2694527804851532,0.004174077417701483,-0.2761922776699066,0.5030463337898254,-0.1222149208188057,-0.556476354598999,0.06213054433465004,0.033272456377744675,0.034790679812431335,-0.6737747192382812,-0.7717734575271606,-0.13826601207256317,-0.33928999304771423,0.6263852715492249,0.3439289629459381,0.926080584526062,-0.2692011296749115,0.051889512687921524,-1.540370225906372,0.06723267585039139],[-0.5228132605552673,-0.6018010377883911,-1.0074437856674194,0.9036851525306702,0.6871298551559448,0.49046066403388977,0.7244229912757874,0.4443112313747406,-1.675182580947876,0.218237966299057,-0.06809694319963455,-0.49771246314048767,-0.9871950745582581,-0.11068428307771683,0.13093002140522003,0.5604608654975891,0.4227486550807953,-0.002683548955246806,0.30788692831993103,0.05172738432884216,0.40800759196281433,0.9836744666099548,0.015412367880344391,-0.2063993215560913,0.5146704316139221,-0.06885380297899246,0.3465762138366699,-0.31175124645233154,0.2381782829761505,0.5358072519302368,0.16880397498607635,-1.0167452096939087,0.30998489260673523,0.6932164430618286,0.4038506746292114,-0.09882597625255585,0.22584757208824158,0.035576775670051575,0.607882559299469,0.19023165106773376,-0.3370555639266968,0.44931426644325256,0.7570769786834717,-0.3396638035774231,0.5141679048538208,-1.0167280435562134,-0.19964171946048737,-0.11022305488586426,0.5406163930892944,-0.18996812403202057,-0.1190090924501419,1.0586060285568237,-0.18723390996456146,0.24267572164535522,0.4892014265060425,-0.8167372941970825,-0.36344948410987854,0.6451016664505005,0.5289134383201599,0.7465802431106567,0.43478038907051086,-0.3485420048236847,0.07089071720838547,0.3868439197540283,0.3782367706298828],[0.8703798055648804,0.4826977550983429,0.29427364468574524,-0.10280640423297882,-0.634303867816925,1.139582633972168,-1.1145071983337402,0.012780611403286457,-0.6782149076461792,-0.26671290397644043,-0.020156078040599823,0.6729766130447388,-0.011991670355200768,-0.045945726335048676,-0.10160673409700394,0.30871039628982544,0.18942655622959137,-0.348126620054245,0.25569358468055725,0.035801298916339874,-0.6701877117156982,0.7078301906585693,0.23546665906906128,-0.3991929888725281,0.5858557820320129,-0.03681670501828194,-0.38331183791160583,0.12467237561941147,0.4130459427833557,-0.5723202228546143,-0.13205523788928986,0.06294815987348557,1.5061604976654053,-0.3695453405380249,0.47718000411987305,-0.4277779757976532,-0.5656850934028625,-0.36504560708999634,-0.6165474057197571,-0.5632358193397522,-0.1271318644285202,-0.19941949844360352,-1.133726716041565,0.03702330216765404,0.1077474057674408,0.5599777698516846,0.09744394570589066,-0.045765120536088943,-1.0081136226654053,0.038966111838817596,-0.565025806427002,-0.3177683353424072,0.15361134707927704,-0.4683365821838379,-0.4327557682991028,1.3606621026992798,0.45005613565444946,0.6117780208587646,-0.19328300654888153,-0.15170159935951233,-0.862816333770752,-0.09026608616113663,0.22148050367832184,1.0494762659072876,-0.11213923990726471],[-0.23567956686019897,0.37607890367507935,-1.3071072101593018,0.21083945035934448,0.9872843027114868,-0.42171621322631836,-1.0072344541549683,0.8062203526496887,-0.5973356366157532,-0.7115463018417358,0.01474873349070549,-0.0389457531273365,-1.1456987857818604,-0.06282179057598114,-0.13307394087314606,0.23982639610767365,-0.437794953584671,-0.795484185218811,-1.097996473312378,-0.08390474319458008,0.1589404195547104,0.2118966430425644,-1.003196120262146,-0.9137061238288879,-0.704216480255127,-0.040475212037563324,3.0022387504577637,0.5516775250434875,-0.19044573605060577,0.8262407183647156,0.8071867823600769,0.20268505811691284,1.0608583688735962,-0.28109216690063477,-0.001324010081589222,0.18663924932479858,0.15235301852226257,-1.2082186937332153,-0.1453818678855896,-0.6130096316337585,0.07450103759765625,-0.49794384837150574,0.07003603130578995,-0.13443927466869354,0.7230912446975708,-0.17959095537662506,-0.02505120076239109,0.05997730791568756,0.2740405201911926,-0.12402527034282684,0.2737535834312439,-0.25282958149909973,-0.0491320863366127,0.03598213195800781,-0.25318121910095215,-0.7345221638679504,-0.09628493338823318,0.02696377784013748,-0.4850013256072998,-0.5045188665390015,0.5046812295913696,0.1642541140317917,0.2262093424797058,-0.6218394637107849,0.6516366600990295],[0.13937973976135254,0.11939681321382523,-0.500704824924469,0.45696258544921875,-0.3401866555213928,0.13507971167564392,0.8329476714134216,-0.023896632716059685,-0.674677312374115,-0.550267219543457,-0.6580955982208252,-1.6111351251602173,0.5471447706222534,-0.10348187386989594,0.2849065959453583,0.12844185531139374,-0.892156720161438,-0.48165568709373474,1.0016733407974243,0.12382293492555618,-0.7464186549186707,-0.8266850709915161,0.9520381689071655,0.5319255590438843,0.8379244208335876,-0.05518290773034096,-0.9869020581245422,-0.3139136731624603,0.29886987805366516,0.17139045894145966,0.19349564611911774,-0.6282475590705872,1.1463669538497925,0.2717078924179077,-0.41305503249168396,-0.20229408144950867,0.24655824899673462,0.8537397384643555,-0.48551979660987854,0.6565391421318054,-0.3104919195175171,-0.2357724905014038,0.1298667937517166,-0.2369176596403122,-0.5960118174552917,1.0518625974655151,-0.11783112585544586,-0.02400732785463333,0.5004665851593018,-0.15214325487613678,-0.6828644275665283,0.3558068573474884,-0.11743265390396118,-0.25846895575523376,-0.5312630534172058,-0.2417834848165512,-0.08414596319198608,0.7576732635498047,0.854406476020813,0.5711910724639893,-0.03965068608522415,0.35991835594177246,0.29468464851379395,-0.14667768776416779,0.16774889826774597],[-0.335529625415802,0.05277242884039879,-0.9014792442321777,-0.13172583281993866,0.14717060327529907,1.2508625984191895,1.0848649740219116,0.5800356864929199,-0.42533862590789795,0.5380938053131104,-0.19334647059440613,-1.139294147491455,-1.0161283016204834,-0.04602116718888283,0.3644808232784271,-0.30879685282707214,0.09143149107694626,0.3295000195503235,0.22697418928146362,-0.028256429359316826,1.2928922176361084,0.3530845642089844,0.3281291425228119,-0.1200137585401535,0.9850199222564697,0.06288714706897736,-0.8590461015701294,-0.5521400570869446,0.15826930105686188,-0.3744560480117798,-0.033766090869903564,0.09449731558561325,0.1369217336177826,-0.6569378972053528,0.045578379184007645,-0.10286527872085571,0.08906833827495575,-0.5894860625267029,-0.1663413792848587,0.83861243724823,0.07202223688364029,0.7430624961853027,0.7955752015113831,0.050079382956027985,-0.47218456864356995,0.04597543179988861,-0.10415607690811157,0.45242130756378174,0.0908515676856041,-0.1518259346485138,-0.19614262878894806,0.8263071775436401,-0.2280033975839615,0.18800130486488342,0.1563945710659027,-0.7985012531280518,0.030978752300143242,0.5320271253585815,-0.08625616133213043,0.8750683665275574,1.3427760601043701,0.18317241966724396,0.3098946511745453,0.27803176641464233,0.3126516342163086],[-0.4198402464389801,-0.45352375507354736,1.0209072828292847,0.36597251892089844,0.607033908367157,-0.6452646851539612,0.07111745327711105,0.823961615562439,0.9835278987884521,0.16098594665527344,0.6506175398826599,1.0878355503082275,-0.12647759914398193,0.11190256476402283,0.6252890825271606,0.1742997169494629,0.013145072385668755,-0.379814088344574,-1.019440770149231,0.08541285246610641,0.5936877131462097,-0.138543501496315,0.17834410071372986,0.2250663787126541,-0.3883458077907562,0.004354814533144236,0.7369688153266907,0.4792554974555969,0.24157610535621643,0.5590293407440186,0.26153165102005005,0.49233707785606384,-1.033962368965149,0.3274158239364624,0.9195189476013184,0.4939054548740387,-0.2883223295211792,-0.3361452519893646,0.5068930983543396,-0.19680416584014893,0.2929779291152954,0.172454372048378,-0.45612791180610657,0.20142890512943268,0.7217569947242737,-0.15635214745998383,0.14072076976299286,-0.2981334626674652,0.3315756022930145,0.15726672112941742,0.37483885884284973,0.027217358350753784,-0.029593484476208687,0.6570437550544739,1.0869150161743164,-0.17836295068264008,-0.0714181587100029,-0.6010833382606506,-0.050712574273347855,-0.9909695386886597,-0.13499949872493744,-0.007418349385261536,-0.662218451499939,-0.642133355140686,0.3064497411251068],[0.5827251076698303,-0.27676400542259216,-0.23508138954639435,1.0972734689712524,-0.03843405842781067,0.6224831938743591,-1.0549015998840332,0.12058436125516891,-1.1243222951889038,-0.10749165713787079,0.1125149056315422,-0.5282961130142212,-0.6065657734870911,-0.07233031094074249,-0.6438871026039124,-0.9682251811027527,0.588082492351532,0.47337138652801514,0.1454591453075409,0.07762998342514038,-0.26876160502433777,-0.1147240474820137,0.713843047618866,0.8094097971916199,-0.3406616151332855,0.1078873723745346,-1.625233769416809,-1.0955779552459717,0.04620984196662903,0.33941778540611267,-0.11827468872070312,0.04052116349339485,0.0973062589764595,-0.4163689613342285,0.42271801829338074,0.08915898203849792,0.02100498601794243,-0.24255697429180145,0.024367576465010643,0.3341771066188812,-0.5122457146644592,0.7185709476470947,0.2202926129102707,-0.16521038115024567,-0.06441527605056763,0.6056031584739685,-0.13513466715812683,-0.3811230957508087,0.6450341939926147,-0.05791744962334633,0.38211408257484436,0.2995806932449341,-0.16717201471328735,-0.7513742446899414,0.16161508858203888,1.2924197912216187,0.11685876548290253,-0.34150245785713196,-0.10471127182245255,-0.2688092589378357,-0.0005742190405726433,0.17244058847427368,-0.5920237898826599,0.7993047833442688,-0.000817763851955533],[0.1500839740037918,0.3319610357284546,0.28429070115089417,0.446529746055603,-0.44010287523269653,0.41447949409484863,-0.08915762603282928,-0.37450116872787476,-0.030045099556446075,0.2510324716567993,-0.27618682384490967,-1.2626092433929443,-1.0913803577423096,0.12132590264081955,-0.0924692377448082,-0.06454671919345856,0.30403411388397217,-0.12554454803466797,-0.20495329797267914,0.020619191229343414,-0.9252680540084839,-0.7293132543563843,-0.18175432085990906,-0.6041030883789062,-0.6719672083854675,0.10850585997104645,-1.0540670156478882,-0.9994235038757324,0.2337307333946228,0.028443176299333572,0.3374970853328705,-0.5556601881980896,0.9601449370384216,-0.03272197023034096,-0.09010189026594162,0.2353184074163437,0.46529343724250793,-0.02468009851872921,0.021295417100191116,-0.07763445377349854,-0.20954462885856628,0.600287914276123,-0.7550585269927979,-0.15544477105140686,0.13354943692684174,0.3745270371437073,-0.10528960824012756,0.23488697409629822,-0.12214301526546478,-0.30087387561798096,-0.6181979775428772,0.16986913979053497,0.17198807001113892,0.4522481858730316,-0.19326281547546387,0.7615038156509399,0.3753727674484253,0.41157352924346924,0.3657677471637726,0.4874779284000397,0.7037815451622009,-0.050972700119018555,0.6358205676078796,0.7781322002410889,0.19734671711921692],[0.05010527744889259,-0.7509305477142334,0.1031617745757103,-0.8951749205589294,-0.433933824300766,1.0949352979660034,1.5069549083709717,-0.11469387263059616,-0.49668607115745544,0.11417664587497711,-0.049855321645736694,1.5393000841140747,0.6910684704780579,-0.09350311011075974,0.08112207800149918,0.7347292900085449,-0.14555002748966217,-0.27616947889328003,0.41073697805404663,0.07354746013879776,-0.2204751968383789,-0.3172074258327484,-0.18215058743953705,-0.06938376277685165,-0.2761078178882599,-0.07216856628656387,-0.5579192638397217,0.004960101563483477,0.9030110239982605,-0.3090943992137909,-0.21794557571411133,-0.6344965100288391,0.7092629075050354,0.08286560326814651,0.4517372250556946,0.707894504070282,0.2548327147960663,1.2043418884277344,-0.11314123123884201,0.6887354254722595,-0.2745819091796875,0.21907825767993927,0.4749055802822113,0.042231135070323944,0.010668624192476273,0.11967301368713379,0.008123747073113918,-0.3758946359157562,-0.5339758396148682,-0.07185352593660355,0.3009263575077057,0.0831160917878151,-0.3003048896789551,-0.4833349585533142,1.2511571645736694,-0.3278973698616028,-0.3090648353099823,-0.045745838433504105,-0.4515027105808258,0.19604560732841492,0.6416595578193665,0.448774516582489,-0.11083005368709564,0.20229321718215942,-0.14207860827445984],[0.29737231135368347,-0.2691500782966614,1.229587435722351,-1.500348687171936,-0.19958092272281647,-0.0075400215573608875,1.9310317039489746,-0.3147115707397461,0.7935336828231812,1.206958532333374,-0.03626992553472519,0.12360623478889465,0.6356404423713684,-0.037224963307380676,0.16834238171577454,0.45221227407455444,-0.5231896638870239,-0.25838765501976013,0.48686566948890686,0.030223408713936806,0.4784073233604431,0.29835274815559387,0.030264418572187424,-0.43220099806785583,1.0691171884536743,0.10556624084711075,-0.5198182463645935,0.6030577421188354,0.03508869558572769,-0.20191915333271027,0.17109787464141846,0.28725847601890564,-0.007458636537194252,0.4668259620666504,-0.35901424288749695,-0.9023510813713074,-0.1423427313566208,1.5069944858551025,0.21752017736434937,0.8467670679092407,-0.022049423307180405,0.2884257435798645,0.6421956419944763,0.27941012382507324,0.021281320601701736,-0.4763314723968506,0.08147887885570526,-0.09970641881227493,-0.5627660155296326,0.13447988033294678,0.3145160973072052,-0.5468451976776123,0.21675778925418854,-0.14213737845420837,0.9283084273338318,-0.259531706571579,0.28704702854156494,-0.7780356407165527,0.2561742961406708,0.7832118272781372,0.2848164737224579,0.03957435488700867,0.4446631968021393,0.18109048902988434,-0.24961790442466736],[-0.24373799562454224,0.1460835486650467,-0.620249330997467,0.49814456701278687,0.2898479998111725,-0.72798091173172,-1.0269882678985596,-0.2470954954624176,0.49053290486335754,-0.2656860649585724,0.4604604244232178,0.2189316600561142,-0.03738339617848396,-0.10737708956003189,0.17404043674468994,0.11505648493766785,-0.18307580053806305,0.17683467268943787,0.23292922973632812,-0.019096771255135536,0.7690979838371277,0.4107319712638855,-0.2581791877746582,-0.07897162437438965,-0.0967249795794487,-0.1234087198972702,1.729188323020935,-0.14826086163520813,0.6665497422218323,0.05572034418582916,-0.27213960886001587,0.6808990240097046,-1.485688328742981,-0.1813744753599167,0.6815488934516907,1.1523791551589966,0.5200641751289368,0.9733822345733643,-0.27643194794654846,-0.4400637745857239,0.04971443489193916,-0.36985570192337036,-0.5456996560096741,0.16931802034378052,-0.009592100977897644,0.11252741515636444,0.19596795737743378,-0.46715953946113586,-0.3239814043045044,0.08347950875759125,0.5327647924423218,-0.07740267366170883,0.12521842122077942,0.31768885254859924,-0.4586186707019806,1.7837951183319092,0.055312901735305786,-0.019627045840024948,-0.07194441556930542,-0.8354706764221191,-0.38777434825897217,0.4494776427745819,-0.17141954600811005,-0.33564189076423645,-0.05406772717833519],[0.39166954159736633,0.2069510966539383,-0.693492591381073,0.5947222709655762,-0.04758892208337784,0.13887536525726318,-0.2497306764125824,-0.13941973447799683,-0.4937971830368042,0.7257980108261108,-0.9387802481651306,-1.2273706197738647,0.04999289661645889,0.06222391501069069,-0.1916218400001526,-0.4745032787322998,-0.17413915693759918,-0.7898261547088623,0.08484961837530136,0.011542407795786858,-0.3822266757488251,0.9988990426063538,-0.939213216304779,-0.7495903372764587,-1.2541238069534302,0.036595046520233154,-0.7095494866371155,0.6781122088432312,-0.3171411454677582,0.1050090566277504,0.0688326358795166,0.024242090061306953,-0.19048558175563812,0.6020180583000183,-0.5289220213890076,0.06478609889745712,-0.09348659217357635,1.1711196899414062,0.027606703341007233,-0.9452836513519287,0.26480862498283386,0.8706980347633362,-0.2800244987010956,-0.009866423904895782,-0.6178314089775085,3.4086217056028545e-05,0.17948630452156067,0.41086432337760925,-0.604461133480072,-0.08122293651103973,-0.16038502752780914,-0.03389272466301918,0.07359391450881958,0.6452066898345947,0.9273484945297241,0.262178510427475,0.05453858524560928,0.38687664270401,0.2977808713912964,-0.5101602673530579,0.4000406563282013,0.10117815434932709,-0.030424518510699272,-0.5075601935386658,0.05957093834877014],[-0.1262964904308319,-0.32809385657310486,-1.0274968147277832,0.24098266661167145,0.4940265715122223,0.9481872916221619,-0.08941513299942017,0.3124966025352478,-1.0105143785476685,0.8959475755691528,-0.9348779320716858,-1.665671467781067,-0.6418868899345398,0.06365516036748886,0.26974737644195557,0.5538042187690735,0.07763611525297165,-0.08791470527648926,0.5738442540168762,-0.0026368186809122562,-0.28362396359443665,0.6831061244010925,-0.7959684729576111,-0.6656380295753479,-1.1836167573928833,-0.07525534182786942,0.08371530473232269,-0.049287959933280945,-0.3233812749385834,0.33308547735214233,0.8047762513160706,0.9455885291099548,-0.3303569555282593,0.1227085292339325,0.23971566557884216,-0.11281375586986542,0.9477055668830872,0.3396362066268921,-0.15129947662353516,0.0644993931055069,0.05924658104777336,0.3836210072040558,0.24768513441085815,0.15278777480125427,-0.12261305749416351,0.6130284070968628,0.06497350335121155,-0.04090907424688339,0.5886315107345581,0.04069728031754494,-0.575432300567627,0.1180063933134079,0.18202130496501923,-0.0647280365228653,0.41368070244789124,0.42111924290657043,-0.1869734227657318,0.8823748826980591,0.20948810875415802,0.22544348239898682,0.0653107613325119,0.34645405411720276,0.6203877329826355,-0.8631520867347717,0.677376925945282],[-0.2816663384437561,0.06391730159521103,0.13410142064094543,-1.0411804914474487,0.412007600069046,-1.8617793321609497,-0.7219319939613342,0.05746043473482132,1.4371598958969116,-0.710975170135498,0.553162157535553,1.567617416381836,0.7571289539337158,0.08590608835220337,0.09698067605495453,-0.49757182598114014,0.13181613385677338,0.25042957067489624,-0.13306236267089844,-0.0479436069726944,0.02148960903286934,-0.10741991549730301,0.12815077602863312,-0.36201268434524536,-0.5941737294197083,0.07255495339632034,0.30272793769836426,0.7292941808700562,-0.19502748548984528,0.6149052977561951,0.26855701208114624,0.24333126842975616,0.5070235729217529,-0.35869506001472473,-0.10432783514261246,0.05476559326052666,-0.10792437195777893,-0.015954621136188507,0.31441453099250793,-0.41098102927207947,-0.04276292771100998,-0.005246043670922518,-0.015880422666668892,-0.017871076241135597,0.2503747045993805,0.030610190704464912,0.18632790446281433,0.3139137923717499,-0.08198585361242294,0.26655158400535583,0.39523109793663025,-0.33033934235572815,0.05956071615219116,-0.059340547770261765,-0.39664745330810547,0.6457236409187317,0.02867787331342697,0.3684140741825104,-0.36485329270362854,-0.8243541121482849,-0.9771156311035156,-0.08512824773788452,-0.25133728981018066,-0.5062028765678406,0.12110692262649536],[-0.016558263450860977,0.77715665102005,1.009381890296936,1.2398258447647095,-0.17810390889644623,-0.07959992438554764,0.4489659368991852,0.29498064517974854,-0.502619743347168,-0.7076085209846497,-0.28836268186569214,-1.2487355470657349,0.2058754712343216,0.09636955708265305,-0.489082396030426,-0.0515284389257431,-0.5324287414550781,-0.09340298920869827,-0.43521547317504883,0.057321421802043915,-0.34796926379203796,0.9702752232551575,-0.72890305519104,-0.8257742524147034,0.20932194590568542,-0.0749431774020195,-2.314753293991089,-0.5531619787216187,-0.31104281544685364,-0.29216206073760986,0.4434325397014618,0.24763286113739014,0.784715473651886,-0.11770329624414444,-0.5495973825454712,-0.16817370057106018,0.1927378922700882,-0.5274919867515564,-0.28139474987983704,-0.12256599962711334,-0.24100445210933685,0.7428274750709534,-0.5026994943618774,-0.19847077131271362,-0.11188952624797821,0.029479816555976868,-0.13892468810081482,0.0051213703118264675,0.1588088423013687,0.026024598628282547,-0.33353960514068604,0.11499398946762085,-0.23585015535354614,-0.31936731934547424,-0.2037021666765213,-1.3265422582626343,-0.10629507154226303,0.3642090857028961,-0.022392090409994125,0.8320080637931824,-0.548057496547699,-0.04415975511074066,0.6361646056175232,-0.48627811670303345,0.41315603256225586],[0.09308184683322906,-0.24106399714946747,-0.9702016115188599,0.37717193365097046,0.07625531405210495,0.800464928150177,-0.8085717558860779,-0.09198735654354095,-1.0424407720565796,0.5326637625694275,-0.47606751322746277,-0.8441047072410583,-1.2017543315887451,-0.050181999802589417,-0.49029746651649475,0.11263764649629593,-0.2201184332370758,-1.2750160694122314,-0.12138410657644272,-0.07666010409593582,0.33954697847366333,1.4344630241394043,-1.0395221710205078,-1.3418164253234863,-0.3745726943016052,0.11991828680038452,-0.1718546599149704,0.8029613494873047,-0.04396171495318413,0.2725462019443512,0.5070785880088806,-0.2616572976112366,-0.10025014728307724,0.6602265238761902,0.06236259266734123,0.10226495563983917,0.6345318555831909,0.1301206648349762,-0.06815863400697708,-0.292872816324234,0.04996148496866226,0.49012428522109985,-0.30379894375801086,0.1060098186135292,-0.15671968460083008,-0.025749124586582184,0.09654839336872101,-0.01452678069472313,0.1455552577972412,0.12837529182434082,0.15799103677272797,0.18877743184566498,-0.02429223619401455,-0.4393588602542877,0.3542723059654236,-0.09419587254524231,-0.03926313295960426,-0.4599597156047821,-0.06914271414279938,-0.42873093485832214,-0.26277995109558105,0.16158239543437958,0.05396798625588417,-0.21777784824371338,0.3358228802680969],[-0.08415599912405014,0.6711899042129517,-0.7074155211448669,-0.38471660017967224,-0.4566171169281006,-0.7312167286872864,0.9459066390991211,0.4132983684539795,-0.811958909034729,-0.42882460355758667,-0.1400570422410965,-0.24271516501903534,0.07915427535772324,-0.024005116894841194,-0.021102523431181908,0.06575782597064972,-0.726455807685852,-0.4446914494037628,-0.16401980817317963,0.03542960807681084,-0.5308170318603516,0.2836495041847229,-0.6410655975341797,-0.68071049451828,0.039554085582494736,-0.08453967422246933,0.7355676293373108,-0.9488792419433594,1.0628318786621094,-0.06349688768386841,-0.41426998376846313,0.7338860034942627,0.9279463887214661,-0.19707530736923218,0.625402569770813,0.2085188925266266,0.19350355863571167,0.903121829032898,-0.10713794827461243,-0.47089555859565735,-0.17663803696632385,0.043422725051641464,0.2396630197763443,-0.39557120203971863,0.41671881079673767,0.14997068047523499,-0.27835193276405334,0.15149381756782532,0.24237477779388428,-0.4040307104587555,0.3173016309738159,-0.5959301590919495,-0.09610069543123245,-0.4593126177787781,-0.7505921125411987,0.08976663649082184,-0.01874612830579281,0.2563575506210327,-1.6021097898483276,-0.4728716015815735,-1.202122688293457,0.16636700928211212,0.4220247268676758,-0.654127836227417,0.031105810776352882],[0.023699719458818436,0.2349787950515747,0.3924247920513153,0.05748413875699043,-0.09180039912462234,-0.12552359700202942,2.528714656829834,0.13127608597278595,0.6332530379295349,-0.4079521894454956,-0.476218581199646,-0.7504755854606628,0.19264915585517883,0.041207730770111084,-0.0527917705476284,-0.46648308634757996,-0.41175171732902527,-0.45737171173095703,-0.8678725361824036,-0.11954957991838455,-0.5078507661819458,0.13252262771129608,-1.2774059772491455,-0.4436033070087433,0.15985895693302155,0.02744816243648529,-0.08216701447963715,0.8096498250961304,-0.47789353132247925,0.37965184450149536,0.46902501583099365,0.6542983651161194,-0.6556459665298462,0.02471870370209217,-0.3597567081451416,-0.15570813417434692,-0.23552773892879486,-0.6681500673294067,0.06981226056814194,-0.6867120265960693,0.22965902090072632,0.0387021079659462,-0.5685036778450012,0.042456578463315964,-0.0251754280179739,-0.11702200770378113,0.06085699796676636,-0.5624880790710449,0.05772224813699722,-0.04124978184700012,-0.269814670085907,-0.0724228098988533,0.06895718723535538,0.004108859226107597,-0.24583762884140015,-0.3587304353713989,-0.20481008291244507,-0.1385495513677597,-0.39178651571273804,-0.37239354848861694,-0.6523368954658508,-0.17299170792102814,0.5712444186210632,-0.4886564016342163,0.16007182002067566],[0.5423740744590759,-0.3082736134529114,-0.1555899679660797,0.49856850504875183,0.3262750804424286,0.9940338730812073,-0.7997235059738159,-0.09332285821437836,-0.3446149528026581,0.26511767506599426,0.014959732070565224,0.07734563946723938,-0.37727782130241394,0.07328227162361145,0.3788830637931824,0.019624225795269012,0.9817518591880798,1.1676887273788452,0.1606912910938263,0.030887600034475327,-0.032565440982580185,-0.09324497729539871,1.324099063873291,1.3455719947814941,0.2566080391407013,0.008102704770863056,-0.21369987726211548,-0.70649653673172,0.02209017612040043,-0.20293185114860535,-0.33507871627807617,0.4681521952152252,-0.09158236533403397,-0.2973349690437317,0.7467443346977234,-0.5408231019973755,-0.6205713748931885,-0.6021987795829773,-0.1589055359363556,0.26817572116851807,-0.17638705670833588,0.4124341607093811,-0.21506869792938232,-0.0726151391863823,0.2937672436237335,-0.1981872320175171,0.09223446995019913,-0.18199285864830017,0.08752598613500595,0.14365941286087036,0.042606420814991,0.11216475069522858,0.019161034375429153,-0.6344853043556213,0.48152056336402893,1.7209864854812622,0.42553287744522095,-0.10580067336559296,-0.18744967877864838,-0.5760306119918823,-0.2968231737613678,-0.12131964415311813,-0.666343092918396,1.5131540298461914,-0.45960110425949097],[0.6136024594306946,-0.053502023220062256,0.850709080696106,-0.16719499230384827,0.42006218433380127,-0.44446322321891785,1.2549798488616943,-0.3741261959075928,-1.115668535232544,-0.2316303700208664,-0.09170182049274445,-0.7647033929824829,0.39262646436691284,-0.11977579444646835,-0.6172583699226379,0.09025388956069946,-0.02595382370054722,0.05181991681456566,0.558930516242981,0.02351556532084942,-0.9012335538864136,0.4749864637851715,0.28550320863723755,0.5574730038642883,0.15956756472587585,0.09249238669872284,-1.610288381576538,0.2833082973957062,0.6065941452980042,0.05067050829529762,-0.1451018899679184,-0.9010595679283142,-0.6496410369873047,0.8367280960083008,0.21710021793842316,-0.2775002419948578,0.1146770715713501,-1.370378017425537,-0.5838854908943176,-0.8684239983558655,0.4285964369773865,-0.6965059041976929,0.027134031057357788,0.4904991090297699,-0.6735951900482178,-1.2537137269973755,0.3855871558189392,-0.6010968685150146,-0.12371826171875,0.2724696695804596,-0.8172070384025574,0.08892643451690674,0.3547123372554779,-0.8684015274047852,-0.42114323377609253,0.5740315318107605,0.38973382115364075,-0.5250086188316345,0.6253150701522827,-0.24941891431808472,0.3795771300792694,0.11566384136676788,0.0937671884894371,0.30428585410118103,-0.06037207320332527],[-0.4192138910293579,-0.02675868570804596,-0.6976121068000793,0.635748028755188,1.062360167503357,-1.9115830659866333,-1.1860711574554443,0.5033960938453674,-0.2899295389652252,-0.0442853681743145,-0.13840806484222412,-1.6165274381637573,-1.073057770729065,0.07758133858442307,0.8061227798461914,-0.15518154203891754,-0.3142557442188263,0.07288210093975067,0.26978546380996704,0.10768094658851624,0.1326986402273178,-0.13921190798282623,0.767296314239502,0.30344000458717346,0.7346231937408447,-0.059654269367456436,0.9324577450752258,-0.0822310745716095,0.46499550342559814,0.1580987423658371,-0.038413695991039276,-0.7967134714126587,-1.1398645639419556,0.11231286823749542,0.5020701289176941,-0.17140889167785645,0.006593749392777681,-0.19838234782218933,0.519719660282135,-0.23107726871967316,-0.11840429157018661,-0.5275784134864807,0.4973796010017395,-0.1894972324371338,0.21409225463867188,-0.40242210030555725,-0.3014792203903198,0.3097463548183441,0.520302414894104,-0.2555515766143799,0.2613450884819031,0.7350475788116455,-0.12366379052400589,0.4223858714103699,-0.46885550022125244,-0.6349987387657166,-0.21706020832061768,0.5466927289962769,1.2902053594589233,-0.09577895700931549,0.25431230664253235,-0.11477737873792648,0.008334231562912464,-0.5462301969528198,0.3120628893375397],[-0.02268487960100174,-0.17341077327728271,-0.9302608370780945,-0.14094485342502594,0.7290443181991577,-1.8087666034698486,-0.09839707612991333,0.3898511826992035,0.022697854787111282,-0.021686743944883347,0.06009149178862572,0.6113250255584717,0.18084973096847534,0.06506194174289703,-0.2274237424135208,0.595902144908905,-0.33903706073760986,-0.7691434621810913,-0.7818958163261414,-0.014862418174743652,0.2291661947965622,0.694430410861969,-0.3336637616157532,-0.38649752736091614,-1.3476738929748535,-0.0903158038854599,0.360382080078125,1.1985384225845337,-0.9858350157737732,0.09509845077991486,-0.09514796733856201,1.1253572702407837,-0.6194957494735718,0.8265520930290222,-0.19336220622062683,0.11049051582813263,0.1101074293255806,0.7307687401771545,-0.08942624926567078,-0.47054970264434814,-0.012802190147340298,-0.5160089135169983,0.16387516260147095,-0.0974523276090622,-0.18952248990535736,0.4760650098323822,-0.02355778217315674,0.26587796211242676,-0.16021829843521118,-0.018988171592354774,0.6305171847343445,-0.4190084934234619,0.2445145547389984,-0.022304225713014603,-0.5572484731674194,0.823956310749054,-0.1931687891483307,-0.21172599494457245,0.5773035287857056,-1.5166599750518799,-0.7780981659889221,-0.42647436261177063,0.3277590572834015,-0.36018794775009155,0.04342200979590416],[-0.1320585310459137,0.3853554427623749,-0.5192528367042542,1.396005392074585,0.11360491067171097,0.11062343418598175,-0.8924435377120972,0.1348692774772644,-0.02955891750752926,0.04600110277533531,-0.1100088357925415,-0.5596274137496948,0.45693156123161316,-0.11719371378421783,0.6791424751281738,-0.2718123495578766,-0.06828463822603226,0.38960665464401245,0.8925333023071289,-0.04988599941134453,-0.590955913066864,-0.5681214928627014,0.10639386624097824,0.44063133001327515,0.20942406356334686,-0.12323866784572601,-0.4810674786567688,-0.5050002932548523,-0.1865149289369583,0.00926201418042183,-0.2932329475879669,-0.041237086057662964,0.5893973708152771,-0.6897432804107666,0.15849758684635162,-0.49250632524490356,-0.6008946895599365,-1.0126656293869019,-0.3236757218837738,-1.08037269115448,0.15456120669841766,0.0950673520565033,0.19037790596485138,-0.11933218687772751,0.4698028266429901,0.2244158387184143,0.0107010742649436,0.18343377113342285,0.043121468275785446,0.15221869945526123,0.3470010757446289,-0.9855692982673645,0.13045430183410645,0.5116093754768372,-0.41760653257369995,0.6971548199653625,0.21112537384033203,0.29481688141822815,-0.8410404324531555,-0.6554526090621948,-0.5973019003868103,0.37454545497894287,0.04167938977479935,0.4187797009944916,-0.2638910710811615],[0.2166297882795334,-0.04420065879821777,0.9174991846084595,0.13302432000637054,0.004080153536051512,0.02345047891139984,1.0474075078964233,-0.08685316145420074,-1.3144539594650269,-0.16201411187648773,-0.4955802261829376,-0.5920125842094421,-0.8766998648643494,-0.05889880284667015,-0.042128391563892365,-0.6643127799034119,-0.27000030875205994,-0.10364113748073578,-0.6367420554161072,-0.12156764417886734,0.7026494741439819,-0.26516038179397583,-0.4663124084472656,-0.26595818996429443,0.4964754581451416,0.07081081718206406,-1.1976815462112427,-0.47861552238464355,-0.6982702016830444,0.4169537425041199,0.07939880341291428,-1.4775516986846924,1.2013884782791138,-0.05673034489154816,-0.5847054123878479,-0.2793676257133484,-0.3902047276496887,0.32956892251968384,0.28171831369400024,0.25226813554763794,-0.36142534017562866,0.2740415334701538,0.03211056441068649,-0.4240471422672272,0.005831018555909395,-0.016087079420685768,-0.2893684208393097,0.29562893509864807,-0.12128575891256332,-0.42181357741355896,0.12937353551387787,-0.32075902819633484,-0.35081547498703003,-0.9704092144966125,0.41285309195518494,-0.46044299006462097,-0.3906070291996002,0.699076235294342,1.1519136428833008,-0.19250670075416565,0.8435984253883362,-0.5135973691940308,-0.407930463552475,-0.06028467416763306,-0.20150281488895416],[0.004984197672456503,0.11087856441736221,-0.1282578408718109,1.3108316659927368,-0.16409289836883545,0.566531777381897,-1.7831991910934448,0.6726694107055664,-0.7878884673118591,-0.8035731315612793,-0.13776712119579315,-1.1353927850723267,-1.0711073875427246,0.05721599608659744,-0.36224690079689026,-0.6563606262207031,-0.0006249374127946794,-0.28007960319519043,-1.1472927331924438,0.07777529209852219,0.522257924079895,0.11464358121156693,0.05312606319785118,-0.3913947641849518,-0.49301183223724365,-0.03898521885275841,-0.20020820200443268,-0.8166292905807495,-0.21147160232067108,0.4087746739387512,0.5119518041610718,0.22868315875530243,0.2073204070329666,0.4427519738674164,-0.09634734690189362,-0.22046133875846863,0.2146780639886856,-1.4072468280792236,0.09800051152706146,-0.017543241381645203,0.008752783760428429,0.31424736976623535,0.07592631131410599,-0.05647929757833481,-0.35465577244758606,0.01107005961239338,-0.17985083162784576,0.11013036221265793,0.6288869976997375,0.05284299701452255,-0.3433009088039398,0.545383870601654,-0.20113937556743622,0.037366848438978195,-0.6474331617355347,-0.665460467338562,-0.2555218040943146,-0.01284567266702652,-0.4088785946369171,0.023301606997847557,-0.4941593110561371,0.18439295887947083,-0.05207022652029991,-0.4401875436306,0.4867028295993805],[-0.08559414744377136,-0.7449827194213867,-1.7843551635742188,0.03294634073972702,-0.038098473101854324,-0.6992995142936707,-0.5131350755691528,-0.22740547358989716,0.7379800081253052,0.47912800312042236,0.22948424518108368,0.9481974244117737,0.040929727256298065,-0.038345497101545334,0.8867003321647644,0.18688078224658966,0.5455535650253296,0.36123478412628174,0.14197736978530884,0.032090168446302414,0.8640658855438232,-0.8402467966079712,0.47010406851768494,0.8145260214805603,0.23026685416698456,0.1055213212966919,1.8710267543792725,-0.13471925258636475,0.4099040627479553,0.367318719625473,-0.20450858771800995,0.25174620747566223,-0.32233402132987976,0.4016265571117401,0.9724117517471313,0.17057771980762482,-0.3403792381286621,-0.29543760418891907,0.42316973209381104,-0.33808258175849915,-0.15278446674346924,0.20789486169815063,0.27304336428642273,0.03777758404612541,0.45703962445259094,0.19215263426303864,-0.09472867846488953,0.15869536995887756,-0.08279869705438614,-0.06439385563135147,0.20983992516994476,-0.20723818242549896,-0.02449931763112545,0.4462616443634033,-0.36150193214416504,1.2064071893692017,0.22305656969547272,-0.24213552474975586,-0.18114665150642395,-0.6251122951507568,-0.09471625834703445,-0.049899037927389145,-0.09176206588745117,0.8443911671638489,-0.16695939004421234],[0.3103345036506653,0.19383113086223602,0.8644496202468872,0.9740502238273621,-0.4032839834690094,-0.14128975570201874,-0.8876847624778748,-0.14501602947711945,-0.32525303959846497,-0.5424319505691528,-0.1385989785194397,-0.3550436794757843,0.09269093722105026,0.04137982428073883,0.1635630577802658,-0.0409335196018219,0.26807963848114014,0.17522074282169342,0.7461259365081787,-0.03302325680851936,-0.5836981534957886,-0.12922243773937225,0.43090832233428955,0.15114007890224457,0.6293787956237793,-0.03913791477680206,-1.6929348707199097,-1.1583635807037354,-0.5921504497528076,0.13878341019153595,0.2908247411251068,0.2765287160873413,0.763580858707428,0.2797318994998932,-0.0827600508928299,-0.573135256767273,-0.129769429564476,0.30966249108314514,-0.02631302922964096,0.07443560659885406,-0.5354425311088562,0.4629786014556885,0.46174201369285583,-0.5218226313591003,-0.18704722821712494,1.26753568649292,-0.4165126383304596,0.32697322964668274,1.0165637731552124,-0.31852850317955017,0.34900084137916565,0.14348024129867554,-0.4835885763168335,-0.5169731974601746,-0.7211617827415466,1.0083342790603638,0.1757025420665741,0.4831412136554718,-0.3027019798755646,0.10577961057424545,-0.7929704785346985,0.16585294902324677,0.06339484453201294,0.021025249734520912,-0.1390332281589508],[-0.2133883237838745,-0.21727102994918823,-0.6713668704032898,0.36308279633522034,-0.3432234227657318,1.4563541412353516,-1.312246322631836,-0.036708392202854156,-0.4115382432937622,0.2400420606136322,-0.24668791890144348,-0.37554988265037537,-0.1690370887517929,0.11803728342056274,0.875146210193634,-0.3927921652793884,0.6936138868331909,0.2088509052991867,1.3184781074523926,0.017215773463249207,-0.4597567617893219,-0.02348492294549942,0.8506782650947571,1.037601351737976,1.1539007425308228,-0.1203751340508461,0.09560656547546387,-0.5051658749580383,0.40818870067596436,-0.22328665852546692,-0.23769524693489075,0.39694538712501526,0.5387405753135681,0.14123673737049103,0.6426120400428772,-0.12940406799316406,-0.19863253831863403,0.4368749260902405,-0.7092692255973816,-0.03938748314976692,-0.1937648057937622,-0.042547568678855896,-0.1785793900489807,0.002325804904103279,-0.4878479242324829,0.7171403765678406,0.16258832812309265,-0.0510738343000412,0.28526851534843445,0.05363336578011513,-0.09070687741041183,-0.4320410192012787,0.21682292222976685,0.19741113483905792,0.22045840322971344,1.5061177015304565,-0.03777989745140076,0.11656855046749115,-0.4238561689853668,-0.747633695602417,0.27542591094970703,0.0859546884894371,-0.4326424300670624,0.8124685883522034,-0.07823239266872406],[-0.15337373316287994,-0.3527226448059082,0.10795121639966965,0.3352149724960327,-0.10709669440984726,1.0532053709030151,-1.3451600074768066,-0.2346501499414444,-0.3110906779766083,0.9314939975738525,-0.23836855590343475,0.941827654838562,0.481418639421463,-0.08464358001947403,0.9575801491737366,-0.0050959535874426365,0.5895197987556458,0.2185540646314621,0.526788055896759,0.08061717450618744,-0.23236502707004547,1.1025768518447876,0.5594672560691833,0.9987370371818542,-0.725599467754364,-0.10872654616832733,0.056373294442892075,-0.548539400100708,0.2690469026565552,0.09053795039653778,-0.16141751408576965,-0.021587852388620377,1.0647517442703247,0.024300701916217804,0.4940207004547119,0.21900126338005066,-0.6272971034049988,0.6438384652137756,0.5856591463088989,-0.8460417985916138,0.12403375655412674,0.5091065764427185,-0.7340748906135559,0.19088272750377655,0.2850906252861023,0.041949134320020676,0.26886114478111267,0.5006834864616394,-0.611573338508606,0.1303594410419464,-0.20638597011566162,-0.7244524359703064,0.33260637521743774,-0.13732291758060455,0.9416553378105164,1.485308051109314,0.16051843762397766,0.053623806685209274,-0.16262029111385345,-1.0449819564819336,-0.49976035952568054,-0.07176191359758377,-0.6284626126289368,0.6521115303039551,-0.3551206886768341],[-0.1232803463935852,0.023609695956110954,-0.3100116550922394,0.1425037384033203,-0.012342349626123905,-0.21736294031143188,-0.10040543973445892,-0.21060185134410858,-0.25436970591545105,0.24742913246154785,-1.0143502950668335,-2.065053939819336,-0.6335993409156799,0.11454102396965027,0.2028084546327591,-0.41920042037963867,-0.17181767523288727,-0.3620235323905945,0.6385353803634644,0.05972921848297119,-0.21347753703594208,0.42681705951690674,-0.6654598116874695,-0.6821655631065369,-0.5982224941253662,0.060577332973480225,0.15450601279735565,0.855932891368866,0.03749243542551994,-0.30308738350868225,0.4499060809612274,0.35982799530029297,0.13366612792015076,0.2816825211048126,-0.2089381366968155,0.07012898474931717,0.3036230802536011,-0.1457628756761551,-0.46199920773506165,-0.4547795355319977,-0.07266606390476227,0.10244087874889374,-0.6418944597244263,0.029657820239663124,-0.15068404376506805,-0.3959549069404602,-0.15962165594100952,0.23153294622898102,-0.5226029753684998,-0.1914403736591339,-0.6040236949920654,0.008630042895674706,-0.01777534931898117,0.4129408895969391,0.2468695342540741,0.33992549777030945,0.09547309577465057,0.4521256387233734,1.262522578239441,-0.23459333181381226,0.7278690338134766,0.1473146677017212,0.31687819957733154,-0.5219962000846863,0.07902465015649796],[-0.05593283846974373,-0.07256043702363968,0.8659791350364685,-0.7580127120018005,-0.31053006649017334,0.8417077660560608,-0.29662758111953735,-0.20700784027576447,0.871600866317749,-0.044557444751262665,0.45862722396850586,1.8794066905975342,0.8028280735015869,0.0633067712187767,-0.401128351688385,0.3808685839176178,-0.17119100689888,0.32210057973861694,-0.37663528323173523,-0.05333247408270836,0.09051872789859772,-0.03118101879954338,0.02535754255950451,0.5642962455749512,0.400585412979126,-0.021516233682632446,1.0014564990997314,-0.12704911828041077,0.3747172951698303,0.059252336621284485,-0.20352625846862793,-0.5371270179748535,-0.11455115675926208,0.2417653203010559,0.4124394357204437,0.4604605436325073,-0.12996500730514526,-0.823172390460968,-0.009798293001949787,-0.1905917376279831,0.13879552483558655,0.08961893618106842,-0.24079850316047668,0.1664169877767563,0.024898262694478035,-0.7718521952629089,0.06062370911240578,-0.11083173006772995,-0.48244741559028625,0.27270784974098206,-0.0020535592921078205,0.2262875884771347,0.3358512222766876,-0.06497731804847717,0.048452332615852356,0.01165568083524704,-0.06004203110933304,-0.7143946886062622,-0.7676447629928589,-0.10830163210630417,-0.9926269054412842,0.2077425718307495,-0.2899715304374695,0.17203465104103088,-0.36831891536712646],[0.034600142389535904,-0.012827383354306221,0.44172540307044983,1.0065022706985474,-0.1992092877626419,0.6926664710044861,0.4415408968925476,-0.1670120507478714,0.3845483064651489,0.644050121307373,0.3710239827632904,1.0935978889465332,-0.04594225808978081,0.0927124097943306,0.6842153072357178,-0.6153574585914612,0.19896937906742096,0.5953932404518127,-0.6988892555236816,0.05860590562224388,0.4296205937862396,0.1258823424577713,0.46701520681381226,1.023701786994934,0.17934972047805786,0.03907810524106026,-0.03788493201136589,0.0932067334651947,-0.3337220251560211,0.061247169971466064,-0.9078295230865479,-0.7049573063850403,0.4396015405654907,0.7866032719612122,-0.32430702447891235,-0.3861233592033386,-0.8262133002281189,-0.279083788394928,-0.2511567771434784,-0.7238423824310303,0.8011496663093567,-0.038680754601955414,-1.0632561445236206,0.7020178437232971,0.6531516313552856,-1.0005472898483276,0.7833291292190552,-0.7131314873695374,0.07854312658309937,0.801755964756012,-1.1999176740646362,-0.3072400987148285,0.41551804542541504,-0.09246143698692322,0.8114055395126343,0.4237073063850403,0.10740645229816437,0.9692637324333191,0.0898854061961174,0.18204380571842194,-0.7843238711357117,-0.26698383688926697,-0.612354576587677,0.7938631772994995,-0.560496985912323],[0.45854777097702026,-0.08091877400875092,0.21211495995521545,-0.008129119873046875,-0.5752807259559631,0.18807198107242584,-1.0720574855804443,-0.5105867385864258,-1.6156110763549805,-0.5887342691421509,-0.0031240389216691256,-0.006341301370412111,0.5399932265281677,0.08337080478668213,-0.20288991928100586,-0.6928622722625732,0.010806025005877018,0.484308123588562,0.24655373394489288,-0.023645829409360886,-0.8218461275100708,0.2667689323425293,0.6792847514152527,1.1977097988128662,0.351999968290329,-0.029924433678388596,-1.3458045721054077,-1.04508376121521,-0.8026676177978516,-0.27172133326530457,-0.33279111981391907,0.004834011662751436,-0.6647506952285767,-0.195210263133049,-0.6705771684646606,-0.32449910044670105,-0.10738345235586166,-0.2849634289741516,-0.055418964475393295,-0.058855898678302765,-0.6477858424186707,0.3518698215484619,-0.10927241295576096,-0.5844659805297852,-0.14767104387283325,-0.012192281894385815,-0.6104653477668762,-0.3787063956260681,0.8441463708877563,-0.5984927415847778,0.4771866500377655,0.026390187442302704,-0.22968101501464844,-1.3053268194198608,-0.6839757561683655,0.784739077091217,-0.23166994750499725,-0.5733627080917358,0.3691137433052063,-0.42373597621917725,-0.6596468091011047,0.16510902345180511,-0.3529626727104187,0.20448368787765503,-0.3209952712059021],[0.41851314902305603,0.4959409832954407,0.6673119068145752,0.2347768098115921,-0.3053501546382904,-0.36277538537979126,-2.026432991027832,-0.03853083401918411,-1.547922134399414,-0.6301582455635071,-0.0928196907043457,-0.6780129075050354,-0.5153436660766602,-0.07592179626226425,0.015756793320178986,-0.6623715758323669,0.03704095259308815,0.09875385463237762,-0.6756118535995483,0.07622082531452179,0.1757841855287552,-0.18338359892368317,-0.5014573931694031,-0.06531570106744766,-1.2093079090118408,-0.10167866200208664,-0.23728299140930176,-0.8858261108398438,-0.27326059341430664,-0.22172987461090088,-0.6014009714126587,0.027335016056895256,-0.24146974086761475,0.29964450001716614,0.146511510014534,-0.13113415241241455,-0.12789615988731384,-1.1620612144470215,-0.5222176313400269,-0.6963520050048828,-0.05441553518176079,-0.2643815577030182,0.40383490920066833,-0.34198692440986633,0.003241137368604541,-0.32737046480178833,-0.12517282366752625,0.07152163237333298,0.25049084424972534,-0.20236557722091675,-0.15761539340019226,-0.13809724152088165,0.007509742397814989,-0.2395140826702118,0.025625111535191536,0.45636963844299316,-0.24715489149093628,0.32471269369125366,-0.7274266481399536,-1.0529643297195435,-0.5709698796272278,-0.5018355846405029,-0.1351570338010788,-0.04692840576171875,-0.1733391135931015],[-0.07546664029359818,-0.18965084850788116,-0.27019840478897095,-0.02312767691910267,-0.07593955844640732,-0.06081690639257431,0.3480862081050873,0.20063155889511108,-0.01087191328406334,0.4803207814693451,-0.6690754890441895,-1.7638169527053833,-0.29022398591041565,-0.08585862070322037,-0.11040418595075607,0.6158868670463562,-0.8084015846252441,-0.36954814195632935,0.4353042542934418,-0.015547812916338444,-0.10878898203372955,0.7658008337020874,-0.17772969603538513,-0.27857479453086853,0.7176257371902466,-0.06957603245973587,-0.5336911082267761,-0.10469070822000504,0.22295597195625305,0.10943323373794556,0.7215490341186523,0.33029818534851074,-1.092599630355835,0.21626588702201843,-0.16787347197532654,0.17742310464382172,0.8831275105476379,-0.3560938537120819,-0.023761581629514694,0.0696212649345398,-0.0037765800952911377,0.38646745681762695,-0.010369895026087761,-0.32901740074157715,-0.29561713337898254,0.1684747338294983,-0.242886021733284,-0.19623027741909027,0.43663761019706726,-0.41107630729675293,-0.2813743054866791,-0.13222141563892365,-0.2898104190826416,0.19328802824020386,0.4619695246219635,-1.0826094150543213,-0.02197936736047268,0.4060713052749634,0.16658981144428253,1.269315242767334,-0.2554571032524109,0.7631816864013672,0.8482422232627869,-0.5165114402770996,0.670684814453125],[-0.18184994161128998,0.13534344732761383,1.1160086393356323,-1.1625452041625977,0.20670276880264282,-1.049242615699768,0.27657073736190796,0.5024190545082092,0.7303216457366943,0.06213579699397087,0.11093787103891373,1.075273871421814,-0.080001600086689,0.11186675727367401,0.9136306047439575,-0.20140694081783295,-0.19619785249233246,-0.47334855794906616,-0.7482728362083435,0.07944852858781815,1.2231333255767822,-0.37182095646858215,-0.5816381573677063,-0.08242223411798477,-0.5203157663345337,-0.06069942191243172,1.800956130027771,0.6201556921005249,0.24342045187950134,0.5750221610069275,0.5650470852851868,0.871223509311676,-0.26702505350112915,0.1378513127565384,0.764249861240387,0.4419059157371521,0.29600486159324646,0.006641240790486336,-0.5070048570632935,0.2340940535068512,0.6321512460708618,-0.7017496824264526,-0.18285953998565674,0.4010077714920044,-0.14647173881530762,0.6014503836631775,0.3440841734409332,-0.22997312247753143,0.04981641471385956,0.3740888237953186,0.10292387753725052,0.004171265754848719,0.21256189048290253,0.254347026348114,-0.1166328564286232,0.007486283313483,-0.03934669494628906,0.5909907817840576,-0.7695612907409668,-0.7616194486618042,-0.08367523550987244,0.03871313855051994,0.42611390352249146,-0.7016194462776184,0.6137190461158752],[-0.16833363473415375,-0.20517466962337494,-0.13699021935462952,-1.271928310394287,-0.05330982804298401,-0.7246425747871399,1.3255658149719238,-0.6342631578445435,0.505284309387207,0.11438454687595367,0.25231704115867615,0.269347608089447,-0.02987469732761383,-0.04250515252351761,-0.28099942207336426,0.2767468988895416,-0.539201557636261,-0.501110315322876,-0.0909954160451889,-0.04311077296733856,0.029979778453707695,0.022013405337929726,-1.1818979978561401,-0.8826143145561218,-0.1400640308856964,0.017017386853694916,-0.6888180375099182,1.4590904712677002,-0.07802653312683105,0.25860702991485596,0.42376455664634705,-1.083546757698059,-0.9429194927215576,-0.03380284085869789,-0.5259823799133301,-0.2554772198200226,0.22754748165607452,0.7251909375190735,0.2248169481754303,-0.08281204104423523,0.267539918422699,-0.4864899516105652,0.1151038259267807,0.16939999163150787,-0.6839439272880554,-0.47031763195991516,0.05345818027853966,0.2178105115890503,-0.8558768033981323,-0.06121162697672844,-0.02524086833000183,0.7059347033500671,-0.2728729844093323,0.4438546597957611,0.16911807656288147,0.26411888003349304,-0.09721461683511734,0.18997234106063843,2.369180917739868,-0.24454915523529053,0.2033451795578003,-0.17315757274627686,0.3239094913005829,-0.4508553743362427,0.04057148098945618],[0.3224104046821594,-0.16326074302196503,-0.09827587753534317,0.7990240454673767,0.32659754157066345,0.5273831486701965,-1.7577916383743286,0.1302139163017273,-0.11003253608942032,0.1503293365240097,0.0716058760881424,0.23982691764831543,0.004206771496683359,-0.08039765059947968,-0.06603343784809113,-0.47566109895706177,0.8804110884666443,0.8288928866386414,-0.09529545903205872,-0.015297351405024529,0.4545842409133911,0.8486615419387817,0.6073945760726929,0.9667127132415771,0.05833609774708748,0.05256140977144241,0.16593313217163086,0.0852498710155487,0.027668558061122894,-0.16151653230190277,-0.27034085988998413,0.9805837869644165,-0.662522554397583,-0.212429478764534,0.15984275937080383,-0.8424167633056641,-0.671359121799469,-0.13134954869747162,-1.2048687934875488,0.32936716079711914,-0.06359041482210159,0.24361255764961243,0.0475737601518631,-0.3300793766975403,-0.959514319896698,0.40480828285217285,-0.19199052453041077,0.08179379999637604,0.5221052169799805,-0.18236875534057617,-0.17544397711753845,-0.2812250256538391,0.12172530591487885,0.2372436374425888,-0.1861843764781952,1.5378170013427734,0.2639879584312439,-0.1498127579689026,-0.8816286325454712,-0.7062197923660278,-0.9155976176261902,0.1455121487379074,-0.7501249313354492,0.534004807472229,-0.3321671485900879],[-0.6219351291656494,-0.03126029297709465,0.045029155910015106,-0.5796850323677063,-0.5463169813156128,0.3250042796134949,1.7904369831085205,-0.7055937647819519,0.3506758511066437,-0.21090763807296753,0.035024091601371765,0.7097427845001221,-0.23015274107456207,-0.04154226556420326,-0.1056966707110405,0.5362991690635681,-0.24781537055969238,0.26768386363983154,-0.18672075867652893,-0.09301113337278366,-0.21948760747909546,0.5794766545295715,-0.5700181126594543,-0.5929187536239624,0.8389710783958435,0.09743984788656235,-0.33131060004234314,1.4963399171829224,0.37411364912986755,0.0573686920106411,-0.029936715960502625,-0.9331168532371521,-0.454240620136261,0.2965739965438843,0.00630772951990366,0.27539387345314026,0.6319751143455505,0.7350688576698303,0.24444076418876648,-0.6746825575828552,0.33913907408714294,0.4239628314971924,-0.3809267282485962,0.22227782011032104,-0.15084227919578552,-0.632722020149231,0.30598098039627075,-0.34636738896369934,-0.497798889875412,0.19019544124603271,-0.2054450660943985,0.2147270292043686,-0.011732357554137707,0.18714068830013275,0.4951479136943817,-0.7699654698371887,0.11735435575246811,-0.4113265872001648,-0.708063542842865,0.673042893409729,-0.1361442655324936,0.26731544733047485,0.5370004773139954,-0.40826770663261414,-0.09359053522348404],[-0.4471036493778229,-0.41585105657577515,-1.7556194067001343,-0.5381783246994019,0.48376476764678955,-0.88775235414505,-0.22667576372623444,0.055712323635816574,0.310956209897995,-0.42949366569519043,0.2880449593067169,0.7481637001037598,0.4724475145339966,0.09413743019104004,0.044224273413419724,0.08460848033428192,-0.5593030452728271,-0.5212357640266418,-0.023809947073459625,0.013873908668756485,0.01959952712059021,-0.7744672894477844,0.3738166391849518,0.05253758281469345,0.4162696301937103,-0.10117516666650772,0.9320821762084961,0.9021312594413757,-0.029204711318016052,0.3805086314678192,0.003257997799664736,0.47067201137542725,-1.0798468589782715,0.011513101868331432,-0.5101307034492493,0.14099442958831787,0.23752239346504211,0.5925346612930298,-0.3257710635662079,0.4303904175758362,0.33311548829078674,-0.4217331111431122,0.03646055981516838,0.14967402815818787,-0.5887116193771362,-0.40546107292175293,0.1084621250629425,-0.6046732068061829,0.5454050898551941,0.17390519380569458,0.1682737171649933,-0.3766501545906067,0.011857030913233757,0.3805406093597412,-0.3917984962463379,-0.7717642784118652,-0.3824758231639862,0.23964719474315643,0.7815243005752563,-0.6866856217384338,-0.6207857131958008,-0.05716027319431305,-0.5567106008529663,-1.222823977470398,0.011992755346000195],[0.6474488377571106,0.11604084074497223,-0.7599595785140991,0.12675723433494568,-0.08976956456899643,0.5006313920021057,0.21849901974201202,0.18778876960277557,-0.7632799744606018,-0.33125394582748413,0.059805527329444885,1.075289011001587,0.03131667897105217,0.039691489189863205,-0.06778945028781891,0.1590321958065033,0.6737600564956665,-0.1888885796070099,0.7503952383995056,0.11136185377836227,0.1204112321138382,0.4806242883205414,0.27469101548194885,0.2289702296257019,0.03388533368706703,-0.005414001643657684,-1.1030030250549316,-0.3590145707130432,-0.034804925322532654,0.2816241383552551,0.34187212586402893,0.73186856508255,0.23459231853485107,-0.3263917863368988,-0.17841479182243347,1.5459116697311401,0.7998543381690979,0.737747073173523,-0.185149684548378,0.04955797642469406,0.12319990247488022,-0.20513615012168884,-0.23139595985412598,0.42591622471809387,0.27289852499961853,-0.4408675730228424,0.2936525344848633,-1.1294605731964111,-1.3161535263061523,0.23454031348228455,-0.3204323649406433,0.7503856420516968,0.498089075088501,-0.5425214767456055,0.4436852037906647,0.6930761933326721,0.29507261514663696,0.8000453114509583,1.0326550006866455,-0.21488280594348907,-0.864571750164032,0.049929019063711166,0.2880929410457611,0.6077126860618591,0.5017529726028442],[0.542578399181366,0.029362928122282028,0.2667275071144104,0.41440385580062866,-0.5481441020965576,0.4946726858615875,-0.45075443387031555,-0.19699867069721222,-1.0064806938171387,-0.34183138608932495,-0.3907569348812103,-0.7492825388908386,0.441925048828125,-0.05708818510174751,0.018142642453312874,0.08513104170560837,0.021659761667251587,-0.062480174005031586,0.42785391211509705,0.11864029616117477,0.006639682687819004,-0.05192412808537483,0.154705211520195,-0.08642866462469101,0.7514906525611877,-0.009434384293854237,-1.071592926979065,0.610011100769043,-0.34339162707328796,0.004890989512205124,0.02049298956990242,-0.606523871421814,1.2711385488510132,0.22761428356170654,-0.9067546725273132,-0.9113717675209045,-0.325431227684021,0.0049387430772185326,-0.3163181245326996,-0.15295402705669403,0.08479738980531693,-0.4567026197910309,-0.683209240436554,0.019871093332767487,-0.9829877614974976,-0.012491999194025993,-0.047984179109334946,-0.05386217311024666,-0.028840620070695877,-0.20100107789039612,-0.3597071170806885,-0.29729193449020386,-0.08510604500770569,0.07509765028953552,-0.3032681345939636,-0.12064366787672043,0.062108948826789856,1.0284820795059204,1.3467546701431274,-0.24565231800079346,1.0296380519866943,-0.3967738449573517,-0.3894082009792328,-0.0349591039121151,-0.0780937522649765],[-0.0551428459584713,-0.2817157804965973,0.09132634103298187,0.3771345019340515,0.19958634674549103,-0.2609190344810486,-0.7342826128005981,0.30113905668258667,0.4474475085735321,0.2758742868900299,-0.05567680299282074,-0.08080857247114182,0.1308876872062683,0.09589377045631409,0.5366829037666321,-0.752470850944519,-0.008552280254662037,-0.5230632424354553,-0.09496994316577911,0.05450638756155968,0.4535703659057617,-0.08484649658203125,-0.6293050050735474,-0.5655980110168457,-0.7442343235015869,0.07060021907091141,3.3918778896331787,1.283892035484314,-0.4566793143749237,-0.5296319127082825,-0.09611012041568756,1.9512099027633667,-0.22789917886257172,-0.026544377207756042,0.3761284351348877,0.006601201836019754,-0.09300321340560913,1.3254468441009521,-0.004415698349475861,-0.2673550248146057,0.24415223300457,-0.19330646097660065,-0.25943225622177124,0.17898708581924438,0.4757571518421173,0.3228510320186615,0.06349475681781769,0.1973540037870407,1.198305606842041,0.1323680430650711,0.2975335717201233,-0.644267737865448,0.006285028997808695,0.40001821517944336,-0.0021007044706493616,0.7345610857009888,0.26768141984939575,0.2489086389541626,0.16437961161136627,-0.6558178663253784,-0.062310248613357544,0.09409218281507492,0.4292343854904175,0.12135595083236694,0.09056840091943741],[0.3743412494659424,0.3113515079021454,1.336634635925293,0.43688973784446716,0.06749735027551651,0.7310370802879333,-1.0310125350952148,-0.13910354673862457,-0.0053825401701033115,0.9337018728256226,-0.053532298654317856,0.4044760465621948,-0.9468573331832886,-0.03331376239657402,-0.26542991399765015,-0.17681732773780823,0.30945172905921936,0.12422492355108261,-0.5509403944015503,-0.06679314374923706,-0.007159376982599497,0.10898818075656891,-0.08959260582923889,-0.15784630179405212,-0.7442534565925598,0.05196822062134743,-2.0577948093414307,-0.7804292440414429,0.1611463725566864,-0.33426666259765625,-0.39275887608528137,-0.6521503329277039,1.5137593746185303,-0.05287717282772064,-0.034883007407188416,-0.6105932593345642,-0.05618946999311447,0.29890578985214233,-0.01617024466395378,0.46177807450294495,-0.18255409598350525,0.10148226469755173,0.520957887172699,-0.37112799286842346,0.5206493139266968,0.16234204173088074,-0.12775945663452148,0.7834479212760925,-0.050167329609394073,-0.1167486160993576,-0.4886491596698761,0.19381485879421234,-0.03176214173436165,0.11801362037658691,0.28384169936180115,1.0140669345855713,0.23152849078178406,0.3025902211666107,-0.9015939831733704,0.23460786044597626,0.07620600610971451,0.32552382349967957,-0.16571933031082153,0.5656757354736328,0.004012174904346466],[-0.26203468441963196,0.045843929052352905,-0.8653528094291687,-0.7065750956535339,0.40351226925849915,-0.9213729500770569,-0.007461125962436199,0.4596763253211975,0.9555662870407104,-0.2881142199039459,0.053061630576848984,-0.019108351320028305,0.44879233837127686,-0.0757603868842125,-0.5395822525024414,-0.022599784657359123,-0.29292988777160645,0.3892868161201477,-0.3258823752403259,0.11458250135183334,0.08014819771051407,1.001001000404358,-0.15842671692371368,-0.6347314715385437,0.09878601133823395,-0.06370629370212555,0.7499557733535767,0.37003380060195923,0.13163243234157562,0.22552160918712616,0.11495323479175568,0.8934169411659241,-0.8696507215499878,-0.4320705533027649,0.23630209267139435,-0.241341695189476,-0.482668936252594,-0.33126816153526306,-0.5575801134109497,0.05291660502552986,0.22517797350883484,-0.09612760692834854,0.5286199450492859,0.34373489022254944,-0.12272359430789948,-0.4257504343986511,0.3130042850971222,-0.15389062464237213,-0.43498775362968445,0.2764280438423157,-0.3212627172470093,1.0638161897659302,0.11622421443462372,0.6109159588813782,-0.6624467968940735,-0.028494862839579582,0.1998136043548584,-0.5602527856826782,-1.0094263553619385,-0.5754479765892029,-1.127838373184204,0.32705438137054443,0.09283266961574554,-0.3902004063129425,0.23528596758842468],[-0.04184630885720253,0.44460490345954895,1.0140008926391602,0.03147321194410324,0.12071633338928223,-0.5992447137832642,-0.556260883808136,0.1626785695552826,1.1614552736282349,0.06899002939462662,-0.31887590885162354,-0.30940020084381104,-0.19865168631076813,-0.031967636197805405,1.0507543087005615,-0.030710676684975624,-1.0556190013885498,0.017307763919234276,0.058576103299856186,-0.0811130553483963,1.3696142435073853,0.19243848323822021,-0.6999573707580566,-0.5929393172264099,0.9334660768508911,0.004151106812059879,0.4700227677822113,0.3655012249946594,-0.4610818028450012,0.224630206823349,0.44435739517211914,0.5449924468994141,-1.3143092393875122,-0.05500749498605728,-0.34569287300109863,0.6281137466430664,0.1922888159751892,-0.024662205949425697,-0.062362004071474075,-0.9473629593849182,0.5907086133956909,-0.11969799548387527,-0.7104513645172119,0.6417853832244873,-0.29153862595558167,-1.0828875303268433,0.618317723274231,-0.7660057544708252,-0.4954618811607361,0.31366896629333496,-0.26264670491218567,-0.026276173070073128,0.3691708743572235,0.47358787059783936,-0.13290563225746155,-0.6581999063491821,-0.2298189401626587,-0.1971125453710556,-0.23984311521053314,-0.40625128149986267,0.12057904154062271,0.08514200150966644,0.29918256402015686,-0.8925297856330872,0.3038698136806488],[0.21741561591625214,0.01126787532120943,0.29923877120018005,0.09856002777814865,-0.46549931168556213,0.10049831122159958,-0.9165424108505249,-0.16534338891506195,-0.9010564088821411,-1.1472523212432861,-0.2387426197528839,0.2743847966194153,0.19416730105876923,-0.05141307786107063,0.05886393412947655,-0.7028523087501526,-0.01300166267901659,-0.03804214298725128,0.18687036633491516,0.12134844064712524,0.22249165177345276,-0.3857516944408417,0.10096549242734909,0.32202577590942383,0.0007163992850109935,-0.05214245989918709,0.5262419581413269,-0.3949165344238281,0.28500741720199585,-0.18010812997817993,0.16262388229370117,-0.25865527987480164,1.1602699756622314,-0.011968652717769146,0.3882511258125305,0.14447957277297974,-0.20697680115699768,-0.2533770501613617,-0.015090755186975002,-0.07993945479393005,0.32049113512039185,0.47175082564353943,-0.28077083826065063,0.23975606262683868,0.14601533114910126,0.001026008278131485,0.2681899070739746,0.00808626413345337,-0.3332711160182953,0.16362766921520233,-0.0096500338986516,-0.0553215928375721,0.12439688295125961,-0.7147935032844543,-0.8658059239387512,0.3880297839641571,-0.1564486175775528,-0.22746403515338898,-0.9107507467269897,0.11015365272760391,0.7863329648971558,0.2394532561302185,0.19600242376327515,0.04643629863858223,-0.17344510555267334],[0.37038496136665344,-0.10680612176656723,0.5086610913276672,-0.2774965763092041,-0.12269396334886551,0.04401879385113716,0.067857526242733,0.2946745455265045,1.180275797843933,0.1408797949552536,-0.06080661341547966,0.10629019886255264,0.23828905820846558,0.010669806972146034,-0.22216887772083282,0.9225597381591797,0.015873143449425697,0.024163952097296715,-1.0937597751617432,0.09992516785860062,0.27500206232070923,-0.22012080252170563,-0.1541421115398407,-0.19301579892635345,-0.6389340758323669,0.10346440970897675,2.5907394886016846,0.728526771068573,0.9887788891792297,0.16349440813064575,0.09166545420885086,-1.0541183948516846,0.3170633316040039,0.17864929139614105,0.6889017224311829,-0.21656900644302368,-0.6772998571395874,-1.3763418197631836,0.35300880670547485,-0.49883702397346497,0.24231722950935364,-0.37404945492744446,-0.09681238979101181,0.3711698055267334,-0.005063737742602825,0.33830198645591736,0.3838159739971161,-0.0902593806385994,-0.4729485511779785,0.4118485450744629,0.06324224174022675,0.14647822082042694,0.3973933458328247,0.6361274123191833,-0.17736703157424927,1.6948884725570679,0.5958475470542908,-0.12863151729106903,0.5054602026939392,-0.4205394983291626,1.0399459600448608,0.17020800709724426,0.5452903509140015,0.7258768677711487,-0.02901649661362171],[-0.23527565598487854,-0.010750767774879932,0.29398313164711,-0.47397419810295105,-0.015308083966374397,0.043741948902606964,2.0999016761779785,-0.10947161167860031,0.7582048177719116,0.20570756494998932,-0.5152124166488647,-0.4515731930732727,0.4549044370651245,-0.027854928746819496,-0.1944567710161209,0.5358511805534363,-0.5386494398117065,-0.5638642311096191,-0.678110659122467,-0.1179351881146431,-0.6268474459648132,0.4914657771587372,-0.9054441452026367,-0.7115799188613892,-0.3796193301677704,0.07851605862379074,-1.6069653034210205,0.5394967198371887,-0.08867371082305908,0.44309553503990173,0.34929245710372925,-1.1062133312225342,-0.4641819894313812,-0.5998141169548035,-0.398440957069397,-0.14881663024425507,0.4192773699760437,-0.29760125279426575,0.39259955286979675,0.7744585275650024,-0.38526856899261475,0.45314809679985046,0.4708738923072815,-0.37859421968460083,0.00275738094933331,1.0130971670150757,-0.4840402603149414,0.9340835809707642,-0.21121156215667725,-0.3827612102031708,-0.02013317681849003,0.6540007591247559,-0.285889595746994,0.38802340626716614,0.03470916673541069,-0.9850054979324341,-0.07317488640546799,0.35127708315849304,0.46824583411216736,0.6432280540466309,-0.2674597203731537,-0.2324872612953186,0.5059873461723328,0.00800797063857317,0.1759675294160843],[0.20999577641487122,0.20024579763412476,0.7204478979110718,-0.8606427907943726,0.2963315546512604,-0.25577011704444885,-1.1159985065460205,0.19966250658035278,-0.5057216286659241,-0.8073925375938416,0.02879444882273674,0.550976574420929,0.023142537102103233,0.035326164215803146,-1.0596673488616943,-0.3036016523838043,-0.14957843720912933,0.472125381231308,-0.4447653591632843,-0.06210960075259209,-0.925493597984314,-0.6341976523399353,-0.3488631546497345,-0.349062442779541,0.2626422941684723,0.06257355958223343,0.9815484881401062,0.04243282601237297,0.19418656826019287,-0.13537843525409698,-0.10819084942340851,0.903849184513092,-0.005978300701826811,-0.3835877478122711,0.4867267310619354,0.15643538534641266,-0.2546166181564331,1.218042254447937,-0.3006519377231598,-0.06608635932207108,0.33554351329803467,-0.5386924743652344,0.1509760320186615,0.23035502433776855,-0.14570172131061554,-0.1962624341249466,0.17964227497577667,-0.19761696457862854,-0.43414783477783203,0.1935364156961441,-0.6221104264259338,-0.16717010736465454,0.03807516023516655,-0.7528001070022583,-0.30345454812049866,-0.6513553261756897,-0.14530916512012482,-0.24745652079582214,-0.5919088125228882,-0.2894132435321808,0.39763757586479187,-0.0626504197716713,0.05660359561443329,-0.06726536154747009,-0.23874512314796448],[0.04010593146085739,-0.8348921537399292,0.7749958038330078,-1.2090113162994385,0.25970515608787537,-0.2914247214794159,2.0902481079101562,0.08306340128183365,0.14717991650104523,0.9675240516662598,-0.2334439754486084,0.522936224937439,0.20190368592739105,-0.07472070306539536,-0.03625791519880295,0.9824790954589844,-0.5034232139587402,-0.2600536048412323,-0.40507906675338745,-0.03236088529229164,-0.30683058500289917,-1.001713514328003,0.581871747970581,0.2752338945865631,-0.5751733779907227,-0.09453621506690979,-0.1293504387140274,-0.3148820400238037,0.39751070737838745,0.4171290099620819,0.028033079579472542,-0.19466446340084076,0.34600499272346497,0.6789585947990417,0.30880245566368103,-0.1748685985803604,-0.6243136525154114,-0.11762870848178864,-0.39688271284103394,-0.09366864711046219,-0.04755164682865143,-0.4962252080440521,0.011750415898859501,0.25089317560195923,-0.16752247512340546,-0.24443478882312775,0.12577152252197266,-0.569765567779541,-0.21858850121498108,0.20485666394233704,0.15936054289340973,-0.23580418527126312,0.33566591143608093,-0.5035814642906189,0.8315286636352539,-0.5116291046142578,-0.17255130410194397,0.3315769135951996,-0.12709009647369385,0.024042850360274315,-1.1816452741622925,-0.07696929574012756,-0.17819899320602417,0.1779421865940094,-0.15906932950019836],[-0.4142132103443146,-0.785747766494751,0.24175454676151276,-0.8950293064117432,0.30683743953704834,-0.2723987102508545,0.09739643335342407,0.1261390596628189,0.04158442094922066,1.615149736404419,0.18213462829589844,-0.8667139410972595,0.13015924394130707,-0.10330110043287277,0.531737208366394,-0.09061980992555618,0.4551747441291809,0.18363146483898163,-0.1911211758852005,0.10821781307458878,1.171324372291565,1.7356842756271362,-0.13013219833374023,0.017081523314118385,-0.4872094392776489,-0.028343357145786285,-0.4695533215999603,0.26355835795402527,0.00975098181515932,0.3461371064186096,0.0376267284154892,-0.009436671622097492,-1.1517165899276733,-0.05685913562774658,-0.020899547263979912,-0.10835165530443192,-0.08225864917039871,0.4565697908401489,0.20449189841747284,-0.451434463262558,0.028955932706594467,0.7129195928573608,-0.3862955868244171,0.17857348918914795,-0.38268810510635376,-0.8325119018554688,0.1866249293088913,-0.5037335157394409,0.4041641354560852,0.07295731455087662,-0.30175793170928955,-0.9098314046859741,0.19635875523090363,0.23812328279018402,1.3212529420852661,0.15668778121471405,-0.21368373930454254,0.711982250213623,1.6326109170913696,-0.37138959765434265,0.1532307267189026,-0.1259581446647644,-0.5137442350387573,-0.09207118302583694,-0.10788635909557343],[0.0699155330657959,0.21226699650287628,0.24106378853321075,-0.3014066517353058,-0.565250039100647,0.5360763669013977,0.7504231929779053,-0.6755374670028687,-1.2571687698364258,-1.0324695110321045,0.21508613228797913,-0.4585987627506256,-0.37227481603622437,-0.03351418673992157,-0.5667486190795898,-0.2773132026195526,0.40478962659835815,-0.21014626324176788,0.2278008610010147,-0.08087264746427536,-1.0554720163345337,-0.3823654353618622,0.41107749938964844,-0.42337170243263245,0.30874884128570557,-0.025023391470313072,-1.4379193782806396,-0.5098634958267212,-0.45776206254959106,-0.8556080460548401,-0.4669530391693115,-0.907505214214325,-0.10054914653301239,-0.3528638184070587,-0.3253435492515564,0.015216146595776081,0.31712862849235535,1.0045084953308105,0.3887040317058563,0.23436737060546875,-0.3041260540485382,0.3259246349334717,0.10458952933549881,-0.3323618471622467,0.10543294250965118,-0.3116040527820587,-0.26874804496765137,0.13861708343029022,-0.13202446699142456,-0.234380304813385,0.31147798895835876,0.11367828398942947,-0.19962473213672638,-0.6442598700523376,-0.6620864868164062,-0.43066108226776123,-0.2169831246137619,-0.10646167397499084,0.1410747617483139,0.780193567276001,-0.1876777857542038,0.162785142660141,-0.13627228140830994,-0.3254283368587494,-0.30668532848358154],[0.25950756669044495,-0.17039407789707184,0.9795461893081665,-0.7287729382514954,0.0032668986823409796,0.5190421938896179,1.5819982290267944,-0.3774757981300354,0.9102045297622681,0.424296498298645,0.18687373399734497,0.32231608033180237,0.3339349627494812,0.0861930251121521,-0.4321877956390381,-0.1590099036693573,0.46178266406059265,0.3595004975795746,-0.12910933792591095,-0.03363095223903656,-1.062701940536499,-0.20175354182720184,-0.1652284413576126,0.18790970742702484,-0.04264971613883972,0.09447001665830612,-0.9465761780738831,0.026761777698993683,0.07860837876796722,-0.2581292688846588,-0.2953035235404968,-1.4515979290008545,0.5396828055381775,0.31537532806396484,-0.4692859947681427,-0.1957457810640335,0.08782490342855453,-0.28016597032546997,-0.032335832715034485,0.5077002644538879,-0.006619127467274666,0.5626434087753296,-0.2702280580997467,0.13472577929496765,0.25184085965156555,-0.729028582572937,0.13048234581947327,-0.376824289560318,-0.05498505383729935,0.24989144504070282,-0.40669557452201843,0.48083943128585815,0.3043471872806549,-0.0700034350156784,0.12597142159938812,-0.7723843455314636,0.382228285074234,-0.56524258852005,0.5313735604286194,1.1291828155517578,0.5573473572731018,-0.04957640543580055,0.06244656816124916,0.836209774017334,-0.34653809666633606],[-0.46217241883277893,0.3261321485042572,-0.44394245743751526,0.3178163766860962,0.27577707171440125,-0.2814778685569763,0.5359800457954407,-0.014852290041744709,0.7209637761116028,-0.4372691214084625,0.08052661269903183,-0.6560739874839783,-0.48155587911605835,-0.0025240746326744556,-0.4625215530395508,-0.22486858069896698,-0.7517967820167542,-0.40237265825271606,-0.5198093056678772,-0.06821396946907043,0.06092630326747894,0.39139094948768616,-0.8310622572898865,-1.1092218160629272,-0.23162660002708435,-0.040509264916181564,0.6610865592956543,0.6999952793121338,-0.3409936726093292,0.25968626141548157,0.9596933126449585,1.4742978811264038,-0.21517610549926758,0.05532556027173996,-0.6197454333305359,0.271786630153656,0.23814983665943146,0.6358299255371094,0.6350498199462891,-0.04463215917348862,0.14203748106956482,0.11009487509727478,-0.30314549803733826,0.2537224590778351,0.5884161591529846,-0.287080854177475,-0.18649007380008698,0.7338293194770813,-0.8199033737182617,-0.032458238303661346,-0.040850408375263214,-0.1303621083498001,-0.3269289433956146,0.7698759436607361,-0.3982169032096863,-1.5596489906311035,-0.15580853819847107,-0.3924207091331482,0.12059108167886734,0.405360609292984,0.8606115579605103,-0.3353366553783417,0.7844347357749939,-0.4713028371334076,0.499763160943985],[-0.044969432055950165,-0.7415739893913269,-0.23645295202732086,-0.12772464752197266,0.18288250267505646,1.368449091911316,0.9495952725410461,0.3096856474876404,-0.4905301034450531,0.22600266337394714,-0.3374738097190857,0.3675994277000427,-0.3351607620716095,0.10826214402914047,-0.056097835302352905,0.3431057333946228,0.39708754420280457,0.6152321696281433,-0.3768433630466461,0.00019604880071710795,0.10571662336587906,0.34178969264030457,0.33541086316108704,-0.19819948077201843,-1.2132030725479126,-0.024287886917591095,0.1892898678779602,-0.26269760727882385,0.00021816336084157228,0.14351926743984222,-0.3902101516723633,-0.7288306355476379,2.4413464069366455,0.3388093113899231,0.19007743895053864,0.5484540462493896,-0.057550475001335144,0.3987307548522949,0.3430863618850708,0.8992167711257935,-0.040919408202171326,0.7461337447166443,-0.3546306788921356,0.12080710381269455,0.7392606735229492,0.2278069406747818,0.142442524433136,-0.7604801058769226,-0.02569975145161152,0.06617744266986847,0.561057984828949,0.36291834712028503,0.0003178442711941898,-0.6302950978279114,0.5539049506187439,-0.6089398264884949,-0.2424931526184082,0.5340694189071655,-0.6103876233100891,0.4833492934703827,-0.08246482163667679,0.2205674946308136,-0.30164894461631775,0.20193752646446228,-0.171108677983284],[-0.0389372818171978,0.011657984927296638,1.0202765464782715,-0.7141786813735962,-0.13938865065574646,-0.7137819528579712,2.1605277061462402,0.18415331840515137,0.7675825953483582,-0.37781739234924316,0.43508675694465637,0.23012524843215942,-0.0038086988497525454,0.07609482109546661,-0.07819665968418121,0.3261278569698334,-0.1063084825873375,-0.5351070165634155,-1.2540634870529175,0.09259998798370361,0.07261449843645096,-0.9023916721343994,0.11655690521001816,-0.14655689895153046,-0.5194581151008606,-0.07105720043182373,0.09835325181484222,-0.20729076862335205,-0.06700687855482101,-0.5570927858352661,-0.5028781890869141,-0.8167237043380737,0.6046807169914246,-0.45967090129852295,0.11081203818321228,0.30990320444107056,0.2637215554714203,-0.04442398250102997,0.20571549236774445,0.161207377910614,0.03378953039646149,-0.38057801127433777,0.20118041336536407,-0.04875748232007027,0.19317002594470978,1.2814717292785645,0.09419029951095581,0.5842061042785645,-0.4428469240665436,-0.0031448795925825834,-0.11315194517374039,0.2581956386566162,-0.2777416706085205,0.46374860405921936,0.0854906290769577,0.17401956021785736,0.39065611362457275,0.31657588481903076,-0.6005414128303528,0.651660680770874,1.125656247138977,-0.28692328929901123,0.5966411232948303,0.3777823746204376,0.09693397581577301],[0.5592445135116577,-0.5884023904800415,0.7848276495933533,-0.836489200592041,-0.6011314392089844,0.6113680005073547,-0.31732118129730225,0.4871298372745514,-0.29232466220855713,0.9380435943603516,-0.22215475142002106,0.364507794380188,-1.0004825592041016,0.0756610557436943,0.3484088182449341,0.8470223546028137,-0.41536185145378113,-0.99122554063797,-0.6328330636024475,-0.036495108157396317,0.354745477437973,-0.2670963406562805,-0.2808218002319336,-0.42711880803108215,-0.21966715157032013,0.11317279189825058,2.9632084369659424,0.41067588329315186,0.45313507318496704,0.02343655377626419,-0.07937877625226974,0.6784921884536743,0.3305741250514984,-0.178073450922966,0.9528948664665222,0.6066957116127014,0.21873033046722412,-0.0023502870462834835,-0.0991462916135788,-0.2044462114572525,0.3988339900970459,-0.7187002301216125,0.0833386704325676,0.43779948353767395,0.25243785977363586,-0.14746016263961792,0.4559372365474701,-0.8648994565010071,